// The contents of this file are licensed under the Creative Commons
// Attribution 4.0 International License: https://creativecommons.org/licenses/by/4.0/
// Neural Network File Format by Kyle Julian, Stanford 2016 (generated on 11/27/2021 22:21:54)
7,5,5,50,
5,50,50,50,50,50,50,5,
0,
0,0,0,0,0,
0,0,0,0,0,
19791.091,0.0,0.0,650.0,600.0,7.5188840201005975,
60261.0,6.28318530718,6.28318530718,1100.0,1200.0,373.94992,
7.480950e-03,3.913650e-03,-1.323640e-02,-1.492680e-02,4.140340e-03,
-7.487808e-01,-1.795808e-02,-2.053622e-02,-3.391917e-02,-5.708934e-02,
8.461480e-03,-5.350150e-03,-1.464800e-02,1.112060e-03,-8.252000e-03,
9.927358e-01,6.557282e-02,2.735120e-02,7.852094e-02,5.935728e-03,
1.998853e-03,-9.219715e-04,-8.678053e-02,1.085019e+00,-2.925522e+00,
5.944851e-02,-6.808513e-01,1.902055e-01,-7.101177e-01,-2.012784e-01,
9.337180e-03,-1.612156e-01,6.351941e-02,4.061138e-01,-4.696798e-01,
2.253322e-02,7.796949e-01,4.521230e-01,-2.722500e-01,2.319094e-01,
1.166914e-01,2.847512e-02,1.728103e-01,2.479275e-01,3.970907e-01,
-2.630050e-02,1.358944e+00,-1.353928e+00,-3.729751e-03,3.272958e-01,
-3.592456e-02,-1.340785e+00,-1.102808e+00,1.231717e-01,-1.008950e-01,
2.461419e-02,2.805724e-01,2.027986e-01,6.449639e-02,1.649058e-01,
2.832466e-02,-1.997806e-01,1.321472e+00,-8.121189e-02,2.375701e-01,
-4.006896e-02,-4.759725e-01,-4.945748e-01,-2.944392e-01,1.863439e-01,
-3.408004e-01,2.836508e-01,2.437148e-02,-2.380623e-01,2.834009e-01,
-7.882615e-03,-5.223775e-01,8.933952e-01,-1.991143e-01,2.844146e-01,
9.286305e-02,-2.669484e-01,1.813465e-01,-3.817916e-01,-1.657624e-01,
-7.888150e-03,-5.566240e-03,-5.566970e-04,-7.485500e-03,7.052190e-03,
-1.412951e-02,-1.281984e+00,1.176928e+00,6.510329e-01,-5.820629e-01,
1.250872e-01,1.269577e+00,-1.901416e-01,6.862038e-01,-8.575959e-01,
2.093349e-02,-8.167874e-01,9.868455e-01,4.583008e-02,-3.586011e-01,
-3.215420e-03,4.715810e-03,-1.765930e-04,1.609790e-03,2.881960e-03,
-2.483218e-01,-2.291246e+00,2.334950e+00,1.206546e-01,-7.925795e-01,
6.328429e-03,6.890253e-01,-6.936793e-01,-5.713365e-02,1.232737e-01,
-1.264351e-01,1.228717e+00,-1.242836e+00,-7.544440e-02,-3.108939e-01,
2.007246e+00,-6.038566e-02,3.586702e-02,-2.748078e-02,1.276211e-02,
1.623876e-02,7.133916e-01,-1.506062e-01,7.081965e-01,-7.789704e-01,
1.425148e-01,-4.521609e-01,-4.412617e-01,4.898355e-01,1.367105e-01,
-1.842265e-02,1.346409e+00,-1.515425e+00,-1.281451e-01,6.168161e-01,
-1.590193e+00,-2.914655e-02,3.681129e-02,3.375022e-02,3.048524e-03,
-5.120840e-03,1.189790e-02,1.609650e-02,4.238740e-03,-1.752650e-03,
-5.658925e-02,2.229909e-01,3.890772e-01,-7.102032e-01,6.582285e-01,
6.771715e-02,-1.341374e+00,-2.613666e-01,2.659082e-01,-2.097919e-01,
8.794000e-02,-1.188568e+00,1.393448e+00,-6.864339e-02,4.652609e-01,
-1.109454e-01,4.193110e-01,-1.593270e+00,2.942858e-01,-3.165365e-01,
-1.160472e-01,-1.743961e+00,1.941804e+00,-9.845899e-02,5.290970e-01,
7.973961e-02,-6.867053e-01,-1.280833e-02,-4.979297e-01,6.989037e-01,
1.350410e-02,9.932839e-01,1.490042e+00,4.147728e-01,-3.647531e-01,
-3.385939e-02,-5.778762e-01,-2.480875e-01,-1.820401e-04,4.539176e-02,
4.217650e-02,-1.732947e+00,-3.640909e-02,5.078967e-01,-9.356314e-01,
4.478350e-02,2.497145e-02,-3.554468e-01,-2.071005e-01,2.073281e-01,
-3.924239e-02,1.355658e+00,1.980462e-01,2.030661e-01,-3.200569e-01,
-1.657022e-01,-1.277820e+00,1.069109e+00,-1.475833e-01,1.739744e-01,
-6.419710e-01,-2.520643e-03,2.872553e-02,1.695804e-01,1.972383e-01,
-2.849362e-03,-1.946729e-01,-4.044790e-02,-3.076859e-02,8.302782e-02,
-1.019310e-01,-3.349597e-01,-5.603795e-01,-5.942916e-01,6.073540e-01,
-2.328581e+00,-4.312496e-02,3.332924e-02,-3.489254e-02,8.667643e-03,
1.898474e-03,-1.157472e-01,3.451546e-02,-3.100175e-01,-1.716245e+00,
1.373209e-02,5.107435e-01,1.448869e+00,-1.960715e-02,-1.483211e-02,
3.399120e-03,5.978309e-01,3.213540e-01,3.518839e-01,-1.246138e-01,
-2.550650e-02,
-2.029366e-02,
-2.291530e-02,
1.226980e-01,
-5.629446e-01,
7.772463e-02,
1.982826e-02,
1.250803e-01,
-8.690186e-02,
-5.010722e-01,
-5.716180e-02,
2.150164e-03,
1.072971e-01,
1.013875e-01,
-1.436709e-02,
-3.819494e-01,
1.914526e-01,
-2.160220e-02,
-2.378788e-01,
-2.765569e-01,
1.169881e-01,
-1.425230e-02,
-1.364666e-01,
-3.378597e-01,
-5.067050e-02,
5.410662e-01,
4.972559e-02,
1.028350e-01,
-3.950792e-01,
-2.308065e-01,
-1.978940e-02,
-1.504962e-02,
4.420319e-02,
-4.052139e-01,
-4.299805e-02,
-3.331262e-01,
1.369688e-01,
-1.213425e-01,
1.012595e-01,
-2.016738e-01,
1.004399e-02,
1.684236e-02,
-3.872151e-01,
-1.409212e-01,
-3.176187e-02,
-1.048920e-01,
-5.684409e-01,
-7.468210e-01,
2.756893e-04,
7.779056e-02,
-2.286020e-02,-8.130538e-01,2.899870e-02,-1.668321e-01,6.223286e-01,1.434939e-01,2.472719e-01,-9.756102e-01,3.377453e-01,-2.808385e-01,1.288928e+00,1.445230e-01,-8.083443e-01,-8.803790e-01,-1.949055e+00,-2.985444e+00,-7.144053e-01,-2.429410e-02,5.292151e-01,-7.441415e-01,5.449272e-01,-7.008910e-03,7.573247e-01,-3.222410e-01,-1.183447e+00,1.622497e-01,-1.298122e+00,5.833706e-01,1.061473e+00,-1.875032e+00,-1.405840e-02,8.973166e-01,3.709004e-01,7.227647e-01,-1.645464e-01,5.341958e-01,-2.135608e+00,-9.299547e-01,-5.141457e-01,1.466644e+00,-1.526397e+00,-1.605275e+00,-1.392197e+00,3.086687e-01,-5.819923e-01,-5.690876e+00,-6.391713e-01,1.204311e+00,-5.636022e-01,-1.377444e+00,
-3.565620e-02,4.078951e-01,-3.553330e-02,-1.655208e+00,1.138758e-01,5.849281e-04,3.984729e-01,3.967730e-01,-3.588177e-02,-2.947896e-01,4.890829e-02,-2.319099e-01,4.193299e-01,5.900067e-02,7.853962e-02,-2.829473e-01,-4.355048e-01,6.730870e-03,-5.226916e-02,-3.581131e-01,-1.987879e-01,3.034400e-02,2.724262e-01,-1.498537e+00,-1.122827e-01,5.412546e-01,-4.277807e-01,-2.144553e-01,3.326369e-01,-5.617694e-01,-2.233490e-02,3.082331e-01,1.882785e-01,6.179232e-02,2.583796e-01,-1.640933e-01,-8.355012e-02,1.477227e-01,-4.011606e-01,-2.724456e-01,-2.448325e-01,2.996345e-01,-1.468444e-01,-1.704988e-01,-2.055380e-01,-2.047341e-01,-7.115175e-01,-4.231214e-01,-9.803528e-01,1.218925e-01,
2.082020e-02,-4.042070e-02,-5.774860e-03,-3.745120e-02,-3.205570e-02,-3.613590e-02,-2.515800e-02,-7.612120e-04,1.911020e-02,1.523460e-02,-5.452470e-02,-1.206730e-02,-1.696610e-02,3.554910e-02,-3.868600e-02,-2.812010e-03,-3.049810e-02,-3.046550e-02,-1.763510e-02,2.047680e-02,-8.752960e-03,-2.135990e-02,1.580150e-02,4.151330e-03,-2.887210e-02,-2.538090e-02,-4.628740e-02,-5.417680e-02,-8.398350e-03,4.050250e-02,2.166060e-02,1.371780e-02,2.234970e-02,-3.420610e-02,-4.786930e-03,-1.529540e-02,6.781930e-03,8.411130e-03,-1.720870e-03,1.886920e-02,-3.816520e-02,2.032780e-02,-2.017070e-02,3.173230e-03,-2.656470e-02,2.762750e-02,2.836990e-02,1.129480e-02,-5.004850e-02,7.162020e-03,
-1.931670e-02,-1.088394e+00,5.226890e-02,-3.011878e+00,1.957336e-02,-1.925304e-01,7.916628e-02,-1.104984e-02,4.326333e-01,-3.296129e-01,-1.103449e-01,-6.348871e-04,-4.122224e-02,-1.434408e-01,-7.385135e-01,-8.197889e-04,-3.295683e-02,4.351230e-03,-5.346789e-01,-2.791404e-01,5.615181e-02,6.296250e-04,1.890758e-01,-5.343418e-01,3.323991e-01,1.996573e+00,-4.076245e-02,4.001153e-01,9.168145e-02,-2.905412e+00,-8.777790e-03,-9.718559e-02,-1.459928e-01,-9.137713e-02,1.751226e-01,9.846765e-02,1.519425e-01,4.451853e-01,-4.492920e-01,1.208160e-01,8.931444e-02,-4.185431e-01,-9.266540e-03,8.039063e-03,6.192682e-01,-2.363961e-01,-5.072163e+00,1.097800e-01,-2.528736e-01,2.243709e-01,
-6.198790e-03,5.825032e-01,4.724530e-03,-8.896632e-01,-2.051016e-01,-1.529209e-01,-1.034405e+00,3.183827e-01,2.503944e-02,1.017269e+00,-9.008483e-01,-1.945031e-01,9.711634e-02,3.594918e-01,-1.902818e-01,-7.666170e+00,-1.924418e-01,1.636230e-02,6.247359e-01,-1.950356e-02,-1.554344e-01,-2.016330e-04,-1.890506e-01,5.770027e-01,-4.379049e-01,4.814315e-01,3.293959e-01,-8.579711e-01,6.181265e-01,4.823831e-01,-2.181330e-02,-4.193608e-01,3.240800e-01,5.785356e-01,2.956593e-01,1.787252e-01,-4.717569e-02,3.267245e-01,8.461386e-01,-2.271816e-01,1.203444e-01,2.676833e-02,-1.729544e-01,1.753245e-02,9.172432e-01,-7.906563e-01,-2.047648e-01,-1.030786e+00,-1.570601e-01,-3.121491e-01,
2.532580e-02,3.559143e-01,3.380270e-02,1.987867e-01,1.920043e-02,-2.438066e-02,-3.319401e-01,3.179994e-01,3.399245e-01,-1.193989e+00,7.101915e-01,1.218578e-01,-2.759747e-02,4.087805e-01,2.679195e-01,6.536305e-01,-2.794898e-01,1.948680e-02,4.122452e-01,-9.356573e-01,-9.687138e-01,3.862620e-02,-1.188590e-01,-4.429850e+00,-9.327652e-01,-1.494703e-02,1.788963e-01,-4.545972e-01,-6.341252e-02,5.256677e-01,4.147630e-02,-7.513571e-01,4.939739e-01,-1.636194e-01,-9.213917e-01,-5.758610e-02,2.849886e-01,-8.608281e-02,-7.331237e-01,4.258208e-01,-2.157910e-01,1.039291e+00,3.048511e-01,7.669446e-01,2.083811e-01,-3.221791e-01,3.472882e-01,-5.271786e-01,5.329765e-02,-1.015007e+00,
2.093390e-03,2.917123e-01,4.301450e-02,2.327958e-01,2.656492e-01,9.207847e-02,-7.557661e-01,-3.118886e-01,4.110115e-02,-8.672413e-01,2.464963e-01,1.579097e-01,4.970551e-01,-2.885096e-01,-3.769257e-01,-1.346936e-01,-1.467145e-01,6.476890e-03,-4.001801e-01,-1.141019e+00,3.797314e-01,-1.512220e-02,-5.764232e-02,-9.570571e-01,7.704893e-01,9.051944e-02,-2.380073e-01,7.009222e-02,2.566051e-01,1.143208e-01,4.307910e-02,-3.030005e-01,-2.164915e-01,-2.025985e-01,1.003915e-01,2.810054e-01,3.956201e-01,-9.201658e-03,-1.438652e+00,-4.210967e-01,-2.434605e-01,5.428158e-01,-1.128521e-01,-4.691799e-01,1.237584e+00,2.583741e-02,4.042451e-01,-2.582945e+00,-1.449406e-01,2.975756e-01,
-4.273800e-02,1.005860e-02,-9.032900e-03,-3.815990e-02,-4.518390e-02,1.351740e-02,-4.775250e-02,6.420360e-03,-2.537870e-02,3.392830e-02,-1.121080e-02,-1.086670e-02,2.302460e-02,1.735470e-02,-3.612240e-02,1.156800e-02,-3.587870e-02,6.525580e-03,1.951170e-02,3.956150e-02,-5.181500e-02,2.293300e-02,-4.289980e-02,-7.553220e-03,-5.278900e-02,-5.163040e-02,-4.549250e-02,-4.965360e-02,-7.199750e-03,-3.700070e-02,3.992640e-02,-3.987450e-02,1.370750e-02,2.260120e-02,-1.301660e-02,6.168910e-03,5.290430e-04,-1.626690e-02,-3.780880e-02,-3.211540e-02,2.622230e-02,6.504530e-04,-2.936570e-02,1.465340e-02,1.619450e-02,3.373920e-02,3.471460e-02,-1.056170e-03,-2.006890e-02,2.114590e-02,
-5.050800e-02,-1.100340e-02,3.068200e-02,-2.664990e-03,-2.858590e-02,-2.068790e-02,-1.654500e-02,9.718770e-03,-5.604210e-02,1.125650e-02,-8.133110e-03,9.935680e-03,-2.704700e-02,2.636830e-02,1.027810e-02,7.285180e-04,-2.986180e-02,-1.759660e-02,3.845730e-02,-1.456650e-02,-2.187030e-02,-1.979080e-02,-7.664240e-03,-5.103620e-02,-4.038550e-02,-3.284070e-02,-1.484070e-02,-1.560140e-02,-2.928950e-03,-6.184820e-02,-3.797110e-02,2.822580e-02,1.302480e-02,3.778020e-02,-5.975920e-02,4.735280e-03,-3.546770e-03,2.620510e-02,-5.394960e-02,3.369060e-02,-8.293260e-03,-3.617960e-02,-3.649730e-02,-6.127020e-02,-3.434820e-02,1.226290e-02,1.699640e-02,-4.671700e-02,-2.771950e-02,-3.590550e-02,
4.157930e-02,1.463243e+00,-2.993100e-02,-1.065996e+00,1.780144e-01,-3.496712e-01,6.833758e-01,-6.576439e-01,-5.104356e+00,6.012671e-02,1.971110e-01,9.786567e-04,4.396232e-01,-9.108585e-01,1.405891e+00,1.419050e+00,-1.152841e+00,-3.063460e-02,-1.526274e-01,2.308352e-01,9.024210e-01,7.812810e-03,-3.381981e-01,2.460366e+00,-4.841603e-02,3.649696e-01,2.760250e-01,-2.656569e-01,-9.832861e-01,-2.448442e-01,2.822980e-02,4.562570e-01,-4.156472e-01,-7.831172e-01,4.130481e-01,9.429556e-02,-5.049820e-01,2.122265e-01,-5.842495e-01,-8.820906e-02,-9.755036e-01,-9.524350e-01,-1.618124e-01,6.178123e-02,-2.961821e-02,-1.967990e-01,2.385810e-01,9.575698e-01,-3.534786e-01,-8.503436e-01,
-3.235430e-02,-9.505372e-01,-7.848490e-03,-9.155758e-02,-1.987107e-01,8.045509e-02,-1.863623e+00,6.133817e-01,4.497607e-01,-1.702179e+00,-1.546792e-01,8.302853e-01,-5.378689e-01,2.504202e-01,3.763067e-02,1.034112e+00,3.549153e-02,-2.385620e-02,-1.696982e+00,6.299347e-01,-1.551809e+00,-3.295770e-02,2.752850e-02,9.622615e-02,-5.303394e-01,5.634658e-02,6.457356e-01,-5.728505e-01,3.284041e-01,-7.335109e-01,-1.303310e-02,-1.663204e-01,2.320847e-01,-3.565403e+00,8.438729e-01,-1.632143e+00,-3.415130e-01,7.425467e-01,-1.428431e+00,-2.968886e-01,1.751068e-01,6.065709e-01,-3.523840e-01,-5.250140e-01,-5.253094e-01,1.201797e+00,5.053918e-01,-4.605639e-01,4.552363e-01,5.036857e-01,
-1.613770e-02,2.489680e-02,-1.055660e-02,-9.986840e-03,-3.408010e-02,-2.010550e-02,-4.008630e-02,-5.135790e-02,-4.284070e-02,1.263830e-03,1.443380e-02,-5.107740e-02,2.124700e-02,-3.232210e-02,2.137580e-02,-1.289880e-02,-4.667750e-02,3.523500e-02,-1.657350e-02,4.335010e-02,2.060410e-02,2.208090e-02,3.891640e-02,-1.841250e-02,2.162790e-02,-2.931160e-02,-3.595360e-02,-2.493960e-02,2.751470e-02,-4.820260e-02,-1.995850e-02,-4.772540e-02,-7.694530e-03,4.022460e-02,-3.743490e-03,-1.548610e-03,5.977440e-03,5.058960e-03,1.670380e-02,-4.082040e-02,-1.923740e-03,-1.343400e-02,-5.669000e-02,1.413220e-02,-4.615020e-02,1.863510e-03,-1.284450e-02,3.567570e-02,-1.850590e-02,-6.982170e-03,
3.655590e-02,-1.678569e-01,2.442100e-02,4.876830e-01,-4.192525e-01,-1.922184e-01,1.542543e+00,6.336731e-01,-5.211003e-02,8.007206e-01,-5.573204e-01,-1.855323e-02,1.876722e-02,3.060374e-01,1.374818e-02,8.521929e-01,9.644265e-02,4.604300e-02,-1.250177e-01,2.638423e-01,3.941731e-01,1.002750e-02,2.801823e-01,-8.743193e-01,1.548983e+00,-2.872861e-01,-5.149245e-01,2.602409e-02,-2.260525e-01,6.079364e-02,3.586280e-03,6.510684e-01,1.018812e+00,-1.356660e+00,-8.139351e-01,3.988605e-01,3.195247e-02,-1.728904e-01,-6.167261e-01,-3.305605e-01,1.109223e+00,1.441776e-01,-5.595925e-01,5.408537e-02,3.252362e-01,-5.278605e-01,2.473670e-01,-9.893772e-01,6.344274e-01,2.320503e-01,
1.043540e-02,-6.241811e-01,2.530940e-02,-5.950077e-01,-2.167283e-01,1.835149e-01,-1.225159e+00,1.326127e+00,6.002758e-02,-2.604306e-01,4.157010e-01,4.954111e-01,1.323309e+00,1.616509e+00,-1.648221e+00,-3.488115e+00,4.846075e-02,-9.754110e-03,-1.419778e+00,7.885329e-01,-5.738685e-01,-4.141770e-02,-1.836969e+00,-2.472577e+00,-1.697913e+00,2.521690e-02,1.310555e+00,-4.124275e-01,-1.392859e+00,-7.312556e-01,-2.532930e-02,-4.493252e-01,-1.029407e+00,-1.988416e+00,-1.747520e-01,-9.617073e-01,1.481240e+00,8.308862e-01,-6.267714e-01,-8.677658e-01,-5.455635e-01,1.018845e+00,-5.578436e-01,-8.361456e-01,4.626510e-01,6.465452e-01,5.905228e-01,-2.675525e+00,9.476936e-01,6.460165e-01,
2.134150e-02,1.466635e-01,1.791640e-02,5.602987e-02,-5.044794e-02,-3.873703e-01,-1.562240e-01,-1.107980e+00,-3.704781e-01,3.637586e-01,1.118289e+00,-1.322213e+00,-5.091714e-01,-1.247904e-02,1.582756e+00,2.258711e+00,1.495313e-01,-1.900140e-02,6.358446e-01,5.764479e-01,4.117295e-01,2.385920e-03,6.021514e-01,1.670337e+00,5.587139e-01,2.060231e-01,-1.040969e-01,-7.586229e-01,1.724748e-02,-1.252481e+00,4.288990e-02,-8.495288e-01,-7.350681e-01,-6.846496e-02,7.333122e-01,6.032518e-01,-8.632299e-01,5.277162e-01,5.606017e-01,-5.898872e-01,-3.801471e-01,4.158380e-01,1.594079e-01,-7.630592e-01,-9.038429e-01,-9.099735e-01,-7.831585e-01,7.690047e-01,6.974321e-02,-4.610596e-01,
2.853200e-02,-3.847509e-01,-3.366360e-02,2.450296e-01,3.335808e-01,-1.064989e-01,-5.955414e-01,4.175757e-01,1.074436e-01,5.561868e-01,1.080946e+00,1.321610e+00,-1.209908e+00,2.428429e-01,-9.336571e-02,-6.375130e-01,2.635486e-01,2.330770e-02,6.255327e-02,-7.015306e-01,4.835172e-01,4.765310e-02,2.754095e-01,9.467597e-01,6.147479e-01,-3.884644e-02,-7.283147e-02,-5.959680e-02,-2.746954e-01,-9.409409e-01,-1.050740e-02,3.369602e-01,8.257735e-02,9.668900e-01,5.686996e-01,2.382112e-01,2.740816e-03,-3.423992e-01,1.386355e+00,-1.083111e-02,1.095101e+00,4.791047e-01,5.479913e-01,2.330275e-01,8.229571e-01,6.258142e-01,-9.048267e-02,1.306668e+00,9.184619e-01,1.175803e+00,
-4.463450e-03,2.537138e-01,-1.159370e-02,-2.760931e+00,1.598058e-01,-5.989100e-03,2.504954e-01,-1.882947e-01,-4.322634e-01,2.747764e-01,-3.179906e-02,-2.956256e-01,2.318160e-01,-1.694061e-01,9.506634e-03,4.527130e-01,3.641194e-01,-2.117560e-02,4.794182e-01,-3.796484e-01,-2.329507e-01,-2.076900e-02,1.865316e-02,-1.677764e-01,-1.964545e-01,6.046982e-01,2.014212e-01,3.283182e-01,1.400948e-01,-7.328612e-01,1.967910e-03,-3.307068e-01,-7.351799e-01,1.268084e-01,6.651302e-02,2.969021e-01,2.285707e-01,1.048015e-02,6.544179e-02,-5.843091e-01,1.307593e+00,-7.743969e-01,-5.481034e-01,8.603959e-01,-6.057974e-01,-2.471877e-01,-3.264017e+00,4.715084e-01,-2.921770e-01,-5.403293e-02,
-1.814170e-02,-3.489172e-01,5.112080e-02,8.395218e-01,9.650376e-02,2.137034e-01,1.665265e+00,7.773401e-01,6.609316e-01,-3.825338e-01,4.181954e-01,1.185398e+00,-2.356344e-01,-8.462034e-02,3.396663e-02,6.395121e-02,2.916363e-01,-3.030940e-02,-5.800545e-01,-4.143467e-01,1.045664e+00,-2.804020e-02,-3.692499e-02,5.498472e-01,7.924059e-01,-1.202837e+00,-6.454127e-02,-4.296818e-01,-5.709548e-01,-5.181521e-02,1.594680e-02,5.267485e-01,2.751655e-01,8.631349e-01,1.596742e-01,-4.544627e-01,-3.935799e-01,7.103289e-01,6.966789e-01,-4.610915e-01,2.492825e-01,2.583297e-02,-4.680013e-01,4.122932e-01,-1.823632e-01,9.901811e-01,2.935535e-01,1.389234e+00,-2.047543e-01,4.864160e-01,
-2.167320e-02,-4.181075e-01,-8.891370e-03,-7.200060e-01,-3.883785e+00,1.402125e+00,-1.952894e+01,5.355902e-01,-4.930108e-01,-4.011019e+00,7.060202e-01,2.705492e-01,4.518369e-01,3.028993e-01,-2.051936e-01,-4.011454e-01,1.245443e+00,-2.116760e-02,-2.030713e+00,-1.646411e+00,-1.904775e+00,1.200300e-02,-8.046075e-01,-1.177593e+00,-1.207989e+00,8.830522e-02,-4.210463e+00,7.712244e-01,-1.783375e+00,-2.758079e+00,-2.261830e-02,8.429525e-01,-1.244683e+00,-2.579006e+00,-1.898439e+00,-2.003114e+00,1.378915e+00,-1.835516e-01,3.144294e-01,-4.595758e-01,3.378581e-01,-2.886757e-01,-2.388259e+00,-1.088130e+00,-7.128215e-01,6.759371e-01,-5.365868e-01,2.899664e+00,5.312939e-01,6.599758e-01,
1.826130e-02,-5.190270e-02,3.356530e-02,-3.302590e-02,-5.200650e-02,-8.760130e-03,-2.197050e-02,1.306310e-02,-2.495360e-02,-3.926050e-02,-2.369890e-02,-4.810630e-02,-3.993610e-03,-2.400570e-02,4.144970e-02,-3.166190e-02,-1.044340e-02,-5.030630e-02,-2.155900e-02,2.015040e-02,-1.265550e-02,3.646540e-02,2.243790e-02,-4.442030e-02,6.920370e-03,-1.847300e-02,6.323910e-03,-1.141740e-02,-2.567020e-02,-1.718330e-02,-3.020420e-02,-3.745560e-02,2.644570e-02,-2.629570e-02,-7.562550e-03,1.875510e-02,-4.007120e-02,-1.799180e-03,3.251820e-02,9.057380e-04,3.761130e-02,-4.977830e-02,2.257100e-02,1.661120e-02,-1.536080e-02,-3.902230e-02,7.372770e-03,-1.679860e-02,-2.455410e-03,-1.150210e-03,
8.930760e-03,1.905560e-02,4.996040e-02,2.055960e-02,1.610940e-02,-9.850130e-03,2.140980e-02,-2.917640e-02,-4.640930e-02,3.301570e-02,-3.455770e-02,1.138050e-02,1.623840e-02,-3.444560e-02,-7.319540e-03,-1.998200e-02,-2.761250e-02,-2.741970e-02,-5.100510e-02,3.973870e-04,-2.814350e-02,-6.757290e-03,1.532020e-02,1.791530e-02,3.247380e-02,-2.338730e-03,-2.815980e-02,-2.704500e-03,-2.917650e-02,-6.553210e-03,-4.362960e-02,-1.612800e-03,8.928750e-03,2.539640e-02,-3.183920e-02,-4.981090e-02,3.669710e-02,4.013540e-02,-2.046620e-02,2.477870e-02,-4.813630e-02,-1.040380e-02,-3.510040e-02,-5.297770e-02,-1.142860e-02,-3.157210e-02,-3.681000e-02,-2.351180e-02,-3.286020e-02,-5.468690e-02,
-2.771800e-02,1.957177e-02,-1.550750e-02,1.144394e-01,-1.362544e-01,1.653645e-01,2.760984e-01,3.883713e-01,-5.623114e-02,8.410185e-02,1.892276e-01,2.087962e-01,-3.436238e-01,1.114731e-01,-2.746825e-02,-1.289020e-01,2.485742e-01,-4.002690e-02,2.910926e-01,-7.742278e-03,-2.521914e-01,4.106680e-02,-3.158780e-01,-8.140990e+00,-3.614062e-01,-1.271807e-01,4.966321e-02,1.358756e-01,-3.454296e-01,-4.055190e-01,-8.838660e-03,-4.214190e-01,2.282152e-01,-6.433553e-01,-1.146850e+00,-1.527773e-01,5.499451e-01,-1.750434e-01,7.330508e-01,-9.908099e-02,-1.029625e+00,5.966122e-01,-1.258615e+00,2.598688e-01,6.971113e-01,-8.938655e-01,1.529430e-01,-1.490698e+00,-5.166283e-01,3.123763e-01,
9.626070e-03,-3.565199e-01,2.160890e-02,-3.659975e-01,-3.378862e-01,3.773273e-01,1.212524e-01,5.480718e-01,4.992936e-01,3.084814e-01,1.629823e-01,-4.730991e-01,1.296797e-02,2.590462e-01,-1.991490e-01,8.277239e-01,1.950352e-01,-5.991350e-03,-1.680405e-01,-8.280900e-01,-3.516629e-01,-3.127990e-02,2.519013e-01,1.418640e+00,1.476288e-01,3.068429e-01,-5.445127e-01,-3.791074e-01,-3.147178e-01,3.900619e-01,4.301080e-02,3.001692e-01,-1.143014e-02,2.475518e-01,-1.080079e-01,-5.065867e-01,-1.890399e-01,1.269673e-01,2.278180e-01,-2.318680e-01,-5.943688e-01,-7.838352e-01,-7.054195e-02,4.402366e-01,-1.016033e+00,-6.433248e-02,-5.160921e-01,4.208918e-01,7.029107e-02,6.095245e-01,
-2.478270e-02,-5.976287e-01,-1.144840e-02,-1.097105e-01,3.406871e-01,-7.536791e-03,-8.021043e-01,-1.045410e+00,-1.618802e-01,1.570844e+00,-8.665934e-01,1.657119e-02,-3.574736e-01,-8.977372e-01,-2.378240e-02,-5.209880e-02,6.994772e-02,5.788340e-03,3.230151e-01,6.511499e-01,7.116070e-01,2.572730e-02,8.237594e-01,2.605909e+00,1.289886e+00,1.787694e-01,7.754766e-01,-2.196476e-01,1.008769e+00,-9.993914e-01,1.938180e-02,-9.144446e-01,-1.376107e+00,2.041780e-02,5.113527e-01,-6.696440e-02,-6.504459e-01,-8.608944e-01,-2.089499e+00,-1.294912e+00,6.847740e-02,5.675565e-01,-3.942920e-03,-2.513587e-01,-9.041001e-01,3.051640e-01,2.850705e-03,1.832237e+00,-1.595534e+00,1.114117e-02,
-4.153700e-02,-2.702914e-01,-1.362910e-02,-2.033828e-01,-4.537546e-01,8.743139e-01,-1.630020e-01,-5.098620e-01,5.443651e-01,-5.240024e-01,-5.167136e-01,1.673880e-01,5.400263e-01,-8.529478e-03,-7.068805e-01,-1.449662e+00,6.165185e-01,2.402120e-02,3.604297e-01,7.237141e-01,2.708501e-01,3.209710e-02,7.882489e-02,-9.593902e-01,5.118768e-01,2.608580e-03,-3.863630e-01,4.127687e-01,-6.010717e-01,5.247477e-01,-1.985410e-02,-3.390349e-01,-3.846253e-02,-1.382874e+00,-1.940694e-01,-1.585111e-01,1.566721e-01,3.090300e-01,1.799063e-02,-5.006337e-01,6.508495e-01,3.679002e-02,-4.291315e-01,-3.962728e-01,-1.947897e+00,-1.057898e+00,7.591064e-02,3.101877e-01,-1.577686e-01,-6.270328e-01,
-5.302920e-02,-6.186727e-01,7.513090e-03,-8.585568e-02,4.253083e-01,8.597333e-02,-1.150680e-01,-2.389162e+00,-3.525944e-01,2.176850e-02,-1.224917e+00,-7.998850e-01,5.568209e-02,-1.592072e+00,-1.711250e-01,3.058943e+00,-2.592529e-01,2.583650e-02,2.967677e-01,-4.544226e-01,8.621777e-01,-3.259010e-02,1.179529e+00,-5.084190e-03,-6.263262e-01,3.025371e-01,-6.686614e-02,6.661529e-03,3.979910e-03,-1.291086e+00,1.112050e-02,-7.971800e-01,3.098906e-01,1.623103e+00,1.583477e-01,9.022027e-01,-4.025371e-01,-3.309205e-01,-1.039796e+00,8.443244e-02,-1.325964e+00,-1.219319e+00,1.491191e+00,6.497577e-02,-5.339611e-01,-1.979254e-01,1.225063e+00,5.295022e-02,-1.254192e+00,-1.427718e+00,
-2.961760e-02,-4.957671e-01,-1.528960e-03,2.661065e-01,-1.775204e+00,8.130594e-01,-2.449118e+00,6.560696e-03,-2.073370e-02,-1.198281e+00,7.210505e-03,4.737486e-01,-1.397253e-01,2.761935e-01,-2.495669e-01,-7.341101e-01,3.579193e-01,-4.062720e-02,-4.361458e-01,-8.100636e-02,-3.442448e-02,4.625740e-02,5.278348e-01,4.314860e-01,1.635737e+00,7.568952e-02,-2.052281e-02,6.575074e-01,-4.993050e-02,-3.461682e-01,-5.302130e-02,7.750753e-01,6.453987e-01,-1.066700e+00,-9.829345e-01,-1.708758e-01,3.179991e-01,1.651815e-01,4.469876e-02,7.875102e-02,9.763144e-02,7.660046e-01,5.791174e-01,1.111432e+00,3.580986e-02,4.588507e-01,1.131597e-01,7.139656e-01,-4.468251e-02,-3.338434e-01,
-4.267880e-02,6.863045e-01,-1.416970e-02,-4.498138e-01,-5.806848e-02,9.666850e-04,-1.322507e+00,4.959198e-01,-5.653107e-01,-5.727251e-01,9.147322e-02,4.086781e-01,2.499569e-01,-1.702317e-01,-7.295860e-02,4.536926e-01,2.623864e-03,-1.749030e-02,8.898246e-01,4.060254e-01,-3.765171e-01,-3.402130e-02,-1.567369e-01,-3.072844e+00,1.310134e-01,3.803720e-01,2.513028e-01,-1.178243e-01,-3.620438e-01,-2.093986e-01,4.559790e-02,-1.413086e+00,-2.813622e-01,6.258915e-02,-2.402059e-02,-6.441118e-01,-1.878256e-01,1.866185e-01,6.338110e-01,-3.604314e-02,-5.226638e-01,8.559918e-01,-1.601626e-01,-1.288548e-01,1.555402e+00,-4.546166e-01,-1.129886e+00,-6.157234e-01,4.776132e-01,-6.424869e-01,
2.830230e-02,-2.217147e+00,1.909840e-02,1.825580e-01,-2.228166e-01,-4.006600e-01,-2.709802e-02,-1.734857e-01,5.928041e-01,-2.606426e-01,-4.098380e-01,7.257120e-02,-7.415923e-01,-4.498813e-01,-2.206051e+00,-1.044534e+00,-1.502937e+00,-2.869930e-02,-1.091070e+00,1.292375e+00,-6.579170e-01,2.644100e-02,-6.058196e-01,-1.248035e+00,-8.335120e-01,-1.997427e-02,-4.332254e-01,-1.466068e-01,-5.964785e-01,-4.612933e-01,-1.738230e-02,1.666360e+00,1.210073e+00,3.192731e-01,-5.102894e-02,-5.683939e-01,4.411034e-01,-2.848736e-01,2.418118e-01,3.093539e-01,-5.049499e-01,2.686881e-02,5.211593e-02,-7.186623e-01,3.984933e-01,6.419609e-01,-3.390975e-01,1.513919e+00,-1.718002e-01,-1.600172e+00,
-1.857610e-02,-1.689363e+00,1.466680e-02,-9.158204e-01,-6.161587e-01,-2.039476e-01,1.383149e+00,1.447049e+00,3.386492e-01,-3.714516e+00,1.077380e+00,1.003935e+00,3.496369e-01,1.014969e+00,5.375943e-01,-2.622948e-01,-1.420213e-01,-2.189370e-02,1.167465e+00,-6.730727e-01,-4.143676e-01,1.803140e-02,-8.473299e-01,-3.032061e+00,-1.679236e+00,3.345982e-01,-7.289398e-01,1.004425e+00,-1.131595e+00,-1.700689e+00,-1.536200e-02,8.388727e-01,1.789336e+00,-3.628495e-01,-1.435205e+00,-7.038192e-01,-1.478120e-01,2.501836e-01,2.481918e+00,5.792195e-01,9.768777e-01,-4.225234e-01,-7.004985e-01,-7.732234e-01,1.547762e+00,7.955857e-02,2.171432e+00,1.456112e-01,1.093003e+00,8.123584e-01,
4.517400e-02,5.622222e-02,-4.594070e-02,4.683278e-02,-1.652277e-01,-9.813471e-01,-9.978313e-03,5.861432e-01,1.606347e-01,3.807837e-01,2.311107e-02,2.779331e-02,-5.922450e-01,5.115319e-01,4.673038e-01,-1.103470e+00,-1.531736e+00,2.204700e-02,4.558372e-01,2.350228e-01,-1.190961e-01,-2.368580e-02,-1.852815e-01,4.136659e-01,-4.799068e-01,8.806690e-02,-7.608175e-01,1.026314e+00,-3.328154e-01,-3.658285e-02,-2.630560e-02,-7.971300e-01,-9.916901e-01,-2.148689e-01,4.564216e-01,-1.777094e-02,-1.657429e-01,3.775908e-01,4.299924e-01,4.660394e-01,-9.049103e-01,4.825526e-01,9.022874e-01,1.855494e-02,1.067209e-01,-4.648894e-01,6.465698e-01,-4.732318e-01,-5.268555e-01,6.851776e-01,
-3.543760e-02,-7.425272e-01,-1.248750e-02,-2.934433e-01,-3.074409e-02,2.571294e-02,-4.188703e-01,-1.139921e+00,4.133853e-01,-1.586217e+00,3.104554e-01,-8.147669e-01,-8.179803e+00,5.799803e-01,4.820225e-01,-6.394150e-01,-4.088596e-02,-2.190500e-02,1.609370e+00,-1.790922e+00,-2.941054e+00,-1.028300e-02,2.663468e-01,-2.519617e+00,-8.567674e-01,1.701674e-01,-7.825911e-01,1.000834e+00,-6.795038e-01,-8.071381e-01,3.935080e-02,1.967562e-01,2.300567e+00,-1.456141e+00,-8.537604e-01,-1.862041e+00,-5.538588e-01,-3.057150e+00,9.713889e-01,1.992160e+00,1.784276e-01,-2.443621e+00,-5.794568e+00,5.712331e-01,-4.801823e-01,-2.046114e-01,-3.518028e-01,-1.207028e+00,5.008412e+00,-1.849973e+00,
2.951680e-03,3.220300e-03,-8.035320e-03,-5.111320e-02,-3.619980e-02,-5.185740e-02,4.332610e-02,3.166770e-02,-4.759850e-02,-4.288100e-02,3.592690e-02,-1.789070e-02,-1.567070e-03,-4.230470e-02,-2.549220e-02,-3.900320e-02,-4.842130e-02,-2.508590e-02,-3.738970e-02,-1.231950e-03,-4.169840e-02,2.919190e-02,-2.300110e-02,-3.336640e-02,1.116220e-02,-2.744680e-02,-2.455890e-02,-3.723520e-02,4.331540e-02,-2.130300e-02,-2.968710e-02,1.779440e-02,-2.393640e-02,1.584530e-04,2.392310e-02,3.427820e-02,1.570490e-02,-3.026520e-02,7.437930e-03,1.438170e-02,-4.546970e-02,-2.591690e-02,-8.631090e-04,-3.856280e-02,-2.227880e-02,-2.864610e-02,8.104720e-03,7.598230e-03,-3.719060e-02,-5.165720e-02,
-2.542580e-02,3.385750e-02,8.195040e-03,-4.374700e-02,3.390530e-02,1.100580e-02,-5.135050e-02,8.013550e-03,2.053700e-02,9.934820e-03,3.452540e-02,-8.852320e-03,-2.162950e-02,2.339080e-02,-1.256990e-02,9.300580e-03,-2.848490e-02,-4.490220e-03,3.267520e-02,-3.145700e-02,-2.107210e-02,-5.151130e-03,-5.123040e-02,-1.493560e-02,-5.266220e-02,-5.364570e-02,2.383580e-02,2.750180e-02,-3.564710e-02,2.394170e-02,-2.662310e-02,-1.962800e-02,-2.131030e-02,3.415840e-02,-4.213640e-02,1.165410e-02,-1.065450e-02,-5.408640e-02,-3.102450e-02,-3.437960e-02,1.156440e-02,3.073560e-02,-1.178550e-02,-2.510810e-02,-8.447980e-03,-1.284640e-02,-6.211360e-03,-4.827130e-03,-1.148550e-02,1.175700e-02,
-2.139030e-02,-3.114130e-02,2.764350e-03,-2.471270e-02,3.245400e-02,2.789320e-02,1.795100e-02,-2.002810e-02,-8.134620e-03,-3.725930e-02,6.992560e-03,-2.773500e-02,-4.567590e-02,-1.036260e-02,4.518860e-02,-3.664660e-02,-7.106940e-02,-1.067900e-02,5.802930e-02,4.080910e-03,7.685290e-03,-4.517130e-02,-3.183470e-02,-4.246630e-02,1.670980e-02,-2.654960e-03,-2.202650e-02,-6.661150e-02,-3.009760e-02,2.819990e-02,-4.667930e-02,-9.101070e-03,-4.921320e-02,-2.767580e-02,-3.776840e-02,-2.892040e-03,-4.155730e-03,3.115560e-02,-4.667090e-02,2.189870e-02,-3.389980e-02,-5.969540e-02,4.821680e-02,2.347570e-02,-3.349030e-02,-3.661420e-02,-4.859360e-02,-2.927620e-02,2.535690e-02,7.482030e-03,
-4.334540e-02,1.571148e-01,-3.344390e-02,-5.829273e-01,1.525490e-01,2.954216e-01,4.880695e-02,1.403471e+00,-2.567933e-01,1.409059e+00,1.546769e+00,-1.253423e-01,7.674536e-01,8.075261e-01,-9.163588e-01,-2.288782e+00,2.136801e-01,4.330680e-02,-1.746485e+00,4.895995e-01,-7.724720e-01,5.822810e-05,-1.248608e+00,5.795845e-01,-1.271140e+00,1.676988e-01,-5.090822e-01,-2.225594e-01,-2.287211e-01,-2.727574e-01,3.368520e-02,-4.399525e-02,7.567000e-01,-2.289267e+00,-1.440768e+00,-1.132746e+00,6.479518e-01,1.817994e+00,2.940627e-01,1.306845e-01,4.313493e-02,8.438327e-01,-1.201411e+00,1.331041e-01,3.944767e-01,-2.924862e-02,3.087824e+00,-3.118324e-01,8.195685e-01,8.094327e-01,
-1.777340e-02,-4.861543e-01,2.139820e-03,-1.125583e+00,-7.989499e-02,8.048522e-02,-5.325839e-01,-1.397056e-01,4.496940e-01,5.576413e-01,3.139843e-01,-8.984312e-01,1.132947e+00,1.414411e-02,1.440063e+00,-2.269434e-01,-4.716726e-02,5.515960e-03,7.041441e-01,4.211084e-01,-3.641155e-01,3.787110e-02,-1.030559e+00,-1.479098e+00,5.388494e-01,2.627824e-01,-1.678627e-01,5.555587e-01,6.328966e-02,-2.113482e-01,1.852250e-03,-1.165977e+00,2.841986e-01,1.193240e+00,-8.242203e-02,-1.283610e+00,4.943409e-01,3.457419e-01,-2.491087e-02,6.804492e-01,2.278318e-01,-2.076798e-01,-1.776919e+00,-3.124395e-02,4.233691e-01,7.089207e-01,-4.985052e-01,4.375058e-01,7.140736e-01,8.291317e-01,
-1.012330e-02,4.716142e-01,2.468720e-02,-5.095527e-01,3.467262e-01,-8.323476e-02,2.917383e-01,3.575001e-01,-8.571290e-01,-6.157957e-01,1.665471e-01,-1.186124e-01,-1.695350e-01,-1.786929e-01,-8.032291e-02,-5.494904e-01,5.012808e-01,-3.401510e-02,3.929547e-01,8.140219e-01,-1.068042e+00,3.268130e-02,-2.137483e-01,-1.075788e+00,-7.685204e-01,1.320805e-01,-1.229908e+00,-2.656904e-01,-8.755382e-01,3.139196e-01,1.031700e-02,-3.581797e-01,-5.192007e-01,3.117673e-01,-1.221142e-01,-7.017417e-01,1.055973e+00,3.238039e-01,-3.484054e-03,1.021211e+00,8.068461e-01,4.025954e-01,-5.439615e-01,-5.156151e-01,-1.913641e-01,-9.503472e-01,6.774025e-02,1.326676e+00,-1.420959e-02,-7.128329e-01,
8.011220e-03,-1.053936e+00,-4.803280e-02,-8.906824e-02,-5.358523e-02,-7.714944e-02,-1.063349e+00,-3.014904e-01,1.558789e-01,8.659756e-01,4.726648e-01,1.864808e-01,-1.590569e-01,9.137686e-02,5.371065e-02,1.143523e+00,-6.756076e-01,4.396760e-02,-5.849225e-01,-1.252189e-01,-3.074003e-01,2.058680e-03,-7.157674e-01,2.081429e+00,-1.050419e+00,-4.810540e-02,4.816299e-01,2.334476e-02,-4.137576e-01,-5.579196e-01,2.578780e-02,-1.363047e-02,3.073862e-01,-1.762611e+00,-2.839477e-01,-6.055137e-01,5.334862e-01,-9.857592e-02,1.993732e-01,4.738215e-01,-8.965539e-01,2.341235e-01,-1.281046e+00,5.878061e-01,2.591843e-01,-3.530921e-01,-1.784554e+00,-1.868127e+00,5.900631e-01,5.612961e-01,
-1.850770e-02,3.891586e-01,6.036590e-03,-7.740662e-01,4.226253e-01,4.977199e-01,-4.829861e-01,1.961443e-02,-7.494086e-01,8.860727e-01,-7.779615e-01,-1.326729e-01,4.903008e-02,-6.346815e-02,-1.079482e+00,2.836405e+00,1.196687e+00,3.391350e-02,2.330726e-01,5.098284e-01,-2.017639e+00,1.379850e-02,-1.288416e+00,1.517402e+00,-1.585567e+00,6.039405e-02,-3.072628e-01,4.343056e-01,-3.610680e-01,1.491156e+00,2.001290e-02,3.607765e-01,1.264323e+00,-1.624201e+00,-1.149197e+00,-1.103315e+00,-2.111781e-01,4.271781e-01,-4.866653e-01,-1.407617e+00,6.105510e-01,1.440233e+00,-1.365117e+00,1.026170e+00,-2.204894e-01,-2.170998e-01,2.244530e+00,-1.081374e+00,-1.245036e+00,-1.365395e-01,
4.203940e-02,6.127376e-01,2.656880e-02,-8.054119e-01,-5.316381e-02,-2.715683e+00,1.793489e-01,-6.354336e-01,-7.964076e-01,2.633927e-01,-4.469036e-01,-7.412737e-01,2.517284e-01,-5.000033e-01,-1.452786e-01,1.554950e-02,-1.099128e+00,-4.353960e-02,-2.171590e-03,2.154806e-01,-8.515730e-01,-3.017700e-02,-3.761190e-02,-2.523258e-01,2.185002e-01,3.537740e-01,-2.822963e-01,-1.338094e-02,1.977494e-01,5.083861e-01,1.710140e-02,-2.916055e-01,-2.705811e+00,-5.184790e-02,1.179297e-01,-2.854830e-02,4.626526e-01,-5.595643e-02,-2.599901e-01,-1.113613e+00,-3.241244e-01,3.840406e-03,1.229580e-02,-3.636654e-01,-1.232920e-01,1.441865e-01,5.941527e-01,2.122521e-01,-6.507719e-01,-5.010102e-01,
-2.371030e-03,1.285198e-02,4.110990e-02,9.403872e-03,2.696131e-02,3.223487e-02,-2.377826e-02,-4.776330e-02,-8.543094e-02,3.294947e-03,-3.961624e-02,-1.687031e-02,-1.334767e-02,-7.252938e-02,-4.229458e-02,3.041520e-02,-1.379597e-02,3.138160e-02,1.446197e-02,-4.019585e-02,-1.136816e-02,4.199740e-02,-7.092874e-02,1.494678e-02,3.585822e-04,-2.894638e-02,3.414013e-03,-5.155889e-03,-7.971688e-02,-4.482513e-02,-2.395620e-02,-4.338940e-03,-7.837823e-02,-3.897609e-02,-2.739129e-03,-4.447424e-02,-3.744801e-02,-3.264819e-03,6.055386e-03,-4.111861e-02,-7.340541e-02,2.058573e-02,-6.526815e-02,-5.908673e-02,1.895068e-02,-3.956774e-02,-5.724298e-02,-2.522876e-02,-6.385809e-02,-4.601368e-02,
-2.787720e-02,-3.336642e-01,2.982680e-02,-3.154710e-01,4.059684e-02,2.273403e-01,6.266361e-01,2.596315e-01,-3.583768e-02,-8.558965e-01,-3.340634e-01,-1.091504e-01,-2.564699e-01,4.311940e-01,2.344492e-01,-9.913761e-01,-1.472881e-01,1.016190e-02,-2.131523e-01,-1.859821e+00,6.328345e-02,1.044830e-02,2.308412e-01,9.423043e-01,3.818673e-01,1.131573e-03,8.660521e-01,6.255108e-01,8.186636e-02,-5.450356e-01,-2.144340e-02,1.544326e-01,-5.864200e-01,4.030198e-01,-6.567665e-01,5.762902e-02,2.358201e-01,-1.966812e-01,2.170243e-01,6.037954e-01,-1.736849e-01,-3.933161e-01,-3.508978e-01,-7.576573e-01,-2.682721e-01,5.695605e-01,1.250416e+00,-2.183833e-01,4.138697e-01,3.494335e-01,
3.074220e-02,-8.212483e-01,-2.410700e-02,1.062678e-01,-4.475181e-01,-1.614339e+00,-1.424598e+00,2.440609e-02,2.904732e-02,4.510579e-02,-4.832827e-01,-1.239936e-01,8.937401e-01,-7.313306e+00,7.963387e-01,-8.209049e-01,-4.969957e-01,2.976330e-02,1.843493e-01,1.448581e+00,-9.864815e-01,1.870950e-02,-8.110935e-01,-5.749818e+00,-3.239075e-02,5.620776e-03,4.635125e-01,-4.733302e-01,-1.618722e+00,-3.874008e-01,3.473300e-02,-3.091501e+00,-1.267315e+00,-1.679467e+00,-7.124965e-01,-4.930128e-01,5.856183e-01,9.964585e-01,-3.445554e+00,-1.711450e+00,-1.280027e+01,2.025541e-01,-7.504078e-01,-4.056447e-01,-2.264532e+00,-8.030410e-02,-1.355335e+00,-2.191670e+00,6.007079e-01,1.119285e+00,
1.374720e-02,-7.904212e-01,-2.715780e-02,-1.552423e-01,3.818077e-01,7.788286e-01,-1.269592e+00,1.851808e-02,4.847747e-02,3.162874e-01,-1.962417e+00,-5.766086e-01,-7.517210e-01,-4.794894e+00,-2.534337e+00,-7.153110e-02,1.298607e+00,5.467600e-02,7.266340e-01,1.113994e+00,2.702415e-01,4.629370e-03,-1.472365e+00,-3.700711e+00,-6.412131e-01,5.206813e-02,1.269045e+00,-6.443881e-01,5.291784e-01,-2.118768e+00,3.123050e-02,-8.047295e+00,-2.766177e+00,-3.540030e-01,-5.389677e-01,1.033353e+00,-3.751405e+00,1.142365e+00,-3.866997e+00,-3.414399e+00,-4.497977e+00,2.257674e+00,-3.060931e+00,-5.060105e-01,-1.762713e+00,-3.355010e-02,-9.780900e-01,-8.239058e-01,-1.073228e+00,1.348217e+00,
1.864870e-02,1.360630e-02,-3.466350e-04,1.028210e-02,-4.392380e-02,-3.505410e-02,-2.251690e-02,-2.444650e-02,-3.501990e-02,-3.656830e-03,1.212720e-02,-4.001940e-02,-3.301340e-02,-3.929550e-02,2.700320e-02,-4.008200e-02,-1.172980e-02,3.928220e-02,3.515330e-02,-1.988940e-02,3.114060e-02,-5.262020e-03,-3.610470e-02,-3.805240e-02,-4.366630e-02,4.726540e-03,5.997300e-03,-6.152830e-03,-8.717130e-03,-4.754040e-02,-4.736170e-02,3.028770e-02,1.516820e-02,-4.653560e-02,-1.936120e-02,-2.314960e-02,3.166600e-03,-2.214880e-02,-3.719990e-02,-2.914030e-02,8.386270e-03,2.768220e-02,1.898540e-02,3.909850e-02,-4.765560e-03,-3.346650e-02,-8.148270e-04,-4.231520e-02,-6.803520e-03,-4.031440e-02,
2.921980e-02,6.725748e-01,2.922650e-02,-5.300614e-01,5.000389e-02,-1.231953e+00,-2.883317e-01,-1.129014e+00,6.263676e-01,-3.802388e-01,-1.392033e+00,1.490211e-01,4.685750e-01,-1.000807e+00,-2.772308e-01,2.565309e-01,-1.440661e+00,-3.365080e-02,-5.671843e-01,-3.396609e-01,1.630936e+00,-1.316610e-02,8.317293e-02,-1.245017e-01,1.717006e-02,-2.696326e+00,2.886960e-01,1.137661e+00,4.783719e-01,2.642869e+00,-3.841740e-02,6.918374e-01,-5.330608e-01,5.149088e-01,2.576304e+00,6.794702e-01,-9.036557e-01,3.292924e-01,4.537232e-01,-6.382760e-01,1.802370e+00,-7.337180e-01,-3.890071e-01,3.160976e-01,1.304598e+00,5.583241e-01,3.769986e+00,1.117216e-01,1.222186e+00,9.989021e-01,
3.361420e-02,1.457296e-02,-4.859700e-02,5.876701e-01,2.395395e-01,5.282931e-02,8.410972e-01,-1.390120e+00,-3.114434e-02,-1.307004e-02,-6.507849e-01,-3.048370e-01,3.957238e-01,-7.231877e-01,-5.147972e-01,-4.065500e-01,2.613779e-02,-1.428920e-02,-3.179400e-01,-3.937747e-01,4.970029e-01,-4.182110e-02,-2.440328e-01,1.063720e-01,-6.300812e-02,-3.333819e-01,1.964236e-01,-2.386270e-01,7.108011e-01,7.182503e-01,1.631600e-02,-3.608131e-01,-4.465437e-01,2.399238e-01,2.051906e-01,2.121264e-01,-1.305128e-01,3.786179e-01,-8.537745e-02,-1.379497e-01,6.850410e-01,-3.993756e-01,4.431181e-01,2.594220e-01,1.157972e+00,-1.360241e-01,7.437124e-02,6.404203e-01,4.782515e-01,-6.451695e-01,
-4.307590e-02,-1.082798e-01,-1.128420e-02,-1.785208e-02,-3.250173e-01,2.898280e-01,-7.936417e-02,-2.369830e-01,1.834478e-01,-9.340844e+00,-4.924252e-01,7.928070e-03,-9.152014e-02,8.813801e-02,9.963095e-01,3.903555e-01,-1.453784e-02,-3.455680e-02,-7.794069e-02,-2.256972e-01,2.522907e-01,-1.569680e-02,-2.798346e-01,-7.859370e-01,-4.444799e-01,-7.912325e-02,2.197227e-01,2.621679e-01,-5.601528e-01,4.633767e-02,-5.020410e-02,-3.647823e-03,6.060651e-01,1.256851e-01,-5.539897e-01,4.021246e-03,-4.467030e-01,-3.776240e-01,4.194019e-01,2.858347e-01,-7.013788e-01,2.241345e-01,-9.195246e-02,-8.016847e-01,3.384383e-01,2.155161e-01,6.433488e-01,-8.731162e-01,1.935708e-02,-4.141422e-01,
1.307980e-02,-3.728810e-02,-3.332060e-02,-5.362570e-02,1.609950e-02,-2.134660e-02,-1.981000e-02,2.444750e-03,-1.290020e-02,-1.629440e-02,1.185390e-02,-1.663710e-02,-5.100590e-03,-3.045190e-02,1.514090e-02,3.952590e-02,-1.334140e-02,4.510220e-03,3.581000e-03,1.396780e-02,-6.710380e-02,-1.391480e-02,-2.184100e-02,-3.596310e-02,3.340300e-03,-2.952640e-02,-6.087620e-02,-4.760280e-03,-2.276710e-02,2.039050e-02,-2.300090e-02,-6.081620e-03,-5.655400e-02,-7.817720e-02,-4.148160e-02,-7.859070e-02,2.638160e-02,-4.924300e-02,-2.755950e-03,-3.672580e-02,1.596870e-02,-1.623390e-02,-1.227630e-02,-4.535200e-02,2.355390e-02,1.441620e-02,-6.811240e-03,4.148710e-02,4.273600e-02,1.426400e-02,
6.829772e-02,
2.647917e-01,
-1.704290e-02,
1.142232e+00,
3.822820e-02,
-1.207317e-02,
-4.254058e-01,
-1.694360e-02,
-1.274680e-02,
-1.448422e-01,
-5.781760e-02,
-1.920430e-02,
-1.002461e+00,
1.052688e+00,
-7.777346e-01,
-1.196911e+00,
9.171821e-01,
-1.078901e+00,
9.355130e-01,
-1.413390e-02,
-7.060450e-03,
2.456979e-02,
-5.053752e-01,
-6.100209e-01,
1.131707e-01,
-8.322701e-01,
-1.042691e+00,
-1.244285e-01,
5.526817e-01,
6.761974e-01,
-4.691355e-01,
1.228098e+00,
-6.278660e-03,
-1.832330e-02,
-5.104120e-02,
6.470845e-01,
-9.537680e-01,
5.831122e-01,
1.179598e+00,
6.630510e-01,
-1.384806e-01,
-1.758628e-02,
-7.246236e-01,
9.996866e-02,
-2.077468e-01,
-6.727090e-03,
6.428118e-01,
1.931845e-01,
2.978372e-01,
-1.940010e-02,
1.628411e+00,1.917074e-01,3.082810e-02,6.756142e-01,-6.139637e-01,4.942516e-01,3.096371e-01,-3.999820e-02,-5.767640e-03,-2.672271e-01,6.528770e-01,-4.605360e-02,-9.051607e-01,2.747189e-01,-2.071724e-01,-3.699613e-01,-3.104806e-02,-5.872952e+00,8.327760e-01,3.841300e-02,3.479040e-02,7.942607e-01,-9.092868e-01,8.699571e-01,-3.479421e-01,1.316289e+00,7.804076e-02,1.229636e+00,-4.211265e-01,-4.567298e-01,1.123212e+00,-1.570924e+00,4.707410e-02,-3.986910e-02,-4.455830e-02,-4.843945e-01,3.574750e-02,-9.078972e-01,8.096696e-01,3.915320e-02,6.537245e-02,4.933863e-02,7.004662e-01,-2.973534e+00,5.834337e-01,-2.983180e-02,-5.783232e-01,-7.629693e-01,9.393372e-01,1.851180e-02,
2.272290e-01,4.572407e-01,-3.263520e-02,-8.385751e-01,4.854701e-02,-1.143278e+00,-5.493062e+00,1.043720e-02,-1.569540e-02,2.152839e+00,2.160963e+00,-7.571590e-03,-2.510792e+00,8.072960e-01,6.369070e-01,-3.274784e-02,-8.073252e-02,-6.441245e-01,-5.965714e+00,-7.610930e-03,-1.755660e-02,-4.548509e+00,-5.209133e-01,-2.577152e+00,-1.446503e+00,-1.960900e-01,1.147921e+00,1.431829e+00,-5.418386e-01,-1.041875e+00,3.733117e-01,-1.299264e+01,2.174150e-02,-3.061780e-02,-3.966110e-02,8.031516e-03,-4.691573e+00,-1.573592e+00,8.590543e-01,-4.560930e-01,-1.336545e+00,-4.884622e-02,-8.040190e+00,-8.292224e-01,4.110486e-01,3.123290e-02,3.451095e-01,-2.620543e+00,-5.010794e-01,-3.253810e-02,
-7.801493e-02,5.764469e-01,-3.126810e-02,2.041688e-01,1.488737e-02,-1.027561e-01,1.031935e+00,-3.095230e-02,1.278360e-02,7.105361e-01,6.661150e-01,-4.879390e-02,2.050566e-01,-7.174703e-01,-2.612009e-01,2.149036e-01,3.316869e-01,5.132262e-01,5.808008e-01,-4.771490e-02,-2.426070e-02,9.418436e-01,-2.833172e-01,-1.253029e+00,-2.613689e-03,-8.110183e-01,-2.316430e-01,9.180869e-01,3.260322e-01,-1.772875e-01,-9.329529e-01,-2.684506e-01,-4.505970e-02,-1.536390e-02,2.947480e-02,-2.222033e-01,6.935971e-01,-4.404591e-01,1.530795e-01,2.286824e-01,1.191923e+00,3.845467e-02,3.739222e-01,6.371145e-01,-2.227390e-01,-2.928200e-02,7.052576e-02,5.552101e-01,1.220148e+00,4.105850e-02,
4.031724e-01,3.663858e-02,1.730120e-02,8.389996e-02,-2.941538e-01,-8.928567e-01,1.867307e+00,1.914130e-02,-2.011580e-02,-8.638302e-01,-2.016610e-01,3.972950e-03,1.864503e-01,-1.287527e-01,1.137265e-01,1.880286e-01,5.531375e-02,6.621744e-01,5.366694e-01,-3.696870e-02,-4.657550e-02,2.523576e+00,-8.720369e-01,1.360871e+00,5.123647e-01,1.083977e+00,3.268371e-01,1.826928e-01,9.810927e-01,6.038246e-01,-1.236642e-02,-1.288057e-01,-1.248040e-02,1.164730e-02,-7.144830e-03,1.013513e-01,-8.704713e-01,1.249871e+00,1.616049e+00,-4.552358e-01,-1.326750e+00,-2.848385e-02,-3.877684e-01,3.070349e-01,6.450835e-01,3.144840e-03,-2.826712e-01,3.231602e-02,-1.060378e+00,-4.775120e-02,
4.688245e-01,4.442673e-01,6.960610e-03,-1.229000e+00,5.103067e-02,1.004932e+00,-4.184179e+00,3.377900e-02,-5.008050e-02,1.064490e+00,-1.114340e+00,-9.441580e-03,-1.815810e+00,-2.229992e+00,-1.584933e+00,2.925579e-01,-4.255354e-01,2.019481e+00,-6.249807e-01,-2.141100e-02,2.065040e-02,3.170335e-01,-4.674920e+00,-8.790000e-01,2.235513e-01,2.716151e-01,5.231462e-01,-2.165300e+00,3.951630e-01,-3.657431e-01,-1.513843e+00,-8.680892e-02,5.316320e-02,-4.070580e-02,7.202040e-03,-6.321304e-02,4.771910e-01,2.198495e-01,-1.068811e-01,4.556389e-01,-1.029830e-01,2.285740e-03,-2.345463e-01,-4.211870e-02,-8.167360e-03,-8.233920e-04,1.625838e-02,-9.714562e-01,1.055419e+00,-3.884210e-02,
-7.629363e-01,4.934296e-01,-1.799010e-02,2.315327e-02,-1.658922e-01,2.431579e+00,-4.998045e+00,-1.096010e-02,1.549100e-02,2.291074e+00,-4.842632e-01,1.778270e-02,-3.350341e+00,1.090404e+00,-1.288717e+00,-2.740788e+00,2.472827e-03,-1.525065e+00,3.564153e-01,4.550880e-03,-3.933310e-02,-1.529476e+00,-2.175934e+00,-4.138408e+00,-1.364360e+00,-2.359688e+00,5.778645e-01,-2.188193e-01,1.405528e-02,4.155770e-01,7.081040e-01,8.750443e-01,9.424010e-05,-1.707690e-03,6.311860e-02,1.064515e+00,-1.321676e-01,-4.882335e-01,-3.747690e-01,6.221294e-01,-2.526168e+00,4.549177e-02,-1.659833e+00,6.438858e-01,1.262751e-01,4.989170e-02,-6.338150e-01,-2.798588e+00,7.595141e-01,7.874370e-02,
8.289011e-01,-2.813875e+00,-1.807930e-02,-1.671709e+00,-3.077385e-01,1.940231e+00,2.164325e+00,-3.325540e-02,-9.565440e-03,2.144441e+00,3.021159e-01,-2.419250e-02,-2.537537e+00,4.896145e-01,-1.271626e+00,-6.605678e-01,-1.807837e+00,6.342265e-01,-3.396840e+00,4.402450e-02,1.043010e-02,-2.923669e-01,-2.827695e+00,1.097348e+00,1.702787e+00,4.367993e-01,1.665900e+00,-6.096861e-01,1.954516e+00,1.749084e-01,-3.023871e+00,2.113885e-01,-3.653130e-02,5.096630e-02,8.742800e-03,-3.952307e-01,-1.654803e+00,-1.447642e-01,-6.645281e-01,4.906694e-01,-4.453878e+00,2.018083e-02,1.288820e+00,-5.781453e-01,8.914902e-01,-2.717300e-02,3.298979e-01,1.063206e+00,9.736573e-01,-4.011190e-02,
3.196498e-01,5.311437e-01,1.439320e-02,2.793423e-01,-2.266747e-01,1.578758e+00,-1.401442e+00,-2.420460e-02,1.987450e-02,-1.189607e-02,-3.233185e+00,-1.436270e-03,-2.729108e-01,2.195346e-01,8.310007e-01,6.370306e-01,-2.580909e-02,3.699307e-01,-4.187850e-02,1.625130e-03,-1.625810e-02,-5.039439e-01,-1.702031e-01,9.009374e-01,5.655200e-01,2.143056e-01,4.532006e-01,1.026517e+00,2.494029e-01,-1.665158e-01,1.878991e-02,1.177236e-01,-4.709120e-02,-3.628880e-02,2.063640e-02,-8.179524e-01,1.070757e-01,2.381389e-01,6.314553e-02,-2.257830e-01,1.906216e-01,5.986145e-02,-3.005227e-01,-2.839376e-02,-6.348593e-01,-4.723860e-02,5.440624e-02,9.990232e-02,1.759907e+00,4.767760e-02,
-2.003687e-01,1.092222e-01,-2.591210e-02,4.756406e-01,4.594943e-01,1.879381e+00,1.695074e+00,7.081290e-03,-1.145190e-02,5.698656e-02,-8.674431e-01,-3.501580e-02,1.692544e-01,1.795888e-01,5.957979e-02,1.708569e-01,-2.142150e-02,-1.382072e+00,-3.403511e-03,-4.361580e-02,-1.688930e-03,-1.697646e+00,7.532548e-01,5.731351e-02,-7.241228e-02,-7.948852e-01,6.043427e-01,5.837706e-01,5.766951e-01,1.865952e-01,2.339648e-01,-9.251873e-02,1.472240e-02,2.250950e-02,-2.982510e-02,-1.988086e-01,7.599459e-02,-1.831127e-01,-6.355692e-03,2.325045e-01,8.366950e-01,-3.693420e-02,7.982590e-01,2.004379e-01,4.183230e-01,-1.784870e-02,-4.952074e-01,-2.413346e-03,5.488325e-01,5.817740e-03,
4.065123e-01,-2.134553e+00,-3.941660e-02,8.853313e-01,-3.597190e-01,-3.356629e+00,-1.101779e+00,6.152890e-03,1.946230e-02,-5.467360e-02,6.818594e-01,9.514300e-03,8.218022e-01,-1.890280e-01,7.023847e-01,7.558537e-01,-1.494230e+00,3.761386e-01,-4.389407e-01,-3.572380e-02,2.904870e-02,-2.332927e+00,-2.455036e-01,1.481232e-01,1.000506e+00,1.376401e-01,-6.876000e-01,1.492013e+00,5.954357e-01,3.253566e-01,9.426171e-02,1.841057e-01,2.293200e-02,1.612840e-03,5.051380e-02,5.465711e-01,1.212580e-01,2.663089e-01,2.879359e-01,-5.751472e-01,2.342826e-01,-5.951487e-02,1.429988e+00,-7.751957e-01,1.750998e-01,-3.532740e-03,1.975375e-01,8.291484e-01,-6.726649e-01,6.031750e-02,
4.115482e-01,5.451314e-01,-4.589480e-02,-9.062069e-01,-6.946821e-01,1.420984e+00,-3.969917e+00,4.208710e-02,1.897300e-02,3.524706e-02,-2.116493e+00,1.396070e-02,1.453166e+00,-1.999359e-02,6.863339e-01,1.621444e-01,-1.281545e-02,-1.138787e+00,1.271333e-01,2.349110e-02,-4.916650e-02,1.513110e+00,-2.944706e+00,-2.042323e-01,-1.140734e-01,-4.034860e-01,-9.898310e-01,-4.963824e+00,9.964821e-02,4.761822e-02,-1.321963e+00,-2.137517e-01,3.019940e-02,-5.067190e-02,-4.472030e-02,2.538413e-01,-3.175105e+00,2.529983e-01,7.388102e-01,-5.991406e-01,-3.879520e-01,1.586200e-02,-5.572089e-01,-1.100343e+00,6.240205e-01,4.580730e-03,-1.186635e-01,1.256275e+00,-5.377087e-02,1.294570e-02,
-3.986525e-01,-9.363184e-01,3.739420e-03,-4.241477e-02,1.656349e-02,1.193812e+00,1.976251e-01,7.572540e-03,4.216850e-05,-5.837266e-01,-1.071679e+00,-2.337270e-02,-7.032167e-01,2.125617e-01,2.075743e-01,1.710811e-01,-1.528781e-02,5.552946e-01,6.748526e-01,2.178380e-02,-3.962980e-02,-3.220324e-01,-4.625153e-01,2.050685e+00,1.530156e-01,1.242934e+00,-1.595166e-01,1.642866e-01,-4.203182e-01,8.709299e-02,1.739521e-02,-1.218559e-01,-4.327590e-02,-1.533490e-02,-5.438370e-02,-6.555138e-02,5.289161e-01,2.196789e-01,1.075229e-01,-1.676641e-01,-7.425322e-01,1.316082e-02,1.119704e+00,1.392698e+00,9.819201e-01,-4.182180e-02,8.136556e-02,-1.014322e+00,-1.076744e+00,3.826070e-03,
1.373984e-01,1.092119e+00,2.824870e-02,1.710740e-01,6.928900e-01,1.121317e+00,2.280060e-01,4.677650e-02,-1.360940e-02,9.239615e-01,-2.557014e+00,-5.064650e-03,5.505471e-02,-5.351419e-01,1.788327e-01,-8.499436e-03,-3.331904e-01,6.964142e-02,1.081050e+00,-5.199270e-03,-2.806890e-02,1.702906e+00,-2.786022e-01,1.420407e-01,-5.490435e-01,-5.523303e-01,6.783817e-01,7.355577e-01,-1.419302e+00,-5.327481e-01,-5.867170e+00,1.828492e-01,4.699330e-03,-2.712880e-02,2.143240e-03,1.741565e-01,3.796180e-01,1.046471e+00,3.337174e-01,-1.806758e-01,-9.817283e-01,-3.833458e-02,-3.944237e-03,-1.969180e+00,1.912695e-01,1.994980e-02,8.201230e-02,1.697533e+00,1.684438e-01,-1.392580e-02,
-4.553203e-03,5.641542e-01,8.213540e-03,-2.009348e-02,1.130060e+00,7.151792e-01,2.243116e+00,-1.483770e-02,-1.215040e-02,-2.407266e+00,6.497752e-01,1.031710e-02,6.330336e-01,4.651898e-01,7.660768e-02,4.816791e-01,2.632858e-01,-4.949474e-01,-3.039857e-01,1.717310e-02,-5.990080e-03,4.458992e+00,-5.134435e-01,-2.494627e-01,-3.856486e-01,-4.900830e+00,5.197526e-01,-2.244365e-01,4.206418e-01,-5.537893e-01,2.373818e-01,1.280071e-03,-1.189410e-02,1.499140e-02,-4.284760e-02,-3.445216e-02,2.531675e-01,-1.443185e-01,-2.094706e-01,-3.017845e-01,-5.413451e-01,-2.959418e-02,4.763502e-01,-5.846980e-01,3.213039e-01,1.592490e-02,-1.317356e-01,9.602487e-01,2.034622e-01,-3.847060e-02,
5.062630e-01,-7.197385e-01,1.317620e-02,-2.248893e-01,5.432972e-02,-4.776526e-01,3.938582e+00,-2.741080e-02,3.749640e-03,4.347429e-01,1.639696e-01,-2.208940e-02,8.736821e-01,4.949441e-01,1.883941e+00,7.257791e-01,4.739839e-01,6.941024e-01,1.547695e-01,-4.603250e-02,-9.772360e-03,3.972771e+00,5.701832e-01,1.262600e+00,1.204311e+00,1.440223e-01,2.439247e-01,4.956249e-01,-2.562275e-01,2.564339e-01,-1.087357e-01,-2.674861e-02,-4.362730e-02,-3.168440e-02,2.549280e-02,-1.505350e+00,1.400087e+00,-9.955487e-02,1.006963e+00,8.195376e-02,6.229071e-01,-2.955279e-02,2.162982e+00,1.298438e+00,-5.765762e-02,-4.735380e-02,-1.201268e-01,6.264598e-01,-1.314263e+00,5.176410e-03,
6.828903e-01,8.621720e-01,2.158070e-02,-3.142335e-01,-2.185645e-01,8.145900e-01,5.710981e-01,-4.214710e-02,3.211930e-02,1.006617e+00,1.280613e+00,4.182280e-02,-9.981862e-02,4.218779e-02,2.070731e-01,6.159416e-01,5.044885e-01,1.595084e+00,-6.609660e-01,-2.713140e-02,-1.382950e-02,-5.077047e-01,2.365544e+00,1.127826e+00,1.804043e+00,9.991101e-01,6.908974e-01,7.702144e-01,-2.791092e-01,6.884756e-02,1.511650e+00,3.449522e-01,2.066750e-03,3.356900e-02,8.854070e-03,8.021778e-01,1.070963e+00,6.464002e-01,-3.898995e-01,1.814126e-01,-2.494428e-01,8.835732e-03,-9.878216e-01,-1.246580e+00,-1.246563e-01,4.677150e-02,-5.718424e-01,5.178720e-01,6.762295e-01,-4.006180e-05,
7.028680e-03,-4.830670e-02,4.692680e-02,-3.400930e-02,-1.122720e-02,-2.280470e-03,-2.416780e-02,4.075570e-02,1.343330e-02,1.868450e-02,-4.935320e-02,1.275920e-03,-3.335030e-02,-9.559660e-03,3.498050e-02,-2.779520e-02,-4.947190e-02,-1.542060e-02,-1.327500e-02,4.366510e-04,-4.390170e-02,-3.832720e-02,2.416720e-02,-3.762590e-02,-4.081240e-02,-2.252400e-02,-1.935880e-02,7.639400e-03,4.106500e-02,5.181630e-03,-4.475670e-02,-2.849170e-02,3.462730e-02,2.980860e-02,-8.749550e-03,2.779890e-02,-3.295520e-02,-4.579950e-02,-1.964550e-02,3.919670e-02,2.371260e-02,-4.523500e-03,2.069850e-02,-1.884420e-02,-9.434090e-03,2.045080e-02,-3.072380e-02,2.149260e-02,-4.546390e-02,3.260420e-02,
3.375060e-01,-1.806762e-01,1.303130e-02,3.538198e-01,3.721518e-01,1.654649e+00,-3.913377e-04,1.731770e-03,-2.087680e-02,2.353145e-01,1.281725e+00,-4.149150e-02,3.755824e-02,-6.263395e-02,-3.602689e-01,7.390966e-01,-1.098159e-01,-9.876157e-01,-4.115091e-01,5.740800e-03,-1.347070e-02,2.024804e+00,-9.605266e-01,1.204330e+00,9.335146e-02,9.905390e-01,-1.478330e+00,1.014873e+00,4.400064e-03,2.695850e-01,5.320279e-01,-2.140443e-01,-4.563760e-02,-3.674450e-02,4.207560e-02,2.584891e-01,-1.742748e-01,5.322390e-01,9.186520e-02,-7.941166e-02,1.074261e+00,-4.125313e-02,1.147112e-01,7.127106e-03,-1.992801e-01,1.649310e-02,1.703736e-02,-6.895597e-01,1.535857e-01,6.903240e-03,
5.779785e-02,-1.133439e+00,-1.077560e-02,3.902976e-01,-5.656813e+00,1.402336e+00,-8.623632e-01,3.208300e-02,3.588610e-02,-3.104562e+00,-1.923186e+00,-1.264220e-02,-4.473910e-01,-1.910617e+00,-1.273876e+00,6.654820e-01,-4.546042e-01,5.329858e-01,-9.951184e-01,-4.200000e-02,-1.032340e-02,1.069476e+00,-1.691815e+00,-7.432310e+00,-3.292279e+00,-3.621183e+00,-1.662278e+00,-3.399083e+00,-1.213582e+00,4.930764e-02,-2.101141e+00,1.941721e-01,-4.128610e-02,-2.885900e-02,2.534630e-02,9.341192e-02,-1.203250e+00,-3.367172e-01,1.307927e+00,4.467779e-01,2.799340e-04,-2.757682e-02,1.981628e+00,1.806736e-01,-3.351812e-01,9.534830e-03,-1.550809e-01,-4.369910e+00,3.694111e-01,1.930760e-02,
4.279293e-01,-5.491878e-01,5.380910e-02,3.297184e-01,3.536940e-02,-1.046029e+00,-1.116458e+00,-1.912410e-03,-2.968460e-02,-3.197133e-01,4.148346e-01,-4.480820e-02,3.684732e-01,9.234168e-02,-3.605582e-01,2.619763e-01,-9.059128e-01,6.908891e-01,-8.377373e-01,4.178880e-02,3.153020e-02,7.204680e-01,6.016603e-01,4.828797e-01,1.598592e+00,-7.580454e-01,9.035256e-01,1.897702e-01,9.687332e-02,-6.686992e-01,-1.461794e+00,-8.680388e-02,2.382390e-02,6.136390e-03,1.046520e-03,-4.862469e-01,1.806970e+00,-5.999127e-01,-1.170719e+00,2.484277e-01,-3.580877e-01,-3.399091e-02,-9.693910e-01,5.895921e-01,1.010489e-02,-2.982860e-02,1.411893e-01,-3.918231e-01,5.337917e-01,2.045760e-02,
-2.489940e-01,-4.470882e-01,2.736500e-03,-5.393897e+00,-3.034323e-02,-2.126697e+00,2.642839e-01,3.354040e-02,3.595690e-02,-1.824579e+00,1.018462e+00,-2.002290e-02,7.952780e-01,-2.467564e-01,-1.556441e-01,6.955993e-01,-4.503913e-01,-1.244477e+00,3.786083e-01,3.745550e-02,3.180110e-02,-4.330077e+00,-1.610560e+00,1.792160e-01,-2.671325e+00,6.469544e-02,-9.465120e-01,1.431151e+00,-1.610392e+00,4.509401e-01,1.892428e+00,-7.828255e-01,4.069900e-02,-2.919290e-02,3.025120e-02,2.266431e-01,-4.303325e-01,-7.975860e-01,-1.262703e+00,1.930902e-01,3.475409e-01,1.116390e-05,-4.600919e-01,-4.723683e-01,3.273810e-01,-4.194230e-02,2.325919e-01,-3.255752e-01,-4.648566e-01,-5.344180e-02,
-1.591507e+00,-1.503821e+00,4.112150e-02,-2.113746e-01,-6.372316e-01,6.327470e-01,-1.649775e-01,-8.127510e-03,-3.871090e-02,-1.540510e+00,-1.975575e+00,3.207110e-02,-2.937503e+00,-5.526220e-01,-6.374162e-01,3.070664e-01,3.401715e-04,5.485981e-01,-1.331115e+00,-3.677180e-02,-2.128050e-03,1.406539e+00,-2.557044e+00,-2.936296e+00,-7.146519e-01,-3.089854e+00,1.565542e+00,-6.965203e-01,1.498684e+00,-2.409054e-01,8.264786e-01,-5.433523e-01,-3.022050e-02,-2.298190e-02,-3.159980e-02,-1.088431e+00,-5.884886e-01,-8.672557e-01,3.517811e-01,1.061437e+00,-2.163240e+00,-6.733347e-02,-7.862520e-01,-6.564703e-01,8.984115e-03,2.912460e-03,2.214954e+00,1.934758e-01,-5.610812e-01,-1.079340e-02,
1.143929e+00,-2.123807e-01,2.829580e-02,-2.863703e+00,4.031531e-01,-4.277647e-01,-1.491237e-01,3.230420e-02,-4.965320e-02,-4.078345e-01,-2.000173e+00,5.336850e-02,2.729950e-01,5.233284e-01,5.789344e-01,-5.219492e-02,-1.425413e+00,1.471865e+00,6.914923e-01,-5.378700e-03,4.077220e-02,-1.011446e+00,1.383915e+00,1.941421e+00,-4.741803e-01,1.325153e+00,9.812083e-01,4.624542e-02,-2.642463e-01,-3.098445e-02,5.054297e-01,9.968053e-01,2.686990e-02,3.667560e-02,2.146110e-02,1.753628e-01,3.356882e-01,6.406901e-01,3.031662e-01,-7.553526e-01,3.610839e-01,2.100454e-02,1.496145e+00,2.963200e-01,8.169141e-01,2.110930e-02,4.514923e-01,8.115327e-01,-1.264571e-01,4.160260e-02,
-3.983910e-03,2.722744e-01,-4.131130e-02,2.648353e-01,3.648455e-01,-4.823970e-01,-1.044081e+00,-4.068470e-02,-2.195060e-02,-8.746663e-01,-3.026200e-01,-3.932680e-02,-3.020495e-01,2.174633e-01,-4.505410e-02,-5.028293e-01,-3.000146e-01,-8.712579e-01,-4.187696e-01,3.833630e-02,7.077360e-03,1.598534e+00,1.028526e-01,2.274085e-01,4.794306e-01,-6.382433e-04,8.574136e-01,-3.331237e-01,-8.747074e-01,1.893209e-01,-6.131073e-01,1.004311e-01,-3.691160e-02,-3.992650e-02,-2.257040e-02,-1.561376e-01,-1.266095e+00,-4.861417e-02,3.989202e-01,1.864961e-01,-2.912235e-01,-4.024541e-02,5.949024e-01,-1.009896e+00,-3.543414e-01,-3.536800e-02,2.237575e-01,-1.804266e-01,1.124137e-03,1.880520e-02,
6.097525e-01,4.039748e-02,9.462000e-03,3.705174e-02,1.982857e-01,2.593574e+00,2.416592e+00,-7.202330e-03,5.951240e-03,1.132163e-01,6.195626e-01,-1.224820e-02,-4.191946e-01,-7.075161e-01,2.961999e-01,-7.543054e-01,4.865978e-02,-1.175282e+00,-2.464474e+00,1.883350e-02,-2.420210e-02,-2.813797e+00,1.820266e+00,5.147795e-01,3.236359e-01,2.365859e-01,-3.713481e+00,1.156364e+00,-9.802914e-01,1.682228e-01,2.287347e+00,-5.960331e-01,-4.564200e-02,-9.280660e-03,1.299880e-02,1.383256e-01,1.700725e-01,-2.956743e-02,1.327741e-01,6.921423e-01,-2.781134e-01,4.649720e-02,-3.179225e-02,-9.734010e-01,5.392706e-01,1.225370e-02,1.604858e-01,-2.797548e-01,3.817800e-01,-2.948920e-02,
-9.962702e-01,3.204057e-01,-1.797650e-03,-2.140294e-01,1.034223e-01,-6.255919e-01,1.605721e+00,4.261390e-02,-8.109750e-03,2.314486e-01,-1.958444e+00,2.451720e-03,-8.711943e-01,-5.422806e-02,-4.832389e-01,1.227038e-01,-8.999988e-02,-1.488028e-01,-1.506033e+00,-6.922780e-03,-2.199780e-02,-1.418918e+00,-1.052691e+00,1.694019e+00,-1.124443e+00,1.559180e+00,-4.026157e-01,-2.248920e-01,-1.054855e+00,4.083305e-01,-1.316243e+00,9.004053e-01,-3.334590e-02,-1.402260e-02,3.640500e-02,8.857806e-01,-8.676679e-01,-1.315437e+00,3.081037e-01,-8.514537e-01,-5.074365e-01,1.705872e-02,-4.680074e-01,-1.105361e+00,-1.176001e+00,4.903560e-02,-3.234383e-01,8.304096e-01,-2.038510e+00,1.968400e-02,
1.074043e-01,6.495805e-01,-3.888600e-02,2.757034e-02,-1.117360e-01,-2.838929e+00,1.420044e+00,-2.093650e-02,4.128890e-02,-1.051585e+00,9.354926e-01,-1.844160e-02,-5.976892e-01,-6.304159e-02,8.317917e-01,-9.389961e-01,-6.676991e-02,3.527408e-01,9.014090e-02,9.251920e-03,1.564150e-02,1.113467e+00,9.825159e-01,7.243868e-02,1.295224e-01,-1.230397e+00,1.111704e+00,4.690379e-01,1.215642e-01,1.294650e-01,4.448547e-01,-3.793900e-02,-4.991810e-03,-4.476520e-02,5.023060e-02,-8.456938e-01,9.548720e-01,-1.670959e+00,6.919371e-01,-1.137479e-01,-1.194781e+00,-4.475021e-02,-1.364262e-01,4.521826e-01,7.142718e-01,3.227810e-02,2.434786e-02,6.490308e-01,1.039269e+00,1.745050e-02,
-1.512820e-02,-3.241310e-02,3.249520e-02,-9.771930e-03,-4.228960e-02,-3.318970e-02,4.138710e-02,-2.341880e-02,3.396680e-02,3.135140e-02,4.915360e-03,4.366450e-02,8.127290e-03,-3.601910e-02,-2.104170e-02,-2.504220e-02,4.092370e-02,2.935580e-02,-9.842930e-03,-2.708370e-02,1.462400e-02,1.084690e-02,-3.873360e-04,-2.515930e-02,-1.889440e-02,-7.377880e-03,-9.425960e-03,-5.039790e-02,4.197560e-02,-3.062270e-02,4.374620e-02,-4.995310e-02,-4.186520e-02,3.616010e-02,-5.298040e-03,-5.845810e-04,1.204860e-02,-2.919090e-02,-4.489960e-03,-3.086880e-02,-4.573390e-03,1.450580e-02,-4.352080e-02,3.646710e-02,1.848860e-02,-6.974130e-03,-2.125650e-02,3.366900e-02,-1.539260e-02,7.657460e-03,
2.486558e+00,2.550157e-01,1.586800e-02,-2.457650e-01,2.888456e-01,-1.726099e+00,7.008063e-01,-2.537530e-02,-3.236900e-02,1.074149e+00,-6.452932e-01,-1.010070e-02,8.463100e-01,8.152526e-01,7.030135e-01,1.302394e-02,5.136853e-01,7.423869e-01,1.457760e+00,1.532230e-02,-5.131220e-02,-2.366843e+00,1.735657e+00,2.915232e+00,5.985302e-01,1.445923e+00,4.304248e-01,6.414753e-01,7.344118e-01,7.522877e-01,-2.610080e-01,1.258639e+00,1.036270e-03,2.611410e-02,-4.812110e-02,5.981193e-01,9.745709e-01,-3.078346e-01,-7.670236e-02,-8.955746e-01,-2.707875e-02,2.520875e-02,1.129217e+00,9.255636e-01,1.567717e+00,-2.086780e-02,-7.381437e-03,2.522258e-01,-6.505476e-01,4.497880e-02,
-1.070275e+00,-5.539698e-01,4.378010e-02,2.191010e-01,1.764107e-01,-3.067296e-01,1.030932e+00,-1.907680e-02,3.645680e-02,-2.810368e-01,-5.630586e-01,5.186660e-02,-6.726713e-01,3.623528e-01,5.178484e-01,2.355327e-02,-6.620474e-01,-4.027275e+00,3.543936e-01,-5.851750e-03,-2.397450e-02,-6.393753e-01,8.629098e-01,8.807648e-01,1.079083e+00,7.103823e-01,-3.961445e-01,1.010905e+00,-5.553272e-01,5.520449e-02,-2.080475e+00,1.839132e-01,-1.849630e-02,-1.254070e-02,-4.396700e-02,1.186007e-01,-2.529907e+00,1.003868e+00,3.868447e-01,3.744552e-01,1.809851e+00,-5.156503e-03,-1.369543e+00,-2.921173e-01,-2.358260e-01,-4.697180e-02,-3.736639e-02,-1.078587e+00,5.932587e-01,5.100690e-02,
6.012195e-01,-3.693367e-01,-8.610050e-03,3.031355e-01,-3.748219e-01,-4.534225e-01,-5.116093e-01,-1.700610e-02,2.422950e-02,-4.401582e-01,-9.588227e-01,1.292430e-02,6.075581e-01,1.038829e-01,8.721160e-01,-2.403558e-03,7.989044e-02,1.340429e+00,9.534320e-01,1.187810e-02,-5.252710e-02,-9.937032e-01,1.444881e+00,-1.900124e-01,3.799380e-01,7.406653e-01,-2.169609e-01,4.989438e-01,-1.305260e-01,-9.639626e-01,1.442765e+00,1.048073e+00,-3.393120e-02,1.358040e-02,-1.860830e-02,3.596132e-01,-1.187060e+00,-2.621275e-01,-6.739975e-02,-5.815502e-01,-2.131764e-01,4.177922e-03,-1.689252e+00,-1.891716e+00,-2.535793e-01,-4.320850e-02,-2.743764e-01,5.072898e-01,5.537640e-01,3.195490e-02,
6.377647e-01,-6.544883e-01,-3.175390e-02,1.090471e+00,-1.238320e-01,2.705918e-01,2.028902e+00,-2.227410e-03,-2.099770e-03,9.210126e-01,1.377894e+00,2.186830e-02,1.844112e-02,-2.664460e-01,2.033968e-01,8.580938e-01,-1.574038e+00,6.412558e-01,1.376642e+00,-3.756340e-02,-2.822800e-02,-5.454275e-01,1.653144e-01,1.296757e+00,-1.946231e-02,8.922601e-01,4.812407e-01,6.041905e-01,7.662235e-01,-3.984224e-01,8.339024e-01,-1.499427e-01,-3.975070e-02,2.149060e-02,3.770320e-02,-1.980548e-01,-2.566196e-01,1.122029e+00,1.097620e-01,2.705411e-01,2.314607e-01,2.119380e-02,1.627133e+00,1.128333e-01,1.088105e+00,-9.794760e-03,3.860997e-01,1.643580e-01,8.443301e-01,2.751410e-02,
-1.477460e-02,-2.378110e-03,3.702320e-02,-3.769730e-02,-5.622550e-02,-2.327380e-02,2.732530e-02,-1.286040e-02,-4.376530e-02,-7.195430e-02,4.366640e-02,3.745330e-03,-1.136450e-02,-1.237520e-02,2.712800e-02,-2.905990e-02,2.826640e-03,-4.467910e-02,2.385820e-02,-2.584090e-02,3.205560e-02,5.368630e-02,2.873600e-02,-8.826350e-04,-2.783900e-02,-7.411380e-03,2.035510e-02,-2.624570e-02,1.790180e-02,-3.477380e-02,-3.781730e-02,-6.586550e-03,7.812730e-03,-4.911520e-02,-2.666100e-03,-4.499490e-02,9.278120e-03,-3.083260e-03,-5.411120e-03,-2.568650e-02,4.217610e-02,-4.646920e-02,1.450430e-03,3.103490e-04,-3.855120e-02,-5.524200e-04,1.188300e-02,3.364700e-03,-5.232970e-02,-2.991010e-02,
4.921369e-01,1.397013e+00,-1.594660e-03,3.606852e-01,-4.623093e-01,6.147215e-01,3.462712e+00,2.839290e-02,-2.332740e-03,1.403538e+00,1.439436e+00,2.841220e-02,-2.347558e+00,-2.334901e-01,6.106820e-01,-1.021718e-01,2.442234e-01,1.064844e+00,6.569110e-01,1.470750e-02,3.091010e-02,-7.703168e-01,1.548922e+00,9.680415e-01,-7.357716e-02,3.386998e-01,3.924969e-02,-1.312073e+00,5.903492e-02,-6.551118e-01,-5.551283e-01,2.040437e-01,3.066790e-02,-2.054230e-02,4.598230e-02,4.856772e-01,-1.155790e+00,1.608079e+00,-5.950773e-01,3.709290e-01,1.849664e+00,-1.539976e-02,6.158825e-01,1.833843e-01,5.300533e-01,-4.709100e-02,-1.171037e-01,1.855555e-01,-4.844885e-01,-3.009290e-04,
-9.654516e-01,2.239097e-01,4.288240e-02,4.076923e-01,2.500308e-02,-1.010076e+00,-4.570601e+00,-3.733350e-02,-2.062950e-02,-2.125675e-01,-1.509398e+00,-2.893650e-02,3.797753e-01,4.747706e-01,2.094893e-01,9.875267e-01,-1.712931e-01,-6.349655e-01,-8.920926e-01,-2.064250e-02,-3.451030e-02,3.942720e-02,4.613089e-01,-1.288060e+00,-1.544307e+00,-7.291904e-02,4.610322e-01,3.129685e-01,3.345748e-01,-6.147618e-01,-7.529273e+00,-1.148459e+00,-5.452880e-04,-1.227380e-02,3.197840e-02,-4.053479e-01,-1.212274e+00,1.065710e+00,-8.329706e-01,-7.194686e-01,4.973166e-01,-2.795818e-03,3.123147e-01,3.708256e-01,-5.429189e-02,-3.701380e-02,3.645355e-01,-7.607855e-01,-9.527730e-01,5.480360e-02,
1.211535e+00,-2.439823e-01,-9.553810e-03,-9.006068e-01,-3.560994e-02,-5.396834e-01,2.770428e-01,-3.342740e-02,-4.827380e-02,2.116443e-01,-6.402152e-01,2.904850e-02,4.559219e-01,2.069876e-01,4.799440e-01,-1.075328e-01,4.074557e-02,-9.591292e-02,6.301198e-01,-1.913580e-02,2.367370e-02,-8.318012e-01,-1.416685e-01,8.066751e-01,-2.164625e-01,-1.433714e-01,1.270784e+00,-4.229563e-01,-3.942121e-01,-1.092779e-01,3.253652e-01,4.708821e-01,4.028390e-02,1.819000e-02,2.064560e-02,-2.508358e-02,8.033752e-01,-4.133814e-01,-3.172526e-01,-7.550779e-01,-3.371677e-01,-2.712964e-02,3.548572e-01,3.798529e-01,1.047503e+00,-6.452990e-04,3.181737e-01,6.243916e-01,-7.131432e-01,3.374910e-02,
-2.284214e-02,1.855227e-01,9.898760e-03,3.383200e-02,7.045101e-02,7.194205e-02,1.407698e-01,-5.981910e-03,-4.362780e-02,5.995315e-01,6.225705e-01,4.395180e-02,4.769391e-01,-4.041404e-01,9.737239e-01,5.934950e-02,5.355204e-01,1.841338e+00,1.242417e-01,4.625900e-02,3.454060e-02,8.185461e-01,-1.603179e+00,1.348881e+00,9.085857e-01,9.239171e-01,-5.008026e-01,1.420146e+00,4.151436e-01,5.646236e-01,-1.435998e+00,2.212863e-02,-4.000990e-02,-3.536760e-02,1.537310e-02,-8.842028e-01,1.097957e+00,1.316669e+00,1.529114e+00,4.640615e-01,6.681627e-01,2.573462e-03,1.365633e+00,2.237995e+00,-1.571941e+00,-3.631850e-02,-6.698781e-01,7.416968e-01,-2.848647e+00,1.306700e-02,
4.421436e-01,-2.584717e-01,-2.694190e-02,2.175877e-02,5.650921e-01,4.406898e-01,6.325795e-01,1.701130e-02,-1.675230e-03,-3.627387e-01,-8.405942e-01,-3.076920e-02,-1.651421e+00,5.068123e-01,-1.299903e+00,1.690674e-01,2.387647e-01,-1.047780e+00,5.062379e-01,4.371750e-02,-1.061410e-02,9.020548e-01,1.147607e+00,-4.840632e+00,7.092673e-01,7.158231e-01,9.170663e-01,-1.494918e+00,6.630369e-02,1.509357e-01,1.859535e+00,1.546796e-01,-5.016470e-03,5.458420e-03,-1.863500e-02,6.604668e-01,6.434344e-01,-3.279821e-01,-2.363199e-01,-2.573199e-01,-5.303010e-02,3.081343e-02,-1.496179e-01,-2.336298e-01,7.065955e-01,-4.513920e-02,-4.015302e-01,4.579666e-01,6.312524e-01,1.106130e-03,
-3.071090e-01,1.462093e+00,-3.688990e-02,-6.421667e-02,-3.473812e-01,1.204757e+00,1.844147e+00,6.981480e-03,-7.386910e-03,-2.731641e+00,9.622096e-01,-4.064430e-02,1.785782e+00,1.595189e-01,-4.526840e+00,-9.458638e-01,-2.704742e-01,8.346007e-01,8.295237e-01,1.956830e-02,4.816460e-02,-8.111835e-01,2.209249e+00,1.088757e+00,4.634006e-01,-1.754330e+00,8.541653e-02,8.933615e-01,3.892258e-01,2.776496e-01,1.459254e+00,-7.070328e-01,4.569930e-02,-1.735810e-02,8.536760e-03,-2.140438e-01,-6.587757e-01,3.230258e-01,1.475899e-02,4.407949e-01,-3.102116e+00,-4.550705e-03,9.002206e-01,3.512220e-01,-1.271574e-01,-3.760490e-02,-3.678788e-01,1.462347e+00,2.507504e+00,3.533120e-02,
-1.267980e-02,-7.705200e-03,-1.689640e-02,-6.391070e-02,5.435310e-04,-2.056660e-02,-2.066700e-02,4.391980e-02,2.685530e-02,-3.308750e-02,1.927240e-02,-2.035220e-02,2.461960e-02,9.607870e-03,-2.979440e-02,4.358220e-03,-5.192830e-02,-1.533620e-02,4.059810e-02,4.674940e-02,2.116760e-02,-4.040480e-02,3.024750e-02,-3.954770e-03,-3.593220e-02,1.439200e-02,-3.684810e-02,3.324660e-03,-3.123200e-02,-5.201220e-02,-1.560410e-02,3.291230e-02,2.039630e-02,-3.874860e-02,-1.211090e-02,3.314030e-02,-2.227540e-02,-6.398220e-02,3.853660e-03,-4.780340e-02,-3.263690e-02,-2.391250e-02,1.039840e-02,-2.551190e-02,-5.236830e-02,9.133780e-03,-4.506310e-02,-3.074190e-02,-3.646790e-02,7.518130e-03,
1.068100e+00,-4.199085e+00,2.522430e-02,-8.148483e+00,2.021017e-01,2.170832e+00,-9.818383e-01,2.462040e-02,-1.618340e-03,1.472280e-01,8.981444e-01,1.061160e-03,-1.942947e-01,-5.063574e-01,-1.007348e+00,-4.707068e-02,-8.052154e-01,-1.633340e-01,1.249315e+00,1.774600e-02,-1.590920e-04,6.784768e-01,3.201005e-01,-1.471335e+00,1.062327e+00,-1.737330e+00,1.795025e-01,-7.746463e-01,-2.210674e+00,8.249954e-02,-1.442211e+00,5.820949e-02,4.230770e-02,2.050950e-02,1.016000e-02,1.146728e+00,-8.022633e-01,5.600167e-01,2.438667e-01,8.227446e-01,-2.659756e+00,1.551337e-02,-5.233603e-01,1.493883e-01,1.087987e+00,4.901660e-02,5.412444e-01,-1.431157e+00,2.732099e-01,-5.592330e-04,
1.713438e+00,3.180887e-01,4.419690e-02,-1.448379e+00,-3.312404e+00,-2.822335e+00,-8.557655e+00,-2.273740e-02,-9.839170e-03,-1.898299e+00,-8.394439e-01,-1.837160e-02,-7.230903e+00,-6.107339e-01,1.633332e+00,-5.598752e-01,3.166508e-01,-2.688468e+00,-1.768937e+00,2.823630e-02,-1.361830e-02,2.048707e+00,2.097183e+00,-1.403000e+00,-3.529333e-01,-1.272283e+00,-7.116952e+00,-4.307467e+00,-4.171880e+00,6.168395e-01,-1.526502e+00,-1.850284e+00,5.417200e-03,4.352080e-02,3.228690e-02,-1.154642e+00,1.107978e-02,-3.052567e-01,-1.146702e+00,-4.122565e-02,-4.563390e-03,6.141562e-02,-9.276415e-01,-2.130540e-01,-7.863610e-02,-3.259220e-02,-2.203605e-01,8.759920e-02,-3.578220e-01,3.224780e-02,
-5.505087e-01,1.243401e+00,2.415030e-03,4.873303e-01,2.126920e-01,2.129854e+00,2.988066e+00,-4.534050e-02,2.979980e-02,-1.729188e-01,9.326660e-01,3.918490e-02,1.055792e+00,-3.789254e-01,-2.091377e-01,3.760590e-01,4.555616e-01,-5.367694e-01,-2.665490e-01,-3.960370e-03,1.187630e-02,1.002449e+00,-8.689502e-02,-3.355793e+00,4.274272e-01,-7.949805e-01,-1.400941e-01,6.878986e-01,3.084609e-01,-5.444086e-01,2.205525e-01,-4.686530e-01,-1.472160e-02,-1.059620e-02,-1.954980e-02,-6.726757e-01,1.288733e+00,2.687191e-01,4.059871e-01,5.399624e-01,1.757843e+00,2.756581e-02,1.848203e+00,-7.101591e-01,2.136595e-01,2.097010e-02,-8.616184e-02,5.576308e-01,1.470721e+00,4.064330e-02,
-1.847911e-02,2.440409e-01,2.660990e-02,3.228602e-01,2.430299e-01,-1.701190e-02,1.834971e-01,-3.096130e-02,1.054580e-03,5.834153e-02,1.056658e-01,9.410650e-03,1.800968e-01,2.379720e-01,4.128852e-01,3.332531e-01,3.351537e-01,8.185678e-02,2.000835e-01,-4.981410e-02,3.991140e-03,3.331533e-01,1.606412e-01,1.753148e-01,1.870049e-01,1.501973e-01,3.271558e-01,2.588571e-01,4.961009e-01,3.471071e-01,-3.546656e-02,2.414672e-01,-1.840720e-02,-1.750650e-02,-1.713860e-02,3.322816e-01,1.340872e-01,1.242144e-01,2.467436e-01,1.635593e-01,9.026292e-02,4.596543e-02,2.815407e-01,1.146144e-01,1.408334e-01,-4.405670e-02,1.315393e-01,3.016676e-01,2.401276e-01,-2.461660e-02,
-1.721305e-02,-8.638248e-01,-4.590680e-02,-1.381177e-02,1.067713e+00,5.399660e-01,1.452891e+00,-2.837260e-02,-2.001910e-03,-7.533469e-01,3.398659e-02,-1.140850e-02,4.503890e-01,-7.264147e-01,-4.892152e-01,1.268241e+00,-8.448809e-02,-5.956198e-01,-5.535450e+00,1.653130e-03,4.113460e-02,-2.259650e+00,-2.602879e+00,8.640295e-01,-2.610218e+00,-9.125250e-02,5.459498e-01,-2.339480e+00,2.320413e-01,-5.145320e+00,-1.484162e+00,-3.391317e+00,4.167220e-02,2.222520e-02,-3.910350e-02,-2.521760e-01,7.316331e-01,2.969090e-02,5.679952e-01,-4.024594e-01,3.549562e-01,-3.067073e-02,-8.355877e-01,1.882767e+00,1.348803e-01,1.922930e-02,-5.029179e-01,-1.110232e-01,-2.335590e-02,1.241490e-02,
6.495267e-03,-4.020418e-01,-3.308320e-02,-1.051135e+00,-3.758429e-01,7.960398e-01,1.514516e+00,-2.799800e-02,-6.713950e-03,-9.327496e-02,-2.202070e-01,-6.551930e-03,8.457147e-01,2.072420e-03,3.496848e-01,-1.462258e-02,-3.552452e-01,1.141100e+00,-6.743929e-02,1.612950e-02,2.117020e-02,1.308101e+00,1.873438e+00,1.162582e-01,2.789206e-01,1.866972e-01,1.598496e-01,1.913024e-02,-8.667780e-03,-3.566785e-01,-8.963243e-01,6.419694e-02,9.611690e-04,-3.236290e-03,-4.362710e-02,-1.887587e-01,-8.055322e-01,1.128009e-01,-7.400131e-01,-1.020411e-01,2.276988e-01,-6.804614e-02,6.394767e-01,5.799228e-01,6.833050e-01,-1.500880e-02,1.294309e-02,-2.631637e-01,1.106364e-01,-7.007380e-03,
-2.004942e-01,7.218692e-01,-2.277720e-02,-6.776187e-01,-2.048165e+00,6.878349e-01,1.422806e-01,4.063360e-02,2.092300e-02,-1.078862e+00,1.995834e+00,3.004960e-02,1.491863e+00,2.892639e-01,6.505292e-01,1.381538e-01,8.838836e-01,3.772083e-01,3.432913e-02,1.667850e-03,-1.130430e-02,-5.862025e+00,-7.370982e-01,-1.634064e+00,2.221297e+00,-8.328091e-01,5.592465e-01,1.349481e+00,8.009853e-01,7.220362e-01,-1.632136e+00,5.058943e-01,-2.516380e-02,-2.145820e-02,-4.988800e-02,-1.264557e+00,-2.950347e-02,1.413781e+00,-2.533459e+00,-1.207252e-01,-1.191530e+00,4.084220e-02,-6.250032e-01,6.381213e-01,5.284197e-01,3.483190e-02,-1.700728e-03,-6.848181e-01,2.646567e-01,-5.111090e-02,
5.806848e-01,2.508127e-01,-2.927720e-02,3.570926e-01,7.341690e-02,2.189679e+00,-1.034046e+00,8.312790e-03,2.176610e-02,-3.739240e-01,-5.130721e-01,-3.887220e-02,-6.186496e-01,3.967990e-01,6.736945e-01,-6.656832e-01,1.817484e-01,-2.884577e-02,5.251012e-01,-3.851700e-02,1.702960e-02,3.564782e-01,-4.851013e-01,1.284581e+00,4.360496e-01,4.522530e-01,-8.335211e-01,3.723445e-01,-6.100616e-01,1.024188e-01,-5.947930e-01,3.836747e-01,-6.363630e-03,-1.777940e-02,3.675300e-02,4.113715e-02,2.659634e-01,1.424427e-01,-2.436219e-01,6.440428e-01,5.743222e-01,4.165586e-02,-7.233010e-01,-3.518019e-02,-2.330161e-01,-4.030790e-02,-3.760381e-01,-4.165330e-02,1.492703e+00,-3.373950e-02,
-3.012536e-02,2.696486e-01,-3.642470e-02,1.715011e-01,6.403449e-01,-8.109860e-01,-1.169687e+00,5.891440e-02,1.961310e-02,-5.509762e-01,6.342492e-02,-3.372980e-02,5.864189e-01,3.332881e-01,6.207802e-02,1.984308e-01,-2.792395e-01,-6.168771e-02,8.812418e-02,4.464970e-02,1.172000e-02,-1.265113e+00,-1.963611e-01,4.966657e-01,-3.420704e-01,8.743902e-01,-9.009975e-01,-2.243435e+00,8.320643e-01,3.817397e-01,5.680826e-01,-1.022491e-01,-2.766830e-02,2.935350e-02,8.741420e-03,-2.548077e-01,-5.266488e-01,9.625241e-01,2.490457e-01,-1.768715e-01,-1.130637e-01,-1.954053e-02,-3.660921e-01,7.595675e-01,4.339467e-02,4.850210e-02,-1.387904e-02,-8.739873e-01,-1.578806e+00,5.855210e-02,
1.198475e+00,-1.374417e+00,-7.491350e-03,3.303074e-01,5.572614e-01,1.908432e+00,4.097117e-01,4.432350e-02,3.249540e-03,2.870500e+00,1.916604e+00,-3.972080e-02,-5.984826e-01,1.315448e-01,1.180059e+00,-7.594460e-01,9.544286e-01,-4.575283e-01,-9.096748e-01,2.280820e-02,-3.214530e-02,3.934854e+00,-6.011335e-01,1.602842e+00,8.577405e-01,4.140912e-01,-2.875370e+00,-3.167196e-01,6.349875e-01,-4.806562e-01,6.666753e-02,5.411255e-01,-2.513150e-02,3.609580e-02,4.314010e-02,6.935017e-01,1.300675e+00,3.424943e-01,-9.492578e-01,-7.935413e-01,3.701354e-01,-5.650545e-03,2.907004e+00,8.601246e-01,6.990805e-01,-5.245740e-03,-4.412910e-01,1.328751e-02,1.827800e+00,3.622700e-02,
-5.168443e-01,
-1.693018e-01,
-1.117558e-01,
-1.142743e+00,
-5.033400e-01,
7.765511e-01,
-1.807001e+00,
-2.579498e+00,
-1.347710e+00,
-1.418842e-01,
-6.055698e-01,
5.642439e-01,
-1.441219e+00,
-8.891563e-01,
-2.107021e+00,
-1.069909e+00,
-7.054840e-03,
-7.294406e-01,
-4.058480e-01,
-8.904866e-02,
-1.915630e-02,
-9.317203e-01,
8.547127e-01,
-7.332329e-01,
-1.378487e+00,
-4.245537e-03,
-6.718866e-01,
-8.804480e-03,
-9.148052e-01,
-5.582828e-01,
-9.920263e-01,
-3.219845e-01,
-5.245340e-02,
-1.627290e+00,
-2.776769e-01,
1.149425e+00,
-2.862228e+00,
-2.208900e+00,
-2.654133e+00,
-2.688530e-02,
-1.425786e+00,
2.451082e+00,
-3.302750e-01,
2.880992e-01,
-9.411689e-01,
-5.342487e-02,
-8.867543e-01,
-3.942866e-01,
-5.727110e-01,
-2.747924e+00,
1.620369e+00,1.469952e+00,7.809939e-01,-4.263315e-01,2.313599e+00,-1.327396e+00,1.070406e+00,-4.787239e-01,1.756373e+00,-1.667648e+00,-1.006086e+00,2.127515e-01,-5.477892e-01,7.663155e-01,1.424415e+00,-4.498259e-01,-2.303620e-02,-1.038179e+00,3.055884e+00,2.795631e+00,7.481123e-01,-7.598921e-02,3.606444e-01,-2.103598e-02,1.631881e+00,1.106788e-01,2.287776e+00,-2.430310e-02,-4.602225e-01,2.048197e+00,3.689675e+00,-1.557343e+00,5.576110e-02,9.871016e-01,9.675319e-01,8.707037e-01,-1.342186e+00,1.173947e+00,3.846428e+00,4.906120e-03,4.886025e-01,-5.902436e-01,1.055448e+00,-1.312930e-02,1.521500e+00,-9.641243e-01,-4.401652e-01,-1.659250e-01,5.479886e-01,6.405822e-02,
6.130305e-01,1.178005e+00,-5.293227e-01,-1.346595e-02,-8.193421e-01,-4.345123e-01,6.917692e-02,-2.414499e+00,-3.621397e-01,-2.941272e-02,-6.685073e-01,-2.961441e-01,-4.567136e-01,7.284947e-01,7.322625e-01,5.559232e-01,1.140680e-02,-6.871863e-02,-1.313920e+00,4.909315e-01,-3.642841e-01,-6.051629e-01,1.115335e-01,-7.199503e-01,5.399671e-01,5.800318e-01,-1.619419e+00,1.346440e-02,-5.193145e-01,-7.580139e-02,2.366590e-01,-2.058153e-01,4.036060e-02,-6.663941e-01,1.324823e+00,4.290602e-01,-8.206595e-01,-6.174042e-01,8.083469e-01,-3.116910e-02,-3.797328e-02,5.059556e-02,3.401861e-01,-6.188606e-02,-7.026919e-01,2.234626e+00,-1.428369e-01,4.602512e-01,-6.256717e-01,5.080574e-01,
9.224343e-01,2.813340e-02,3.307489e-01,-8.455228e-01,9.692818e-01,-3.143114e-01,-6.417510e-01,2.046571e+00,9.030983e-01,-2.803809e-01,6.454523e-01,-2.741965e-01,5.518007e-01,1.040629e+00,1.109861e+00,3.202709e-01,-2.122630e-02,-4.883417e-01,9.165816e-01,-1.248703e+00,-8.214329e-02,6.429992e-01,-6.875308e-01,-5.410087e-01,-3.449333e-01,7.500651e-02,-1.063693e+00,4.188530e-02,-5.156979e-01,-1.544758e+00,5.093626e-01,-5.182744e-01,1.460980e-02,7.015401e-01,4.516149e-01,1.663337e+00,2.048332e-01,1.678202e+00,2.779082e+00,-3.770650e-03,9.751231e-01,-4.687772e-01,-4.078699e-01,-5.201446e-02,3.391362e-01,4.045645e+00,2.013016e-01,-7.970557e-01,1.918294e-01,6.240447e-01,
4.888872e-01,-2.025615e-01,5.832764e-01,-4.199453e-02,9.347605e-01,1.877308e-01,1.160272e-01,2.939754e+00,-4.114138e-01,-1.479942e-02,2.893335e-01,4.795759e-01,-5.468644e-01,9.400634e-01,-2.988607e-02,1.616335e-01,2.301470e-02,-2.557304e-01,5.201406e-03,2.173183e-01,1.162896e+00,2.813416e-01,1.132024e-02,1.531944e-01,-4.062317e-01,-1.776471e+00,-6.022071e-02,1.459160e-02,-4.224699e-02,4.111142e-02,-1.296379e-01,-3.123429e-01,-3.758870e-02,-1.160547e-01,-1.597977e+00,-1.283271e-01,-1.313045e+00,-7.832566e-01,1.092200e-01,-2.158240e-02,-6.354817e-02,4.001190e-01,5.245101e-01,2.236164e-01,3.717962e-01,-2.354496e+00,8.818255e-02,-6.563667e-03,-1.594697e+00,-1.280533e+00,
-4.040195e-01,9.776277e-02,-5.818973e-01,6.944237e-01,-9.477961e-01,-2.877136e-01,2.675277e-01,-3.271514e-01,-8.011025e-01,2.500839e-02,-8.594790e-01,-4.369769e-02,-6.858853e-01,-5.281765e-01,-2.533256e-01,1.544280e-01,1.871490e-02,5.728723e-01,2.093856e-01,5.521637e-01,5.455078e-01,-1.632039e-01,-4.331467e-01,-1.994108e-01,-7.407922e-01,3.053982e-03,-1.980247e+00,-4.644570e-02,8.990496e-01,2.481533e-01,-3.423210e-01,9.588329e-01,-3.087660e-02,-1.165668e+00,2.580658e-01,-1.743551e+00,-4.590342e-01,-9.357567e-01,-1.036190e+00,-2.763540e-03,6.039221e-01,-2.316520e-01,-3.656350e-01,-2.569274e-01,-1.601467e+00,-1.024893e+00,9.707408e-02,1.095841e+00,-1.337219e-02,-1.354198e-01,
1.665190e+00,3.170913e+00,3.346406e-02,1.055500e+00,8.670326e-01,2.218754e+00,-1.241345e+00,1.014079e+00,5.356997e-01,-1.416958e+00,-7.079817e-01,1.006947e+00,8.948002e-01,4.207056e-01,1.271721e-01,1.003428e+00,4.482020e-02,1.381378e+00,2.030121e+00,-9.484412e-01,4.131108e-01,-5.700696e-01,-2.585997e+00,1.472353e-01,-4.456485e-01,1.174981e+00,1.859118e+00,-1.827280e-02,1.904975e+00,2.258852e+00,7.534967e-01,2.006593e-02,6.541410e-04,4.181965e-01,5.691190e-01,-3.027093e-01,-3.277482e-01,3.521466e-01,1.411006e+00,-2.241800e-02,-1.140520e+00,1.581250e+00,-1.816821e+00,1.174135e-01,3.949869e+00,-3.408336e-01,2.592500e+00,8.269913e-01,1.363925e+00,1.619144e+00,
-5.850323e-01,1.744360e-01,7.923262e-01,2.826017e-02,1.322825e+00,1.630382e-01,2.360069e-01,-1.839707e-01,-5.164366e-01,-3.054984e-01,-6.447399e-01,-3.379553e-01,-5.390983e-01,-1.374145e+00,5.807873e-02,-2.879837e-01,1.693630e-02,-7.769504e-01,-1.807668e-01,-3.463667e-02,-1.481597e+00,-6.989933e-01,-7.020638e-01,-2.061008e-01,-2.553839e-01,-2.752201e-02,1.909576e+00,-2.050860e-02,4.340984e-01,-1.069029e-01,1.138820e-01,4.801389e-01,-4.964060e-02,-2.182003e+00,-1.395635e-01,-2.973076e-01,3.074403e-02,-3.688159e-02,1.065285e-01,8.485200e-04,-7.157555e-02,3.124230e-01,6.460023e-01,-3.393486e-01,1.793805e+00,1.146941e+00,3.889755e-01,2.902690e-01,1.301835e+00,1.362379e+00,
2.296720e-01,2.255572e-01,7.709318e-01,-6.490853e-01,3.016596e-01,7.382939e-01,8.625895e-01,3.263980e-01,7.348678e-01,4.983445e-02,6.720858e-01,3.487745e-01,-1.346310e-01,-8.149146e-02,-4.360595e-01,3.292570e-01,6.513160e-03,8.940731e-01,6.857555e-01,1.728363e+00,1.136767e+00,1.701874e-01,5.963543e-01,1.854997e-01,8.094621e-01,3.169276e-01,3.263608e-01,2.424680e-02,6.748804e-01,4.522501e-01,1.854779e-01,2.691958e-01,-8.352590e-04,-3.242689e-01,7.623857e-01,-1.842617e+00,5.157226e-01,-8.453116e-01,-5.360928e-01,-3.760130e-02,9.255375e-01,2.716840e-01,2.938196e-02,-3.169721e-02,-5.554125e-01,8.722680e-01,1.733340e-01,1.166908e-02,1.752581e-03,-4.605546e-01,
-4.310074e-01,9.326763e-01,1.004580e+00,1.100496e+00,4.418410e-01,1.307865e-01,8.537701e-01,2.159221e+00,1.080896e+00,2.731756e-01,1.649325e+00,1.222014e+00,-3.866835e-01,-1.264125e+00,1.065996e-01,-9.640666e-01,-2.314470e-02,-1.576991e+00,8.844805e-01,3.263174e-01,2.548873e+00,2.763020e-01,-1.966398e-01,1.272131e+00,-1.007277e+00,1.873175e-01,3.396094e-01,-1.938510e-02,-9.307672e-01,2.598428e-01,2.359137e+00,-6.654368e-01,1.973760e-03,1.605140e+00,-1.407112e-01,-1.774947e-01,2.561242e-01,1.109473e+00,-3.974252e+00,3.027980e-03,-4.327677e-01,1.040858e+00,5.108305e-01,-1.288141e-01,2.619497e+00,6.127103e-02,-9.200159e-02,-2.813226e-02,-3.041272e-01,7.660215e-01,
4.988025e-01,-1.354739e+00,2.209631e+00,1.470574e-01,1.176647e-01,-1.178175e+00,3.464395e-01,1.676783e+00,1.125730e+00,3.200041e-01,9.610454e-01,6.546929e-01,3.175984e-01,-1.285021e+00,4.740241e-01,3.526110e-01,3.171340e-03,-9.143253e-02,1.161812e-01,1.521208e-01,1.044729e+00,-3.218259e-01,5.422456e-02,5.141006e-01,-1.455293e+00,2.479065e-01,-1.186747e-01,3.636720e-02,-1.493948e+00,6.890156e-01,3.838947e-01,-1.114300e+00,-3.400720e-02,2.532259e-01,7.365223e-01,9.870545e-01,-3.644219e-01,9.896513e-01,-2.268490e+00,-3.355010e-02,2.415432e-01,-9.394964e-01,1.749779e-01,-1.782830e-01,-9.584334e-02,1.780485e+00,-6.202815e-01,-7.652797e-01,-3.602973e-01,-1.085603e+00,
-7.973462e-01,-3.642859e-01,-1.107507e+00,4.386380e-01,1.817947e+00,-5.766339e-01,-3.112763e-01,-1.316777e+00,5.377192e-02,3.267608e-01,2.556530e+00,-2.534721e-01,-2.716943e+00,2.027590e-01,3.275937e-01,-2.984186e-01,1.477800e-02,-7.418387e-01,-4.179786e-01,9.066519e-01,-4.873419e-01,6.917859e-01,5.356244e-02,-1.688276e+00,-4.016647e-01,-1.216388e-02,-6.685472e-01,-3.510910e-03,4.166110e-01,-1.704564e+00,-6.674256e-01,2.020152e-01,-5.211500e-02,1.027615e+00,8.268417e-01,-5.175491e-01,7.586460e-01,1.281277e+00,-6.235314e-01,2.000040e-02,-4.320668e-01,-3.363341e-01,-8.417793e-01,-2.872930e-02,6.232461e-01,3.286849e+00,-4.081888e-01,6.890152e-02,-1.280643e-01,-2.005488e+00,
3.386090e-01,2.201981e-01,1.077265e+00,-3.853864e-01,2.187484e+00,2.541600e-01,2.503658e-01,-1.912429e+00,5.107016e-01,-4.945098e-01,2.203735e+00,-3.685128e-02,2.092697e+00,-1.351841e+00,1.222519e-01,1.118318e+00,3.161840e-03,-9.885395e-01,1.249654e+00,9.854408e-01,3.833866e-01,3.837611e-01,-4.458397e-01,-1.494527e+00,2.985775e-01,7.242104e-01,3.431490e+00,-2.550440e-02,-8.963958e-01,1.868126e-02,-1.672382e-01,-1.988168e-02,-7.302740e-03,-3.809571e-01,-3.716790e+00,-4.673454e-01,3.427373e+00,2.220545e+00,3.524435e-01,-1.014740e-02,5.845602e-01,8.722442e-01,3.631334e-02,-2.687002e-01,2.121659e+00,-5.584388e+00,6.178973e-01,-1.002403e+00,3.650721e+00,1.255722e+00,
-1.289004e-01,-4.404419e-01,4.862125e-02,2.714930e-02,-1.990239e-02,-1.885971e-01,3.542142e-01,-1.298144e-01,-1.461410e-01,-2.687120e-01,-1.418496e-01,-5.164320e-02,7.368724e-01,-5.745641e-01,-2.888717e-01,5.356534e-01,2.200220e-02,-8.739196e-01,8.870911e-01,7.301146e-01,-1.204861e-01,-1.637024e-03,1.457415e-01,-1.441995e-01,1.400630e-01,-7.006798e-01,8.157840e-02,-3.539200e-02,2.955281e-01,-2.383911e-01,9.780810e-02,2.272771e-01,2.754770e-02,-6.746131e-01,-3.127947e-01,-1.625965e-01,4.095817e-02,8.184735e-01,-2.965206e-01,2.236450e-02,-7.140372e-01,3.426314e-01,3.826005e-01,-6.005742e-02,9.020305e-01,-5.540592e-02,7.866477e-01,-6.323931e-01,-5.879521e-01,3.839028e-01,
-7.496145e-02,6.002234e-01,7.133943e-01,-5.009851e-01,-9.569042e+00,-1.370148e+00,-1.547428e+00,1.729451e+00,2.684666e+00,-3.593314e-02,-1.120010e+00,-3.662539e-01,7.313261e-01,3.130469e+00,-5.232718e-01,-8.840232e-01,-1.937770e-02,1.216987e+00,-2.933395e+00,-1.632969e+00,-9.623729e-02,4.890091e-01,-8.688232e-02,1.314749e+00,-7.048815e-01,-1.743816e-01,-4.216552e-02,2.485600e-02,-1.758573e-01,-2.016611e+00,-7.078038e-01,-2.556291e-01,-2.286690e-02,1.539388e+00,8.384410e-01,7.934250e-01,1.584921e+00,7.192940e-01,1.903589e+00,-5.304710e-03,3.954404e-02,-7.422672e-02,-1.752710e+00,4.025373e-02,-1.518700e+00,-3.747874e+00,1.245372e+00,2.336612e-01,-4.916498e-01,1.493913e-01,
3.767906e-01,6.241876e-01,5.997789e-01,2.908343e-01,-2.721560e+00,-2.533404e-01,9.657418e-01,9.123792e-02,5.143254e-01,3.655891e-02,-1.907947e-02,-1.614458e-01,1.205641e+00,1.783351e-01,2.078648e-01,-6.230671e-01,2.595060e-02,-1.077881e+00,1.004064e+00,-9.387480e-02,2.582815e-01,-1.062098e-01,-4.268920e-01,2.221462e-01,6.868958e-02,-2.718579e-01,-4.527131e-01,-3.884040e-02,-2.091033e-01,8.592576e-01,-2.389051e-02,-1.778682e-01,-2.050250e-02,1.879517e-01,8.154334e-01,2.506527e-01,4.992524e-01,9.308125e-01,5.457800e-01,-1.933570e-02,3.602630e-01,-4.336370e-02,-2.502723e-01,-1.859527e-01,7.728698e-01,1.546745e+00,4.885709e-01,-3.874183e-01,6.007214e-01,5.455567e-01,
2.404329e-01,1.444802e-01,-4.914589e-02,1.500684e+00,2.013838e+00,5.759875e-01,2.316207e-01,-1.732196e+00,9.323665e-01,1.611773e+00,4.881623e-01,-3.942516e-01,1.234828e+00,-1.133801e+00,2.866895e-02,-7.614913e-01,2.565110e-02,1.160003e+00,-7.488025e-01,2.014271e+00,4.633005e-01,-3.392331e-01,-1.529965e+00,-2.657680e-01,5.816029e-01,1.123364e-01,-1.161250e-01,1.868220e-02,5.357834e-01,2.822747e-02,9.492437e-01,1.396996e+00,-6.711960e-02,-3.683198e-01,7.772384e-01,-1.169778e+00,1.671069e-01,-4.121797e-01,-8.070244e-01,-8.650380e-03,7.720824e-01,-1.617417e-01,1.858314e+00,-2.403680e-01,4.916363e-01,2.500547e+00,-1.556804e-01,1.912037e+00,8.265529e-01,-2.828259e-01,
1.347269e+00,1.704129e-01,-3.187817e-01,-7.175426e-01,1.097959e+00,3.081801e-01,-1.522495e-01,9.313985e-01,3.744865e-01,-4.273451e-01,5.082293e-01,3.504559e-01,2.519066e-01,-6.835304e-01,4.458494e-01,-3.028637e-01,1.236850e-02,-4.520379e-01,3.811844e-01,2.047457e-01,3.695823e-01,-1.344670e-01,5.855169e-01,1.011518e+00,-3.712673e-01,-2.322350e-01,-1.106452e+00,-1.826480e-02,-3.812431e-01,7.356483e-01,4.989386e-01,-8.338115e-01,8.237230e-03,6.680735e-01,-6.808935e-01,8.073933e-01,1.789700e-01,9.534366e-01,1.635249e+00,-1.247770e-02,-2.994471e-01,4.100152e-01,9.954171e-01,1.664049e-01,3.519622e-01,-1.442504e-01,-1.265434e-01,-7.129079e-01,-3.462042e-02,2.431064e-01,
-1.386389e+00,1.056172e+00,-9.917971e-01,2.438444e-01,7.053553e-01,5.652083e-01,-4.485551e-01,-4.955036e-01,6.449445e-01,-3.218943e-01,-1.847270e+00,7.598016e-02,1.502570e-01,-1.581362e-01,5.163484e-02,-7.618380e-02,2.893220e-02,5.536055e-01,3.490224e-01,3.899337e-01,-2.138110e-01,-3.186058e-01,-2.518612e-01,-1.252889e-01,7.310271e-01,1.237781e+00,-1.501134e+00,-1.693520e-02,3.112541e-01,-6.773618e-02,-1.089032e+00,8.814914e-02,1.242300e-02,7.747800e-01,-1.364526e-03,-8.993124e-01,-1.959531e+00,-1.768541e+00,-6.281863e-01,-3.820350e-02,1.961989e-01,8.461438e-01,-2.337572e-02,3.399044e-01,-4.486897e-01,2.736831e+00,-8.399498e-01,4.098529e-01,3.875692e-02,-1.140976e+00,
4.438985e-01,-9.338039e-02,8.908802e-01,2.599670e-01,4.781121e-01,-1.819018e-01,8.097427e-01,3.261859e+00,-8.344265e-01,2.626321e-01,-5.307452e-01,1.722964e-01,2.719305e-01,-1.602685e+00,-5.292959e-01,1.712456e-01,3.496140e-03,-6.305304e-01,1.222018e+00,-9.275233e-01,3.543120e-01,2.114039e-01,5.234502e-01,-1.149651e+00,-5.095246e-01,-1.175051e-01,1.329753e+00,2.385770e-02,-7.165202e-01,2.752564e-01,2.503776e-01,-6.893163e-01,-4.380700e-02,-8.121917e-01,-2.229599e-03,1.384985e+00,1.765714e+00,2.067157e+00,3.708759e+00,-2.101030e-02,5.075554e-01,4.257376e-01,1.452676e+00,2.842226e-01,3.471880e-01,-9.848354e-01,-1.029890e+00,-8.144749e-01,-2.450056e-01,2.092305e-01,
-7.927099e-01,4.875179e-01,1.690419e+00,-5.928555e-01,1.198173e+00,-3.659952e-02,1.482108e+00,3.503498e+00,6.398333e-01,5.773770e-01,3.026456e+00,-1.355708e+00,3.593596e+00,2.346542e+00,2.560073e+00,-1.065755e-01,-7.595830e-03,5.886716e-02,-1.358741e+00,6.374399e-01,-5.698971e+00,-2.724977e-01,-2.118870e+00,1.462094e+00,2.723673e-01,6.834611e-01,7.790575e-01,3.279350e-02,-6.648638e-01,1.149141e+00,6.463082e-01,-6.727358e-01,-1.013350e-02,3.239295e+00,2.018586e+00,-1.784241e+00,1.505241e+00,9.709928e-01,3.708240e-01,-2.087950e-02,4.829624e-01,2.442596e-01,-1.682975e-01,-2.194240e-03,-6.424582e-01,-1.536485e+00,2.197616e-01,-2.729453e-01,7.485133e-01,-3.922996e-02,
-1.260595e+00,-4.700239e-02,1.616600e-01,5.512739e-01,-2.532625e+00,5.101959e-03,-5.591722e-01,-9.338326e-01,-7.964304e-01,-8.670106e-02,3.494453e-01,1.018494e+00,5.153309e-02,-7.066767e-01,-7.625973e-01,1.696631e-01,-3.420080e-02,1.169468e+00,2.224416e+00,-6.675780e-01,-1.138771e+00,4.744478e-01,-1.411024e+00,3.382627e-01,-4.255607e-01,1.047679e-01,-1.852196e+00,-3.189630e-02,2.790399e+00,-1.336478e+00,-8.337184e-01,9.505724e-01,-2.350340e-02,4.780120e-02,2.043690e+00,-1.211049e+00,6.728705e-01,1.340318e-03,4.778224e-02,4.268610e-02,-7.774777e-01,-5.124568e-03,-5.462933e-01,1.710512e-01,2.050126e+00,2.074656e-01,-1.621561e+00,9.140842e-01,-7.438895e-01,-4.364755e-03,
4.681121e-01,3.368457e-01,-3.245150e-01,-3.138302e-02,-1.189660e+00,-1.438446e+00,8.663496e-01,1.314669e+00,1.493089e+00,1.226200e-01,-2.808996e+00,4.647306e-01,2.034737e-01,1.646202e+00,-8.526001e-02,5.943224e-02,9.679660e-03,-2.759874e-01,-2.768489e-01,-8.561879e-01,9.766388e-01,1.853741e-01,-1.969481e-02,-4.328497e-01,7.214892e-01,4.598019e-01,1.344084e+00,1.034470e-02,-1.650401e-01,-2.232973e-01,1.075156e+00,-7.063881e-01,-1.171140e-02,6.156693e-01,9.364467e-01,2.106454e-01,-1.074990e+00,-4.489256e-01,1.295345e+00,5.466180e-02,-1.569050e+00,9.134948e-02,1.598054e-01,2.034758e-01,-3.989039e-01,8.309951e-02,5.943869e-01,-8.943767e-01,-1.043577e-01,-2.317651e+00,
-9.698319e-01,-4.150330e-02,-2.856688e+00,-4.634425e-02,3.955263e-01,1.001346e+00,-6.765808e-01,-1.599102e+00,-1.825582e+00,5.927165e-01,3.751552e-01,1.159528e+00,9.293617e-01,-5.163087e-01,5.620738e-01,1.593973e-01,-1.792120e-02,7.642770e-01,1.492394e+00,-1.438701e-01,2.012926e-01,-1.482606e+00,-2.852433e-01,5.599483e-01,2.602355e+00,6.957426e-01,2.968993e+00,-4.182280e-02,1.163718e-01,-1.027909e+00,6.117825e-01,-5.199305e-01,2.793930e-02,-7.664446e-01,1.356639e+00,-3.655517e-01,-5.111082e-01,-1.057147e-01,1.808673e+00,-1.396490e-03,-3.445963e-01,3.855804e-02,-1.329444e+00,-1.632272e-01,1.098167e+00,1.840032e-01,5.248765e-01,-1.021883e+00,3.681283e-01,1.015456e+00,
3.857849e-01,1.433923e-01,-6.483288e-02,-5.828120e-01,2.919874e-01,-2.088311e-01,8.629166e-01,3.048078e+00,8.869122e-02,6.732354e-02,6.202013e-01,-2.319750e-01,-1.928685e-01,-1.002779e+00,8.563268e-01,7.439363e-01,-2.271030e-03,-8.140705e-01,5.428268e-01,6.380324e-01,1.162469e+00,2.119806e-01,7.500610e-01,5.820797e-01,-3.837746e-02,-6.445647e-01,-6.884176e-02,-2.807230e-02,-8.040144e-01,-1.148615e+00,-2.725372e-01,-3.462954e-01,4.693810e-02,2.346561e-01,-3.932655e-01,-3.055511e-01,8.324845e-01,6.000037e-01,-1.667576e-01,2.643350e-02,3.908118e-01,-9.265321e-02,-1.727777e-01,5.805972e-03,3.858348e-01,1.616839e+00,3.307082e-01,-6.232073e-01,1.328112e-01,2.460169e-02,
7.077927e-01,1.012112e+00,-6.349965e-01,1.934131e-01,-7.844768e-01,-4.617850e-01,1.484214e-01,1.593282e-01,-7.389334e+00,4.676512e-01,1.174228e+00,3.082430e-01,3.844052e-01,-1.097861e+00,-8.866743e-02,-4.509217e-01,-4.200880e-02,1.493457e+00,-8.599993e-01,-4.478781e-01,-4.685899e-01,-2.853006e-01,1.008899e-01,-2.862697e+00,-1.365122e+00,-1.573602e-03,1.771845e-01,8.503060e-05,-5.283268e-01,-3.197366e+00,-5.540248e-01,5.100269e-01,-7.890110e-03,4.257957e-01,-1.318079e+00,-3.860031e-01,8.993025e-01,3.178589e-01,-6.677889e+00,-6.575810e-03,7.226543e-01,1.036733e+00,3.264925e-01,2.879724e-02,1.600923e+00,-2.505666e-02,7.898757e-01,7.468581e-01,-2.049864e+00,-3.086691e-01,
1.401898e+00,4.632983e-01,1.569260e+00,5.390977e-01,-1.144073e+00,7.405002e-01,1.260288e+00,-3.270732e+00,2.095229e+00,4.991882e-01,2.280488e-02,-1.409487e+00,1.504418e+00,1.714086e+00,-1.021121e+00,2.206887e-01,9.181910e-04,6.007938e-01,-6.161153e-01,-1.555702e+00,1.928439e+00,-2.242771e+00,4.009111e-01,8.509568e-01,-1.674136e+00,-2.536193e-01,-1.077529e+00,-4.857020e-02,-8.727307e-01,7.936419e-01,1.788623e+00,-1.332261e+00,2.319560e-02,2.264421e+00,-1.253422e+00,6.382155e-01,-2.493611e-01,-2.133889e+00,3.022686e+00,3.537230e-02,7.720736e-01,7.942079e-01,3.899039e-01,1.075743e-01,1.483650e+00,-3.651775e+00,7.676229e-01,-1.688593e+00,2.350779e-01,2.859024e-01,
-8.146490e-01,3.125980e-01,-1.395984e+00,-5.148166e-01,-2.912448e-01,1.042171e-02,3.219828e-01,-1.628543e+00,-2.013353e+00,9.486418e-01,1.937972e+00,4.446429e-01,3.209867e-01,-2.630468e+00,2.312696e-01,3.168879e-01,4.069600e-02,1.162735e+00,9.006045e-01,-1.458745e+00,-1.562036e-01,-2.848678e-02,-1.728335e+00,7.608669e-01,-1.074797e+00,1.290650e+00,-5.367082e-01,4.193380e-02,1.351527e+00,7.187530e-01,-1.133675e+00,1.256630e-01,-5.445620e-02,-6.517939e-01,1.748940e+00,-1.400159e+00,-9.041873e-02,1.355527e+00,2.878378e-01,1.907650e-02,3.397452e-01,6.110446e-01,-9.329189e-01,-6.107411e-02,2.828016e-01,3.877515e+00,-5.402786e-01,1.701820e+00,1.029782e+00,-1.242075e+00,
-8.374828e-02,-3.066736e-01,-6.216473e-02,-3.046541e-01,3.706860e-01,3.843526e-02,5.894280e-01,-1.504060e+00,3.106875e-01,-2.977769e-01,1.482890e+00,-1.946557e-01,-6.221189e-01,9.228542e-01,-1.074250e+00,-1.312970e-01,3.603920e-02,-4.481317e-01,-5.032370e-01,1.800500e-01,-1.271510e+00,-1.075440e-01,-5.496090e-02,-6.460830e-02,4.227999e-01,-1.699467e+00,1.253870e+00,8.403250e-03,-8.522354e-02,-3.852976e-01,-2.886789e-01,2.725388e-01,3.773040e-02,-1.217093e+00,-1.927229e-01,-8.221528e-01,-7.989890e-01,1.128712e-01,3.421735e-01,-2.600050e-02,8.099740e-04,-3.244059e-01,-3.105963e-01,-9.501898e-02,-3.098585e+00,1.713820e-01,-5.527393e-02,-1.261024e-01,-2.551328e-01,-2.944240e+00,
2.423434e-01,7.328292e-02,-2.339409e-01,7.021145e-01,9.714516e-01,5.150501e-01,1.271006e-02,-1.798560e+00,-1.459658e+00,-2.358529e-01,1.055194e+00,-1.108028e+00,-7.046294e-01,4.909722e-01,7.749470e-01,3.964552e-01,-4.639080e-03,2.745774e-01,-5.467998e-01,7.122838e-01,-6.594617e-01,-6.046165e-01,4.544882e-02,-1.736779e-01,3.045248e-01,-3.392463e-01,9.946684e-01,-3.292750e-02,-1.403025e+00,2.371607e-01,1.128790e+00,4.156744e-02,-4.647510e-02,1.522850e-01,1.029611e+00,1.752437e+00,4.470337e-01,2.137432e+00,6.594222e-01,1.223460e-02,5.430720e-02,-7.903735e-01,2.013156e-01,1.113022e-01,-4.694763e-01,-4.929402e-02,1.896108e-01,-2.161561e-01,-3.377982e-01,4.314510e-01,
1.971317e-01,1.216039e+00,5.496429e-01,-4.322627e-02,4.380613e-01,1.409538e-01,2.353982e+00,4.381117e+00,-2.857183e-01,6.424882e-01,-9.237186e-01,-2.161385e+00,1.650537e+00,7.720716e-01,1.717897e+00,4.473179e-01,1.606980e-02,3.123498e-01,2.520475e-01,-5.084594e-01,7.650328e-01,1.133277e+00,3.682107e-01,9.756623e-02,-3.103064e-01,-1.841452e-01,-9.055197e-01,7.807870e-03,-1.999910e+00,1.071434e+00,9.541836e-01,2.817919e-01,-3.660260e-04,-4.744888e-01,2.234398e-01,-2.144717e+00,1.605490e+00,6.788697e-01,-1.706841e+00,2.126790e-02,-9.069782e-01,-5.042676e-01,5.460455e-01,2.933562e-01,2.510847e+00,-1.064408e+01,-2.612572e-01,8.238873e-01,1.646046e+00,2.724286e-01,
-5.142584e-01,8.751535e-01,4.225437e-01,3.579645e-01,4.778080e+00,3.940455e-01,6.683310e-01,1.958136e+00,2.028970e+00,-1.643742e+00,7.137145e-01,-5.408454e-01,1.451811e+00,-2.398786e-01,-3.929076e-01,-3.779886e-01,1.470870e-02,-6.416828e-01,-2.386412e-01,-4.837079e-01,1.757050e-01,-7.991327e-02,-1.604194e-02,3.183717e-01,2.185863e-01,1.044122e+00,-5.253776e-01,-3.500560e-02,-7.259635e-01,4.307069e-01,2.341517e+00,-6.790881e-01,1.982950e-02,1.225832e+00,-8.355145e-01,-3.726093e-01,2.016350e-01,-2.074102e+00,1.911815e+00,-4.134970e-02,5.527534e-01,9.026148e-01,1.352221e+00,-1.171635e-01,-8.981630e-01,1.684996e-01,2.803510e-02,-1.212592e+00,1.298230e+00,1.025600e-01,
2.008383e+00,-2.568372e+00,-3.037738e+00,-2.490777e-01,-2.756823e+00,7.505224e-01,-1.927171e+00,-3.758224e+00,-4.137059e+00,-8.482172e-01,-2.518538e+00,-8.730145e-01,-1.131535e-01,-3.306088e+00,-7.697201e-01,7.571213e-03,9.251220e-03,-6.818864e-02,-1.373357e-01,1.254743e+00,2.448411e-02,-6.956204e-01,-1.985696e+00,8.728403e-02,-1.829453e+00,3.330480e-01,8.031247e-01,-4.384990e-02,1.895131e+00,1.389031e+00,1.266733e+00,3.913670e+00,6.769870e-03,3.646782e+00,1.917262e+00,-1.822742e+00,1.755120e+00,-1.596811e+00,-4.079321e+00,6.569540e-03,-1.468982e+00,1.029555e+00,-1.169591e+00,-1.474745e-01,-1.334950e+00,-9.684294e-01,3.076882e+00,9.762981e-01,-2.413606e+00,-4.709436e-02,
-1.232604e+00,2.434479e-01,-8.821751e-01,-1.057220e+00,1.421120e+00,8.154598e-02,2.535001e-01,-1.124666e+00,1.793329e+00,-2.191930e-01,-1.128694e+00,-1.618064e-01,2.148904e+00,-3.532916e+00,-6.859366e-01,-4.233899e-02,2.339130e-02,1.765843e-01,-5.201916e-01,9.769608e-01,-4.105270e-01,5.344492e-01,4.210582e-01,-9.907736e-01,-1.196297e+00,3.071474e-01,1.131933e+00,4.034570e-02,-5.412932e-01,4.906361e-01,-1.899756e+00,-4.323031e-01,3.980050e-02,-3.875026e-01,-1.236729e+00,7.447505e-01,6.863147e-01,9.034902e-01,1.731320e+00,4.023670e-03,2.443444e-01,5.640330e-01,4.457978e-01,1.776119e-02,1.185523e+00,-2.119656e+00,-1.890821e-01,-5.691895e-01,-1.108120e-01,4.015467e-01,
1.839790e+00,9.862944e-01,1.155616e+00,-9.194853e-01,2.979375e+00,-7.034628e-01,-7.211033e-02,-1.132440e+00,3.071276e+00,8.767598e-01,-3.029094e+00,8.406779e-01,-1.983175e-01,1.112417e+00,-2.531804e+00,5.170363e-01,-1.211510e-02,-5.191820e-01,8.645943e-01,-3.596028e-01,6.099947e-01,-3.987408e-01,1.008100e+00,1.446680e+00,1.769720e+00,3.404623e-01,1.377305e+00,-3.899490e-02,-9.993169e-01,2.519128e+00,1.038854e+00,-2.392664e+00,4.551280e-02,1.361155e+00,2.312639e+00,-9.433628e-01,2.213216e+00,7.757408e-01,4.498835e+00,3.052810e-02,-4.843057e-02,1.449182e+00,-1.175821e+00,-1.700413e-01,2.736210e+00,-3.162937e+00,8.140293e-01,-2.730556e-01,1.304704e+00,3.130268e+00,
7.459626e-01,9.136744e-01,1.004331e+00,-4.800093e-01,7.693692e-01,-1.531027e+00,5.943700e-01,-1.816516e+00,1.003062e+00,-6.973076e-02,1.583106e+00,1.192516e-01,1.124249e+00,1.294344e+00,1.913348e-01,-1.287120e-01,-5.841530e-04,-5.443378e-01,-1.153823e+00,-1.573976e+00,9.782783e-01,-4.960722e-01,-1.036533e-02,1.492326e+00,3.097250e-01,1.893698e-01,-4.183144e+00,-4.677080e-02,-3.032591e-01,-5.204226e-02,8.111411e-01,-4.748147e-01,2.097810e-02,1.532278e+00,-1.104945e-02,3.134793e-02,-1.567003e-01,1.037964e+00,1.774767e+00,1.063090e-02,-9.246749e-01,2.676739e-01,3.261941e-01,-9.062824e-02,9.373825e-01,-2.902128e+00,6.248497e-01,1.448351e-01,-2.613794e-01,5.690314e-01,
-6.572869e-02,-9.361453e-01,5.316264e-01,9.766663e-01,-7.177256e-02,1.961085e-01,8.951617e-01,-1.375495e+00,-1.441086e+00,-1.046166e-01,-7.403275e-01,1.188768e-01,-8.630016e-01,7.275427e-01,-5.115674e-01,4.183045e-01,-1.712540e-02,-5.949749e-01,-6.097881e-01,9.049448e-01,5.091366e-01,2.289303e-01,-6.789336e-01,-6.305970e-01,-2.191660e+00,-1.197971e-02,-3.301031e+00,-8.079540e-03,2.866359e-01,3.495845e-01,9.505061e-01,3.741628e-01,-8.661610e-03,-1.257175e+00,-2.470388e-01,-3.145215e-01,1.859149e+00,7.802132e-01,-8.255134e-01,-1.290130e-02,3.828205e-01,3.956832e-01,1.091488e+00,-7.327525e-02,1.003051e+00,2.803193e-01,8.637238e-01,1.078883e+00,-4.488980e-01,-7.093939e-01,
-8.607517e-01,1.051554e+00,-2.848201e+00,2.132083e-01,2.154988e+00,2.415148e-01,9.636137e-01,1.542527e+00,1.764745e+00,-1.232460e-01,7.986651e-01,1.036242e+00,3.664358e-01,1.861482e+00,-1.497753e+00,7.048200e-01,-2.178360e-04,-1.956018e-01,2.000609e+00,-2.580007e-01,9.491329e-01,1.837101e-01,4.230381e-01,-1.524241e-01,5.934524e-01,-1.608313e+00,1.509981e+00,-6.530600e-03,7.720502e-02,1.368480e+00,1.550470e+00,-1.338217e+00,3.550030e-02,1.356541e-01,-4.362599e+00,-1.063064e+00,2.360709e+00,-1.885452e+00,-9.748788e-01,2.826630e-03,9.838737e-01,6.285907e-01,2.672804e-01,-4.822376e-02,3.865492e+00,1.409814e+00,-6.203108e-01,-4.821380e-01,1.063185e+00,-1.533668e-02,
-1.247812e+00,-2.027034e-01,-8.065704e-01,3.531692e-01,-2.263509e+00,9.966721e-01,1.795303e+00,-3.613608e-01,9.832574e-02,1.908495e-01,-8.479126e-01,-3.769379e-01,-2.998105e+00,1.385546e+00,-1.185702e+00,1.105747e+00,4.078250e-02,1.726487e-01,6.857829e-01,2.875038e-01,5.603930e-01,-5.275593e-01,-2.146831e-01,-2.816299e-01,3.107994e-01,5.808574e-01,-4.135824e+00,-5.405060e-02,1.400515e-01,3.056076e-01,1.910865e-01,-6.210782e-02,-1.423740e-02,-2.487232e+00,-3.564226e-01,-1.197212e+00,-9.098233e+00,-1.324698e+00,-1.611802e+00,-8.550490e-03,-7.728845e-02,-7.857033e-01,-1.268584e+00,1.836967e-02,3.845976e+00,5.789804e-01,1.401278e-01,-1.676028e-01,-3.135350e+00,3.308613e-01,
