// The contents of this file are licensed under the Creative Commons
// Attribution 4.0 International License: https://creativecommons.org/licenses/by/4.0/
// Neural Network File Format by Kyle Julian, Stanford 2016 (generated on 11/27/2021 22:35:11)
7,5,5,50,
5,50,50,50,50,50,50,5,
0,
0,0,0,0,0,
0,0,0,0,0,
19791.091,0.0,0.0,650.0,600.0,7.5188840201005975,
60261.0,6.28318530718,6.28318530718,1100.0,1200.0,373.94992,
6.981548e-03,8.315848e-02,1.096984e+00,-5.851970e-02,1.368213e-01,
3.967640e-03,-6.037990e-03,-1.583490e-02,-2.715390e-03,1.984140e-02,
6.245282e-02,-1.601540e+00,-5.575565e-01,6.749888e-02,-1.050432e-01,
1.522900e-02,1.290455e+00,-1.207984e+00,1.846333e-01,-3.974840e-01,
-1.235950e-02,1.668495e-01,3.208110e-01,3.011914e-01,-3.227316e-01,
5.806217e-01,6.854075e-01,-3.667408e-01,-4.327702e-01,4.170704e-01,
2.771092e-02,-1.311444e+00,-1.385613e-01,8.475674e-01,-1.136991e+00,
1.068310e-02,8.745220e-03,-6.851180e-03,-1.410940e-03,9.799100e-03,
-2.079555e-02,-2.213389e-01,-5.468543e-01,-1.737200e-01,-2.803912e-01,
-9.439206e-02,7.280539e-01,-9.758368e-01,-7.468476e-02,2.730069e-01,
-5.859728e-02,9.063104e-01,-9.271475e-01,2.026649e-01,-3.240520e-01,
7.358081e-02,1.145342e+00,-9.724956e-01,8.894180e-02,2.291664e-02,
-3.277366e-02,-1.747757e+00,2.279317e+00,-1.290450e-01,6.865332e-01,
-2.764248e-02,7.056819e-02,7.075198e-02,-2.615554e-01,-2.393328e-01,
-5.681810e-02,6.133090e-01,-1.953307e-01,7.209846e-01,-6.929576e-01,
-7.141170e-04,-7.338095e-01,9.533757e-01,3.443702e-01,-6.994370e-01,
2.886853e-02,-2.152733e-01,9.505520e-04,4.292802e-01,-5.619751e-01,
1.649457e+00,9.435003e-03,1.905941e-03,-5.266699e-03,2.149926e-02,
-2.018680e-01,-1.469122e+00,1.762333e+00,-1.234709e-01,7.395016e-01,
-1.310380e-02,8.478500e-04,4.741930e-03,-2.245270e-03,-1.724800e-02,
3.956121e-03,6.871783e-01,5.405536e-01,1.870779e-01,-4.646240e-02,
-4.529070e-02,9.986126e-01,1.551685e-02,8.495508e-03,-5.574936e-01,
2.795306e-01,-1.205611e+00,1.440347e+00,1.760203e-01,-2.609610e-01,
-2.676747e-02,8.139906e-01,5.968586e-02,-3.029503e-01,1.018553e-01,
5.943073e-03,-3.867734e-01,-1.359879e-02,-3.475452e-01,3.449843e-01,
2.197186e-02,-8.421398e-01,1.164480e+00,-7.634436e-02,2.438664e-01,
-2.281658e+00,4.125056e-02,1.217497e-02,1.411957e-02,-5.952911e-03,
-1.336858e-02,-8.332041e-01,-6.692222e-01,3.541249e-01,-2.238085e-01,
7.286096e-04,5.975881e-01,1.044247e+00,5.753924e-01,-2.716374e-01,
-2.568110e-03,1.479830e-03,-4.383890e-03,-1.635520e-02,1.266170e-02,
3.924041e-02,1.146943e+00,4.496693e-01,1.088881e+00,-1.268651e+00,
3.612684e-02,9.932640e-01,-9.094775e-01,9.199237e-02,7.881940e-02,
8.389222e-02,-1.085944e+00,3.116238e-01,4.597537e-01,-5.309314e-01,
-9.008621e-02,9.506339e-02,-6.778842e-01,-7.312355e-01,9.747159e-01,
-1.807968e-01,-2.828252e+00,2.508184e+00,3.995312e-01,-5.973756e-01,
-4.474162e-01,1.504242e+00,-1.873372e+00,6.929713e-02,7.684908e-02,
3.582771e-04,2.145135e-01,6.802801e-01,1.113828e-01,-1.504068e-01,
4.369117e-02,-1.139335e+00,-1.800580e-01,9.241070e-02,5.343115e-02,
-8.530300e-03,-7.251870e-03,4.931590e-03,-1.223610e-03,-4.052330e-05,
1.731489e-01,2.246225e-01,2.736845e-01,1.550407e-01,1.277941e-01,
-1.964684e-01,-1.202910e+00,1.211472e+00,2.652224e-01,-4.744418e-01,
-1.583759e-01,-4.819784e-01,-1.897685e-01,-4.075879e-01,1.560004e-01,
-3.498800e-02,-6.296751e-01,3.473512e-01,5.039684e-01,-5.110230e-01,
8.075632e-02,5.651260e-01,3.103255e-01,1.335842e-01,9.280513e-02,
1.962493e-02,-3.004783e-02,-4.412804e-02,2.192730e-01,2.710587e-01,
4.737587e-02,8.909070e-02,-4.756220e-02,-3.129233e-02,-1.895925e+00,
2.600570e-02,1.856504e+00,1.221725e-01,1.625016e-01,-3.078819e-01,
-2.223350e-03,-5.094950e-04,-5.746780e-03,-4.583240e-03,2.639740e-02,
-7.097754e-03,-9.722099e-01,-8.921316e-01,5.161464e-01,-2.242399e-01,
1.258156e-01,-1.348207e+00,1.042377e+00,5.791314e-02,1.532187e-01,
7.338300e-02,
-2.497960e-02,
-3.350465e-01,
-3.468654e-01,
-2.475300e-02,
-7.029291e-02,
-1.683552e-01,
-2.070250e-02,
3.905942e-02,
-3.851445e-01,
3.631189e-02,
-3.031911e-01,
-6.776763e-01,
2.261484e-02,
1.786574e-01,
1.869623e-01,
1.645602e-02,
4.740955e-01,
-3.278964e-01,
-1.721960e-02,
-1.725842e-01,
-1.713293e-01,
-4.562314e-01,
-2.194666e-01,
6.751511e-02,
-4.937282e-01,
-3.422199e-01,
-1.812855e-01,
-8.199444e-02,
-2.025680e-02,
-1.698925e-01,
-3.757152e-01,
-1.602814e-01,
-3.373692e-01,
-6.030936e-01,
-2.063594e-01,
-2.465349e-02,
1.847646e-01,
-1.643760e-02,
-1.541083e-01,
4.945573e-02,
-2.230454e-01,
6.837261e-02,
-2.749047e-03,
-2.879376e-02,
-7.124462e-01,
-8.923358e-02,
-2.303210e-02,
-6.492716e-02,
-3.673848e-01,
-8.169150e-02,4.008860e-02,-3.650420e-02,3.822610e-02,-3.021290e-02,-2.042930e-02,-2.603540e-02,-3.876600e-02,1.123730e-02,-1.056330e-02,-5.158730e-02,-4.818170e-02,3.565850e-02,-1.591010e-02,-2.772070e-02,2.337730e-02,-7.812060e-03,1.190640e-02,8.031350e-03,-2.157800e-02,-3.809590e-02,-2.781940e-02,1.460610e-02,-1.850270e-02,-4.119420e-02,7.461170e-03,-1.833480e-02,2.773700e-02,-3.668600e-02,2.423430e-02,-2.353100e-02,1.530520e-02,-5.800850e-02,-3.419230e-02,2.928570e-02,3.124860e-02,-2.289370e-02,-6.174390e-06,-4.326350e-02,9.129890e-03,-9.025390e-02,-5.327070e-02,-1.370420e-03,1.120030e-02,-3.323540e-02,-2.210300e-02,1.556140e-02,-7.875010e-03,-7.633060e-02,-4.457420e-02,
1.416625e+00,-5.133740e-03,-7.154544e-01,8.372375e-01,-1.308727e+00,-5.907362e-01,1.191773e+00,5.023030e-02,4.081975e-01,4.469519e-01,7.630442e-02,-6.329717e-01,-2.273974e+00,8.779351e-02,-1.262890e-01,-1.463403e+00,-3.394451e-01,3.038895e-01,-3.288419e+00,4.002150e-02,1.856334e+00,3.950865e-01,6.062692e+00,-1.482739e+00,1.430515e+00,-6.513597e+00,2.992965e-01,-3.425720e-01,1.063355e+00,-1.521240e-05,3.540298e-01,-1.476116e+00,-1.236368e+00,7.800722e-01,-1.098893e+01,-1.687858e+00,-1.115846e+00,-2.760592e+00,1.439300e-02,7.587267e-01,-2.919667e+00,-1.411903e+00,-3.444622e+00,1.373554e+00,-1.866667e+00,-1.836951e+00,5.214027e-01,-3.445730e-02,1.723479e-01,-1.526015e+00,
-1.658749e+00,-1.176560e-02,1.241156e+00,-3.433584e-01,1.158067e+00,5.359799e-01,1.651316e-01,-1.735530e-02,-7.081640e-01,3.788174e-02,-1.279364e+00,1.521974e+00,3.607165e-01,2.292286e-02,-1.428141e-01,3.921888e-02,6.032296e-01,-1.572441e-01,7.849585e-02,-3.839680e-02,-1.450143e-01,-2.541657e-01,-1.357503e-01,1.608596e+00,5.440335e-01,-8.230053e-01,-7.996218e-02,4.666170e-01,-2.268228e-01,1.232460e-02,-8.365037e-02,-4.536262e-02,-8.934956e-01,-6.807153e-01,-1.614225e-01,-5.741514e-01,1.339334e+00,1.496609e+00,-3.277900e-02,5.868245e-02,-3.486208e-01,-2.694843e+00,2.059474e-01,6.381934e-01,-5.947991e-01,-2.633918e+00,2.899881e-01,-2.326310e-02,-6.808233e-01,-7.575463e-01,
-1.208063e+01,-4.031550e-02,1.415247e+00,-2.127413e+00,-2.378223e+00,-1.129970e-01,1.199916e+00,-9.098360e-03,7.489747e-01,-2.025070e+00,-6.704053e-01,-2.809726e+00,1.176290e+00,-1.242744e+00,-9.831508e-02,-1.677970e+00,7.185560e-01,5.883148e-02,-1.677690e+00,2.181830e-03,8.647270e-03,-2.175849e+00,-3.730685e+00,-2.943407e+00,1.419441e+00,1.156807e+00,-1.154235e+00,5.272687e-01,-2.373110e-01,4.320510e-02,-2.319942e+00,-4.082533e+00,1.566018e+00,-2.006966e-01,-2.124794e+00,-9.925140e-01,-3.623639e+00,1.683484e+00,2.111850e-03,-1.506085e-01,-1.162211e+00,-1.636209e+00,5.484717e-02,-7.418153e-01,-4.468087e-01,-2.887908e+00,-2.944122e+00,-3.727720e-02,1.946073e+00,-1.412137e+00,
-4.274309e-02,4.786740e-02,4.555964e-01,-9.165474e-01,-9.300808e-01,4.730334e-02,1.554806e-03,-5.343800e-02,-3.157917e-01,1.493293e+00,1.637601e-01,-1.141158e+00,1.386522e-01,-6.392851e-01,2.208514e-01,-3.281897e-01,-2.340132e-01,1.175038e-01,2.369873e-01,1.716410e-02,9.758732e-02,5.754824e-01,-7.377183e-01,-1.279378e+00,-1.313856e+00,4.457741e-01,1.658288e+00,2.753909e-02,-3.489924e-01,2.330960e-02,-9.833915e-02,-4.920875e-01,-9.571236e-04,2.226617e-02,2.095153e-01,2.215751e-01,2.639283e-01,-1.015820e-01,2.254700e-02,-4.591158e-01,7.404403e-02,7.976970e-01,5.411676e-01,8.623756e-01,1.231554e+00,-2.652607e+00,8.208030e-01,1.991950e-02,2.917620e-01,5.771828e-02,
-3.905342e-01,5.101390e-02,8.566704e-02,1.098326e+00,-1.936722e+00,3.602152e-01,4.544061e-01,6.310340e-03,-4.357387e-01,4.948831e-01,-2.486830e-01,2.396343e+00,5.342047e-01,3.884601e-01,-1.253713e-01,-7.830544e-01,-1.036054e+00,-3.531775e-01,-1.045581e-01,-9.810160e-03,-1.661781e+00,-3.686786e-01,1.211558e+00,4.847569e-01,2.084760e-01,7.280018e-01,-8.108031e-01,-6.332461e-01,-1.544407e-01,2.612420e-02,-8.302469e-01,2.691269e+00,9.539652e-01,-3.770511e-01,7.058627e-01,-1.518596e-01,-2.613220e+00,1.736583e-01,-2.243570e-02,-2.703585e-01,-7.331187e-02,-8.977612e-01,-8.517397e-01,-1.715437e-01,-1.232141e+00,-4.432245e+00,-5.417098e-01,-1.664160e-03,-4.537170e-01,1.074196e+00,
1.669542e+00,1.783860e-02,-2.365943e+00,1.526781e+00,1.091815e+00,-7.857028e-01,-1.187644e+00,-3.050770e-02,-4.559785e-01,7.244748e-01,-2.405270e-01,-9.025572e-01,-1.302598e+00,-7.688948e-01,-2.778910e-01,-1.720714e-01,3.647636e-01,2.797410e-01,1.066050e-01,4.731000e-02,7.785182e-01,7.184941e-01,-7.252867e-01,-2.844781e+00,1.112890e+00,-1.748407e+00,-9.588635e-01,-8.921381e-01,4.994680e-01,-3.509900e-02,9.613368e-01,2.444849e-01,-1.750786e+00,4.899955e-01,-1.184669e+00,-1.044239e-01,2.057879e+00,-8.191028e-01,1.202080e-02,8.306167e-02,-1.748895e+00,6.438782e-01,-4.718949e-01,3.260376e-01,4.476549e-01,-4.835124e-01,5.051438e-01,-8.341650e-03,-4.665420e-01,-1.990527e+00,
-1.019118e-01,9.709330e-04,2.498466e-01,-1.787729e-01,-1.105333e-01,3.000365e-01,1.960178e-01,-3.742450e-02,6.931174e-01,-4.120083e-01,5.546901e-01,-9.818927e-01,-4.887637e-01,1.129230e+00,-1.210679e-01,2.380769e-01,-2.685221e+00,-3.989666e-01,7.890628e-01,1.503290e-02,2.836398e-01,6.560954e-01,2.837768e-01,1.183453e+00,8.742472e-01,-4.214200e-02,2.771122e-01,4.318160e-01,-5.560951e-01,3.478510e-02,-1.633983e-01,-1.945804e+00,3.429138e-02,2.968454e-01,-9.657697e-02,1.410656e-01,1.883392e+00,1.516926e-01,-2.747430e-03,-4.952711e-01,5.458421e-01,1.010864e+00,3.622861e-01,8.093218e-01,6.201904e-01,-3.378792e-01,7.217016e-01,-4.434350e-03,2.762521e-01,-5.547895e-01,
-3.698130e-02,7.904750e-03,-1.013230e-02,1.211460e-02,-3.820820e-02,-2.734130e-02,-5.212010e-02,-1.435060e-02,-5.738990e-02,-4.032790e-02,-1.700030e-02,3.525770e-03,-1.326530e-02,-1.578360e-02,3.198250e-02,-3.298320e-02,-3.380190e-02,-3.210960e-02,-2.238140e-02,-4.111800e-02,7.527380e-03,-1.870770e-02,1.176920e-02,4.202670e-03,-1.511190e-02,-3.553230e-02,-4.282120e-02,-2.098780e-02,-4.166850e-02,4.338600e-03,3.796020e-02,-5.036670e-02,9.186470e-03,-2.704910e-02,1.818050e-02,-4.744140e-03,-4.400810e-02,8.413840e-03,1.148430e-02,-3.835400e-02,-4.969600e-02,3.732410e-02,-2.046610e-02,3.412540e-03,4.350520e-02,-5.445350e-03,-6.788190e-03,1.319720e-02,-9.417660e-03,-2.818270e-02,
9.439766e-01,3.510410e-02,3.713831e-01,4.898889e-01,1.443347e+00,5.923777e-01,-5.901555e-01,1.633750e-02,2.252559e-02,-2.062179e-01,-3.391128e-01,-1.435904e-01,-2.155129e-01,5.598264e-01,-6.695080e-01,3.125815e-01,8.931682e-01,2.443862e-01,1.541265e-01,-3.349070e-03,-6.859355e-01,1.215087e+00,-8.246487e-01,1.694643e+00,1.484591e+00,8.517563e-01,1.149093e+00,1.145469e+00,7.187229e-01,1.377160e-02,-1.166874e-01,2.404412e-01,4.405532e-01,-1.122115e+00,-3.232657e-02,5.827587e-01,8.672940e-01,-7.121769e-01,3.574090e-02,1.249724e+00,3.460796e-01,9.336380e-01,5.838804e-01,-6.137769e-01,3.368692e-01,2.701768e-01,-4.879193e-01,-2.799780e-02,8.175809e-02,-1.419440e+00,
-1.386474e+00,-1.254500e-02,-4.354130e-01,-5.869633e-01,-8.639905e-01,-3.632593e-01,1.302675e+00,6.629820e-03,9.612783e-01,-3.725868e+00,-4.970303e-01,-3.658745e-01,6.404168e-01,6.673903e-01,-6.770055e-01,2.587253e-01,8.176519e-01,1.904375e-02,-5.829494e-02,-2.704300e-03,-1.851887e+00,-3.932484e+00,9.918075e-01,6.832190e-01,-9.943712e-01,1.447676e+00,-1.292270e+00,-1.768468e-01,-4.614329e-01,-4.580910e-02,-5.431271e-01,-2.191858e+00,6.070237e-01,-1.090404e+00,6.869298e-01,3.465534e-01,-4.186547e-01,8.300580e-01,1.499190e-02,-3.796580e-01,4.571002e-01,-2.237840e+00,4.452569e-01,-9.281208e-01,7.994600e-02,1.661545e+00,-2.345002e+00,2.613500e-02,1.862090e-01,1.500655e+00,
8.725508e-01,-1.528260e-03,-1.001374e+00,5.340855e-01,1.501232e+00,-5.387912e-01,8.047947e-01,-3.127740e-02,1.371496e+00,6.997415e-01,-3.516994e-01,1.447971e+00,-4.562568e-01,8.820857e-01,-1.208381e+00,6.899904e-01,1.296549e+00,-7.254961e-02,7.941430e-01,-4.068830e-02,-6.668316e-01,1.540590e+00,-8.411606e-01,2.437437e+00,2.503077e-01,-4.644270e-01,6.180931e-01,6.488695e-01,3.680394e-01,-7.439100e-03,-2.274679e-01,1.716728e+00,-8.790241e-01,-5.135374e-01,-5.948159e-01,-4.348161e-01,1.232501e+00,8.315176e-01,3.416570e-02,-2.386848e-02,5.887916e-01,-2.211782e-01,1.295850e-01,-1.272331e+00,4.342886e-01,2.963185e+00,-4.654437e-01,3.297510e-02,5.180587e-01,-3.847287e-01,
-2.936493e-01,3.294080e-02,-8.126158e-01,6.918805e-01,-2.757218e+00,2.057265e-01,-4.672092e-01,-2.969200e-02,5.678009e-01,-1.014797e+00,-5.357636e-01,-5.682958e-02,-9.446004e-01,2.128223e-01,8.915907e-01,-2.529587e-01,-2.380582e-01,-2.865316e-01,-1.599629e-01,8.533110e-03,5.411661e-01,7.074461e-01,1.019488e+00,-3.413770e-01,-7.174000e-01,1.554556e+00,-2.062102e-01,-3.852156e-01,1.203672e+00,-3.858700e-02,-1.714830e-02,2.148000e-01,-1.101537e-01,5.817662e-01,2.461052e-01,-1.070327e+00,-1.299080e+00,6.284016e-01,4.727560e-02,-1.141003e-01,-8.256883e-01,-4.314442e-01,1.712243e-01,5.689688e-01,4.800028e-01,-1.206524e+00,-2.343859e-01,2.007830e-02,4.371594e-01,1.102502e+00,
2.027336e+00,-3.736890e-02,4.190530e+00,1.422005e+00,1.461442e+00,-2.680063e-02,-3.867318e-01,6.740650e-03,-3.589907e-01,2.639734e+00,-1.175551e-01,8.962551e-01,-1.493076e+00,3.736421e-01,1.783824e-01,-8.619847e-02,-3.792909e-01,1.429211e-01,4.962276e-02,-5.042460e-02,1.687558e+00,2.077926e+00,-1.727388e+00,1.666463e-01,1.216536e+00,-2.226264e+00,-6.525642e-02,1.618226e+00,5.396514e-01,1.391030e-02,2.408464e-01,2.688347e+00,-2.338741e-01,-3.430794e-01,-1.092738e+00,-2.349982e-01,1.709567e+00,-2.841692e-01,-1.676640e-02,4.319247e-01,-3.475498e-01,2.008561e-01,-5.313489e-01,9.238882e-01,-2.907065e-01,6.612760e-01,1.499655e+00,2.235530e-02,-1.033255e+00,-1.905365e+00,
-2.972796e-01,-8.071790e-03,7.599255e-02,2.943342e-01,-2.082244e-01,-2.210166e-01,1.893535e-01,2.664160e-02,6.988505e-02,-5.126651e-01,2.468902e-01,4.856392e-01,1.769814e-01,-4.015222e-01,-3.482153e-01,-6.651949e-02,4.653222e-02,8.133636e-02,2.041808e-01,2.593650e-02,1.525131e+00,1.558136e-02,3.950578e-01,-8.182578e-01,3.058069e-01,5.821742e-02,-7.594417e-01,6.989215e-02,-4.020685e-01,-2.523230e-02,-4.141321e-02,-1.506195e-02,3.098446e-01,-2.631140e-02,-1.451665e-01,-8.593773e-02,3.627572e-01,-3.856046e-02,-1.355620e-02,-2.787522e-01,2.607194e-01,-2.120136e+00,1.874037e-03,-1.693255e-01,6.864284e-01,9.758563e-01,8.911677e-01,-2.893470e-03,2.658592e-01,3.665832e-01,
7.854772e-01,-9.712030e-03,5.939855e-01,-3.009930e+00,9.144156e-02,-6.148667e-01,-2.019595e-01,3.414710e-02,5.813727e-01,-3.465000e+00,-9.017974e-01,-2.009210e+00,-4.323780e-01,5.884292e-01,9.241666e-01,-2.108129e-01,-3.380861e+00,1.510096e-01,3.093517e-01,1.825470e-02,-1.038164e+00,8.838370e-01,6.417680e-01,-2.821902e+00,7.363054e-01,-1.411474e+00,1.037440e+00,9.762681e-01,-3.224813e-01,-4.212530e-02,3.803091e-01,-9.479670e-02,8.358408e-01,7.076240e-02,3.794849e-01,3.710138e-01,1.271438e+00,4.384137e-01,5.861050e-03,9.344726e-01,2.817326e-01,6.189164e-02,-8.747275e-01,-7.101400e-01,-6.848272e-01,2.596768e-01,-3.700026e+00,1.395080e-02,4.330712e-01,2.676173e-01,
-5.400688e-01,3.115900e-02,7.151940e-01,1.384808e+00,-5.444605e-01,-9.206659e-01,7.325557e-01,5.550590e-02,-3.607160e-01,1.957817e+00,-1.811689e+00,5.161417e-01,-7.194538e-01,4.687790e-01,-1.510805e+00,3.080382e-01,4.766507e-01,4.867301e-01,-6.810293e-01,1.170100e-02,1.866673e+00,3.013022e+00,8.719180e-01,-2.551580e+00,-1.093412e+00,-3.408942e-01,-5.278366e-01,5.421616e-01,4.306556e-01,5.640160e-02,-2.194509e-02,5.762612e-01,5.825389e-01,5.875143e-01,-5.507469e-01,-9.633918e-01,1.845656e-02,6.379027e-01,5.695280e-02,-3.080458e-01,-2.856436e-01,-2.802251e+00,1.412160e-01,-1.560784e+00,-4.173739e-01,-4.076162e-01,-2.713293e+00,2.593480e-02,-1.574689e-01,-4.311577e-01,
-5.069659e-02,-7.903800e-03,2.334099e-01,2.495246e-01,-1.187681e-02,-7.341941e-02,-6.173292e-01,-2.667670e-02,-5.280550e-02,-2.547818e-01,7.510464e-01,-1.027585e+00,1.556042e-01,6.225735e-02,-5.955736e-02,5.303456e-02,3.055639e-02,9.926783e-02,-2.056013e-01,5.131190e-02,-5.799866e-01,5.737116e-01,-7.955761e-02,-1.214188e-01,2.913515e-01,-6.881198e-01,-2.395695e-01,1.433279e-01,1.565277e-01,4.370590e-02,4.170428e-04,-8.771021e-01,6.098685e-01,-4.079711e-01,2.808151e-01,-5.271192e-01,-3.478320e-02,-3.108479e-01,-1.769920e-02,-3.628086e-01,-5.342848e-01,-1.252211e+00,1.224731e-01,-5.357100e-01,-3.564934e-01,4.071070e-02,3.132045e-01,-4.931810e-03,-2.986785e-01,-7.028682e-01,
1.559060e+00,-1.161950e-02,-2.411096e-01,-6.681597e-01,7.260383e-01,-1.701571e-01,-4.578256e-01,4.338560e-02,1.144636e+00,-6.323790e-01,4.102784e-01,3.793942e-01,-3.639401e-01,-5.623577e-01,-2.954489e-01,4.356598e-02,-1.831848e+00,5.235316e-01,-5.169051e-02,-4.254810e-02,1.650025e+00,1.819805e+00,-7.257484e-01,-5.913124e-01,-9.417185e-04,4.074030e-01,-3.279434e-01,4.635708e-01,7.727836e-01,-3.795440e-02,1.833839e-01,9.300706e-01,1.458354e+00,5.175559e-01,3.925279e-01,1.080037e+00,1.258811e+00,1.090276e+00,-7.655490e-03,-9.710562e-02,-5.822785e-01,1.779077e+00,-8.684330e-01,2.342691e-01,3.565984e-01,-4.950425e+00,-2.643245e-01,-5.095220e-02,1.479461e+00,2.441647e-01,
-6.496085e-01,-4.070890e-02,7.151911e-01,1.313626e+00,2.312785e-01,-6.305680e-01,-3.802449e-01,1.765660e-02,-4.536489e-02,9.877630e-01,-9.792911e-01,1.266356e-01,3.742793e-01,6.087020e-01,3.350111e-01,-7.040215e-01,-1.732738e+00,2.257769e-02,8.984976e-03,1.326540e-02,7.658692e-01,1.287392e+00,1.254991e+00,-2.135112e+00,1.198748e-01,7.090629e-01,-2.776554e-01,1.840575e-02,1.000615e-01,-3.267130e-02,4.322407e-01,-1.070513e+00,-2.233899e-01,-2.158277e-01,5.850453e-01,-7.713319e-01,1.043115e-01,-9.374356e-01,1.899410e-02,-9.786881e-01,-4.938142e-01,-1.133382e-01,2.669401e-01,-4.467587e-01,-8.310698e-01,2.540867e-01,7.714911e-01,-3.635410e-02,-1.200741e+00,1.599003e+00,
1.621129e-01,-1.272390e-03,-5.443059e-02,-1.245859e-01,5.049507e-01,1.605086e-01,2.661318e-01,3.000500e-02,3.329803e-02,-8.859760e-01,-2.664538e-01,-1.492850e+00,-1.103662e-01,5.621960e-01,4.723914e-01,-2.903439e-01,-3.592565e-01,-2.946634e-02,-4.915651e-02,-3.337350e-04,-1.055902e+00,-1.198298e+00,-4.286206e-01,8.458911e-01,3.974273e-01,6.086471e-02,-1.429572e-01,1.640772e-01,-1.337899e-01,-3.989980e-02,3.086334e-02,-8.838027e+00,-2.496480e-01,-9.015740e-02,1.638840e-01,2.022758e-01,-5.274280e-01,-3.417426e-01,2.398680e-02,8.143445e-01,1.820754e-01,-3.600626e-01,-1.275029e-01,9.854672e-02,-9.877742e-01,-6.180385e-01,-6.166380e-01,2.234690e-02,-2.107042e-01,1.236723e-01,
4.650735e-01,7.390840e-03,-4.773361e-01,8.720483e-02,9.059820e-01,1.715723e-01,-1.560363e-01,-4.811800e-02,-3.106603e-01,-5.117449e-01,-2.597105e-01,-2.565884e-01,-2.417485e+00,2.832908e-01,-1.755253e-01,-3.727566e-01,4.849163e-01,3.975045e-02,-5.847421e-01,3.411700e-02,4.411665e-01,2.506191e-01,-1.819025e+00,4.367541e-01,7.252183e-01,-9.495030e-01,6.696476e-04,1.929971e-01,3.916404e-02,-4.853340e-02,-4.757859e-01,-3.337743e-01,2.160800e-01,-2.234144e-01,-1.990981e-01,4.907680e-01,-5.360259e-01,7.882251e-02,2.493030e-02,-8.698995e-02,-3.345260e-01,-1.961309e-01,4.995367e-01,3.656782e-01,-2.160708e-01,-5.796340e-01,3.024396e-01,-2.393590e-05,5.191849e-01,7.603344e-02,
-4.742282e-01,-1.968720e-02,-3.595474e-01,7.033757e-01,-7.275583e-01,-1.450643e-01,3.588329e-01,3.089760e-02,-2.679959e-01,-7.882048e-01,-1.974296e-01,1.186226e+00,5.003972e-01,-6.419429e-01,1.895820e-01,3.107191e-01,6.619795e-01,-2.652013e-03,9.728807e-02,-2.920620e-02,-1.029696e+00,1.085107e+00,2.672823e-01,-1.964404e+00,-1.638933e+00,8.931134e-01,-7.278264e-03,-1.111488e+00,1.319467e-01,8.004040e-03,-3.401325e-01,6.835949e-01,5.538874e-01,3.545017e-01,-5.069920e-03,-4.980180e-02,-4.907012e-01,-1.057704e-01,8.359690e-03,-1.476544e-01,3.108100e-01,-4.255625e-01,4.299224e-01,-2.628856e-01,-3.549466e-01,-1.099630e-01,3.644718e-03,2.542460e-02,-2.897702e-01,8.762082e-01,
-1.988750e-02,-6.077360e-03,-5.402840e-02,-6.321540e-03,1.678550e-02,-4.970770e-02,2.580310e-02,-3.884690e-02,-1.039470e-02,5.458070e-03,2.452290e-02,-4.911670e-02,1.949530e-02,-5.051090e-02,-1.785830e-02,-5.675740e-02,-5.725600e-02,-5.836630e-02,-5.554360e-02,-5.378030e-02,2.573020e-02,2.396760e-02,8.674930e-03,-1.394810e-03,-4.219690e-02,-4.864940e-02,-4.812410e-02,3.312440e-02,-4.869700e-02,-1.378320e-02,3.875880e-02,-3.538540e-02,-8.643100e-03,-3.071480e-03,2.301060e-02,2.830450e-02,3.668860e-02,-4.142590e-02,4.528470e-03,3.297370e-02,-1.434930e-02,5.925320e-03,-2.262620e-02,1.437830e-02,3.600880e-02,1.933170e-03,-3.895810e-02,7.389290e-03,1.631550e-02,-1.863730e-02,
2.587350e-02,-6.570130e-03,1.906970e-02,-5.353470e-02,-2.564640e-02,7.679360e-02,-4.033480e-02,-9.241600e-03,3.129690e-02,-2.121340e-03,-5.266880e-02,-5.002880e-02,3.614800e-02,-5.677230e-02,-3.767440e-02,-5.758320e-02,4.761910e-03,-4.234190e-02,1.563850e-02,-3.373810e-02,8.519860e-03,4.857680e-02,1.075590e-02,-3.870270e-04,-2.375490e-02,4.423880e-02,1.763070e-02,4.091750e-02,3.275080e-02,-3.565990e-02,-1.242850e-02,-1.197160e-02,-1.240790e-02,3.077820e-02,-6.662030e-02,3.507800e-03,-2.797300e-02,-1.014450e-02,2.166990e-02,3.799850e-02,-6.493480e-02,1.226770e-02,2.813390e-04,-1.225110e-02,-1.994350e-02,-2.360110e-02,-3.860200e-02,3.111300e-02,-1.159900e-02,-1.903020e-02,
1.060433e+00,5.561950e-02,-1.710341e+00,-1.071835e+00,-7.421199e-01,8.978312e-02,-2.022004e+00,5.179580e-02,6.034825e-02,-1.750575e+00,-1.082563e+00,-1.313531e-01,-1.556374e+00,1.748497e+00,5.961254e-01,-1.071450e+00,-1.874848e-01,8.270047e-02,-2.084929e+00,3.573480e-02,4.113649e-01,-2.284719e+00,-8.318807e-01,8.128492e-01,2.332741e-01,-1.326078e+00,3.489237e-01,6.484450e-01,-1.142675e+00,-2.032240e-02,-8.844687e-01,-1.350029e+00,-1.541722e+00,-4.330349e-01,5.849749e-01,-2.466604e+00,-1.742015e-01,-9.282506e-01,-2.422900e-02,-1.356889e+00,-1.179585e+00,-1.009226e+00,2.361392e-01,3.037651e-01,-2.136720e+00,-5.293076e+00,-1.166287e-01,-2.046480e-02,1.107155e+00,1.756883e+00,
6.787983e-01,3.035780e-02,4.443881e-01,-2.810376e-01,-4.280834e-01,-2.359245e-01,2.360000e-02,4.986820e-02,-7.189459e-02,5.718438e-01,7.044523e-01,-2.500435e-01,-4.811472e-03,-4.663614e-01,7.027512e-01,2.898469e-01,-2.824991e-01,-2.190989e+00,4.437686e-01,-4.017140e-02,-1.129146e-01,7.520595e-01,-1.218792e+00,-2.642056e+00,-1.036147e-01,-5.752271e-01,-1.118717e+00,3.069911e-06,4.093113e-01,-6.830330e-03,-1.932204e-02,-1.545260e-01,3.140674e-01,-7.766380e-02,1.513793e-02,4.130831e-01,-2.101258e-01,-4.090197e-01,-7.938940e-03,1.037726e-01,4.801116e-01,5.087908e-01,-6.540341e-01,-1.737598e-01,1.302129e+00,3.021494e-01,-1.468573e+00,-1.235210e-02,7.071426e-04,-6.394961e-01,
4.252203e-01,-2.926110e-02,-2.529945e-01,-1.120592e+00,2.913784e-01,7.781767e-01,-1.573934e-01,-3.496200e-03,6.970949e-02,-4.580417e-01,-1.935745e-01,-2.216741e-01,-8.510382e-02,-8.732029e-01,-1.270546e-01,-3.488253e-02,4.489992e-01,6.421130e-02,5.347110e-01,-2.993210e-02,-9.589971e-01,1.300492e-01,-8.442567e-01,-7.457493e-01,-3.916503e-01,-1.008331e+00,9.240903e-01,-6.473451e-01,-7.592621e-02,8.859680e-03,-2.638299e-02,-2.982786e-02,-3.993551e-01,1.754454e-02,-1.761118e-02,1.241545e+00,-1.304923e-01,-2.504281e-01,1.172500e-02,-2.007367e-01,5.102398e-01,-7.617239e-01,3.140188e-01,-6.282179e-01,7.414376e-01,-7.297396e-02,-2.197472e-01,4.740330e-02,-1.417277e-01,7.173092e-01,
1.336624e+00,4.384070e-02,6.332102e-01,-1.265018e+00,2.135632e+00,-2.778020e-01,1.359065e-01,-2.314990e-02,4.591608e-01,-1.744771e+00,-2.124458e+00,-2.364122e+00,-1.159854e+00,8.165677e-01,-7.089508e-01,-1.387387e+00,-1.254439e+00,-2.053520e-01,-1.016188e+00,1.089190e-02,1.916278e+00,6.395791e-01,-7.150511e-01,1.114893e+00,2.209775e+00,-2.101579e+00,4.604414e-01,2.205782e+00,1.766947e+00,2.500880e-02,7.109024e-01,-1.398182e+00,-1.222461e+00,-4.941137e-01,-1.194226e+00,-1.029856e+00,1.813517e+00,4.252138e-01,-1.068980e-02,-1.456268e-01,-1.671166e+00,-1.579260e+00,-1.390781e+00,9.629647e-01,4.759646e-01,-6.540259e-01,-5.700356e-01,-7.849000e-03,1.197674e+00,-1.631875e+00,
-1.071933e+00,3.758810e-03,-3.315961e+00,1.073201e+00,-6.597436e-01,-1.210838e-01,-3.833447e-01,-3.317520e-02,-3.300436e-01,1.676358e+00,1.141979e-01,1.401093e+00,-4.432890e-03,6.372665e-01,7.749714e-01,9.225514e-01,-5.505847e-01,6.699657e-02,-3.289190e-02,-2.242400e-02,-2.473046e+00,-4.883374e-01,-2.432680e+00,-9.390910e-01,-2.215336e+00,1.744030e-01,-1.694119e-01,-1.721445e+00,4.893773e-01,-5.194310e-02,8.231944e-01,1.197201e+00,-3.521349e-01,6.452720e-01,-5.710609e+00,1.092599e-01,-2.287408e+00,-1.421898e+00,7.906010e-03,-3.855379e-01,-3.566971e-02,2.417436e+00,-1.214757e+00,6.744682e-02,-1.581656e-01,1.159832e+00,-1.622616e-01,-5.334920e-02,-1.976190e-01,-5.810320e-02,
-9.337709e-03,-1.785730e-03,-3.897725e-01,-8.319743e-02,-9.060388e-02,-2.661385e-01,7.142309e-02,-3.050870e-02,-1.823630e-01,-5.010969e-01,1.246497e-01,-2.286641e-01,8.475838e-02,2.753969e-01,1.980917e-01,-3.487224e-02,-2.812710e-01,2.315211e+00,-7.644993e-04,1.375000e-02,8.895145e-03,-2.142267e-02,-1.249779e-02,2.915806e-01,3.274944e-02,-2.562147e-01,-3.192872e+00,3.694797e-01,-3.947193e-02,1.518670e-02,1.943382e-02,2.841776e-01,9.955191e-02,4.112070e-02,-7.714376e-02,1.078593e-01,-1.980332e-01,2.351194e-01,4.687240e-02,3.987735e-01,1.927901e-01,-6.051558e-02,-1.232012e-01,2.749239e-01,-1.240835e-01,-2.941281e-01,-6.292850e-02,-3.232450e-02,-3.604771e-01,-2.506268e-01,
1.348750e-01,3.063610e-02,9.934223e-01,-1.661294e+00,1.344691e+00,4.741584e-01,-4.962181e-01,3.188940e-02,1.487807e-01,-2.896515e+00,5.413137e-02,7.137762e-01,1.554883e-01,1.101897e-01,-5.524641e-01,-2.980174e-01,-1.343956e+00,2.092898e-02,-5.606639e-01,3.171590e-02,4.177123e-01,-6.408594e-02,-5.287238e-02,1.074752e-01,1.085485e+00,-1.114161e-01,-1.154121e+00,-7.827427e-01,-3.183568e-01,-2.057390e-02,9.337639e-02,-4.706810e+00,1.341264e+00,-6.131796e-01,-1.093688e-01,-2.747292e-01,1.039636e+00,2.429178e-01,3.595980e-02,2.072811e-01,-1.187457e-01,-3.982933e-01,-1.005228e-01,-4.065056e-01,9.913024e-01,-1.974777e+00,6.966459e-02,-3.619530e-02,-6.582364e-01,7.318551e-02,
-1.272929e+00,-4.175750e-02,1.257465e+00,-4.672837e-02,-1.055561e+00,9.927021e-02,2.147196e-01,4.041210e-02,1.714740e-01,-3.596040e-01,3.042548e-01,-5.140505e-01,-3.396645e-01,-5.622521e-01,-6.714341e-01,4.568784e-01,-2.158391e-01,-1.239851e-01,-4.722688e-01,-6.394580e-03,1.196826e-01,1.480272e+00,-9.865137e-03,-1.061585e+00,-6.561828e-01,4.662634e-01,5.622382e-01,-5.726979e-01,-7.147115e-01,2.168420e-02,3.644548e-01,-1.015772e+00,1.064472e+00,-4.777165e-01,3.891180e-01,2.675262e-01,6.293339e-01,2.384289e-01,1.021490e-02,-2.877463e+00,-3.974624e-01,-3.611748e+00,9.167321e-01,-5.378935e-01,-4.919618e-01,7.484155e-01,5.803798e-01,1.337600e-02,-4.037393e-01,-1.443771e-01,
5.324794e-01,-2.937340e-02,1.480211e-02,2.322819e-01,1.144979e+00,2.922426e-01,3.401166e-01,-2.462010e-02,6.846430e-01,-6.616532e-01,-6.815659e-02,1.746555e-01,-2.204228e-01,1.770105e+00,-5.879194e-01,-4.042505e-01,-1.679159e-01,9.168182e-02,-7.158089e-03,-3.972970e-02,-1.178771e+00,3.601278e-01,-1.978622e-01,-3.596745e-01,1.025200e-01,4.228215e-02,-5.423938e-02,1.850951e-02,2.245738e-01,-1.721750e-02,-1.827778e-01,1.598146e-01,1.049862e+00,-1.783009e-01,8.330259e-02,1.899672e-01,-6.997252e-01,-2.969680e-01,-1.614770e-02,-1.552463e+00,3.224532e-01,6.664729e-01,-3.258847e-01,-5.660057e-02,-5.637404e-01,-1.445318e-01,-3.677852e-01,1.145600e-02,-6.422076e-01,5.035073e-01,
-4.973102e-01,-3.011270e-02,-4.400260e-01,-2.481822e+00,-8.557327e-01,-8.076077e-01,2.728072e-01,-7.947520e-03,2.233173e-01,-4.770504e+00,-1.770202e+00,-5.094302e+00,-6.069629e-01,1.304363e+00,4.431107e-01,-2.981426e-01,-6.876736e-01,-4.671939e-02,2.130829e-01,-3.235190e-02,-1.476006e+00,-1.121364e+00,-1.868316e+00,6.670715e-02,1.114222e+00,-2.165032e+00,7.120365e-01,5.611918e-01,-1.027991e-01,-5.330670e-03,-1.168841e+00,-5.929740e-01,1.217264e+00,-5.383689e-01,-2.411015e-01,2.080595e-02,-9.351801e-01,3.284252e-02,1.991350e-02,-5.428809e-01,-9.372380e-01,9.132807e-01,6.076385e-02,1.032753e+00,-9.760574e-01,-2.496888e+00,-3.331588e-01,2.489840e-02,1.932161e-03,2.399755e-02,
-3.320104e-01,2.430870e-02,-5.016896e-01,5.772971e-01,4.042003e-01,-6.076702e-01,3.908887e-01,3.769700e-02,-8.749041e-02,-4.283960e-01,-1.133150e+00,1.576504e-01,-5.080159e-01,-8.049318e-01,-8.321985e-01,-8.284308e-02,-9.496110e-01,1.017710e-01,-4.859109e-01,-2.027690e-02,-1.243633e+00,5.596105e-02,-1.283577e-01,-5.517668e-01,9.907754e-01,1.208535e-02,-3.758959e-01,5.402452e-01,4.098509e-01,4.741790e-02,2.293592e-01,-1.125748e+00,-4.179949e-01,9.696275e-02,-4.112584e-01,-1.147946e+00,-2.928438e-01,2.831465e-01,1.451380e-02,1.317122e-01,-9.587941e-01,-5.821733e-01,1.577244e-02,3.697557e-01,-2.217276e-01,-2.909556e+00,9.521302e-01,-3.812260e-03,8.040093e-01,1.097435e-01,
4.071936e-01,-3.633860e-02,1.014250e+00,-6.619951e-01,2.748944e-01,5.474114e-01,-4.192969e-01,-2.346690e-02,-2.186062e-01,4.244142e-02,-3.419637e-01,-7.107547e-02,7.183840e-01,1.170424e+00,3.189474e-01,5.522693e-01,7.084303e-01,1.077376e-02,1.866424e-01,-8.269630e-03,4.555289e-01,-1.203206e-01,-7.337714e-01,1.688099e-01,5.053424e-01,5.890030e-01,-1.007406e-01,1.735252e-01,1.043759e-01,3.894080e-02,-3.202327e-01,8.160641e-01,7.055411e-02,-4.614082e-01,-8.310159e-01,5.976536e-01,4.103324e-01,2.024342e-02,-2.180900e-03,-7.319549e-01,1.561304e-01,1.279019e+00,4.942823e-01,1.045179e-01,-1.637830e-01,3.582536e-01,8.205210e-01,-8.694240e-03,-4.763160e-01,-2.399801e+00,
-1.663000e-02,3.862630e-02,1.209160e-03,-4.514150e-02,-2.209760e-02,-4.405680e-02,-5.101830e-02,-1.487530e-02,-3.950890e-02,-4.151910e-02,-4.115450e-02,-1.026790e-02,4.507430e-02,-5.588900e-02,-4.632100e-02,-4.217820e-02,3.688740e-02,-4.365410e-02,-4.377040e-02,-3.905690e-02,-4.736750e-02,-2.169690e-02,-1.665820e-02,-1.739440e-02,-3.814990e-02,-4.519630e-02,-7.751950e-03,-3.580690e-02,3.848510e-02,-3.444010e-02,-2.785560e-02,4.397190e-02,3.902740e-02,7.216340e-03,1.776260e-02,3.512850e-02,-3.806190e-02,-2.593510e-02,-1.459320e-02,-3.667830e-02,2.486150e-02,-3.977510e-03,-1.429680e-03,-4.803140e-02,1.128370e-02,-4.454990e-02,-4.367420e-02,7.993520e-03,4.565020e-02,2.308240e-02,
-4.113167e-01,-2.313640e-03,8.764312e-01,-1.386449e+00,-8.736089e-01,1.099966e+00,1.059397e+00,-2.605710e-02,-1.439425e+00,-4.346635e+00,-2.590838e+00,-2.239269e+00,1.576647e-01,-4.136806e-01,-5.275006e-01,-6.617409e-01,1.324480e+00,-1.800657e-01,-1.053627e+00,2.007840e-02,-3.029009e+00,-5.638934e+00,2.421156e-01,-4.715852e-01,-2.738335e-02,5.469992e-01,1.737954e-01,1.426309e+00,-1.981807e+00,8.137450e-03,-9.920278e-01,-2.363158e+00,2.168545e+00,9.946069e-01,9.664807e-01,6.008608e-01,2.065817e-01,2.035592e+00,6.251140e-02,-9.743762e-02,1.153957e+00,1.175788e+00,2.566223e-01,-5.002456e-01,2.528008e+00,1.161812e+00,-1.714477e+00,4.362090e-02,1.212590e+00,1.354384e+00,
-1.321990e-02,-4.179970e-02,-7.199660e-03,1.642800e-02,6.011040e-03,-2.721290e-02,1.774110e-02,1.512860e-03,-2.750500e-02,3.801090e-02,-4.408740e-02,-1.578250e-02,-1.165100e-02,-4.379560e-02,3.276740e-02,-2.796940e-02,-4.373830e-02,1.681770e-02,2.363350e-02,-3.296310e-02,-4.888180e-02,-4.070730e-02,-1.250010e-02,-2.577500e-02,-1.504190e-02,1.967990e-02,2.093450e-02,-1.973180e-02,2.891460e-02,1.690530e-02,-2.116840e-02,-9.153960e-03,6.271230e-03,-2.523850e-02,-3.907440e-02,7.937330e-03,-2.248880e-02,-3.192560e-02,-4.762980e-02,-9.161290e-03,-4.487560e-02,-2.978380e-02,3.544890e-02,-2.153000e-02,-5.029140e-02,6.697310e-03,2.006900e-02,-3.302640e-02,3.170830e-02,3.684490e-02,
3.530757e-01,3.544040e-02,-2.433717e-01,-1.751470e+00,-3.254874e-01,1.129959e+00,-1.583923e-01,1.400150e-02,8.893054e-01,-3.661130e+00,-1.304426e+00,-2.866027e+00,7.898160e-01,1.588146e+00,2.977019e-01,-8.035055e-01,-5.935712e-01,-1.620087e-01,-9.908932e-01,-2.021230e-02,-1.084233e+00,-2.329132e+00,-7.212887e-03,2.391740e+00,9.478816e-01,1.388255e+00,5.130715e-01,6.437716e-01,-1.943711e-01,3.189900e-02,-6.060569e-01,-4.333819e+00,4.979997e-02,-1.278723e-01,8.159244e-01,-7.412181e-01,1.258890e+00,7.246754e-01,-2.526430e-02,6.097872e-01,-5.640607e-01,1.769190e+00,4.565524e-01,-7.013926e-01,-6.311988e-01,-2.166600e+00,-1.173216e+00,-3.793510e-02,3.683587e-01,4.627983e-01,
-3.217230e-02,2.966870e-02,-2.860220e-02,-2.387910e-02,-7.248280e-03,-1.292990e-02,-6.365560e-02,-1.289180e-02,3.582670e-02,-4.651340e-02,-2.922910e-02,2.234140e-02,2.061900e-02,1.878230e-02,3.546070e-02,-2.737810e-02,-3.587770e-02,4.514560e-04,5.823060e-03,5.582340e-03,-3.450170e-02,3.270720e-02,-5.313810e-02,1.430670e-03,-5.898010e-02,-2.336110e-02,4.091580e-04,-7.637610e-02,2.878960e-02,-3.716380e-02,-5.812490e-02,3.847360e-02,3.456020e-02,-6.253590e-02,-4.661860e-02,-3.761130e-02,-3.856600e-02,-1.452170e-02,-4.403140e-02,-5.638140e-02,7.365240e-03,-5.846100e-02,-6.261970e-03,-5.722870e-03,-8.096430e-03,-1.354200e-02,-5.876500e-02,2.624200e-02,2.280270e-02,-4.188660e-02,
7.176051e-01,2.048950e-02,1.670411e-01,7.041624e-02,5.819111e-01,-2.989566e-01,1.386772e-01,-3.600010e-02,5.109474e-02,-3.444852e-01,-5.183172e-01,4.886308e-01,-1.902551e-01,-8.629337e-01,3.739603e-01,-7.678857e-01,-1.766705e-02,3.233692e-02,-8.233872e-01,-3.388190e-02,-2.170816e+00,-1.242373e-01,1.459571e-01,-5.131867e-02,2.403306e-02,1.452860e+00,-2.877541e-02,-9.153025e-01,4.102132e-01,-4.161420e-02,-4.837807e-01,5.766674e-01,6.532049e-01,-3.015179e-01,-2.690891e-01,-3.868232e-01,5.323809e-01,2.958512e-01,-2.988020e-02,6.110078e-01,-1.244864e-01,-9.804988e-01,9.390402e-03,4.287931e-01,1.083486e+00,-2.033359e+00,-1.869404e-01,-3.920200e-02,-4.145669e-01,9.630324e-02,
-5.526657e-01,4.776620e-02,-2.551613e-01,-6.071570e-01,8.212087e-02,2.381035e-01,-2.678183e-01,2.580850e-02,1.077553e-01,4.271296e-01,-5.636636e-02,-1.502337e+00,4.843585e-01,-8.832409e-01,-3.757661e-03,4.247002e-01,4.660606e-02,7.066118e-01,6.827663e-01,-1.281660e-02,-1.129995e+00,-3.135140e-01,-1.340122e+00,8.076698e-01,-1.071203e+00,-1.105591e+00,-2.123427e+00,-4.056887e-01,4.030082e-01,-3.416230e-02,3.173057e-02,-3.808350e-01,-8.162562e-01,-1.070978e-01,4.655924e-01,9.611834e-01,-6.100813e-01,-5.889042e-01,2.860260e-02,-1.165999e+00,3.383457e-01,-4.314731e-02,-6.564517e-02,-5.456049e-01,7.417683e-01,3.092469e-02,-1.471508e-01,2.178860e-02,1.220725e-02,-1.565236e+00,
-1.057590e-02,1.191780e-02,-3.938750e-02,4.469050e-04,-3.686610e-02,-5.270900e-03,-5.728810e-02,-8.803910e-03,-2.136950e-02,-1.224210e-02,1.637550e-02,-2.399390e-02,1.026380e-02,5.848320e-03,-4.748570e-02,-4.609220e-02,1.295930e-02,-2.365780e-02,3.409020e-02,-4.420020e-02,-2.823230e-02,2.188480e-02,1.621660e-02,2.296750e-02,-3.068400e-02,2.622690e-02,-5.105870e-02,3.115500e-02,-4.086060e-02,2.987590e-02,3.134790e-02,2.901880e-02,1.185900e-02,-1.215800e-02,1.869960e-02,-2.789420e-02,3.269970e-02,-2.947990e-02,3.341680e-02,-3.813610e-02,-5.513440e-02,-3.306090e-02,2.953840e-02,3.165110e-03,-4.544660e-02,-1.141680e-02,-1.075990e-02,3.289130e-02,1.834290e-02,-2.097750e-02,
-1.228294e-01,1.244810e-02,7.977024e-01,1.091046e-01,-6.398855e-01,-1.189341e-01,2.956682e-01,1.892670e-02,1.264358e+00,-5.429150e+00,-8.294742e-01,-1.522684e-01,7.438399e-01,1.053406e+00,9.373071e-01,-1.574970e-01,-7.597755e-01,2.880248e-01,-2.949059e-02,-2.356280e-02,-8.226270e-01,1.398236e+00,9.212537e-01,3.491120e+00,2.438143e-01,1.992153e-01,3.656066e-01,-4.509653e-01,-4.964647e+00,1.592390e-02,-1.291716e-01,7.691309e-01,-8.260012e-01,3.977291e-01,2.338975e-01,-2.245930e-01,-1.729089e+00,-4.749587e-01,3.918700e-02,-3.359350e-01,2.761804e-01,8.231799e-01,2.814335e-01,4.545289e-01,8.003910e-01,6.594531e-01,-1.846368e+00,2.316910e-02,-3.740101e-01,-2.320942e-01,
1.112024e+00,-3.528190e-02,1.552082e+00,2.166301e-01,-3.941643e+00,1.960846e-01,-7.966485e-01,-1.186480e-02,3.174527e-01,-2.927512e-01,3.367382e-01,5.704436e-03,3.154851e-01,1.537905e-01,1.426716e-01,3.454109e-01,2.585657e+00,4.365085e-03,-2.286147e-01,2.731590e-02,-7.185316e-02,1.066897e+00,9.886550e-01,-2.873370e-01,-4.304849e-01,5.903181e-01,-9.003020e-02,9.585502e-01,9.387098e-01,-5.498220e-02,-8.508967e-01,-5.105469e-01,7.196667e-01,7.966882e-01,-9.554747e-01,1.205849e-01,-2.043728e+00,-7.667556e-01,5.619140e-03,-5.662276e-01,3.132095e-01,1.556898e+00,-5.720720e-01,1.850916e-01,9.016925e-01,-1.861129e+00,3.504699e-01,-4.336440e-02,-1.020664e+00,-1.830957e+00,
8.035039e-01,-1.713680e-02,4.553349e-01,5.574395e-02,1.581077e-01,-1.620312e-02,1.395269e-01,-4.319560e-02,-5.250227e-01,-1.720887e+00,1.112188e-01,1.571744e+00,-3.249564e-01,1.569122e-01,1.448306e-01,-1.189065e-01,-8.505406e-01,1.797420e-01,-4.821355e-02,2.343410e-02,2.937023e-02,-5.773292e-01,-5.502225e-01,4.619253e-01,3.910554e-01,-8.527347e-01,-6.441329e-02,-1.612135e-01,4.848176e-01,3.730670e-02,9.541360e-02,9.586325e-02,-6.015533e-01,-1.188954e-01,-2.700216e-01,2.142148e-01,-3.312875e-01,4.231959e-01,-2.155660e-02,-2.543758e-01,9.396181e-01,6.185943e-01,-2.541601e-01,4.656735e-01,-5.235667e-01,-1.451632e+00,-6.764947e-01,-9.343130e-03,-1.468938e-01,6.198284e-02,
6.006820e-03,-1.870680e-02,-1.752790e-02,1.150420e-02,-4.740840e-02,-2.958800e-03,-3.268450e-02,-2.816870e-03,2.675600e-02,4.429750e-02,8.334050e-03,2.091590e-02,-2.673450e-02,-5.529740e-03,2.983770e-02,-1.096370e-02,1.915860e-03,-2.687600e-02,-2.494320e-02,-4.009820e-02,-9.306070e-03,2.335490e-02,3.597340e-02,1.935880e-02,2.485030e-02,1.130480e-03,-4.767090e-02,-1.645420e-02,-3.253240e-02,2.476850e-02,8.752460e-03,-1.269360e-02,-3.206020e-02,-4.157250e-02,-4.633090e-02,-4.547410e-02,-2.687530e-02,-2.204870e-02,-1.852370e-02,-1.300770e-02,-4.987810e-02,2.371310e-02,-4.761170e-02,-3.263390e-02,-1.182650e-02,-5.999520e-03,-4.323470e-02,3.650020e-02,-3.886410e-02,-2.166870e-02,
6.216879e-01,-3.285650e-02,-7.373509e-01,6.198242e-01,-2.126046e+00,-7.259511e-01,1.261878e+00,2.305380e-02,8.417524e-02,-3.953212e-01,-5.482374e-01,4.672955e-01,-7.329244e-01,1.478119e+00,-4.006449e-01,-3.309775e+00,5.907891e-01,-3.362375e-01,-2.669428e+00,-4.593760e-02,3.383016e+00,1.827269e+00,-7.600856e+00,-3.472509e-02,1.245576e+00,3.825380e-01,9.260307e-01,1.750463e+00,1.029276e+00,2.539890e-02,5.226642e-01,3.731325e-01,-2.574138e-02,1.609421e+00,-1.336376e+00,-1.157176e+00,-4.721145e-01,-1.284975e+00,-3.664170e-02,-4.178640e-01,-1.369889e+00,2.056018e+00,-1.171212e-01,2.132042e+00,-2.078544e+00,-5.137635e-01,1.900249e+00,3.619200e-02,1.083798e+00,-3.987670e+00,
-1.600730e-02,
1.126958e+00,
-6.261072e-02,
9.184878e-01,
-5.092144e-01,
-3.512392e-01,
5.886264e-01,
-1.459364e+00,
-8.882030e-03,
-1.521948e+00,
-5.665770e-01,
-9.559486e-01,
3.710657e-01,
5.323784e-04,
-1.340984e-01,
-1.260247e+00,
7.670918e-01,
2.824549e-01,
-1.823224e+00,
-1.564395e-01,
1.714321e-01,
-2.706298e-01,
9.173008e-02,
-1.430450e-02,
-5.417070e-02,
1.562662e+00,
4.511147e-01,
-2.939306e-01,
1.770704e+00,
-2.925556e-01,
8.235257e-01,
5.558945e-01,
-3.544804e-01,
-2.920848e-01,
1.322801e-01,
9.252679e-01,
-8.811997e-01,
-3.802590e-03,
6.327339e-01,
-2.097460e-02,
9.303510e-01,
-1.212840e-02,
5.582169e-01,
7.497399e-01,
-9.031520e-03,
-7.538045e-01,
-1.717305e-01,
-2.856762e-01,
-7.402200e-03,
-6.740261e-01,
-1.742270e-02,-2.577605e-01,2.397409e+00,2.565296e-04,-8.604518e-01,1.498664e+00,-8.994441e-02,-5.682462e-01,-4.227120e-02,-3.817642e-01,7.912643e-01,2.769860e-01,-7.856082e-02,-6.650999e-01,-2.012064e-01,-3.465189e-01,-3.732889e-01,1.450324e+00,1.828913e+00,1.028632e+00,-4.312733e-01,1.339385e+00,1.663216e-02,1.533950e-02,-1.007810e-02,3.345519e-01,-5.001685e-02,-1.661421e-01,7.140164e-01,7.115554e-01,-1.897096e-01,8.886697e-02,7.271206e-01,5.011277e-01,9.328017e-01,2.424340e-01,3.657070e-01,-2.691300e-02,-1.315479e-01,3.408000e-02,-2.235719e-01,2.424260e-02,-1.572484e+00,7.388726e-01,-3.571400e-02,-6.385993e-01,-1.278153e+00,1.110836e+00,4.050210e-02,3.238759e-01,
-2.535000e-02,9.918217e-02,2.684510e-02,-2.234128e+00,4.843757e-01,9.826565e-01,3.992510e-01,1.408023e-01,1.009270e-02,2.878500e-01,3.207024e-01,-4.364022e-01,8.404350e-02,1.142958e-01,3.296008e-01,8.023938e-01,-4.231568e-01,6.364323e-01,3.842997e-01,-1.584726e-01,-4.899694e-02,1.182823e-01,5.210583e-01,3.014030e-02,-1.104730e-03,-8.445795e-01,-5.064399e-01,1.105099e-01,-7.303686e-01,3.247517e-01,9.004279e-02,-9.129515e-01,3.661664e-01,3.738430e-02,4.295225e-01,1.000191e-01,-2.217423e-01,2.337810e-02,1.223099e-01,2.028250e-04,-3.890095e-02,-3.925860e-02,-7.712726e-01,3.683594e-01,-2.952410e-03,-1.554913e-01,4.572952e-01,-1.920906e-01,1.384000e-02,-2.661561e-01,
-2.128780e-02,1.260656e+00,8.438381e-01,-1.762514e+00,1.033360e+00,4.342650e-01,1.168302e+00,-1.393873e+00,-3.996190e-02,6.587271e-01,-9.302010e-03,-2.966936e+00,-3.673867e-01,1.593034e-01,7.817039e-01,5.570250e-01,-9.497482e-02,-2.200998e+00,-3.070326e+00,5.700529e-01,1.059881e+00,-3.351286e+00,-1.861446e+00,-2.707530e-02,3.585750e-02,2.411998e-01,4.292999e-01,-1.106709e+00,4.785766e-02,-2.428922e+00,-5.612054e+00,1.364249e+00,-1.220715e+00,-5.733206e+00,3.621261e-01,-1.952701e+00,-1.231264e+00,-1.510120e-02,-8.616242e-01,-2.333930e-02,4.024756e-01,-1.792720e-02,1.498490e-01,-7.427179e+00,-6.171320e-03,-1.928450e+00,-1.548674e-01,-4.183625e+00,1.785430e-02,-1.682217e-01,
3.576490e-02,-2.554760e-02,-1.555400e-02,-2.368520e-02,2.468590e-02,-4.087720e-02,-4.921570e-03,-2.785070e-02,-1.649430e-02,-3.342870e-02,3.522910e-03,-2.282570e-02,-3.285980e-02,4.860660e-03,2.143940e-02,2.863180e-02,1.153680e-03,-4.993330e-02,1.988680e-02,2.107060e-02,-5.359110e-02,2.923660e-03,-1.757170e-02,5.423490e-04,3.416340e-02,2.708500e-02,6.842060e-03,-8.924540e-03,-5.110070e-02,-3.388730e-02,4.078050e-03,-5.214190e-02,-4.987250e-02,-4.842160e-02,-4.747610e-02,5.421060e-03,1.559910e-02,3.658140e-02,-1.296490e-02,-2.000040e-02,5.823960e-03,2.518330e-02,1.605700e-02,-6.158070e-02,3.371780e-02,1.584620e-02,1.546490e-02,2.259990e-02,-4.447970e-02,-5.186450e-02,
-3.832200e-02,-1.606168e-01,-2.824204e-01,3.145664e-01,1.065233e+00,7.205086e-01,-5.383980e-01,9.123790e-01,2.749120e-02,-1.523364e-01,2.531761e-01,-1.923171e-01,7.112054e-01,8.647354e-02,-4.923570e-01,-2.907963e-01,3.076111e-01,1.129862e+00,-3.182543e-01,8.114371e-01,3.256576e-01,2.458479e+00,6.859551e-01,-2.896850e-02,-1.382260e-02,1.132330e-01,-1.398435e-01,5.238184e-01,1.785335e-01,1.261848e+00,-4.495169e+00,1.216554e+00,-1.654613e+00,1.805481e+00,1.255878e+00,7.935989e-01,1.479001e+00,-4.749440e-02,-8.755353e-03,-3.781220e-02,-3.604312e-01,-4.563540e-03,-3.241388e-01,6.156471e-01,2.414570e-02,2.527299e+00,3.039186e-01,3.760848e+00,-1.810460e-03,6.935799e-01,
2.110610e-02,6.783577e-01,1.098741e+00,4.010229e-01,1.113197e+00,8.586416e-01,6.243292e-01,-4.403719e-03,-4.182100e-02,1.450738e-01,-2.225848e-01,-4.500321e-01,-1.373154e-01,-9.971196e-03,3.893320e-01,2.062490e-01,-4.782531e-01,-1.472900e+00,-9.250942e-01,-4.551536e-01,-1.158382e-02,2.350451e+00,1.258062e+00,-9.334050e-03,-1.432860e-02,-1.488560e-01,4.010474e-01,1.411826e+00,-1.687806e-01,2.296297e-01,-1.665347e-01,5.509320e-01,-7.936552e-02,-2.572916e+00,-3.890837e-01,1.295748e+00,6.167650e-01,-2.870720e-03,3.383229e-01,2.662210e-02,-3.636040e-02,2.902420e-02,1.554531e+00,3.204342e-01,2.517550e-02,-1.168718e+00,-1.262133e-01,7.085387e-01,-2.499080e-02,2.009205e-01,
3.066670e-03,-3.654310e-02,-1.242340e-03,-4.577390e-02,-9.841480e-03,-5.427330e-02,2.855550e-02,2.031070e-02,3.045460e-02,2.096190e-02,7.413000e-03,-4.182530e-02,-6.133700e-02,-2.857530e-02,-3.976340e-02,3.851120e-02,-4.815930e-02,-2.111430e-02,-5.086540e-02,1.759520e-02,-1.046130e-02,3.248190e-02,-1.493190e-02,1.315800e-02,1.539100e-02,-4.694940e-02,-4.794290e-02,-3.729850e-02,1.893630e-02,9.995310e-03,-8.627750e-03,-2.556650e-02,-5.009660e-02,2.716710e-02,1.918120e-02,-4.802910e-02,-3.012950e-02,-2.094940e-02,1.278160e-02,6.211710e-03,-2.828320e-02,-4.400640e-02,-3.477320e-04,2.677030e-02,3.814590e-02,-4.044050e-02,-5.664660e-02,-4.802920e-02,2.652600e-02,7.994750e-03,
-4.257160e-02,5.973768e-01,3.915350e-01,-7.824429e-01,-1.118661e+00,-1.600106e+00,7.006944e-01,-1.669509e-01,-1.043680e-02,-9.229278e-01,-2.068037e-01,7.898703e-02,2.069754e+00,1.179158e-01,1.254771e-01,6.331468e-01,2.532125e-01,6.273350e-01,1.722740e+00,1.105868e+00,1.042147e+00,4.687025e-01,3.906932e-01,-3.337910e-03,2.836630e-02,1.586607e+00,8.631001e-01,1.895678e+00,-3.310084e+00,-5.191466e-01,1.135213e-01,1.151210e+00,1.162962e+00,-1.152446e-01,4.585253e-01,6.592557e-02,2.034830e+00,-4.117070e-02,3.995642e-01,4.037540e-02,9.316921e-02,-1.028780e-02,-8.863238e-01,-9.679578e-01,-4.806270e-04,1.127843e-01,2.697511e-01,5.216542e-01,3.106860e-02,2.679477e-01,
-2.161500e-02,-4.515077e-01,1.692858e+00,1.935580e-01,-1.396337e-01,-1.254185e+00,-5.202377e-01,-4.088014e-01,-2.973060e-02,-5.564551e-01,-1.834280e+00,1.244528e+00,1.077576e+00,-8.582277e-01,1.005900e+00,-1.066563e+00,6.555013e-02,-3.912797e-01,4.102628e-01,1.912406e+00,2.794341e+00,1.039943e+00,9.282728e-01,4.093130e-02,7.829390e-02,4.764167e-01,2.924391e-03,3.693254e+00,5.763044e-01,-1.400301e+00,4.804556e-01,-4.647050e-01,-9.386587e-01,9.938551e-01,-2.346090e+00,7.515643e-01,-5.568584e-03,3.925300e-02,-8.726979e-01,-1.801290e-02,-8.532345e-02,-3.157260e-02,-2.085049e-01,-1.247158e-01,3.634280e-02,2.448441e-01,4.862555e-01,1.074787e+00,5.097230e-02,1.427924e-01,
-4.457660e-02,6.092235e-03,3.451561e+00,4.243493e-01,7.844414e-01,5.300260e-01,1.454760e-01,1.003621e+00,2.286260e-02,5.723245e-01,5.868960e-01,-2.305802e-01,-3.601117e-01,-8.207590e-01,1.908555e+00,9.339792e-02,-9.437554e-02,3.625768e+00,6.805873e-01,3.802791e-01,2.684861e+00,2.188224e+00,1.010124e+00,1.514500e-02,4.885430e-02,-4.623968e-01,1.201942e+00,-2.253193e-01,6.060342e-01,1.794289e+00,-3.154686e+00,7.931433e-01,6.321189e-01,2.597528e+00,1.831632e+00,2.897109e-01,1.251068e+00,-1.817530e-02,-6.615592e-01,-3.971570e-02,-2.166533e-01,3.298350e-02,-4.232540e+00,1.969321e+00,-2.850570e-02,1.941221e+00,-1.016660e+00,3.108440e+00,-3.719600e-02,8.852179e-01,
-1.014040e-02,-3.089492e-01,9.131478e-01,-6.573361e-02,-2.588474e-01,-2.823611e-01,1.783893e-01,1.501576e+00,-3.611130e-02,-6.078101e-01,6.164409e-01,2.027649e-01,-7.260296e-02,1.105802e-01,-3.975130e-01,-5.198949e-01,-3.255615e-01,2.819636e-01,-2.539434e+00,1.148337e+00,-7.428024e-01,8.517636e-01,-1.329810e+00,-2.739180e-02,3.074850e-02,-5.238107e-01,6.334691e-01,2.884955e-01,-5.978411e-01,-4.126290e-01,-1.078573e-01,-1.280077e-01,2.782716e-01,-1.543050e-01,-1.253934e-01,3.077269e-01,-4.789280e-01,-5.009140e-02,-3.926285e-02,2.018300e-02,-6.544822e-02,-2.875100e-02,-1.063843e+00,2.655186e-01,-8.154750e-03,1.213261e+00,2.339301e-02,-2.230914e+00,3.091160e-02,4.059768e-01,
-1.912220e-02,5.803314e-01,1.654687e+00,6.903158e-01,1.160311e+00,1.538949e+00,1.898896e-01,2.820086e-01,8.232520e-03,-2.015679e-01,5.985277e-01,4.343363e-02,1.484959e+00,1.928529e-01,1.164391e+00,5.631848e-01,8.176767e-01,1.151613e+00,4.852603e-01,1.088722e+00,2.997326e-01,1.182070e+00,9.508601e-01,-1.549340e-02,5.603930e-03,7.230403e-01,-9.246926e-01,-3.437399e-01,4.728457e-01,2.171909e+00,7.989445e-01,-2.913597e-02,2.131187e-01,1.239348e+00,1.166628e+00,1.015474e+00,3.276760e-01,-2.553710e-02,5.949194e-01,-3.917100e-02,-1.004692e-01,3.642540e-02,-8.293576e-01,-5.059348e-01,-4.044350e-02,2.679618e-01,5.637661e-01,-1.472537e+00,-4.540310e-02,8.042974e-01,
2.937460e-02,-3.263638e-01,1.147473e-01,4.828131e-01,3.386779e-01,1.151551e+00,1.710900e-01,-5.593570e-01,-4.465860e-02,2.608444e-01,5.217336e-02,4.682409e-01,4.412251e-01,-2.052379e-01,1.067726e-01,-3.582205e-01,-3.635496e-01,5.451019e-01,1.654777e+00,1.919758e-01,6.460517e-01,3.947994e-01,1.046316e+00,-1.178290e-02,1.837980e-02,-6.046349e-02,-2.072642e-01,-1.877469e-02,-2.266913e-01,3.791012e-01,-1.554153e+00,5.791737e-01,-4.322908e-01,1.065393e-02,3.301660e-01,-4.435427e-01,1.600953e+00,1.282140e-02,-7.323109e-02,4.015920e-02,-2.614285e-01,-1.748660e-02,5.263195e-01,-2.890989e-01,3.670910e-02,7.649798e-01,-4.674110e-01,6.126215e-01,-1.943100e-02,-6.100345e-01,
-7.344330e-03,1.102850e-02,-3.372210e-02,3.283220e-02,3.072460e-02,-4.921460e-02,-4.334610e-02,1.421750e-02,4.162100e-02,7.973340e-03,-1.808960e-02,-3.306300e-02,-8.449810e-03,1.009920e-02,-2.778460e-02,-1.156320e-03,4.204880e-02,-5.541240e-02,-2.160090e-02,2.695210e-04,-8.016440e-03,-1.071700e-02,-2.235820e-02,4.121370e-02,4.839280e-02,-3.982320e-02,-4.780290e-02,-4.613870e-02,-1.678890e-02,-4.905630e-02,-1.409820e-02,-5.666970e-02,-1.906060e-02,2.117870e-02,-5.100190e-02,-1.485540e-02,-2.472050e-02,1.550970e-02,-2.942820e-02,-2.445020e-02,-1.673610e-02,4.777120e-02,3.381030e-04,9.265430e-03,-3.047830e-02,2.698920e-02,2.957950e-02,2.824010e-02,3.014970e-02,-4.138730e-02,
4.660110e-02,-1.091876e+00,-2.530121e+00,9.095762e-01,-2.856292e+00,-1.209412e+00,5.816174e-01,9.721131e-01,5.344890e-02,-1.094171e+00,8.968096e-01,-2.950432e-01,1.103952e+00,1.066576e+00,5.289913e-01,3.477677e-01,-6.050537e-01,-2.916411e-01,3.330857e-01,6.650434e-01,-5.523453e-01,-2.013937e+00,9.883159e-02,-2.048260e-02,4.162240e-02,3.526050e-01,-6.262246e-01,-1.569795e+00,5.308092e-02,-6.123676e-02,3.243135e-01,-4.470650e-01,-2.407330e-01,-3.034737e+00,-1.788885e+00,-6.614037e-01,-1.122720e+00,-1.376020e-02,5.157017e-01,-2.667560e-02,-3.056830e-01,2.574330e-02,7.596257e-01,1.653138e-02,-1.060190e-02,3.005680e+00,4.313487e-01,3.962978e-02,-4.144450e-02,-1.400131e+00,
6.258400e-04,-3.137453e-01,8.709191e-01,1.288057e+00,-1.079789e+00,4.138083e+00,9.111571e-01,1.629683e+00,-3.216670e-02,-1.088118e-01,1.337662e+00,-2.894306e-01,6.127375e-02,8.197381e-01,1.522397e+00,-1.648551e-01,-4.555888e-01,9.187597e-01,1.737511e+00,3.142938e+00,1.285384e+00,7.767135e-01,2.942631e+00,-6.095640e-02,7.026760e-02,-4.054292e-01,-1.238562e-01,1.848953e+00,1.230287e+00,1.679292e+00,-2.229893e-01,4.751948e-01,-4.531793e-01,1.030032e+00,1.276313e-01,-1.542342e-01,3.065494e-01,-2.830780e-02,-4.801824e-02,1.068470e-03,5.068155e-01,3.218650e-02,8.723000e-01,-4.266693e-01,-4.728360e-02,1.092365e-01,-3.502986e-01,-4.397842e-02,-3.370070e-02,-6.034650e-01,
-1.971710e-02,-6.636256e-02,7.082579e-01,1.054614e-01,-2.564147e-01,-2.424182e-02,-1.345091e-02,2.386553e+00,-2.535950e-02,3.702676e-01,7.390723e-01,-8.562086e-02,1.141567e+00,1.193291e-01,6.368871e-01,2.925706e-01,-1.238465e-01,4.931026e-01,4.260926e-02,-1.747363e-01,1.305409e+00,1.691574e+00,-1.815773e+00,-3.167640e-02,5.470300e-02,-3.199559e-01,1.186078e-01,-2.181354e-01,-4.671165e-01,-5.764229e-01,-1.217007e-01,5.833350e-01,2.069050e-01,2.920668e-01,-3.285494e-01,4.135664e-01,5.048921e-01,-2.791270e-02,-6.560048e-02,3.953360e-02,3.355958e-01,5.925740e-03,5.871452e-02,-1.796428e-01,4.506010e-02,2.475574e-01,1.200488e-01,6.963647e-01,-1.661770e-02,-1.364090e+00,
-1.693790e-02,-3.434740e-02,3.817800e-02,8.477470e-03,-2.410200e-02,-1.989490e-02,1.884120e-02,-2.539790e-02,-1.479070e-02,-6.140100e-03,-2.228060e-02,-1.564350e-02,7.069230e-02,-3.012950e-02,-1.405450e-02,7.702250e-03,1.930680e-02,-1.830130e-02,3.602730e-02,4.717870e-03,-5.817140e-02,-9.885130e-03,-5.661340e-02,-3.357190e-02,-5.802360e-03,6.824120e-02,4.058760e-02,-3.706930e-02,-1.829940e-02,-3.832200e-02,-2.787120e-02,-4.774540e-02,-7.352050e-02,-3.315320e-02,-2.343820e-03,-3.057670e-02,-6.487820e-02,2.378840e-02,-6.792460e-02,2.032060e-02,-6.931280e-02,1.564860e-02,1.396780e-02,2.276410e-02,1.688480e-02,2.378220e-02,-3.977250e-02,-1.383750e-02,-1.215590e-02,-4.632140e-02,
1.391160e-02,-1.521291e+00,-9.228460e-01,5.364327e-01,-1.014065e+00,-1.092896e+00,-5.489769e+00,-3.720285e+00,-6.178800e-03,-1.389803e+00,-3.164648e-01,1.354996e+00,2.485579e-01,-1.620327e+00,-3.022294e+00,1.888147e-01,1.454478e+00,-1.877173e+00,1.159424e+00,-4.468531e+00,-1.911404e+00,-9.136253e-01,-2.648707e+00,3.475940e-02,-2.036640e-03,-5.054865e-01,-7.747384e-01,-2.640053e+00,-7.676532e-01,-1.007892e+01,4.314084e-01,-6.241792e+00,-1.479180e+00,1.183541e+00,-1.485693e+00,1.312130e+00,1.239300e-05,1.786600e-02,1.147854e+00,-4.707200e-02,-6.390553e-01,2.924910e-02,-9.218214e-01,6.932975e-01,-2.754880e-02,-2.506472e+00,-2.485525e+00,-4.885657e+00,3.732750e-02,-1.319279e+00,
2.688090e-02,-1.971798e-02,-3.048870e+00,5.806364e-01,-7.307897e-01,-4.967263e-01,3.237485e-01,-1.652416e-01,-4.533730e-02,2.049850e+00,9.140291e-01,-2.080122e-01,-3.396026e-01,-4.318966e-01,-7.438520e-01,1.148939e+00,-2.747472e-01,2.748288e-01,-2.835991e-01,-3.832747e+00,2.773960e+00,1.466472e+00,-5.320629e+00,2.924410e-02,2.169270e-02,1.921564e-01,-4.091536e-01,2.966256e+00,-3.879002e-01,1.065615e+00,-6.961704e-01,1.298042e+00,1.904173e+00,-1.434882e+00,4.239358e-01,1.260848e+00,-1.514940e-01,1.245020e-03,-2.199064e-01,-2.973290e-02,-6.024621e-01,-3.119780e-02,7.736838e-01,-1.507732e+00,-2.617850e-02,1.483381e+00,3.272079e-01,1.555828e+00,-1.507720e-02,5.466483e-01,
-4.091290e-02,4.100065e-01,1.250951e+00,3.252456e-01,4.994103e-01,-4.631458e-01,5.251750e-01,-1.958889e+00,1.368980e-02,2.548265e-02,5.528111e-01,1.556744e-01,-2.953248e-03,5.856208e-01,-8.120947e-01,-7.460362e-01,5.202596e-01,6.733578e-01,-1.094568e+00,-3.324973e-01,-5.340018e-01,-9.557468e-01,-4.934605e-02,1.053050e-02,5.660690e-03,3.233876e-01,-6.666860e-01,3.868503e-01,1.365876e-01,3.678526e-01,-1.606344e-01,7.782453e-01,-7.099349e-01,3.668426e-01,2.045583e+00,1.374323e+00,-3.337024e-01,-4.037300e-02,3.361980e-03,-3.883570e-02,3.927950e-01,-4.466880e-02,-2.593971e-01,-2.180718e-01,-4.218710e-02,-1.264519e+00,9.629592e-01,-3.034656e+00,-1.815410e-02,-3.309366e-01,
-4.041050e-02,6.193965e-01,1.263981e-01,-9.354492e-01,5.700480e-01,-8.657963e-01,-1.564041e-01,1.204861e+00,3.251570e-02,-1.875489e-02,-4.342939e-01,2.592502e-01,1.562530e+00,-3.513757e-01,-4.924611e-01,1.516262e+00,-5.540411e-01,2.257892e-01,7.700553e-01,3.192815e-01,4.348585e-01,1.006345e+00,-1.106192e+00,-3.987370e-02,-2.850870e-02,3.310860e-01,2.893309e-01,2.004065e-01,-1.211932e+00,-2.600705e+00,2.159523e-01,-3.335212e-01,1.240964e+00,-7.831845e-01,1.805614e+00,9.993017e-01,8.270106e-02,1.294910e-02,-1.137297e-01,-2.005940e-02,3.298016e-02,5.796700e-03,6.265442e-01,-8.841278e-02,-1.516540e-02,1.459403e+00,3.783914e-01,8.410586e-01,8.308350e-03,4.421770e-01,
2.888880e-02,-3.146547e-01,3.266961e-02,1.378590e+00,9.915076e-02,-8.488502e-02,2.024411e-01,2.691527e-01,-3.698570e-02,2.173199e-01,-8.592950e-01,-8.671375e-01,-2.294427e+00,6.391354e-01,-9.654747e-01,1.575586e+00,-1.284307e+00,-7.217473e-01,-1.739525e+00,-6.461557e-01,-7.321317e-01,2.198253e-01,8.721438e-01,-3.822720e-03,-1.637900e-02,-1.000589e-01,4.127320e-01,-5.003675e-01,1.231038e+00,4.540177e-01,3.837732e-02,1.110386e+00,2.000655e+00,-7.717121e-01,1.137852e-01,-6.403934e-01,-1.264469e+00,2.296800e-02,-1.109073e-01,2.557280e-02,9.534371e-01,-1.380330e-02,-4.688285e-01,6.643431e-01,3.657080e-02,-1.494812e+00,-1.107519e+00,1.046518e+00,-4.243890e-03,-1.158400e-01,
-2.242930e-02,8.114051e-02,1.772515e+00,8.028325e-01,1.310675e+00,-1.578720e+00,-4.384321e-02,6.044469e-01,4.979290e-02,6.904586e-01,-2.171606e-01,7.105803e-02,1.070742e-01,9.193163e-02,-2.175044e-01,1.735573e+00,7.116281e-01,3.002454e-01,2.602383e-01,-7.820926e-01,2.702535e+00,2.669713e+00,6.202548e-01,2.525150e-02,1.582380e-02,-7.421209e-01,-1.876402e+00,2.659843e+00,-3.225739e-01,4.828748e-01,2.740011e-01,-1.578870e-01,-7.238415e-01,-5.402916e-01,-6.458251e+00,-5.516021e-01,4.793145e-01,2.509190e-02,-3.170542e-01,-4.722310e-02,1.721892e-01,3.602640e-02,-7.099184e-01,3.291744e-01,-2.358380e-02,1.129046e+00,7.976075e-01,2.427276e-02,-1.783400e-02,3.088039e-01,
-3.928650e-02,2.212877e-01,-1.672776e+00,-1.687790e-01,2.522954e-01,-2.757473e+00,-4.328756e-01,4.771883e-01,-3.310890e-02,-4.495000e-01,2.634977e-01,1.405944e-01,3.628727e-01,4.608230e-01,1.924510e+00,-1.160940e-01,-3.452733e-01,2.696453e-01,-1.223132e+00,-7.700989e-01,-4.762563e-01,-3.677698e+00,-5.881250e-01,8.150520e-03,-6.047090e-03,-4.802777e-01,8.187782e-01,1.549381e+00,-2.413982e-01,2.047329e-01,-1.042617e-01,7.597141e-02,-1.777296e+00,5.787721e-02,1.461198e+00,8.982472e-01,-2.202176e-01,8.580640e-03,1.969355e-01,-3.867210e-02,-1.454795e-01,-3.400310e-02,-1.305938e-01,2.575051e-01,4.569510e-02,1.887441e-01,7.569192e-02,1.037450e+00,2.693930e-02,2.882857e-01,
4.508090e-02,-9.206203e-02,2.508224e-01,-5.747373e-01,4.466335e-01,8.146673e-01,4.499228e-01,2.305132e-01,2.739910e-02,8.272909e-01,-4.146407e-01,-6.170139e-01,5.248747e-03,-5.967347e-01,7.887821e-01,1.634074e-01,1.762564e-01,6.188527e-01,-1.996014e-01,-2.424776e-01,1.066810e+00,1.700876e+00,4.937606e-01,2.015310e-02,5.215140e-02,9.404441e-03,3.749620e-01,-1.285749e-01,-1.242433e-02,4.056547e-01,2.080863e-01,-4.436246e-01,5.077125e-01,8.919856e-01,1.738608e+00,2.332646e-01,4.288461e-01,4.630590e-02,1.352845e-01,-3.515350e-02,1.718024e-01,-3.338610e-02,1.643129e-01,3.732806e-01,-1.054710e-03,-4.538956e-01,-6.812139e-01,7.780071e-01,-3.770540e-02,5.224155e-01,
8.879470e-03,-8.348249e-02,-1.205239e+00,-2.818859e-02,6.414134e-01,-2.688268e+00,7.016000e-01,-1.006868e+00,-1.295220e-02,-1.652408e+00,-4.852220e-01,-2.821515e-01,-6.308600e-02,5.608637e-01,5.502993e-01,-1.600583e-01,4.263103e-01,1.045869e+00,-7.083675e-02,-2.321019e-01,-4.352389e-02,1.232019e+00,-6.263195e-01,7.692380e-03,-1.537140e-02,3.230859e-01,1.056638e-01,-1.187492e+00,-4.030241e-01,-4.722573e-01,-4.126294e-01,7.541594e-01,4.056928e-01,8.461861e-01,-4.177414e-01,5.640802e-01,-3.496793e+00,6.916420e-03,2.113808e-01,-1.175340e-04,-3.369555e-01,5.159120e-02,6.271477e-01,2.100231e-01,3.230160e-03,-2.218896e-01,2.027257e-01,-3.165095e-02,4.420750e-02,-8.409202e-01,
-3.158610e-02,5.070700e-02,8.045988e-02,-2.062380e-01,2.942233e-01,9.964343e-01,-2.226186e-02,4.504620e-01,-2.207160e-02,5.742220e-01,-7.782504e-01,2.368849e-01,2.900065e-02,-4.907227e-01,1.246477e+00,9.441209e-01,2.266198e-01,7.384896e-01,-3.434581e-01,-6.028496e-01,-4.693091e-01,1.269484e-01,8.708056e-02,-4.527350e-02,5.759860e-02,9.790459e-02,-5.490587e-01,1.625863e-01,-3.722405e-01,-5.572343e-01,1.959840e-01,3.178610e-01,-6.005616e-02,-2.701246e-01,9.017925e-01,-7.065989e-01,2.644718e-01,1.177810e-02,5.278340e-03,-3.206090e-02,-1.432752e-01,-3.527480e-02,6.559168e-01,3.002890e-01,-4.075190e-02,5.333242e-01,2.586275e-01,1.052098e-01,-7.801080e-03,5.465609e-01,
1.813040e-02,9.498410e-03,-2.804810e-02,-1.522260e-02,3.476980e-02,2.715180e-02,-3.101530e-02,1.829600e-03,-4.322880e-02,-4.341510e-02,-3.040430e-02,-7.337480e-03,-2.075420e-04,-5.105190e-02,-4.238050e-02,-3.771380e-02,1.576950e-02,-3.223260e-02,5.345000e-03,-2.564140e-02,-3.469040e-02,-4.753670e-02,-1.640020e-02,3.814020e-02,2.788460e-02,1.320180e-02,-4.417660e-02,-1.461940e-02,2.739060e-02,4.241130e-02,-3.246360e-03,1.187640e-02,-4.256970e-02,3.587260e-02,-3.317120e-04,-5.067090e-02,3.382690e-02,-1.389590e-02,1.321370e-02,4.482400e-02,-5.283850e-02,-1.534120e-02,7.803470e-03,7.856150e-03,-2.582940e-02,3.849910e-02,5.369800e-03,1.824490e-04,4.065510e-03,-4.690460e-02,
-2.116590e-02,1.777388e-01,4.330641e-01,-2.123326e-01,3.925326e-01,1.151084e+00,2.468001e-01,-4.641312e-02,-1.994020e-02,-1.638354e-02,1.091114e+00,-8.153902e-01,-2.633263e-01,3.216016e-01,3.571152e-01,9.388629e-02,5.267359e-01,3.600151e-01,9.208255e-01,2.179867e+00,7.312952e-01,-8.846516e-01,7.328094e-01,1.639400e-02,4.513140e-02,9.112439e-02,3.665108e-01,1.931376e-01,8.059775e-01,6.267897e-01,4.194242e-01,1.146408e+00,7.151831e-01,-4.644910e-01,-4.252367e-02,-1.437570e+00,1.519473e-01,-4.323090e-02,7.530910e-02,4.387440e-02,-9.013155e-02,-9.899390e-03,-1.764532e-01,-3.842746e-02,-1.520640e-02,-1.732394e-01,-6.311868e-01,-1.021838e+00,-4.210940e-02,-6.141512e-02,
4.569540e-02,-5.399588e-01,-1.528170e+00,1.352544e-01,4.419455e-01,1.262323e-01,-3.845531e-01,-2.548062e-01,1.183900e-02,-6.358555e-01,2.436525e-01,1.348148e-01,3.868114e-01,1.821416e-01,-2.359969e-01,-2.519853e-01,-1.348151e-01,-4.341501e-01,1.401965e+00,-1.708375e+00,-2.730643e+00,-3.774012e-01,-9.248319e-01,-3.091520e-02,3.158390e-03,-2.387442e+00,-7.410396e-01,6.451798e-01,-1.431085e-01,3.966348e-01,3.840762e-01,-1.372904e+00,-3.398686e-01,4.408404e-01,9.629661e-03,1.722031e+00,-6.381077e-02,-9.208490e-03,5.070367e-01,3.875130e-02,-1.698694e-01,2.607600e-02,1.006950e+00,-1.479988e-01,8.556660e-03,-1.086847e+00,-1.690491e+00,-2.171943e+00,3.097440e-02,-5.994613e-01,
3.178540e-02,-1.352405e-01,5.227545e-01,7.288360e-01,1.356590e+00,1.305531e+00,2.761608e-01,-6.579727e-02,3.033590e-02,2.506226e-01,2.510202e-01,1.372917e-01,-1.041760e+00,4.743610e-01,4.171010e-01,3.350642e-01,-6.200219e-01,-2.162283e-01,3.065322e-01,4.992238e-01,6.994924e-01,-1.468751e-01,6.193414e-01,2.880030e-02,-3.610500e-02,7.785377e-02,9.653296e-02,2.870465e+00,8.380163e-01,5.609657e-01,7.507321e-01,2.954817e-01,1.747168e+00,4.358638e-01,1.372590e+00,5.047287e-01,6.160168e-01,1.574650e-02,-1.690934e-01,1.645160e-02,3.211910e-01,-4.058540e-02,9.163184e-01,1.712968e-01,9.976850e-03,2.069006e+00,-5.803352e-01,1.289514e+00,-4.553880e-02,-5.255709e-01,
1.001660e-02,5.736703e-02,1.272978e+00,3.462289e-01,1.387876e+00,3.060434e-01,-3.088027e-01,-4.720598e-01,1.665050e-02,-7.229970e-01,-3.526468e-01,3.699751e-01,1.259036e+00,8.584894e-02,-2.732022e-01,-9.546283e-01,1.359714e+00,9.930902e-01,3.878057e-02,-2.536477e-01,7.123964e-01,-5.507754e+00,2.168660e-01,4.532040e-02,4.217870e-02,-4.512773e-02,2.376035e-01,4.099140e-01,9.580954e-01,1.304367e-01,2.956454e-01,1.071049e+00,9.737567e-01,1.194251e+00,-1.664089e-01,1.172424e-01,8.051925e-01,1.536990e-02,-2.632927e-01,9.859540e-03,-2.244828e-01,1.802830e-02,7.285461e-01,1.361153e-01,2.616630e-02,3.300500e-01,5.227516e-01,-2.368867e+00,-1.422310e-02,5.132584e-01,
-9.290660e-03,1.968292e-01,6.979142e-01,-2.772910e-01,1.253959e-01,-8.606523e-01,-4.526439e-01,9.548184e-01,1.051050e-02,4.749736e-01,-1.039366e+00,-5.271036e-03,1.692968e-01,-3.790916e-01,5.488094e-01,-1.696507e-01,2.708948e-02,-7.723558e-01,1.319381e+00,2.616346e-01,-1.016565e+00,1.024910e+00,2.025103e-01,-1.097500e-02,4.656920e-02,-5.621474e-02,7.634195e-01,1.968037e+00,-5.046431e-01,-1.020295e+00,-2.021558e-02,3.508179e-01,7.916296e-01,-8.441659e-01,-2.816428e-01,-6.846071e-01,9.983659e-01,2.009250e-02,-9.302222e-02,1.378570e-02,-1.867215e-01,2.214100e-03,4.599876e-01,-4.238079e-02,-1.915520e-02,2.685483e+00,-2.750258e-01,7.389947e-02,4.530050e-02,-5.449655e-01,
-2.218790e-02,-4.041570e-01,2.147025e-01,-8.067669e-01,-7.091171e-01,3.093738e-01,-3.776074e-01,1.871504e+00,-2.601950e-02,1.291504e+00,3.029785e-01,7.139892e-01,1.760633e+00,-5.335462e-01,8.409609e-01,1.048155e-01,-7.343686e-01,-1.233311e+00,1.199122e-01,6.927149e-01,-1.150220e-01,2.883285e-01,5.059709e-01,-2.428340e-02,3.613720e-02,6.389273e-01,5.994129e-01,-1.174807e-01,-3.106886e-02,1.576701e+00,3.109439e-01,-3.429270e-01,2.199170e-01,1.636217e+00,1.230810e+00,1.613677e+00,-3.664601e-01,5.812540e-03,-4.309247e-01,9.682630e-04,-2.459249e-01,-4.682260e-02,-5.487380e-01,6.874305e-02,1.954610e-02,-3.316556e-01,6.241022e-01,1.476023e+00,-4.702860e-02,4.302672e-01,
3.994930e-02,7.225699e-01,8.470251e-01,-1.386542e-01,3.814467e-01,3.428067e-01,-4.525716e-01,-4.278474e-01,-2.389900e-02,1.095936e-01,5.234541e-01,-2.765258e-01,-1.865889e+00,2.228821e-01,-2.219017e+00,-1.546233e-02,-9.078037e-01,-1.113011e+00,7.015927e-01,5.951191e-01,1.515574e+00,1.985821e-01,6.918042e-01,-9.247830e-03,7.057340e-03,-5.497720e-02,4.907184e-01,-5.061851e-01,3.143522e-01,7.978471e-01,2.275815e-01,-1.396809e-01,1.395076e-02,1.106746e+00,-9.887695e-02,7.185705e-03,-2.116298e+00,-2.423180e-02,-9.037557e-02,-3.047710e-02,4.125071e-01,1.696700e-02,-1.109062e+00,1.020420e-01,-3.110180e-02,1.738153e+00,1.128409e+00,3.609061e-01,-3.575210e-02,-1.261971e+00,
2.677930e-02,4.047268e-01,8.473366e-02,2.287127e-01,9.168251e-02,-2.281304e-01,-1.483607e-01,-1.140430e+00,3.110790e-02,-1.403040e+00,1.946148e-01,-4.227239e-02,1.080281e+00,-1.311587e-01,1.901416e+00,-2.610683e-01,-1.931490e-01,-1.046115e+00,-2.704159e+00,1.292400e-01,4.859809e-01,2.699383e+00,-6.298827e-02,3.324570e-02,-1.042890e-02,7.380057e-01,-1.387418e+00,4.080059e-01,-6.104708e-01,1.107754e+00,-8.810871e-01,8.564479e-01,-6.747316e-01,-4.853243e+00,1.128708e+00,-3.482242e-01,6.097819e-01,3.775790e-02,2.953739e-01,2.306470e-02,-6.820877e-01,-3.552020e-02,3.147345e-01,3.728008e-01,4.990810e-02,-4.283392e+00,4.332166e-01,-3.026273e+00,-1.732890e-02,-1.131569e+00,
-3.058620e-02,-1.577420e-01,1.410082e-01,5.760493e-01,-1.087175e-01,5.148953e-01,1.132529e+00,-2.578120e+00,5.910290e-02,7.748820e-01,6.430829e-01,8.143158e-01,8.705774e-01,3.611083e-01,2.365694e+00,-9.128717e-01,-4.172094e-01,-1.123731e+00,-4.706859e-01,-9.503630e-01,-2.192260e-01,-4.336188e-01,-2.622183e-01,3.080800e-03,1.286150e-02,2.717858e-01,-8.885300e-01,-6.494690e-01,-5.653148e-02,7.329378e-01,3.581946e-02,-9.628218e-03,-1.724320e+00,4.364268e-01,-3.347602e-01,1.291970e+00,-1.196375e+00,1.506700e-02,1.391369e-01,-1.299640e-02,2.881984e-01,-1.691860e-02,1.150663e+00,4.607763e-02,-2.320830e-02,6.752820e-01,6.241489e-01,-5.901538e-01,2.706440e-03,-3.820442e-01,
1.841340e-02,-1.328557e+00,-6.097575e+00,-8.620994e-01,-1.649895e-01,5.559209e-01,-1.848387e-01,-4.346747e-02,-2.405060e-02,-1.000036e+00,-3.422915e-01,-1.781098e-01,-1.246709e+00,3.135577e-01,-2.230054e+00,1.000188e+00,-1.060779e+00,-3.075707e+00,-2.389214e+00,-4.128192e-01,-9.929628e-01,-8.527638e-01,3.508548e-01,-2.188080e-02,-9.197210e-02,-1.765586e-02,-6.247657e-01,8.870412e-01,1.097473e+00,3.551032e-01,-1.303222e+01,-2.526232e+00,4.828660e-01,-1.185211e+00,-7.556576e-01,-1.588869e+00,-1.063564e+00,2.451010e-02,3.769141e-01,4.243840e-02,3.390777e-01,2.692420e-02,-1.704802e-01,-9.557326e+00,-3.073240e-02,-2.128615e+00,-1.728946e+00,-2.158952e+00,8.179930e-03,9.887105e-01,
2.951830e-02,-8.208126e-01,1.804363e+00,-2.220839e-01,4.440783e-01,-5.175224e-02,1.059040e+00,-5.493939e-02,-4.987140e-02,-5.939493e-01,2.075667e-01,-5.853822e-01,1.412968e+00,6.609048e-01,2.958233e-01,1.444805e-01,-2.993189e-02,-2.191267e+00,4.517850e-02,-8.850607e-01,9.013037e-01,1.550630e+00,1.262118e-01,-1.778200e-02,-2.615630e-02,-1.705976e-01,5.155222e-02,-2.584254e-03,-7.955454e-01,-1.223975e+00,4.313176e-02,2.056791e-01,-5.137437e-02,-1.895211e+00,1.450132e+00,-2.067964e+00,2.389504e-01,3.436050e-02,1.410671e-01,-1.694970e-02,-1.723897e-01,6.747000e-03,1.321621e+00,1.919728e-01,9.250300e-04,-1.007127e-01,4.163669e-01,2.766574e+00,-3.853650e-02,-7.927729e-02,
4.967770e-02,6.775973e-01,2.048085e+00,1.667822e-01,-3.779308e-02,1.514015e+00,-1.986025e-01,3.241726e+00,1.537840e-03,7.963656e-01,5.647600e-03,8.164458e-01,8.854575e-01,-5.118427e-01,1.648097e+00,-6.645338e+00,4.822620e-01,1.231995e-01,-1.013464e+00,1.412305e+00,2.924975e+00,1.609490e+00,3.294894e-01,-4.808000e-02,-3.270040e-02,-3.209177e-01,-6.745562e-02,5.206704e-01,2.800103e-01,4.732891e-01,-9.227193e-03,1.308474e+00,2.203652e+00,-4.499280e-01,1.530730e+00,-4.329353e-01,1.092912e+00,-2.479110e-03,-6.903919e-02,-1.476480e-02,-6.951230e-01,-3.107830e-02,1.754380e+00,2.864947e-01,-8.280820e-03,-1.331965e+00,1.238268e+00,9.916403e-01,-1.089060e-02,-9.915568e-02,
3.205030e-02,-7.791021e-02,-1.934063e+00,1.738775e+00,5.557889e-01,-2.461171e+00,-6.617489e-02,1.170242e-01,4.044560e-03,3.994823e-01,6.254664e-01,5.295709e-01,3.110240e+00,4.841889e-01,1.131206e+00,3.187601e-01,2.551944e-01,1.374557e+00,-1.157257e+00,-1.095967e+00,-3.384311e+00,-5.931377e+00,-3.319151e-01,-5.307270e-03,-3.936910e-02,-8.447577e-01,-1.601684e-01,-4.299225e+00,-2.789076e+00,2.162743e+00,1.036066e-01,-1.461417e+00,-6.739987e-01,-3.420010e+00,-4.045354e+00,-3.786996e-01,-3.920673e+00,2.705550e-02,5.004341e-01,2.085310e-02,-7.142005e-02,-3.382590e-02,3.005756e-01,2.179849e-01,-1.038270e-02,-3.042196e-01,-1.525388e+00,-1.563527e+00,-4.959280e-02,-6.889051e-01,
2.941250e-03,-5.596895e-01,2.595361e-02,5.693894e-01,7.100509e-01,8.752720e-01,3.841819e-01,-2.375759e-02,9.788690e-03,1.267462e-01,3.118539e-01,-2.441936e-01,3.974341e-01,1.016921e-01,-9.591958e-01,1.170851e+00,-4.258372e-01,4.714236e-01,8.427234e-01,5.946726e-02,9.329641e-01,-3.644452e-01,1.164853e+00,3.210960e-02,-5.783780e-02,1.244874e-01,-3.297714e-01,1.651678e+00,3.834652e-01,8.263469e-01,-3.911978e+00,-3.860377e-01,5.191026e-01,-4.719057e-01,-2.034944e-01,-3.021905e-01,1.031008e-02,-3.779860e-02,-1.008495e-01,-6.464900e-04,3.256252e-02,2.492120e-02,-3.322751e-02,-4.044960e+00,-1.537460e-02,1.369324e+00,-6.224629e-01,1.243626e+00,-3.218370e-02,-8.688405e-01,
2.261680e-02,4.297506e-01,-1.216179e-01,8.637179e-01,-1.288889e+00,8.405347e-01,3.987096e-01,1.048979e+00,2.027000e-03,-2.181983e-01,9.107385e-01,3.375859e-01,-1.880551e+00,-1.207002e-01,1.761638e+00,-2.666280e-01,2.464135e-01,9.924121e-02,5.870821e-01,1.055250e+00,-4.114752e-01,2.483294e+00,2.558202e-01,-3.830450e-02,3.497730e-02,3.504639e-01,-1.880966e-01,1.397212e+00,3.091919e-01,1.019572e+00,-9.874487e+00,-1.933186e-01,-7.643481e-01,-9.667518e-01,6.246280e-01,9.460522e-03,2.061824e+00,5.831700e-03,1.891819e-01,-1.984420e-02,-1.915399e-01,1.602650e-02,5.495638e-01,-3.664696e+00,-3.411230e-02,1.703424e+00,1.024714e+00,1.273993e+00,-1.814070e-02,6.455867e-01,
1.258070e-02,-2.556558e-01,1.235178e+00,3.094703e-01,1.203241e+00,2.270882e+00,5.840997e-01,2.953932e+00,1.119970e-02,-2.558840e-01,-3.845918e-01,-1.457697e-01,9.885210e-01,-2.114578e+00,9.017246e-01,-2.926265e-01,2.546589e-01,9.702490e-01,-1.870565e+00,2.662242e+00,1.683526e+00,4.963322e+00,1.125279e+00,4.522790e-02,-1.007490e-02,6.539567e-01,-2.521677e-01,2.760143e-01,-2.730340e-02,2.417521e+00,-2.124026e-01,-3.717259e-01,-2.943141e-01,3.560635e-01,9.219356e-01,5.052725e-01,-1.719086e+00,-2.887950e-02,-1.368723e-01,2.196990e-02,-6.929190e-01,-9.575490e-03,1.189879e+00,1.353847e-01,4.213420e-02,-9.797344e-01,1.292748e+00,7.378910e-01,-3.691870e-02,3.495764e-01,
-1.505810e-02,-5.995120e-02,-4.865290e-02,-2.258640e-02,-4.209180e-02,-8.148630e-03,1.897630e-02,-3.346110e-02,2.145050e-02,-4.369860e-03,4.280390e-02,-2.067090e-02,-2.483340e-02,-5.835450e-02,-6.171670e-02,-1.029100e-03,1.385060e-02,-5.907310e-03,-2.767290e-02,-4.214560e-02,-3.199870e-02,2.198920e-02,-6.652070e-04,3.685050e-02,-1.435470e-02,1.384000e-02,-2.275410e-02,-2.828070e-02,5.535490e-04,-1.562160e-02,7.878970e-03,-1.956370e-02,-7.118600e-03,2.151510e-02,-4.021060e-02,-3.978400e-02,-3.553450e-03,6.239460e-03,-5.191650e-02,-2.414880e-04,-3.707890e-02,1.794850e-02,1.325000e-02,2.497080e-03,-8.556520e-04,1.021170e-02,2.346630e-03,2.735650e-03,4.950910e-02,-2.313370e-02,
-3.238480e-03,1.137229e+00,-7.682725e-01,3.957952e-01,5.220895e-01,5.124229e-01,-9.258807e-01,4.974416e-01,3.917910e-02,1.334357e-01,1.085257e-01,4.284752e-01,-6.726910e-01,-4.091693e-01,1.009347e-01,1.759381e+00,2.016048e-01,-1.501934e-01,1.922345e-01,5.062397e-01,-1.736704e+00,5.270339e-01,-1.184122e-01,6.668630e-03,1.787260e-02,5.843039e-01,-5.447954e-01,3.668405e-01,7.091334e-02,4.577530e-01,-1.990190e-01,5.500556e-01,1.227195e-01,9.846705e-01,-3.352681e+00,1.909124e-01,-7.537034e-01,6.060650e-03,-1.066468e-01,-4.981440e-03,-9.535224e-01,6.330820e-03,-1.130698e+00,7.608443e-02,-4.112980e-02,8.520395e-01,1.072364e+00,1.709114e-01,-2.217870e-02,8.127385e-01,
-1.621880e-02,3.624870e-01,-3.269794e-01,-1.134615e+00,-4.599927e-01,-5.568685e+00,-1.799811e+00,1.157329e+00,2.121510e-02,5.071934e-02,2.703412e-01,-3.000121e-03,-4.156859e-01,-1.129499e+00,-4.463599e-01,-1.209068e+00,1.104200e+00,-3.226601e-01,-2.608312e+00,-3.007659e+00,-6.183140e-01,-1.342389e+00,5.580022e-01,2.408960e-02,-1.109730e-01,3.874179e-01,1.486857e-01,2.654244e-01,-8.360342e-01,-3.780527e+00,-3.078852e-01,1.831690e-01,-1.166467e+00,-4.182743e-01,6.568555e-01,-1.621166e+00,1.854277e+00,-4.030970e-02,-1.967965e-01,-8.161370e-03,5.023981e-01,-3.839570e-02,-1.351929e+00,-7.892518e-02,-9.061030e-03,1.138120e+00,-1.615855e+00,9.931164e-01,-3.693360e-02,-6.623830e-01,
2.422910e-02,1.934871e-01,-4.963807e-01,4.894079e-02,-3.448726e-01,-6.287504e-01,9.532487e-02,1.234830e+00,-2.694890e-02,3.977500e-01,-3.073242e-02,2.526171e-01,-9.502970e-01,-9.295139e-02,-1.149366e+00,2.037021e-01,-2.297123e-01,-5.286886e-01,-2.940882e-01,-3.185699e-01,-1.088664e+00,1.403400e+00,-4.016218e-02,2.453940e-02,-8.363760e-02,-3.397624e-01,1.048332e+00,9.817407e-01,-4.305248e-02,2.658450e-01,-5.040148e-01,-1.448754e-01,-1.435502e-01,3.595915e-02,2.954685e-01,-5.065147e-01,-1.372617e-02,3.608290e-02,-2.219757e-01,2.694850e-03,-1.186796e-01,-1.674430e-02,-6.990183e-01,8.859755e-02,-4.251600e-02,1.298986e+00,2.028738e-02,4.580725e-01,3.244290e-02,-1.367226e-01,
2.308610e-02,-5.951349e-01,2.775407e-01,2.953188e-01,6.604646e-01,-3.487132e-01,-9.278665e-03,1.049679e-01,3.398000e-02,2.179071e-01,1.445390e-01,-2.728490e-01,1.723852e-01,4.540303e-02,1.731817e-01,2.112415e-01,2.481051e-03,-8.415373e-02,8.294322e-01,8.240260e-01,-4.475473e-01,1.768898e+00,-1.022074e-02,6.528500e-04,2.976710e-02,-1.162113e-01,4.239683e-01,2.136069e+00,2.271490e-01,1.148083e-01,-1.139354e+00,5.809168e-02,2.347987e-01,1.037119e+00,3.935029e-01,-9.295453e-01,7.154001e-02,-2.391010e-02,-9.486516e-02,-1.303900e-02,6.385367e-02,-3.018330e-02,6.742984e-01,-3.536623e-01,-2.118370e-02,-4.673876e-01,4.513961e-01,1.207327e+00,-2.349440e-02,3.236911e-02,
-1.239821e+00,
-2.843038e-01,
3.225460e-01,
-3.329400e-02,
-5.119710e-01,
1.246623e+00,
-2.214640e-02,
-3.055462e+00,
-2.052587e+00,
-3.609444e+00,
-7.447402e-02,
-5.544661e-01,
9.601619e-01,
-1.876730e-02,
-5.686594e-01,
-3.473363e-01,
-4.204018e-01,
-4.994270e-02,
2.310238e-01,
1.950072e-02,
-1.814554e+00,
8.352848e-02,
-6.775033e-01,
-2.029986e+00,
-5.354097e-01,
-1.607730e+00,
4.707041e-01,
2.116618e-01,
-1.735940e-02,
-9.178250e-01,
-4.488248e-01,
-1.654265e+00,
-1.455651e+00,
1.500020e+00,
-2.067458e+00,
-9.416708e-01,
-6.667396e-01,
-7.579824e-01,
-4.418151e-01,
-1.296905e+00,
-3.080140e+00,
9.549678e-01,
3.702609e-01,
-5.877076e-01,
-1.042907e+00,
-3.560950e-02,
-4.008859e-01,
-3.228557e-02,
9.355440e-01,
1.576072e+00,
-4.545683e-01,3.470773e-01,6.531535e-01,-4.492170e-03,7.505302e-01,-9.333416e-01,-2.357430e-02,-1.333929e+00,7.781172e-02,-5.169358e-02,-1.585370e-01,-1.303939e-01,-5.299992e-01,4.831250e-02,5.142564e-01,3.861952e-01,6.695793e-01,-2.871810e-02,-4.763844e-01,9.703211e-02,-1.719571e-01,1.295174e-01,5.552381e-02,4.070483e-01,-6.925372e-01,-2.719278e-03,-5.160303e-01,4.933605e-01,1.117170e-02,-1.488839e-01,-2.950640e-01,-5.589820e-01,1.927366e-01,1.635323e-02,9.133459e-01,7.882339e-02,-2.215529e+00,1.944977e-01,-9.909246e-01,-5.461856e-01,1.922006e-01,-1.635146e-02,6.906532e-01,8.365905e-01,-5.178795e-01,1.081960e-02,-3.289281e-01,1.698888e-01,6.565117e-01,6.150171e-02,
2.575827e+00,-3.394076e-01,-3.267552e-02,2.193350e-02,-1.321140e+00,-2.480159e-01,4.439190e-02,4.967084e-01,1.973820e+00,2.054629e+00,1.220626e+00,-9.731423e-01,1.754930e+00,-2.345600e-02,3.078605e-01,-4.101133e-01,-9.670010e-01,-6.596440e-03,7.023972e-01,2.226321e+00,1.448895e+00,2.121586e+00,8.245772e-01,9.366882e-01,1.046559e+00,2.261203e+00,1.298279e+00,5.115546e-02,-4.179880e-03,7.226104e-01,-7.528096e-01,-1.270767e+00,1.047807e+00,-9.775609e-01,1.461319e+00,1.845690e-01,1.923527e+00,6.840131e-01,6.555759e-01,6.522188e-01,9.316274e-01,-1.223577e+00,7.956114e-01,-3.003322e-01,7.857606e-01,1.758220e-02,7.776846e-01,8.194960e-01,9.700551e-01,-5.026739e-01,
1.951632e+00,-2.749020e-01,-1.853073e+00,6.546530e-02,-9.588300e-01,-4.166608e-01,-2.220720e-02,-1.521343e+00,1.337557e+00,1.729375e+00,1.447096e-01,-4.585010e-01,9.348290e-01,-2.414640e-02,-8.697023e-01,-1.539459e-02,1.890343e+00,-2.636090e-02,9.545042e-01,2.498673e+00,1.161482e+00,8.582541e-04,-8.884639e-01,1.588559e+00,7.555034e-01,-4.139300e+00,5.905886e-01,7.707362e-01,1.774900e-02,-6.881257e-01,1.040611e+00,-1.098458e+00,5.820152e-02,1.753367e+00,1.347777e+00,1.773730e+00,1.772796e-01,-1.540149e-01,4.096372e-01,2.046283e+00,1.490593e+00,9.349135e-02,4.018331e-01,2.084336e-01,1.805993e+00,-3.861840e-02,-5.941231e-01,1.966612e-01,3.250909e-01,3.932999e-01,
2.284628e-01,6.100705e-01,-1.788200e+00,3.473170e-02,-1.299133e+00,-3.827310e-01,-4.222430e-02,-1.864066e-01,5.795352e-03,7.458470e-01,8.614694e-02,1.737871e-01,-1.552213e+00,-2.027260e-02,4.427424e-01,5.318847e-01,-1.675858e+00,-3.291830e-02,4.320567e-01,7.300398e-01,1.063530e+00,-1.753069e-01,2.244751e-01,-1.305855e-01,-7.610537e-01,-1.986594e+00,-1.087133e+00,-7.297095e-01,2.871140e-02,1.677510e-01,2.520029e-01,4.773016e-02,3.640717e-02,1.314146e-01,6.906034e-01,7.343555e-01,-1.138190e-01,3.509880e-01,5.745316e-01,-1.034940e-01,7.096190e-01,1.002766e-01,-6.810251e-01,-2.500645e-01,-3.048488e-01,-3.226940e-02,-1.589527e-02,2.632934e-01,-1.071790e+00,-9.509190e-01,
-4.048813e-01,1.189243e+00,1.435388e-01,-3.812720e-02,5.780153e-01,4.170585e-01,-1.051970e-02,1.812437e+00,1.119476e+00,1.378165e+00,1.511861e+00,-1.010255e-01,-1.667155e+00,2.299320e-02,-3.766202e-01,-1.122308e+00,2.950744e+00,-4.457970e-03,-8.492860e-01,3.220401e-01,5.559181e-01,6.001573e-01,-1.382634e+00,-2.971894e-01,6.375909e-01,1.017970e+00,3.722848e-01,5.096918e-01,6.063030e-03,-9.896542e-02,1.419801e+00,-1.198804e+00,2.713596e-01,7.677376e-01,1.681513e+00,-3.531410e-01,-6.517401e-01,3.959981e-01,6.204427e-02,8.599731e-01,9.835806e-01,-1.103172e+00,-1.285685e+00,-1.726640e-01,2.250596e+00,-1.636860e-02,-8.973213e-01,2.010640e-01,6.201504e-01,4.898387e-01,
2.108295e-01,2.161030e+00,8.097171e-01,4.298090e-02,8.284689e-01,-5.540286e-01,-1.829440e-02,3.955380e-01,1.193877e+00,-7.888929e-01,1.936949e+00,1.882414e-01,-1.862534e+00,2.039470e-02,-8.456177e-02,8.698997e-01,-2.694933e-01,-4.206630e-02,1.300582e+00,-2.813869e-01,8.796695e-01,-1.829429e+00,1.826922e-02,-7.633358e-01,3.860655e-01,-1.031509e+00,6.777740e-01,-1.506621e-01,-2.001190e-02,1.645388e-02,-3.436024e-01,7.328229e-01,1.139253e+00,1.398631e+00,-1.059449e-01,-1.687670e-01,-1.337773e+00,-5.302118e-02,5.513654e-03,2.333761e-01,-3.420879e-01,1.805504e-01,-1.706454e+00,8.361993e-02,-7.273195e-01,1.937310e-02,-6.257404e-01,7.375629e-01,-1.181834e+00,-5.404859e-01,
8.453744e-01,-6.042814e-01,3.049251e+00,-4.170000e-02,7.729551e-01,-4.321883e-01,1.631020e-02,1.038843e+00,1.303605e+00,1.127916e+00,-1.261651e+00,-5.114471e-01,-5.408120e-02,1.765380e-02,1.597918e-01,-6.303144e-01,2.963603e+00,8.568540e-02,-1.960903e-01,-3.101712e-01,-1.672301e+00,5.140837e-01,5.267187e-01,3.863747e-01,-5.482399e-01,-3.248116e-01,9.268828e-02,4.078091e-01,5.211950e-02,1.810972e-01,2.225171e-01,-3.308835e-01,-9.121532e-01,6.538742e-01,7.605980e-02,-9.285724e-01,6.771610e-01,4.987230e-01,1.158106e+00,7.595146e-01,1.377915e-02,4.337588e-01,1.785110e+00,4.871762e-01,1.172553e+00,4.114340e-02,8.826432e-01,3.592290e-01,1.663405e-01,-3.652354e-01,
1.316561e+00,2.911257e+00,3.961706e-01,3.440000e-02,-1.627442e-01,4.461896e-02,-4.257760e-02,2.437616e-01,-2.202144e-01,-1.173622e+00,5.451753e-01,-1.126825e+00,7.867303e-01,-4.047540e-02,-6.348592e-01,-2.200735e-02,2.160928e+00,-1.756190e-02,3.285711e-01,3.149731e-01,1.320061e+00,-4.291323e-01,9.391116e-01,1.980623e-01,9.854155e-01,2.813017e+00,-5.148069e-01,4.116452e-01,-2.167680e-02,-9.082215e-01,-1.133077e+00,-1.087005e+00,-1.365951e-01,6.564095e-01,-5.642434e-01,8.036938e-01,1.532580e+00,-1.089438e-01,1.182779e+00,6.321613e-01,3.931170e-01,-8.414287e-02,-2.526928e-01,2.670874e-02,5.568258e-01,3.093900e-02,1.752338e+00,3.538049e-01,3.747679e-01,4.673453e-01,
1.352613e-01,-9.323047e-02,-5.041039e-02,4.958810e-02,-3.323192e-01,2.061237e-01,-2.100940e-03,-1.355171e+00,-1.914298e+00,-4.248270e-01,-9.285790e-01,1.738966e-01,1.335278e+00,-4.210850e-02,4.638630e-01,-1.083490e-01,3.714862e-01,-7.558040e-02,-1.892179e-01,-2.457255e-01,-1.496640e+00,1.108691e+00,4.348588e-01,1.694440e+00,8.402982e-02,1.006986e+00,2.513983e-01,-2.746224e-01,6.576430e-03,2.268899e-01,-2.090856e-01,-1.476188e-01,-1.413468e+00,-4.099316e-02,-1.069805e+00,1.029619e+00,-5.853801e-01,7.673327e-01,3.765820e-02,2.691713e-02,-7.429428e-01,-2.062252e-01,-1.464538e+00,-6.048357e-01,-1.498071e-01,-1.962750e-02,7.506830e-01,-8.648094e-01,2.631130e-01,-3.403259e-01,
1.576815e+00,1.538785e-01,-1.131958e+00,-1.842490e-02,6.839483e-01,1.058042e+00,1.361640e-02,1.548892e+00,2.258548e+00,1.069835e+00,1.111962e+00,-1.571697e+00,4.563725e-01,5.619100e-03,-4.678687e-01,-5.566095e-01,2.535513e+00,-1.908860e-02,-6.150635e-01,8.199022e-01,-2.588703e+00,1.254152e-01,-7.130164e-01,1.670702e+00,-2.750072e-02,2.960799e+00,4.538088e-01,1.395993e+00,2.771200e-02,-2.415178e+00,-1.887319e+00,-2.058509e+00,1.300284e+00,1.542779e+00,1.458088e+00,-1.189230e-01,-2.909837e-01,-1.150765e+00,-1.074591e+00,-7.225210e-01,-1.303130e+00,-6.457711e-01,3.323151e+00,1.706012e+00,9.895694e-01,1.654310e-02,-3.121661e-01,-7.680409e-01,1.932380e+00,-1.133319e-01,
-4.179668e-01,7.464486e-02,7.219374e-01,-7.995630e-03,-1.031769e+00,2.834111e-01,-5.901190e-03,1.731537e+00,2.113444e+00,2.523305e+00,1.690965e+00,-1.261038e+00,-6.651023e-02,4.087540e-02,-9.975894e-02,-4.015276e-01,5.371115e-01,-3.859580e-02,-4.194462e-01,7.956199e-01,1.220658e+00,-1.608717e+00,-7.081593e-01,1.650267e+00,-7.732903e-01,1.672487e+00,-7.486302e-01,1.174206e+00,-1.450570e-02,2.482127e-01,9.754814e-01,-8.145540e-01,1.211434e+00,1.005214e+00,2.070209e+00,3.913165e-01,8.453461e-01,-9.383837e-02,5.166768e-01,-6.849363e-01,4.624243e-01,4.272612e-01,9.143265e-01,6.473552e-01,1.810784e+00,2.544540e-02,8.123713e-01,-8.291605e-01,3.691953e-01,-6.552254e-02,
3.742751e+00,2.913030e+00,3.081254e+00,-9.158260e-04,-1.005580e+00,-1.157615e-01,-3.878050e-02,8.254583e-01,2.604728e+00,2.110353e+00,2.747844e+00,-2.331736e+00,4.831072e-01,3.105830e-02,-1.385061e+00,-5.483911e-01,2.165202e+00,7.625150e-03,2.880149e-01,2.053964e+00,1.588362e+00,8.710361e-01,1.064264e+00,4.163538e+00,-3.492040e-01,4.273368e+00,-5.640114e-01,1.252360e+00,-3.056890e-02,-1.718341e+00,-4.082440e-01,-1.323134e+00,4.139675e-01,2.488796e+00,1.210868e+00,1.854812e+00,3.340465e+00,-2.094974e+00,4.579343e+00,3.133678e+00,1.660633e+00,1.248757e+00,2.061715e+00,8.812616e-01,3.542428e-01,-3.106370e-02,1.362490e+00,2.454113e+00,2.667885e+00,-1.434651e-01,
-2.885149e-01,2.857049e-01,-4.416652e-01,2.392490e-02,-4.902046e-02,4.928864e-01,-6.931920e-03,-1.262707e+00,-3.709728e-01,-2.978273e-01,1.299923e+00,3.115400e-01,-8.311986e-02,2.734570e-02,-3.638315e-01,-5.807756e-01,1.417241e+00,-3.835960e-02,-5.831369e-01,1.397257e-01,-2.451829e-01,4.033575e-01,-8.183268e-02,-1.022274e+00,-3.933142e-01,6.846900e-02,-2.144927e-01,-2.189111e-01,2.867660e-03,-1.354147e-01,-3.233436e-01,-3.865588e-01,6.477810e-01,3.786304e-01,1.033891e+00,-1.324799e-02,-1.643822e+00,-2.431566e-02,1.253529e+00,-5.245025e-01,4.219030e-01,-3.988907e-01,1.865801e+00,2.145208e-02,1.441170e-01,-3.125430e-03,-7.728698e-01,-6.319594e-02,1.135491e+00,2.218115e-01,
-4.221459e-01,1.010803e+00,-3.180106e+00,3.186140e-02,6.911072e-01,-9.286472e-01,1.302990e-02,-7.740639e-01,9.120005e-01,1.987648e-01,2.134614e+00,6.550115e-01,-6.000707e-01,3.241650e-02,-1.227524e-02,-1.524359e-01,-1.545573e+00,-6.377160e-03,-2.716519e-02,1.754941e-01,8.558524e-01,-7.471623e-02,-1.514422e-01,4.657137e-01,-4.262010e-01,-8.432574e-01,-8.832479e-01,-5.191198e-01,-2.984350e-02,3.970585e-01,2.243634e-01,1.164636e+00,-7.671330e-01,-4.715107e-01,-8.984767e-01,-9.017160e-01,-6.304121e-02,-2.500559e-01,-5.725659e-01,3.004569e-01,-5.405553e-01,2.014511e-01,1.099290e+00,1.590956e+00,1.475472e-01,1.786350e-02,-1.408847e+00,-8.944117e-01,-1.415218e+00,-1.903130e+00,
8.165537e-01,-4.824185e-01,-2.091309e-01,4.174860e-02,1.907359e-01,5.133326e-02,-3.756640e-02,-2.261772e+00,-7.269182e-01,-6.387525e-02,2.674412e-03,-4.201671e-01,-1.983654e+00,-4.934410e-02,-3.385465e-01,-4.140326e-02,3.827212e-02,-1.115170e-02,1.907830e-01,2.781532e-01,-3.310162e-01,-7.432021e-02,-2.384569e-01,1.521664e-01,3.631072e-01,-1.141562e-01,8.543838e-01,1.928890e-01,4.265680e-02,9.744056e-02,-1.126762e-02,8.653384e-02,2.724697e-01,1.872042e-01,1.315103e+00,-7.039564e-02,1.186415e+00,-4.088775e-01,1.514483e-02,3.922275e-01,-4.280784e-01,2.392026e-02,3.433853e-01,8.685490e-01,7.297217e-01,-1.220470e-02,1.729567e-02,-2.145257e-01,7.587784e-01,-4.945708e-02,
7.582363e-01,2.492309e+00,7.329426e-01,6.363680e-02,4.088640e-01,1.642944e-01,-2.176440e-02,1.016192e+00,1.492877e+00,9.189581e-01,-1.470003e+00,-6.954369e-01,3.206453e-01,2.524730e-02,-3.833514e-01,-1.077589e-01,2.979413e+00,3.045250e-02,1.147226e-02,6.996328e-01,6.631643e-01,1.696023e+00,9.690267e-01,2.565873e+00,-6.900495e-02,3.651750e-01,-2.883918e-01,-6.384374e-01,-2.974640e-02,-2.997441e-01,4.794381e-01,-1.108939e+00,1.219163e-01,1.391306e+00,-6.971700e-01,-4.168039e-01,6.406925e-01,2.698228e-01,1.491081e+00,1.101488e+00,-1.838344e+00,2.665518e-01,4.276343e-01,-7.334133e-01,2.278553e+00,-1.988760e-02,6.298062e-01,-4.712298e-01,1.717359e+00,3.502665e-01,
5.971583e-01,-2.457011e-01,-3.966673e-01,-1.086040e-02,-7.625519e-02,6.233905e-01,3.264540e-02,-2.363071e-01,2.714358e-01,-2.786500e-01,-2.795351e-01,-1.920711e-01,1.920030e-01,2.795600e-03,6.128329e-02,-3.073107e-02,2.014950e-01,4.117930e-02,-1.138370e-01,-1.240458e-01,-3.088708e-01,-8.401152e-03,-2.276385e-01,-1.546884e-01,-1.331882e-01,1.530198e-02,2.574282e-02,1.475623e-01,-3.810570e-03,3.383702e-02,2.856081e-01,-1.848526e-02,3.510872e-01,-1.912441e-01,1.265198e-01,-2.650714e-01,5.136737e-01,-5.162435e-02,1.405072e+00,7.017244e-02,1.468011e-01,4.985876e-02,2.582969e-02,-1.664402e-01,-8.603306e-02,-2.137320e-02,-2.558078e-01,-4.421508e-01,3.270714e-01,9.849408e-02,
6.893225e-01,-5.428869e-01,-3.638094e-01,5.018560e-03,-4.993049e-01,2.348420e-01,-2.059360e-02,4.842531e-01,-2.767592e-01,-7.470450e-01,1.514123e+00,1.502359e-01,-1.046543e+00,-3.691840e-02,-2.021972e-01,1.565907e-03,-4.878323e-01,-2.501440e-02,-2.866707e-01,-4.811538e-01,1.225286e+00,-2.753399e-01,1.914585e-01,1.154674e-01,3.178013e-02,-3.688207e-01,3.507540e-01,-3.213442e-01,-2.484090e-02,4.176602e-02,-2.259969e-01,-2.828701e-01,5.047866e-02,-9.919821e-02,-1.207574e+00,-1.767548e-01,-9.385409e-01,-1.207326e-01,-1.339059e+00,1.769711e-01,-5.542734e-01,2.137053e-01,-1.033188e+00,-4.577239e-01,2.317279e-01,6.591470e-03,-8.054610e-02,1.684740e+00,-5.693176e-01,4.582064e-01,
-9.542515e-03,-8.905742e-01,3.457834e-01,-3.885140e-02,-5.154193e-01,-2.151282e-01,-3.109070e-02,1.038163e+00,-6.434978e-01,-1.196488e-01,-4.734857e-01,4.181657e-01,7.165319e-01,-3.760550e-03,-4.564745e-02,2.033028e-01,-1.361363e+00,5.865150e-02,9.230244e-02,6.300245e-01,6.258909e-01,-9.302680e-01,3.041904e-01,-7.705438e-01,-2.439436e-01,-8.365790e-01,5.554715e-02,-8.672336e-01,7.050730e-03,1.767588e-01,-2.318344e-01,4.437830e-01,-5.432774e-01,1.153520e-01,-1.189050e+00,-5.246055e-01,-5.582402e-01,-5.390816e-02,-4.590381e-01,5.011231e-01,2.477157e-01,5.185219e-02,-7.288620e-01,-1.628392e-01,7.262977e-02,-3.764210e-02,4.565314e-01,-8.563469e-02,-7.450915e-01,-7.991000e-01,
2.293090e-02,-1.201380e-02,3.195020e-03,2.379310e-02,-2.683830e-02,1.650660e-02,-4.774370e-03,-3.948500e-02,-4.636750e-02,-3.770860e-03,3.510660e-02,-8.118780e-02,-5.405850e-02,3.933680e-02,1.511970e-02,3.896140e-02,-2.401640e-02,3.852910e-02,-1.131190e-02,3.140800e-02,-3.666960e-02,-3.289140e-02,-3.029260e-03,-3.504470e-04,-3.898100e-03,7.110920e-03,1.081260e-02,-1.970870e-02,-5.930050e-03,-3.442400e-02,-3.805520e-02,-5.608570e-02,-3.216140e-02,-6.700770e-03,-7.870270e-03,-1.476820e-02,-4.487180e-02,-7.820500e-02,-1.619270e-02,2.537630e-02,-1.100080e-02,1.215800e-02,-3.305970e-02,-6.956630e-03,7.458090e-03,1.050010e-02,-3.254840e-02,3.901220e-02,-4.095430e-02,-3.328170e-02,
9.641929e-01,-1.312784e-01,-1.339255e+00,-1.521600e-03,-1.630997e-01,9.246150e-02,-1.925960e-02,1.190507e+00,8.268460e-01,1.203416e-01,7.332719e-01,-5.069328e-01,7.439051e-01,3.735510e-02,-9.030630e-01,6.016210e-02,1.836196e+00,-2.930470e-02,-3.624727e-01,-1.113687e-01,-3.520891e-01,4.722335e-01,-8.329814e-01,-2.546727e-01,-1.428258e-01,9.880712e-01,7.698693e-02,4.318644e-01,-2.594510e-02,-1.299085e+00,-4.150524e-01,-3.950911e-01,5.634999e-01,3.048997e-01,1.657942e-01,3.432011e-01,-1.770384e+00,-1.603457e-01,-1.343008e+00,1.188979e-01,4.045985e-01,-1.827021e-01,4.792237e-01,2.304603e-01,5.965649e-01,1.481380e-02,5.331845e-01,-1.757471e-01,7.084477e-02,3.230751e-01,
-8.554778e-01,-1.726779e+00,-6.301419e-01,-2.826020e-03,6.083910e-01,5.473006e-01,4.840200e-02,-1.755546e+00,9.621032e-01,-1.091738e+00,-1.425702e+00,-2.812263e-01,5.141831e-01,-4.045210e-02,-1.381328e+00,-8.847080e-01,-9.228465e-01,-6.813380e-02,-9.150051e-01,-9.189858e-01,-1.675473e+00,7.401241e-01,-3.932032e-01,-1.386295e+00,-1.070907e-01,-1.888841e+00,-1.146366e+00,1.236401e+00,3.598730e-02,-3.318888e-01,-5.515139e-01,-4.554047e-01,2.958272e-01,-8.136518e-02,6.830102e-01,-3.098899e-01,1.795401e-01,-3.876479e-01,-1.259122e+00,-1.071187e+00,-1.181800e-01,-9.334055e-02,2.086406e+00,1.378958e+00,-9.944376e-01,1.389970e-02,-2.550596e+00,-6.136506e-01,1.017511e+00,1.210453e+00,
1.594728e+00,3.594267e+00,-2.978295e+00,3.471320e-02,2.812655e-02,3.845863e-01,-2.633470e-02,3.402047e+00,-3.719100e+00,-2.104814e+00,1.477336e+00,4.044582e-01,8.532789e-01,1.465730e-02,1.326416e+00,2.620063e-01,-1.218722e+00,-2.452480e-02,-5.288801e-01,1.902263e+00,-2.057655e-01,-2.921697e+00,2.330593e+00,-1.242227e+00,8.201627e-02,6.408508e-01,7.421684e-02,-2.302581e+00,1.852330e-02,-7.861621e-01,-5.036953e-01,1.032088e+00,1.037707e+00,-1.902065e+00,-1.394436e+00,1.121221e+00,1.186218e+00,3.377082e-01,9.978348e-01,2.044821e+00,-1.565107e+00,-1.497504e-01,-2.218007e+00,-6.416297e-01,2.744337e+00,-1.470540e-02,-5.899495e-01,2.048487e+00,-2.511181e+00,-2.168147e+00,
-1.009123e-01,1.851684e-02,1.461599e-01,2.323590e-02,-3.482745e-01,-5.954612e-01,3.307720e-02,5.804638e-01,1.299744e+00,8.465011e-01,7.053366e-01,-4.246925e-01,-6.676836e-02,-5.113280e-03,3.507369e-02,6.525741e-01,-1.739401e+00,-4.749930e-02,3.153267e-01,3.688029e-01,1.839450e+00,3.037170e-01,-1.995216e-01,-5.226045e-01,-5.013461e-01,9.323171e-01,4.771524e-01,6.042573e-01,-6.495920e-03,-1.408985e+00,1.692448e-01,-8.284188e-01,-1.364935e-01,7.282344e-01,8.606459e-01,6.833878e-01,1.172314e+00,-5.797697e-01,1.296011e+00,1.766223e+00,-6.241838e-01,3.194364e-01,-4.212139e-01,8.015598e-01,1.442897e+00,1.742010e-02,9.151463e-01,1.361178e+00,1.303591e+00,-8.676175e-01,
1.719294e+00,1.805480e-01,1.677445e+00,1.295770e-02,6.088504e-01,2.738084e-01,2.241000e-02,1.419166e+00,-2.179713e+00,-3.241080e+00,7.365050e-01,-7.089510e-01,-1.470292e+00,3.121360e-02,6.096869e-01,1.094311e-01,-1.493072e+00,1.825850e-02,1.873355e-01,-8.819642e-01,-8.146026e-01,1.449755e+00,-7.687741e-01,9.389088e-01,-1.511123e+00,5.310012e-02,5.874660e-01,1.444844e+00,7.308590e-03,-1.086549e+00,-2.873049e-01,-5.094787e-01,-1.084614e-01,-2.749810e-01,7.358492e-01,1.066334e+00,1.009088e+00,3.831027e-01,1.373234e+00,1.033251e+00,9.275899e-04,-2.536443e-01,-9.890252e-01,7.069760e-01,1.581621e+00,-4.335360e-02,-2.742473e-01,9.977005e-01,1.183177e+00,-2.895766e-01,
1.554923e-02,1.627650e-01,-5.877422e-01,2.048160e-02,5.957608e-01,5.567386e-01,-3.031060e-03,-2.180353e-01,1.955244e+00,6.998758e-01,-8.770061e-01,-9.121681e-01,1.348980e+00,2.489520e-02,6.159283e-01,2.873196e-01,-8.918859e-01,9.364510e-03,7.331182e-02,-9.042393e-02,-9.853432e-01,-7.216225e-02,1.901381e-01,1.523645e+00,4.449886e-01,7.291754e-01,-3.038848e-02,8.988165e-01,1.235230e-02,-6.540390e-01,-2.736252e-01,-1.495610e+00,-4.027220e-01,-1.235624e+00,-9.491546e-02,-1.044022e-01,1.220518e+00,-1.225160e-01,-2.413184e+00,-4.056190e-01,4.289480e-01,-5.698022e-02,4.493142e-01,3.721916e-01,9.331707e-02,3.239970e-02,-6.709096e-01,1.133282e-01,-5.069752e-01,1.538850e+00,
-4.763577e-01,1.790910e+00,-2.854596e-01,4.595660e-02,1.130112e+00,4.220040e-02,-1.028780e-02,-4.024177e-01,2.776637e-01,-5.761877e-01,1.315382e+00,-8.501428e-02,-5.676072e-01,-3.346140e-02,3.107472e-01,-6.074455e-01,1.131068e+00,-4.215310e-02,2.487601e-01,-4.195000e-01,4.158926e-01,8.483987e-01,2.224133e-02,7.172716e-01,1.448824e-02,-4.985349e-01,3.839282e-01,3.132787e-01,-4.145870e-02,4.584647e-01,-7.064635e-01,-2.875275e-01,-1.321647e-01,-8.365983e-01,-3.728499e+00,-5.370955e-01,1.186012e+00,2.109507e-03,-1.309405e+00,-4.787043e-02,-7.271205e-01,-4.822842e-01,-7.667221e-01,1.293969e-01,7.671120e-01,8.324590e-03,-8.531791e-02,-1.026187e-01,-1.427421e+00,7.998222e-01,
-4.238800e-02,-1.375890e-02,2.524310e-02,4.059460e-02,-2.636130e-03,2.596080e-02,3.797040e-02,3.932690e-02,2.652820e-03,1.761470e-02,3.443060e-02,-2.515660e-02,-3.912130e-02,2.925500e-02,1.927280e-02,-3.710300e-02,4.676410e-02,1.674450e-02,2.946590e-02,-4.928140e-02,7.728880e-03,-4.513980e-03,-4.506090e-03,1.688660e-02,-4.921370e-02,1.731890e-02,-4.233180e-02,-2.910290e-02,-2.716680e-02,-2.258320e-02,-3.133620e-03,-2.823850e-02,-4.962080e-02,-3.010780e-02,4.401290e-03,2.143550e-02,7.439990e-03,-2.775560e-02,1.835050e-02,3.803350e-02,-2.196000e-02,-3.380620e-02,-1.348990e-03,3.358260e-02,2.507660e-02,-4.485800e-02,-4.019960e-02,3.049510e-02,-9.242810e-03,-3.764150e-02,
2.031657e-01,-8.377842e-01,8.551801e-01,-4.722290e-02,3.688197e-01,2.951735e-02,2.107770e-02,-3.734661e-01,3.999341e-01,1.395854e+00,-5.000475e-02,3.940547e-02,8.088797e-01,2.299930e-02,-3.520160e-01,-1.299023e-01,8.751329e-02,-3.695560e-02,1.491051e-01,1.081085e-01,-5.995539e-02,-5.053396e-02,-4.734897e-03,5.685818e-01,1.556114e-01,2.189337e-01,3.572097e-01,-5.740210e-02,9.886580e-03,2.307694e-01,-1.144480e-01,5.956887e-01,-2.722335e-01,-4.777518e-01,5.963621e-01,4.046640e-01,-1.319495e+00,-6.531033e-01,-1.025212e+00,5.238188e-04,-1.594724e+00,2.286159e-01,-8.137200e-01,-2.023116e-01,2.776118e-01,-3.696350e-02,-6.796554e-01,-7.976102e-02,9.794164e-01,-1.596150e-01,
8.273999e-01,-8.140247e-01,9.293225e-01,-4.632880e-02,3.428545e-01,-1.819832e-01,-1.923880e-02,1.477538e+00,4.222181e+00,1.544358e+00,1.126600e+00,-3.640960e-01,9.793157e-01,-6.828280e-03,-1.356116e-01,-5.901945e-01,1.562740e-01,-2.809910e-02,7.263336e-01,1.140942e+00,1.053906e+00,1.784081e+00,2.642091e-01,3.597018e-01,1.457048e+00,-2.643490e+00,6.907411e-01,7.137020e-01,-2.122500e-02,6.367615e-01,-7.031692e-01,-1.468153e-01,-1.917265e+00,-3.675271e+00,-3.853197e-01,-4.253829e-01,1.615588e+00,-1.276726e+00,3.248156e+00,-2.500187e-01,1.070135e-01,-1.378376e-01,4.048722e-01,-5.893056e-01,-2.142245e+00,-5.116390e-02,3.083946e-01,1.069368e+00,-7.570844e-01,2.278054e-01,
4.028344e-01,6.174935e-01,1.295776e+00,3.603020e-02,-1.736897e-01,5.273817e-01,8.691460e-03,8.042090e-01,1.719946e+00,9.344255e-02,-1.308063e+00,-1.088249e+00,4.333734e-01,-2.396750e-02,-1.127933e+00,-3.023174e-01,2.060154e+00,-2.157250e-04,-4.248105e-01,-4.389902e-01,-5.732578e-01,4.186650e-01,2.842577e-01,1.162689e+00,-7.547647e-01,1.087621e+00,-2.016314e-01,-1.579443e-01,-1.110960e-02,-6.225932e-01,3.629549e-01,-1.009899e+00,-1.235404e-02,1.191951e+00,5.794342e-01,2.773258e-01,5.092160e-01,2.112999e-02,4.631372e-01,1.831100e-02,7.052447e-02,1.616536e-01,1.573486e+00,1.531435e+00,7.005638e-02,2.550770e-02,1.442592e+00,1.144320e-01,1.480583e+00,-1.117551e-01,
3.264629e-01,-3.454966e+00,-1.021111e-01,-2.739720e-02,-2.647626e-01,3.155002e-01,-3.413840e-02,1.491277e+00,-2.286371e-01,1.316560e+00,-6.286503e+00,-1.863111e-01,6.219710e-01,1.959120e-02,-7.567703e-01,-2.449559e-01,-1.177056e+00,-7.094370e-02,4.576000e-01,4.725383e-01,-5.349535e-01,1.799451e-01,3.197040e-01,-7.321784e-01,3.826083e-02,-2.015151e-01,-1.531097e-01,1.590504e-01,4.435220e-02,3.229379e-01,1.248894e-01,3.142888e-02,-1.120051e-01,-1.252325e+00,-4.822024e-01,-8.713781e-02,-2.030945e-01,3.810430e-01,7.588683e-01,-5.824626e-01,-1.849325e-01,-3.243981e-02,-2.207786e-01,-6.416401e-01,6.173529e-01,-3.099760e-02,6.606823e-01,-2.277967e+00,-1.206609e+00,5.820008e-01,
3.096918e+00,3.067036e+00,2.218447e+00,-2.381110e-02,6.968663e-01,2.773526e-01,2.738870e-02,-1.784433e+00,3.590909e+00,1.117116e-01,5.274383e-01,-2.274485e+00,1.055665e+00,-2.253540e-02,-5.251460e-01,3.724340e-02,1.502939e+00,8.963840e-03,2.506004e-01,5.764372e-01,2.451612e+00,-7.712395e-01,8.644493e-01,2.020836e+00,3.018578e-02,2.374753e+00,-2.402624e+00,2.425050e+00,3.413240e-02,-3.646135e-01,1.628787e+00,-1.258371e+00,-7.783823e-01,-4.935340e-02,-3.668759e-01,2.200364e+00,2.623528e+00,-1.263840e+00,-1.095508e+00,2.269158e-01,3.101673e-01,6.516855e-01,6.275238e-01,-7.664083e-01,9.446780e-02,4.270800e-03,2.349905e+00,5.606267e-01,4.391060e-01,4.853246e-01,
1.123748e+00,1.756024e-02,-8.758607e-02,1.319160e-02,1.112691e-01,9.057359e-02,-8.882330e-03,1.180528e+00,2.982513e-01,1.614041e+00,-1.795835e+00,-9.167651e-01,3.072168e+00,-3.857860e-02,-2.243049e-02,-6.309756e-01,2.458565e+00,1.333250e-02,-7.515656e-01,1.264815e+00,-9.019945e-01,2.282254e+00,-7.934475e-02,1.816727e+00,3.185635e-01,1.670182e+00,-3.361132e-02,3.006091e+00,1.074410e-02,-5.443441e-01,-4.162650e-02,-1.109521e+00,-3.038405e-01,7.452099e-01,1.777958e+00,5.311174e-01,9.310633e-01,-3.179990e-01,2.575672e+00,2.751023e-01,-1.711623e-02,-1.292295e-01,-6.343455e-01,2.624617e-01,6.629550e-01,3.359050e-02,-4.806526e-01,-3.846042e-01,2.754495e+00,8.815513e-01,
7.654460e-01,-8.295108e-01,-4.533837e-01,3.788060e-02,8.818656e-01,2.396421e-01,-4.107620e-02,4.934117e-01,1.787282e+00,3.198114e-01,1.289879e+00,-5.753592e-01,2.762792e-01,-5.009830e-02,8.573770e-01,-2.737029e-01,-4.280327e+00,2.375650e-03,-8.699494e-02,1.266042e-01,4.570189e-01,1.475301e+00,3.212782e-01,4.453672e-02,-2.023355e+00,-4.421871e-01,6.982160e-01,-1.352824e-02,2.938040e-02,-1.389112e-01,7.696053e-01,-6.795895e-01,4.784777e-01,-3.945226e-01,4.645228e-01,4.607416e-02,1.497946e+00,-8.491313e-01,4.291059e-01,-3.948499e-02,1.019407e+00,4.778207e-02,4.485662e-01,-8.141370e-01,5.272732e-01,2.129190e-02,7.479870e-01,1.777651e+00,4.169602e-01,3.754678e-02,
3.789301e+00,9.940531e-01,4.242193e+00,-1.844000e-02,1.216636e+00,3.664585e+00,-1.629380e-02,5.314113e-01,4.297824e+00,1.494198e+00,5.109691e+00,4.278439e+00,6.474576e-01,-4.705350e-03,4.895988e+00,5.234782e+00,6.157541e-01,-3.212140e-02,4.840765e+00,3.348153e+00,4.033367e+00,2.113745e+00,4.474967e+00,3.348956e+00,1.332873e+00,1.200095e+00,5.395325e+00,-5.853081e-03,2.355680e-02,3.119356e+00,1.234049e+00,3.338711e+00,7.649792e-01,8.362596e-01,4.236249e+00,4.897046e+00,1.565558e+00,1.964744e+00,-9.020426e-01,6.705225e+00,4.413476e+00,8.124298e-01,-2.059893e+00,4.148861e-02,3.849837e+00,-2.778240e-02,5.528753e+00,7.338462e+00,2.730865e+00,2.890985e+00,
4.058181e-01,-1.663803e-01,1.118086e+00,-1.362140e-02,3.711016e-01,-4.047239e-01,6.621830e-03,8.885123e-01,-1.617330e+00,1.673911e-01,1.490819e+00,-6.994725e-01,2.417113e+00,-9.408880e-03,-3.505894e-01,-3.331537e-01,3.558990e+00,-4.216770e-02,7.874181e-01,3.740922e-01,1.673412e+00,1.833377e+00,3.684174e-01,1.622748e+00,4.575363e-01,-3.910203e-01,7.816976e-01,5.497063e-01,-2.026880e-02,-9.810038e-01,-2.581828e-01,-9.379538e-01,7.125190e-01,-1.406862e+00,-1.359344e+00,2.770803e+00,3.310830e-01,-3.752795e-02,3.233946e+00,8.214087e-01,2.594089e+00,-1.034775e-01,1.542568e-02,-6.290500e-01,-4.228943e+00,3.215980e-02,3.673733e-01,1.121628e+00,6.282856e-01,-4.039611e-01,
1.511178e+00,1.479356e+00,-8.638133e-01,3.108350e-02,1.894509e-01,2.413050e-01,4.665780e-03,-1.549219e-01,2.128077e-01,5.788950e-01,2.363287e+00,-4.604978e-01,-7.290432e-01,2.897470e-02,2.061430e-01,-1.166533e+00,4.520112e-01,7.099680e-02,-1.161543e+00,1.826564e+00,7.824122e-01,-1.206748e+00,1.679386e-01,1.105502e-01,4.392199e-02,9.949453e-01,6.823898e-01,1.160410e+00,-4.793870e-02,-1.110885e-02,9.402348e-01,-7.226954e-01,4.822612e-01,4.780564e-01,9.763283e-01,2.692389e-01,2.156875e+00,3.062425e-01,1.384873e+00,-1.749811e-01,6.577292e-01,-1.248012e+00,1.333083e+00,-7.092694e-01,4.046694e-01,-3.031330e-02,3.032080e-01,1.739978e+00,-5.929950e-01,7.391490e-01,
1.530889e-01,-1.460024e-02,-6.001301e-01,2.311300e-02,-3.739013e-01,2.715132e-01,2.793070e-02,2.339819e-02,-1.875532e-01,-2.988904e-01,-6.868046e-01,-3.163998e-01,-7.891719e-01,-4.900880e-02,1.026519e-01,6.202487e-01,-2.600022e-01,-2.048680e-02,2.901689e-02,3.428255e-01,4.408690e-01,3.137343e-01,-1.620936e-01,-1.262577e-01,1.575534e-01,2.240102e-01,-2.582721e-01,3.052753e-01,1.082850e-02,-6.684465e-02,1.397617e-01,-6.933127e-03,1.729137e-01,-9.003191e-02,-3.007684e-01,3.070568e-01,5.082473e-01,-1.799603e-01,7.529200e-01,3.138323e-01,1.334043e-01,1.391150e-01,-4.558233e-03,-1.599908e-01,-1.939746e-01,4.793730e-03,-5.849672e-01,2.765413e-01,-2.660353e-01,-8.599744e-01,
