// The contents of this file are licensed under the Creative Commons
// Attribution 4.0 International License: https://creativecommons.org/licenses/by/4.0/
// Neural Network File Format by Kyle Julian, Stanford 2016 (generated on 11/27/2021 22:18:57)
7,5,5,50,
5,50,50,50,50,50,50,5,
0,
0,0,0,0,0,
0,0,0,0,0,
19791.091,0.0,0.0,650.0,600.0,7.5188840201005975,
60261.0,6.28318530718,6.28318530718,1100.0,1200.0,373.94992,
1.309320e-01,-4.120525e-01,-3.254682e-01,1.601503e-01,8.343188e-02,
-4.833533e-02,-7.565845e-01,-4.966691e-01,2.720141e-01,-9.939554e-02,
-3.570861e-02,-4.837693e-01,-5.406323e-02,-3.297105e-01,2.376407e-01,
-3.877733e-02,1.427710e+00,-1.544809e+00,9.570483e-02,-2.671582e-01,
-2.911580e-04,7.123688e-01,1.461942e-01,8.254960e-01,-7.085115e-01,
-3.768845e-04,-4.517012e-01,3.697675e-01,2.810975e-01,-5.576671e-01,
8.702684e-03,-1.386462e+00,1.380077e+00,-1.062076e-04,2.549711e-01,
2.541409e+00,9.880037e-03,-3.006865e-03,-4.478272e-02,9.788034e-04,
2.128906e-01,-5.069658e-01,5.442743e-01,-1.148146e-01,-3.869687e-02,
1.842097e-02,-1.093511e+00,-2.968596e-01,1.146016e+00,-1.416581e+00,
-2.389022e-02,2.953437e-03,8.933164e-01,5.941506e-02,-2.073479e-02,
-6.507688e-02,-2.673109e-02,1.031522e-01,-6.837372e-01,-9.814160e-01,
3.620028e-03,-3.361124e-01,8.268003e-02,-6.738748e-01,5.006636e-01,
-4.789919e-01,3.531105e-01,1.054414e-01,3.000329e-01,6.587832e-02,
4.876665e-02,-5.058653e-01,-5.195727e-02,4.031064e-02,1.645180e-01,
4.794578e-02,-7.408974e-01,-1.364494e-01,3.155041e-01,-5.370944e-01,
9.039484e-02,-8.171476e-01,1.465663e+00,2.080590e-01,-2.914528e-01,
-4.969957e-02,-3.231137e-01,-4.531420e-01,2.885586e-01,-1.139398e-01,
2.235788e-02,8.429422e-01,-1.048391e+00,1.649649e-01,-3.430809e-01,
-1.666790e-02,3.198430e-03,6.928980e-03,-2.070830e-02,-5.330060e-04,
3.771786e-02,-1.684704e+00,1.588421e+00,1.176896e-01,1.888590e-01,
-1.034160e-02,5.135769e-01,1.879956e-01,-7.750564e-01,3.964353e-02,
-1.729947e-01,1.712048e-02,3.704119e-02,-1.059619e-01,-9.514493e-02,
2.611886e-02,-5.018670e-01,4.497594e-01,9.322940e-01,-1.550876e+00,
-7.355998e-01,6.537157e-02,-6.330957e-01,4.511524e-02,1.788745e-01,
1.549748e-02,3.807425e-01,5.363247e-01,2.405158e-02,-3.626154e-02,
3.948708e-01,-1.302103e-02,-1.612449e-02,5.189862e-01,-5.955132e-01,
-4.035418e-02,1.449696e+00,1.412522e-01,1.166490e+00,-1.671813e+00,
7.593535e-01,-2.191296e-03,-1.698172e-03,-1.569504e-02,1.799601e-02,
-9.796594e-02,2.209127e-02,2.166081e-02,-3.156194e-02,-1.780277e+00,
6.787820e-03,4.142150e-03,-2.873920e-02,6.943340e-03,-6.361070e-04,
2.663227e-03,2.313152e-01,-2.663953e-01,-1.657442e-01,-4.807658e-01,
-3.642271e-02,1.010228e+00,-1.241321e+00,-5.445593e-02,3.885795e-01,
-2.661151e-02,-2.082745e-01,-6.930140e-01,1.864234e-01,-1.699246e-01,
2.521818e-01,7.871335e-02,-6.375417e-02,1.435005e-01,2.000038e-02,
-1.389362e+00,1.281165e-01,-1.269164e-01,-6.109853e-03,-1.129146e-01,
3.848432e-02,-6.904069e-01,-6.425696e-01,-2.315668e-01,1.427182e-01,
2.584985e-02,1.016405e+00,8.234482e-01,5.528262e-01,-3.564288e-01,
-7.213441e-02,1.244390e+00,2.901735e-03,-2.760309e-01,5.849178e-01,
-5.794830e-03,8.446040e-04,-9.176930e-04,2.064670e-02,1.166820e-04,
-3.197447e-02,5.350106e-02,-1.893265e-02,-5.395571e-01,-1.251129e+00,
2.247114e-03,4.332664e-02,-3.360815e-02,-3.820354e-01,-5.207379e-01,
1.186319e-02,6.451678e-02,2.513322e-02,-1.243921e-01,2.374580e-01,
1.982162e-01,3.511176e-01,-5.647260e-02,-2.593464e-01,-1.191202e+00,
-1.870327e-02,-1.562060e+00,1.110977e+00,-5.209303e-03,-5.514274e-01,
-3.562705e-02,8.946310e-01,-9.749324e-01,-1.740244e-02,1.631772e-01,
8.997139e-02,9.669658e-01,3.226197e-01,1.570310e-01,-5.858267e-02,
2.679533e-02,8.979162e-01,-8.616965e-01,4.070120e-01,-8.092421e-01,
6.539477e-02,1.421589e+00,-1.411864e+00,3.749555e-01,-2.888797e-01,
-6.713891e-02,7.803966e-02,-1.267875e-01,-1.485489e-01,2.466546e-01,
-5.242969e-02,
-1.093129e-01,
-1.215191e-01,
-1.223950e-01,
2.275724e-01,
-1.731742e-01,
-5.075480e-01,
7.006983e-01,
-2.836497e-01,
-1.079008e-01,
4.870594e-02,
-3.032464e-01,
-7.640082e-02,
3.375201e-03,
1.055407e-01,
4.781732e-02,
1.984878e-01,
-2.869818e-02,
7.793062e-02,
-2.171680e-02,
-4.328289e-01,
-3.039507e-01,
-6.135744e-02,
2.280729e-01,
-1.992216e-01,
2.093684e-02,
1.236245e-01,
-2.161376e-01,
2.167186e-02,
-6.629161e-01,
-2.488690e-02,
1.445411e-01,
-3.869133e-01,
-3.175347e-02,
-1.114845e-02,
-2.756647e-01,
1.154657e-01,
-2.286420e-01,
1.378779e-01,
-1.341430e-02,
-1.837375e-01,
6.167310e-02,
-7.481270e-03,
-5.809925e-01,
-2.333390e-01,
-4.078029e-01,
9.552954e-02,
-2.935386e-01,
-3.808984e-01,
4.807634e-02,
-2.411948e+00,2.814092e-01,1.879461e-02,-9.240208e-02,3.748604e-01,1.356490e+00,-4.432490e-01,2.512175e-01,3.422157e-02,-3.513484e-01,-7.293676e-01,5.877717e-01,2.260362e-01,6.089977e-01,-9.331581e-01,6.736999e-01,-7.692923e-02,1.115384e-01,-6.706754e-02,-2.723740e-02,6.111370e-01,4.631658e-01,1.748513e+00,-7.168076e-01,3.265043e-01,-3.494730e-01,-1.308833e+00,1.825715e-01,-7.356005e-01,3.658536e-01,-1.349790e-01,-3.589637e-02,-3.454841e-03,4.535198e-01,-2.044414e-01,9.087821e-01,1.733518e-01,-7.366460e-01,1.448653e-01,-4.606530e-02,3.015229e-01,-9.384025e-03,8.643870e-01,5.841780e-01,1.851502e-01,-8.841456e-02,-4.278598e-01,5.925086e-01,-2.411272e-01,3.875465e-01,
9.796649e-02,-1.016363e+00,-7.405757e-01,-5.628455e-01,-8.233169e-01,1.559208e+00,5.392959e-01,1.360236e-02,-3.423391e-01,3.967018e-01,1.404861e+00,-1.145856e-01,-2.029912e-01,-1.841679e-02,2.763157e-02,4.736011e-01,-5.484801e-01,-5.804113e-01,-7.999177e-01,3.957850e-02,-5.831547e-01,4.113911e-01,4.000416e-01,-3.247257e-01,-1.004523e+00,5.694194e-01,3.272325e-01,-5.031836e-01,-2.968765e-01,-1.005678e+00,5.892800e-03,2.315893e-01,-8.680130e-01,-3.457544e-01,-9.509666e-02,-3.152876e-01,5.084290e-01,1.645098e-01,7.594362e-01,-1.615560e-03,5.546330e-01,-1.135653e-01,-2.738715e-01,3.448165e-01,-3.042743e-01,-3.408763e+00,4.033621e-01,-6.089941e-01,-8.221591e-01,-7.626522e-02,
-1.963582e-01,3.173113e-01,2.277804e+00,-2.063951e-01,2.670681e-01,-1.687838e+00,-3.451293e+00,1.626300e-01,-5.222815e-01,-8.963144e-01,8.887004e-01,-1.866450e-02,1.927887e+00,1.861287e-01,-1.986674e-01,-4.325761e-01,-3.832127e-01,-9.166774e-01,-1.445678e+00,-8.306090e-03,-2.145836e+00,-1.720219e-01,5.202519e-01,-1.038755e+00,4.343432e-01,2.236634e+00,-4.213277e-01,1.089464e+00,-3.957189e-01,-1.788947e+00,4.307010e-03,-3.266636e-02,1.428634e-01,3.496819e-01,1.846769e-01,5.376393e-01,1.104056e+00,1.725865e+00,-2.119281e-01,-5.277220e-02,6.107555e-01,3.888778e-01,9.203082e-02,-4.492937e-01,-1.470346e+00,5.281553e-01,1.538870e+00,1.748245e+00,-8.331707e-02,-4.093825e-01,
2.667781e-02,3.222736e-02,1.198860e-01,-2.073862e-02,-3.473959e-02,-7.894704e-02,5.149927e-03,-2.453906e-02,6.262852e-02,-9.416161e-02,-5.520801e-02,9.518325e-02,5.662302e-02,4.573368e-02,-2.452705e-02,-4.626561e-02,-3.168387e-02,-9.301462e-03,-8.197097e-02,2.726190e-02,-1.504937e-02,-4.894862e-02,7.674384e-03,-7.633574e-02,6.311747e-02,-1.098714e-01,-2.070683e-02,-9.946253e-02,2.209663e-03,2.567121e-02,9.753550e-03,-2.538045e-02,-9.781151e-02,1.799547e-02,-7.596713e-02,-1.710413e-02,5.302977e-02,-5.349447e-02,-9.240434e-02,1.333500e-02,5.715987e-02,-1.465168e-02,5.988194e-03,-2.472278e-02,2.969403e-03,-7.478206e-02,-5.191988e-02,3.703011e-02,-5.864695e-02,7.974433e-03,
8.752118e-01,4.546002e-01,1.110543e+00,-3.944775e-03,-2.480955e+00,-1.451691e+00,5.052712e-01,-3.199361e-02,1.532628e+00,-7.408809e-02,3.733219e-01,6.311273e-02,6.508202e-01,-1.309394e+00,8.554572e-01,-2.768713e-01,-4.604759e-02,3.152241e-01,3.970283e-01,4.122940e-02,5.949370e-01,8.039949e-01,-2.982183e-02,2.908045e-01,-8.274606e-02,1.968860e-01,-7.874818e-01,-4.832740e-02,2.697333e-01,-8.351485e-02,-7.707780e-02,5.042348e-01,1.567352e-01,1.770196e+00,-2.679953e-01,4.362904e-01,-4.035593e-01,-2.470668e+00,3.402026e-01,8.149620e-03,-2.852988e-01,3.483772e-01,-9.359868e-01,-3.073948e+00,7.793399e-01,-6.023942e-01,5.563201e-01,-1.036791e+00,-4.116140e-01,1.548929e-01,
-1.154197e+00,-1.294938e+00,-5.964532e-01,1.481058e+00,1.124844e+00,5.597681e-01,2.002975e+00,-2.386270e-01,6.423501e-01,-2.362400e-01,1.695758e+00,-2.317707e+00,1.317694e+00,-5.791612e-01,-1.826388e-01,2.874078e-01,4.553527e-01,-2.857465e+00,1.347148e+00,3.261740e-02,1.709101e+00,9.217098e-01,-1.702538e+00,1.719273e-01,6.078453e-01,-2.811657e-01,3.698533e-01,3.619896e-01,2.981920e-01,1.121649e+00,2.622010e-02,-7.380098e-01,1.598783e+00,-1.024350e+00,-8.157019e-02,-1.533114e+00,-3.689755e-01,-9.414641e-01,-6.590120e-01,-9.862290e-03,1.767193e+00,-1.656406e-01,1.149105e+00,-3.637373e+00,6.866558e-01,-5.391898e-01,-1.631709e+00,1.744497e+00,1.037485e+00,6.836848e-01,
8.871786e-01,1.573246e+00,-4.492201e-01,8.426521e-02,5.102184e-01,9.413957e-01,-3.683651e-01,-6.378265e-02,-8.101569e-01,-3.562791e-01,4.770866e-01,1.073091e+00,5.212674e-01,1.379254e-01,3.521980e-01,6.113419e-01,-6.168247e-01,4.023374e-01,-5.429962e-01,-3.584240e-02,-5.718797e-01,-7.201708e-01,-1.899491e+00,-9.543932e-01,-1.827158e+00,1.219151e+00,1.625608e-01,-1.141264e-01,2.965350e-01,-7.837977e-01,7.822540e-02,-3.489435e-01,-3.953025e-01,-1.247293e+00,2.555987e-01,-1.061957e+00,-2.703562e-01,1.518901e+00,-7.416280e-01,4.153020e-02,1.640919e-01,1.520495e-01,5.677348e-01,1.229058e+00,-7.406475e-01,-7.193853e-02,6.863495e-01,4.105476e-01,-1.135770e+00,-4.442276e-01,
-5.881467e-02,3.375846e-01,-2.648830e-01,-8.990602e-01,6.466379e-01,-2.042909e+00,-2.633481e-01,1.393262e-01,1.287460e-02,9.322970e-02,-5.331019e-01,-9.169827e-01,1.148337e+00,2.915195e-01,-1.226556e+00,1.237373e-01,-4.311648e-01,-9.253845e-01,-3.017511e-01,1.132880e-02,-1.980462e-01,-7.769642e-01,-1.089936e+00,-2.732160e-01,3.820122e-02,2.710144e-01,-9.988427e-01,-9.829865e-02,-5.203330e-02,-1.890102e+00,6.231580e-02,7.159885e-01,-8.950078e-01,-9.558057e-01,1.662254e-01,3.080406e-01,5.779510e-01,-2.886624e-01,3.179359e-01,1.620820e-02,8.220301e-01,-6.978818e-01,-6.884409e-01,1.481890e+00,1.203333e-02,-1.252565e+00,1.151839e+00,1.251845e+00,2.314597e-01,-1.312436e+00,
-1.412980e-03,2.887620e-02,6.114000e-03,-3.769090e-02,-3.671450e-02,-3.938480e-02,2.727240e-03,1.009930e-02,-6.738150e-02,3.289570e-02,2.819520e-02,2.495880e-02,3.703960e-02,2.849320e-02,-2.364650e-02,-5.475800e-02,7.035940e-03,-1.426030e-02,1.910920e-02,3.713090e-03,-3.974040e-02,2.361660e-02,2.862660e-03,-3.868510e-02,-1.863610e-02,1.710420e-02,1.168010e-02,-4.657950e-02,4.003540e-03,-4.073900e-02,-3.723710e-03,-3.675240e-02,-5.166650e-03,1.296370e-02,-1.306160e-05,-6.838520e-02,-5.900000e-02,2.752410e-02,-5.036930e-02,-5.066780e-03,-1.842070e-03,1.577440e-02,-3.681300e-02,-2.622300e-03,-4.476970e-02,4.335470e-02,-4.099270e-02,-2.782310e-02,2.932710e-02,3.535510e-02,
4.977380e-02,-2.850850e-02,-2.813800e-02,-5.408060e-03,1.050530e-02,-4.605920e-02,-3.780420e-02,-2.152890e-03,1.083430e-02,-4.982220e-02,-3.817780e-02,-6.755290e-03,2.249970e-02,1.646040e-02,-6.826820e-03,-4.014380e-02,-6.688940e-02,-1.196480e-03,-3.650600e-02,-2.720530e-02,-3.444270e-02,2.395550e-02,2.882520e-02,-6.388540e-03,-2.908450e-02,4.283270e-04,-6.811130e-03,-1.263410e-02,2.109040e-02,2.728600e-02,-3.603270e-02,-2.875510e-02,1.363930e-03,-3.891310e-02,1.196270e-02,1.949790e-02,-5.663920e-02,2.176800e-02,2.087970e-02,2.049340e-02,2.276810e-02,5.288220e-03,1.148880e-02,2.227160e-02,-1.266320e-02,3.275480e-02,-6.673210e-02,-4.286750e-02,1.992700e-02,-4.556180e-04,
2.689341e-01,4.864243e-01,-1.028405e-01,1.207266e-01,-1.604999e-01,8.635630e-02,-1.411103e-02,1.758145e-01,3.600940e-01,2.544388e-01,-2.261440e-02,7.504218e-01,1.819674e-01,5.509236e-01,1.916719e-02,4.483128e-01,-8.690798e-02,5.690011e-01,-7.967014e-02,2.426090e-02,3.194575e-01,-2.812417e-01,-4.842502e-01,8.539493e-02,3.251449e-01,-1.818150e-01,-1.320310e-02,8.394110e-02,-5.229216e-01,-6.017748e-01,-4.727720e-02,-1.598893e-01,5.912954e-02,-1.286932e-01,-2.603994e-01,-1.956869e-01,-4.739530e-01,-2.610523e-01,-1.081115e-01,1.487370e-02,-9.819223e-02,4.154883e-01,1.092943e+00,-6.241458e-01,2.036156e-01,3.188912e-01,-3.248255e-01,-3.709821e-01,5.967993e-01,5.624566e-01,
9.289406e-02,1.156520e+00,8.659751e-01,-3.017068e+00,-1.749271e+00,1.523273e-01,-1.771813e-01,3.973661e-02,1.266581e+00,-7.135475e-01,-4.331080e-01,6.442842e-02,1.010460e+00,4.142030e-01,-6.300041e-01,5.436697e-02,-3.920416e-01,1.595722e+00,-1.614542e+00,1.968860e-03,-1.013340e-01,-4.617205e+00,8.552994e-01,5.244452e-01,1.012673e+00,-1.275831e+00,-8.745948e-01,-3.429650e-02,-5.995534e-02,3.531972e-01,-2.901470e-02,-2.148644e-01,-7.767217e+00,9.382198e-02,-5.487912e-01,4.292865e-01,-1.463200e-01,-1.636740e-02,-1.494871e-01,-5.915980e-02,-4.006793e-01,1.473032e+00,1.503199e+00,3.265087e+00,5.849259e-01,-4.734030e-02,-1.606070e+00,-3.959370e-02,2.596610e-02,1.659757e+00,
1.858647e-01,3.674660e-02,8.092262e-01,-1.190356e+00,3.043076e-01,-1.491835e-02,-4.599211e-02,-7.216344e-01,7.613763e-02,-2.593414e-02,3.852579e-01,1.972537e-01,4.112795e-01,-1.237142e-01,1.969914e-01,8.708931e-02,3.058638e-01,1.310193e-02,1.110759e-01,-7.137510e-03,-3.740468e-01,-8.765231e-01,-2.130479e-01,-1.189899e-01,-5.484359e-01,1.526456e-01,5.716043e-01,-1.744331e-01,6.405301e-01,-8.268870e-01,7.375110e-02,5.968005e-02,-8.493709e-01,8.845265e-02,2.691342e-01,5.808280e-01,1.670503e-01,-3.920883e-02,2.466168e-02,6.203460e-03,9.313895e-02,-2.855718e-01,1.654979e-02,9.760950e-02,-1.445097e-01,3.050760e-03,-1.750448e-01,-1.016799e+00,3.350240e-01,7.798305e-02,
1.364889e+00,1.912556e+00,6.731031e-02,5.606527e-01,-7.813902e-01,1.461310e+00,1.857586e-01,-2.848774e-01,1.898066e+00,-2.129376e-01,9.697526e-01,-1.073904e+00,-5.808663e-01,-1.367289e-01,5.866645e-01,2.025491e-01,8.833820e-01,-8.900123e-04,6.855081e-01,1.224050e-02,5.061914e-01,7.307015e-01,-5.758251e-02,3.553441e-01,-1.276728e+00,6.930853e-02,6.004599e-01,-2.691387e-01,-3.339344e-01,-1.457369e+00,-2.021110e-01,5.767881e-01,-3.126703e-01,4.181479e-02,6.804360e-01,2.244460e+00,1.351882e+00,4.459247e-01,1.623259e+00,-3.522450e-02,5.080011e-01,2.727851e-01,8.644506e-01,-4.718535e-03,2.912457e-01,-1.709029e+00,-1.415575e-01,-1.638853e-01,-1.787229e-01,7.559239e-01,
3.531260e-02,-4.320180e-02,-2.784480e-02,-2.168530e-02,2.344460e-02,-3.821420e-02,3.673070e-02,-2.476760e-02,-3.782160e-02,1.885080e-02,-1.388590e-02,-5.748780e-02,3.599110e-02,3.971910e-03,2.790840e-02,-2.214880e-02,2.078010e-03,-6.162690e-02,-2.212630e-02,2.477530e-02,-3.582290e-02,-2.730760e-02,-1.707270e-03,-8.746540e-03,-3.156030e-02,5.222820e-03,2.782240e-02,-4.088540e-02,2.047940e-02,3.170490e-02,2.701430e-02,-4.860310e-02,-6.805210e-03,-1.622010e-03,-2.451340e-02,3.213750e-02,-4.052290e-02,-2.440630e-03,-3.035370e-02,-2.563830e-02,-5.939280e-02,-2.218990e-02,-5.427780e-02,3.898320e-02,-3.808620e-02,-4.778090e-02,3.509350e-02,3.429060e-02,-1.665690e-02,6.791730e-03,
6.213248e-01,3.152719e-01,-5.492625e-02,-2.897355e-01,-2.603114e-01,3.679261e-01,1.273629e+00,2.698192e-01,1.339683e-01,-4.478319e-01,4.208966e-01,5.960648e-01,-4.527372e-01,-4.283622e-01,-9.991280e-01,8.020087e-01,-7.586830e-02,-3.140576e-02,2.870407e-01,-2.808600e-03,-4.280107e-01,2.018676e-01,2.415730e-01,-6.313421e-03,2.730747e-01,1.410438e-01,-1.763349e+00,-1.869623e-01,-1.051385e+00,4.985384e-01,-1.087530e+00,-1.115735e+00,-4.544352e-01,1.834672e-01,-1.336179e-01,2.939147e+00,9.158368e-02,2.857227e-01,3.168442e-01,1.523600e-02,1.151180e-01,4.536496e-02,-2.555691e+00,1.314355e+00,-8.705762e-02,1.469889e+00,-4.397539e-01,-2.657265e-01,-2.461810e-01,-5.055638e-01,
5.891687e-01,9.461220e-01,4.644219e-01,-4.951532e-01,-9.006331e-01,1.000329e+00,4.968123e-01,7.215755e-02,4.172347e-02,1.126785e+00,-1.457892e-01,-1.771633e-01,-4.750761e-01,-4.663537e-01,9.768891e-01,6.232093e-01,-1.966452e-01,9.172473e-01,-5.518876e-01,4.226490e-02,-4.743722e-01,4.485761e-01,9.659427e-01,1.016172e-01,2.485239e-01,-3.141553e-01,4.606767e-01,-1.333839e+00,-4.646734e-01,5.279022e-01,-2.310990e-02,2.576541e-01,-1.433695e+00,1.194708e+00,2.457793e-01,-3.125833e-01,6.994997e-01,1.189174e-01,1.028789e+00,3.174220e-02,-3.027056e-01,1.984052e-01,-3.569023e-01,-2.007404e+00,9.135367e-01,-2.518791e+00,-1.083137e+00,-5.718346e-01,-1.048884e+00,-1.246992e-01,
-6.841130e-03,-4.280410e-02,4.822310e-03,1.295070e-02,-4.960380e-02,-2.658500e-02,2.030600e-03,-1.683810e-02,-5.015250e-02,2.677150e-02,-3.414980e-02,1.526010e-02,3.903490e-02,-1.084680e-03,-3.559390e-02,-1.009540e-03,-6.227160e-03,-2.715780e-02,2.840680e-02,-3.975530e-02,-3.969360e-02,5.963940e-03,6.812220e-03,1.720540e-02,4.414140e-02,-1.799120e-02,-4.718370e-02,-1.952500e-03,3.340580e-02,-3.385280e-02,-4.369020e-02,-3.522390e-02,-4.670780e-02,-4.734620e-02,-2.266360e-02,-5.182160e-02,-3.419660e-02,-4.012600e-02,-9.267680e-03,4.237870e-02,-2.164840e-02,4.370320e-03,-1.298820e-02,-3.341400e-02,-5.127180e-02,-5.207860e-02,-2.546420e-02,2.107440e-02,4.545200e-03,9.432040e-03,
-4.911130e-02,3.884190e-02,1.435360e-02,-3.772010e-02,-2.334670e-03,-3.912080e-02,5.664150e-03,3.007620e-03,2.976680e-02,5.892970e-03,1.607250e-02,2.819890e-02,-4.572050e-02,-4.470640e-02,2.657050e-02,1.268930e-02,-5.271460e-02,-2.529400e-02,-1.831200e-02,-2.371830e-02,-3.461230e-02,3.742810e-03,-3.906430e-02,-1.572350e-02,-2.934460e-02,-2.108620e-02,-3.301150e-03,3.286870e-02,1.913490e-02,2.736510e-02,-3.776760e-02,2.881860e-02,-6.114970e-03,-4.052220e-02,-5.411270e-02,-1.737190e-02,-4.867500e-03,-3.259890e-02,4.307650e-03,1.614380e-02,-2.831800e-02,-3.374740e-02,-2.770350e-02,3.650200e-02,-3.828680e-02,-9.190860e-03,1.038110e-02,-3.048520e-04,3.030210e-03,1.748910e-03,
1.509604e-01,6.444837e-01,-1.385663e+00,-1.817448e+00,-6.532388e-01,-9.963440e-01,-1.723300e+00,1.591256e-01,-4.221851e-03,9.780381e-01,-5.175213e+00,7.601259e-01,-2.262963e-01,-1.168319e-01,9.407456e-01,5.520871e-01,-3.125633e+00,1.831966e+00,-7.855943e-01,-1.980380e-02,-1.361565e+00,1.486529e+00,-2.936763e-01,-1.580836e-01,-1.302647e+00,-1.377980e+00,2.862054e-01,-1.204765e+00,-5.680532e-01,-4.709173e+00,-1.473560e-02,-7.622309e-03,-1.416639e+00,-1.220410e-01,1.247513e-01,-1.339553e+00,1.459606e+00,-1.264145e+00,-4.025600e-01,3.765660e-03,-9.503103e-01,1.938339e-01,4.479519e-01,-5.444342e-01,-4.682643e-02,-1.257711e+00,-4.415144e-01,-5.329390e-01,-1.559734e+00,3.715968e-01,
-3.802359e-01,-2.212249e-01,3.745568e-01,1.575904e-01,5.223004e-01,4.633786e-01,-1.992616e-01,5.302783e-03,4.028369e-01,-1.134428e-01,8.111444e-02,3.062299e-03,2.826519e-01,3.941736e-02,5.025107e-01,-1.078523e-01,1.280325e-01,-3.547979e-01,7.653320e-01,9.884880e-03,-3.538021e-01,7.112904e-01,-6.936215e-01,-1.182825e-01,8.097506e-02,-2.277251e-01,1.445137e-02,-5.513537e-01,5.481022e-02,6.749472e-01,7.168690e-02,-4.918828e-01,3.308339e-01,-4.480517e-01,-1.163336e-01,2.496908e-01,1.238821e-01,-3.730567e-04,-1.496250e-01,-3.204780e-02,-1.059795e-01,3.900816e-01,5.745965e-01,-3.718567e-01,1.582278e-01,-1.217433e+00,-2.857839e-01,1.127985e-01,-3.186736e-01,1.176378e-01,
8.997718e-01,-7.407120e-02,-5.058503e+00,3.853931e-01,-1.156337e+00,1.141867e+00,-1.222587e+00,6.349470e-02,2.468344e-01,8.767151e-01,-2.647234e-01,-3.124490e-01,1.077249e+00,5.124986e-02,-1.646712e+00,6.946665e-01,-1.222814e-01,3.789314e-01,-6.260717e-02,3.188690e-02,-1.330670e-01,1.152012e+00,-5.987138e-01,4.941451e-01,-7.358347e-01,-1.655375e-01,2.145329e-01,-9.215821e-01,-4.156331e-01,1.310382e-01,1.785640e-01,4.828730e-01,2.099121e-03,-4.613375e-01,-2.326403e-02,6.299092e-01,6.607283e-03,-2.529255e-01,-4.250213e-01,3.068440e-02,-1.073077e-01,3.738878e-01,3.827711e-01,-6.752634e-01,3.509739e-01,4.786992e-01,4.204989e-02,-1.157714e+00,2.429755e-01,6.582298e-01,
-1.808748e-01,-1.049438e-01,-1.016020e-01,-8.465127e-02,8.271665e-02,1.001093e-01,1.293751e-01,2.333509e+00,-1.318298e-01,1.934860e-01,1.574198e-01,1.222411e-01,-1.195996e-01,-1.475367e-01,-3.674146e-01,3.949813e-02,-1.459782e-01,4.873307e-02,3.908769e-02,-1.737620e-02,-1.281227e-01,5.670976e-02,-2.581669e-02,-1.747923e-01,-8.283199e-03,-1.427913e-01,-1.664783e-02,1.570839e-01,-5.824312e+00,2.930012e-01,3.696810e-01,2.620504e-01,3.101792e-01,4.097629e-02,3.312514e-01,-2.049033e+00,9.820966e-03,-1.603176e-01,-2.104405e-01,-5.047330e-02,-2.267026e-01,-3.508069e-02,2.245135e-01,6.135441e-01,7.896455e-02,-2.807626e-01,2.542374e-01,-1.399974e-01,5.318096e-02,3.428412e-01,
-8.835864e-01,-1.927023e+00,8.211372e-01,1.245150e+00,7.818465e-01,7.873008e-02,-1.174412e+00,1.156798e-01,5.617686e-02,-1.044063e+00,-1.723559e-02,-7.711148e-01,3.455437e-01,-5.068511e-01,-1.606172e+00,-5.106567e-01,7.038511e-02,-1.683539e+00,5.000739e-01,-3.879260e-02,1.175796e+00,-9.115695e-01,-7.199647e-01,3.507290e-01,-1.187837e+00,-1.071746e+00,3.424520e-02,1.038006e-01,-3.526444e-01,1.980114e+00,1.682450e-02,-1.617895e-01,2.077267e+00,-5.208178e-01,5.442235e-02,-8.301090e-01,-1.910772e+00,2.497367e-01,-1.140602e+00,-2.787180e-02,7.259183e-01,-5.837094e-01,-2.023890e-01,8.134572e-01,-1.219256e+00,3.613467e+00,-4.978395e-03,-4.472635e-01,1.329616e+00,-1.691953e-01,
6.289228e-02,-7.852937e-01,1.848112e+00,-4.400100e-01,-7.180031e-01,-2.186140e-01,3.951596e-01,-4.634675e+00,2.009480e-02,-2.632018e-01,9.787800e-01,4.886389e-01,2.986967e-01,4.487151e-02,-8.695974e-01,1.758622e-01,-2.302350e+00,-2.305832e-01,-1.933477e+00,2.799910e-02,-2.303023e+00,3.681428e-01,-2.736864e-01,-3.003433e-01,-7.622489e-01,1.666687e+00,-4.132401e+00,8.665800e-01,8.644950e-02,-7.191045e-01,-9.155120e-01,-4.884410e-01,1.113750e-01,-1.321279e+00,-2.278660e+00,1.947182e-01,-1.769077e-01,3.708380e-01,-9.448600e-01,1.625390e-02,-3.050505e-01,3.218071e-02,-1.089977e+00,8.018668e-01,-7.664022e-01,4.845570e+00,-9.057211e-01,-2.179910e+00,-4.274620e-01,-4.755627e-01,
3.416477e-01,-1.452592e-01,-3.502178e-01,-6.512085e-02,-2.169568e-01,1.084362e+00,1.086491e-01,-8.330507e-01,1.288375e+00,1.822561e-01,1.142036e-01,3.591744e-01,2.246949e-02,2.904129e-01,5.693890e-01,-4.566832e-01,1.628628e-01,3.314793e-01,7.619337e-01,-1.817300e-02,-2.306444e-01,2.175773e-01,-9.274808e-01,-4.301661e-01,4.560803e-01,-3.703214e-01,2.430857e-01,2.418506e-01,-1.167020e+00,-1.229235e+00,-1.537800e-01,-2.823185e-01,-2.800328e-01,3.950050e-02,9.906678e-01,-8.787391e-01,2.243000e-01,1.998345e-01,3.318348e-01,-2.685830e-02,7.294286e-02,3.655520e-01,7.258846e-01,1.024360e-01,7.371097e-01,-7.612279e-01,-1.001611e-02,2.514911e-01,-4.961324e-01,5.087411e-01,
5.135722e-01,-8.610156e-02,7.452857e-01,6.978642e-03,7.586282e-01,7.644395e-01,5.790757e-01,-6.642011e-02,5.989504e-02,-4.006067e-01,2.469011e-01,9.111234e-01,-6.139644e-01,-5.632640e-01,6.822264e-01,2.052545e-01,1.987669e-01,-5.212511e-01,1.225995e-01,-2.824500e-02,-9.402116e-02,-4.732256e-03,3.825285e-01,-9.689966e-02,-1.489522e-01,3.375982e-01,1.294510e-01,-4.556375e-01,-3.369882e-01,3.442549e-01,8.860940e-02,3.584842e-01,8.112117e-01,-3.634152e-01,-2.922981e-01,-6.834827e-01,-1.786892e-01,2.438845e-01,-2.148847e-01,-3.110360e-02,-1.716398e-01,1.051625e-01,9.374520e-01,-4.918109e-01,-5.856866e-01,1.800069e-01,-6.048948e-01,5.186736e-01,-1.072330e-01,-3.487785e-01,
7.341443e-01,1.298520e-01,-2.114731e+00,-3.898591e-01,-4.936912e-01,1.284218e-01,-9.502166e-03,-2.815532e-02,7.334389e-02,2.530541e-01,4.316922e-01,-1.562468e+00,-1.614413e+00,-2.600885e-01,1.231856e-01,6.949323e-02,1.189804e-01,7.008064e-01,5.264724e-01,4.437890e-02,-4.578263e-01,-7.900210e-01,6.606634e-01,1.743105e-01,-6.768938e-01,2.623743e-01,-6.062164e-01,-7.977299e-02,8.251669e-02,-4.608780e-01,-3.614890e-02,-5.081624e-01,1.556941e-01,2.725233e-01,-2.772333e-02,1.424416e-01,-9.637074e-01,3.934461e-02,-3.913427e-01,3.164920e-02,1.704449e+00,-1.605457e+00,1.298441e+00,-2.125848e+00,-6.273405e-02,7.197540e-01,3.713579e-01,-1.205007e-01,1.206898e-01,-1.646600e+00,
-2.795771e-01,-1.162414e-01,-3.919255e-01,-3.139394e-01,1.973606e-01,1.317713e+00,5.003740e-01,-9.558479e-03,1.871116e-01,1.269017e-01,-2.948613e-01,-6.470595e-01,-8.234710e-01,1.079850e-01,-7.648824e-01,-2.184065e-01,-9.080483e-02,1.140742e-01,6.538283e-03,-1.713080e-02,1.420087e-01,-6.884518e-01,4.886384e-02,1.600527e-01,2.692929e-01,-3.119386e-01,2.552380e-01,5.641704e-02,-1.368662e-01,-3.826409e-01,-7.668170e-02,-1.554459e-01,5.082282e-01,8.018245e-01,-6.053778e-02,7.898917e-02,-1.709862e-01,-8.574623e-02,5.718668e-02,-1.974860e-02,4.779887e-01,2.210497e-02,-7.798544e-01,-5.967171e-01,-7.507885e-02,-1.201150e+00,-3.386476e-01,2.363631e-01,5.815830e-01,-1.562223e+00,
1.301224e-02,-2.167128e+00,-8.977170e-01,-1.069216e-02,5.111328e-02,2.534734e-01,1.798720e-02,-4.317286e-02,1.202040e-02,6.470547e-01,-1.298490e-01,-2.192669e-02,-8.253754e-02,3.348963e-01,-8.820602e-01,-6.287616e-01,-7.615622e-01,-4.610395e-01,-1.096912e-01,-5.212930e-03,-3.668770e-02,1.419596e-02,8.631134e-01,-3.039974e-01,3.986963e-01,4.498363e-02,-7.120129e-01,4.709704e-01,1.780679e-01,5.063601e-01,-4.284540e-02,-2.566194e-02,1.019140e-01,3.631394e-01,1.796590e-01,4.210786e-01,-2.368197e-01,2.958589e-02,-1.566450e-02,2.863280e-02,1.879444e-01,1.235822e-01,2.572751e-01,4.932396e-01,2.471011e-01,6.737453e-02,-6.230651e-02,4.067458e-01,3.338544e-02,2.360708e-01,
1.442809e+00,1.106550e+00,-1.705706e+00,-1.047308e+00,-6.575028e-01,-1.540015e+00,1.085508e+00,1.643906e-01,7.418839e-01,-1.107007e-01,-6.753131e-01,2.457791e+00,4.215925e-01,-2.530145e-01,1.538025e-01,1.719638e-01,-1.291824e+00,8.991969e-01,-1.117139e-01,4.364170e-02,9.115713e-01,1.221047e+00,-1.083838e+00,9.214621e-01,-1.158764e+00,8.635455e-01,-5.878766e-01,-2.545787e-01,-3.068021e-01,-1.311777e+00,6.525270e-02,-9.264932e-03,-1.288407e+00,7.046773e-01,-4.389641e-01,-2.237933e+00,5.601708e-01,4.665498e-01,9.971443e-02,1.759390e-02,-1.407709e+00,5.374337e-01,2.233784e-01,-1.725668e+00,-3.922014e-02,-2.857111e+00,-6.840606e-01,-8.968808e-02,-1.719640e+00,3.290158e-01,
4.761449e-01,-5.323317e-02,-2.008316e-01,-6.227913e-02,-4.704537e-01,-6.105458e-01,1.468596e-01,-2.439194e-01,-6.793077e-01,1.608287e-01,4.413727e-02,-2.600816e-01,-2.224773e-01,-1.072578e-01,5.266188e-01,-2.809173e-01,7.892282e-02,-7.206574e-01,6.719849e-02,-1.181940e-03,4.269154e-01,-1.224313e-01,9.367585e-01,-1.407798e-01,1.890993e-01,-3.733763e-01,8.571955e-02,1.584352e-01,5.345125e-01,-8.195081e-01,-2.690290e-01,1.455404e-01,7.140095e-01,2.429281e-01,1.125680e-01,1.504706e-01,-1.661755e-01,-9.770425e-02,2.802000e-01,-4.235490e-03,1.071842e-01,-1.551484e-01,-1.796062e-01,4.157945e-01,2.347005e-01,1.552978e-01,-1.148102e-01,7.034772e-02,-1.845802e-01,-1.367670e-01,
1.486889e-02,2.273062e-03,-1.079396e-01,9.546519e-02,-8.241310e-03,-7.014257e-01,-3.061458e-02,-4.574747e-02,3.741635e-02,-1.650036e-01,1.677900e-01,-6.999771e-02,-3.590810e-02,1.460228e-01,1.822655e-01,2.164683e-01,-4.206651e-02,-1.363056e-01,-2.248968e-01,1.159230e-02,-2.404528e-01,-2.039075e-01,5.039334e-01,1.036126e-01,1.178145e-01,3.162355e-01,-2.049889e-01,8.423609e-02,1.717763e-01,-9.731660e-01,-5.289160e-02,4.036775e-02,3.338677e-01,-6.308343e-01,-3.092625e-02,-2.112122e-02,1.023059e-01,-1.823959e-01,-6.636437e-02,3.988250e-02,-7.964353e-02,-1.715904e-01,-8.111140e-01,3.157796e-01,-2.247825e-02,-2.329045e-02,3.837942e-03,3.880247e-01,-3.393560e-01,-9.216832e-01,
-5.141710e-02,-4.040570e-02,4.033210e-02,2.086840e-03,-4.879870e-03,-3.629190e-02,1.002240e-02,8.395550e-03,-3.325340e-02,-4.680890e-02,2.459590e-02,1.419680e-02,1.814890e-02,-4.233790e-03,-4.707920e-02,-2.435620e-02,-3.383380e-02,-2.872300e-03,2.598190e-02,4.039930e-03,1.680770e-02,-3.414890e-02,1.528310e-03,-5.421600e-02,-3.672620e-02,4.286830e-03,1.956520e-02,2.570570e-02,-3.764850e-02,1.190990e-02,2.059380e-02,-2.752640e-02,-3.818740e-02,-5.698960e-02,-3.280970e-02,-2.649560e-02,-4.846970e-02,2.127290e-02,-9.154490e-03,1.351050e-02,4.170600e-03,-5.055190e-03,-1.751990e-02,1.499760e-02,3.064140e-03,-5.444930e-02,-3.390160e-02,-8.674990e-03,-4.406510e-02,-1.352440e-02,
-4.738435e-01,4.016216e-01,1.434686e-01,-5.465529e-02,9.785853e-02,-6.760005e-01,-8.137223e-01,-2.821904e-01,1.304991e-01,-1.381654e-01,1.068383e+00,2.734661e-01,5.137964e-01,-1.241191e-01,4.739468e-01,5.389931e-01,4.198528e-01,-4.395099e-02,3.962497e-01,-3.030160e-02,-1.288789e-01,3.965127e-01,1.321692e-01,7.497941e-02,-7.744635e-01,4.717645e-02,-5.959772e-01,-7.817280e-02,9.159622e-01,8.701547e-01,6.608310e-02,-1.779487e-01,1.121462e+00,-4.427042e-01,-4.722076e-01,1.820899e-01,-2.341681e-01,3.407768e-01,-9.898319e-01,7.142620e-03,-5.354543e-01,6.297148e-01,3.883950e-01,-4.946530e-01,-6.272439e-01,3.913339e-01,-5.624326e-01,6.313529e-01,9.968141e-02,4.044806e-02,
2.069618e-01,2.618739e-02,-2.531189e-01,3.346615e-01,1.489670e-01,6.313250e-02,-1.724983e-01,2.735705e-01,-2.792453e-01,-2.588389e-01,-2.297845e-01,1.419782e-01,1.012187e-01,1.433002e-01,2.632802e-02,-3.069624e-01,8.385919e-02,-1.910987e-01,-1.890707e-01,1.647030e-02,-7.658914e-02,-3.497281e-01,-6.172418e-01,2.003478e-01,-3.576831e-01,-3.905955e-01,1.027525e-01,-1.051450e-01,-1.804242e+00,6.090448e-02,1.180360e-01,-6.338528e-02,-2.574744e-01,-2.029971e-01,9.617393e-02,-6.808339e-01,-9.335456e-02,2.142931e-01,1.588038e-01,-1.428600e-02,6.773542e-02,-5.766222e-02,4.138416e-01,-7.418848e-01,-6.678941e-03,-5.650564e-03,-1.435060e-01,3.942747e-01,-2.734706e-01,3.481108e-01,
5.099644e-02,-2.241579e-01,-2.851465e-01,3.885493e-02,3.530968e-01,-6.391453e-01,1.200599e-01,7.740306e-03,3.982223e-01,-1.908449e-02,4.308154e-02,-2.708637e-01,-8.942914e-01,-9.580410e-02,-8.765559e-01,3.411462e-02,-2.775018e-01,3.729191e-01,3.227465e-01,-3.599100e-02,-1.178295e-01,2.532231e-01,5.059925e-02,-1.638305e-01,-3.175126e-01,1.089224e-01,-3.531582e-01,-3.296092e-02,2.053179e-01,2.888247e-01,1.081630e-01,4.682636e-01,-6.532708e-01,2.695323e-01,-1.033943e-01,-1.734471e-01,-7.095425e-02,-7.595666e-02,-5.064486e-01,1.720230e-02,-2.830353e-01,3.553923e-01,-1.892030e+00,-6.823019e-01,4.749314e-01,-3.641530e-01,-6.750654e-02,-8.499337e-01,-1.962088e-01,-2.693367e-02,
-6.650527e-01,-4.118343e-01,5.259019e-01,-2.777718e-01,3.601664e-01,-8.943508e-01,-3.724542e-01,1.220366e-01,6.158639e-01,2.839240e-01,5.588888e-01,2.476279e-01,-5.790589e-02,-3.371822e-01,-7.317116e-02,1.748970e-01,6.010287e-02,2.916856e-02,6.104252e-01,-4.264960e-02,-5.419743e-01,7.710311e-01,3.468089e-01,-7.780627e-01,2.139624e-01,6.704178e-02,-5.996792e-01,8.236193e-01,-3.474700e-01,-7.545708e-01,-4.103810e-02,-3.055749e-01,-5.429743e-01,1.889118e-01,6.684320e-02,5.684929e-01,1.689343e-01,3.530886e-01,-4.888883e-01,2.270520e-02,4.747047e-01,-2.685293e-01,4.625446e-01,-1.098673e+00,1.274454e-01,3.829684e-01,-8.418412e-01,-1.568999e+00,2.033298e-01,3.518747e-01,
-1.427502e+00,-7.228513e-01,-2.107641e+00,5.347750e-01,8.828152e-01,-3.405705e-01,1.058280e+00,5.856572e-02,-1.027144e+00,9.923105e-01,-5.810185e-01,4.461334e-01,-1.600218e+00,9.469795e-02,-6.803706e-01,3.376087e-01,2.902808e-01,-2.320540e-01,1.096637e+00,-3.260650e-02,2.395994e+00,-1.143573e+00,-2.353474e+00,-1.027663e-01,-6.098557e-02,-9.406664e-01,8.760698e-01,-2.500655e-01,-8.263820e-01,1.922357e+00,-5.633440e-02,-1.023576e-01,9.661588e-01,-2.052535e+00,-6.002091e-02,-1.054440e+00,-5.250814e-01,-1.910871e+00,-8.930971e-01,9.312830e-03,-1.235235e-01,8.094186e-02,-2.342467e+00,9.212907e-01,-1.640296e-02,1.957447e+00,-8.225998e-02,-1.057332e+00,2.023540e+00,-2.089219e+00,
-3.803410e-02,-4.960490e-02,4.151290e-02,3.091870e-02,2.576820e-02,-2.339200e-02,2.723910e-02,3.737640e-03,-4.713370e-02,1.163160e-02,3.063240e-02,2.968850e-02,-2.069820e-02,1.897760e-02,-1.264720e-02,3.606570e-02,-4.445540e-02,2.260380e-02,-1.295620e-02,2.095340e-02,-7.625210e-03,1.453890e-03,-3.842760e-02,-4.001450e-02,-2.213330e-02,-3.169880e-02,2.516850e-02,-5.440600e-02,-3.009810e-02,-5.177900e-04,3.320330e-02,1.392640e-02,2.233080e-02,8.557290e-03,-3.310310e-02,6.777190e-03,-3.435590e-02,3.022830e-02,-2.700940e-02,-2.843790e-02,-2.239890e-02,-3.013510e-02,-7.295710e-03,-3.163270e-02,3.050620e-02,-7.691220e-04,-5.308010e-02,-5.296520e-02,-2.066070e-02,-4.054490e-02,
8.493831e-02,5.110848e-01,1.366200e+00,1.948016e-01,4.852753e-01,1.299608e+00,3.370567e-01,-1.819173e-01,-4.948497e-01,-4.455877e-01,8.417053e-03,-3.586133e-01,4.279684e-01,8.793329e-02,-1.170147e+00,1.459785e-01,3.854047e-01,8.882693e-02,1.534200e-01,7.046410e-03,1.125484e-01,5.282184e-01,-3.781231e-01,-4.403154e-01,2.425517e-01,-4.454740e-01,3.220540e-01,4.408107e-01,1.664663e-01,-5.359995e-01,-1.139280e-01,-1.058878e-01,-9.886128e-01,4.314018e-01,5.150874e-03,5.003707e-01,4.135273e-01,6.168321e-01,3.495567e-02,-6.370140e-03,-6.414430e-02,3.631110e-01,7.430203e-01,2.280878e+00,-6.279756e-01,-3.932022e-01,1.491706e-02,4.783355e-01,-3.488436e-01,2.347345e-01,
-9.476618e-02,-2.075282e-01,6.929228e-01,-7.244557e-02,-1.021424e+00,-1.099008e+00,-8.045478e-01,1.050194e-02,5.279257e-02,-4.432557e-02,2.275410e-01,-7.848436e-03,-7.622088e-01,7.410564e-01,1.007589e+00,-5.682429e-01,2.383382e-02,5.980641e-02,-4.034972e-01,-4.801770e-02,7.410126e-01,1.664907e+00,6.923863e-03,6.457240e-01,-2.401943e-02,-6.753697e-01,-3.444404e-01,4.809306e-02,-1.145072e-01,-1.817365e+00,-6.004550e-02,-8.936092e-02,-1.869246e-01,-1.862721e+00,1.384108e-01,2.613527e-01,9.478267e-02,1.090926e+00,2.043937e-01,7.951010e-04,1.248305e-01,7.600883e-01,1.632185e+00,1.018706e-01,-2.245522e-01,5.090520e-01,6.530054e-04,3.205908e-01,1.233648e+00,-8.704395e-01,
-6.192597e-01,-1.556277e+00,-5.992600e-01,7.334037e-01,-7.646767e-01,9.394788e-01,3.335843e+00,1.814176e-01,-4.979759e-03,1.348884e-02,6.232426e-01,-9.174033e-01,-5.235179e-01,-2.344804e-01,-2.532383e-01,1.108626e+00,5.287461e-01,-2.240086e+00,6.979898e-01,-7.160860e-03,2.327296e+00,3.324259e-01,-8.413035e-01,1.598691e+00,-1.538653e-01,-1.436404e+00,2.818890e-01,-7.888845e-01,-7.120687e-01,1.827206e+00,6.958660e-03,5.070727e-01,-3.232213e+00,-2.220601e-01,-2.703091e-01,9.318448e-01,-9.281421e-01,-5.918641e-01,-1.398232e+00,2.146710e-02,-5.883316e-01,-4.715936e-01,-8.376849e-01,1.568740e+00,4.364225e-01,-1.760966e+01,-1.387564e+00,7.647049e-01,4.879178e-01,-1.433859e+00,
-3.976918e-01,-1.426741e+00,-2.246235e+00,6.576698e-01,-3.675423e-01,3.999812e-01,1.099516e+00,7.435631e-02,7.264771e-02,8.474123e-02,-4.088701e-01,6.104432e-01,-5.538356e-01,1.261326e-02,-1.622248e-01,1.017858e+00,-2.800285e-01,-2.845803e-01,7.161734e-01,-3.256490e-02,2.061847e+00,6.736465e-01,5.767497e-01,7.248607e-01,1.460683e-01,-8.176454e-01,-2.084668e-01,-4.092717e-01,-3.705122e-01,-3.294936e+00,-2.543030e-02,-5.313861e-02,4.257990e-01,-1.111190e+00,-1.082966e-02,-6.085178e-01,-6.226136e-01,-1.125775e+00,-6.594085e-01,4.426040e-03,-7.431077e-01,-5.767638e-04,5.653182e-02,-7.074606e+00,2.568554e-01,2.095493e+00,-3.328181e-01,-1.425708e+00,1.024297e+00,1.807320e-01,
-1.304548e+00,-4.459063e-01,5.214516e+00,8.353869e-01,-4.008609e-02,-1.519094e+00,-2.521187e+00,1.555195e-01,-9.538193e-01,-3.621912e-01,1.785075e+00,-5.585907e-01,6.349567e-01,3.239504e-01,-1.432126e+00,-2.231673e+00,9.912539e-01,-2.882073e-01,-1.587302e-01,7.156980e-03,-2.282761e+00,-3.394881e+00,-1.152149e+00,-4.681145e-01,-1.247813e+00,3.046277e-02,3.078786e-01,5.493999e-01,-2.527396e-01,-1.329089e+00,5.118580e-03,-1.839793e-01,2.137215e+00,-8.841255e-01,5.127061e-03,-5.371196e-01,-2.618374e+00,1.790582e-01,-1.362553e+00,-2.060060e-03,6.239587e-01,-3.589932e-01,-1.357814e+00,-1.452211e-01,-3.026558e+00,1.445498e+00,5.560557e-01,1.864138e+00,1.083090e+00,-1.147496e+00,
-1.627280e-01,1.284981e-01,-2.451241e+00,-1.311873e-01,-1.314582e+00,8.749616e-01,-9.326181e-01,2.837474e-02,-2.663632e-02,2.361546e-01,-9.668360e-01,-6.098052e-01,-2.257976e+00,8.823807e-02,1.273608e+00,2.013491e-01,-3.994297e-01,-3.431194e-02,-3.882082e-01,3.516410e-02,1.203178e+00,-1.995515e+00,-8.665498e-01,1.337558e+00,-2.346168e-02,9.671040e-01,-3.910199e-01,4.498457e-01,-6.227008e-01,-6.935348e-01,-1.231430e-01,-4.830303e-02,5.615428e-02,-5.396649e-01,-6.898946e-02,7.184311e-01,-5.317859e-01,-4.294033e-02,3.471915e-01,6.547210e-03,-1.068213e+00,9.541174e-01,1.551788e-01,1.186286e+00,1.187836e-01,7.948400e-01,1.157744e+00,7.502409e-01,1.243737e+00,-1.460504e+00,
-3.234445e-01,2.751741e-02,-1.035105e-01,1.507486e-01,-1.797830e-02,-9.295402e-01,2.189946e-01,-6.330748e-01,1.302899e+00,1.098221e-01,5.690367e-01,1.676429e-02,-8.706643e-02,9.426118e-03,-3.536285e-01,-1.713907e-01,2.768273e-02,5.794884e-02,2.342904e-01,1.016040e-02,2.113623e-01,6.020882e-02,-3.281156e-01,2.076354e-01,3.894967e-01,-4.588734e-01,1.940187e-01,8.238872e-02,1.698909e+00,5.367578e-01,3.389300e-01,3.212900e-01,3.056587e-01,4.620078e-01,-4.114341e-01,-9.938590e-02,-1.905261e-01,-3.802873e-02,5.704866e-02,-1.109610e-02,3.638035e-02,4.825141e-02,5.823254e-01,7.414258e-01,1.208811e-01,-4.072895e-01,-3.666722e-01,-1.493677e-01,-3.236177e-01,1.727854e-01,
1.188283e+00,1.482738e+00,-4.295181e-01,-1.773113e+00,-4.668249e-01,5.478425e-01,-3.019687e+00,1.070365e-01,5.277740e-01,1.100756e+00,-2.337090e-01,1.665012e-01,-6.817648e-02,1.958167e-01,-2.987135e-01,2.959168e-01,-7.563794e-01,1.328737e+00,-1.808464e+00,8.984140e-03,-2.314680e+00,-5.707928e-01,-1.155945e+00,-4.570025e-01,-8.771474e-01,1.138944e+00,-1.823293e-01,-9.016340e-03,-1.077458e-01,2.116495e+00,-4.892230e-02,-1.770233e-01,-2.033042e+00,2.244295e-01,-3.864613e-01,6.771914e-01,1.083358e+00,1.997810e+00,2.675833e-01,1.773260e-02,2.673247e-01,9.297225e-01,9.415474e-01,1.633847e+00,-1.564819e+00,-3.249858e+00,-1.443788e-01,-3.063439e-01,-3.821838e-01,4.332350e-01,
-1.982074e-01,-2.964225e-01,1.826236e-01,8.226866e-02,-2.645652e-02,-1.343619e+00,-1.784708e-01,-6.236526e-02,7.618517e-01,2.337234e-01,2.924128e-01,-8.328617e-02,-2.361128e-01,-7.553473e-01,5.137290e-01,-9.432244e-02,1.645980e-02,-8.516021e-01,4.762089e-01,3.893840e-02,1.373435e-01,1.433084e-01,-2.443839e-01,-7.453007e-02,-2.650607e-01,1.517128e-01,4.110909e-01,-1.682535e-01,-3.409123e-01,1.193379e-01,1.143820e-01,5.333727e-01,4.852692e-01,1.070403e-02,-2.626502e-01,-2.219785e-01,3.196658e-01,3.499117e-02,1.597095e-01,-2.643680e-02,5.750294e-01,9.425767e-02,-3.504627e-01,1.686873e+00,4.975193e-02,-1.508621e+00,2.187569e-01,-4.443174e-01,-2.642209e-01,1.617749e-01,
4.488715e-02,-1.009091e+00,3.991570e-02,-2.345266e-01,6.667394e-01,-1.051359e-01,-4.665210e-01,-1.937636e-02,-6.383445e-01,-1.140808e-01,1.967881e-01,3.020711e-01,-1.925666e+00,1.328396e-01,7.976110e-01,-1.750835e+00,9.846672e-02,-1.266114e+00,-2.900942e-01,1.879520e-02,-5.534817e-02,5.181367e-01,-6.713187e-01,-1.995075e-01,-2.151795e-01,1.099574e-02,6.927467e-02,-1.941824e-02,-3.100601e-03,1.403607e-01,-5.935520e-02,-3.668295e-01,1.551879e+00,5.428256e-01,1.111077e-01,-6.447569e-01,-8.886535e-01,-3.418830e-02,-4.877377e-01,3.996710e-02,-1.068945e+00,1.326265e+00,-2.036337e-01,-4.415250e-01,-6.628089e-02,1.901098e+00,1.027214e-01,-8.100679e-01,-8.456777e-01,-3.004316e-01,
-7.590743e-01,
2.172005e-01,
4.537861e-01,
-4.191957e-02,
-9.700013e-01,
-5.299897e-01,
6.859064e-01,
2.995738e-01,
-3.022110e-02,
-2.995160e-02,
-3.166310e-01,
-8.949260e-01,
-1.692262e-01,
-2.023943e+00,
-2.038550e-02,
-2.487724e-01,
2.851945e-01,
-8.784970e-03,
-1.171920e-02,
1.298982e+00,
-1.236169e-01,
-4.996590e-01,
2.522068e-01,
-2.527546e-01,
1.042055e+00,
-1.277457e-01,
-1.543588e-01,
-5.063316e-02,
3.014825e-01,
-4.800111e-03,
6.104891e-01,
2.752658e-02,
2.091546e-01,
-1.499360e-02,
-8.533788e-02,
8.347747e-02,
3.678114e-01,
-4.966128e-02,
1.704431e-01,
-1.232910e-02,
-4.644128e-02,
-3.017920e-01,
-1.084321e+00,
-9.255812e-02,
3.518110e-01,
2.213981e-01,
-2.858577e-02,
1.619366e+00,
-1.746018e-01,
1.383586e-02,
-4.446352e-01,1.445094e+00,6.347511e-01,3.567103e-02,-2.755526e+00,-7.993401e-01,1.287435e+00,-3.371696e-01,-2.748930e-02,-5.944930e-02,1.715148e+00,-3.532933e+00,-2.090465e+00,-1.571930e+00,2.009330e-02,-2.582058e+00,-2.048196e-01,-2.510270e-02,2.565590e-02,-1.938957e+00,-7.956004e-01,2.846833e-01,-1.880906e-01,-3.002270e+00,3.479409e+00,1.504064e-01,4.842742e-01,-2.139819e+00,4.322990e-01,-2.990760e-02,3.820535e-01,-2.171305e+00,8.372235e-01,3.570800e-02,3.535362e-01,4.495054e-01,3.078822e-01,-2.198424e+00,-1.036072e+00,-1.630220e-02,-1.408370e+00,-8.710712e-01,7.563394e-01,-1.796820e+00,7.507890e-01,7.274882e-01,-5.373790e-01,-5.138456e-01,6.237690e-01,-7.340772e-01,
1.036860e+00,7.177425e-01,-1.154980e+00,7.585704e-03,1.322503e+00,-3.324309e-02,1.314494e-01,4.550869e-01,-1.475780e-02,4.401710e-02,-4.718966e-01,2.548454e+00,1.663785e+00,-5.168911e-02,3.027350e-02,3.591125e-01,4.832731e-01,-3.816260e-02,1.024220e-02,-6.876936e-01,-1.054350e-02,1.331460e+00,3.454419e-01,2.714655e-01,5.557560e-01,2.688790e-01,3.094536e-03,5.819613e-01,8.214822e-01,-8.566139e-01,2.653319e-01,2.111554e+00,-3.909883e-02,-4.638060e-02,6.123232e-01,8.595327e-01,2.199969e+00,1.385176e+00,-1.033091e+00,2.553670e-03,9.427185e-02,-3.308503e-01,-2.392610e-01,5.083662e-01,-1.788282e+00,-3.137844e-02,-2.228803e-01,-2.609967e-01,-1.440786e-02,1.339253e+00,
1.103036e+00,5.839880e-01,-3.474250e-01,1.739812e-02,6.201639e-01,1.892546e-01,-8.951991e-01,5.556321e-01,-2.602470e-02,6.613450e-03,2.157728e+00,7.166606e-01,-1.361323e+00,9.574787e-02,2.021250e-02,-4.344034e-03,2.869210e-01,-5.442000e-03,-2.875870e-02,4.473989e-01,8.703219e-01,5.409342e-01,1.274630e-02,-6.222525e-01,-3.809421e-03,7.376244e-01,1.071244e+00,-3.233072e+00,-2.200244e+00,4.179158e-01,-2.130416e-01,-2.984292e+00,6.324928e-02,-5.615290e-03,5.232067e-01,3.310361e-01,6.641728e-01,3.950754e-01,-4.530655e-01,-6.224100e-03,-3.372484e-01,1.716583e-01,-4.585100e-01,1.270733e-01,-6.510010e-01,1.790946e-01,-7.223078e-01,-1.314353e-01,8.603825e-01,-4.482811e+00,
-2.217340e-02,-1.561096e-01,-3.202126e-01,1.780877e-02,7.965177e-02,-3.065276e-01,4.388975e-01,4.836994e-01,-2.019820e-02,-2.459630e-02,-6.181360e-01,-8.929313e-01,5.554067e-02,-3.762476e-01,5.695980e-02,8.985146e-01,-1.105170e-01,1.691110e-02,1.322130e-02,4.313959e-01,4.935363e-02,8.007555e-01,3.636780e-01,4.184233e-01,7.387558e-01,4.117861e-01,7.190874e-01,7.834135e-01,3.422352e-01,2.081872e-01,-1.924916e-01,1.083321e+00,3.950142e+00,-5.130750e-02,-5.228410e-02,-6.100138e-01,-2.167544e+00,5.268037e-01,7.768157e-02,2.339050e-02,-2.973954e-01,-1.919680e+00,7.404223e-02,-1.978558e-01,5.284827e-01,-2.284650e-01,-5.390196e-01,-3.170872e-01,6.535345e-01,-2.129322e+00,
4.170077e-01,-7.267705e-01,3.485385e-01,-2.820856e-02,7.760543e-02,-9.226620e-01,6.592054e-01,-6.973051e-01,-4.547290e-02,2.081790e-02,1.861467e+00,-3.014100e-01,3.741524e-02,3.122904e-01,-2.849720e-02,7.823258e-01,-3.377633e-01,2.910190e-02,5.041900e-03,-5.990594e-01,-2.069635e+00,-3.134112e-01,-5.169281e-01,1.666921e-01,3.423013e-01,6.321336e-01,2.213283e-01,-2.693957e+00,-3.128480e+00,6.603984e-01,3.752065e-01,-1.656646e-01,1.260791e-01,2.574840e-02,-1.944396e+00,6.477244e-01,-5.278724e-01,-7.945659e-01,-9.806933e-02,-2.146490e-02,9.947603e-01,1.974895e+00,5.546420e-01,3.647303e-01,-8.869553e-01,1.527738e-01,-1.862989e+00,6.603222e-01,-9.678556e-02,1.083208e-01,
3.558721e+00,4.858648e-01,2.224479e+00,-2.539228e-02,1.910340e+00,9.829305e-02,8.783025e-01,2.261229e+00,3.822850e-03,2.724450e-02,2.272346e+00,1.213548e+00,5.784615e-01,1.419625e+00,-2.034640e-02,-7.475027e-01,1.627359e+00,-3.784370e-03,1.136090e-02,2.678798e+00,2.292222e+00,3.123153e+00,2.597350e+00,3.157391e+00,2.566654e+00,1.430205e+00,3.315481e+00,1.431502e+00,-2.006301e-01,3.801301e-01,1.981105e+00,2.107614e+00,7.640952e-01,1.535470e-02,1.177783e-01,8.264665e-02,1.910079e+00,2.950880e+00,1.234340e+00,-2.557050e-03,-2.289806e-01,8.745626e-01,7.300847e-01,1.617723e+00,1.451647e+00,6.926678e-01,-1.093406e+00,1.679913e+00,2.383663e+00,1.959139e+00,
5.131236e-01,-3.964742e-01,-7.252950e-01,7.322137e-02,-2.429565e-01,7.744571e-02,2.392878e-01,1.910994e-01,1.082480e-02,-1.296100e-02,-2.401502e-02,-1.299826e+00,1.061731e+00,8.576917e-01,-2.493490e-03,-3.023034e-01,-6.597007e-01,-3.665220e-04,2.088970e-02,7.994773e-02,1.247457e+00,3.848841e-01,5.224230e-01,2.224272e-02,4.884737e-01,1.887390e+00,1.029107e+00,2.246902e+00,3.942904e-01,-3.918301e-01,-4.891257e-01,3.734425e-02,2.079021e+00,1.836470e-02,7.970986e-01,2.017348e-01,6.677598e-01,1.001481e+00,-1.891531e-01,-2.997620e-02,7.547043e-01,3.428088e-01,-4.566184e-01,4.178989e-01,-6.026959e-01,3.584442e-01,-5.690485e-01,2.868695e-01,-3.678615e-01,1.197798e+00,
-1.559370e-01,-2.192282e-01,1.366425e-01,-8.783053e-03,5.767725e-01,3.224764e-01,1.459434e-01,8.806952e-01,-2.104840e-02,-2.172520e-02,3.295644e-01,-1.359555e+00,-7.337028e-01,4.111040e-01,-2.596600e-02,3.359255e+00,7.391055e-01,-2.303270e-02,-2.479160e-02,-2.398127e-01,-1.789464e+00,2.459561e-01,4.152905e-02,3.729907e-02,1.278191e+00,-8.386313e-01,-6.059040e-01,1.863322e+00,9.086730e-02,-1.123447e-01,-5.164690e-01,5.109392e-01,7.465971e-02,-2.496880e-02,-2.236989e-01,-7.617741e-01,-5.851904e-01,-4.703436e-01,-7.745919e-02,-1.859930e-02,3.046326e-01,1.059238e+00,7.546701e-02,1.365426e-01,9.896184e-02,-2.645038e-01,-5.907087e-01,2.858323e-01,3.005532e-01,-3.600841e-01,
8.870115e-01,8.850309e-01,6.865833e-03,-3.656768e-02,3.906250e-01,-3.219742e-01,2.380835e-01,3.067960e-01,2.492040e-02,6.172090e-03,-9.903637e-01,4.472545e-01,-1.337980e+00,1.208431e-01,-3.011790e-02,-1.857313e+00,3.606107e-01,-3.099330e-02,-7.052310e-03,2.232770e-01,-4.186779e-01,-1.133936e+00,1.983459e-01,3.179347e-01,6.860458e-01,2.296747e-02,2.604733e-01,3.106150e-01,1.022017e+00,-1.105601e-02,-2.148740e-01,7.132826e-01,9.546903e-01,-6.995830e-03,3.280947e-01,-3.980888e-01,-5.123696e+00,5.877291e-01,-2.354649e-01,1.779670e-02,3.208292e-01,1.472142e+00,9.352206e-02,2.354545e-02,-2.477664e-01,-3.328963e-01,1.289717e+00,-1.076241e-01,8.275823e-03,3.719834e-01,
-4.057662e-01,3.397415e-01,1.578024e-01,-3.520062e-02,1.841494e+00,-2.372869e-01,1.605820e-01,8.648843e-01,-4.924550e-02,-2.924900e-02,8.762212e-01,-2.452285e-01,1.683931e-01,-1.717134e+00,4.215550e-02,2.897081e-01,-8.036191e-01,4.051170e-02,-4.777880e-02,1.025327e+00,-2.116834e-01,2.180546e+00,1.173524e-02,1.290848e-01,-7.969164e-01,-1.352352e+00,1.281058e+00,4.449545e-01,1.307907e+00,1.055815e-02,1.980713e-01,7.901461e-01,6.876871e-01,-8.485990e-03,4.826560e-01,-2.239850e-01,1.802028e+00,2.889451e-01,1.329593e-02,3.108010e-03,1.135421e-01,-1.170655e+00,1.820074e-01,9.934794e-01,-3.559419e-01,2.710402e-01,9.719928e-01,2.849145e-01,9.969882e-01,-2.931237e+00,
1.039503e+00,2.077478e-01,-1.095464e-01,-6.942234e-02,-7.529327e-01,-1.204242e-01,-1.892836e-01,8.219426e-01,-4.717140e-02,-1.103330e-02,-3.612283e-01,-5.768335e-01,3.855004e-01,1.140380e+00,1.144870e-02,-5.494617e-01,6.035922e-01,2.268820e-02,4.127960e-02,1.534313e-01,4.582565e-01,1.052702e+00,-4.359376e-02,5.499401e-01,2.026426e+00,5.031804e-01,-3.139667e-01,2.945167e+00,2.191988e-01,3.860827e-01,-6.645130e-02,8.118789e-01,-1.039833e-01,-4.656420e-02,2.510127e-01,1.753017e-01,1.573159e+00,1.268896e+00,-5.111050e-01,-2.992340e-02,1.549297e-01,2.239030e-02,-2.167687e-01,2.216114e-01,3.471216e-01,-9.880080e-01,-1.084490e-01,-4.677190e-01,5.318644e-01,-2.525761e+00,
3.232705e-01,4.086173e-01,-7.739627e-02,-5.325919e-03,3.222612e-01,1.719932e-01,4.803464e-01,-5.321861e-03,-8.415610e-03,-4.066230e-03,5.085209e-01,2.372709e+00,7.205361e-01,-6.733903e-01,-1.743110e-02,4.582320e-01,-1.080707e-01,3.357520e-02,-1.128570e-02,4.180487e-01,-4.517980e-01,7.534897e-01,-1.811988e-01,-4.849464e-01,3.073090e-01,-5.678386e-01,7.087968e-01,-2.268969e-01,5.453574e-02,-1.541135e-01,-9.437516e-02,4.087058e-01,1.111511e-01,1.096640e-03,1.492198e-01,-7.168909e-01,1.287676e+00,2.131612e-01,-4.598050e-01,1.888120e-02,3.360903e-01,7.483715e-01,1.257668e-01,6.399741e-01,4.973889e-01,-2.850781e-01,1.338011e+00,-3.730773e-01,-1.643123e+00,5.007118e-01,
-5.135246e-01,-2.064466e+00,-6.718969e-02,-2.124467e-02,3.789108e-01,4.281755e-01,5.878926e-02,-7.416710e-02,-2.251500e-02,3.708480e-03,-6.447570e-01,-1.649345e+00,-2.078801e-01,-1.257208e-01,-1.302090e-02,-4.474663e-01,3.847853e-01,-3.088380e-02,5.593530e-02,-4.145921e-01,3.299276e-01,4.523156e-01,-1.892416e-01,1.363663e-01,4.390419e-01,2.454680e-01,4.458784e-01,1.517305e+00,4.554946e-01,-1.121915e-01,-3.726876e-01,-4.044024e-02,-4.491937e-01,-4.191670e-02,-3.598617e-01,7.473341e-01,-3.076352e-01,-1.270266e+00,6.359860e-01,-3.686280e-03,-1.849398e-01,1.913157e-01,-3.087556e-01,2.028269e-01,5.879830e-01,6.532626e-02,-6.687742e-01,2.772050e-01,-2.178176e-01,-1.161865e+00,
7.003175e-01,-2.021252e+00,-3.770391e+00,-5.624077e-02,2.572972e+00,9.973196e-01,-2.030640e+00,-3.649888e+00,-3.656250e-02,1.912490e-02,1.772014e+00,3.201873e-01,-4.705003e+00,-4.336739e-02,-1.960370e-02,4.487437e-01,5.743836e-01,2.698120e-02,4.565100e-02,-7.704871e+00,-2.304486e+00,-2.310697e-01,4.549379e-02,-1.555840e+01,2.959840e-01,-9.319307e-01,-6.074566e-01,-2.011210e+00,-1.620813e+00,-1.713461e+00,-1.669812e+00,-4.506819e+00,-9.784171e+00,-1.710200e-02,1.285352e+00,-4.735242e-01,-1.949042e+00,-3.899682e+00,1.080149e-01,1.384460e-02,9.702103e-01,-2.184369e+00,-3.541867e-01,-4.750890e-01,1.129612e+00,-2.103944e+00,-8.049274e-01,-1.882036e-01,1.622969e+00,5.832103e-02,
1.373327e+00,-4.290470e-01,-3.226765e-02,-5.934854e-02,2.268613e-02,-2.385295e-01,2.886590e-01,1.114911e+00,4.196320e-02,-2.077060e-02,1.027211e+00,-4.766542e+00,-1.196603e+00,7.199967e-01,-2.000200e-02,-2.374253e-02,-8.519517e-01,3.752960e-02,2.832480e-02,6.264073e-01,1.675540e+00,1.242272e+00,6.200469e-02,-1.503390e-01,1.151147e+00,1.833765e+00,1.067683e+00,7.006390e-02,7.762660e-01,4.373602e-02,-6.525218e-02,-4.928547e-01,1.171300e+00,-1.094900e-02,1.272887e+00,7.750318e-01,2.078390e+00,5.645274e-01,-4.153202e-02,-1.585390e-02,-3.793443e-01,-1.307939e+00,2.025103e-01,6.085193e-01,1.546094e-01,-1.335590e-01,1.501930e-01,-5.535085e-02,-5.660248e-02,3.916500e-01,
-6.337129e-02,-1.575325e-01,-8.508044e-02,-8.101026e-02,-9.680052e-02,9.827078e-02,7.518584e-02,3.176609e-01,1.243520e-02,2.090410e-02,7.348728e-01,-2.565844e-01,9.206395e-01,3.586613e-01,-1.756850e-02,-5.285543e-01,2.204403e-01,1.953340e-02,3.327550e-03,-4.363052e-01,2.919404e-01,4.726470e-01,1.981940e-01,-1.620365e-01,-3.798580e-01,-5.653570e-01,-8.707789e-02,-1.737495e+00,-2.701674e-01,-5.675701e-02,-1.067015e-01,1.037778e+00,1.745632e+00,-2.940080e-02,2.333198e-01,-6.836210e-01,5.760561e-01,-1.282572e+00,8.657534e-02,1.030700e-02,-1.585745e-01,5.514148e-02,-3.103124e-02,-1.600456e-01,-9.587579e-01,-5.845230e-02,-4.206649e-01,-1.502434e-01,4.604138e-01,-9.519529e-02,
1.754703e+00,8.962684e-01,2.356577e-01,-2.046280e-02,7.999747e-01,-1.508332e-01,1.873890e-01,-1.014842e+00,5.885390e-02,2.653350e-03,-1.658315e-01,1.184190e-01,2.903653e+00,1.939355e-01,-7.214830e-04,3.531157e+00,-7.615219e-02,3.791310e-02,-3.370270e-02,1.224662e+00,1.655968e+00,6.485705e-01,-3.096855e+00,6.537609e-01,-5.623373e-01,1.900340e+00,6.256191e-01,1.680758e+00,9.550673e-01,3.918071e-01,2.440909e-02,1.028944e+00,4.964224e-02,-2.580170e-02,1.950603e+00,-1.229166e+00,5.204780e-01,7.692535e-02,2.414606e-01,2.877340e-02,-9.146464e-01,7.564230e-01,-5.701895e-02,7.519410e-01,8.186013e-01,1.859609e-01,-1.073925e-02,2.970274e-01,-3.082741e-01,3.705107e-01,
-4.399372e+00,2.196052e-01,1.062913e-01,-5.953197e-02,5.952604e-02,-1.401356e-01,1.965197e-01,-3.022471e-02,3.299630e-02,-4.519230e-03,3.110731e-01,9.617358e-01,8.023216e-01,6.433836e-01,-4.925560e-03,-1.062095e+00,2.314843e-01,-2.849790e-02,-3.337300e-02,4.033276e-01,1.222382e+00,-1.860689e+00,-1.367866e-01,9.735032e-01,-4.663445e-01,-1.145295e+00,-7.389640e-01,-8.167665e+00,6.625576e-01,2.510684e-01,1.384195e-01,-2.233867e-01,1.745274e+00,2.062460e-02,8.389681e-01,1.487851e+00,-5.912773e-01,1.869250e+00,7.302738e-02,4.037110e-02,3.961592e-01,4.634207e-01,-4.047407e-01,1.380525e+00,-7.078531e-01,-4.107188e-01,6.916553e-01,-2.637941e-01,1.217953e+00,-4.141815e-01,
-1.826793e+00,-1.607282e+00,-1.293277e+00,3.047208e-03,5.237361e-01,2.555493e-01,2.656477e-01,-2.603431e+00,3.129750e-02,-1.924720e-02,-1.612390e-01,1.208808e-01,-1.503610e+00,-4.308913e-01,3.817120e-02,5.128955e+00,-7.596517e-01,-2.897580e-02,-9.056920e-03,-6.067965e+00,7.145819e-01,-2.336660e+00,-1.497726e-02,6.815954e-01,-8.846100e-02,-2.298024e+00,-5.399655e-01,-2.680260e+00,-1.525550e+00,-4.466570e-01,3.102766e-01,2.690862e-01,-1.676496e+01,1.515810e-02,-3.368769e+00,7.323295e-01,-2.588088e+00,-6.696712e+00,3.090355e-01,4.492960e-02,-6.944199e-01,8.412952e-01,2.930515e-01,-6.193978e-02,-1.475490e-03,-7.236865e-01,-5.916095e-01,-1.001146e+00,-3.529598e+00,-2.762250e+00,
1.282129e-01,-4.755663e-01,4.438527e-01,-2.590722e-02,1.070775e+00,-2.297654e-01,7.892790e-02,-1.327876e-01,4.665290e-02,1.503330e-02,1.197366e+00,-1.021493e+00,8.065636e-01,-1.195083e+00,3.068230e-02,1.514779e-01,4.684968e-01,1.780170e-02,-9.219290e-03,1.807247e-01,4.848296e-01,-8.332130e-01,-9.354553e-02,1.810690e-01,1.181886e-01,6.098218e-01,2.030320e+00,1.944833e+00,5.870098e-01,1.850310e-01,5.034268e-01,1.177585e+00,1.365889e+00,2.636350e-02,7.130907e-01,-8.794332e-01,-1.032888e-01,1.109379e+00,-1.722417e-01,8.410580e-03,3.228880e-01,3.612521e-01,9.852704e-02,6.127502e-01,-4.600011e-01,2.587260e-01,2.052409e-02,-3.923692e-01,6.159396e-01,1.907638e-01,
-1.996725e-01,3.456889e-01,3.927284e-01,-7.712886e-02,-1.437604e-01,9.684542e-02,-5.188467e-01,7.726089e-02,2.990370e-02,4.560370e-02,-5.876287e-02,5.787206e-02,1.215618e-01,-2.578986e-01,-4.898300e-03,-4.822062e-01,2.912109e-01,-1.875710e-02,-5.097450e-02,2.978782e-01,7.269347e-01,1.134392e+00,1.776376e-01,-1.047280e+00,-1.860879e+00,6.163825e-01,1.805841e-01,-5.806140e+00,5.512291e-01,3.685084e-01,1.080038e-01,8.206976e-01,-4.497570e-01,-9.744990e-03,9.562948e-01,1.588555e-01,-1.190610e-01,2.756794e-01,-2.099191e-01,-4.457060e-02,2.982698e-01,1.850672e-01,-6.686553e-01,4.495242e-01,4.953719e-01,-6.542360e-01,2.433226e-01,-5.308375e-01,5.200681e-01,-3.044322e-01,
1.226903e-01,-1.605028e-01,-1.494071e-02,-1.753465e-02,-1.203606e-01,-1.280702e-01,1.056444e-01,9.684744e-01,4.063470e-03,-2.111730e-02,9.070233e-01,-1.809688e+00,3.533973e-01,1.184723e+00,8.021240e-03,-2.031467e+00,-1.105044e+00,-4.256040e-03,-1.404110e-02,-2.143081e-01,1.120693e+00,6.451191e-01,2.262944e-01,-9.361881e-01,1.698406e+00,2.701748e-01,1.471593e-01,9.163955e-01,6.257071e-01,6.624725e-01,5.165913e-01,5.924324e-01,8.663463e-01,1.469540e-02,1.013324e+00,6.123492e-01,-7.756398e-01,-7.961383e-02,-1.204355e-01,1.869120e-02,-8.266420e-01,2.241852e-01,6.971058e-02,-4.087290e-01,-1.686858e+00,3.138068e-02,-9.982891e-02,-3.663877e-02,6.707389e-01,6.883894e-01,
2.614717e-01,-4.404989e-01,-2.648283e-02,-2.595284e-02,1.811109e-01,-2.654982e-02,4.439131e-01,9.142726e-01,-3.901220e-02,9.462120e-03,4.858887e-01,6.218221e-04,9.780247e-01,2.991143e-01,-3.270390e-02,2.043446e-01,5.113435e-01,3.153230e-02,-1.280070e-02,1.077692e-01,-2.637235e-01,1.899446e-01,3.602395e-02,9.395460e-01,4.219409e-01,2.631875e-01,-3.933358e-01,-8.607842e-01,-4.548634e+00,1.078441e-01,1.404214e-01,9.020187e-02,4.999202e-01,2.208280e-02,1.016480e+00,8.028232e-02,-8.073476e-01,-1.766756e-02,-7.914457e-01,4.832160e-02,-1.394064e-01,6.545178e-01,-4.193820e-01,-1.267153e+00,3.605008e-01,8.350374e-02,4.590207e-01,-3.462111e-01,7.049711e-01,-7.965372e-01,
1.302832e+00,-6.368904e-01,5.656031e-01,-2.316581e-02,3.559026e-01,-2.392254e-01,2.854159e-01,-3.127336e-01,-4.051520e-02,-1.966100e-02,-4.221589e-01,-3.470473e-01,-1.285037e+00,-6.328092e-01,-2.853940e-02,2.732821e+00,3.622216e-03,-2.816550e-03,-4.869690e-02,9.233603e-02,2.420590e-01,4.691441e-01,2.220771e-01,1.622804e-01,4.181029e-01,-5.284881e-01,1.033407e+00,-2.882530e+00,-2.382064e-01,6.211544e-01,7.386611e-01,-5.954245e-01,-3.675062e+00,-5.150680e-02,1.151111e+00,-1.160848e+00,-3.233038e-01,-8.473612e-01,3.508154e-01,3.814660e-02,-3.016733e-01,-5.579835e-02,1.052357e-01,5.461749e-01,5.532650e-02,2.043768e-01,2.068972e-01,-2.757431e-01,1.271831e+00,-1.503062e+00,
3.715270e-02,-3.783780e-02,-2.904330e-02,3.637910e-02,-2.727030e-02,2.406900e-02,-2.058790e-02,-6.836100e-03,-4.592940e-04,4.550810e-02,-2.988730e-02,3.256930e-02,7.036410e-03,4.467570e-03,4.714680e-02,2.082330e-02,-4.641200e-02,-4.008890e-02,-4.145420e-03,2.266300e-02,-3.843070e-02,-1.776720e-02,-3.982360e-03,-3.303610e-02,-3.493240e-04,1.333780e-02,-5.242670e-02,4.652160e-02,-4.920870e-03,-3.986240e-02,2.357800e-02,-8.532300e-03,1.054190e-02,-3.190980e-02,-2.271350e-03,2.111120e-02,2.855530e-02,-4.189280e-02,-1.401350e-02,4.244410e-02,-5.063650e-02,-2.309480e-04,-3.012450e-02,-2.416080e-02,-5.155640e-02,5.568680e-03,-4.945080e-02,-2.645220e-02,-4.717210e-02,-1.198210e-02,
1.049048e+00,1.689702e-01,5.642273e-01,-5.495876e-02,1.116435e+00,-4.956391e-01,2.976801e-02,1.948450e+00,5.354540e-02,6.501930e-02,4.967270e-01,1.358298e+00,3.057744e+00,2.238485e-02,-2.555850e-02,-1.539928e+00,4.133961e-01,-7.879880e-03,6.150430e-03,9.714537e-01,1.494650e+00,-1.114685e-01,-3.101387e+00,1.129256e+00,9.869978e-01,1.645848e+00,1.502914e+00,1.573403e+00,1.240472e+00,4.933217e-01,1.647816e-01,-1.034671e-01,4.487877e-01,-4.580250e-02,1.028871e+00,-3.523487e-01,1.274294e+00,1.599848e+00,-2.696229e-01,-4.110320e-02,-1.123892e-01,5.354795e-01,7.621861e-01,5.869297e-01,3.298245e-01,2.891727e-01,2.227936e-01,-5.584696e-01,5.686140e-01,3.019402e-01,
2.402199e-01,6.987529e-02,-3.558686e-01,-2.957313e-03,-6.901208e-02,-6.104118e-01,-4.023694e-01,3.159641e-01,2.127930e-02,4.222500e-02,-9.735551e-02,4.601344e-01,-3.691215e-01,9.058651e-02,-2.701880e-02,2.864094e-01,-2.013473e-01,4.657650e-02,-2.496050e-02,6.412759e-01,5.373544e-01,5.023853e-01,-3.834073e-02,-2.688030e+00,2.883985e-01,7.636575e-01,-6.072828e-01,-1.138045e+00,1.163735e+00,-3.334739e-01,2.800305e-01,2.224604e-01,-9.379046e-01,1.740900e-02,2.417836e-01,2.992779e-01,6.126920e-02,4.561636e-01,3.260728e-01,-4.010650e-02,4.773699e-01,-4.473101e-01,-5.258397e-01,-1.665322e+00,-1.085304e+00,-9.270645e-01,1.580745e-01,-6.721877e-02,9.778316e-02,1.385735e+00,
-5.711402e-01,-2.023755e-01,1.382769e+00,-4.956245e-02,-3.793813e+00,7.144430e-01,-5.027729e-01,-1.644947e-01,-1.011190e-03,2.206420e-03,-1.205639e+00,-2.316811e+00,-3.574088e-01,-2.326884e-01,-2.778760e-02,-1.116729e+00,9.714830e-02,-3.468860e-02,2.574510e-02,-3.548819e+00,-1.109183e-01,1.529964e-01,-2.150944e-02,2.572508e-01,8.072975e-02,-4.156875e-01,-3.175744e-01,-1.412096e+00,-5.698990e-01,8.842819e-02,5.211944e-01,-2.320061e+00,1.083067e+00,-4.882820e-02,-1.574562e+00,-1.074248e+00,-2.659477e-01,4.395037e-01,7.856426e-01,-1.181800e-03,-6.702129e-01,-9.288490e-01,-6.676174e-02,-1.236408e+00,2.759514e-01,-3.088967e-02,-4.166802e-01,7.669622e-01,-2.002753e-01,1.016956e+00,
1.499840e+00,4.571663e-01,6.410608e-01,-4.372337e-02,7.403025e-01,-5.509036e-02,2.131247e-02,1.048323e+00,-2.948190e-02,2.301460e-02,-5.083777e-01,-1.836555e+00,1.629211e+00,8.839199e-01,-2.452300e-03,2.665526e+00,5.872130e-01,-3.055760e-02,-3.280970e-02,7.940925e-01,1.582676e+00,3.029143e+00,-1.586356e+01,9.500352e-01,5.868952e-01,-4.672063e-01,-1.724794e-01,1.551944e+00,1.069225e+00,2.248125e-01,5.674421e-01,2.380776e+00,-1.489089e-01,-2.098770e-04,-7.179210e-01,2.012279e-01,1.391480e+00,1.539062e+00,-1.443126e-01,3.353020e-02,-2.598043e-01,9.253638e-02,7.405745e-01,9.441820e-01,1.458021e+00,-7.847725e-01,3.372496e-01,4.144271e-01,1.045586e+00,-1.900634e-01,
-1.008556e-01,-6.400635e-01,8.103129e-02,5.226147e-02,-1.494032e+00,-8.379502e-02,1.226803e-01,-2.761869e-01,5.014730e-02,-6.770240e-03,6.419793e-01,-1.835266e+00,-2.518740e+00,-5.866448e-02,-1.221080e-02,2.169610e+00,-1.437621e-02,-4.777600e-02,-1.789190e-02,5.407699e-01,1.047939e+00,5.831134e-01,-1.414000e-01,8.342900e-01,-2.261360e-01,-9.321541e-01,-1.480074e+00,-3.653715e+00,-7.637950e-01,-5.858620e-02,-6.637666e-02,-9.179934e-01,-5.332737e-01,1.732200e-02,6.674107e-01,-3.884688e-01,-2.641425e-01,9.762409e-02,1.263038e-01,3.758930e-02,1.013100e-01,-9.873351e-01,5.483743e-01,2.778617e-01,-2.972275e-01,-3.623652e-01,-2.922521e+00,1.174805e-01,9.394337e-02,-1.115334e+00,
3.167026e-01,7.475839e-01,-1.020947e+00,-6.140552e-03,1.726516e+00,1.395770e-01,2.959819e-04,3.430068e-01,2.595670e-02,1.344150e-02,1.125460e-01,8.879516e-02,-1.291974e+00,9.920594e-01,1.708320e-02,-1.322829e+00,-9.279486e-01,-8.131390e-03,-2.654010e-02,-2.776294e-01,1.349019e+00,1.189468e+00,1.745121e-01,-1.174912e+00,4.125084e-01,5.744804e-01,-1.224645e-01,2.730460e+00,-8.347442e-02,-3.501990e-01,1.599913e-03,2.071634e+00,2.970979e+00,7.573680e-04,2.021115e+00,7.166376e-01,1.696779e+00,2.114190e+00,3.919218e-01,3.272230e-02,5.690925e-01,-1.460986e-01,-6.258135e-01,-6.013080e-01,-2.222326e+00,-3.738197e-01,5.735109e-01,8.335821e-02,1.050776e+00,5.250641e-01,
2.519512e-01,1.823316e-01,-2.449158e-03,-6.173125e-02,4.544031e-01,-2.190557e-02,4.923394e-01,4.164546e-01,-2.767410e-02,-4.040530e-02,1.471089e-01,5.729246e-01,7.123753e-01,4.536189e-01,-5.702200e-04,2.093174e+00,-2.047530e-02,-4.901210e-02,4.936270e-02,1.535199e-01,1.107816e+00,1.474189e-01,4.775698e-01,-1.157921e+00,-1.220426e+01,-2.377719e+00,-5.648895e-01,7.257061e-01,5.083808e-01,2.263400e-01,-1.381845e-02,1.246904e+00,2.165600e+00,-2.286010e-02,6.197197e-01,-3.201927e-01,4.168175e-03,-7.527456e-02,-1.426394e-01,-4.787360e-03,-2.807133e-01,-4.633609e-01,-2.422104e-02,3.147251e-01,1.574659e-01,-8.429915e-02,4.388804e-01,-4.267606e-02,9.588441e-02,-2.342993e-01,
2.469732e-01,2.606440e-01,-3.021715e-01,-9.198486e-02,-3.664785e-01,-4.057988e-01,-2.769371e-01,-2.094690e-01,2.200750e-02,-1.415120e-03,1.389863e-01,1.334769e+00,9.046537e-02,-2.675292e-01,3.403750e-02,5.504863e-01,-1.556931e-01,-4.675230e-02,-5.453770e-02,-1.570901e-01,6.658304e-01,-4.743715e-01,9.023960e-02,1.670278e-01,1.194962e+00,6.500089e-01,-1.378325e+00,1.297338e+00,-1.543921e+00,4.113739e-01,-1.512343e-01,8.448246e-01,1.089781e+00,4.740430e-03,1.016085e+00,4.549882e-01,-1.996945e+00,1.375812e-02,-4.435897e-01,-1.132710e-02,2.391136e-01,-3.373676e-01,3.461460e-01,2.510683e-01,9.899858e-02,5.909731e-01,5.509112e-01,1.731347e-02,-1.540064e-01,2.883167e-01,
-5.213777e-01,8.750823e-01,3.025172e-01,2.481663e-02,-2.080270e+00,-3.425632e-01,-4.384212e-01,6.737118e-01,-4.826920e-02,2.555650e-02,-2.050561e+00,9.606061e-03,-3.245482e+00,-6.414441e-01,-1.079140e-02,-9.444323e-01,9.677240e-02,-4.733830e-03,-2.986870e-02,-4.565141e-01,-5.649939e-01,-2.286907e-01,-2.156087e-01,-1.577677e-01,-1.104584e+00,-6.519912e-01,-7.499877e-01,-4.222516e+00,-1.969515e+00,-8.502151e-02,1.956882e-01,-3.154589e+00,-2.208956e+00,3.433610e-02,-1.779809e-02,-1.315417e-01,-8.078914e-01,1.022742e+00,-1.064312e-01,4.319230e-02,4.031820e-01,-8.519920e-01,7.044938e-01,7.482144e-01,1.338343e-01,6.754156e-01,-3.335629e+00,9.458911e-02,1.812691e-01,-8.604318e-01,
-4.263891e+00,2.992233e-01,6.868003e-01,-4.454551e-02,-3.551804e+00,-5.833116e-01,-7.857953e-02,-3.666143e-01,-3.720460e-02,-2.954590e-02,1.306424e-01,-1.012943e+00,-1.760263e+00,-1.466193e+00,3.914520e-02,-2.347256e+00,4.329628e-01,4.348510e-02,-2.588650e-02,-3.929222e-01,-2.274606e+00,-8.412210e-01,-9.282519e-02,-1.150214e-01,1.288921e+00,-1.583963e+00,-1.429914e+00,-7.494722e+00,8.464727e-01,3.217180e-01,2.342616e-01,-3.935923e+00,1.134710e+00,2.787440e-02,-2.085375e+00,-1.016599e+00,1.058764e+00,1.170112e+00,-2.817518e-01,-3.376290e-02,-1.009867e+00,-3.709157e-01,-7.548454e-01,-3.197461e-02,-4.874965e-01,-1.279842e-01,-3.855996e+00,3.817724e-01,-5.326381e-01,-8.289189e-01,
1.602788e+00,5.602491e-01,-1.656883e+00,4.580327e-02,-1.329699e-01,2.689743e-01,1.244684e-01,-3.111864e-01,1.669130e-02,1.393310e-02,-7.761551e-02,8.294367e-02,5.141454e-01,5.145508e-02,-3.112240e-02,-8.598356e-01,1.037277e-01,-1.245600e-02,-3.584740e-02,3.340290e-02,-1.781168e-01,1.394304e-01,-1.937049e-02,-1.453545e+00,2.049223e+00,8.717949e-02,6.960151e-01,1.289732e+00,3.481124e-01,-8.369761e-01,6.303643e-02,-6.199695e-01,1.815801e+00,1.494340e-02,-8.772222e-01,2.686168e-01,2.589346e-01,1.911086e+00,1.993328e-01,2.410290e-02,-4.394975e-01,2.223137e-01,-1.038708e-01,-2.846812e-01,-7.952134e-01,-2.331785e-01,1.440053e-01,3.040388e-01,3.420418e-01,6.291077e-01,
1.250896e+00,2.882599e-02,8.143390e-01,1.327758e-02,-1.586713e-01,-2.134991e-02,6.974638e-01,9.397425e-01,-1.213890e-02,1.554270e-02,1.335848e+00,8.980235e-01,1.144322e+00,1.308236e-01,5.240240e-02,-2.970750e-01,6.595610e-01,6.872460e-03,-2.912390e-02,2.057777e+00,2.091940e+00,-1.600340e-01,8.419279e-01,1.413671e+00,-2.350027e+00,9.802894e-01,-2.985068e-01,2.125170e+00,6.658295e-01,5.624203e-02,5.508385e-01,-6.987707e-01,-3.389961e+00,-3.812850e-02,-2.890127e+00,-1.348372e+00,-1.875382e+00,-8.179796e-01,4.465779e-01,2.371790e-03,2.273189e-01,-9.076063e-02,3.108760e-01,2.537764e-01,-4.509811e-02,1.159346e+00,-8.519248e-01,3.520226e-01,-1.592367e+00,-1.492749e+00,
-8.245959e-01,-7.321490e-02,-1.782479e-02,-9.049164e-03,-7.216499e-01,-9.733347e-03,6.991950e-01,-5.318235e-01,7.792410e-03,3.566960e-02,-2.569578e-01,4.269743e-01,-7.947689e-01,8.598522e-01,-2.908580e-02,-8.430195e-01,-8.519462e-02,-4.145750e-03,5.382470e-02,2.230076e-01,-8.155605e-01,-2.745255e-01,1.071285e-01,3.174398e-01,3.181853e-01,-1.038280e-01,-1.060691e+00,-1.964330e-01,-6.372744e-01,2.534887e-01,-1.349346e-01,1.734975e+00,-2.881796e+00,1.179060e-02,3.074194e-01,2.092576e-01,8.698460e-01,2.052551e+00,-5.407851e-02,3.221920e-02,9.358532e-01,-1.466715e+00,-4.263762e-01,-3.832660e-01,-5.300869e-01,-1.771640e-01,1.573466e+00,2.379081e-01,-4.527407e-01,-1.281246e-01,
-2.578764e+00,-1.812338e+00,1.307043e+00,-7.354274e-02,-7.961184e-02,1.969884e-01,-1.396530e+00,-5.260426e-01,4.799700e-02,1.870510e-02,-9.505793e-01,-3.035777e+00,-1.679836e+00,1.023284e+00,2.579340e-02,6.486619e-01,1.245105e+00,-1.673830e-02,3.020270e-02,3.218974e-01,-4.415695e+00,-2.782796e+00,1.519265e-01,-2.300885e-02,1.943792e-01,-2.176506e+00,-4.675667e+00,-1.431394e-01,-1.041974e-01,-1.730167e-01,2.345714e-01,-5.937071e-01,-1.572190e+00,2.902230e-02,2.377424e+00,7.339905e-01,-2.849065e+00,-4.280309e+00,7.088022e-01,-2.191650e-03,-2.049214e+00,-6.052477e+00,-1.242046e-01,-1.448699e+00,-6.745808e-01,-1.071924e-01,-1.040392e+00,8.766750e-02,-1.884443e+00,1.125298e-01,
-8.216171e-01,3.495513e-01,-2.712107e-01,-2.364589e-02,-4.248481e-02,-3.013280e-02,-4.152193e-01,1.593662e-01,-2.041710e-02,2.221300e-02,-5.659476e-01,8.783647e-01,-2.349277e+00,-8.981264e-01,-2.030920e-03,-2.994491e-01,2.311771e-01,1.607510e-04,3.891570e-02,4.348020e-01,-5.439914e-01,-1.467086e-01,2.636491e-01,9.342780e-02,-9.330373e-01,5.647545e-01,-3.702924e-01,-1.190473e+00,4.482992e-02,8.974779e-02,-4.825475e-01,6.694052e-01,1.135907e+00,4.989920e-02,-1.145168e+00,1.769837e-03,8.687976e-01,2.462314e-01,-3.486622e-01,1.317680e-02,3.414311e-01,3.811816e-01,2.868479e-01,4.142488e-01,1.562120e-01,1.651846e-01,-5.413121e-01,-3.128364e-02,4.915768e-01,-7.887368e-01,
-1.652338e-02,1.531658e+00,8.502858e-01,-7.940278e-02,5.258298e-01,-5.256269e-01,-1.206104e-01,8.543841e-01,6.294290e-02,-2.914120e-02,1.911445e+00,5.073743e-01,1.043592e+00,-5.198184e-01,-1.897360e-02,-2.311685e+00,1.002269e+00,4.142070e-02,1.513220e-02,3.633807e+00,1.764747e+00,2.515613e+00,2.833848e-01,1.858811e+00,-4.803159e-02,1.674114e+00,-6.115946e-01,5.184770e-01,6.012677e-01,2.912733e-01,6.300024e-01,2.690182e+00,-1.112471e+00,-2.473640e-02,4.867602e-01,-1.041198e+00,-7.507738e-02,2.630195e+00,-4.675125e-01,-2.183250e-02,2.379810e-01,7.440902e-01,8.062932e-01,2.122082e+00,1.802899e+00,6.879573e-01,5.406471e-01,7.425685e-02,-4.902351e-01,2.664083e+00,
2.749517e+00,1.609204e+00,8.650734e-01,6.047384e-02,1.872523e-01,8.131820e-02,4.478979e-01,1.943470e-01,4.384570e-02,1.129910e-02,7.880641e-01,2.262451e+00,-7.679000e-01,-6.881424e-01,-1.775030e-02,2.239044e+00,4.966310e-01,-1.977230e-02,7.654660e-03,5.626312e-01,1.048307e+00,-7.394822e-01,-1.816702e+00,7.473022e-01,-3.378709e+00,-1.424649e-01,-2.092958e+00,1.546651e+00,-5.148536e-02,3.780382e-01,1.281617e+00,1.016536e+00,4.425848e-01,-5.236200e-02,6.776702e-01,-5.281562e-01,-1.534725e+00,8.417814e-01,9.603024e-02,4.965840e-02,-6.088943e-01,-2.961954e-01,2.839040e-01,9.355158e-01,5.836858e-01,5.180046e-01,-1.076909e-01,-5.706380e-01,2.271385e-01,1.532102e+00,
-1.873543e-01,5.573890e-01,1.557894e-01,2.944375e-02,-1.611838e+00,-2.569896e-01,9.401563e-01,9.660306e-01,-3.157740e-03,-1.020540e-02,1.404906e+00,-2.482207e+00,-8.174046e-01,1.073697e+00,-3.834690e-02,-2.023755e+00,-2.551048e-02,-3.077760e-03,3.247630e-02,4.752188e-01,1.111834e+00,-1.134746e+00,2.470268e-01,4.581419e-02,-2.324174e-02,-1.567671e-01,2.551861e-01,1.003828e+00,-5.733249e-02,3.904899e-01,2.650732e-01,6.428663e-01,1.263721e-01,-3.745240e-02,5.977108e-01,5.116001e-01,4.224361e-01,-1.030354e-01,3.261673e-01,3.023050e-02,-1.144824e+00,-5.507174e-01,2.978639e-01,-6.809307e-01,2.530706e-01,-4.493600e-01,-2.534180e-01,3.128614e-01,3.192629e-01,1.347144e+00,
1.011653e+00,7.391983e-01,8.865766e-01,2.664363e-02,5.216074e-01,-2.897112e-01,-3.220689e-01,2.793533e-01,1.532200e-02,-2.018910e-03,7.847474e-01,-1.090748e+00,1.143105e+00,7.690258e-01,-4.153380e-02,-3.289995e-01,9.652610e-01,6.706410e-03,1.182400e-02,2.422826e+00,2.360648e+00,2.181252e+00,-5.240361e+00,1.302472e+00,1.830670e-01,8.555362e-01,-2.650003e+00,-2.140281e-01,2.534907e-01,8.157644e-02,-7.060902e-01,3.256235e+00,-1.927898e+00,-2.322050e-02,1.569170e+00,-1.603928e+00,1.438879e+00,1.332796e+00,1.284394e-01,-3.173880e-02,2.684074e-01,6.158767e-01,8.501555e-01,1.408874e+00,1.808479e+00,6.484848e-01,1.076986e+00,8.408915e-01,-5.329259e-01,3.733111e+00,
4.192699e-01,9.782602e-01,-8.160783e-02,3.949958e-02,1.846478e+00,-1.744234e-01,-6.889355e-01,2.811407e-01,-1.372940e-02,2.389860e-02,4.112121e-01,-8.119338e-01,1.489960e+00,-1.905551e-01,-1.008230e-02,5.336500e-01,-1.206721e-01,-4.928710e-04,-1.162760e-03,8.472857e-01,2.300172e+00,7.732372e-01,2.905070e-01,4.349825e-01,-5.110557e+00,9.348705e-01,7.371598e-02,-2.256701e+00,8.729919e-01,-2.309185e-01,-1.635377e+00,-9.424995e-01,2.326890e+00,2.571820e-02,5.967715e-01,4.865717e-01,5.346076e-01,2.338645e+00,1.877492e-01,-1.023580e-02,2.358433e-01,1.821534e-01,1.268625e-01,3.841747e-01,5.595217e-01,-3.838796e-01,1.807293e-04,-2.538402e-01,-3.204498e-01,-1.609731e+00,
1.191985e+00,1.635735e+00,8.709946e-02,-2.444853e-02,3.400022e-01,3.889649e-01,7.237170e-01,-8.598193e-01,4.543180e-02,-4.097170e-02,-2.545270e+00,1.092323e+00,1.048272e+00,-1.241042e+00,-5.356250e-02,3.921957e+00,5.081014e-01,-2.127890e-02,-4.986600e-02,-8.226948e-01,6.810601e-01,9.168943e-01,1.059093e-01,1.509753e-01,5.868050e-01,-8.544464e-01,-1.633108e+00,1.588770e+00,1.269754e+00,-2.405162e-01,2.038610e-01,-2.727029e+00,-2.834052e+00,-2.420980e-02,-9.824494e-01,3.680129e-01,5.590641e-01,8.416550e-01,-7.160458e-01,3.653860e-02,1.723813e-01,-3.681636e-01,-1.403891e+00,-2.184483e+00,8.557250e-01,1.053836e+00,-2.279235e-01,-1.247406e+00,9.544284e-01,1.053236e+00,
3.008418e-01,-1.339599e+00,3.628580e-01,4.899348e-02,7.799353e-01,-2.451791e-01,-1.857990e-02,4.259015e-01,1.039020e-03,-2.010990e-02,-1.400776e-01,9.757798e-01,6.877366e-01,6.330217e-01,3.662370e-02,1.326630e+00,-1.306888e+00,1.285250e-03,3.878020e-02,-8.970269e-02,2.338614e-01,6.789309e-01,3.516545e-02,-3.709927e-01,1.314882e+00,3.244839e-01,5.075821e-01,-2.055065e+00,-3.378386e-01,3.379756e-01,-6.746563e-01,1.302965e+00,-1.494434e+00,-4.587170e-02,1.472709e+00,5.149772e-01,7.720490e-01,9.986292e-01,3.534044e-01,3.045900e-02,-1.515352e-01,3.734124e-01,-7.603506e-01,4.976805e-01,9.776564e-02,-7.232372e-02,1.018072e+00,-2.561188e-01,1.692803e-01,1.024491e+00,
1.090132e+00,-2.687985e+00,-5.465975e+00,-5.198346e-02,3.724028e+00,1.276880e+00,-3.853517e+00,-1.458444e+00,4.092880e-02,3.919490e-02,1.202238e+00,3.762007e+00,-1.464035e+00,-9.184945e-01,-1.523150e-02,6.918976e-01,-1.078538e+00,-1.501950e-02,1.758340e-02,-2.968100e+00,-1.069625e+00,7.851306e-01,5.637850e-01,-1.172040e-02,-8.607220e-02,-3.465319e+00,-3.157895e+00,-2.303860e+00,-2.979407e+00,2.974040e-02,3.384545e-01,-1.890785e+00,7.758277e-01,-3.301190e-02,-1.458682e+00,2.249259e-02,-1.102971e+01,-5.052268e+00,-1.488842e+00,3.904330e-02,-3.541960e-01,-1.619362e+00,2.225024e+00,-2.688723e-01,-4.095586e+00,-8.283219e-01,-2.295288e+00,-4.344891e+00,-1.316013e+00,-1.330116e+00,
-3.948541e-01,3.836133e-01,5.458624e-01,-1.621309e-02,8.476771e-02,-1.464560e-01,-4.041879e-01,-1.142793e-01,1.849270e-03,-6.544590e-02,-1.134578e+00,-1.034961e+00,-6.273445e-01,-1.230488e-01,-3.088470e-03,-5.863624e-01,4.252834e-01,-4.505600e-02,-4.041430e-02,-3.740093e-01,-4.779930e-02,-9.211411e-02,-1.791072e-02,3.413105e-01,-5.302776e-01,1.380073e-01,-3.083458e-01,-3.086568e+00,-5.973626e-01,-9.957190e-01,4.154429e-01,-5.458396e-02,5.337840e-02,-2.599700e-02,1.398425e+00,5.466172e-01,1.492128e+00,-2.430274e-02,2.584786e-01,-8.033840e-03,-1.256280e+00,-2.876016e-01,1.520491e-01,1.111955e-01,-4.822036e-01,3.043479e-01,-1.160658e+00,-3.020660e-02,-9.054190e-01,1.045362e+00,
4.169854e-01,-5.860581e-01,-9.495482e-02,-8.842916e-02,-1.607765e-01,-7.544288e-02,-8.937908e-02,1.192877e-01,1.415150e-02,1.801020e-02,1.978193e-01,-5.726864e-02,-9.596059e-01,-5.471903e-03,-2.327650e-02,-2.699766e+00,-8.914249e-02,4.232870e-02,-4.692750e-02,3.238581e-01,-1.814725e-01,-5.631947e-01,2.105452e-02,1.136474e-01,1.568150e+00,-9.982904e-02,1.652701e-01,4.014278e-01,-2.726458e-01,1.925235e-01,3.285039e-01,4.477849e-02,-9.116167e-03,3.124200e-03,-7.961550e-01,3.645780e-02,-2.336984e-02,-8.487389e-01,-6.858056e-01,-2.838570e-02,-9.666044e-02,1.054275e-01,-8.174707e-02,-4.678886e-01,-1.490140e-01,2.331522e-01,-7.364290e-01,2.870605e-01,3.384381e-02,-5.896220e-02,
6.736881e-01,
-1.257269e+00,
8.817641e-01,
2.195203e-02,
-5.916114e-01,
8.924472e-01,
-7.294385e-01,
-5.531563e-01,
-6.639106e-01,
-2.511013e+00,
-9.988154e-01,
1.932033e-01,
-4.599713e-02,
1.485067e+00,
-1.466050e+00,
-7.809491e-01,
1.214852e+00,
-1.051172e+00,
1.280766e+00,
-1.598063e+00,
-5.850516e-01,
-6.007915e-01,
-1.422587e-01,
8.831927e-02,
-1.204750e-02,
-1.071358e+00,
3.209437e-01,
-2.056580e-01,
-1.787739e+00,
4.855341e-01,
-5.013852e-01,
-1.414107e+00,
1.198899e-01,
8.519887e-01,
4.222661e-01,
-1.240779e-01,
-5.184324e-01,
-3.900496e-04,
1.870219e-01,
-2.136028e-01,
-5.389608e-02,
-2.226343e+00,
-5.511830e-01,
-5.664360e-01,
-1.106300e+00,
-8.576629e-01,
-1.665939e-01,
-2.938589e-01,
-9.581548e-02,
2.550221e-01,
2.606226e-01,5.556030e-01,2.920878e-01,-6.378505e-01,8.946451e-01,-3.325601e-01,7.522495e-01,-2.584901e-01,4.752678e-01,5.281533e-02,1.739384e+00,2.110503e+00,4.658789e-01,-1.495359e-01,2.448450e+00,-2.426457e+00,-7.145852e-01,-2.571218e+00,9.721420e-01,-1.377083e-01,2.924263e+00,3.380891e-01,2.636737e+00,-8.463860e-02,-4.439760e-02,3.001527e-01,1.516964e+00,8.991694e-02,1.548424e+00,-9.461854e-02,7.597724e-01,1.269614e+00,9.162430e-01,-9.670492e-01,7.271740e-01,2.456738e+00,3.902481e-01,-6.851771e-01,-4.270012e-01,6.358211e-02,-2.448994e-01,1.255911e-01,-9.558268e-01,-1.013214e+00,-6.517712e-01,1.884513e-01,5.586841e-01,-7.244472e-02,1.071870e+00,2.460207e+00,
-2.926149e-01,1.116463e+00,-6.218969e-01,9.809350e-01,2.010127e+00,4.493223e-02,9.841654e-01,-6.228321e-01,-1.667855e+00,9.231892e-01,-2.187041e+00,3.537428e-01,-9.985364e-01,1.549088e-01,-8.357115e-01,-6.410429e-01,-5.484440e-01,-1.639882e-01,-1.745741e+00,-2.614008e+00,-4.961019e-01,1.002410e+00,-8.654501e-01,-3.035815e-01,2.880760e-02,1.141342e+00,-2.569640e-01,1.245922e+00,6.640916e-01,-5.611670e-01,7.162479e-01,-2.384513e+00,3.233479e+00,-2.943702e-01,-6.702194e-01,-1.121368e+00,1.080013e-01,4.182710e-01,2.804647e-02,1.327468e+00,-2.182927e-01,-3.774209e-02,-5.324076e-01,-7.768643e-01,8.159031e-01,-2.984428e-01,-8.717888e-01,7.864623e-01,-1.931545e+00,-9.633459e-02,
8.033409e-01,2.312123e+00,1.241344e+00,2.421508e+00,5.631598e-01,-1.025572e+00,3.744546e-01,-1.767773e+00,3.698344e+00,-2.081701e+00,-1.198887e-01,-9.321977e-01,2.031835e+00,5.235392e-01,2.766557e+00,1.796769e+00,2.878073e-01,2.116651e+00,3.022774e+00,-9.957181e-01,1.193500e+00,1.013425e+00,1.132334e+00,7.247173e-02,1.382340e-03,1.115610e-01,1.816934e+00,-2.891677e-01,2.850120e-01,1.473809e+00,-2.698248e-01,2.128668e+00,1.614780e+00,1.791149e+00,5.638047e-01,-1.739062e+00,5.304096e-02,1.676800e+00,2.109293e+00,1.907260e+00,-2.341550e-01,-1.358383e-01,-5.511704e-01,2.335035e-01,-1.040983e+00,3.346491e-01,2.775110e+00,1.033895e+00,-4.080288e+00,2.677848e+00,
8.320032e-03,-5.025680e-01,1.601031e+00,6.859819e-01,6.143640e-01,1.094962e+00,-8.232107e-02,-9.142955e-02,-1.750853e+00,-2.006530e+00,-8.253610e-01,-9.369374e-01,-7.120947e-01,-9.122703e-02,-1.037107e-01,2.443553e+00,-1.097244e+00,-8.729360e-01,-1.358620e+00,-1.554366e+00,-1.758206e+00,-1.622506e-01,-2.888373e-01,3.807116e-01,3.339280e-02,-4.623633e-01,-7.157720e-01,-9.225419e-01,-1.841454e+00,2.119208e+00,-2.765032e-03,1.428021e+00,-1.287689e+00,1.241690e+00,1.508486e+00,8.257458e-02,2.375716e-02,-7.380993e-01,4.256387e-01,-5.192033e-02,3.263874e-02,7.042178e-01,-1.583792e-01,-4.974292e-01,3.315266e-01,9.993758e-01,-1.470873e+00,6.247913e-02,-1.373011e-01,-4.590357e-01,
9.714321e-01,1.408958e+00,1.253377e+00,1.143171e+00,1.473235e+00,-6.183097e-01,4.105376e-01,-9.516974e-01,-7.117038e-02,2.252234e+00,5.451986e-01,1.487822e-01,1.543321e-01,6.039401e-01,8.736758e-01,1.833382e+00,-1.415804e-01,6.053379e-01,2.630772e+00,-5.094865e-02,3.733325e+00,5.579682e-01,2.087885e+00,2.066231e-01,2.718550e-02,1.155228e+00,-1.473142e+00,-5.789663e-02,-8.015252e-02,9.548144e-01,1.791940e-01,-5.109850e-01,9.282644e-01,-2.595206e+00,1.118967e+00,1.588654e+00,4.865417e-01,6.617427e-01,-3.746583e-01,7.137387e-01,-2.558397e-01,1.461907e-01,5.620772e-01,-2.275881e-01,-1.133636e+00,1.044779e+00,1.562513e-01,-1.086822e+00,9.130914e-01,1.165652e+00,
1.336436e+00,1.895142e+00,-5.657806e-01,7.735517e-01,-2.845886e-01,-3.342679e-01,5.052054e-02,-3.050260e-01,1.675302e+00,-1.133081e+00,1.008873e+00,5.335051e-01,1.048373e+00,-2.169335e-01,8.530661e-01,2.498989e+00,2.500497e-03,4.130912e-01,-7.412058e-01,-3.943829e-01,2.017833e+00,7.539414e-01,5.147180e-01,-1.544804e-01,-3.282920e-02,-1.374103e-01,5.168968e-01,-8.638189e-01,-1.800520e-01,1.143710e-01,3.616435e-01,-1.209128e+00,-3.741201e-01,7.567365e-01,-8.778364e-02,1.151817e+00,1.254142e-01,2.163601e-01,-5.485431e-01,-2.474915e+00,1.030740e-01,9.395579e-01,-1.138370e-01,-2.419002e-01,1.067011e+00,3.829212e-01,4.592997e-01,-8.596434e-02,9.062645e-01,9.555226e-01,
1.822219e+00,-2.084502e+00,-2.076538e-01,2.281474e+00,-4.678712e-01,-4.836811e-01,8.022707e-01,-7.808192e-01,-2.345879e+00,6.373462e-01,-3.741415e+00,2.456228e-01,2.232921e+00,-1.187647e+00,1.203126e+00,1.285122e+00,4.036598e-02,2.129839e+00,-5.642481e+00,-1.797168e+00,3.658114e+00,1.180354e+00,1.051386e+00,-6.453199e-01,-2.105550e-02,-6.857821e-02,4.105433e+00,-1.364861e+00,5.488298e-01,2.185196e-01,-4.882000e-01,1.705743e+00,3.582582e+00,1.981295e+00,5.573003e-01,2.275948e+00,-2.310311e-02,-1.416931e+00,9.541294e-01,1.692932e+00,-1.169232e+00,2.005578e+00,2.641490e-01,1.099396e-01,2.526848e-01,7.697511e-01,2.018550e+00,4.420348e-02,2.033855e+00,6.105284e-01,
-7.306820e-01,1.288027e+00,2.987406e-01,9.197401e-02,-1.705948e+00,-6.819659e-01,4.880225e-01,-6.245955e-01,9.643255e-01,9.553335e-01,6.977297e-01,1.660158e+00,2.713113e-01,-7.421235e-01,4.249226e-01,8.873528e-01,8.649155e-01,4.386441e-01,6.435533e-01,-9.818419e-01,3.617045e+00,2.635637e-01,1.174046e+00,-5.149059e-01,-3.957350e-02,6.264940e-01,2.901474e+00,9.930333e-01,9.956887e-01,1.151637e+00,-4.080101e-01,-6.313874e-01,1.094301e+00,1.000110e-01,-3.166239e-01,2.684113e-01,2.237718e-01,8.861957e-01,3.167214e-01,-1.521643e-01,-9.689601e-01,-7.951138e-01,-5.427537e-01,5.477313e-01,4.736409e-01,4.927053e-01,1.218445e+00,5.917119e-01,6.814271e-01,4.156507e-01,
3.287145e-01,1.784607e+00,2.304945e+00,8.457555e-02,-1.830804e+00,-9.618175e-01,1.160797e+00,2.068911e+00,2.125215e+00,1.538668e+00,6.368247e-01,8.143235e-01,1.704148e+00,4.508882e-01,1.690999e+00,3.779264e+00,2.955082e-01,1.243102e+00,1.756464e+00,2.620583e+00,1.523539e+00,-9.208726e-01,2.059486e+00,-1.248119e+00,4.258430e-03,-6.775410e-01,4.864020e+00,2.392365e+00,-3.571844e-01,2.712447e-01,-2.195218e+00,4.311288e+00,4.727348e+00,1.101398e+00,-4.047239e-01,3.805788e-01,-3.723893e-01,1.007862e+00,1.000748e+00,4.082892e-01,-5.540204e-01,4.252384e-01,-1.710488e-02,-5.983090e-01,8.167078e-01,-7.177096e-01,4.150130e+00,-1.852814e-01,3.429291e+00,3.317692e+00,
-1.366542e+00,6.015111e-01,1.315299e+00,-1.497953e+00,-1.905600e+00,3.674912e-01,4.327252e-01,8.048916e-03,-3.055117e+00,8.837985e-01,1.895261e+00,1.523568e-01,-1.631558e+00,-4.397755e-02,5.324267e-01,1.368536e+00,1.896288e-01,-6.008244e-01,-3.956090e+00,-2.436535e-01,5.697412e-01,-4.364212e-01,-1.291468e+00,-7.169642e-01,2.791500e-02,-1.288153e+00,7.977720e-03,-9.252570e-01,-1.646140e+00,2.957235e-01,-7.432765e-01,7.187642e-01,3.529297e-01,-1.640466e+00,-2.434627e+00,-8.579336e-01,-1.049612e+00,2.146650e-02,1.170206e+00,1.257425e+00,-1.471210e+00,8.798215e-01,-8.177701e-01,9.489034e-01,7.591442e-01,2.838994e-01,-1.006418e+00,6.585823e-01,-3.725776e+00,1.038092e+00,
9.171826e-01,6.811015e-01,-1.383217e-01,1.029251e+00,3.458673e+00,-1.024915e+00,1.541739e+00,1.387065e+00,-1.088977e-01,4.068385e+00,1.515707e+00,4.618229e-01,-1.807404e-01,-8.815812e-01,-9.575564e-01,1.829702e+00,-5.320954e-01,-3.864310e+00,4.383314e+00,3.329401e+00,7.285525e+00,1.212867e+00,3.557021e+00,8.505608e-01,2.841950e-02,-1.558428e+00,3.847883e+00,8.964905e-01,4.356236e-01,1.537173e+00,7.517733e-01,1.465868e+00,4.177185e-01,1.278047e+00,3.132089e+00,4.581087e+00,7.965960e-02,2.156083e+00,1.110687e+00,1.636711e+00,-9.979687e-02,7.634144e-01,-3.894416e-01,-6.703209e-01,4.831356e-01,2.068025e+00,1.973703e+00,1.026414e+00,2.505040e+00,-1.944448e+00,
1.392760e+00,1.752899e+00,1.370447e+00,-1.452200e+00,-1.845948e-01,-5.856597e-01,-8.203412e-01,4.114882e-01,-2.903006e-02,2.305425e+00,1.896510e+00,1.221149e+00,1.379221e+00,3.616780e-01,3.101092e+00,5.417549e+00,3.336824e-01,1.093591e+00,1.604269e+00,1.633902e-01,2.665799e-01,5.440579e-04,1.223784e+00,-1.685252e-01,-4.448710e-02,5.355932e-01,2.600926e+00,-3.042036e-01,1.920171e-02,6.758510e-01,-1.272146e-01,4.089874e-01,1.422464e-01,-8.987849e-01,5.831211e-01,1.973447e+00,-9.788780e-01,2.237668e+00,-9.236461e-01,2.837257e+00,-8.241175e-01,8.486144e-01,-2.958108e-02,-2.978278e-01,6.711687e-02,2.119095e+00,5.116484e-01,-2.122715e-01,2.150292e+00,1.462184e+00,
-4.183542e-01,-3.425317e-01,-5.787174e-02,-2.591200e-01,-1.490353e-01,4.802994e-01,-1.022325e+00,2.822772e-01,-3.258969e-01,-6.788190e-01,-1.184576e+00,8.768372e-02,-4.432654e-01,-1.744965e-01,-2.662001e-01,1.936412e+00,-5.547379e-01,-7.351369e-01,-9.510201e-01,-8.365223e-01,-1.825221e+00,2.654496e-01,-9.496000e-01,-2.937569e-01,3.631790e-02,-2.445381e-01,-3.780526e-01,-3.732136e-01,-3.635589e-01,1.580260e-02,-6.746111e-01,4.028663e-01,-2.416466e+00,5.934302e-01,2.127567e-02,2.048767e-01,-1.661511e-01,2.373017e-01,1.761763e-01,-8.572975e-01,2.292428e-01,8.202089e-01,-6.462672e-01,-5.838910e-02,-3.850808e-01,3.626235e-01,2.045732e-01,-2.940555e-01,-1.066464e+00,-2.204040e-02,
5.272675e-01,-6.296782e-01,1.796057e+00,-2.320570e+00,3.818822e-01,-5.820503e-01,-6.424771e-02,-2.786621e-01,1.036078e-01,1.042977e+00,8.360778e-02,6.208571e-01,8.552150e-01,1.999233e-01,9.025385e-02,-1.048120e+00,-2.206725e-01,-1.179862e+00,-8.513067e-01,2.018449e+00,1.451804e+00,1.570704e+00,-9.178228e-01,-1.109029e-01,3.876500e-02,9.931703e-02,1.303553e+00,1.242068e+00,2.652099e-01,-5.943495e-01,1.676247e-02,-3.513854e+00,-9.228470e-01,5.686203e-02,-1.915462e-01,1.984087e+00,-6.205623e-01,9.303031e-01,1.411489e+00,8.975861e-02,-1.357320e-01,1.343210e+00,-1.283573e-01,5.585184e-01,-4.837454e-01,-8.622668e-02,6.020805e-01,-1.285496e-01,-9.772393e-01,8.636845e-01,
3.961468e-01,1.454670e-01,3.018358e-01,-2.254016e-01,6.489556e-02,1.084177e-01,-6.327257e-01,7.243969e-01,-2.856401e-01,1.684634e-01,-7.469739e-01,-1.044777e+00,6.807045e-01,-8.232087e-02,-1.185727e+00,-4.445899e-01,-4.224441e-01,6.842076e-01,9.892915e-01,-5.931324e-01,-1.783017e-01,-1.863664e-01,-1.016677e+00,6.272494e-01,-1.822180e-02,2.762100e-01,-6.478930e-01,-4.809270e-01,-1.527830e+00,9.203149e-02,-9.469762e-03,-8.933644e-01,1.507728e-01,2.946270e-01,5.295935e-01,-1.430090e+00,1.484257e-01,-9.775995e-02,-1.045186e-01,-1.039994e+00,6.401466e-01,2.806462e-02,3.940031e-01,-3.054658e-01,-1.100254e+00,9.801741e-02,-5.862186e-01,3.125494e-01,2.702683e-01,-1.186394e+00,
6.519946e-01,7.832100e-01,1.100553e+00,2.400566e-01,8.903056e-02,-3.029276e-01,-2.416678e-01,1.273665e-01,-1.142212e+00,-3.409083e-02,2.038245e+00,-6.766267e-01,1.197580e+00,-3.213226e-01,1.562179e+00,-8.962554e-01,-1.595913e-01,2.847863e+00,-1.487409e+00,2.518326e+00,4.120594e-01,-3.858542e-01,-1.145726e+00,1.607355e-01,8.835060e-03,3.534728e-02,-1.251568e+00,-3.213573e-01,-5.850470e-01,8.864465e-01,1.936855e-01,7.890698e-01,-5.305421e-01,9.751120e-01,6.127430e-01,-1.979319e-01,1.465441e-01,7.713945e-01,8.805712e-01,4.082412e-01,-1.042020e+00,-2.759131e-01,1.234600e+00,4.878809e-01,7.794266e-02,6.100152e-01,1.436508e+00,1.720432e-01,-1.894280e-02,1.366986e+00,
4.621870e-01,1.597571e+00,1.355363e+00,-6.879988e-01,2.573099e+00,-8.221130e-01,1.853644e-01,6.827646e-01,1.021471e+00,-3.056919e+00,1.459630e-01,-4.000565e+00,1.860018e+00,7.782359e-01,-4.243370e+00,2.871270e+00,6.351309e-01,1.547793e+00,3.198346e+00,1.480897e+00,1.047963e+00,1.788134e+00,1.018384e+00,1.720376e+00,1.661490e-02,1.378186e+00,-7.968253e-01,-2.384543e+00,2.005838e-01,9.086542e-01,5.649674e-01,2.028570e+00,1.464283e+00,-1.400453e+00,1.354259e+00,-7.117864e-01,2.646340e-01,2.734961e+00,1.496112e+00,-1.292069e-01,-3.038854e-02,2.315711e-01,6.565123e-01,-1.286436e-01,-8.182584e+00,2.343696e+00,-2.444042e+00,4.662297e-01,1.602431e+00,2.153147e+00,
-5.400193e-01,1.273156e+00,9.837167e-01,-1.715588e-01,2.010175e-01,-1.642300e-01,-6.108962e-01,-9.682456e-01,1.031930e-01,-8.744762e-01,-1.649721e+00,-1.502785e+00,-2.092407e+00,4.033432e-01,5.548508e-01,3.498778e-01,1.111181e-01,-1.331526e+00,2.359287e-01,-1.241248e+00,6.140232e-01,-4.820020e-01,-1.753789e-01,4.383071e-01,3.001520e-02,-8.479658e-01,1.120035e+00,-5.015344e-01,7.841554e-01,-6.128722e-01,2.806890e-01,-6.101779e-01,-8.943246e+00,9.111277e-01,5.300745e-01,-3.788570e-01,5.648980e-01,-8.721232e-01,4.396317e-01,-1.623324e-01,1.811232e-01,-2.526391e-01,1.141963e-01,-2.481396e-01,2.920412e-02,3.128280e-01,-4.186948e-01,-9.307503e-01,-2.528695e+00,7.519178e-01,
6.230818e-02,7.454640e-01,-4.377323e-01,-1.644433e+00,5.566062e-01,-1.600907e-01,3.673470e-01,-3.689860e-01,7.750919e-02,5.276994e-01,1.583077e+00,-1.370237e-01,8.402514e-01,2.766057e-01,-5.489473e-01,-1.424459e+00,2.693986e-01,2.722245e-01,8.168867e-01,7.652189e-01,1.080962e+00,2.927372e-01,3.255965e-01,3.584565e-02,2.345690e-03,5.545069e-02,6.949785e-01,-4.147059e-01,7.581869e-01,-4.796124e-01,-2.838441e-01,1.829627e+00,1.381038e+00,-6.533417e-01,7.046822e-01,4.515754e-01,-3.279425e-01,1.610217e-01,-5.431117e-01,1.222522e-01,-4.639058e-01,6.392352e-01,6.042181e-01,1.586765e-03,9.123864e-01,-3.539820e-01,-1.398442e+00,-7.622991e-02,5.293257e-01,8.453631e-02,
-7.695690e-02,4.195243e-01,9.770750e-02,1.998914e-01,6.795627e-01,1.041720e-01,-1.157934e+00,-4.380268e-02,2.155501e-01,4.378772e-01,9.474088e-01,1.302724e+00,6.124724e-01,2.678630e-01,6.972014e-01,1.794817e-01,-2.575075e-01,5.091888e-01,1.196770e+00,-1.335597e-01,-3.479743e-01,-5.934022e-01,-8.590361e-01,-2.159337e-01,4.685710e-02,-1.922072e-01,1.454957e-01,3.111055e-02,-8.263659e-01,3.718373e-01,2.349404e-01,4.803160e-01,1.648441e+00,8.861224e-02,6.513200e-01,5.690021e-02,2.423631e-03,-4.020564e-01,-1.096753e+00,1.909204e+00,-5.014248e-01,-1.751983e+00,2.171696e-02,1.264066e-01,1.083623e+00,9.352389e-01,-2.403282e+00,3.022911e-01,1.726736e-01,1.172539e-01,
1.764741e+00,1.011840e-02,4.675394e-01,1.201048e+00,9.322385e-01,1.258640e+00,-2.091795e+00,2.441894e+00,1.125298e+00,7.741293e-02,2.971792e+00,1.236582e+00,1.316961e+00,1.751160e+00,2.263022e+00,1.402524e+00,-2.058507e+00,2.992886e+00,6.606453e+00,2.382677e+00,-7.486457e-01,-1.374403e+00,-3.676741e-01,1.329610e+00,1.344930e-02,-1.101855e+00,5.769150e-01,1.190658e+00,-1.846477e+00,1.683030e+00,-4.504269e-01,-1.221602e+00,3.598644e+00,1.939609e+00,2.671332e+00,-7.570813e-01,-2.153331e-01,2.994020e+00,8.689803e-01,6.173331e-01,2.717278e+00,5.556040e-02,6.386634e-01,-1.083336e+00,-2.101178e-01,1.093897e+00,-1.664333e+00,2.715477e+00,1.417357e+00,1.791431e+00,
1.016478e+00,9.617741e-01,1.191541e+00,-3.978477e-01,1.878216e+00,-7.347957e-01,3.166377e-01,-2.032351e-01,-4.073956e-01,-1.960387e+00,6.554140e-01,5.637969e-01,2.166376e+00,-4.633508e-02,-9.549615e-01,-7.456080e+00,3.952836e-01,2.285613e+00,-1.383611e+00,-1.291807e-01,2.689065e+00,1.330741e+00,2.125890e+00,1.248637e+00,4.137170e-02,3.359831e-02,2.046786e+00,-1.864353e-01,9.723511e-01,-1.353683e+00,-1.687731e+00,8.029362e-01,-7.000931e-01,9.796802e-01,2.868061e-01,-1.110607e+00,4.286869e-01,2.232212e+00,-1.537023e-01,1.696824e+00,-1.985648e-02,3.213062e-01,-7.923225e-02,-2.072356e-01,1.051072e+00,-9.171961e-01,9.995457e-02,7.115118e-01,1.256855e-01,1.499757e+00,
5.631477e-01,3.335066e-01,-3.249382e-01,3.977766e-01,6.751500e-01,-1.036706e-01,8.220669e-01,7.035927e-02,-2.838731e-01,9.528801e-01,-2.277514e+00,-9.722913e-01,-5.061980e-01,4.080619e-01,1.183483e+00,-6.275164e-02,-8.385353e-02,-1.491299e+00,1.157669e+00,-1.607797e-01,1.449388e-01,-9.348406e-02,8.300636e-01,-5.520687e-02,-1.447240e-02,4.454998e-01,-4.122986e-02,-3.168522e-01,-5.765607e-01,-2.760599e-01,-1.390323e-02,4.675910e-01,-2.171367e+00,-2.840593e-01,6.892179e-01,-1.061870e-01,-3.628915e-01,4.930020e-01,-1.858997e+00,7.510888e-01,1.448955e-02,3.930433e-01,5.433469e-01,-4.627947e-01,-1.653277e+00,1.048164e+00,3.798262e-02,-8.306955e-01,-6.110225e-01,-8.007675e-01,
-6.282578e-01,1.709033e+00,8.000912e-01,1.437057e+00,1.164774e+00,-5.835295e-01,1.106170e+00,1.620167e+00,-5.338914e-01,1.080219e+00,-3.577602e-01,2.245664e-01,-1.037127e+00,2.957948e-02,1.811890e-01,1.861622e+00,-3.123100e-01,1.662455e+00,5.364262e-01,8.660370e-01,8.111730e-01,2.339797e-02,3.550512e-01,3.317213e-01,4.553730e-02,-4.646230e-01,-2.578430e+00,9.385712e-01,-1.207688e+00,1.119458e+00,5.969841e-02,-1.480947e+00,-1.010397e+00,-8.690877e-02,2.615742e-01,9.444423e-01,2.354449e-01,-3.584537e-01,9.760470e-01,-3.326611e-01,1.020479e+00,-1.614372e-01,-9.742549e-02,-5.916479e-01,-1.059966e-01,1.967813e+00,6.876465e-01,-4.342219e-01,2.393980e-01,1.408927e-02,
-3.549990e-03,-3.169580e-02,-3.320740e-02,1.624860e-02,2.316380e-02,3.670870e-03,-5.133840e-02,-2.526830e-03,-3.190640e-02,-5.756130e-04,3.777530e-02,-3.510480e-02,-3.503080e-02,-4.592580e-02,7.660200e-03,-8.339580e-03,-1.513810e-02,2.962650e-02,-2.013870e-02,3.351310e-02,-4.188860e-02,2.928690e-02,-4.014600e-02,7.166610e-03,-2.509890e-02,9.203320e-03,-4.318390e-02,-5.882040e-02,-3.852560e-02,-6.245670e-04,3.406040e-02,2.779130e-03,1.440030e-02,2.284470e-02,-4.209740e-02,-1.769420e-02,-1.857970e-02,-1.190720e-02,1.127450e-03,-2.074700e-03,-5.766180e-02,4.276110e-03,-1.667680e-02,-2.768920e-02,-3.582860e-02,2.452790e-02,1.304140e-02,-2.682230e-03,-5.582580e-02,-3.912800e-02,
2.056160e-01,-1.051151e+00,1.044942e+00,9.963454e-02,-3.448863e-01,3.277758e-02,1.269628e-01,-6.188094e-01,6.455875e-01,1.606614e+00,7.326936e-01,-2.869689e-01,7.521170e-01,-6.868083e-02,3.866657e-01,-1.872212e+00,-7.405174e-02,4.453365e-01,8.001187e-01,3.455253e-01,2.369587e-01,-3.806321e-01,-4.798738e-01,-8.063679e-01,2.828200e-02,7.076696e-01,4.772307e-01,2.019087e-01,4.131997e-02,4.466047e-01,-6.660407e-01,-4.165300e-01,-6.386911e-01,2.298320e-01,-1.269069e+00,6.813325e-02,-4.562770e-01,8.373399e-01,-7.029659e-01,-2.147929e+00,-1.109345e-01,3.644842e-01,-7.202628e-01,1.023838e-01,-9.674759e-01,9.018068e-01,-5.310330e-01,3.806620e-01,6.236050e-01,-7.535202e-01,
-1.842824e-01,-1.201057e+00,9.104466e-01,-3.140553e-02,-9.301286e-01,1.718193e-01,5.207568e-01,-5.615839e-01,3.445387e-01,-9.396671e-01,-1.195962e+00,-1.824999e+00,-7.284558e-01,-4.034840e-01,-1.237298e+00,-4.451723e-01,-2.547599e-02,-9.849097e-01,-7.236823e-01,-6.103333e-01,-2.093774e-01,4.533662e-01,-5.004166e-01,-4.773824e-01,4.305520e-03,-1.966436e+00,-8.718818e-01,-1.446143e-01,-1.209618e+00,2.446190e-01,-1.760615e-01,-4.433249e-01,-2.867847e+00,-1.884873e+00,5.912027e-01,-3.548299e-01,-3.055885e-01,3.660764e-01,-5.397851e-01,4.226975e-01,3.273385e-01,1.410910e+00,8.922502e-01,-1.842527e-01,6.170905e-01,-6.154281e+00,-1.968969e+00,-4.544058e+00,-1.087956e-01,2.764045e+00,
-1.241885e-01,5.935904e-02,-3.281207e-01,7.703418e-01,-2.252990e-01,-6.051208e-02,-3.191231e-01,1.430559e-01,-1.421433e-01,-1.322703e+00,9.676133e-01,8.405170e-01,8.885946e-02,1.340583e-01,5.790578e-01,1.011917e+00,2.445628e-01,1.393035e+00,1.463201e+00,6.329960e-02,1.419958e+00,-6.760079e-01,-3.222128e-02,-7.441158e-02,-4.075480e-02,1.684673e-01,8.298180e-01,-7.818007e-02,-1.398123e+00,1.238274e-01,-4.055001e-02,-1.288996e+00,-3.029014e-01,4.402821e-01,4.459610e-01,-1.156297e+00,2.519059e-01,3.245059e-01,-2.894203e-01,1.408772e+00,-3.630263e-01,9.679954e-02,4.439756e-01,1.475831e-01,-6.953487e-01,4.768983e-01,-2.996662e-01,4.809227e-01,5.893322e-01,-6.194142e-01,
9.771862e-02,1.493418e+00,-9.226516e-01,2.678666e-01,1.536646e+00,-2.749468e-01,1.083602e+00,-4.594986e-01,1.917206e-01,1.298569e+00,4.054435e-01,-3.299737e-01,4.668317e-01,-1.864975e-01,-1.133037e-01,1.029978e+00,9.774372e-01,1.253771e-03,-1.143708e-01,1.510581e+00,2.344010e+00,1.263810e+00,5.020337e-01,-3.639580e-02,3.798880e-02,5.133008e-01,7.673565e-03,-2.887903e-01,2.369222e-01,-1.161586e+00,6.413274e-01,9.757646e-01,9.910949e-01,7.888412e-01,3.144050e-01,1.905684e-01,-4.209074e-01,-8.605790e-03,6.682794e-02,-1.358709e-01,-3.088028e-01,6.998971e-01,-1.111800e-01,7.960241e-02,9.860184e-01,1.531586e-02,6.156041e-01,-8.413533e-01,-5.402297e-01,-9.497573e-01,
-2.750669e-01,-2.785397e-01,1.031467e+00,6.844682e-01,-7.714605e-01,-3.455192e-01,2.845141e-01,-7.231521e-01,5.371603e-01,3.673874e-01,4.871414e-01,4.277283e-01,-2.246836e-01,-9.042087e-01,1.150922e+00,1.741302e-01,-1.641374e-01,9.614383e-01,3.664041e-01,1.660635e+00,1.395034e+00,1.938024e-01,9.188982e-01,-1.545089e-01,-1.126980e-03,3.742191e-01,8.573307e-01,4.698816e-01,7.900558e-01,5.246450e-01,3.221273e-02,4.802330e-01,3.444844e+00,-1.131157e-01,2.161071e-01,-1.516254e+00,2.067842e-01,1.326086e+00,3.091145e-01,-1.782812e-01,-5.446940e-01,9.558766e-02,2.364663e-01,6.791040e-02,1.234814e+00,-3.728860e-01,-1.820973e-01,-4.205443e-01,-1.154767e+00,1.896533e+00,
1.282994e-01,2.105601e+00,1.908503e+00,1.494963e+00,3.734228e-01,-1.024677e+00,1.276672e+00,1.646134e+00,2.402967e-01,2.659048e+00,2.552242e+00,1.418232e+00,1.870682e+00,-8.351325e-01,4.850876e-01,3.889308e+00,-2.974490e-01,1.150595e+00,-7.463779e-01,2.460422e+00,4.557477e+00,2.589210e+00,-1.817337e+00,7.823882e-01,1.747590e-02,6.832805e-01,4.296256e+00,1.872341e+00,-2.213347e+00,1.426270e+00,3.684294e-01,2.444748e+00,2.909408e+00,2.203494e+00,-6.895012e-02,1.091057e+00,-1.101948e+00,7.478331e-01,2.908782e-01,3.969583e+00,-7.247956e-01,3.980834e-01,-4.603815e-01,-2.443056e-01,2.346284e+00,5.640078e-01,2.272672e+00,-3.824077e-02,4.041576e+00,-1.984934e-01,
4.382720e-04,-3.965600e-02,1.163820e-02,3.237990e-02,-1.843580e-02,-5.015960e-02,-3.602950e-02,-2.388900e-02,-1.936890e-02,-5.231490e-02,-8.994830e-03,-2.897200e-03,7.253500e-03,2.559980e-04,2.645900e-02,2.848960e-02,-6.385980e-04,4.394370e-04,3.437950e-02,-4.277020e-03,2.051800e-02,2.971990e-02,3.501910e-02,-1.933670e-02,-1.046400e-02,-1.417410e-02,-2.288990e-03,2.944350e-02,2.022860e-02,1.405120e-02,-2.934890e-02,-2.058850e-02,-4.413220e-02,-2.492860e-02,1.514080e-03,-1.166850e-02,4.240040e-04,-5.661460e-05,-5.636780e-02,6.804710e-03,-3.602760e-02,-4.260920e-02,-4.741720e-02,-4.044090e-02,4.494350e-02,-4.857040e-02,-2.724000e-02,-1.974690e-02,3.081610e-02,1.001570e-02,
-3.465802e-01,3.251445e-01,-1.860872e-01,-2.803776e-02,-4.321993e-01,7.441831e-03,-4.454456e-01,-6.291723e-01,-4.139061e-01,3.829201e-02,1.183311e-01,-1.029815e+00,-6.675318e-01,3.118974e-02,9.816828e-01,8.763330e-02,-6.995182e-02,3.018378e-01,-3.989881e-01,4.940942e-01,8.734074e-01,-2.425659e-05,1.363378e+00,-7.103693e-02,-2.413520e-02,1.067662e-01,-2.047644e-01,-2.798474e-01,-5.979119e-02,-1.248137e-01,2.867484e-01,-3.363311e-01,-9.908876e-02,-7.035777e-02,-6.492112e-01,6.621035e-01,2.057300e-01,-6.734000e-01,1.160913e-01,-1.262458e-01,-4.631122e-01,2.876844e-01,2.721108e-02,-1.928733e-02,-4.547258e-01,-2.767486e-01,7.896230e-01,-6.232036e-01,9.551503e-03,1.184817e+00,
1.277728e+00,1.615827e+00,2.133276e+00,9.337847e-01,2.210736e+00,-5.376469e-01,1.876537e+00,8.923355e-01,-1.310336e+00,3.329479e+00,4.451688e+00,9.820468e-01,-1.504114e-01,9.421006e-01,3.203080e+00,3.087098e+00,3.925467e-01,1.547593e+00,4.081533e+00,1.233917e+00,-6.865868e-01,9.836282e-01,3.332137e+00,-4.996331e-01,-3.164330e-02,3.951384e-02,3.298824e+00,1.469007e+00,-4.980849e+00,-4.134728e-02,6.403425e-01,4.641048e+00,5.200966e+00,2.297231e+00,9.032754e-01,1.277618e+00,-5.156224e-01,3.408222e+00,1.008847e+00,3.283108e+00,-2.002031e+00,1.245711e+00,-5.795026e-01,-6.434928e-01,3.138295e+00,1.039157e+00,1.324956e+00,9.841976e-01,3.681598e+00,1.524783e+00,
-2.814141e-01,-4.663811e-01,1.773275e+00,-4.373105e-01,5.494738e-01,-6.528515e-02,-4.390968e-01,4.355526e-01,-3.234121e-01,-7.203364e-02,-2.691496e-01,-3.391490e-01,-8.375970e-01,5.186528e-01,9.559532e-01,-1.756975e+00,4.517049e-01,5.480694e-01,4.968614e-01,-3.447086e-01,1.401271e+00,-7.626987e-01,4.996368e-01,6.751658e-01,-4.073450e-02,2.191341e-01,6.551995e-01,5.885872e-01,1.146314e-01,2.082990e-01,-3.264636e-01,1.900289e+00,1.278706e-01,4.464503e-01,1.142732e+00,3.026491e-01,-8.052954e-02,-9.263960e-01,1.203914e+00,-4.873486e-01,-3.829507e-01,-6.530309e-03,-6.888141e-01,-5.146649e-01,6.310477e-01,7.518904e-01,1.553596e+00,3.459640e-01,-4.358426e-01,-1.342734e-01,
1.574544e+00,6.399445e-01,1.667667e+00,4.088426e+00,-2.909777e+00,-1.099313e+00,2.536178e+00,-8.205213e-02,2.495675e+00,-1.841489e+00,2.556590e+00,-3.334779e-01,-1.786960e+00,3.814848e-01,1.708636e+00,2.451917e+00,2.907874e-01,3.101974e+00,-2.839839e+00,4.121471e+00,4.768978e+00,1.618566e+00,3.087408e+00,-9.320795e-01,6.019170e-03,-2.545288e-01,2.190047e+00,7.195038e-01,1.380011e+00,2.247126e+00,7.466462e-01,2.044185e+00,4.912263e+00,8.538189e-01,1.092353e+00,-9.474147e-02,6.363514e-02,-7.153198e-01,2.004835e+00,-2.590476e+00,-1.197983e+00,1.170763e+00,1.056492e+00,-4.548003e-02,3.016981e+00,1.385037e+00,1.464980e+00,-4.578887e-01,3.191682e+00,2.745283e+00,
-4.508044e-02,-1.463475e+00,7.923074e-01,-6.402411e-01,-1.109812e+00,-4.188264e-01,1.736982e-01,-7.231156e-01,2.557485e-01,-1.645399e-01,-1.068806e+00,-1.169936e+00,8.565416e-01,-1.518696e-02,1.442301e-01,-9.817015e-02,-5.899801e-01,4.421926e-01,-3.888002e+00,1.202918e+00,-4.927028e-02,9.193471e-01,9.429617e-01,7.132773e-01,-2.455810e-02,1.082499e+00,9.712335e-01,1.256687e-02,-7.523993e-02,1.508645e+00,1.829563e-01,1.264780e+00,1.134993e+00,7.029604e-01,-2.324832e-01,1.139378e+00,-1.266450e-01,1.056476e+00,1.603210e-01,1.375235e+00,-4.535390e-02,-2.601467e-01,9.961848e-01,5.035315e-01,6.959322e-01,-4.066909e-01,-6.830783e-01,5.552425e-01,-2.143518e+00,1.414946e+00,
3.585460e-01,-1.613424e+00,-9.484949e-02,-1.871758e+00,-8.913220e-01,5.124645e-01,-9.426582e-01,2.224097e+00,-1.436902e+00,-1.425867e+00,-3.257675e+00,-1.978072e-01,8.263162e-02,4.874212e-01,-1.156104e+00,-5.559397e+00,-1.407487e-01,-8.763337e-01,3.376343e-01,-1.607020e+00,4.903843e-01,3.953321e-01,-1.969334e+00,3.870204e-01,-4.605300e-02,6.160530e-02,1.703793e-01,6.930676e-01,-5.514191e+00,3.466793e-02,-8.519567e-01,2.991527e-02,-3.142144e+00,-3.240010e-01,6.788295e-01,-6.781666e-01,-5.040970e-01,5.786301e-01,-1.843815e-01,1.016205e-01,8.444494e-01,-1.017302e+00,2.093815e-01,2.713640e-02,2.232646e-01,-3.983290e-01,-2.933227e+00,-3.854448e-01,-5.069829e-01,-2.369074e+00,
5.823647e-01,2.702675e+00,-9.008690e-01,-4.527153e-01,-2.867355e+00,-4.454328e-01,1.289864e+00,2.360488e-01,2.125394e+00,5.306084e-01,7.835628e-01,-1.021778e+00,1.155962e+00,5.874675e-02,1.061237e+00,2.016663e+00,-2.113450e-01,-7.050841e-01,1.997300e+00,1.079039e+00,2.760231e-01,4.424441e-02,1.689533e+00,-1.966384e-01,-2.825380e-02,1.241829e-01,1.488063e+00,5.326111e-01,-3.793062e-01,5.589987e-01,-9.961712e-01,8.986021e-01,4.721206e+00,1.183630e+00,3.051348e-01,3.221266e-01,1.016348e-01,2.003853e-01,1.814134e-01,-8.127846e-01,-9.600088e-02,2.492901e-01,3.235764e-01,-8.557017e-02,-2.345680e-01,1.216173e-01,1.634903e+00,-4.566730e+00,-7.851502e-01,1.844126e-01,
