// The contents of this file are licensed under the Creative Commons
// Attribution 4.0 International License: https://creativecommons.org/licenses/by/4.0/
// Neural Network File Format by Kyle Julian, Stanford 2016 (generated on 04/06/2022 00:30:32)
7,5,5,50,
5,50,50,50,50,50,50,5,
0,
0,0,0,0,0,
0,0,0,0,0,
19791.091,0.0,0.0,650.0,600.0,7.5188840201005975,
60261.0,6.28318530718,6.28318530718,1100.0,1200.0,373.94992,
-7.207104e-02,-9.777144e-02,1.320942e-01,3.188715e-01,2.348109e-02,
1.263881e-02,1.307364e+00,9.016541e-02,5.460933e-01,-1.863866e-01,
1.818895e-01,5.668188e-01,2.307514e-01,-1.613084e-01,-9.509344e-02,
1.177790e-02,-1.295130e-02,-3.531610e-03,5.573410e-03,-7.539200e-04,
3.529847e-02,-6.747518e-01,-5.855829e-01,-5.623334e-01,2.007633e-01,
6.807676e-03,-1.255421e-01,3.662517e-02,6.474088e-01,-1.046429e+00,
-1.812739e+00,-5.020538e-02,-1.954156e-02,2.943868e-02,7.518963e-02,
-5.695562e-01,-6.831687e-02,7.290128e-02,3.095621e-02,4.744291e-01,
5.800357e-02,2.291261e+00,-6.093784e-02,2.844317e-01,4.968644e-01,
2.694068e-02,2.381972e-01,-1.681009e-01,8.366871e-01,-8.658457e-01,
-2.720887e-02,-1.373466e-01,1.437679e-01,7.403570e-01,-1.309395e+00,
8.218870e-02,1.242655e+00,-1.877012e-02,6.385073e-01,-1.041994e+00,
-4.782336e-02,-1.787168e-01,-9.487682e-01,-1.022632e-01,1.291863e-01,
-1.894590e-02,1.293162e-02,-1.605531e+00,7.639375e-02,-1.914165e-02,
8.688752e-01,-1.236637e-02,-3.277522e-02,5.102285e-01,-2.574272e-01,
-1.039637e-02,1.363994e+00,2.710321e-02,5.803178e-01,-1.124967e+00,
-2.989479e-02,-4.748566e-01,-3.399481e-01,-3.093923e-01,1.937037e-01,
-8.282050e-03,-4.599256e-03,9.704666e-03,6.825265e-01,8.402898e-01,
3.023374e-02,1.210743e-01,-2.160087e-01,1.881408e-02,-1.301733e+00,
4.823659e-03,5.355330e-01,-5.221445e-01,3.207727e-03,-1.020990e+00,
8.071532e-03,2.850342e-01,-2.790515e-01,8.085908e-01,-1.016931e-01,
2.316097e-02,-1.630100e+00,8.535171e-03,5.734328e-01,-7.429307e-01,
1.116838e-01,6.057169e-01,4.783556e-01,-6.004432e-01,2.146542e-01,
-1.289419e+00,5.481403e-02,-3.074583e-02,-7.193697e-02,-1.254301e-01,
8.967564e-02,8.533459e-01,-6.099036e-01,-2.010237e+00,9.373995e-03,
-1.035846e+00,2.383627e-01,-4.177799e-03,1.644382e-01,2.525582e-02,
-6.948236e-02,1.074649e-01,1.917022e-01,-1.131445e+00,-9.454921e-01,
-9.843381e-02,-2.337643e+00,2.236286e+00,-1.589363e-01,3.491950e-01,
-2.543334e-02,-6.200485e-02,4.105888e-01,-6.861559e-01,6.580523e-01,
-4.248894e-02,7.240462e-02,1.002936e-02,1.276959e-01,7.165169e-01,
2.835846e-02,-5.880082e-02,1.819673e-02,5.604777e-01,-1.484868e+00,
-1.102005e+00,-2.215567e-01,4.002059e-01,-5.148429e-01,3.395196e-01,
-1.376071e-01,-2.211526e-01,2.523518e-01,-1.413729e+00,5.415273e-01,
5.129427e-01,-1.903353e-02,1.452327e-02,-2.648329e-03,9.436637e-02,
-9.246210e-01,-1.697732e-02,7.625060e-01,9.668181e-02,1.264067e-01,
-9.573158e-01,1.713446e-01,-1.376109e-01,1.711864e-01,-2.917107e-01,
-5.101878e-02,4.457218e-01,7.790961e-01,-4.361286e-01,1.617350e-01,
-1.044989e+00,-6.236583e-02,3.034498e-02,-2.519901e-02,-8.187809e-01,
1.989566e-02,2.593933e-01,5.711709e-01,7.455710e-01,-1.396469e+00,
2.557587e-02,-1.446262e+00,1.323192e+00,1.242881e-01,-1.020036e-02,
-1.890071e-01,-1.900187e-01,1.483841e-02,2.154240e-01,1.535938e-01,
4.525292e-02,7.222143e-02,1.451547e+00,3.514142e-01,-1.339013e-01,
-1.308081e-01,-5.451092e-01,5.758621e-01,-1.041114e-01,-1.874671e+00,
-4.718597e-02,2.030411e+00,-2.284844e+00,-7.128549e-02,3.831918e-01,
-3.742941e-01,2.907790e-01,5.950287e-02,2.997677e-01,-1.514825e-01,
-1.833083e-02,-4.887887e-01,5.047059e-01,9.027544e-01,-1.222608e+00,
-1.630840e+00,1.522094e-01,4.417525e-03,1.230335e-02,-6.270965e-02,
4.935898e-02,-4.715510e-01,3.065701e-01,-1.370221e-02,1.928315e-01,
5.730030e-02,-1.132380e+00,-1.629325e-01,5.489785e-01,-2.804650e-01,
1.639320e+00,2.321032e-02,1.012516e-02,-1.591368e-01,2.390387e-01,
1.662388e-01,
1.544052e-01,
7.793666e-02,
-2.094250e-02,
-9.856819e-02,
5.017694e-01,
-3.282257e-01,
2.463919e-02,
5.608710e-01,
1.951365e-01,
2.483100e-01,
-1.735491e-01,
1.364872e-01,
5.866793e-02,
3.896266e-01,
1.727873e-02,
2.893553e-02,
2.704662e-01,
4.300711e-01,
-1.436116e-01,
3.521216e-01,
-1.615052e-01,
-1.730830e-01,
-6.312777e-02,
-3.444609e-01,
-7.586063e-02,
-1.139263e-01,
-3.098760e-01,
1.247829e-01,
2.669481e-01,
-1.930204e-01,
-3.379180e-01,
-6.476673e-01,
-1.055750e-01,
-2.746985e-01,
-2.511212e-01,
-8.118346e-02,
-5.758969e-01,
-8.268508e-02,
-4.663518e-01,
6.316707e-02,
1.802048e-01,
-3.341794e-01,
-3.345109e-01,
-2.269402e-02,
3.754681e-01,
-2.853216e-01,
1.288270e-01,
1.599524e-01,
6.305724e-01,
2.552675e-01,4.197206e-01,5.770124e-01,1.699240e-02,-8.277485e-01,-8.918355e-01,-1.153741e-01,1.090128e-01,8.188155e-03,-2.402954e+00,-1.462768e+00,8.598576e-01,-1.744721e-01,3.621904e-03,3.455319e-01,-4.504476e-01,-2.434558e-01,4.047060e-01,1.527491e+00,-8.038270e-01,1.119079e+00,-1.207898e-01,-3.155702e-01,1.619966e-01,1.516115e+00,6.435400e-02,-8.795699e-01,2.387182e+00,9.125962e-02,-1.278753e+00,-1.169175e-01,3.920192e-01,1.504716e+00,-2.095071e-01,-9.040834e-01,-4.433291e-01,1.105630e-01,-3.285221e+00,-1.206409e+00,1.343183e+00,4.668643e-01,1.878455e-01,-4.025940e-01,2.697858e+00,9.240955e-01,5.705225e-01,5.436508e-01,2.288800e-01,6.879852e-01,-1.590942e-01,
-2.890486e-01,-3.033728e-01,-1.271870e+00,-1.638610e-02,-6.217996e-01,-8.785019e-01,2.381917e+00,3.000453e-01,3.625736e-01,2.402064e-01,4.815172e-02,1.654168e-01,-3.598350e-01,1.176403e+00,2.752578e-01,-4.906344e-01,-7.344586e-01,-4.546155e-02,1.699308e-02,-4.826144e-01,1.803550e-01,-6.292753e-01,-4.625052e-01,1.950201e+00,2.356514e-01,1.480949e+00,-8.605924e-02,1.586522e-01,8.338460e-01,5.997257e-01,3.019058e-01,7.056465e-01,4.735798e-01,9.194220e-02,1.615431e+00,1.332315e+00,2.744266e-01,2.583803e+00,2.013730e-01,-1.752228e-01,1.184034e+00,-9.826911e-02,-3.297994e-01,-1.954696e-01,6.727210e-01,3.217624e-01,1.806979e+00,-1.255390e-01,-1.701452e-01,-2.152188e+00,
8.331066e-01,2.650929e-01,5.975153e-03,1.264720e-02,-8.235210e-01,4.499703e-01,3.366285e-01,-2.347190e+00,5.759010e-01,-9.448317e-01,8.367832e-01,9.172317e-01,4.461449e-02,4.482464e-01,-1.356793e+00,1.718883e-01,3.561805e-01,-1.077124e+00,-2.400932e-01,-1.377895e-01,-1.665101e-01,-5.811340e-01,-5.694049e-02,1.234941e+00,-1.735945e-01,4.177611e-01,6.842054e-01,5.589902e-01,-5.223066e-01,-4.051833e-01,-6.370873e-01,8.536289e-03,-4.799649e-01,1.248849e+00,-5.987504e-01,7.192351e-01,-1.627169e-01,-7.470747e-01,-1.144316e+00,-1.013093e+00,-5.347227e-01,1.435973e-01,2.342529e-01,-2.669872e-01,1.721001e-01,7.609741e-02,8.785275e-01,1.078991e+00,-7.930901e-01,1.080217e-01,
4.085919e-02,7.689338e-02,1.538566e-01,3.494630e-03,5.282413e-02,7.979945e-02,-1.261070e-01,-5.629872e-02,2.794117e-02,1.431267e-01,7.253313e-02,1.521979e-01,7.043460e-02,-1.133655e-04,9.314407e-02,7.757114e-02,4.327523e-02,4.254473e-02,8.220547e-02,1.414897e-01,3.476204e-02,9.276053e-02,1.468638e-01,-1.115804e-01,1.011434e-01,-9.077443e-02,1.273661e-01,4.225979e-02,8.296400e-02,2.081128e-02,5.919220e-02,-5.731676e-02,1.166458e-01,2.973626e-01,-6.574039e-02,-1.038669e-01,1.536049e-02,-7.216179e-02,1.749751e-01,1.833705e-02,1.821272e-03,3.222599e-02,6.090274e-02,2.209616e-02,-1.866376e-02,1.092520e-01,-8.464326e-02,6.447436e-02,7.167128e-02,1.510900e-01,
-4.673215e-01,8.809391e-02,1.126830e-01,-8.901070e-03,2.230749e-01,-3.752755e-01,1.439847e+00,-2.977345e-01,2.791540e-02,8.551738e-02,-7.902679e-03,1.045629e-01,-1.527562e-01,5.586217e-02,-3.546742e+00,2.255467e-01,5.744512e-02,-4.807051e-01,-1.902690e-01,4.247602e-01,3.666965e-01,2.399699e-01,1.419469e-01,4.832667e-01,4.032868e-01,6.067296e-01,2.223622e-01,8.513042e-02,-3.716718e-01,2.138606e-01,6.567346e-01,5.862111e-01,-1.102108e+00,-2.652320e-01,5.672065e-01,8.770161e-01,7.164543e-02,2.059316e+00,3.623987e-01,4.012585e-02,-7.899475e-01,1.420346e-01,4.520546e-01,-1.375671e-01,-7.748184e-02,9.271189e-02,1.097653e+00,-2.695735e-01,1.094043e-03,-1.848888e+00,
-2.913136e-01,3.979550e-01,-3.983700e-01,-3.276680e-02,8.312256e-01,-4.508523e-01,-5.403205e-01,-4.390060e+00,-2.181233e+00,-1.409172e-01,9.738848e-02,7.194366e-01,-1.165328e+00,2.623042e-01,4.490366e-01,-5.413635e-01,-1.050383e+00,2.586727e+00,2.010844e-01,1.122838e+00,-4.488867e-01,8.469571e-01,1.489892e-01,4.963340e-01,-3.246463e-01,-4.051815e-01,6.206390e-01,1.947997e-02,-1.289923e+00,-3.680628e+00,8.312809e-01,1.051697e+00,1.449890e+00,1.181262e-01,-2.263769e-02,3.901642e-01,-4.045079e-01,2.463366e-02,4.485901e-01,-8.304380e-01,-1.873025e+00,1.450687e-01,1.603808e+00,8.019980e-01,-3.960619e-01,-1.119673e-01,-2.969922e-01,-7.918831e-01,-1.185357e-01,-3.361287e-01,
-2.556650e-02,-3.784540e-02,8.199470e-03,-1.657810e-04,-4.280670e-03,-4.544470e-02,8.538700e-03,-3.448890e-02,1.839400e-02,1.933560e-02,1.839360e-03,-3.577150e-03,-7.473230e-03,-1.517560e-02,-1.375920e-02,6.372280e-03,-2.317830e-02,-3.575680e-02,-4.276260e-02,-2.141970e-02,1.985390e-02,-4.968910e-02,1.402060e-02,-1.357810e-02,-5.522460e-02,-1.988070e-02,4.242650e-03,-1.095590e-04,2.313640e-02,3.219670e-02,-8.095850e-03,2.101390e-02,-4.251600e-02,-5.458680e-02,-1.619220e-02,-2.695160e-02,-4.471670e-02,7.178690e-03,2.580640e-02,3.198910e-02,-2.061320e-03,-2.771370e-02,2.786450e-02,-1.512610e-02,4.542300e-03,-1.562720e-02,-3.885580e-02,-2.950650e-02,-6.110200e-03,1.244970e-02,
-3.158982e-01,4.238270e-03,-1.323216e-01,1.862380e-02,1.425516e-01,6.867319e-01,3.138957e-01,-9.227308e-02,-9.718966e-02,-4.790385e+00,-2.376836e-01,1.147717e+00,-3.138568e-01,-3.958273e-02,-1.001488e-01,-9.816790e-02,2.756321e-02,6.111028e-01,7.765459e-01,-2.610387e-01,6.964088e-01,-1.914544e-01,2.660078e-01,-6.044314e-01,7.458664e-01,-2.403356e-01,-6.751619e-01,-6.832311e-01,-1.677516e-02,4.277916e-01,2.576849e-01,-7.762266e-01,-1.652272e-01,-1.327600e-01,7.767636e-01,-4.212849e-01,1.298958e+00,-1.238690e+00,1.201329e+00,-9.029571e-01,3.642351e-01,2.140793e-02,3.469737e-01,-1.034098e+00,2.355340e-01,-3.790652e-01,-1.643452e-01,-2.833776e-01,1.265238e+00,1.301216e-01,
-5.317480e-02,-1.840600e-02,-4.999120e-02,2.694160e-02,-4.713561e-02,-5.412951e-02,-4.334880e-02,-2.478840e-02,-5.355610e-03,-2.102950e-02,4.246746e-03,-2.794080e-02,-3.691260e-02,-2.865620e-02,-1.898790e-02,3.702070e-02,2.938404e-02,-4.995640e-02,3.394363e-02,-2.716960e-02,-3.673570e-02,1.440955e-02,-3.335000e-02,-2.587683e-02,-9.567156e-03,-3.793570e-02,2.051208e-02,2.698878e-02,2.237344e-02,-4.801060e-02,-1.921791e-02,-3.286769e-02,-7.043176e-03,3.230690e-02,-1.470160e-02,-1.602260e-02,7.998534e-03,-1.768110e-02,-1.032570e-02,2.947306e-02,1.595892e-02,-5.666817e-02,8.720215e-03,4.106580e-02,-4.075480e-02,-4.982599e-02,-3.630040e-02,-4.739853e-02,-5.683924e-02,-2.935612e-02,
-9.906747e-01,-5.848026e-02,-1.546151e-01,2.718280e-02,-2.736053e-02,-7.270727e-01,4.753553e-02,-3.047242e-01,-4.197226e-01,1.139396e+00,-1.702267e+00,-4.007128e-02,-1.226796e-01,-2.380984e-01,-1.086292e-01,2.685286e-01,-6.481511e-01,-8.406925e+00,7.583571e-01,5.782040e-01,-6.256868e-01,5.284896e-01,3.759015e-01,2.090486e-01,1.110386e+00,-3.168021e-01,1.316774e+00,1.852406e-01,4.371064e-03,-2.014674e+00,-1.810557e-01,2.094972e-01,3.834714e+00,-6.979225e-02,-4.018861e-01,-3.095227e-02,2.391340e-01,6.911748e-01,-5.525620e-01,-7.068583e-01,-3.170470e-01,2.469429e-01,-7.618076e-01,-3.218993e-01,-7.517617e-01,1.405225e+00,4.239131e-01,5.203257e-01,4.067988e-01,2.865022e-01,
-3.682420e-02,-1.440260e-02,2.701240e-02,8.872690e-03,-3.012340e-02,-8.141500e-04,-6.659760e-03,-2.057660e-02,2.742020e-02,1.396530e-02,2.537990e-02,-5.486910e-02,-1.078890e-02,-2.785200e-02,-2.492710e-03,-3.751120e-02,-1.942010e-02,-2.443760e-02,-5.924460e-03,3.191350e-02,-3.054690e-02,-3.611570e-02,3.474830e-02,-4.892280e-02,2.273320e-02,-4.189620e-02,-9.548820e-03,-2.234910e-02,3.456900e-02,-5.163450e-02,-2.511360e-02,2.676310e-02,1.778360e-02,2.420870e-02,3.429240e-03,2.174280e-02,-4.654220e-02,-1.746370e-02,-4.204840e-02,-4.261390e-02,-3.222870e-02,-2.705050e-02,-1.370120e-02,-5.457450e-02,-3.789090e-02,6.553400e-03,2.753990e-02,-3.136750e-02,-4.630150e-02,-6.024860e-02,
-3.021864e-01,2.338142e-01,-1.472191e-01,-1.222590e-02,2.846264e-01,-1.931584e-01,-3.814410e-02,-3.419109e+00,7.705262e-02,-8.298883e-01,4.598442e-01,9.233554e-01,3.292794e-01,-1.270072e-01,-3.972824e+00,-4.285683e-01,2.930686e-01,2.956203e-01,-8.965484e-03,1.822361e-01,4.204424e-01,5.231668e-02,-2.423488e-02,-2.067746e-01,5.089664e-01,8.084030e-01,6.673295e-01,3.055600e-01,1.919032e-01,6.687172e-01,-2.459270e-01,7.177383e-01,-6.237906e-01,6.798038e-01,8.014650e-01,3.349282e-01,2.377738e-01,-7.818712e-02,-1.904406e-01,2.467154e-01,1.444460e-01,-4.148394e-02,5.438318e-01,-3.898503e-02,3.720030e-01,1.101042e-01,8.120173e-01,5.805510e-01,1.016546e-02,3.768273e-01,
2.916142e-02,8.410061e-02,1.248460e-01,2.735990e-03,4.484031e-02,3.138315e-02,-1.358372e-01,-1.842700e-02,7.967278e-02,1.076647e-01,5.035665e-02,7.691742e-02,9.240822e-02,5.949441e-02,4.482477e-02,1.693757e-02,1.181213e-01,9.104528e-02,1.732115e-02,1.066027e-01,2.280957e-02,9.055346e-02,1.471737e-01,-5.887504e-02,1.710424e-01,-5.032615e-02,7.355590e-02,1.744815e-02,9.487022e-02,3.152228e-02,8.701437e-02,1.514488e-02,1.191562e-01,2.447443e-01,-7.745392e-02,-1.203426e-01,6.105051e-02,-3.299910e-02,7.440802e-02,1.038988e-01,3.594262e-02,9.348938e-02,6.802142e-02,4.791289e-02,-2.242352e-03,1.443895e-02,-1.161031e-01,1.119230e-01,8.751736e-03,1.237611e-01,
5.213055e-01,1.075422e-01,2.520545e-01,1.299270e-02,8.879665e-02,2.504962e-02,7.073405e-01,1.289006e+00,1.179811e-01,4.879996e-01,6.881379e-01,3.215030e-02,4.554664e-01,-2.863897e-01,-1.716852e+00,-1.529957e-01,9.997519e-02,-2.491009e+00,5.238361e-02,1.017447e-01,-5.007570e-01,5.677652e-01,-3.919003e-01,2.830364e-01,2.937497e-01,2.974070e-01,3.844893e-01,-3.756709e-01,-3.207703e-01,3.588785e-01,4.240715e-01,-3.899252e-01,1.232311e+00,-7.636821e-02,6.529453e-02,3.396184e-01,-5.607873e-01,-1.863909e-02,-4.589321e-01,-1.485739e-01,-1.185963e+00,5.566738e-01,-7.843623e-02,-8.802614e-02,-2.663601e-01,1.421688e-01,-4.623452e-02,9.839152e-01,-1.934727e-01,-5.272299e-01,
-3.855750e-02,1.104480e-02,-3.312770e-02,3.227210e-03,-3.755240e-02,2.959030e-03,-4.767060e-02,3.120420e-02,-5.258620e-02,-3.501550e-02,3.287680e-03,4.517580e-02,-4.606240e-02,-4.168920e-02,-3.396810e-02,1.777280e-02,-4.442250e-02,2.955750e-02,-3.194760e-02,3.553030e-02,-1.754390e-02,-2.298810e-02,2.113630e-02,-5.048560e-02,2.116440e-02,2.364250e-02,-3.934530e-02,-1.877720e-02,-3.080080e-02,1.950660e-03,-6.289330e-03,-1.811300e-02,-1.651900e-02,-4.376510e-02,3.710690e-02,1.689620e-02,-3.928240e-02,3.249070e-03,4.046810e-02,-4.108190e-02,1.831500e-02,-2.120890e-02,-3.541910e-02,2.818170e-02,2.607510e-02,-1.611990e-02,8.762360e-03,-2.391320e-02,1.994440e-02,4.094850e-02,
1.478132e-02,-8.554587e-01,-8.562866e-01,2.501170e-03,-8.219687e-01,-1.578704e+00,-2.831390e-01,-2.420600e-01,-5.453627e-01,9.247575e-01,-9.056077e-01,-4.815110e-02,-5.786325e-02,-1.021871e+00,-1.574200e-01,-4.318493e-01,-5.409791e-01,-5.482195e-02,3.271446e-01,-3.320817e+00,6.595255e-01,7.659937e-02,5.851323e-01,-3.017463e-02,-7.577684e-01,1.159012e-01,1.841321e-01,8.235648e-01,-2.608983e-01,-6.088766e-01,6.794330e-02,8.610280e-01,1.184870e+00,-1.289557e-01,-9.618860e-01,6.408647e-01,-4.575558e-01,1.688881e+00,-2.553335e-01,1.953035e+00,-7.411430e-01,3.643940e-01,1.472582e-01,3.124840e-02,1.177972e-01,9.977400e-01,-2.006522e-01,2.743901e-01,1.049739e-01,1.586941e-01,
1.700374e-04,-8.736424e-01,6.776518e-02,4.054000e-02,-1.736619e-01,6.019309e-01,-1.128121e-02,-1.062735e-01,-6.347457e-01,-8.568205e-01,5.240883e-01,-1.137311e+00,1.242870e+00,5.226062e-01,-2.942554e-01,-5.948957e-01,6.645243e-01,1.270672e+00,4.008921e-01,7.635551e-02,-3.035934e-01,1.581383e+00,2.506872e-01,-8.931334e-02,-2.017854e-02,-2.519578e-01,-1.424897e+00,-9.981330e-02,-5.261480e-01,-6.511669e-01,4.861116e-01,-3.154370e-01,3.029917e-02,7.661637e-02,-5.538678e-01,-1.173975e+00,7.933243e-01,-3.183729e-01,-6.386015e-01,2.254223e+00,5.738417e-01,-1.245848e+00,6.632069e-01,-7.029603e-01,-8.418280e-01,3.658594e-01,-2.260772e-01,-1.780509e-01,8.162715e-01,2.333309e-01,
6.654595e-01,-7.758287e-02,5.710416e-01,-4.251690e-02,8.775584e-01,8.955514e-01,7.500244e-01,-4.589413e-01,-3.898423e-01,-2.135180e+00,-5.447912e-01,-1.938881e+00,4.256222e-01,1.721814e-02,-5.555544e-01,-1.842614e-01,2.033068e-02,9.364316e-01,1.413320e-01,-6.185327e-01,-6.632025e-01,1.186580e+00,1.987485e+00,-6.010618e-02,-3.860750e-01,-3.672518e-01,-6.984546e-01,-9.687327e-01,2.172434e-01,-3.237737e-01,5.686251e-01,5.724422e-01,3.424335e-01,3.283018e-02,-7.607220e-01,-4.514926e-01,4.341769e-01,6.234113e-01,-2.512198e-01,2.350070e+00,3.778372e-01,-5.892355e-01,2.518107e-01,-4.468364e-02,2.531233e+00,-2.447516e-01,5.154657e-01,8.144752e-01,4.020171e-01,6.119377e-02,
-1.178915e+00,2.771100e-01,5.022768e-01,1.156180e-02,5.910921e-01,-1.896144e-01,3.724677e-01,-4.955620e-01,5.604498e-01,-9.744421e-01,-1.277593e+00,-7.810547e-03,8.894273e-02,-5.646726e-01,-8.777808e-02,4.436511e-01,1.129538e+00,3.024494e-01,-1.800994e-01,2.019476e-01,8.591173e-02,3.230056e-02,4.615090e-01,7.878399e-01,-1.597505e-01,2.773544e-01,6.214088e-01,3.240955e-01,1.526358e-01,-3.976161e-01,-1.619290e+00,7.508778e-01,4.464548e-01,-5.679379e-01,-9.588476e-01,-1.273129e-02,8.074282e-02,-9.775893e-02,-6.283502e-02,-1.140298e-01,9.357706e-01,-1.431401e-01,1.474573e-01,3.366183e-01,2.232840e-02,3.817832e-02,5.079984e-01,-1.487287e-01,8.487487e-01,-3.228494e-01,
2.086670e-01,-1.526380e-01,-2.655552e-01,-2.734890e-02,5.829817e-02,-2.591128e-02,-9.076281e-02,-1.417345e-01,7.077089e-02,-1.566581e+00,-4.492064e-01,-4.552923e-01,3.017748e-01,-9.437339e-01,-8.554726e-02,-3.850833e-01,2.906381e-01,-4.985044e+00,6.305578e-01,-1.634979e+00,9.127710e-01,2.968146e-01,-5.763644e-03,1.581586e-01,-3.837805e-01,-9.261227e-02,1.199511e-01,-1.106919e-01,-1.472955e-01,8.769199e-02,-2.228749e+00,1.268488e-01,1.973372e+00,3.970560e-02,8.037340e-02,-1.207964e-02,2.816721e-01,1.538530e+00,4.882348e-01,9.258018e-02,-8.538107e-01,-1.593875e-01,4.474862e-01,-5.018440e+00,-6.476235e-01,3.010434e-01,3.521392e-01,-3.960643e-01,-3.006360e-01,-1.696409e-01,
-1.439950e-01,-2.918038e-01,-3.114080e-01,-3.540490e-03,1.951055e-01,-5.897401e-01,9.761751e-01,4.794165e-02,4.321681e-01,9.910135e-01,3.901141e-01,-4.933490e-02,8.279915e-01,1.163425e+00,3.984954e-01,3.634735e-01,-5.363107e-01,-3.472821e-01,7.236391e-01,-4.107034e-02,3.817699e-01,9.349631e-01,-1.166666e+00,4.328417e-01,3.051741e-01,-4.463566e-01,-2.508898e-01,-1.205908e-01,-1.153658e+00,6.779863e-01,-9.682856e-01,-4.375743e-01,1.377448e+00,3.533414e-01,-8.839627e-02,-2.389015e-01,1.939211e-01,-1.080135e+00,-5.623240e-01,1.428637e+00,-2.998163e-02,-9.410909e-01,1.150793e+00,3.445807e-01,2.069557e-02,6.657817e-01,-2.417654e-01,-1.798625e+00,-1.246254e+00,-7.117662e-02,
-5.365170e-01,3.966443e-01,6.540498e-01,-3.879670e-02,3.365648e-01,1.295213e-01,-3.271594e-02,-3.000058e+00,-3.415254e-01,-1.651615e+00,1.864622e-02,-1.664695e+00,-1.417140e-01,5.949042e-02,-3.068384e-01,-4.212659e-01,2.162319e-01,-4.922600e-01,1.089596e-01,2.225665e-01,-4.016885e-01,3.064360e-01,7.988416e-01,4.512785e-02,2.639598e-01,-7.600328e-01,9.783917e-01,3.205297e-01,3.579494e-02,-6.537787e+00,1.248724e+00,-6.898291e-02,-4.374902e-01,5.823401e-01,-3.359920e-01,1.032774e-01,-2.510442e-01,2.099776e-01,6.977410e-02,3.561043e-01,-7.195280e-01,-3.671951e-02,7.072842e-01,5.729640e-01,-5.715706e-01,-6.894626e-01,3.409505e-01,1.302991e-01,-9.990299e-01,-3.983762e-02,
-3.059965e-02,5.149929e-01,2.167045e-01,-2.259930e-02,5.513173e-01,-2.891188e-01,-8.472443e-01,1.702234e-01,3.178619e-01,-1.268839e+00,5.510988e-01,2.035509e+00,-1.057694e+00,-3.230025e-01,-6.377472e-01,3.873920e-01,5.549065e-01,-4.452550e-01,-2.351581e-01,5.741770e-01,2.953916e-02,-5.464265e-01,-7.894776e-02,-6.165923e-01,-1.346964e+00,6.150889e-02,8.338120e-01,-1.143726e+00,-3.252693e-01,7.982560e-01,-4.777563e-02,-3.947361e-02,-4.345832e+00,-1.123930e+00,2.702853e-01,-1.527682e+00,4.265242e-01,-2.983080e-01,6.138330e-01,-2.706542e+00,2.572943e-01,1.268133e+00,-4.895245e-01,-7.056268e-01,-5.622492e-01,-2.818404e-01,2.767975e-01,-2.142402e-02,-1.873081e+00,6.440971e-01,
2.467563e-01,4.468938e-01,9.360085e-02,-2.562950e-02,-5.036226e-01,5.195792e-01,-5.860829e-02,-3.702532e-03,-1.862983e-01,2.224920e-01,9.803650e-02,5.564233e-01,-1.475136e-01,5.912246e-01,5.950587e-03,8.565858e-02,-6.445405e-01,9.548872e-03,-4.517976e-01,-3.419950e-01,-5.437473e-01,-4.505173e-01,-2.625700e-01,2.232052e-01,-7.161794e-01,4.078479e-02,5.629629e-01,-5.786685e-01,1.181579e+00,-4.332777e-02,-7.328831e-01,3.744153e-02,-4.649595e-01,-4.706626e-01,2.606082e-01,-2.447942e-01,1.977010e-01,6.104055e-02,-1.120148e-01,-3.208908e-02,3.574805e-01,1.687132e-01,-1.760559e-02,-2.211756e-01,1.974751e-01,-2.435215e-01,1.814999e-01,4.005602e-01,3.733014e-01,2.437127e-02,
-4.314630e-02,-5.975430e-02,-5.316870e-02,8.954670e-03,-4.399680e-02,-2.445170e-02,4.393220e-02,-3.385500e-02,1.485600e-02,-8.598150e-03,-2.147820e-02,-4.145970e-02,-3.181140e-02,-2.217700e-03,-9.205280e-03,-4.264740e-02,2.990640e-03,2.462090e-02,-7.253380e-03,2.213390e-03,1.663310e-02,2.943290e-02,-1.881940e-02,2.390610e-02,-4.348260e-02,-1.333850e-02,8.762190e-03,1.863980e-02,-2.578660e-02,4.475800e-03,-1.911330e-02,3.849250e-02,3.581120e-03,-1.948010e-02,-2.444960e-02,1.462210e-02,-6.004790e-02,3.085850e-02,3.791300e-02,-2.883980e-02,-1.979920e-02,2.108940e-02,1.188180e-02,-2.644110e-02,2.843480e-02,-2.228790e-02,1.831550e-02,8.743240e-03,-8.521890e-03,-5.829910e-02,
4.408388e-01,-1.258977e+00,2.440716e-01,1.280950e-02,-2.870499e-01,-2.371838e-01,7.868084e-01,-1.226322e+00,-6.488051e-01,5.155184e-01,7.091853e-02,-9.750482e-01,5.706758e-02,-1.651682e-01,1.651533e-01,8.973948e-01,9.088546e-02,-1.159491e+00,-2.582267e-01,2.408033e-01,2.984148e-01,-9.126744e-01,5.783209e-01,6.790695e-01,4.087492e-01,-9.651434e-02,1.623416e-01,-2.114945e-01,-1.507010e-01,2.036177e+00,3.232208e-01,-2.814131e-01,-1.102176e+00,9.823783e-02,5.670871e-03,-5.037079e-01,1.823945e-01,1.142562e+00,3.736662e-01,-1.681561e-01,-2.186184e+00,3.932642e-04,4.660276e-02,-5.358978e-02,1.152742e+00,9.796581e-02,2.331216e-01,-9.149936e-02,7.318257e-02,-5.439692e-02,
-5.894766e-01,2.711897e-01,-3.032727e-01,1.461110e-02,2.632959e-01,1.678614e+00,-5.006651e-01,6.382325e-02,-1.667992e-01,-4.415477e+00,8.884034e-01,5.183503e-01,2.432085e-01,2.658144e-01,2.039932e-01,1.556447e-01,1.607334e-01,2.007653e-01,-4.766122e-01,-2.258348e+00,-9.613355e-02,-1.332073e-01,4.814578e-01,-1.215214e-01,8.235548e-01,2.449277e-01,-1.354113e-01,-5.946159e-01,2.105469e-01,2.580157e-01,1.356962e+00,9.179838e-01,4.408885e-03,2.110057e-02,-9.693393e-01,-6.455166e-02,2.404341e-01,-6.278241e-01,-3.388995e-01,-5.523631e-01,-9.991503e-01,2.251762e-01,-9.104021e-01,-1.389412e+00,5.168281e-01,-1.698372e+00,3.654774e-02,-4.898842e-01,-1.254791e-01,-8.354305e-02,
1.006464e-01,1.437248e-01,-9.651530e-02,-2.390020e-02,6.046757e-02,-5.366191e-01,-1.843373e+00,-1.417244e+00,-4.497437e-03,-3.983267e-01,-1.026654e-01,7.308100e-01,-1.235444e-01,4.442121e-01,8.341537e-01,3.702968e-01,-7.030213e-01,-2.597301e+00,1.942165e-01,5.891080e-01,6.392065e-02,-6.648922e-01,-6.047107e-02,6.130207e-01,2.476124e-01,-2.068826e-02,5.200524e-01,3.132722e-01,1.488069e-02,-4.119137e+00,1.796492e+00,1.830176e-01,-1.183015e+00,-1.924476e+01,2.412697e-02,1.064770e-01,-1.457149e-01,1.935779e+00,2.078635e-01,-1.691366e-01,-3.361752e+00,-1.480533e-02,8.575121e-01,-1.279921e-01,-1.137752e+00,-4.164196e-01,6.357004e-01,-5.694593e-01,3.734092e-01,2.401537e-01,
4.333565e-01,-8.959991e-01,5.641527e-02,-3.172050e-02,8.772162e-02,-4.312236e-01,-2.201619e-01,3.032850e-01,-6.716374e-02,6.073091e-01,-1.738053e-01,3.700192e-01,2.980405e-01,3.642654e-02,-2.722527e-01,6.951123e-01,2.649851e-01,-1.537322e+00,-3.010700e-01,1.004260e+00,-2.393846e-01,-1.349976e-01,-8.518762e-01,3.644430e-01,2.126859e-02,8.880884e-02,3.938712e-01,-1.506566e-01,-1.087604e-01,1.159158e+00,8.634977e-01,-2.448724e-01,-8.629007e-01,-4.434899e-01,-2.741006e-01,-7.404389e-01,1.232462e+00,1.569710e+00,6.998467e-01,1.317900e+00,1.316928e+00,-7.852744e-01,1.184712e-01,-8.682699e-01,-2.748582e-01,-2.410295e-01,3.920494e-01,-3.724884e-01,-6.073478e-01,1.324568e-01,
-1.756030e-02,1.079420e-02,-4.635890e-02,1.667770e-02,-1.511110e-02,1.240010e-02,-1.750780e-02,-2.588150e-02,-2.185520e-02,-2.536710e-02,2.910380e-04,-3.999770e-02,-2.879090e-02,7.393840e-03,-3.111780e-02,4.377230e-02,1.942480e-02,-3.272020e-02,-1.039480e-02,3.788300e-03,-1.366410e-02,3.267250e-03,-2.774090e-02,-4.214090e-02,-2.273570e-02,-3.989410e-02,2.434560e-02,-5.080330e-02,-2.593860e-02,1.494990e-02,1.195750e-02,1.991920e-02,-4.856640e-02,-2.537610e-02,-4.714490e-02,3.624360e-02,-2.198300e-02,4.335420e-02,2.338000e-02,-1.191650e-02,2.973500e-02,-2.730880e-02,1.342550e-02,1.471620e-02,-3.572690e-02,-4.195670e-02,-5.500690e-04,-1.025690e-02,1.596950e-02,3.453000e-02,
-2.130960e-02,2.568020e-02,-1.186560e-02,-2.270380e-02,-1.154770e-02,-3.725590e-02,-3.498130e-02,5.109080e-03,-4.100520e-02,4.426410e-02,-2.566960e-02,-1.983100e-02,1.239180e-02,-2.941600e-02,-3.901930e-02,-2.967210e-02,3.704300e-02,1.426530e-02,-2.638850e-02,4.249760e-02,8.046210e-03,-4.522570e-02,3.361730e-03,-2.547440e-02,-8.533460e-03,-4.597700e-02,1.331650e-02,-4.249410e-02,-5.334690e-02,4.002560e-03,2.847610e-03,4.575560e-02,-4.897240e-02,-4.596930e-02,3.670420e-02,1.834660e-02,-2.678400e-02,-7.260080e-03,-1.135820e-02,1.348820e-02,3.602750e-02,6.644080e-03,-2.676610e-02,-1.415820e-02,2.215260e-03,1.917800e-02,-5.982000e-03,9.474740e-04,-3.984290e-03,-4.955890e-02,
4.219274e-02,4.862088e-01,5.489668e-02,2.754130e-02,2.527932e-01,3.336730e-01,3.567469e-01,-4.893088e-02,-1.631103e-01,-1.156589e-01,2.470437e-01,-2.332899e-01,1.001132e+00,6.364686e-01,-7.255048e-02,-4.000778e-01,-1.379957e-01,3.067411e-01,1.683576e-01,-3.442453e-01,-9.992011e-02,-7.351636e-02,5.866634e-01,-2.417989e-01,7.102787e-02,-4.298539e-01,-2.001710e-01,-4.003510e-01,-9.620681e-02,-7.360617e-02,7.964216e-01,-2.046874e-01,-6.993115e-01,-1.241614e+00,-6.443756e-01,5.758889e-01,3.782342e-01,-2.404561e+00,1.064537e-01,-2.822836e-01,1.155018e-02,-3.991468e-01,5.917588e-02,-9.248098e-01,5.487834e-01,-3.218311e-01,-4.427309e-01,5.374361e-01,3.601635e-01,2.289031e-01,
-1.219720e-02,-4.367290e-02,4.102250e-02,-2.176680e-02,-7.787640e-03,1.113600e-02,-4.698560e-02,-2.651490e-02,2.814900e-02,9.923240e-03,-4.159000e-02,2.801890e-03,-3.669910e-02,-3.548330e-02,-6.257460e-03,1.570720e-02,-8.702740e-03,3.060270e-02,-3.336480e-03,-4.923200e-02,-2.324950e-02,9.717170e-03,-4.846670e-02,8.897090e-03,-8.343850e-03,1.408470e-02,-2.696780e-03,-3.186890e-02,-4.203090e-02,-2.627840e-02,1.203740e-02,2.090600e-02,-6.494280e-03,-3.094870e-02,2.517770e-02,-4.911630e-02,1.402900e-02,-4.179070e-02,-3.022830e-03,1.288670e-02,-3.987380e-02,-4.985070e-02,-1.980760e-02,-1.741880e-02,2.539250e-02,3.978320e-02,2.305020e-02,-4.134650e-02,-3.418300e-02,-9.846380e-03,
-3.200260e-02,8.384450e-03,-5.190220e-02,-1.350500e-02,-1.338170e-03,-3.264030e-02,1.364600e-02,1.593240e-02,1.439990e-02,-3.180200e-02,-4.784220e-02,2.904220e-03,-3.575780e-02,-5.258140e-02,-2.392120e-02,-3.311180e-02,1.964690e-02,2.364930e-02,-3.960430e-03,-1.296990e-02,1.305240e-02,4.625790e-02,-9.613570e-03,2.351400e-02,1.109430e-02,-6.387370e-03,-1.975560e-02,-1.738880e-02,-5.919830e-03,-9.053230e-03,-1.272670e-02,-4.280080e-02,2.867940e-02,-5.046780e-02,-1.640390e-02,-2.108370e-02,-3.530250e-02,-2.793780e-02,3.984110e-02,-4.792130e-02,-5.555850e-02,-1.444220e-02,2.084050e-02,-4.569620e-03,2.638380e-02,-4.924860e-02,-4.361100e-02,7.157990e-03,-4.271060e-02,2.852150e-03,
1.429454e-01,1.142352e+00,5.186895e-01,2.035430e-02,-7.826933e-01,9.840658e-02,-5.867667e-01,-1.278671e-01,3.642964e-01,-6.102298e-01,-1.928019e-01,-3.266346e-01,-1.078853e+00,-5.781577e+00,-1.940534e-01,3.987554e-01,-1.362623e-01,-6.773082e-02,3.485191e-01,4.551685e-01,3.841824e-02,-3.868906e-01,-3.312511e-01,-3.685530e-01,1.649271e-01,3.240241e-01,-1.907147e-01,5.258586e-01,-3.823245e-01,1.949852e-02,-1.390435e+00,-2.319793e-01,1.164444e+00,8.059326e-02,7.503530e-01,-5.557506e-01,-1.730927e+00,-4.394875e-01,-7.104069e-01,2.520900e+00,4.618921e-01,-1.164194e-01,4.277318e-01,-6.996591e-01,-5.746886e-01,6.621656e-01,2.144783e-01,1.820987e-01,-8.242828e-01,-3.243711e-02,
-6.893055e-01,2.289013e-02,4.308751e-01,2.343830e-02,5.171437e-01,-1.305034e+00,-2.015834e-01,3.505800e-01,1.096373e-01,6.886846e-01,-4.338225e-01,-4.101804e-01,-2.809654e-01,-2.274019e-02,4.899027e-01,1.320982e-01,5.644469e-01,-1.022832e+00,1.530069e-01,-8.306795e-02,5.673829e-01,5.708296e-01,3.862430e-01,-4.139665e-01,2.900556e-01,1.063537e+00,7.237964e-01,3.376106e-01,-1.142350e-01,7.800685e-01,-9.655094e-01,-8.400327e-01,5.979834e-02,1.363440e-01,6.376792e-01,4.739300e-01,-4.039546e-01,2.584886e-01,5.327590e-01,8.267986e-01,2.482016e-02,8.348182e-01,1.332451e+00,-4.424956e-01,-1.665675e+00,-1.069887e+00,-6.911918e-01,-3.787791e-01,3.413872e-01,-1.007214e-01,
-2.647500e-02,-4.266080e-02,-2.536860e-02,-2.455260e-02,-2.988010e-03,-1.626990e-02,-4.521570e-02,3.536920e-02,1.609300e-02,3.958250e-02,-3.986740e-02,-1.706170e-02,1.728970e-02,-3.162910e-02,5.480190e-03,-4.731600e-02,-5.035580e-02,-2.594390e-02,-4.321890e-02,4.133380e-02,-5.467310e-02,-3.163980e-02,-9.923110e-03,-1.555600e-02,1.224060e-02,2.830300e-03,-3.734210e-02,-4.494990e-02,-3.066470e-02,-2.675220e-02,1.088240e-02,-4.406200e-02,-1.879690e-02,-2.101270e-02,-2.580440e-02,2.350560e-02,1.022200e-02,2.079470e-02,-3.647040e-02,-1.158440e-02,-5.328410e-03,2.056100e-03,2.454480e-02,-5.824140e-03,2.691020e-02,2.416040e-03,3.635890e-02,3.328160e-02,-5.314480e-02,2.894250e-02,
-1.921580e-01,-2.543444e-02,-3.370006e-02,-1.791620e-02,4.731758e-01,-5.136955e-01,1.064997e+00,-5.753973e-01,-1.661180e-01,1.813676e-01,8.363343e-02,-1.795686e-01,3.548344e-01,3.337105e-02,-1.088282e+00,6.521208e-04,6.234818e-02,1.350399e+00,-2.966696e-01,9.947106e-02,6.010442e-02,6.569542e-02,7.476895e-02,2.763441e-01,4.317032e-01,4.024549e-01,-2.468456e-01,-4.226678e-01,-2.799087e-01,-1.702640e+00,-1.566841e-01,-1.512388e-01,-2.448069e+00,-1.286170e-01,-8.387425e-02,4.519240e-01,7.392663e-01,1.357296e+00,3.950922e-02,4.641858e-02,-1.425472e+00,-1.656542e-01,-1.153639e-01,2.885042e-01,1.006233e-01,2.853314e-01,6.034824e-01,-2.414728e-02,1.708691e-01,-9.855792e-01,
6.115125e-01,-5.341620e-01,-3.583872e-01,-1.024260e-02,-6.176782e-01,-6.587803e-02,2.711831e-01,-1.465804e-01,1.555478e-01,-5.316168e-01,6.017027e-01,7.152214e-01,-1.301163e-01,1.224950e-01,-1.289593e+00,-1.336928e-01,7.497112e-01,4.284187e-01,1.527829e-01,1.482611e-01,-1.118209e-01,1.208268e+00,2.755260e-01,3.913139e-01,1.763436e-01,6.594303e-01,-2.135078e-01,2.425051e-02,-8.264948e-01,3.988665e-01,-3.157174e-01,-1.056504e-01,2.408481e+00,1.336217e+00,-2.591380e+00,2.611566e-01,-8.335361e-01,9.725069e-02,1.905319e-01,1.179054e-01,-2.049320e-01,-4.815275e-01,-6.535038e-01,-9.509902e-02,-6.885295e-01,5.890291e-02,3.557997e-01,-9.903708e-01,-7.943656e-01,6.394777e-02,
-4.451405e-02,1.191486e-01,9.778969e-01,-3.227060e-02,-1.168419e-01,9.465023e-01,2.040009e-01,-3.430171e-01,8.899506e-02,-8.700916e-01,1.033647e+00,-1.287020e-01,4.039610e-01,-2.412212e+00,-1.056554e+00,-2.171475e-01,1.118121e+00,5.368720e-01,-4.974425e-01,-8.752147e-01,-2.265437e-01,-8.449736e-01,6.092185e-01,8.633371e-01,-5.397387e-01,3.325502e-01,6.936920e-01,-1.633543e+00,2.247784e-01,2.642133e-01,-7.094924e-01,-5.805874e-01,-6.363597e-01,1.997904e-01,-1.159104e+00,-1.031273e-01,-1.589953e-01,-2.255035e+00,1.544433e-01,-9.315087e-01,-7.777997e-01,3.020504e-01,-9.178278e-01,-1.462161e+00,3.543176e-01,-7.115298e-01,-1.447760e-01,4.325693e-01,-1.649244e-01,3.024784e-01,
-2.853070e-01,-5.856289e-01,-1.616093e-01,-2.194270e-02,-8.372117e-01,5.741125e-01,-2.215020e-02,1.184276e-01,-8.328122e-01,4.602179e-01,-5.170306e-02,-2.784506e-01,2.137821e-01,5.831364e-01,-1.231857e-01,-4.908244e-01,-7.235981e-01,8.418509e-01,-3.726745e-02,-3.359922e-01,3.335596e-02,-5.194704e-02,6.311158e-02,7.006148e-01,-8.036035e-03,2.820913e-01,-6.035773e-01,4.408101e-01,-3.086648e-01,-3.770920e-01,2.781904e-03,-3.203346e-01,-1.993306e-01,4.184243e-01,7.273053e-01,-1.217524e-01,-7.688006e-03,7.932366e-01,1.934908e-01,2.986380e-01,-4.065984e-01,-2.798882e-01,3.653435e-01,2.749144e-01,-1.788123e-01,-2.322035e-02,6.641115e-01,-4.572176e-01,-5.745558e-01,-2.189961e-02,
4.954500e-01,-1.536184e-01,-9.353849e-02,9.534000e-03,-2.504389e-01,-3.793042e-01,-3.095008e-01,6.549016e-02,2.765145e-01,-1.203158e+00,4.938943e-01,8.736178e-01,4.863922e-01,2.980226e-01,1.373254e+00,2.460570e-02,-4.753259e-01,-8.258474e-02,3.309313e-01,-1.695961e-01,9.539614e-01,-6.885003e-02,-1.820393e-01,-4.990936e-01,3.747492e-02,-3.138949e-01,2.851189e-01,9.449609e-04,-3.808641e-01,7.536027e-01,-5.327676e-01,1.502781e-01,-3.993862e-01,-2.291028e-01,6.884570e-01,-5.811416e-01,2.891891e-01,-1.046681e+00,-2.757966e-01,9.975999e-02,1.529387e+00,-2.118734e-01,1.264204e-01,-5.410058e-01,1.421266e-01,3.014272e-01,-4.098279e-01,-1.981069e-01,1.341795e-01,5.813558e-01,
-4.498765e-01,-1.447886e-01,-2.831385e-01,-1.756190e-02,5.431210e-03,4.907522e-01,-2.148025e-04,-1.239412e-01,2.682624e-02,-5.931742e-01,-2.506475e-02,-8.276665e-01,-2.702442e-01,9.983444e-02,-3.031575e-01,-2.754653e-01,4.126042e-01,-4.619429e+00,1.663775e-01,8.959687e-01,4.880057e-01,-3.517278e-01,-2.895768e-01,-3.305564e-03,-7.784944e-01,-2.106505e-01,6.717272e-01,2.366315e-01,-6.688620e-01,1.355243e+00,-1.012180e+00,6.374416e-01,-1.538615e+00,2.888127e-02,-2.580260e-01,-2.401413e-01,-5.428753e-01,3.425673e-01,1.526913e-01,-3.352119e-01,-1.775790e-01,7.689502e-01,5.016243e-01,-2.586684e-01,-2.627975e-01,-1.172934e+00,2.160221e-01,3.539691e-01,-1.919564e-01,1.234674e-01,
3.395950e-01,7.486563e-01,2.019972e-01,-3.670290e-02,7.845447e-03,1.196447e-01,6.884079e-01,-2.012245e+00,-6.844684e-01,-1.873603e+00,3.292308e-01,1.806773e-01,-1.357748e+00,-3.762878e+00,1.275702e+00,-6.153504e-01,2.208150e-01,-7.926119e-01,-2.873437e-01,9.947149e-01,-4.609047e-01,1.096581e+00,2.178410e+00,6.615936e-01,-2.550941e-01,-3.940947e-01,-1.759257e-01,3.723593e-01,2.742206e-01,-2.815606e+00,6.960074e-01,-9.893653e-01,1.607188e+00,-3.240236e-01,7.263018e-01,1.475568e+00,-7.812678e-01,1.865906e+00,-3.735680e-01,-1.368685e+00,5.824457e-01,2.831045e-01,-4.452118e-01,5.113620e-01,-2.070866e+00,5.295007e-02,1.865865e-01,4.266648e-02,8.702214e-01,-3.809848e-01,
-3.950669e-01,-6.848973e-01,2.174419e-01,1.557830e-02,-1.224706e-01,8.383653e-01,8.183458e-02,-1.182584e-02,-1.786260e-01,-4.222473e-01,-7.966561e-01,-1.882610e-01,1.196552e-01,-5.184345e-01,9.933990e-01,8.396549e-01,-4.764521e-02,1.381569e-01,3.828883e-01,-3.187168e-01,-7.120174e-01,-5.641292e-01,1.478455e-01,-6.929094e-01,5.192500e-01,8.389874e-02,1.329540e-02,-6.234707e-02,-6.271078e-01,-5.263996e-02,-1.029010e-02,1.627724e-01,7.031457e-01,-1.114179e+00,4.502017e-01,1.321538e-01,1.567457e-01,-9.237285e-01,-2.352992e-01,6.383632e-01,-7.236339e-01,-2.747060e-01,1.697565e-01,5.210745e-02,-2.891836e-01,8.142718e-02,-1.014202e+00,-4.759975e-01,1.257497e-01,1.374983e-01,
-8.632445e-01,-5.633742e-01,-2.744277e-02,2.217670e-02,-5.782049e-01,4.462555e-02,9.905255e-01,-2.600900e+00,-3.002362e-01,-5.955887e-01,2.953290e-01,2.504781e-01,-7.964919e-01,6.610861e-01,-2.357721e+00,-2.968426e-01,-4.762857e-02,2.584297e+00,1.578322e-01,6.836314e-01,-5.275390e-01,5.718029e-01,1.400383e+00,-1.556351e-01,-2.218414e-01,6.699940e-01,-2.412774e-01,-2.922552e-01,-1.698726e-01,-3.419318e+00,7.311640e-01,5.534724e-01,3.170315e+00,-5.885570e-01,4.269381e-01,1.360749e+00,4.884668e-01,4.713352e-01,-1.618710e-01,-1.861379e-02,-2.939810e-01,9.091888e-02,5.858061e-01,-2.375933e-01,9.314183e-02,3.164193e-01,-1.094754e-01,-3.331949e-01,3.118730e-01,-5.474039e-01,
1.323554e-02,6.696512e-01,-2.780165e-01,-5.347560e-03,-9.219005e-02,-7.418818e-01,5.691192e-02,-6.827854e-02,6.578978e-01,9.906692e-01,-1.646165e-01,1.654472e-01,2.955272e-01,3.181275e-01,1.046932e-01,2.391519e-01,-3.019825e-02,1.116549e-01,1.005954e-01,3.052116e-01,-4.114758e-01,-1.433632e+00,-6.213839e-01,9.616229e-02,4.735601e-01,-1.528258e-01,1.000385e-01,-2.032384e-01,-1.198997e+00,3.657764e-02,-8.329394e-01,7.426417e-02,1.747628e+00,-7.864844e-01,-1.007473e+00,-1.666259e-01,-8.762993e-01,-6.616791e-02,1.783500e+00,-9.076654e-01,-1.623843e+00,-1.055311e-01,1.162039e-01,1.330673e+00,-1.611149e-01,1.126319e+00,5.475146e-02,-5.638878e-01,-1.669906e+00,8.312283e-02,
2.176971e-01,8.765206e-01,8.628030e-01,2.121090e-02,1.474801e-01,-2.038220e-01,4.118336e-01,2.028075e-01,6.945106e-01,-6.331624e-01,-1.759947e-01,1.425416e-01,8.540518e-01,3.767210e-01,1.112897e-01,-1.674749e-01,3.650323e-01,-5.233806e-02,-1.455336e-02,-6.900660e-01,2.355305e-01,-3.783443e-01,1.704423e-01,3.354288e-01,2.209695e-02,6.154327e-01,5.171578e-01,-6.021413e-01,7.546032e-01,-5.851831e-02,-9.512613e-01,-5.931564e-01,-1.095949e+00,1.790871e-02,-1.454103e+00,-6.974995e-01,1.285394e-01,-1.251550e+00,5.572698e-01,-1.716094e+00,-4.708401e-01,-9.391251e-01,-1.761448e-01,-6.096138e-01,2.800269e-01,-4.874633e-01,7.722910e-02,-1.179127e-01,1.549982e-02,-1.510557e-01,
-8.373481e-02,-1.077076e-01,-1.829322e-01,-3.022200e-02,-4.223489e-01,-4.995113e-01,-2.294406e-01,-7.110872e-01,3.525835e-01,7.959478e-01,3.035156e-02,6.948132e-02,1.905871e-01,8.809640e-01,3.027894e-02,-4.624819e-01,3.755263e-01,1.201253e-01,5.133085e-02,-1.836238e-01,-5.096269e-01,-4.957911e-02,-5.705030e-02,-7.150934e-01,2.411139e-02,-5.804186e-01,1.252864e-01,1.529214e-02,1.062322e+00,-4.726110e-01,7.853022e-01,-6.329696e-01,6.192281e-01,-5.061816e-01,6.568141e-02,-3.407700e-01,1.385423e-01,3.852405e-01,4.315188e-02,7.222066e-01,-1.524162e-01,-1.492732e-01,-4.059619e-01,-4.955868e-01,8.906874e-01,-2.628946e-01,-9.066719e-01,-1.235196e-01,1.623494e-01,1.020661e+00,
-2.417144e-02,-1.184390e-02,1.710540e-02,7.041590e-03,-2.866637e-02,-2.401902e-02,-3.879970e-02,2.765255e-02,-4.729311e-02,-4.306270e-02,-2.589510e-02,-1.993120e-02,3.562850e-02,-4.954990e-02,-2.664424e-02,-4.189480e-02,1.296443e-02,3.411630e-02,-2.455950e-02,-1.820080e-03,-2.178943e-02,3.421826e-02,-3.640440e-02,-4.518930e-02,2.738210e-02,-4.261760e-02,1.644110e-02,-3.499605e-02,-5.985146e-02,-2.236960e-02,1.013260e-02,2.671620e-02,-4.470030e-02,-4.295563e-02,1.113030e-02,3.984130e-02,3.538750e-02,4.661470e-03,4.385830e-02,-3.041360e-02,-1.786029e-02,3.801520e-02,-2.349320e-02,-4.410300e-02,2.762210e-02,-2.784105e-02,2.678820e-02,1.529659e-02,-1.064923e-02,2.443731e-02,
-7.360408e-01,
4.872141e-01,
6.268507e-01,
6.000022e-02,
-3.543608e-01,
-9.024466e-01,
-1.450920e-02,
2.574437e-01,
-1.896117e-02,
6.498916e-03,
-1.800090e-02,
-6.882261e-01,
6.283405e-02,
1.873304e-02,
-1.060400e-02,
-9.084331e-02,
7.469699e-01,
-3.106486e-01,
-7.397307e-01,
-9.574898e-02,
-1.193146e+00,
-3.534586e-01,
7.454388e-01,
-6.236714e-01,
-2.632950e-02,
-3.329426e-01,
9.749771e-01,
-1.059048e+00,
-4.826127e-01,
-1.181800e-02,
-6.321920e-03,
-4.384455e-02,
-1.839310e-02,
-1.277470e-02,
7.385474e-02,
-4.895397e-01,
-2.103330e-02,
-2.460130e-01,
-2.846663e-02,
1.044345e+00,
1.087368e+00,
-1.701762e-01,
3.422914e-01,
-2.578064e-01,
3.431177e-01,
-1.159767e-01,
-1.278718e+00,
5.494176e-01,
1.016257e+00,
-1.359682e-02,
-4.233356e-01,1.989050e-01,-7.219156e-02,-9.904724e-02,-5.430970e-03,-5.549267e-01,-1.769270e-02,-1.630077e-01,-4.327190e-02,1.109501e-02,1.680020e-02,1.143171e-01,9.440237e-03,2.510775e-02,-2.982720e-02,-3.222570e+00,1.419297e-01,-3.975297e-01,-5.149858e-01,1.521514e+00,3.371566e-01,-2.234500e-01,2.940956e-01,-1.753715e+00,-5.527390e-02,9.248132e-01,8.171233e-02,5.714698e-01,-5.763062e-01,-3.288880e-02,1.477040e-02,-3.014107e-01,-2.777400e-02,-3.777580e-03,4.824403e-02,4.600507e-01,4.188660e-02,-2.409852e-01,1.802081e-01,2.738369e-01,-5.582445e-01,-5.858775e-01,-8.717975e-01,7.044240e-01,-1.399362e-01,-1.828299e-01,5.618853e-02,3.382814e-01,-7.731601e-01,4.632570e-02,
-4.765650e-01,-3.690733e-01,-4.160071e-02,6.756274e-02,5.261255e-01,-1.114245e-03,1.442780e-02,4.929370e-01,-2.108613e-02,-3.512715e-01,1.348220e-02,-4.166076e-01,8.975523e-02,-2.854675e-01,-6.272810e-04,4.584529e-02,4.866448e-02,5.772961e-01,6.074655e-01,5.489879e-01,5.917292e-02,4.763896e-02,1.366953e-01,-7.570201e-01,-4.062500e-02,1.642155e+00,1.493565e+00,7.488901e-01,4.452853e-01,-3.114150e-02,8.641050e-05,-2.154492e-01,4.557660e-02,-3.612250e-02,4.145789e-01,6.938549e-01,4.477240e-02,-1.071965e+00,1.995928e-01,-2.043079e-01,3.315905e-01,5.269955e-03,1.117720e+00,3.231184e-01,2.763422e-01,1.701854e-01,3.086658e-01,-7.914221e-01,-3.654046e-01,-4.260011e-02,
3.450091e-01,-1.207172e-02,4.151434e-01,1.328695e-01,3.571804e-01,-1.134350e-01,-5.398790e-02,9.704314e-01,1.654794e-02,-3.424310e-01,-1.630320e-02,-2.047384e-01,1.583320e-01,-1.559845e-01,-4.684980e-03,1.346075e+00,1.021952e-01,-3.294089e-01,-4.129937e-01,-6.914244e-01,-1.352188e-01,4.669718e-01,-1.641527e-01,-1.488972e+00,-2.840390e-02,2.966140e-01,-6.005476e-01,1.810372e+00,-5.985895e-01,-1.590190e-02,4.805380e-03,-1.045135e-01,-2.759870e-02,-2.023040e-02,8.220496e-01,3.051717e-01,-7.933410e-03,4.268352e-01,-2.699353e-02,5.284442e-01,-4.512372e-01,1.051942e-01,-5.694793e-01,3.960939e-01,-2.871777e-01,6.252578e-01,9.505599e-01,-9.257664e-02,-2.513363e-01,1.750520e-02,
6.236327e-01,6.970509e-03,-8.902566e-02,3.301664e-02,2.429860e+00,2.930979e-01,5.097070e-02,-5.450019e-01,-3.129720e-02,-5.317276e-01,-5.450760e-03,2.457488e-01,-1.456621e-03,-1.429361e-01,5.380400e-02,-4.544224e-01,9.377082e-02,-5.400893e-02,6.643031e-01,-4.701438e-01,1.626069e-01,4.828243e-01,-1.213815e-01,4.271951e-01,-4.993350e-02,1.000287e+00,-3.985978e+00,6.226841e-01,7.183047e-01,-7.148710e-03,5.620200e-04,-1.105916e+00,-3.707740e-02,1.854780e-02,-1.171700e-01,3.263564e-01,1.631100e-02,8.670084e-01,1.005490e-01,1.577586e-01,-8.550824e-01,-9.831414e-01,1.468626e+00,-6.005367e-02,-3.438734e-01,1.104389e+00,-3.443573e-01,2.036229e-01,3.728506e-02,-3.011180e-02,
3.558055e-01,1.783439e-01,3.510223e-01,5.086085e-02,2.608355e-02,-7.370540e+00,4.308930e-02,-1.428974e-02,-2.280170e-02,-8.845544e-01,4.744750e-02,8.990024e-01,-3.575275e-02,-1.718218e+00,1.993540e-02,4.096631e-01,2.348118e-01,-1.552144e-01,-1.523892e+00,-7.359738e-01,-1.665079e+00,-8.147940e-01,6.684784e-01,-2.015647e-01,-1.959910e-02,-7.315980e-01,-5.314430e+00,-5.384131e-01,1.147106e+00,3.392530e-03,3.529590e-02,-4.572360e-02,-4.468650e-02,3.980950e-02,7.116687e-01,-7.597027e-01,7.402530e-03,9.656510e-01,-2.094170e+00,-1.536017e+00,-2.432109e+00,-1.060797e+00,-9.198008e-01,-4.429800e+00,-6.010512e-01,-1.479750e+00,-1.367252e+00,-2.355114e-01,-1.223114e+00,3.674280e-02,
2.812745e-02,5.525994e-01,3.387162e-01,-1.387880e-01,1.475760e+00,-7.041448e-01,1.824070e-02,-1.386330e-02,-6.087440e-03,-4.145237e-01,1.141180e-02,-9.600105e-03,-2.348834e-01,3.988681e-01,-3.637450e-02,8.619459e-01,1.432118e-01,-1.529624e-01,-2.648911e+00,-4.245971e-01,5.822996e-01,-2.920440e-01,5.444819e-01,2.116857e+00,3.538290e-02,1.895331e-01,1.126839e+00,-2.336084e+00,3.662895e-01,3.258810e-02,-3.768700e-02,-8.209139e-01,-3.012200e-02,1.782460e-02,-2.752937e-02,-4.151953e-01,-2.876770e-02,3.896681e-01,-5.561547e-01,-5.636960e-01,-6.036404e-01,4.107769e-01,-3.221439e-01,8.627981e-01,-1.157207e+00,6.362841e-01,1.422448e+00,-6.186339e-01,-1.293104e+00,-4.573310e-03,
-8.063532e-01,-1.308520e-01,-5.442557e-02,-1.135326e-01,6.705270e-01,7.503471e-01,1.657150e-02,-8.959714e-01,-3.737260e-02,-6.620731e-03,1.732120e-03,5.717666e-01,-6.349139e-02,-1.474149e-01,1.085310e-02,1.402720e-02,3.073575e-01,9.676589e-01,-8.497173e-01,-1.615345e-01,8.238124e-01,5.790523e-01,-2.227803e-01,1.592560e-02,5.288310e-02,7.677701e-01,-1.457924e-01,-1.407753e-01,3.445408e-01,5.213070e-03,-1.729480e-02,-8.736702e-01,4.349380e-02,-3.992440e-02,-7.589667e-01,3.345229e-01,3.001500e-02,-5.419675e-02,-1.472168e+00,-6.927788e-01,2.503732e-01,-3.918871e-01,-1.126566e+00,2.973882e-01,2.068911e-02,4.983614e-01,-3.465414e-02,-5.888335e-01,3.373422e-01,1.822380e-02,
1.576516e-01,-2.573902e-01,-7.731625e-02,5.958913e-02,1.101137e+00,7.164056e-01,-1.364400e-03,2.363903e-01,-2.875915e-02,-4.088090e-01,1.702460e-02,4.504578e-01,1.040198e-01,9.608921e-02,-2.429250e-02,8.811971e-01,5.287082e-01,-5.007522e-01,-2.726108e-01,1.574791e-01,5.717334e-02,4.355403e-01,-3.887721e-01,-1.902256e-01,-2.779450e-02,5.951837e-01,-1.948261e-01,-6.886285e-01,2.650075e-01,-1.645690e-03,5.175450e-03,-4.992213e-01,-3.151850e-02,-4.157340e-02,-6.427699e-01,8.492323e-01,-2.257060e-02,8.940858e-01,3.374360e-02,-5.037081e-01,-2.897835e-02,-4.678420e-01,6.928339e-01,2.685187e-01,2.699101e-01,-1.947918e-01,-2.449367e-01,-6.206298e-01,1.029117e-01,-1.147386e-02,
-4.478208e-02,-3.173084e-01,-7.614326e-01,-1.081328e-01,1.930023e+00,-1.355288e+00,-2.870040e-03,2.831708e-02,-3.105950e-02,-5.265303e-01,-7.748100e-03,1.574909e-01,-9.166580e-02,1.903377e+00,-4.901940e-02,1.726466e+00,-3.582757e-01,-8.233131e-01,-1.967865e-01,7.707661e-01,6.317404e-01,3.347446e-01,2.686872e-01,4.659086e+00,1.723490e-02,1.779543e+00,1.573475e+00,3.076003e+00,-1.692928e-01,-4.241320e-02,4.747960e-02,1.727475e+00,3.174040e-02,3.241110e-02,6.539245e-01,-2.636367e-01,-1.023990e-02,8.398107e-01,1.892325e+00,1.012662e+00,4.689439e-01,-2.185555e-01,1.027390e+00,2.641191e+00,9.601998e-01,9.970965e-01,7.875282e-01,-4.022092e-01,-1.434315e-01,-1.512150e-02,
-5.396833e-02,-1.684405e-01,-5.389513e-02,-1.984241e-01,3.939007e-02,-7.280980e-01,-1.745170e-02,8.672897e-01,1.541543e-02,-4.809392e-02,5.997510e-03,-5.073633e-01,-1.736659e-01,-7.419902e-01,3.513270e-03,1.691182e-01,2.030913e-01,-3.800466e-01,1.098979e+00,-3.730073e-01,5.598615e-01,1.412627e-01,2.261773e-01,3.404984e-01,2.859800e-02,7.538957e-01,-1.366512e-01,-2.684996e-02,7.873827e-01,-1.056300e-02,4.436120e-02,-2.133890e-01,-1.677970e-02,-1.056420e-02,3.621649e-01,-1.292754e-01,4.436140e-02,-5.045902e-01,-8.746426e-01,3.037061e-01,-1.182649e-02,1.847986e-02,2.451323e-01,4.286847e-01,1.016722e+00,7.055500e-01,-1.710339e-02,-8.546112e-02,1.291485e-01,-4.016400e-02,
1.434561e-01,-8.787122e-01,1.752626e-01,-4.144460e-03,1.252637e+00,3.095799e-01,-2.053380e-03,6.349976e-02,4.508720e-02,-7.149947e-01,-2.456910e-03,9.689049e-01,-3.928085e-02,5.496206e-01,7.572740e-03,-1.620839e-03,-2.971422e-01,1.846871e-01,4.590941e-01,1.423646e+00,1.309606e-01,2.553742e-01,4.642642e-01,-4.312438e+00,5.332790e-03,-1.437722e-01,-3.868872e-01,1.026174e+00,1.563549e+00,7.220780e-03,3.814960e-02,4.730182e-01,2.552300e-02,4.327810e-02,3.487183e-02,-6.615646e-01,-3.059950e-02,9.301197e-01,-2.195126e+00,-1.094149e-01,1.336532e+00,-2.212452e+00,-1.862811e+00,4.100215e-01,1.725591e+00,1.960899e+00,4.846212e-01,-7.439303e-01,4.836635e-01,-2.907620e-02,
2.323413e-01,1.904887e-01,-2.682734e-01,-8.059658e-02,4.339841e-01,-3.892577e-01,-2.839450e-02,6.892225e-01,4.232680e-02,-6.816491e-01,3.030620e-02,-2.572336e-02,-1.377549e-01,1.143595e+00,-1.517030e-02,4.532197e-01,1.389958e-01,8.280637e-01,-3.343445e-01,-4.036897e-01,1.289716e-01,5.573124e-01,8.663787e-02,-3.221607e+00,1.051570e-02,1.076113e+00,-3.702473e-01,1.538069e+00,3.879464e-01,5.001140e-02,-3.323700e-02,-4.029268e-01,-2.795250e-02,-3.865170e-02,-4.971228e-01,-1.723798e+00,-3.179770e-02,-6.759316e-01,8.948846e-01,-3.404392e-01,-6.384983e-01,6.788489e-01,1.233360e-02,9.455501e-01,-8.171196e-01,4.237724e-01,2.200643e-01,-2.293503e-01,-4.607306e-01,-2.124909e-02,
-4.131207e-01,3.692694e-01,2.167009e-01,-6.184941e-02,2.349875e-01,-1.329386e+00,-4.305690e-02,-1.728102e-01,3.358770e-02,-2.975971e-01,2.206450e-02,-5.702966e-02,-7.449816e-02,1.260771e+00,2.938300e-02,-5.019163e-01,-2.450189e-01,-1.019496e+00,3.019643e-01,1.290616e+00,4.819153e-02,1.027788e+00,-4.466079e-01,8.997448e-02,-5.381940e-03,-6.200833e-01,3.893601e-01,-7.280815e-01,1.729476e-01,-6.815360e-04,3.672380e-02,4.997075e-01,-3.686540e-02,-1.005990e-02,5.381222e-01,-4.788728e-02,1.907290e-02,-3.131038e-01,7.696806e-01,-3.894746e-02,-7.181370e-01,3.348880e-01,-1.457057e-01,-4.153008e-01,-4.226402e-01,-5.844515e-01,-2.386387e-01,1.888493e-01,-1.063391e-01,-3.676880e-02,
-5.303821e-04,-1.483706e-01,-4.757134e-01,-4.134274e-02,2.530762e-01,-5.400201e-01,-9.426300e-03,7.753488e-02,6.945850e-03,4.568907e-01,5.138370e-03,6.656970e-02,-8.629806e-02,1.086951e+00,-1.183820e-02,-1.789491e+00,9.926029e-02,3.569988e-01,1.924762e-01,-7.102887e-02,4.119948e-02,7.332616e-01,2.125996e-01,1.864258e+00,2.981420e-02,3.007776e-01,6.440556e-01,-1.125685e+00,4.575839e-01,4.386130e-02,4.794350e-02,1.696191e-01,2.152320e-02,-1.485320e-02,-2.952052e-01,-9.938396e-02,3.173650e-02,8.939072e-01,-1.285570e+00,1.361071e-01,2.179559e-01,7.695505e-01,-1.069444e+00,-1.615549e-01,-4.047834e-01,4.196445e-01,1.333891e-01,6.078345e-02,-5.365759e-01,2.965654e-02,
-4.670080e-02,-2.351080e-02,-6.909350e-03,-4.463990e-02,2.530050e-02,-2.517830e-02,1.631900e-02,-7.737380e-03,-2.977830e-02,-5.374120e-02,-3.097340e-03,3.371470e-02,-2.150810e-04,1.757240e-02,-8.473680e-03,-4.052180e-02,-4.185970e-02,1.782180e-02,-1.548690e-02,-7.452630e-03,3.269400e-02,-3.560340e-02,-1.806730e-02,-2.031470e-02,-3.245950e-02,-2.942020e-02,-2.131170e-02,-2.409510e-02,-6.499150e-03,-1.074300e-02,1.640500e-03,-4.228340e-02,1.688440e-02,-2.455770e-02,3.050490e-02,-2.404180e-02,1.826890e-03,-2.576590e-03,-3.698130e-02,6.242550e-04,-1.370270e-02,-3.727300e-02,-2.872300e-02,8.380340e-03,1.603480e-02,4.470560e-02,-4.479400e-02,1.979730e-02,1.734520e-02,-8.155320e-03,
3.400403e-02,2.566931e-01,-1.310963e-01,6.523366e-02,-2.575881e-01,2.909070e-01,-3.924960e-02,-6.288961e-01,-3.449590e-02,2.617415e-01,3.500370e-02,8.533582e-02,9.476454e-02,-5.116389e-02,3.550200e-02,-3.398314e-01,-4.833405e-02,1.845037e-01,1.201530e-01,5.925510e-01,-3.382507e-02,-2.791444e-01,-1.194972e-01,1.124482e+00,-8.786750e-04,-3.163432e-01,1.558838e-01,1.378877e-01,2.648169e-01,4.170630e-02,-2.434380e-02,-2.064379e-01,-4.252100e-02,-1.922470e-02,-8.659090e-01,2.717904e-03,7.302080e-03,3.436148e-01,-2.249053e-02,-1.083647e-01,2.588741e-01,-1.392883e-01,-6.800628e-02,-2.877256e-01,1.312641e-02,3.378360e-01,-4.440663e-02,2.705502e-01,1.323929e-01,-3.186410e-02,
-5.758172e-01,2.798094e-01,1.033872e+00,-3.151943e-02,-4.371018e-01,4.278213e-01,3.801820e-02,6.044914e-03,-4.898240e-02,-2.812344e-01,-1.629640e-02,1.547493e-01,-6.567399e-02,3.083409e-01,-4.343620e-02,-1.657670e+00,-5.098808e-01,7.166973e-01,1.659604e-01,-5.121101e-01,5.208891e-01,3.436411e-01,-5.480345e-02,-1.250495e+00,1.321580e-02,3.923874e-01,1.374341e-01,9.839754e-01,1.310887e+00,-5.157690e-03,-1.949510e-02,5.409157e-01,1.429660e-02,4.604580e-02,1.199749e-01,-2.241544e-01,4.152830e-02,-9.163209e-01,-2.176736e+00,-1.663382e-01,-1.011987e+00,2.427481e-02,-1.244181e-01,3.973944e-01,7.430953e-01,-3.808777e-02,-1.145145e-01,-4.129573e-01,-1.794437e-01,1.865980e-02,
2.103143e-01,6.105016e-01,-2.830506e-01,1.986569e-01,-1.069714e+00,1.172795e-01,4.218620e-02,1.151981e-01,-2.477287e-03,-2.219066e-01,3.173850e-02,-5.329056e-01,2.049317e-01,-9.552391e-02,-3.094160e-02,5.656299e-01,2.660781e-01,-2.554455e-01,1.458693e-01,-5.139227e-01,6.814521e-01,-3.643125e-02,1.221649e-02,-7.379382e-01,2.545920e-02,1.632624e-01,-7.647226e-01,9.702089e-01,3.812846e-01,1.860790e-02,2.119580e-02,-7.758428e-01,2.699070e-02,2.935470e-04,7.279158e-02,-1.898113e-01,-2.090010e-02,-6.100567e-01,4.761440e-02,-9.161807e-02,1.039853e-01,1.749978e-01,9.203496e-02,3.249710e-01,-3.747924e-01,-9.665081e-01,5.872655e-01,6.017756e-03,9.772317e-03,-5.275560e-02,
-3.602808e-01,-6.081644e-02,7.937873e-02,4.902250e-02,-8.066437e-02,5.540148e-03,8.779280e-03,-3.977763e-01,-1.720540e-02,4.136775e-01,1.087940e-02,-7.635806e-01,7.504185e-02,-2.092458e-01,-3.240550e-02,-1.178029e+00,7.900995e-01,-3.406666e-01,-2.320864e-01,-1.489006e-01,-4.778448e-01,-3.180254e-02,2.054166e-01,2.448783e-02,3.529170e-02,-3.159737e-02,-6.298102e-01,5.356200e-01,-8.102974e-01,-4.732180e-03,4.277750e-02,4.645309e-01,3.340850e-02,2.675100e-02,3.696441e-01,-1.256447e+00,2.465310e-02,5.838333e-01,-2.787294e-02,4.503679e-01,8.880500e-03,2.228735e-01,-7.876794e-02,-2.768250e-01,-9.614530e-02,6.468865e-01,6.143856e-02,4.083154e-01,-1.069968e-02,-3.786910e-02,
-6.742606e-01,2.062490e-01,-2.721929e-02,-3.926368e-05,1.182778e+00,-1.551325e-01,2.736100e-02,-2.770719e-01,2.801570e-02,2.320787e-01,3.592330e-02,7.500620e-01,-4.294052e-02,7.373134e-01,4.610610e-02,4.892220e-01,-1.160480e-02,3.672873e-01,4.641412e-01,1.292690e+00,-1.116120e-01,1.085977e+00,-1.427284e-01,7.697386e-01,-1.265820e-02,1.662394e-01,-8.986036e-01,1.207035e+00,-2.777653e-01,-4.277070e-02,-1.690820e-02,1.501795e-01,-3.726990e-02,4.188190e-02,-2.166690e-01,3.328889e-01,3.942640e-02,8.652499e-01,8.703409e-01,3.017508e-01,-3.213824e-01,6.629548e-01,3.228783e-01,-1.508711e-01,-6.438904e-01,7.304291e-01,1.463937e-01,2.738661e-01,-1.072423e-01,3.842320e-02,
1.703718e-01,-1.900216e-01,-5.355838e-02,7.496329e-02,9.368826e-01,-7.344478e-01,-1.879120e-02,1.194385e-02,-1.858540e-02,-8.511605e-02,5.311560e-02,7.116536e-01,1.401401e-01,-2.581488e-01,9.672400e-03,9.228989e-01,3.554305e-01,2.047518e-01,1.362564e+00,-7.483501e-01,1.507467e-02,-2.024878e-01,8.452526e-02,2.241505e+00,1.459840e-02,-1.973146e-01,5.551467e-01,1.546796e+00,5.496605e-01,-3.688850e-02,-2.418870e-02,5.672462e-01,-1.826890e-02,4.960450e-02,-1.488632e-01,3.104888e-01,-3.340560e-02,8.076924e-01,-1.084781e-01,8.458574e-01,5.464293e-01,-7.927724e-01,1.466713e-01,3.039892e-01,3.097506e-01,1.411561e+00,3.235104e-01,1.329794e-01,-2.726603e-01,-1.284424e-02,
1.681979e-01,-6.677438e-02,-1.193604e-01,2.112680e-03,-4.985804e-01,-5.191499e-02,-3.801270e-02,2.028309e-01,8.639907e-03,-5.874807e-01,-2.586070e-02,7.539495e-01,7.669245e-02,-2.681738e+00,-5.105780e-03,6.114232e-01,3.423762e-01,-7.943665e-02,7.950045e-01,3.164480e-01,2.820267e-01,8.689496e-01,-1.578685e-01,-4.287707e+00,3.591470e-02,5.983680e-01,1.177272e-01,9.750441e-01,-3.220541e-01,-4.261340e-02,-1.329990e-02,3.897775e-01,-4.771170e-02,-5.475910e-03,-1.797838e-01,1.251461e-01,7.058200e-03,-3.259309e+00,-4.447410e-01,2.334010e-01,-4.489385e-01,-4.542104e-01,-4.302986e-01,-3.122071e-01,4.703177e-01,-2.672364e+00,7.963827e-02,1.723018e-01,2.412426e-01,-1.918813e-02,
-1.381193e+00,2.735679e-02,7.958954e-02,1.015797e-01,-5.916660e-01,-1.124044e+00,-4.778340e-02,7.455070e-01,-4.789830e-02,9.047428e-01,7.045580e-03,-4.592484e-01,1.088433e-01,-5.007327e-01,2.743490e-02,-2.334057e+00,-9.038908e-01,9.861329e-01,-1.349180e-01,1.574224e+00,7.873502e-01,-1.692652e-02,6.452839e-01,4.494002e-02,-2.636200e-02,-4.436121e-01,2.747684e+00,1.606528e+00,6.727718e-01,-3.575860e-02,3.636640e-02,-2.286687e-01,-2.378920e-02,-3.208170e-02,5.691344e-01,3.300554e-02,-4.051830e-02,-2.599606e-01,-2.702120e-01,1.029432e+00,-9.478065e-01,3.202999e-02,-4.218722e-01,-1.280150e+00,-4.309675e-01,3.403253e-01,-4.756796e-01,-9.583976e-02,1.712512e-01,2.362824e-03,
9.003621e-02,1.991197e+00,1.724049e-03,-7.570732e-02,5.967187e-01,2.822554e-01,5.241650e-03,1.962817e-01,-2.781965e-02,-3.853590e-02,2.932310e-02,-1.873675e-01,3.265571e-02,1.471879e+00,1.227150e-02,1.268837e+00,5.140124e-01,3.682537e-01,3.034411e-01,4.876545e-02,-5.458161e-01,1.265665e-01,5.245942e-01,6.245267e-01,3.426750e-02,1.307451e-02,4.217084e-01,-7.954670e-01,-1.376901e-01,-2.352460e-02,1.865420e-02,-4.146752e-02,-2.848860e-02,-3.172060e-02,5.091597e-01,1.219118e+00,-3.466300e-02,-4.498330e-02,-5.560634e-01,-1.126404e-01,-1.057340e-01,-9.609181e-01,4.391025e-01,-1.580782e-01,4.012126e-01,-5.316258e-02,1.317936e+00,-6.022517e-02,-4.544613e-01,-1.081971e-02,
-2.765338e-01,-5.085475e-01,1.166814e-01,4.111391e-03,-2.645982e-01,-1.304261e+00,3.288790e-02,-1.709922e-01,-8.939130e-03,1.438457e-01,2.594080e-02,1.112182e+00,4.123835e-02,5.094504e-01,-3.638070e-02,-1.109870e+00,2.137011e-01,-3.211822e-02,-8.360641e-02,1.739645e-01,-1.943276e-01,5.897941e-01,4.578377e-02,2.963814e-01,-3.759390e-02,1.713055e+00,5.562916e-01,-5.960941e-01,4.274796e-01,1.807070e-02,-3.253700e-02,-1.402055e+00,1.944190e-02,-3.105500e-02,-7.864407e-01,-7.472207e-01,-7.078160e-04,2.035016e-01,2.620694e-01,-2.578659e-01,-2.597287e-01,-1.102831e+00,6.458841e-01,-4.298993e-02,4.794506e-01,5.463035e-01,-1.188449e-01,1.946087e-01,4.355812e-02,5.445720e-03,
3.269130e-01,3.090174e-01,5.634934e-01,1.263895e-01,-7.085745e-01,1.167660e-02,-3.821760e-02,1.304327e-03,1.241821e-02,8.445781e-01,1.162210e-02,6.756265e-01,9.493866e-02,7.098878e-01,4.692430e-02,6.377882e-02,-6.479371e-02,3.209008e-01,1.493641e-01,-6.373371e-01,-3.631679e-02,1.052573e-01,-7.136504e-02,1.850100e+00,8.639850e-05,4.908091e-01,-2.645524e-02,-1.084988e+00,3.734832e-01,3.932220e-02,2.560270e-02,7.866544e-01,4.641370e-02,3.364690e-02,2.775544e-02,7.073710e-01,7.106780e-03,-3.321771e-01,-1.800331e-01,-7.394391e-02,1.945644e-01,-6.514849e-01,2.526115e-01,4.435353e-01,1.029290e+00,-1.813511e-01,3.885000e-01,9.775183e-02,-7.628464e-02,4.154960e-03,
1.223086e+00,-1.875214e-01,-7.857527e-03,1.601868e-01,-2.429616e-02,-1.996291e+00,2.202950e-02,-6.590027e-01,-1.014220e-02,-6.597334e-01,4.405580e-02,6.179243e-02,2.073072e-01,-9.914643e-01,3.691290e-02,2.207200e-02,-1.014953e+00,-2.311637e+00,-5.561333e-01,-4.659590e-02,1.420741e+00,1.051931e+00,-3.275428e-01,-2.983866e+00,2.663080e-02,3.131978e+00,-2.681702e+00,-2.480168e+00,1.988901e+00,3.586670e-02,-4.757730e-02,-9.253115e-01,3.583170e-03,4.344930e-02,-2.889438e+00,-1.966578e+00,2.054270e-02,5.736989e-01,-1.871967e-01,-1.138890e+00,-1.095979e+00,-7.219024e-02,-2.646438e+00,-1.577289e-01,2.589613e-01,1.026752e+00,1.700058e+00,-4.383238e-01,-3.108736e-01,-1.574830e-02,
-1.945435e-01,-3.629522e-01,-1.518125e-02,3.597956e-02,-1.897267e-01,8.530586e-01,3.908590e-02,8.163463e-01,3.289600e-02,-1.009591e+00,1.313020e-02,4.102230e-02,1.262394e-01,-1.830716e-01,4.441990e-02,-4.239489e-04,-7.905392e-02,-7.623033e-01,-8.346712e-01,1.181525e+00,-6.575554e-02,5.992094e-01,-3.188246e-01,-1.572738e+00,4.185260e-03,7.099600e-01,-2.494586e+00,2.328292e-01,3.750145e-02,-1.134590e-02,2.020410e-02,1.854466e-01,-3.252430e-02,1.952200e-02,-2.618442e-02,-2.880975e-01,1.223570e-02,7.486472e-02,5.386224e-01,-4.285786e-01,-1.878041e-01,-3.278075e-01,-1.762031e+00,3.072058e-01,9.616253e-01,-5.860575e-01,7.346399e-01,2.418918e-01,1.130645e-01,1.759640e-02,
-4.537511e-01,1.950420e-01,5.660358e-02,1.243403e-02,3.190044e-01,-1.095103e-02,4.370130e-02,2.684920e-01,-3.260930e-02,-4.545063e-01,-1.778210e-02,-4.819115e-01,-3.992488e-03,-3.365567e-01,-3.917850e-02,1.041147e+00,-6.243463e-01,-4.185818e-01,9.754057e-02,8.573884e-02,4.859490e-02,1.148590e-01,-9.185009e-02,-6.990138e-01,2.712900e-02,1.711152e+00,1.968547e-01,1.037203e+00,1.081467e-01,-9.270920e-03,3.786670e-02,1.718186e+00,-1.667970e-02,-2.689140e-02,2.189146e-01,2.545392e-01,-2.304200e-02,1.223136e+00,1.163620e+00,2.680016e-01,1.102392e+00,-1.301423e-01,-8.182032e-01,5.986306e-01,2.157141e-01,1.145742e-01,2.067188e-01,3.550768e-01,-3.393747e-01,3.293710e-02,
-3.845577e-01,-1.239874e-01,1.222317e-02,1.610360e-01,-3.593684e-01,1.070652e-02,-6.055880e-03,8.582960e-01,3.638040e-02,2.423767e-01,3.768810e-02,5.687621e-01,5.373105e-02,8.274629e-01,-1.291260e-02,5.200834e-01,-1.518894e-01,5.720114e-01,-4.008196e-01,3.614012e-01,4.040229e-01,1.423464e+00,9.624852e-02,-4.444163e+00,2.845240e-02,5.531417e-01,-1.432128e+00,1.290426e+00,1.558241e+00,-4.999670e-02,3.605510e-02,-1.400707e+00,1.038050e-02,-1.796990e-02,-1.282090e-01,1.318084e+00,-4.564930e-02,9.253445e-01,-4.219742e-01,-6.169422e-01,6.894499e-01,-8.153036e-01,6.501724e-01,3.096241e-01,-2.635144e-01,-9.638382e-01,4.105505e-01,-8.649081e-01,1.350104e-01,2.812000e-02,
-1.479526e-01,-9.164380e-02,-1.961626e-01,1.431302e-01,-4.312075e-01,6.893351e-01,4.627010e-02,2.101078e-01,-1.905099e-02,1.905401e-01,2.336770e-02,-1.058410e-01,1.322078e-01,1.139953e+00,-3.970000e-02,8.398182e-01,7.202294e-01,-4.409722e-01,-1.579628e-01,-7.804492e-01,-9.029728e-01,-1.473109e-01,2.038992e-01,-1.129151e+00,5.772610e-02,-6.813810e-01,-4.771937e-02,-7.084674e-01,-1.930241e-02,-1.954130e-02,-1.148050e-02,-2.918006e-01,3.741330e-02,3.790930e-02,4.980915e-01,4.666825e-01,-6.086460e-02,3.917478e-01,4.140805e-01,-3.849113e-01,3.223038e-01,-1.940277e-01,8.425320e-01,-3.051063e-01,-1.635464e-01,3.539849e-01,-1.253373e-01,3.397939e-01,5.316541e-01,3.083020e-02,
3.082813e-02,3.581505e-01,-2.171187e-01,-4.511810e-02,1.333470e+00,-2.583610e-01,3.463690e-02,9.147299e-01,9.156380e-04,-1.820011e-02,-4.797740e-02,5.307883e-01,-4.324382e-02,-3.632694e-03,-1.726850e-02,2.459615e-01,-1.177134e-01,3.876500e-01,-3.762520e-01,-7.254077e-01,2.263488e-02,-1.497519e-01,-6.548100e-01,-1.019175e+00,7.438170e-04,-8.183001e-01,3.270817e-01,1.146295e+00,-5.850934e-01,4.810500e-02,3.772990e-02,2.348904e-01,1.097650e-02,4.855810e-02,-1.950506e-01,-8.398485e-01,1.683380e-03,1.115085e+00,3.802603e-01,5.249841e-01,-4.085504e-01,-1.435253e+00,-5.470880e-01,4.541931e-01,-3.935013e-01,-1.312241e-01,-4.857116e-01,-2.430606e-01,-5.360294e-01,-1.616660e-02,
-2.309783e-01,2.816008e-02,-5.038166e-02,-1.375011e-01,1.766693e-01,-8.067166e-03,2.016420e-02,7.396733e-02,2.531850e-02,-1.342251e-03,2.205080e-02,-4.541532e-01,-1.715517e-01,1.941779e-01,3.438370e-02,-3.451180e-01,-2.642199e-01,5.933536e-02,2.218334e-02,2.473350e-01,-1.478618e-01,1.475566e-02,2.489729e-01,-8.556191e-01,3.011230e-02,-3.564226e-01,4.937879e-03,-4.849592e-01,4.126222e-01,-3.435250e-02,-1.328160e-02,-2.283907e-02,-3.006640e-02,-7.892800e-03,3.855067e-01,-5.602804e-02,-2.655230e-02,-5.853865e-02,-4.733312e-01,1.989269e-01,1.095621e-01,2.597805e-01,1.671367e-01,-1.890390e-01,-4.356438e-02,-2.569746e-03,2.073731e-01,-9.601268e-01,-2.849038e-01,4.073130e-02,
5.085647e-01,-1.039749e-02,-9.713333e-02,6.988316e-02,3.026300e-01,1.832425e+00,2.341220e-03,3.635921e-02,-3.856370e-02,-1.606907e-01,-1.564510e-03,-4.325053e-01,8.680044e-02,-2.947833e-01,4.358860e-02,7.369880e-01,6.239987e-01,-2.407344e+00,9.121789e-02,-2.409178e+00,-3.666479e-01,7.322924e-01,5.408657e-01,4.671056e+00,-1.424840e-02,6.734809e-01,1.635669e-01,2.529181e+00,1.803648e-01,-2.977440e-02,-3.670680e-02,1.629265e+00,3.655580e-02,-1.441850e-02,3.019240e-01,-1.372717e+00,3.419900e-02,1.022410e+00,7.517988e-01,9.254318e-01,4.345674e-02,-3.353262e-01,-1.812032e+00,2.807348e-01,5.201138e-01,5.841711e-01,2.279188e-01,-2.675404e-01,-1.525542e+00,-1.153090e-02,
-1.201160e+00,-4.699494e-01,-5.204064e-01,-6.033715e-02,-7.217780e-01,-3.794663e+00,2.509900e-02,1.025555e+00,1.165297e-02,-1.411831e-01,2.443530e-02,-3.070539e-01,-8.512171e-02,-3.318313e+00,-1.082820e-02,2.017275e+00,-4.825053e-02,9.249127e-01,-4.116247e-01,8.483325e-01,1.695800e-01,5.103424e-01,-7.197303e-01,8.233227e-01,5.707820e-03,-2.924567e+00,-5.650473e-01,6.688523e-01,-1.448348e+00,-1.369440e-03,-9.929260e-03,4.686877e-02,3.270010e-03,3.339070e-02,-4.127343e-01,6.591622e-01,-4.196580e-02,1.609972e+00,-1.223475e+00,8.009115e-01,-6.058485e-01,-5.226878e-01,-3.900015e-01,-3.543529e-01,8.640178e-01,1.948888e-01,-3.978385e-01,-5.575594e-01,-1.061509e-01,-3.294013e-02,
-6.490000e-01,2.997580e-02,1.420031e-01,1.556237e-02,-3.440502e-01,-7.530950e-01,1.734580e-02,1.335209e-01,-2.277790e-02,-2.281867e-01,-2.120800e-02,3.478659e-01,2.451584e-02,4.670499e-01,2.253120e-02,-2.831870e-01,2.906442e-02,4.226853e-01,-5.161118e-01,-1.005506e+00,1.755244e-01,7.565795e-02,-2.144824e-01,-7.088378e+00,-2.295420e-02,-1.149328e-01,-3.714775e-01,9.926949e-01,-2.714020e-01,4.398460e-02,-2.280690e-02,-6.527745e-01,-1.492260e-02,-1.601820e-02,-3.995287e-01,4.412604e-01,-4.657810e-02,3.003927e-02,-1.233342e+00,3.814840e-01,-1.404733e-01,-2.916612e-01,2.375945e-01,4.869304e-01,1.266596e+00,-2.445785e-01,5.544435e-01,4.279629e-01,-3.394123e-01,-2.941570e-02,
6.672704e-02,-4.305224e-01,-6.006459e-02,1.610314e-01,-4.385325e-01,3.555832e-01,1.252070e-02,4.263550e-02,2.857113e-02,4.376372e-01,5.080420e-02,-1.886958e-02,2.008878e-01,4.773814e-01,-1.982800e-02,1.274575e-01,1.177597e-01,-4.944161e-03,-4.403885e-01,-1.996086e-01,-2.402167e-01,2.364953e-01,1.278854e-01,-1.753892e-02,-2.743620e-02,-6.704224e-01,2.517852e-01,7.635155e-01,-3.488370e-01,2.932040e-02,4.199720e-02,1.674419e-01,-1.357970e-02,-1.384360e-02,5.090764e-02,4.409342e-01,-5.150750e-03,-4.865160e-01,-1.246049e-01,1.654601e-01,-2.120738e-01,4.976654e-01,5.693668e-03,-1.317718e-01,1.369105e-01,1.906787e-01,7.948258e-01,7.040607e-02,7.020228e-01,6.050573e-03,
2.758995e-02,3.392687e-01,-1.779792e-01,-9.428135e-02,-9.886764e-01,1.772285e-01,-2.728130e-02,5.000269e-01,1.928260e-02,1.807081e-02,5.644400e-02,2.072734e-01,-5.486833e-02,6.077626e-01,-1.973550e-02,5.693811e-01,4.951604e-02,1.413167e-01,1.271678e-01,-5.201712e-01,-6.028945e-01,-2.322973e-01,-2.019261e-02,-1.598324e+00,7.125070e-03,7.345712e-01,-2.968999e-01,-8.898050e-01,-3.000098e+00,2.580490e-03,9.074350e-03,-1.782795e+00,-1.174070e-02,3.631330e-02,-4.968060e-01,-1.282176e-01,-2.483560e-02,1.180770e+00,-4.548703e-01,9.724602e-01,3.174983e-01,-2.043012e-01,5.338562e-01,2.190129e-01,-3.423007e-01,-2.058302e-01,-4.110037e-01,-3.452391e-02,-3.868605e-01,-3.171600e-02,
8.880258e-02,8.697736e-02,-4.632443e-01,9.038136e-02,-2.593454e-01,-7.822850e-02,-2.716320e-02,-8.632409e-01,-4.533977e-02,5.433099e-02,5.286520e-02,-2.507159e-02,1.054909e-01,2.560652e-02,-4.817710e-03,2.054038e+00,4.135549e-01,-1.541182e-01,-6.965124e-01,-1.165582e+00,-6.334752e-01,3.967565e-01,4.386945e-01,3.757091e-02,3.011960e-02,-9.475372e-01,-1.293612e+00,-3.085107e-01,8.351043e-01,-1.526920e-02,2.894190e-02,2.832417e-02,-1.193210e-02,3.769140e-02,3.603494e-01,4.835632e-01,-1.802860e-02,-2.348613e-01,-7.077780e-01,4.489357e-01,5.605728e-02,1.265279e-02,-1.184924e-02,7.541611e-01,1.434221e+00,-6.105769e-01,1.989075e+00,1.642363e-02,-4.231027e-01,-4.467160e-02,
-2.292846e-01,-2.964661e-01,2.065875e-01,-1.850032e-01,-2.753077e-01,1.944885e-01,2.891760e-02,6.769336e-01,2.018080e-02,-5.871966e-01,1.851080e-02,4.844371e-01,-1.884610e-01,-3.192479e-01,-2.640900e-02,2.019241e-01,-2.402291e-01,4.238554e-01,-6.410434e-01,5.838570e-01,1.095788e+00,-3.514364e-01,-1.124979e-02,1.790712e+00,7.395160e-03,1.871690e+00,1.215113e+00,-3.982621e-02,9.695529e-03,2.273360e-02,3.450680e-03,-1.586457e-01,-4.542200e-02,6.766330e-03,7.334000e-01,5.106569e-01,-9.458500e-03,5.196487e-01,-4.351572e-01,-5.158666e-01,-5.843976e-01,2.065828e-01,-3.279004e-01,6.513968e-02,-7.073507e-02,1.743864e-01,-9.225079e-02,-6.029467e-01,-3.023455e-01,-2.574576e-03,
1.727702e-01,4.205823e-01,-2.414590e-01,7.130004e-02,1.937255e-01,-1.699058e-01,-4.920170e-02,2.676163e-01,-2.428160e-02,-3.091455e-01,3.465830e-02,6.103170e-02,2.838743e-02,3.378530e-01,2.115040e-02,1.497860e+00,-1.129122e-01,-3.539734e-01,4.799059e-01,-6.830835e-01,-2.331395e-01,9.756193e-02,-3.833505e-01,-6.546172e-01,3.155970e-02,6.083055e-01,-6.850621e-01,-6.103425e-01,-9.140281e-03,3.165850e-02,-2.487150e-02,9.071204e-02,-9.207180e-03,-3.413650e-02,4.506502e-01,1.586395e-01,-4.003930e-02,-7.080108e-01,2.605900e-01,-6.188104e-01,5.620977e-01,-3.204504e-02,4.600533e-01,4.653182e-01,2.764385e-01,-6.713939e-01,-1.279077e-01,-1.065802e-01,-9.254313e-02,1.472090e-02,
-1.271844e+00,4.028020e-02,-2.888238e-01,-1.927019e-02,-6.659868e-01,1.259894e+00,-7.177230e-03,2.613410e-01,-9.696940e-03,8.467677e-01,2.496250e-02,-2.087999e-01,-3.403377e-02,-5.240337e-01,3.056140e-02,-8.599147e-01,5.506353e-01,2.140492e-01,9.415060e-02,-1.134145e+00,-2.912459e-01,-8.070761e-01,-6.540050e-02,1.570579e+00,-1.182620e-02,8.473892e-01,1.914152e+00,-8.322363e-01,-1.106377e+00,1.111720e-02,-3.293170e-03,9.285456e-01,2.022760e-02,2.748430e-02,-6.210595e-01,9.018851e-02,8.104760e-03,4.644408e-01,5.796905e-02,-2.394434e-01,3.195474e-01,-8.705572e-03,6.455172e-01,-4.813475e-02,3.753521e-01,-4.464358e-01,-1.767462e+00,6.535918e-01,2.684264e-01,-3.930290e-02,
1.835040e-01,1.951233e-01,-1.215519e-01,3.626376e-02,-3.208632e-01,-5.189921e-01,-4.304210e-02,-1.143164e-01,3.039886e-02,-3.109950e-01,-9.227460e-03,-4.403491e-02,4.072614e-02,2.183781e-01,-1.097310e-02,4.198635e-01,-3.238680e-01,8.374341e-02,-2.535031e-01,-2.409825e-01,3.924361e-01,1.326576e-01,2.018773e-01,2.073365e+00,1.621730e-02,8.890509e-01,9.490167e-01,-1.594060e+00,5.139275e-01,-1.351900e-02,-3.742460e-02,1.889429e-01,-3.641480e-02,1.091850e-02,2.442965e-02,-1.330406e-01,-4.052280e-02,-4.870205e-01,-1.011751e+00,-2.293478e-01,2.828105e-01,2.743881e-01,-4.158973e-01,-3.853392e-01,-4.399275e-01,-7.082877e-01,4.084162e-01,-7.149618e-01,1.953593e-01,-4.529399e-02,
-3.184812e-01,3.080781e-01,-1.666679e-01,-1.236985e-01,-3.295310e+00,-3.404274e-01,-3.809310e-02,-3.233164e-01,-3.760550e-02,4.147910e-01,-2.485410e-02,-1.536365e-01,-1.373938e-01,-5.707052e-01,-4.610950e-02,-1.113153e+00,5.034152e-01,-8.659032e-01,-7.009288e-01,4.187490e-01,-5.770364e-01,9.021033e-01,5.832253e-01,5.429009e-01,-6.497040e-03,-2.970318e-01,-6.135876e-02,1.300643e+00,-1.398203e+00,2.456980e-02,2.712660e-02,-9.234581e-01,-3.073050e-03,-2.073010e-02,-8.251720e-01,-5.639615e-01,1.341080e-02,9.286861e-01,-2.078141e+00,1.966900e-01,-6.569642e-01,-5.965235e-01,-2.977174e+00,-1.534436e+00,1.920108e-01,-5.359976e-01,-9.685330e-01,1.028856e-01,2.849732e-01,-4.572000e-02,
2.852527e-01,-1.666332e-01,2.029152e-02,9.916586e-02,6.990269e-01,-6.127084e-01,-1.844580e-02,4.929992e-01,-2.271190e-02,-1.347568e+00,9.726550e-03,4.061467e-01,7.273533e-02,8.636842e-01,-7.085000e-03,-2.741691e+00,9.058319e-01,-1.099019e+00,-1.455529e+00,-1.217215e+00,-6.774895e-01,-9.218774e-01,-5.837435e-02,-3.505975e+00,-2.734930e-02,3.981121e-01,-3.737642e+00,9.894276e-01,2.187141e-02,1.261720e-02,1.600710e-03,5.700541e-01,-4.225010e-03,-2.280530e-02,1.044168e+00,2.133084e-01,-2.698550e-02,4.545487e-01,-8.348345e-01,-1.185898e+00,-6.418746e-01,-2.076503e-01,-5.231823e-01,7.196694e-01,-1.374111e+00,6.098976e-01,7.122281e-01,-1.724423e-02,-1.518732e+00,-4.202950e-02,
-4.178493e-01,-1.401775e-01,4.007947e-01,4.523217e-02,-3.351501e-01,-7.088031e-01,3.503570e-02,4.924260e-03,3.834320e-02,-3.980668e-01,2.023310e-02,-2.521846e-01,-1.335979e-02,-9.719601e-01,1.315510e-02,-1.054451e+00,-7.689266e-01,-1.443292e+00,-4.815592e-01,1.293553e+00,5.552881e-03,2.458992e-01,3.033003e-01,-1.275470e+00,-2.307760e-02,4.309955e-01,3.721639e-01,7.092040e-01,-1.133840e-01,-4.322000e-02,4.409420e-02,7.300902e-01,-4.001860e-02,-4.896550e-02,2.794634e-01,-1.418219e+00,3.537920e-02,-9.234042e-01,-8.629733e-01,7.947975e-01,-8.735511e-01,3.897632e-01,-1.278015e+00,-7.849419e-01,3.796425e-01,4.814292e-01,-6.730825e-01,-1.487269e-01,-4.005997e-01,-1.732430e-02,
7.156159e-01,-4.157826e-02,1.132015e-01,-8.862950e-02,-1.923800e+00,-1.012200e+00,3.417440e-02,-2.552950e-01,-1.979070e-02,-4.662196e-01,1.734520e-03,-6.444910e-01,9.453977e-03,-4.219081e-01,3.744960e-02,-4.747741e-01,-1.076430e-01,1.916010e-02,-7.543839e-01,4.405371e-01,7.461643e-02,7.471732e-01,-2.168615e-01,-4.460286e+00,-4.391690e-02,-4.558968e-01,-6.496157e-01,1.124328e+00,2.178328e-01,1.269020e-02,-1.297030e-02,5.572792e-01,4.508130e-02,1.639920e-02,-7.161794e-01,4.702098e-01,-4.527880e-02,8.628622e-01,-3.208724e-01,1.030172e-01,2.397093e-01,1.792482e-02,-4.401960e-01,5.440717e-01,5.173650e-01,-8.006831e-01,1.814250e-01,-1.837946e+00,-1.592988e-01,4.048280e-02,
-1.462603e+00,7.354268e-01,1.164523e+00,6.192756e-02,4.658071e-01,-7.479003e-01,-1.250390e-02,-4.731166e-02,-1.858020e-02,-2.916765e-01,-4.723000e-02,-3.871482e-01,1.388464e-01,1.470883e-01,-3.543520e-02,-9.886086e-01,6.554079e-01,5.537993e-01,-1.348084e+00,6.334756e-01,-7.956538e-01,1.478701e-01,5.061477e-02,-2.916937e+00,-3.794540e-02,-2.602196e-01,1.597909e+00,5.432933e-03,1.833119e+00,4.398850e-02,3.534370e-02,-1.881310e+00,1.199400e-02,3.815170e-02,-1.222152e+00,-1.974957e-01,-4.223250e-02,1.767740e+00,2.324870e+00,-3.051109e-01,-7.064759e-01,1.831496e+00,5.911641e-01,-4.213949e-03,-2.447557e+00,-3.499418e-01,-1.240810e+00,-1.785382e+00,-9.497728e-01,-5.896157e-03,
4.702330e-01,3.529372e-01,3.710170e-02,1.471388e-02,1.354321e+00,-6.647673e-01,4.383370e-02,-5.087297e-01,-1.176530e-02,1.680806e-01,2.681220e-02,3.915901e-01,2.087148e-02,7.193315e-01,-2.206490e-02,-6.470414e-01,3.963047e-01,-1.061516e+00,2.415988e-01,-6.532696e-01,-4.516967e-01,5.107580e-01,3.596864e-02,3.409509e-02,-7.227940e-02,6.122247e-01,-1.274052e-01,-6.253196e-02,-3.892360e-01,3.420250e-02,-2.478780e-02,-2.005667e-01,2.609020e-02,-3.433010e-02,-6.538028e-02,-7.131960e-01,-4.461120e-02,4.238492e-01,-2.559605e-01,4.684017e-01,-1.961723e-01,1.038749e+00,5.677112e-01,2.056741e-01,-5.565519e-01,6.375098e-01,-3.794735e-02,7.968741e-02,-6.383015e-01,-4.401870e-02,
-1.853569e-01,-1.732761e-01,-7.078556e-01,1.673221e-02,1.040030e+00,2.404315e-02,-1.298740e-02,-1.039569e+00,-2.793280e-02,-1.212201e+00,1.075610e-02,-5.147443e-01,4.631963e-02,-1.804217e+00,3.395690e-02,5.346405e-01,1.011716e+00,-6.321763e-01,-3.010860e+00,1.082242e+00,-1.144448e+00,-4.033442e-01,-3.785100e-02,-9.410030e-03,-4.895380e-02,1.645056e+00,1.524435e-01,-4.912042e-01,9.954130e-01,-3.180340e-02,-2.024600e-02,-2.862752e+00,3.915400e-02,1.453110e-02,-1.329466e+00,6.877089e-01,-1.106540e-02,-1.577680e+00,-1.508509e-01,3.535475e-01,4.052243e-01,-2.679131e+00,3.976526e-01,6.494421e-01,-4.645747e-01,1.078908e+00,-1.666520e+00,3.011566e-01,-1.216956e+00,-3.805210e-02,
-5.134405e-02,
-1.225137e-01,
-3.190928e-01,
-2.048289e+00,
1.499857e+00,
4.750719e-02,
-1.646130e+00,
5.131619e-01,
-3.832875e+00,
-1.540508e+00,
-1.438522e+00,
-5.864972e-01,
-1.981843e-01,
-1.143701e+00,
-8.084100e-03,
-2.073322e-02,
-1.169436e+00,
2.869032e-01,
-7.727024e-01,
-2.093335e+00,
-1.497584e+00,
-1.336488e+00,
3.987910e-01,
-1.154158e+00,
-2.268783e-03,
-4.835494e-01,
6.647416e-01,
3.732178e-01,
-1.169369e+00,
6.999894e-02,
-3.012477e-02,
-7.499355e-01,
9.962548e-01,
-1.274611e+00,
-1.346741e-02,
-1.359959e-01,
1.791852e-01,
3.285021e-02,
5.670930e-01,
-3.667077e-01,
-1.109473e-01,
-3.630191e-01,
1.513884e+00,
-1.003326e-01,
1.557986e+00,
1.275465e+00,
-6.655718e-02,
-3.453897e-01,
-1.631485e+00,
2.769903e-01,
-6.370115e-01,2.213712e-01,3.719798e-01,-2.729488e-01,2.735683e+00,-3.897859e-01,2.571821e-01,-5.547691e-02,-5.187593e-01,9.438542e-02,1.580179e-01,-1.796264e+00,5.560182e-01,-4.424221e-01,-2.054840e-02,1.825101e+00,-1.252041e-01,-2.183193e-01,6.744821e-01,-1.521884e+00,-2.191721e-02,1.885237e-01,-3.239816e-01,-1.663577e-01,8.693677e-02,4.735870e-01,-5.674812e-01,7.120989e-02,4.273602e-01,2.417773e-01,1.159080e-01,3.990017e-01,-1.221531e-01,-9.013301e-02,-8.933885e-03,3.559204e-01,4.973610e-02,1.719708e-01,-2.759874e-01,-4.553946e-01,1.078544e-01,-1.160987e-01,6.650798e-01,-7.031641e-01,-2.702745e-01,-1.316437e-01,2.842033e-02,1.864702e-01,2.226651e-01,-4.223434e-01,
-7.770693e-01,8.693988e-01,-3.198687e-01,1.011856e+00,2.930980e-03,-4.790545e-01,-4.142108e-01,1.592250e-01,2.911379e-01,-2.949781e-01,-1.786954e+00,1.383390e-01,1.042720e+00,6.749631e-01,-6.748150e-03,1.085496e+00,2.216284e-01,3.717585e-01,1.606749e-01,1.294360e+00,3.539997e-01,-2.077359e-01,1.113238e-01,1.411082e-01,-5.636236e-01,5.955575e-01,3.940323e-01,2.268629e+00,2.551869e-01,5.235271e-01,5.203238e-01,-2.735009e-01,-5.735007e-01,-1.807571e-01,1.514893e+00,1.812290e-01,-1.968866e+00,3.798094e-01,-8.755447e-01,1.021419e+00,-7.216867e-01,-1.667937e-01,-7.286925e-01,1.242218e+00,5.665287e-01,-5.984495e-01,9.669738e-01,6.470852e-02,2.774114e-01,-9.383739e-01,
-1.643324e+00,-9.222863e-01,8.812547e-01,-1.197418e-01,5.959951e-01,-2.931778e-01,2.036967e-01,-1.093618e-01,1.307144e-01,5.715886e-01,-2.110821e-01,-8.843526e-01,7.107450e-01,8.456037e-01,2.863300e-02,5.015021e-01,8.651369e-01,1.217189e-01,-7.536333e-03,3.118381e-01,-2.473104e-02,-3.639235e-01,-3.118309e-01,-8.048376e-02,-1.732173e-01,-6.310731e-01,1.633643e-01,-5.134848e-02,9.059750e-02,5.628191e-02,-5.089006e-01,5.084235e-01,1.356323e+00,-1.065468e-01,3.308548e-01,-4.108154e-01,-1.664169e-01,3.201689e-01,1.273374e-01,-2.514490e-01,3.250936e-01,3.992723e-01,-6.077390e-01,1.097727e-01,3.427248e-01,-4.527723e-01,-4.807064e-01,-3.450391e-02,2.361186e-02,7.323641e-01,
-2.194138e-01,3.260887e-01,1.721694e-01,-1.100079e+00,-5.493464e-01,-8.664273e-02,-3.565607e-01,1.282432e-01,-8.499916e-01,4.342266e-01,-1.274018e-01,6.835858e-01,5.130208e-01,3.173371e-02,4.169470e-02,7.921705e-03,4.466286e-02,4.394996e-01,6.543303e-01,-1.133794e+00,-1.717794e-01,-2.152118e-01,-2.906739e-01,2.167963e-01,1.217971e-01,-3.130053e-01,2.568493e-01,4.832233e-01,-2.672802e-01,8.852153e-02,-2.678058e-01,3.419525e-02,2.937526e-01,-5.415890e-01,-1.914669e-01,-7.695625e-01,6.017578e-01,2.213496e-02,3.264550e-01,-2.159019e-01,3.564820e-01,3.131185e-01,-4.140694e-01,-2.057700e-01,-5.058395e-01,4.625537e-01,1.316222e-01,-2.945457e-01,8.173236e-01,-3.844379e-03,
-3.313026e+00,-1.157345e+00,3.508408e-01,1.289820e+00,-3.125050e+00,4.336390e-01,5.417215e-01,-1.416736e+00,-1.365670e+00,2.396557e-02,-6.831595e-01,9.592806e-01,-8.624055e-01,3.245953e-01,2.892050e-02,-3.136300e-01,1.505532e+00,-2.076795e+00,-8.051491e-01,8.474467e-01,-1.237719e+00,-3.815271e+00,7.529454e-01,-3.545523e-01,9.114181e-01,-1.993361e-01,-9.644744e-01,-1.417310e+00,4.967544e-01,1.162143e-01,6.453996e-01,-1.621153e+00,-1.487375e+00,1.270838e+00,4.663117e-01,-6.460035e-01,3.404490e-01,-1.079602e+00,-1.262775e-01,1.321167e-03,9.671597e-01,1.336267e-01,-3.011825e-01,9.954857e-02,1.111841e+00,-5.214500e-01,6.928627e-01,-2.241526e+00,-2.416611e-01,3.299277e-01,
-6.238972e-01,-9.514310e-01,1.238348e-01,-1.355991e+00,-1.154122e+00,-5.719558e-02,-3.291056e-01,-1.503978e+00,-9.968151e-01,-2.939377e-01,-3.355795e+00,-1.555997e-01,-7.069223e-01,-1.575657e-01,1.452800e-02,-1.336509e+00,-3.356389e-01,4.671112e-01,-1.541986e+00,-4.624873e+00,-2.746824e-01,-1.461772e-01,2.081155e-01,-3.899705e-01,4.115310e-01,-2.625992e-02,-3.897264e-01,1.194976e-01,-5.956251e-01,-5.570760e-01,4.362801e-01,-5.322155e-01,-1.550173e+00,-6.516431e-02,-8.680959e-01,1.693372e+00,3.390855e-01,3.008597e-01,4.961341e-01,8.725590e-02,-1.931937e-01,3.633705e-01,1.014338e-01,-3.757086e-01,6.251177e-01,6.345309e-01,5.306487e-01,6.848643e-01,1.242660e+00,-7.126545e-01,
-8.614705e-02,-6.682224e-01,4.265135e-01,3.287141e-01,1.676763e-02,7.854988e-01,-5.622954e-01,-2.538866e-01,-3.050830e-01,-5.996947e-01,-4.161999e-01,1.988829e-01,-2.498192e-01,-1.007240e+00,2.577290e-02,6.947597e-01,9.569661e-01,1.631229e-01,1.120981e+00,-3.100807e-01,3.240558e-02,3.807363e-01,7.680871e-01,1.908517e+00,-9.260296e-01,5.021672e-01,3.762850e-01,-1.033034e+00,-1.983525e-01,2.841328e-01,-2.132808e-01,8.787751e-02,-1.087623e+00,-5.424404e-02,-6.802967e-01,-1.217285e+00,-2.318605e+00,3.890570e-01,1.724265e-01,-1.467855e-01,-1.390306e-01,3.374346e-01,-1.574117e+00,6.971117e-02,3.885835e-01,-6.698712e-02,1.718158e-01,1.772096e-01,-2.506793e-01,5.770298e-01,
-2.610498e-01,1.095057e+00,-1.242904e+00,2.782324e+00,1.291380e+00,1.104118e+00,5.224934e-02,-3.080422e-01,8.710788e-01,-2.136498e-01,6.478237e-01,3.960325e-01,3.500512e-01,-2.239375e-01,4.016110e-02,-1.585789e-01,-2.421920e-01,2.726334e-01,-1.536881e-01,1.688365e+00,9.751905e-02,-6.830209e-01,-3.263688e-01,-3.021742e-02,1.538548e-01,2.285205e-01,-9.603800e-02,-1.280087e+00,-5.059434e-01,-3.581959e-01,1.070670e-01,1.863571e+00,-1.922628e+00,5.508755e-02,4.236010e-01,1.120636e+00,1.713633e-01,2.038537e-01,-8.939947e-02,-4.549078e-02,2.142462e-01,-5.651861e-01,-7.179946e-01,2.765054e-01,4.949672e-01,2.817791e-01,5.269300e-01,5.165098e-02,-2.108769e-01,2.917811e-01,
3.365250e-02,1.095740e-02,-3.852320e-02,6.196590e-03,-3.616940e-02,8.166950e-03,-9.363280e-03,-1.010260e-02,3.859540e-02,-1.618280e-02,2.780090e-02,-2.519320e-03,-1.905060e-02,-4.862750e-02,-1.916680e-02,-3.434550e-02,2.620800e-02,-5.632730e-02,-1.627260e-02,-2.686350e-02,-2.553180e-02,-1.381810e-02,-2.867860e-02,-1.844240e-02,2.943220e-04,-2.040960e-02,-5.015680e-02,2.832870e-02,-1.676310e-02,-8.745600e-03,2.099110e-02,-3.261960e-02,3.359200e-03,1.533460e-02,-2.634960e-02,-3.463270e-02,-4.408420e-02,-8.958290e-03,-1.467110e-02,-3.675770e-02,3.116370e-02,-3.731200e-02,-1.232150e-02,-2.380620e-02,-1.192950e-02,-4.574470e-02,-1.210430e-02,2.524170e-02,1.016700e-02,-4.964370e-02,
-1.827320e+00,-5.188668e-01,1.145281e+00,-1.878705e-01,-9.279628e-01,-2.250802e-01,-3.204201e+00,-1.087811e-01,-6.629005e-02,-1.734641e-01,-3.339540e-01,1.603611e-01,4.244339e-01,-1.053460e-01,1.059540e-02,-1.942901e+00,6.931587e-02,8.905939e-01,7.313217e-01,-4.485264e+00,-8.558597e-02,-8.121716e-02,-3.910709e-01,-1.537253e-01,2.025348e+00,2.936258e-01,-5.930962e-02,9.661683e-01,-2.819425e+00,-9.893308e-01,2.208513e-02,-9.492520e-01,-2.887148e-01,-7.443328e-02,7.624169e-01,1.085995e-01,-3.967403e-01,-3.313915e-01,-4.884644e-01,-4.008352e-01,-1.361566e+00,-2.043604e-01,2.031956e-01,9.129434e-02,-3.857146e-02,1.556050e+00,-2.794133e-01,-1.791380e-01,6.630825e-01,-1.771680e+00,
-4.330406e-01,2.659335e-01,-1.238550e-01,1.174766e+00,-1.627029e-01,-1.965510e-01,-1.847397e+00,-2.934487e-01,-2.004079e-02,-3.838312e-01,5.996467e-01,2.160718e-01,6.220317e-01,-5.028264e-01,-5.071220e-02,9.985587e-01,-1.365448e-01,4.742132e-01,-7.743843e-01,9.971078e-02,-1.066145e-01,6.545832e-01,1.020179e-01,3.384818e-01,-4.174463e-01,-3.669661e-02,2.598274e-01,-1.105010e-01,-3.673142e-01,-9.667349e-01,-2.309624e-01,-3.253134e-01,-1.385163e+00,-1.659967e+00,6.828215e-01,2.154096e-01,2.012125e-01,2.187833e-01,1.632070e-01,-3.803623e+00,-9.472943e-01,-6.419801e-01,-1.888444e-01,-9.428047e-03,2.217662e-01,8.132186e-01,1.528194e+00,1.864996e-01,-1.231177e-01,6.626232e-01,
-1.696412e+00,1.183838e+00,-4.011886e-01,9.203327e-01,-5.983863e-01,1.791549e-01,8.667017e-01,-8.154897e-01,9.544458e-01,1.012767e-01,-2.131587e-01,5.596572e-01,3.174192e-01,6.997196e-02,2.150070e-02,1.632872e+00,5.039954e-01,-8.657846e-01,9.568446e-01,-3.453640e-01,-1.385273e+00,4.044275e-01,4.598744e-01,4.162329e-01,-2.951286e-01,9.173707e-01,-1.475964e-02,6.050281e-01,-3.060063e-01,6.617914e-01,3.793539e-02,4.440469e-01,-2.476751e+00,2.389645e-01,-1.088977e+00,1.625229e-01,-3.592804e-01,-1.015398e+00,3.949988e-01,-1.125787e-02,8.859999e-01,3.485515e-01,-1.456393e-01,1.295893e-01,8.577971e-01,8.617627e-01,9.556757e-01,-2.581010e-02,-5.615787e-01,1.591010e+00,
8.064981e-01,-1.624729e+00,7.077151e-01,-3.647888e-01,-5.412670e-02,3.759138e-01,-1.382268e+00,1.293540e+00,5.608239e-01,6.580158e-01,-4.136387e-01,3.706586e-01,-4.433568e+00,-2.724233e+00,5.114930e-02,-1.497042e+01,-2.329669e-01,-2.117260e-01,1.306518e-01,4.902622e-01,-2.989129e-01,-5.111163e-01,1.112487e-01,-4.281132e-02,1.532700e-01,-1.933070e-01,-4.995928e-01,-1.698314e-01,-1.383377e+00,-4.171049e-01,-3.463480e+00,8.396807e-02,-2.238421e-02,9.188623e-01,-1.862730e+00,1.580701e+00,-1.263001e-01,-1.561150e+00,7.653020e-02,5.474950e-01,-2.688187e+00,-4.874367e+00,5.050068e-01,2.455000e-01,-6.746044e-01,-1.049263e+00,4.631753e-01,-1.269472e-02,-1.025351e+00,6.445610e-02,
-7.225520e-02,-1.513621e-01,-1.231203e-01,-1.258136e-01,-1.049018e+00,2.414941e-01,-1.342509e+00,2.821595e-01,5.649967e-01,-1.390194e-01,7.140038e-02,-1.406222e-01,-8.733961e-02,-4.335055e-01,4.444760e-02,-1.153968e+00,3.824811e-01,5.609480e-01,-6.066620e-01,-4.476392e-01,1.961499e-01,3.721294e-01,5.656056e-01,1.042528e-02,1.913974e-01,1.133881e-01,-7.701802e-03,2.666026e-01,-4.211294e-03,5.398364e-02,1.130308e-01,-1.258564e-02,6.031575e-01,-2.966105e-01,1.536895e-02,4.089573e-01,-2.410840e-02,6.878288e-01,-1.972347e-02,6.571600e-01,-1.137550e+00,-8.846143e-01,2.098526e-01,-2.365334e-01,3.463898e-01,8.696320e-01,-8.502144e-02,1.417507e-01,2.168489e-01,-4.785977e-01,
-1.023682e+00,1.764702e-01,1.498835e-01,2.627903e+00,4.837221e-01,-3.947580e-01,7.461593e-02,2.244588e-01,-1.944745e-01,1.616984e-01,-1.511613e-01,2.389182e-01,-6.875787e-01,1.264598e-01,2.188740e-02,-1.193669e+00,-1.061633e-01,3.711652e-01,-2.420401e-01,1.090664e+00,1.364658e-02,-4.271018e-01,-2.150170e-01,-1.938181e-01,1.534565e-01,4.690171e-01,7.080493e-02,-6.011144e-01,2.090505e-01,3.817820e-01,7.723017e-01,2.448289e-01,-1.734792e-02,-4.610309e-01,2.926015e-01,1.552579e-01,-4.601957e-01,1.729161e-01,-1.257963e-02,-1.212774e-01,-1.134824e+00,-6.386181e-02,-5.838577e-01,-4.119193e-01,5.462506e-02,-4.585135e-02,4.877438e-01,-1.690918e-01,2.829036e-01,-1.499322e-01,
-4.971765e-02,-6.637049e-01,-3.347732e-01,1.582594e+00,2.768871e-01,2.406812e-01,-4.427368e-01,-5.070875e-01,1.875739e-01,6.225540e-02,-1.502027e-02,-1.399746e-01,-3.559747e-02,-7.094465e-01,1.911980e-02,7.324990e-01,-4.072539e-01,8.035944e-01,-5.289978e-01,-1.432753e-01,3.365193e-01,1.989782e-01,-6.187059e-02,-1.045105e-01,-1.660573e+00,-7.078583e-02,-1.527948e-01,-5.583238e-01,2.078571e-02,-4.970385e-01,2.232770e-01,-3.852955e-01,8.408883e-01,2.790971e-01,-2.333668e-01,4.294780e-01,-8.883132e-01,-5.035769e-01,-3.906657e-01,-3.894323e-01,5.141581e-01,1.693828e-01,1.445236e-01,-2.891761e-01,2.662239e-01,-3.560426e-01,-2.153772e-01,-2.590506e-01,-1.285604e+00,-8.135472e-01,
-3.590777e-01,-4.348122e-01,-3.936803e-01,-1.472121e+00,6.040383e-01,1.022857e+00,-3.728291e-01,-6.954593e-02,4.349256e-01,-1.655054e-02,5.634781e-01,2.530062e-01,-5.167953e-01,8.973299e-01,-3.901650e-02,4.933943e-01,1.940256e-02,1.764343e-01,1.384838e-01,-7.827293e-01,-2.747127e-01,-3.080662e-01,5.642589e-01,3.412940e-01,1.155542e-01,-1.680820e-01,-3.481957e-01,3.332025e-01,-1.156358e-02,-2.932873e-01,6.581044e-04,-2.056872e+00,5.138241e-01,-4.222025e-01,-3.949577e-01,-1.540538e+00,-3.465607e-01,7.205061e-02,-9.098501e-02,5.493577e-02,-3.400854e-01,8.373675e-01,-2.101152e-02,3.341942e-01,1.871679e-02,-2.035212e-01,2.142283e-01,-4.599476e-01,-6.554425e-02,4.183547e-01,
2.773745e+00,-1.721828e+00,1.027358e+00,6.727527e-01,7.683334e-01,-5.592686e-02,-1.897518e+00,-3.189084e-01,-3.489335e-01,-2.897482e-01,-1.211605e+00,8.209558e-01,-3.377094e-01,2.482363e-02,-4.399560e-02,-2.798892e-01,1.355022e-01,2.348841e-01,-6.123888e-01,1.599803e+00,-1.123075e+00,-1.217556e+00,5.976351e-03,-2.121230e-01,-2.293888e+00,-7.412670e-01,5.695117e-02,6.622798e-01,4.379233e-01,-2.874077e-01,3.314436e-01,1.061395e+00,-2.270919e+00,-3.141215e-01,-2.973004e-01,1.146641e+00,1.931132e-01,-1.537258e-02,-8.369128e-02,-2.747938e-01,3.820480e-01,-4.712515e-01,-7.189596e-02,-3.544507e-01,-8.043541e-01,-2.870618e-01,9.977499e-01,-3.960285e-01,3.347166e-01,-1.439893e+00,
-2.594132e+00,-9.459990e-01,-4.465353e-02,1.122647e+00,-1.455764e+00,2.022625e-01,-1.379957e+00,2.914963e-01,-7.056794e-01,1.363644e-01,-9.791648e-02,5.622071e-02,-2.935857e+00,-1.245815e-01,4.326530e-02,-1.325908e-01,5.378084e-01,4.618494e-01,-5.180447e-01,4.628246e-01,8.612704e-01,-1.366195e+00,-8.189870e-01,6.236356e-01,-3.341675e-01,-1.355419e-01,-1.668805e-01,2.181862e-01,-5.297597e-03,7.979621e-01,-4.663467e-01,-3.209634e-01,-8.764980e-01,-8.025665e-01,-5.397791e-01,-3.875389e-01,5.646231e-01,-2.711207e+00,3.143316e-01,-9.552187e-01,5.535555e-01,-1.927390e-01,-5.610103e-01,-2.028720e+00,-2.052298e-01,7.777268e-01,-6.232499e-01,-8.421003e-01,-1.169319e-01,-4.160394e+00,
-1.515833e+00,8.571954e-01,-4.512954e-01,1.828143e+00,-2.126957e-01,1.351585e+00,-1.151888e+00,5.279461e-01,-1.070622e-01,-1.414472e-01,-3.122478e-01,2.601644e-01,-3.859720e+00,1.816503e+00,4.107200e-02,-3.166682e+00,1.043915e+00,1.229410e+00,5.547847e-01,2.365862e+00,1.580276e+00,-1.527132e+00,-7.874421e-01,7.693231e-01,-1.661070e+00,-1.568295e+00,-9.322007e-01,-2.303834e+00,-1.532371e+00,-1.173781e-01,-1.126500e-01,2.067567e+00,-3.684825e+00,-4.305432e-01,1.132189e+00,-4.084885e-01,-1.514531e-01,-2.609214e+00,1.466541e-01,-9.135818e-01,2.300188e-01,-9.438236e-01,-9.483712e-01,2.540650e+00,-1.750453e+00,-7.027208e-01,1.597315e+00,-8.246270e-01,5.749866e-01,-1.093684e+00,
1.500184e-01,2.728147e-01,5.790535e-01,1.716991e-01,2.609314e-01,-1.755738e-01,9.698327e-02,2.622271e-02,1.592051e-01,-9.991124e-02,-1.246608e-01,-8.794755e-02,-3.783827e-01,7.461082e-01,3.363130e-02,-4.603457e-01,5.869358e-01,3.262812e-02,5.341562e-01,-4.362911e-02,-1.129952e-01,3.927306e-01,5.823948e-01,-4.766382e-01,6.793990e-03,-7.164107e-02,3.754538e-01,-3.208598e-03,-5.242616e-01,-1.648611e-02,3.954640e-01,-4.839101e-01,-3.758968e-01,-5.910471e-02,1.511797e-01,-3.587873e-01,9.334646e-01,-4.159276e-02,3.988579e-01,1.572048e-01,3.655203e-02,4.691912e-01,4.543540e-02,3.826869e-01,1.462038e-01,1.450049e-01,1.517289e-01,-2.305726e-01,-3.212800e-01,3.367522e-01,
-5.127306e-01,9.541241e-01,-1.027535e+00,-6.688996e-01,-3.636410e-01,9.394267e-01,7.477861e-02,7.537838e-01,-9.353952e-03,4.000881e-01,6.081297e-01,5.706883e-01,9.321603e-01,-6.978297e-01,1.083920e-02,8.357140e-01,1.347067e+00,2.011861e-01,1.565983e+00,-1.151065e+00,9.386731e-01,6.110847e-01,5.889673e-01,-6.882758e-01,-8.438922e-02,-1.681397e-01,6.651237e-01,-3.258727e-02,-5.795643e-02,6.560785e-01,1.853999e-01,3.276065e-01,-1.575827e-01,-5.651789e-01,1.354731e+00,1.862095e+00,-1.497846e-01,4.547590e-01,-9.311935e-01,-4.487292e-01,-5.583754e-03,-4.927568e-01,-7.213274e-01,8.148079e-01,-1.288655e+00,1.889065e-01,1.485913e+00,5.652981e-01,-8.865708e-02,3.301061e-01,
4.359872e-01,-2.335391e+00,7.754866e-01,-2.666105e+00,8.437167e-01,-2.300051e-01,8.014876e-01,7.495411e-02,-7.869305e-02,1.311203e-02,-2.904350e-01,1.975353e+00,1.360579e-01,-5.320913e-01,-1.969110e-02,2.290051e-01,-2.053503e+00,-1.190542e+00,2.533724e-01,-1.726625e-01,-1.342480e+00,4.671511e-01,4.578153e-01,-8.809353e-02,1.518250e+00,1.378617e-01,5.911331e-01,-1.480972e+00,1.593017e+00,6.202486e-01,4.207024e-01,-1.016768e+00,1.699439e-01,-7.257293e-01,1.171594e+00,-9.707791e-01,4.050331e-01,-2.160590e-01,-1.681068e-01,6.543906e-01,5.948442e-01,6.336261e-02,-5.252784e-01,-1.481837e-01,1.674126e-01,-5.637279e-01,-7.454924e-01,-8.420480e-01,1.963410e+00,2.431133e-01,
-1.309626e-01,3.851456e-01,5.578442e-02,-6.422723e-01,-3.768770e-01,2.833919e-03,1.373221e-01,-5.144927e-02,3.417817e-01,-2.430437e-01,-4.148269e-03,3.387842e-01,-1.251122e-01,2.505955e-01,2.639000e-02,-1.835607e-01,3.727472e-01,9.749158e-03,-1.607202e-01,-2.192190e-01,2.947394e-01,-3.431523e-01,1.720829e-01,-1.939921e-01,7.993075e-01,6.532341e-01,4.123900e-03,-3.407340e-01,-2.721257e-01,3.373207e-01,2.212594e-01,-5.391993e-01,4.147721e-01,2.037860e-01,-3.319632e-01,-2.843872e-01,-3.592912e-01,1.626689e-01,-1.984632e-01,2.373362e-01,3.374858e-04,-2.652324e-01,3.135416e-02,-5.354377e-01,-2.408920e-01,-2.202402e-01,2.252299e-01,1.430369e-01,-3.188927e-01,1.196408e-02,
5.628714e-01,-2.541114e-01,4.805498e-01,-1.644137e+00,6.975682e-01,-5.215490e-01,4.198082e-01,4.919133e-01,3.120490e-01,2.738035e-01,-5.734439e-01,-1.053087e+00,-1.843305e-01,5.101355e-01,3.119620e-02,4.590728e-01,-4.177284e-01,2.835174e-01,-6.288949e-01,-1.173902e+00,2.136448e-01,-9.314591e-01,5.067338e-01,3.801902e-02,1.717734e-01,1.325903e-01,-1.053515e+00,-8.557030e-01,-1.021273e+00,-2.408618e-02,6.609194e-01,4.378262e-01,2.263909e-01,5.182499e-01,1.639957e-01,6.881222e-01,-6.834985e-01,4.121392e-01,4.861367e-01,-1.232487e+00,-1.294640e-01,-5.712682e-01,1.447241e-01,1.817533e-01,3.818493e-01,-2.053046e-01,1.190399e+00,1.726791e-01,-3.535596e-01,4.071401e-01,
-5.258040e-01,2.776843e-01,-1.741001e-01,-1.224081e+00,-3.733639e+00,-5.985612e-01,-1.890557e-01,-1.406986e-01,-1.255641e+00,-1.144385e-01,-1.221513e+00,-1.078753e-01,-1.885606e-01,-1.905534e-01,1.630080e-02,5.528584e-01,-1.698689e+00,3.274018e-01,8.008730e-01,2.709062e-01,-1.400585e-01,5.917466e-01,-1.304504e-01,-6.623786e-02,-2.471363e-02,4.602340e-01,1.245111e+00,4.781460e-01,-1.894362e-01,-2.940331e-02,1.626901e+00,-2.418411e-04,-1.731338e+00,1.651746e-01,-6.458104e-01,-5.651547e-01,2.106248e-01,8.382607e-02,-5.876551e-01,-6.351520e-01,1.111051e+00,8.033243e-01,6.603052e-02,9.672894e-01,-1.368251e-01,-4.869913e-01,2.346377e-01,1.924228e-01,1.072321e-02,-2.976942e-01,
-2.222907e-01,-1.209274e+00,-5.538185e-02,-1.042165e-01,-1.284638e+00,-2.974114e-01,-2.575155e+00,5.635705e-05,6.989509e-01,7.201323e-01,2.721376e-01,-1.799290e-01,1.705134e-01,-3.530840e-01,9.012400e-04,-3.938394e+00,1.245358e+00,8.363302e-01,-1.056120e+00,2.715982e-01,-8.935680e-01,-1.466092e+00,7.238992e-01,-2.244397e-02,1.358734e+00,-1.575666e+00,-3.999906e-02,4.524199e-01,-1.004771e+00,-4.174892e-01,-1.342684e+00,-1.315755e+00,5.434424e-02,-7.721330e-01,1.414326e+00,6.100426e-01,-2.361741e-01,2.712755e-01,5.675886e-01,4.304959e-01,3.368522e-01,-1.305836e+00,1.740254e-01,5.799274e-01,4.239562e-01,-8.658135e-03,-6.990697e-01,4.458240e-02,4.416031e-01,-6.744096e+00,
-3.696423e-01,2.510228e-02,1.590496e-01,2.014136e-01,1.081626e+00,-8.041459e-02,-5.993963e-01,2.281966e-01,-1.501228e-01,-6.467187e-02,-2.859195e-01,-1.776801e-01,-5.046642e-01,1.387877e-01,-4.928850e-03,-5.730304e-01,-5.754929e-02,1.015504e-01,-9.116243e-03,-2.455015e-01,-3.679967e-02,-2.896614e-01,-1.796899e-01,7.757980e-02,4.324613e-02,2.608747e-01,-1.530166e-01,8.491940e-02,-1.768964e-01,4.507554e-01,4.220448e-02,-4.496215e-01,2.736927e-01,-3.553355e-01,1.634776e-01,-5.320269e-01,3.530586e-01,9.960949e-01,-2.806161e-01,3.376267e-01,-8.835468e-01,-2.416995e-01,2.229710e-01,6.115683e-01,7.776936e-02,-3.072734e-01,-1.543422e-01,-8.386622e-03,1.903399e-01,3.335739e-02,
-2.996953e-01,-1.335566e-02,6.064249e-01,-9.177494e-01,1.719332e-01,1.007903e-01,3.728743e-01,-9.516112e-02,-2.599261e-01,-7.398963e-01,-1.196439e+00,2.734431e-01,-1.002068e-01,-9.368341e-02,-4.141110e-02,7.061570e-02,7.281709e-01,-1.372212e-01,8.485489e-01,-2.516431e-01,3.421052e-01,-2.146649e-01,5.288874e-01,1.385996e+00,2.333404e-01,-9.311473e-03,2.860995e-01,-7.099187e-01,-1.432486e-02,1.927536e-01,-3.248724e-01,1.505977e-02,-1.874683e+00,-1.437180e-01,-2.677599e-01,-3.951144e-02,-1.469516e+00,3.987691e-01,4.111791e-01,3.651851e-02,-5.822737e-01,3.579735e-01,-1.070139e+00,5.325387e-02,4.165098e-01,4.623016e-01,4.837019e-01,1.343987e-01,2.123864e-01,-3.287563e-01,
-8.559422e-01,-6.979524e-01,3.417865e-01,-1.300775e+00,9.550131e-01,2.069291e-01,-9.455116e-01,8.307146e-02,-9.073908e-01,-2.694073e-01,1.438763e-01,-3.827989e+00,-3.568909e-01,-1.081115e+00,3.979990e-02,9.589829e-01,-1.087381e-01,-4.223669e-01,-5.022937e-02,2.012064e-01,1.864744e-02,-2.810513e-03,1.149550e+00,3.985117e-02,-7.006208e-01,2.527326e-03,7.337335e-01,-1.718243e-02,-3.450681e-01,-5.709458e-02,-3.129492e-01,-3.536460e-01,-2.951607e-01,-2.813711e-01,-4.444333e-01,-8.352450e-01,4.308120e-02,1.552384e-02,1.252250e-01,-2.262810e-01,8.984300e-02,8.430212e-01,-9.716283e-02,1.396598e-01,6.607995e-01,-5.285688e-01,-3.809569e-01,-9.999996e-02,-5.043817e-01,-9.432382e-02,
8.782159e-02,-4.098215e-01,-1.806915e-01,3.193525e-01,-4.203349e-01,-2.677606e-01,1.227556e-01,-2.148520e-01,1.157810e-02,-8.318827e-01,1.436395e-01,2.234473e-01,4.479848e-01,3.412659e-02,2.769440e-02,-2.013093e-01,-3.705429e-01,5.556554e-01,4.203927e-01,6.367791e-01,9.793935e-02,-1.879475e-01,5.868566e-01,-2.359756e-01,-7.322418e-02,4.929425e-01,-2.976637e-02,-2.442107e-02,-9.892970e-01,2.025532e-01,6.133474e-03,6.155068e-02,-1.120433e+00,3.990198e-01,-2.881392e-01,-1.479088e-01,3.910141e-01,2.038723e-01,4.602979e-01,7.754263e-02,-7.665780e-02,-4.341244e-01,-1.753859e-01,9.276206e-02,1.190238e-01,-2.262670e-01,-4.489824e-02,-2.552254e-01,4.398905e-02,-3.802861e-01,
3.719513e-01,1.400583e+00,-9.464312e-01,4.952985e-01,-1.924067e-02,5.398941e-01,-6.163244e-01,-4.825868e-01,2.826964e-01,-3.949286e-02,2.097879e-01,4.673456e-02,7.597559e-01,1.414098e+00,-2.074240e-02,-1.240157e+00,-1.920314e-01,-7.832428e-02,-5.342057e-01,-1.686443e+00,4.172516e-01,3.927950e-02,-4.534047e-02,3.403510e-01,-2.563792e-01,4.235202e-01,1.499078e-01,4.065498e-01,5.571418e-01,1.678704e-01,-1.663625e+00,-9.326633e-01,2.345901e-01,-3.504234e-01,2.094760e+00,3.373305e-01,-9.202309e-01,6.702898e-01,-1.678146e-01,1.173616e-01,-5.955988e-01,-1.107710e+00,7.979493e-02,2.638659e-01,1.467192e-01,5.687857e-01,3.305997e-03,6.437336e-01,-2.137173e-03,-1.667210e+00,
-1.014086e+00,8.092334e-01,2.342927e+00,-2.585648e+00,5.618172e-01,5.926821e-01,1.847290e+00,-1.003961e+00,-2.566956e-01,-3.792734e-01,3.931718e-01,3.308703e-01,3.054018e-01,-6.379097e-01,-3.881990e-02,-2.366319e+00,6.787603e-01,-8.560056e-02,-6.046832e-01,-1.744265e+00,-7.965890e-01,-2.780651e+00,5.044501e-01,4.890479e-01,1.106226e-01,1.176631e-01,-8.079373e-01,-5.821779e-02,-2.095912e+00,-5.070710e-02,1.245301e-01,1.340348e-01,-2.795514e+00,-1.924825e-01,1.518819e+00,2.365702e+00,-7.868721e-02,-1.596183e-02,-3.225962e-02,-8.085425e-01,-2.687200e+00,6.458304e-01,-5.780352e-01,-1.833612e+00,-6.270033e-01,1.015111e+00,-2.283562e+00,-9.562303e-01,1.567712e+00,4.944027e-01,
8.798108e-01,4.658435e-01,-1.437782e-01,-1.632276e+00,-1.825850e+00,2.288077e-01,-2.814862e+00,-6.805984e-01,-9.736159e-01,2.096748e-01,-6.438953e-01,-7.404574e-01,7.127115e-02,-4.497216e-01,1.984130e-02,-5.203636e-02,2.393163e-01,1.440503e-01,1.744610e-01,-4.252297e-01,-3.679655e-01,3.028564e-01,-2.834869e-01,-2.163024e-01,-1.881070e-01,-3.163451e-02,-1.961543e+00,2.429993e+00,-7.410128e-02,4.719766e-02,-2.942671e-01,9.525515e-02,4.292881e-02,-8.421204e-01,1.428352e-02,3.464261e-01,3.087877e-02,-2.393514e-01,-1.242451e+00,9.396224e-01,-3.253143e-02,-5.427714e-02,-2.141771e-01,1.053158e+00,-2.120696e+00,-5.186464e-01,-9.775540e-02,7.252375e-01,1.730087e+00,-6.402885e-01,
-5.637830e-01,4.480458e-01,-4.811590e-01,-9.997066e-01,-1.399848e+00,-2.901889e-01,7.159452e-01,2.895050e-02,2.419448e-01,9.439320e-02,3.023945e-01,-1.468003e-02,-5.293258e-01,-1.542065e-01,-3.482470e-03,9.284405e-02,-1.163672e+00,-7.490372e-02,6.718984e-01,1.804247e-01,1.937425e-01,1.374857e+00,1.029046e+00,8.182122e-02,-1.369343e+00,3.170403e-01,3.268608e-01,-7.858991e-01,-1.051232e+00,4.345836e-02,2.837236e-01,-1.851152e+00,-1.678397e+00,-3.738168e-01,4.106182e-01,5.326738e-01,1.225369e-01,-3.528773e-01,3.855242e-01,-2.117187e+00,9.176868e-01,-5.836769e-01,-8.784372e-02,2.425642e-01,9.727832e-01,6.044853e-01,-7.496058e-01,5.042720e-01,-8.926094e-01,4.837068e-01,
9.138511e-01,-1.298477e+00,-3.411033e-01,-7.333920e-02,1.934550e+00,-1.253486e-02,1.316990e+00,-1.023557e+00,2.999257e-02,3.593764e-01,1.465293e+00,-2.900249e+00,-1.091081e+00,-3.276872e+00,3.055350e-02,-1.609383e+00,-7.779900e-01,-9.526978e-01,-9.698665e-01,-6.560760e-01,-2.792337e-01,-1.426969e+00,7.580376e-01,-1.278969e+00,-9.417459e-01,-1.307703e+00,-3.691998e-01,4.833663e-01,-3.019443e-01,3.636789e-02,1.309680e-01,-1.565020e+00,6.630207e-01,-7.685830e-01,4.599373e-01,-3.522491e+00,5.295167e-02,-1.709827e+00,3.400846e-01,3.249635e-01,-2.685833e+00,-5.273272e-01,-1.221960e+00,-2.114838e+00,8.661576e-01,-1.520288e-01,1.524789e+00,-2.283631e-01,3.538150e-01,2.047660e-02,
7.659340e-01,9.341826e-01,-1.244838e+00,-3.924309e+00,-2.533390e-01,-6.869917e-03,-2.107450e+00,-5.498335e-01,-5.563851e-02,-1.664740e-01,-3.671226e-01,-1.880716e+00,1.273060e+00,5.155613e-01,-3.863530e-02,-3.541550e-01,-1.266145e-01,-7.471496e-01,-9.904502e-01,-2.866504e+00,1.151517e+00,5.397021e-01,-3.935979e-01,3.971606e-01,7.148725e-01,2.008767e-01,-2.298665e+00,1.095134e+00,-4.487126e-01,7.942653e-01,2.108408e-01,6.466649e-01,-7.417603e-01,-1.603068e-01,2.578164e-01,9.281511e-02,6.477053e-02,5.725312e-01,-7.740374e-01,8.509874e-01,5.060458e-01,-1.957327e-02,3.696039e-01,6.155371e-01,6.974926e-01,7.219847e-01,8.709459e-01,-2.972190e-02,-1.565659e+00,-7.012793e-01,
-2.402560e-02,-4.332550e-02,-1.596090e-02,-3.539170e-02,-2.446600e-02,-8.904600e-03,-2.879650e-02,8.286370e-03,-4.370280e-02,3.818400e-02,3.593870e-02,-3.827070e-02,-4.844280e-02,1.902590e-02,-3.602750e-02,-3.150610e-02,1.246790e-02,1.706960e-02,-2.939190e-02,2.170360e-02,-1.525390e-02,-3.419550e-02,-3.777460e-02,-4.893580e-02,-3.496140e-02,-5.081380e-02,-4.693590e-02,-3.936580e-02,-2.538470e-02,2.235750e-02,-8.825050e-05,4.596240e-02,1.930310e-03,-2.509380e-02,-3.178410e-02,-4.023730e-02,-4.660900e-02,-2.983810e-02,-6.216110e-03,2.886100e-02,-4.886010e-02,2.635820e-02,-1.818880e-02,-2.938560e-02,2.324350e-02,3.618140e-03,9.040630e-03,-3.410500e-02,-4.928280e-03,2.441080e-02,
