// The contents of this file are licensed under the Creative Commons
// Attribution 4.0 International License: https://creativecommons.org/licenses/by/4.0/
// Neural Network File Format by Kyle Julian, Stanford 2016 (generated on 11/27/2021 23:09:11)
7,5,5,50,
5,50,50,50,50,50,50,5,
0,
0,0,0,0,0,
0,0,0,0,0,
19791.091,0.0,0.0,650.0,600.0,7.5188840201005975,
60261.0,6.28318530718,6.28318530718,1100.0,1200.0,373.94992,
2.130773e-01,4.701458e-01,-3.082971e-01,-7.278403e-01,-4.576518e-02,
-5.518515e-02,1.044612e+00,-5.600792e-01,-1.213043e+00,3.527310e-01,
2.547696e-02,-4.092832e-02,-4.145855e-02,-6.191536e-02,-4.558816e-01,
-5.737640e-01,1.402825e-03,-4.117280e-02,-3.160357e-01,2.732020e-01,
1.221043e-01,1.487972e-02,-3.069636e-01,-7.710909e-01,-1.002358e-01,
3.119254e-02,6.841761e-02,-6.618075e-02,4.102519e-01,-2.907606e-01,
-2.732489e-01,4.367039e-02,5.429062e-02,9.205251e-03,-1.595397e-02,
-1.962925e-01,-8.280716e-01,-1.261378e+00,4.344716e-01,-5.202760e-02,
-4.274863e-02,1.163359e-01,-3.401763e-01,-2.667774e-01,4.520025e-01,
4.353921e-03,7.432189e-01,-8.269826e-01,4.984406e-02,2.218131e-02,
4.456002e-02,6.257424e-01,-6.188184e-01,1.694569e-01,-1.362775e+00,
-2.161931e-02,-1.035261e+00,-1.532299e-02,3.145391e-02,-1.222079e-01,
3.169640e-01,-3.501095e-03,-2.882288e-02,-1.725557e-01,-1.177036e-01,
-3.483850e-02,-2.231813e-01,2.955846e-01,2.681243e-01,-5.195716e-01,
-4.046610e-02,-1.997984e+00,1.712031e+00,2.354184e-01,-1.139615e-01,
-2.969396e-02,-1.008216e-01,9.065092e-02,-6.128908e-01,-8.754941e-01,
-3.451304e-02,1.335311e+00,-2.010864e+00,-2.160780e-02,4.381182e-02,
-1.756064e+00,-1.609776e-02,4.702735e-02,4.749353e-02,2.313347e-02,
6.094151e-02,-3.448552e-01,4.575428e-01,-3.097896e-01,3.794083e-01,
-6.570747e-02,8.823686e-03,1.385901e-01,-5.183042e-01,-3.436978e-01,
3.472700e-02,3.129948e-02,-3.352528e-02,1.742159e-01,-4.791366e-01,
-5.435641e-02,-5.634310e-01,-6.573917e-01,6.160288e-01,-4.709782e-01,
1.901480e-01,-2.575887e-02,4.830349e-01,1.619264e-01,-4.265406e-01,
-5.297556e-03,-2.499426e-02,2.165095e-01,-5.361565e-02,-1.757929e+00,
-7.109546e-02,-3.347478e-01,-3.501499e-01,-3.542161e-01,1.437129e-01,
-1.841423e-02,-1.235337e+00,-2.940870e-01,6.652033e-01,-5.182259e-01,
-5.359229e-01,5.138979e-02,1.837207e-02,1.570444e-01,-1.230190e-01,
1.887090e-02,-3.487041e-02,1.776793e-01,1.982341e+00,-1.736948e+00,
-1.582355e-02,1.697245e-03,-2.205129e+00,5.278154e-02,-4.417072e-02,
4.335843e-01,-2.106985e-02,1.137414e-02,4.063295e-01,-1.126391e+00,
-3.232126e-02,-4.633453e-05,1.119439e+00,1.620312e-02,2.681450e-02,
-2.978524e-01,9.639214e-02,-1.022751e-01,3.554628e-01,-4.947187e-01,
-1.336418e-02,-4.738382e-01,4.583120e-01,-2.115890e-01,-1.209097e+00,
-1.631666e-03,1.045572e+00,4.497131e-01,8.221407e-01,-1.028708e+00,
-7.521381e-03,1.556671e-01,-1.937357e-01,-5.688066e-01,-5.367325e-01,
-5.397029e-01,1.005658e-01,-3.842373e-02,-3.344472e-02,1.354827e-01,
-5.502231e-01,-6.308495e-03,-1.173074e-02,-1.622441e-01,-1.018769e-01,
1.979657e-02,-6.349296e-01,1.429803e-03,-1.112183e-01,1.908924e-01,
-9.878076e-01,-2.912164e-01,-2.846791e-02,7.860167e-02,-7.644971e-02,
6.119810e-02,1.690859e+00,1.856689e-01,4.938385e-01,-2.908631e-01,
8.315900e-01,-1.973070e-02,-1.922963e-02,3.654860e-01,-4.799854e-01,
-1.424387e-01,6.732761e-01,1.022686e+00,3.571151e-01,-2.407231e-01,
-1.584806e-02,-1.641289e+00,-8.128669e-01,7.698237e-01,-7.753658e-01,
2.950121e-02,1.842595e+00,-1.868525e-01,2.256492e-01,-6.464408e-02,
-1.685778e+00,2.526467e-02,3.968392e-02,2.721614e-02,1.826306e-02,
-9.301893e-02,5.174465e-01,4.122372e-03,-1.044346e-01,2.473222e-01,
-6.665257e-02,8.175091e-01,-5.774867e-01,-6.457212e-01,-1.251633e+00,
-7.907496e-02,-6.782184e-01,-1.076423e+00,1.676499e-01,-1.240775e-01,
-2.836496e-02,2.394689e-02,-5.830204e-02,5.968586e-01,8.430970e-01,
8.353081e-02,-4.508623e-01,4.389540e-01,-1.234111e+00,-2.916109e-02,
4.779261e-03,
-6.350745e-01,
2.011012e-01,
-1.995711e-01,
9.114299e-02,
1.513600e-01,
9.152251e-02,
-1.165489e-01,
1.982738e-01,
-3.003166e-01,
8.826970e-02,
-5.819048e-02,
-2.078626e-02,
2.510499e-05,
-1.040417e-01,
-2.708438e-01,
-3.268239e-01,
-3.473358e-01,
2.464852e-01,
4.521047e-02,
2.511635e-01,
6.072981e-02,
1.464923e-01,
-7.144889e-01,
-2.194898e-02,
8.884468e-02,
3.382448e-02,
5.279042e-01,
5.260655e-02,
2.187427e-02,
2.373273e-02,
-2.349453e-02,
-1.824814e-01,
-1.765005e-01,
-1.045613e-01,
-8.074657e-02,
-4.665288e-02,
1.089910e-01,
-4.748536e-02,
6.537985e-02,
2.567720e-01,
-1.918523e-01,
-2.887238e-01,
4.761676e-01,
-2.469628e-01,
-1.077671e-02,
-5.744100e-01,
6.243562e-02,
1.499303e-01,
-3.188293e-01,
5.393205e-01,1.538616e-01,3.142793e-01,-5.993745e-01,-2.885380e-01,1.400245e-02,-2.661869e-01,2.717640e-01,9.409065e-01,7.787079e-01,-7.185276e-01,4.836686e-02,1.933418e+00,-1.332353e-01,-1.053010e-02,2.726208e-01,1.807062e-01,-2.717936e+00,9.677703e-01,5.436023e-01,-1.066651e-01,1.946377e-01,-3.425855e-02,9.549423e-01,7.899964e-01,1.028856e-03,-3.736474e-01,2.015087e-01,4.013001e-01,3.826488e-01,1.718156e-01,-4.708342e-01,2.846651e-01,-3.622285e-04,2.368483e-01,1.139988e-01,-8.434072e-01,8.406702e-02,-8.519314e-01,3.262921e-01,1.496151e+00,2.151091e-01,8.491850e-02,2.803125e-01,-1.739476e+00,6.549269e-01,2.636654e-01,-2.626484e-01,-1.023976e-01,-9.208634e-01,
2.011704e-01,9.978408e-01,-3.786987e-01,-1.524375e+00,3.448178e-01,-3.587083e-01,4.903701e-01,-1.345081e-01,-7.431740e-01,7.392961e-01,2.143808e-01,-4.539689e-01,6.471553e-01,9.745553e-01,-6.506764e-01,5.188554e-01,-6.068581e-02,1.565342e+00,-2.171901e-01,-2.663943e-01,-5.822713e-01,1.885711e-01,-2.538503e-01,2.203407e+00,-8.836431e-03,-7.658479e-02,6.462415e-01,-4.318434e-01,4.526192e-01,6.342731e-01,6.993297e-01,3.502340e-01,3.923945e-01,2.680869e-01,1.717482e-01,-1.841385e-01,1.660728e-01,3.379131e-02,-8.315631e-02,-5.816517e-01,1.887337e-01,-8.115941e-02,1.843419e-01,-6.574346e-01,7.617713e-01,-3.729104e-01,9.765351e-01,-1.939056e-01,-3.394806e-01,1.445234e+00,
1.204586e+00,5.589415e-01,-1.516517e+00,-5.566366e-01,2.682175e-01,-1.276051e+00,-7.015342e-01,-2.633705e-01,-1.031919e-01,2.051361e+00,6.766973e-01,1.323896e+00,-2.524320e-01,8.904792e-01,7.006224e-01,-3.308578e-01,8.101646e-01,-4.021292e-01,1.440805e-02,-8.519610e-01,-1.096160e-01,-1.441310e-01,4.855561e-01,3.885360e-02,-1.295112e-01,9.931859e-01,-6.256780e-01,-3.883981e-01,-3.626725e-01,-1.432227e-01,2.750284e-01,-7.107044e-01,6.744743e-01,-3.515602e-01,6.744793e-02,-5.769060e-02,5.233473e-01,1.419835e+00,-5.919278e-01,2.519156e-01,-2.142737e-01,9.228657e-02,-1.521603e-01,1.689801e-02,-6.788482e-01,8.109524e-01,1.484388e-01,7.332982e-01,6.634153e-02,2.927472e-01,
-5.124366e-01,-3.253357e-01,5.145335e-01,-4.644228e-01,4.706869e-02,1.491635e-01,8.073956e-02,-2.893808e-01,3.764808e-01,1.614585e+00,2.285547e-01,-8.648573e-01,-2.295320e-01,4.463568e-01,-6.270022e-01,1.070893e-02,-2.355077e-03,2.840419e-01,-1.092278e-01,3.629149e-01,-8.730385e-02,-1.263778e-01,4.319271e-01,5.454926e-01,2.202956e-01,2.590527e-01,-3.682057e-01,4.177174e-01,-6.117037e-01,-3.402180e-01,3.841285e-01,6.397319e-01,6.587768e-01,-8.138585e-02,-1.851553e-01,2.236062e-01,3.467541e-01,-1.801609e-01,-2.774506e-01,-9.947964e-01,-5.454716e-02,8.316480e-02,-3.327652e-03,-3.247953e-01,5.939389e-01,1.162287e+00,2.689978e-01,5.591773e-01,3.277158e-01,-9.642559e-01,
-5.344000e-02,-3.317157e-01,8.543353e-01,-2.622066e-01,4.149167e-01,-4.419054e-01,-1.333655e-01,4.800493e-01,2.485172e-01,-8.458788e-01,-2.171557e-01,2.981711e-01,-2.583107e-01,3.960330e-01,-1.624340e-02,3.888426e-01,-7.596466e-03,-4.879579e-01,3.371204e-01,1.634578e-01,1.675828e-02,-3.139482e-01,-1.793773e-01,-3.163716e+00,-3.320552e-01,1.822503e-03,-4.482396e-01,-2.303520e-01,4.462606e-01,-1.794761e-01,-9.693772e-01,2.416920e-01,-1.102440e-01,-1.972902e-01,-4.378688e-01,-4.655394e-01,5.979496e-02,2.720618e-01,-4.953229e-01,-5.701915e-02,3.616500e-02,2.125919e-01,1.276047e-03,4.099915e-01,-1.215424e-01,1.737097e-02,1.676247e-02,-3.526687e-01,2.511126e-01,-8.951725e-03,
-2.256136e-01,-2.111955e+00,1.541093e-01,5.868740e-01,-1.115800e-02,-1.025748e+00,-2.033528e+00,-2.062005e-02,-8.657325e-01,-7.855832e-01,2.901216e-01,-6.801098e+00,-1.682610e+00,-1.764413e+00,-1.275045e-01,6.414263e-01,-1.138452e-01,1.036944e+00,-1.033133e+00,2.874777e-01,1.834754e-01,7.424900e-01,-4.771784e-02,2.259095e+00,-4.896329e-01,-1.055106e+00,1.164940e-01,-5.015302e-01,-1.319037e-01,1.196435e+00,4.177805e-01,-3.233958e-01,2.806895e-01,2.467525e-01,8.132455e-02,4.261892e-01,-5.380332e-02,-2.586452e+00,-1.014790e+00,1.517225e-01,-2.382376e-01,3.481028e-01,-5.465334e-01,6.191769e-02,-6.606247e-01,-1.815078e+00,5.571103e-01,3.290876e-02,1.278836e+00,-1.388114e+00,
-4.110674e-01,-8.244574e-01,3.969997e-01,9.289659e-01,-1.370159e-01,-1.068106e+00,4.515917e-01,-1.591120e-02,-1.089306e-01,3.398758e-01,-5.745190e-01,-3.445008e-01,-2.489314e-01,3.760326e-01,5.039649e-01,6.213781e-01,4.045858e-01,1.244741e-01,1.391698e-01,8.318203e-02,4.994521e-01,7.063351e-02,-1.131185e-01,6.017759e-01,-2.283658e-01,-1.804148e-01,1.579942e-01,-8.015510e-02,3.537273e-01,4.566794e-01,8.005969e-03,1.251883e+00,-5.474254e-01,-5.996149e-04,4.803717e-01,-1.442555e+00,8.227251e-02,-7.712878e-01,-2.173458e-01,2.455282e-01,3.590091e-01,-9.589089e-02,-6.603689e-01,-5.742175e-01,3.225385e-01,-5.308446e-01,7.129906e-02,8.764132e-02,-5.045652e-01,-7.220310e-01,
1.985064e-01,7.523469e-01,1.471047e-01,-4.698637e-01,5.678329e-01,1.190968e+00,-1.328971e-01,-5.903053e-01,-8.393237e-02,-2.614610e-01,2.231215e-01,4.883048e-01,-2.780747e-01,6.809147e-01,1.284938e-01,-5.707842e-01,4.621749e-01,8.897499e-01,3.627151e-01,2.826673e-01,9.890203e-01,1.945544e-01,1.305157e-01,-6.156591e-01,2.681815e-01,1.915088e-01,9.907119e-01,-6.587942e-01,3.318116e-01,-1.229426e+00,5.685675e-01,-3.601550e-01,-2.333525e-01,1.801515e-01,2.289460e-01,-2.711441e-01,1.255940e-01,1.404054e-01,1.646472e-01,2.627034e-01,-2.592370e-01,-2.747983e-01,-2.306095e-01,1.221315e-01,-7.506015e-02,-5.766257e-01,1.880633e-01,-5.850648e-01,-7.229263e-01,-4.819166e-01,
2.546497e-02,2.600325e-01,5.731555e-02,1.236109e+00,-1.248280e-01,-4.706428e-01,-9.063731e-01,-5.139602e-02,-2.453865e-01,-1.753617e+00,-8.470216e-01,-2.030834e-01,-7.760612e-01,-4.621505e-01,-1.259787e+00,5.799773e-01,-5.756327e-01,-1.514225e-02,2.336849e-01,4.347041e-01,-2.961094e-01,1.636156e+00,-1.261546e+00,1.002344e+00,5.473864e-02,2.500896e-01,-2.136499e-02,1.724391e-01,3.139513e-01,8.606727e-01,-1.399209e+00,6.507154e-01,-2.129755e-01,-4.095238e-01,5.694825e-01,7.208520e-01,1.339664e-01,-2.144794e-01,1.304156e-01,2.353104e-02,1.521433e-02,-3.449668e-01,-1.357182e-01,-3.305805e-01,2.045987e-01,1.979166e-01,-5.251532e-01,7.791372e-02,-7.031692e-01,1.029666e+00,
-5.204761e-02,5.438786e-01,1.009474e+00,8.930746e-03,4.157767e-01,3.683675e-01,-6.327869e-01,-3.121428e-01,6.419212e-02,6.788316e-01,-4.162388e-01,3.979588e-01,-9.884375e-01,-4.727005e-01,-7.276675e-01,3.114774e-02,6.185704e-02,-2.840337e+00,1.149634e-01,1.469097e-01,6.252962e-02,9.441511e-02,-1.818605e-01,1.405671e+00,7.882750e-02,-1.147277e-01,3.157383e-01,1.982177e-01,1.133168e-01,-3.488920e-01,6.878489e-01,7.513401e-02,9.182993e-03,-9.845508e-02,-3.628534e-02,1.433795e-01,-3.322564e-01,1.171738e+00,3.949514e-01,-1.727416e-01,8.111502e-02,1.985587e-01,2.572019e-01,6.663712e-02,-3.002502e-01,1.350588e-02,-5.426313e-01,-2.311597e-01,1.726696e-01,-3.663925e-01,
1.746227e-02,3.710230e-02,6.508206e-01,-3.205678e-01,1.503786e-01,9.253976e-01,1.015187e+00,3.772792e-01,7.698268e-01,-3.591999e-01,-1.112489e+00,5.185060e-01,9.493290e-01,1.211598e+00,-4.560183e-01,3.705159e-01,1.560895e+00,8.610393e-01,-4.499292e-01,4.267442e-01,-5.516641e-01,5.839955e-01,1.175002e-01,-1.392594e-01,1.649652e+00,-2.807163e-01,-3.284181e-01,-8.392646e-01,-1.455360e+00,5.350718e-01,2.762415e-01,3.677125e-01,2.339913e-01,1.038221e+00,-4.263431e-03,-2.162537e+00,6.328903e-01,-1.955766e-01,3.175946e-01,-4.676871e-01,5.439305e-01,9.805077e-01,5.147898e-01,-8.000437e-01,-5.405104e-01,-1.500929e+00,7.873408e-01,1.098867e-01,1.304895e+00,6.615574e-01,
-3.125200e-02,1.648710e-02,2.596450e-02,2.422710e-02,-2.643350e-02,-7.411909e-02,1.957320e-02,-6.923948e-03,-2.141289e-02,-9.356189e-03,2.076750e-02,2.076410e-02,-3.278939e-02,-5.294417e-02,1.754374e-03,1.075350e-02,-4.456339e-02,-5.302060e-02,-7.680802e-03,-9.281351e-03,-2.807111e-02,-7.788438e-03,-3.378388e-02,1.998449e-02,-1.931260e-02,2.579760e-02,-1.973740e-02,-2.931060e-02,1.413549e-02,-3.997367e-02,-3.716071e-02,-6.589278e-02,-3.193764e-02,-1.289685e-02,-1.894062e-02,-2.945530e-02,-4.488130e-02,7.505454e-04,3.697240e-02,-1.241368e-02,3.732033e-02,2.949533e-02,-3.958884e-02,-9.205113e-03,-1.304310e-02,-7.006121e-03,-4.515678e-02,-5.122297e-02,-3.774239e-02,-3.511860e-03,
9.755664e-01,-7.310604e-01,5.823406e-01,2.022298e-02,-1.685326e+00,-6.132646e-01,-5.682108e-01,-4.641311e-01,-3.825754e-01,-5.065904e-02,-4.816522e-01,5.215059e-02,5.107111e-01,-1.485642e-01,1.214621e-01,-4.354279e-02,5.983925e-01,4.779368e-01,-9.788345e-02,-6.561405e-02,-1.755777e-01,5.459074e-02,4.255062e-03,-1.122742e+00,-4.902603e-01,1.329428e-01,2.498245e-01,3.542318e-01,4.977314e-01,-3.551645e-02,8.118848e-01,-5.559017e-01,8.656532e-01,-4.733306e-01,-2.524418e-01,1.722589e+00,-3.265281e-01,9.829631e-02,4.056408e-02,6.671696e-01,-3.228311e-01,-5.602989e-01,3.480776e-03,-4.950523e-02,2.052625e-02,9.736654e-02,-6.142303e-01,-4.223470e-01,2.603908e-01,-4.589541e-01,
-8.679741e-01,-1.064300e-01,-1.382575e+00,4.151300e-03,4.784832e-01,7.410840e-01,-4.408920e-01,1.371952e-01,-2.301985e+00,2.017883e+00,-7.556029e-02,2.810330e-01,-3.231495e-01,9.278585e-01,3.526450e-01,7.532173e-01,-2.087220e-01,8.297104e-01,-6.827620e-02,-3.940800e-03,-1.410187e-01,1.156188e+00,5.781105e-01,3.111078e+00,-1.521565e+00,6.261729e-01,6.775288e-01,1.049828e+00,-5.086014e-03,-5.136796e-01,-1.756489e+00,-1.297184e+00,1.211206e+00,-7.681468e-01,1.306631e-01,-2.047145e+00,7.806951e-01,6.903654e-01,-1.836553e-01,-1.458664e+00,1.694250e-01,-7.021012e-01,1.292664e-01,-2.002204e+00,6.522423e-01,7.425219e-01,6.467888e-01,-5.033491e-02,-1.080450e+00,-1.107563e+00,
1.052509e+00,1.012838e+00,2.466618e-01,-1.847713e+00,6.792523e-01,-1.244126e+00,6.393401e-01,-2.159742e-01,-4.716592e-01,-1.268552e+00,-6.071027e-02,-2.052887e-01,-5.488130e-01,3.016791e-02,2.050426e-01,7.663837e-01,4.385360e-01,3.103828e-01,-4.280020e-01,1.898146e-01,-3.896372e-01,-7.953561e-01,-2.700930e-01,-4.559625e-01,1.806036e-01,1.286881e-01,4.051579e-01,2.261702e-01,-6.585462e-03,-9.289863e-01,-1.820076e-01,7.031125e-01,7.647603e-01,2.065747e-02,4.650844e-01,-3.599035e-01,-2.706857e-01,-3.878981e-01,-5.449194e-01,-7.326017e-03,-2.409352e-01,1.738242e-01,2.699257e-01,-2.997463e-02,-2.969985e-01,-3.602313e-01,1.327076e-01,1.547779e-01,-2.634788e+00,4.348009e-01,
6.799732e-01,-3.794227e-01,-4.772259e-01,-4.994039e-01,-7.718332e-01,3.116059e-01,-4.017285e-01,-2.213781e-01,2.470302e-01,-3.389853e-02,6.760631e-01,-9.521826e-02,-1.060631e-01,3.735231e-01,3.413064e-01,-6.660984e-01,5.010138e-02,-1.289384e-01,-9.996790e-02,-5.878473e-01,1.835039e-01,-7.125220e-03,9.166761e-03,-5.528556e-01,-7.733516e-02,-8.230225e-02,-4.670751e-01,-1.211943e-01,1.323249e-01,-6.471595e-01,-6.473868e-02,-1.057160e+00,8.194238e-01,-1.475993e-01,2.913077e-02,2.277694e-01,2.790790e-02,9.836898e-02,1.685545e-01,1.886164e-01,2.259502e-01,-1.869788e-01,3.830947e-02,1.023802e-01,-1.939901e-01,-2.522470e-02,3.559789e-01,-4.007154e-03,-9.393829e-02,1.839621e-01,
-9.251076e-02,4.870710e-02,-9.217256e-01,3.849934e+00,-1.315788e-01,5.455032e-01,-1.087233e-01,6.125106e-01,-7.306334e-01,7.164333e-01,-4.775043e-01,1.836895e-02,8.245406e-01,-7.278866e-01,5.806645e-01,-3.891540e+00,-5.084379e-01,-7.552291e-01,-9.693678e-01,-1.652963e+00,-2.355047e-01,1.038797e+00,-7.046823e-01,1.550142e-01,-1.410647e+00,1.030364e+00,4.208228e-01,2.858051e-01,-6.044450e-01,-4.695793e-01,1.427770e+00,-1.262270e-01,-1.403191e+00,1.204105e-01,-9.590221e-01,4.680632e-01,1.842632e-01,-1.097108e+00,2.630397e-01,-4.362000e-01,4.668804e-01,4.309677e-01,2.029217e-01,-8.825170e-01,-2.240134e-01,1.170946e+00,-1.549188e-01,3.474241e-01,-6.317007e-01,-1.616575e+00,
8.107646e-02,-4.372006e-01,-3.336994e-01,8.332070e-01,-9.443030e-01,7.221100e-01,-3.897419e-02,-2.935888e-01,-5.904595e-01,4.226773e-01,-5.088102e-01,-1.593020e-01,8.209122e-01,8.032886e-01,2.186757e-01,6.807096e-01,1.422399e-01,2.214229e+00,-1.441321e-02,1.699576e-01,7.620445e-01,-6.896788e-03,-2.203548e-01,-9.374850e-01,2.917709e-02,-3.232711e-01,-3.781275e-02,1.163181e-01,1.032694e+00,-2.770544e-01,6.212168e-01,4.390899e-01,-2.655314e-01,4.715704e-02,-3.970313e-01,1.572019e-01,1.917024e-02,-1.995096e-02,3.415548e-01,3.679159e-02,-3.712737e-01,-1.095305e-02,-2.473285e-01,1.396591e-01,9.491137e-01,-7.222676e-01,3.533040e-02,-2.535179e-01,-3.629769e-02,-3.965197e-01,
2.039513e-01,-4.229944e-01,-1.948659e-01,-8.205377e-01,-3.696330e-02,7.896103e-01,2.300868e-01,2.285342e-01,1.405534e-01,-2.446971e-01,1.270737e-01,-8.257702e-01,-1.585200e+00,-7.970307e-03,8.291630e-02,3.031705e-01,-1.013898e-01,-3.830323e-03,5.090984e-01,8.528965e-01,-4.706695e-01,4.608950e-01,-5.719905e-01,5.973936e-01,1.392397e-01,-4.476084e-01,-5.816250e-01,3.914950e-01,-1.430737e-03,-7.774923e-01,5.625151e-03,3.706721e-01,5.622737e-01,1.105280e-01,4.715509e-01,-5.860649e-01,1.567536e-01,9.563054e-02,4.812669e-01,3.939204e-02,-4.439357e-01,1.828194e-01,2.516105e-01,1.026201e-01,4.266006e-01,6.030377e-01,1.273271e-01,-2.227958e-01,-4.661911e+00,-1.708695e-01,
-9.438095e-01,3.111392e-01,1.130820e-01,-1.944106e+00,-1.114438e-01,-8.743538e-01,1.430576e-01,-3.536579e-01,5.386559e-01,-9.452039e-02,6.944329e-01,3.395649e-01,2.153153e-01,-5.687668e-01,-1.365294e-01,6.168026e-01,8.894412e-01,1.320351e-01,4.860407e-01,4.752038e-02,-4.767176e-01,1.548080e-01,2.898809e-02,7.329771e-01,1.048898e+00,9.861917e-02,2.823043e-01,-2.283747e-01,-3.439335e-01,-5.037351e-01,9.450838e-01,3.074814e-01,3.370622e-01,9.600760e-03,-1.441732e-01,-1.616106e-01,1.640955e-01,-6.329196e-03,-1.188455e-01,-1.630831e-01,1.570083e-01,-1.840203e-01,7.671637e-01,-3.793567e-01,-3.768933e-01,4.530105e-01,-3.566026e-01,-3.625671e-01,-3.165312e+00,-8.436028e-01,
3.369459e-01,-4.619853e-01,3.890164e-01,6.434739e-01,-2.100647e-01,-3.852997e-01,-1.499165e-01,-5.690780e-02,1.205399e-01,-1.690776e-01,-4.197541e-01,8.341882e-01,-1.418055e+00,-8.252461e-02,2.125676e-01,2.054643e-01,2.534548e-01,2.048453e+00,-6.971732e-01,3.308156e-01,2.840255e-01,5.111790e-01,-5.751640e-01,3.302710e-01,-5.747538e-02,-9.330007e-02,3.439321e-01,-5.561680e-02,2.299690e-01,1.575015e-01,-3.797372e-01,3.207135e-02,4.591698e-02,1.162055e-01,4.760621e-01,1.478497e+00,-1.058810e-01,-4.925335e-01,1.285268e-01,4.670979e-02,-7.174259e-01,2.001531e-01,1.073469e-01,-1.328089e-01,8.921143e-01,9.675208e-01,1.065180e-02,-2.170805e-01,1.336994e-01,-2.280564e-01,
-4.290400e-02,2.075480e-02,4.043900e-02,-3.351000e-02,8.904470e-03,-3.678500e-03,-4.865880e-02,-2.995610e-02,-1.245490e-02,-1.846830e-02,3.626080e-02,4.643620e-03,-4.869240e-02,-1.598110e-02,-2.092880e-02,-4.561780e-02,-4.275950e-02,-3.574200e-02,1.267810e-02,-1.059110e-02,-1.198580e-02,2.057150e-02,-3.829540e-03,-2.938190e-02,2.343000e-02,-2.450370e-02,1.482410e-02,-2.342760e-02,3.436940e-03,-1.382300e-02,2.975730e-02,-4.899980e-02,-4.571450e-02,-3.594550e-03,-3.612320e-03,-2.721740e-02,-4.946370e-02,-2.288650e-02,4.547000e-02,-2.946680e-02,-1.601510e-02,-1.018120e-02,-5.179070e-02,4.206240e-03,-5.481720e-02,-1.035250e-02,-2.456940e-02,5.389910e-03,1.432410e-02,-3.558470e-02,
-4.973798e-01,1.422531e+00,-6.285796e-01,8.296071e-01,1.781285e-01,9.055089e-01,1.027697e+00,2.905267e-01,-1.428006e+00,1.016674e+00,3.151943e-01,7.004889e-01,4.304135e-01,6.614763e-01,2.825339e-01,3.311206e-01,7.293519e-01,1.723988e+00,2.763741e-01,-1.670107e-01,3.543176e-01,-4.928918e-02,5.840336e-01,1.278175e+00,-3.064827e-01,6.487787e-01,9.935610e-01,2.306073e-01,-4.566409e-02,4.504714e-02,1.546001e-01,7.923408e-02,1.921643e-01,-4.762410e-01,-6.342098e-01,3.734327e-02,1.084967e+00,5.245776e-01,4.655617e-01,-1.274561e+00,2.410039e-01,7.011549e-02,-5.164321e-01,-1.961675e+00,2.031943e+00,4.494900e-01,5.966796e-01,-2.024992e-01,5.354921e-01,6.737090e-01,
-4.539569e-01,-2.539279e-01,-1.968761e-01,5.068994e-01,1.655394e-01,7.192759e-01,7.395937e-02,-8.571637e-03,-3.721308e-01,1.061306e+00,-5.889279e-01,-9.902682e-02,2.792025e-01,-1.429123e+00,-1.040797e+00,1.689481e+00,-4.416377e-01,-8.684945e-01,2.492272e-01,3.027543e-01,-2.510784e-01,-5.719771e-01,-2.838320e-02,-5.387814e-01,7.531064e-01,-1.096420e-01,-5.121645e-01,4.201875e-01,-2.326511e-01,-3.059710e-01,2.722317e-01,3.671778e-01,-7.120268e-01,-3.071840e-03,3.761596e-01,-3.118172e-01,4.971008e-02,1.726390e-01,9.276247e-02,2.505190e-01,-2.352738e-01,-2.724034e-01,-1.506892e-01,1.640121e-01,-1.675876e-01,-3.752525e-01,-5.024421e-01,5.270876e-01,-5.110005e-01,-5.606193e-01,
-3.559610e-02,2.264970e-02,-2.809370e-02,-1.983120e-02,-3.183110e-02,-3.540738e-02,-7.022710e-03,1.931380e-02,1.621009e-02,1.871699e-02,3.703749e-04,2.831340e-02,-4.420017e-02,-1.617730e-02,-1.522833e-02,-4.475088e-02,-1.644943e-02,2.843670e-02,-1.258755e-03,-2.677483e-02,-5.345708e-03,-8.579416e-03,5.327592e-03,-8.793770e-03,-3.689598e-02,1.101920e-02,-4.289310e-02,-1.375306e-02,-1.225452e-02,-6.003187e-02,5.706248e-04,1.041270e-02,-7.592945e-03,2.556358e-03,-1.644935e-02,-5.268180e-02,-1.338560e-02,-4.306018e-02,3.246450e-02,1.896517e-03,-4.247968e-02,-1.452007e-02,1.859239e-02,-3.837014e-03,-2.642900e-02,1.280400e-02,-5.080109e-03,-3.315473e-02,-4.260005e-02,1.703700e-02,
8.933398e-01,-2.018937e-01,-4.954328e-01,-7.564836e-02,-3.058006e-01,-7.027111e+00,1.957888e-01,1.617381e-01,5.013239e-01,-2.338366e-01,5.930253e-01,2.936741e-01,-3.638312e-01,-2.345995e+00,-2.268898e-01,1.814606e+00,-3.919072e-02,2.153838e-01,3.545237e-01,-7.891116e-01,7.457896e-01,-2.139498e-01,3.826579e-01,-2.707331e+00,-5.945325e-01,-1.651869e-01,3.499151e-02,3.915334e-01,2.492766e-02,-9.970258e-01,-4.717425e-02,-3.427225e-01,-3.474848e-01,1.125411e-01,1.489158e-02,-7.016800e-02,5.293128e-01,1.599701e-01,1.805325e-02,1.695768e-01,-2.070067e-01,4.285991e-02,-9.149818e-02,6.036512e-02,-1.738730e-01,-3.181305e-01,-8.364990e-01,1.669808e-01,-3.848439e+00,1.652705e+00,
4.080064e-02,2.180463e-01,-6.458288e-01,-3.508254e-01,-6.607185e-01,1.288426e+00,-1.151415e-01,2.623191e-01,-7.587358e-01,6.305555e-01,3.163384e-01,3.902448e-01,6.976886e-01,5.228088e-01,2.370093e-01,-1.130494e+00,-4.465368e-01,-1.002912e+00,-4.061046e-01,6.675903e-01,9.601209e-01,4.986853e-03,-3.496898e-01,1.149422e+00,-6.148905e-03,6.887744e-02,5.465815e-01,-2.908104e-01,4.825049e-02,-4.584519e-02,-1.850841e-01,1.922932e-01,4.229842e-01,-1.891514e-01,3.527186e-01,3.653584e-01,-3.052888e-01,-4.271701e-01,-4.907475e-01,-1.992060e-03,7.301987e-01,4.014342e-01,2.579835e-01,-1.788459e-01,-6.511067e-01,1.840813e-01,-1.883763e-01,1.980013e-01,1.416172e+00,-1.165598e-01,
3.287501e-02,-6.520607e-01,1.442655e+00,-7.110593e-02,-1.821308e-01,-8.702880e-01,1.926711e-01,1.075066e+00,1.227187e+00,-1.023371e+00,-3.196489e-01,-1.785258e+00,2.687731e-01,-8.123479e-01,-3.661652e+00,3.848000e-01,-1.960440e+00,-1.248433e+00,2.518459e-01,7.949695e-01,-4.656851e-01,-1.003019e+00,1.033422e+00,-9.000473e-01,1.846411e+00,-1.657679e-01,6.559139e-03,-9.083790e-02,-1.650968e+00,-9.948951e-01,4.910458e-01,-1.535208e+00,-6.115247e-01,1.387298e+00,5.010513e-01,4.817343e-01,1.195721e+00,-2.306216e-01,-1.270977e+00,1.003916e+00,5.295567e-01,1.874164e+00,-1.991764e+00,3.727132e-01,-7.569104e-01,6.346810e-01,3.770364e-02,1.061210e-01,9.344645e-01,-3.097582e-01,
2.025870e-02,-2.121110e-02,-3.897497e-03,-3.181210e-02,-5.857910e-02,-3.898996e-02,3.892520e-02,-5.166089e-03,-2.847970e-02,2.212552e-02,2.275432e-02,1.620426e-02,-6.641347e-02,-6.082956e-02,-9.821815e-03,-1.919127e-02,-6.650168e-03,3.514820e-02,-2.359912e-02,2.021314e-02,4.707347e-03,-4.255638e-02,-2.246770e-02,-8.203624e-03,1.220235e-02,-4.297245e-02,-5.679010e-02,3.798067e-03,-6.821705e-03,-6.648149e-02,-7.645424e-03,-5.292701e-02,-2.049477e-02,2.071897e-03,4.766161e-03,2.977600e-02,9.640760e-03,9.718048e-04,2.293850e-02,-6.493610e-04,-4.560424e-02,-5.861362e-03,1.429365e-02,-3.191628e-02,-4.103340e-02,1.669576e-02,1.590466e-04,2.418967e-02,-2.617931e-02,-5.696070e-02,
-3.021581e-01,1.094532e+00,-7.824312e-01,3.705470e-02,7.444303e-01,-1.462995e+00,-3.703865e-01,3.455559e-01,3.948673e-02,9.550808e-01,-4.601177e-01,-2.788079e-01,1.668767e-01,1.380649e+00,2.850463e-01,3.876536e-01,6.869926e-01,-9.343516e-01,-1.170009e-01,6.368470e-01,-7.835200e-01,2.219160e-01,9.976943e-02,-3.332790e-01,7.097083e-01,2.568532e-03,-3.926688e-01,-2.465917e-01,-3.189571e-01,-1.849459e-01,-1.486985e-01,1.279305e+00,-3.646261e-01,4.588861e-01,7.148770e-02,1.068348e-02,-6.706482e-02,2.979667e-01,2.068903e-03,-9.439773e-02,-1.207361e-01,5.561093e-01,1.322122e-01,2.281389e-01,2.156762e-01,2.535937e-01,-7.860932e-03,3.410358e-01,-2.093557e+00,1.933305e+00,
1.624520e-02,-3.964780e-02,-1.180200e-02,3.724960e-02,-1.835740e-02,-4.817320e-02,1.718870e-03,-4.164730e-02,3.425320e-02,3.720580e-02,-1.655890e-02,-4.148640e-02,4.999150e-03,3.435560e-02,1.492300e-02,5.167580e-03,-1.345510e-02,-3.351130e-02,-2.700180e-02,-1.449960e-02,3.737460e-02,-8.657010e-04,1.760710e-02,1.122380e-02,-2.023220e-02,3.620940e-03,1.102780e-03,-4.390650e-02,-3.351430e-02,-4.217310e-03,-1.141670e-02,1.241300e-02,-1.509560e-02,6.263210e-03,1.351100e-02,-3.682200e-02,-4.979210e-02,1.474180e-02,-2.058320e-02,1.088070e-02,-4.716930e-02,5.034850e-03,1.388040e-02,-7.006570e-03,-4.530730e-02,-3.250120e-03,-2.722400e-02,2.406220e-03,-4.169400e-03,1.907200e-02,
1.094007e+00,-5.621573e-02,1.020308e-01,-2.425954e-01,-1.952617e-01,-6.731133e-01,-1.626843e-01,-4.700576e-02,2.716340e-02,2.624802e+00,1.496805e+00,-3.632198e+00,-3.443934e-01,7.497329e-01,-5.425685e-01,-3.188654e-01,1.270591e+00,7.356988e-01,-1.036826e+00,-7.018471e-01,-1.180883e+00,-8.562558e-01,3.975957e-01,1.654783e+00,-7.511694e-01,-1.182138e+00,-3.996032e-01,6.279749e-01,3.494892e-01,-3.294752e-02,-2.739039e+00,-6.408007e-02,1.056352e+00,2.807248e-02,-1.160190e+00,-1.582893e-01,-3.181742e-01,-1.125814e+00,-7.756528e-01,1.394162e-01,-1.339394e-01,-7.805589e-01,-8.264939e-01,1.544324e-01,-3.932377e-01,4.292168e-04,-2.411093e-01,-6.229685e-01,3.584623e-01,-1.727437e+00,
-4.374694e-03,1.244280e+00,-1.529150e+00,8.413986e-02,8.915862e-02,1.376764e+00,-1.404860e-01,-7.324441e-03,-7.987698e-01,7.116992e-01,6.885063e-01,5.976973e-03,1.166284e-01,4.481379e-01,1.262284e+00,-3.638482e-01,-2.871874e-01,-1.544500e+00,2.802245e-01,-5.276948e-03,1.023052e+00,1.569931e-01,-3.425184e-02,-3.216085e-01,-9.647737e-02,7.325931e-02,5.625657e-01,-2.744196e-01,1.087086e-01,-1.949944e-03,4.799625e-01,6.866941e-01,-2.918852e-02,1.125611e-03,-2.507617e-01,5.759091e-01,-4.870976e-02,2.312858e-01,-4.952631e-01,-6.660191e-01,1.921289e-02,-2.991682e-01,2.507766e-01,-1.125235e+00,-1.557601e-01,9.232118e-02,8.836687e-02,-4.002292e-01,-1.997818e-01,4.591335e-01,
-8.590099e-01,1.272355e+00,8.132225e-01,2.036165e-01,5.720081e-01,-1.485326e+00,-4.144197e-01,-9.983377e-01,1.559804e-01,-1.708256e+00,-6.349144e-01,-1.441680e+00,5.585336e-01,4.330841e-01,-8.503438e-01,2.712061e-01,-4.448986e-01,-8.105418e-01,-1.220290e-01,8.692661e-02,-6.399943e-01,-6.271573e-01,2.990012e-01,-2.108987e-01,8.476940e-01,5.454236e-01,-1.210420e-02,-1.214632e-01,-1.711577e+00,-1.563322e-01,-7.065014e-02,-9.501798e-01,-4.594222e-01,6.894823e-01,1.188989e+00,-3.253314e-01,3.623339e-01,3.836713e-01,-4.930481e-03,-5.071436e-01,-2.001268e-01,-1.364845e+00,-3.381716e-01,4.144211e-01,1.059854e-01,-4.810052e-01,-2.188891e-01,2.492395e-01,2.330329e-01,5.912463e-02,
4.948381e-01,1.654114e-01,2.944736e-01,9.596630e-01,-8.119705e-01,3.312577e+00,6.666179e-01,2.384287e-03,5.730017e-01,3.068554e+00,2.126906e-01,-7.237553e-01,3.852080e-01,-7.414919e-01,1.257888e+00,4.836751e-01,8.089314e-01,4.167450e-01,-8.952512e-03,-1.586417e-01,-1.865262e-01,-1.231224e-01,8.751794e-01,-5.525546e+00,-5.330321e-01,8.765674e-02,5.584905e-01,-1.112803e+00,-1.094401e+00,5.510062e-01,-1.455229e-01,-1.727258e+00,-8.902661e-01,-1.716937e-01,4.383324e-01,-9.512462e-02,2.504126e-02,-2.807569e-01,2.427844e-01,-1.128172e-01,1.158780e-02,2.310567e-01,5.393556e-01,2.195788e-01,1.135483e+00,7.189772e-03,4.940130e-02,-3.781654e-01,2.094727e-01,5.530095e-01,
6.564286e-01,-7.910374e-01,-6.676366e-02,2.729155e+00,-2.768895e-01,-5.565021e-01,4.357836e-01,6.314842e-01,1.452974e-01,1.809095e+00,-5.728502e-01,-4.293341e-01,-2.336958e-01,-6.340723e-01,3.420084e-01,5.275300e-02,3.390637e-01,5.540223e-01,-1.087806e-02,9.328692e-02,-5.438519e-01,-1.617510e-01,-8.822583e-01,1.261771e+00,-3.539561e-01,-7.216387e-02,-1.166061e-01,5.621216e-01,-2.297954e-01,1.020093e+00,2.211407e-01,2.641655e-01,3.739859e-01,3.462245e-02,-4.462355e-01,2.285734e+00,2.295336e-01,1.088401e+00,-5.691690e-02,2.273140e-01,-7.136939e-02,3.271113e-01,-1.931100e-02,3.303096e-02,-5.804776e-02,6.054832e-01,3.769128e-01,-4.098852e-01,-1.548689e+00,-7.983072e-01,
-1.981546e-01,6.827917e-01,-8.503105e-01,-3.646901e-01,3.504442e-01,3.594054e-01,-1.562414e-01,1.522502e-01,1.640547e-01,-3.378114e+00,-2.416932e-01,-1.197864e-01,5.930439e-02,-4.166512e-01,-5.143708e-01,6.948647e-01,-1.192618e+00,1.178420e-01,-1.250516e-01,5.731608e-01,-1.239400e-01,4.820902e-01,-3.681114e-01,-1.909403e+00,-4.040409e-01,1.139115e-02,4.488046e-01,-5.406172e-01,7.201124e-01,2.009205e-01,-1.098650e+00,3.195449e-01,-4.840288e-01,-3.486439e-01,-2.753839e-04,-1.858006e-01,-7.206617e-02,-6.893545e-02,-3.994932e-01,2.264325e-01,-7.018345e-03,5.314617e-01,4.739194e-01,-4.347696e-01,-1.755903e-02,-2.946571e-01,-5.577837e-01,2.199355e-01,-2.796938e-01,3.987605e-01,
1.546633e-01,1.120451e+00,4.021744e-01,1.451707e+00,4.431604e-01,3.901983e-01,-2.927405e-01,-3.607638e-01,-2.067073e-01,-6.746491e-01,4.291674e-01,7.139051e-02,1.708339e+00,7.178626e-02,8.320158e-01,-4.443195e-01,-4.529620e-01,2.128958e+00,-2.389559e-01,5.917554e-01,-3.836334e-01,-1.998740e-01,-2.794711e-01,-1.498166e+00,8.850691e-01,-1.473676e-01,4.367264e-01,6.793674e-01,6.484275e-01,-7.951112e-01,-1.247617e+00,2.401111e-02,4.993979e-01,-1.987770e-01,8.192102e-01,1.168192e+00,1.313042e-01,-6.646942e-01,-6.872392e-01,3.658152e-01,-9.271105e-01,-2.668350e-02,-2.426489e-01,-1.511028e-01,5.122591e-01,1.049808e+00,-2.614483e-01,2.151107e-01,-8.487444e-03,3.409151e-01,
-7.596295e-01,1.216491e+00,-1.775059e-01,7.576832e-01,-4.930950e-02,-2.212534e+00,-1.853460e-01,4.977748e-02,5.673963e-01,-2.061892e-02,2.421117e-01,7.138785e-01,6.016971e-02,6.979866e-02,6.311288e-01,-4.654649e-01,3.396607e-01,1.204251e+00,5.879281e-02,-1.843899e-01,-1.784118e+00,-6.470763e-01,-3.316526e-01,-3.784322e-01,6.705543e-01,8.888518e-01,-7.611090e-01,-2.629408e-01,1.442711e-01,-4.804091e-02,-9.398234e-01,-2.656687e+00,4.417887e-01,2.259745e+00,8.127046e-01,-7.463645e-01,5.966494e-01,8.729776e-01,8.868363e-01,4.755851e-01,7.525912e-02,4.015286e-01,7.306712e-01,6.767256e-01,-2.075502e-01,8.317773e-01,4.422629e-01,-3.694502e-01,-6.706374e-01,8.194217e-01,
-1.854593e-02,1.574787e+00,-3.930971e-01,-7.762292e-02,3.048809e-01,-1.132401e+00,-4.433798e-01,2.599969e-01,6.349741e-01,4.997191e-01,3.639719e-02,-2.501667e-01,8.247844e-01,9.611397e-01,4.820187e-02,6.562522e-01,-4.760630e-01,2.896036e+00,5.176948e-01,-4.608485e-01,2.584887e-01,-2.095014e-01,6.498781e-02,1.209730e+00,6.542213e-01,-2.320646e-02,9.451466e-01,-6.682891e-01,6.457539e-01,-3.981091e-01,1.093602e+00,6.642197e-01,5.671337e-01,2.406269e-01,4.523361e-01,4.277802e-01,2.468920e-01,6.380930e-01,1.138279e+00,4.821421e-01,-1.525879e+00,-4.762607e-03,-7.500044e-02,5.179414e-01,1.591619e+00,-4.193875e-01,9.191242e-01,1.263313e-01,-4.048082e+00,8.891312e-01,
-8.710414e-01,-7.976644e-02,-3.307103e-01,-2.184908e+00,-7.089602e-01,2.793869e-01,2.509706e-01,-9.693729e-01,-1.602152e+00,-3.479433e+00,-1.759779e-01,-4.173372e+00,-1.546673e+00,-9.227712e-01,-5.164196e-01,1.312423e+00,-1.894725e-01,-6.547818e-01,-1.665223e+00,4.557314e-01,3.195143e-01,-4.263272e-01,-9.363832e-01,2.130765e+00,7.677837e-01,-1.303501e+00,-5.841465e-01,-3.882506e-02,9.617820e-01,-4.938575e-02,1.517431e-01,7.898538e-01,9.715186e-01,9.797475e-01,4.829022e-01,-2.433798e+00,-2.850069e-01,-2.922913e+00,-8.101057e-01,1.563165e+00,7.669779e-01,-1.016760e-01,-3.011034e-01,1.073853e+00,-8.067811e-01,-2.793876e+00,5.219381e-01,-7.150318e-01,-5.371333e-01,1.145912e+00,
1.734538e-01,-1.927420e-01,-1.230248e+00,1.489818e-02,-1.476496e-01,1.513511e+00,-1.414133e-01,-4.014171e-01,-1.270499e+00,-1.261564e-02,5.283985e-01,2.883372e-02,-2.338198e-01,8.216181e-01,1.502192e+00,-1.349497e-01,-4.753437e-03,3.783051e-01,3.505542e-01,-3.428702e-01,2.220791e-01,2.033684e-01,-2.343235e-01,-5.687279e-01,-8.879085e-01,4.914784e-02,-2.922589e-01,-5.774329e-01,-2.626957e+00,6.187969e-02,-2.452666e-01,1.128924e-02,2.546984e-01,-1.212562e-01,-4.514073e-01,-4.185930e-01,1.234639e-01,2.516791e-01,1.900463e-01,-1.684658e-01,-9.906849e-02,-4.674025e-01,-2.552613e-01,-2.159826e-01,-1.613470e-01,-4.189021e-01,1.235005e+00,-2.350555e-01,-1.979276e-01,5.830100e-01,
7.053820e-01,2.897031e-01,1.356210e+00,1.072851e+00,-1.286563e-01,-6.712623e-01,5.186423e-01,-1.256283e-02,6.622634e-01,-7.721855e-03,3.794127e-02,-1.181859e+00,5.872656e-01,1.011890e+00,2.259169e-01,-1.313304e-01,1.860072e-01,2.164633e-02,-6.532493e-01,-4.924083e-02,-4.165099e-01,-4.920600e-02,-6.614180e-01,1.592894e+00,7.984893e-02,-1.040025e+00,9.318277e-01,1.041874e+00,7.767218e-01,1.798321e-01,-1.608936e+00,-5.421455e-02,2.363135e-01,-5.310038e-01,-3.765966e-01,8.796063e-01,2.462630e-01,-6.969524e-01,-1.162631e-01,3.508908e-01,-1.330201e-01,-1.485644e+00,-2.687767e-01,2.448052e-01,4.746773e-01,5.004655e-01,-4.643647e-01,-3.572308e-01,2.610628e-01,-2.045613e+00,
3.534555e-02,-4.878878e-03,-2.659785e-01,-8.391085e-01,-1.610646e-01,-1.171647e-02,-5.498033e-01,6.609597e-02,3.064636e-01,-2.870090e-01,-7.441407e-02,3.839307e-01,4.171342e-01,5.433632e-01,-1.064311e+00,3.698156e-01,-1.208495e+00,1.425474e-02,-1.996999e-01,7.321542e-01,5.233997e-02,1.855229e-01,1.333375e-01,9.117690e-01,-4.783251e-02,1.136376e-01,-3.041694e-01,9.645703e-02,-9.577745e-03,5.570236e-01,-8.743235e-01,-9.139940e-01,-5.236921e-01,-3.804002e-01,-9.309771e-02,5.126806e-01,-6.522087e-01,2.396649e-01,9.749687e-02,-1.195056e-01,5.017613e-01,1.110392e+00,-6.478162e-03,-8.315198e-01,-5.990065e-01,1.311992e+00,7.163975e-02,2.157182e-01,-1.893204e-01,-3.133135e-01,
9.159598e-01,-4.892196e-01,-2.375713e-01,-9.704365e-01,-1.905807e-01,5.710684e-01,8.536192e-01,1.807681e-01,-8.724626e-01,-2.424081e-01,8.310685e-02,5.181655e-01,-2.619806e-02,-3.617563e-01,1.051306e+00,-7.675307e-01,-2.850822e-03,4.786126e-01,-1.625315e-02,-8.141280e-01,7.986743e-01,-1.697050e+00,2.361664e-01,9.428442e-01,-3.024094e-01,-6.364248e-02,2.108254e-01,-9.347844e-01,1.897155e-01,-1.184545e+00,1.272194e-01,6.445498e-01,5.538085e-01,1.476224e-01,-9.778268e-01,-2.675387e-01,6.252019e-01,-5.526690e-03,3.793066e-02,-2.937971e-01,8.014303e-02,-2.383979e-01,9.249990e-02,-1.781049e-01,7.919358e-02,-2.599349e-01,1.857156e-01,3.150500e-01,-4.461742e-01,1.677784e+00,
3.240213e-01,-4.685396e-02,-1.218852e+00,1.605776e+00,-8.438122e-01,9.886785e-01,1.561864e-02,6.138161e-01,-1.062085e-01,-6.693518e-01,1.502534e-01,-1.501422e-01,-9.708115e-01,-1.104856e+00,1.317809e+00,-2.507984e-01,4.659568e-01,3.216040e+00,1.994729e-04,-2.418743e-01,6.464398e-01,-3.688354e-01,-1.644928e-01,-1.820386e+00,-3.720164e-01,2.774565e-01,-1.712810e-02,-9.431403e-01,2.453257e-01,5.986888e-02,1.086117e+00,-7.206753e-01,-4.496271e-01,1.104565e+00,4.244100e-01,1.012392e+00,1.562663e+00,4.288332e-01,-7.143213e-03,2.364799e-01,3.040781e-01,1.025038e+00,1.021337e+00,3.721319e-01,6.086200e-01,-2.450164e-01,1.699624e-01,-2.120494e-01,-4.318780e-01,3.053879e-01,
7.287392e-01,2.362016e-02,3.207390e-01,-6.069201e-02,4.317859e-01,-2.788075e-01,-9.457759e-01,-9.388116e-01,-1.123890e+00,6.106790e-01,6.147634e-02,7.251416e-01,-5.789974e-01,6.636556e-01,-8.412390e-01,-2.243093e-01,5.435709e-01,4.588070e-01,3.280794e-01,-7.467769e-01,-3.278951e-01,-6.251178e-01,-3.202241e-01,1.401382e+00,6.648159e-01,-3.620098e-01,2.606527e-02,3.366775e-01,5.041513e-01,-4.032907e-01,-2.360929e-01,9.183444e-01,-5.529078e-01,1.361339e+00,6.750877e-01,-1.241372e+00,-4.751408e-01,2.195532e-01,-9.389398e-01,6.801603e-01,1.560882e-01,2.511635e-01,-9.175315e-01,2.093036e-01,-1.306735e+00,-2.710428e-01,6.347492e-01,-5.178924e-01,1.241801e-01,8.997533e-01,
-8.432305e-01,1.065334e+00,-3.992730e-01,-1.636572e-01,1.378345e+00,-2.939179e+00,-1.031490e-01,2.742200e-02,8.670262e-01,2.366492e+00,-3.698390e-01,-7.838143e-03,-3.358175e-01,-5.853777e-01,-7.682469e-01,2.721415e-01,-1.872498e+00,6.115857e-01,2.671648e-03,2.183794e-01,-1.248078e+00,2.371349e-02,3.576289e-01,-2.104119e+00,-1.457945e+00,4.728766e-01,-1.047130e+00,-1.238487e-01,3.666783e-01,-5.919139e-01,-1.767497e+00,9.063622e-01,5.235112e-01,1.103029e+00,4.102532e-02,1.892080e-01,-2.280113e-01,1.851320e-01,8.601964e-01,1.603285e-01,-9.718724e-02,-1.800410e+00,-8.019166e-02,-5.599439e-01,1.807093e-01,-3.113759e-01,9.493270e-02,4.951730e-01,-2.912931e-01,-9.171218e-01,
3.957595e-01,1.033294e+00,-3.086620e-01,4.634020e-01,2.175316e-01,-3.320480e-01,-3.141094e-01,-9.578530e-02,-9.621210e-02,-5.296214e-03,-9.223202e-02,-5.933504e-01,1.025220e-01,-6.738571e-02,-1.319719e-01,-8.496846e-01,-7.254328e-01,8.116587e-02,1.682732e-01,-1.024044e-01,-5.997788e-01,-3.496701e-02,6.206772e-02,-2.646092e-01,4.259639e-01,2.267449e-01,-1.730808e-01,-1.591294e-01,2.922323e-01,4.529185e-01,-1.067023e-02,-8.849354e-01,3.235520e-01,2.406831e-01,3.430170e-01,1.180429e+00,3.450597e-01,2.385307e-01,-4.839520e-02,-1.600917e-01,-5.755049e-02,-6.125601e-02,-4.315665e-02,-1.246378e-01,-2.576361e-01,1.309143e-01,-9.080618e-03,-1.606457e-01,1.122529e-01,-7.453569e-02,
-3.867524e-01,-3.683333e-01,-1.799237e-01,-3.733558e-01,-6.206760e-01,-1.168175e-01,-1.279006e-01,1.228809e-01,8.092497e-01,1.298290e-01,4.626667e-01,-9.268615e-01,2.147018e-01,1.158332e-01,-3.828997e-01,1.565050e-01,1.174814e-03,-1.279830e+00,5.042972e-01,-6.454378e-01,3.587190e-02,1.186865e-01,-4.822810e-01,-7.679912e-01,-3.271740e-01,-1.517869e-01,1.219838e+00,2.606681e-01,-2.524742e-01,-2.645194e-02,5.445291e-01,7.836277e-01,-1.318510e-02,5.477244e-02,-4.718708e-04,-3.639708e-01,1.591045e-02,7.493395e-02,-2.596782e-01,-1.004226e-01,4.791417e-01,-2.002892e-01,7.381574e-01,2.165749e-01,2.901382e-01,4.774739e-01,4.959552e-02,-1.009074e+00,-1.137990e+00,4.334615e-01,
8.132254e-01,
-1.065872e+00,
-6.942109e-01,
-4.287799e-01,
-3.793538e-01,
-9.308842e-02,
-2.542178e-02,
-6.285256e-01,
7.871572e-01,
-2.813826e-01,
-1.084742e+00,
-1.502179e-02,
-3.227882e-01,
-8.799060e-02,
-2.945063e-01,
-1.473237e-01,
-4.204738e-01,
-8.633368e-02,
-4.067020e-01,
-2.063814e-01,
-3.456312e-01,
-1.377920e-02,
8.416948e-02,
4.951377e-01,
-1.271704e-02,
1.359742e-01,
3.937369e-01,
1.058130e+00,
-2.904150e-02,
-7.295756e-01,
-1.594180e-02,
-6.642231e-01,
-4.550232e-01,
7.748265e-01,
-1.103173e+00,
-5.394959e-01,
8.082653e-01,
-1.265849e+00,
-1.111658e+00,
-9.137796e-01,
-2.558311e-01,
-6.003171e-01,
-5.625821e-01,
9.128630e-01,
-3.761349e-01,
-6.579272e-01,
-2.704325e-01,
7.680328e-01,
2.517824e-01,
-7.529207e-02,
1.557161e-01,-1.662588e+00,7.516239e-01,4.236804e-01,-1.524878e-01,-7.647243e-01,-1.295185e+00,1.452576e+00,1.149053e-01,-1.106619e+00,-3.502574e-01,3.172993e-02,2.381746e-01,3.948247e-01,-6.041234e-01,-5.745630e-01,3.198727e-03,1.750089e-01,4.077203e-01,3.308525e-02,3.800171e-01,3.042580e-02,-4.578214e-02,-6.624700e-01,1.953561e-02,-2.202857e+00,-2.135555e-01,8.260256e-02,9.913073e-03,2.259300e+00,-4.205710e-02,1.997014e+00,6.556959e-01,-1.402066e+00,2.947907e-02,8.625073e-01,-1.977033e+00,9.065439e-01,-1.201279e+00,-3.099450e-02,8.212183e-01,4.196972e+00,4.429341e-01,-1.018566e+00,1.454880e+00,-4.647027e-01,6.347778e-01,-2.850468e+00,5.762337e-01,3.306162e-02,
-1.251857e-01,-1.642133e+00,4.632066e-01,-2.083629e-01,3.205031e-02,3.711378e-01,-9.576581e-02,-7.898355e-01,-3.186986e-01,-6.112574e-01,6.324712e-01,-3.879471e-03,1.656263e-01,-9.550491e-01,8.743649e-03,2.555215e-01,-6.556159e-01,4.386657e-01,3.026673e-01,-1.116166e+00,-4.241727e-01,2.069900e-02,1.608137e-02,-4.749037e-01,-2.521132e-04,-5.988323e-01,-7.227947e-01,7.256921e-02,2.270717e-02,1.003877e+00,2.054690e-02,5.694045e-01,-3.225411e-01,-6.007786e-01,-1.112530e-01,3.471152e-01,-1.376215e+00,-3.363031e-01,2.950928e-01,-9.299151e-02,3.287740e-01,-3.249936e-01,-1.524648e-01,4.543923e-01,-3.073188e-01,-3.080596e-01,3.811389e-01,7.192577e-01,4.171331e-01,6.434469e-01,
-3.679162e-01,-6.058787e-01,-7.382894e-01,-1.928201e+00,-4.124560e-01,7.477083e-01,9.314407e-01,-4.058461e-01,-4.693790e-01,1.754157e+00,3.941683e-03,-3.265578e-02,-2.046505e+00,2.090140e-01,-9.478828e-01,-3.203218e-01,-8.543881e-01,4.864148e-01,-1.026355e+00,-6.809899e-01,1.142953e-01,4.900130e-02,7.107063e-01,-1.205310e-02,-1.574492e-03,-4.265054e-01,2.537509e-01,-8.070246e-02,-4.289940e-03,1.066900e+00,-4.445510e-02,9.519897e-01,1.410771e-01,3.088738e-03,3.490023e-01,-6.557935e-01,1.275965e+00,-2.566810e-01,1.402005e-01,2.129527e-03,6.410163e-01,5.973758e-01,8.418458e-02,1.893362e-01,1.307870e+00,-9.185743e-01,-7.846609e-01,-2.881012e+00,1.176871e+00,7.451009e-01,
-1.284004e-01,-2.758299e-01,1.086998e+00,-1.679748e+00,-9.336754e+00,-3.795198e+00,5.520451e-01,-2.918324e+00,-1.157304e+00,-3.608083e+00,-1.213617e+00,-7.993187e-03,-1.094101e+00,1.984936e+00,1.029398e-01,-7.802755e-01,-4.263556e-01,-1.888235e+00,-8.540006e-01,-9.367667e-01,-1.079378e+00,-2.761920e-02,4.539804e-01,8.476004e-01,-3.343064e-02,-2.829876e+00,7.894253e-02,1.174494e+00,5.389740e-03,1.275766e-01,-2.508260e-02,-4.854106e+00,1.303835e+00,-1.565360e+00,-7.750176e-01,-9.394966e-01,-1.961685e+00,1.168846e+00,-3.275630e-01,-5.091925e-01,1.286733e-01,-3.628065e+00,3.183224e-02,-4.887616e-01,-5.433812e-01,2.390058e-01,1.363182e-01,-4.355461e+00,-2.779516e+00,3.776639e-01,
-3.153309e-01,1.003061e-01,6.926324e-02,1.696410e-01,-1.113992e+00,-6.134111e-01,-6.737205e-01,1.350367e-01,-3.969936e-02,7.916046e-01,-8.966170e-03,4.051233e-02,-1.160844e-01,1.827810e-01,-6.896385e-03,-1.346020e+00,-6.366674e-02,-3.479512e-01,-2.435300e-01,3.024009e-01,4.163323e-01,-1.601040e-02,1.859607e-01,-6.646189e-01,-3.140692e-02,-2.054939e-01,1.770598e-01,-7.699329e-02,7.771518e-03,-2.101848e-01,3.263240e-02,-1.148346e+00,5.364023e-01,-2.046231e-01,-2.207548e-01,-8.815864e-01,6.148832e-02,1.310851e+00,3.018885e-01,-1.699246e-01,7.580429e-01,-1.682489e-03,-6.904427e-01,-8.213916e-03,-1.427736e-01,2.236859e-01,-1.695631e+00,2.079004e-01,1.314826e-01,-9.377179e-01,
-1.708888e+00,9.776790e-01,6.112579e-01,8.328647e-02,-3.161491e-01,2.802307e-02,4.855037e-02,8.220173e-02,4.425032e-01,-1.449090e+00,9.610946e-03,9.908399e-03,-4.707695e-03,1.462993e-01,-3.771269e-01,-7.607172e-01,-4.201220e-01,-5.643057e-01,5.536650e-01,-2.334493e-01,1.121811e+00,-2.029420e-02,-1.695270e-01,2.009463e-01,2.957401e-02,-6.162171e-01,5.571699e-01,-2.805301e-01,-3.426021e-03,1.750367e+00,4.614580e-03,1.925058e+00,-1.529596e-01,-2.360769e-01,-1.314785e+00,1.096844e+00,9.473915e-02,-7.426545e-01,-3.631814e-01,5.720167e-01,2.837071e-01,1.148425e+00,-3.280128e-01,8.643935e-03,-2.723405e-01,1.015398e-01,4.365081e-01,-8.570777e-03,-1.491825e+00,-2.223349e-01,
-2.788827e-01,-3.126697e-01,-8.872653e-02,5.477890e-01,4.579966e-01,-1.850329e-01,8.482427e-01,2.668408e-01,-2.325268e-01,1.439251e-01,-2.021336e-01,-3.899312e-03,1.939626e-01,-2.654778e-01,1.572729e-01,1.398921e-01,5.685334e-02,6.302125e-02,1.352405e+00,-6.595081e-01,-5.289543e-01,2.170200e-02,2.319564e-01,-7.139465e-01,3.987852e-02,8.964355e-02,-1.896204e-01,-8.910681e-02,3.235903e-02,1.459303e-01,3.965870e-03,-5.891265e-01,-4.310008e-01,9.380265e-02,-2.464231e-01,-2.547929e-01,-2.691374e-01,7.049683e-03,9.984113e-02,6.420604e-01,-2.102950e-01,-3.743041e-01,4.782379e-01,3.700819e-01,3.092897e-01,1.804136e-01,-8.443861e-02,-5.858272e-01,2.611583e-01,-7.850619e-02,
-7.296116e-02,4.752468e-01,-1.289977e-01,-1.813972e+00,1.113106e+00,2.176610e+00,4.730906e-01,3.726249e-01,-2.645893e-01,4.029335e-01,-1.889546e+00,-1.587574e-02,-1.466092e-01,-9.205604e-02,8.624514e-02,1.163256e+00,-6.510849e-01,5.893035e-02,2.918423e-01,-6.995081e-01,4.827921e-01,2.597480e-03,2.817927e-01,3.050997e-02,3.743703e-02,-3.296639e-01,-6.912166e-01,-3.919494e-03,-1.327090e-02,-4.295173e-01,-1.812000e-02,5.036725e-01,-1.778723e-01,2.135903e-01,3.060084e-02,-1.279913e-01,4.920569e-01,9.116755e-02,1.727975e-01,-5.637654e-01,-6.207902e-01,-4.969922e-06,-1.022111e-01,-7.734645e-03,5.333059e-01,1.469819e-01,-7.650515e-03,-7.758868e-01,1.036982e-02,-4.678064e-03,
-4.359619e-01,-6.567957e-01,5.800252e-02,-2.074095e-01,-9.431645e-01,6.261498e-01,-1.298588e+00,3.269814e-01,-3.227012e-01,8.515145e-01,-1.229290e+00,-4.320485e-03,1.010028e+00,2.189597e-01,1.908592e-01,-1.970024e+00,5.280512e-02,7.925670e-01,1.412588e+00,7.454286e-01,4.815073e-01,-2.877130e-02,-3.246745e-01,-1.296719e-01,-4.221310e-02,-7.196502e-01,-1.391183e-01,-2.669767e-01,2.353309e-02,-8.989903e-03,-4.282780e-02,6.765522e-01,8.246181e-01,7.155788e-01,3.284386e-01,9.296799e-01,9.865185e-01,-1.888575e-01,-3.028152e-01,6.183245e-01,1.003485e-01,-8.487282e-01,6.118457e-02,5.063606e-01,-1.648405e-01,-4.838761e-01,5.101093e-01,-2.578902e-01,-4.236621e-01,4.272217e-01,
-6.121641e-01,8.673302e-01,1.541109e+00,1.879664e+00,-7.093326e-01,2.554367e-02,1.806994e+00,-1.658022e-01,3.165748e-01,2.166051e+00,-3.253661e-01,3.667323e-02,5.702412e-01,-8.157200e-01,-9.815083e-01,1.309539e+00,1.529946e-01,-3.376565e-01,2.591336e+00,-1.690633e+00,-3.620040e-01,-4.668810e-02,5.741105e-01,3.472256e-01,-2.358881e-03,5.387180e-01,-3.223812e-01,-2.459379e-01,1.513411e-02,-1.155943e+00,-1.817230e-02,1.502444e+00,7.039703e-01,1.227697e-01,-1.492579e+00,6.307891e-01,1.042800e+00,-2.494640e-01,7.191505e-01,3.953774e-01,1.735639e-01,-6.907349e-03,1.014356e-01,7.958404e-01,-1.992204e+00,-5.399622e-01,-5.444980e-02,-1.838677e+00,4.149346e-01,1.607126e+00,
-3.412870e-01,7.304540e-01,-1.759814e+00,1.012055e+00,6.719657e-01,-4.145398e-01,1.033879e+00,-1.407224e+00,4.244461e-01,-3.816258e-01,1.311269e-02,-1.925780e-03,3.491152e-01,3.256750e-04,-7.240700e-01,8.558248e-01,2.442439e-01,-1.343142e-01,3.294233e-01,2.580237e-01,2.881326e-01,-4.060600e-02,-3.293511e-01,1.290069e-01,2.748570e-02,1.669115e-01,2.785622e-02,7.230773e-02,2.542024e-02,-1.662598e+00,9.591920e-03,-7.765763e-02,-1.466834e+00,2.160173e-01,-2.133144e-01,-2.269202e-01,5.804625e-01,1.973973e-01,-1.283993e+00,6.427920e-01,1.974713e-01,1.143426e+00,5.337499e-01,5.026628e-01,1.246893e+00,3.455699e-01,-1.701515e-02,9.556623e-01,1.490735e-01,8.836556e-02,
1.221036e-01,1.121025e-01,-5.130509e-01,-1.867708e-01,1.785719e-01,-1.451492e+00,-2.216976e-01,8.171716e-02,8.986699e-01,2.038380e-01,-7.117715e-01,1.697890e-02,-3.312546e-01,8.900967e-01,-3.616488e-01,-9.706121e-01,-1.467153e-01,-1.278601e-03,-5.738258e-02,-5.489813e-01,1.537843e-01,3.405920e-02,-1.465011e-01,5.020206e-01,2.340380e-02,2.216998e+00,9.864327e-02,2.754691e-01,-3.741715e-02,-2.281659e+00,-2.727840e-02,-2.404390e+00,-1.828749e+00,4.460258e-01,-5.955484e-01,-8.705072e-03,2.730435e+00,5.336450e-02,-5.957087e-03,-4.846611e-01,-7.177967e-01,-3.638697e+00,-1.740820e+00,1.574206e-02,-1.340953e+00,-4.706083e-02,-4.679325e-01,6.565247e-01,6.342320e-01,1.857540e-01,
-4.113421e-01,8.380124e-01,7.959204e-01,-6.965278e-01,3.837706e-01,5.665406e-01,7.788084e-01,7.562198e-02,-2.822006e-01,-2.904980e-01,-3.536945e-01,-1.456987e-02,6.212299e-01,-5.804438e-03,7.994878e-01,-6.497716e-01,-4.416261e-01,-5.801057e-01,6.068063e-01,8.811040e-01,1.018599e+00,4.662020e-02,3.820041e-01,3.847316e-01,-9.547634e-03,-6.477244e-02,-7.361689e-01,-1.115856e-01,-3.040296e-02,-1.486547e+00,3.320140e-02,-1.022303e-01,1.807487e-01,6.101855e-01,-7.938712e-02,-8.780168e-01,-8.632566e-03,1.107464e+00,-1.319346e-02,3.955228e-01,-3.917620e-03,-4.100786e-01,-4.568654e-01,1.447815e+00,-5.104717e-01,9.935859e-03,-5.589472e-02,-9.564252e-01,-6.230109e-02,6.521223e-02,
-2.461111e-01,-1.030433e-01,4.449837e-01,-4.105170e-01,-8.143531e-03,-1.183589e-01,-1.764425e+00,-8.374497e-02,-9.530547e-02,8.995350e-01,2.539607e-01,1.334410e-02,-9.637114e-02,-2.313889e-01,3.447075e-01,7.880690e-01,-3.802581e+00,3.018113e-01,2.096459e-01,1.017642e+00,3.471046e-01,-1.418300e-02,-7.707216e-02,4.274730e-02,-3.649518e-02,2.694369e-01,-5.534672e-01,2.615913e-01,2.821926e-02,1.759720e-01,-1.530740e-02,-7.953853e-01,1.011593e-01,4.084690e-01,-2.090569e-01,8.715034e-02,9.107559e-01,6.357369e-01,-1.152281e-01,-1.199757e-01,-1.502797e-01,3.170720e-01,1.004198e+00,8.076661e-01,2.029945e-01,-2.378179e-01,-1.203254e-01,-3.831671e-01,-1.517968e+00,2.527752e-01,
1.361014e-01,-7.434310e-01,1.134034e-01,2.664574e-01,-1.781193e-01,-4.682258e-01,-2.826921e-01,1.662019e-01,-5.021796e-01,6.852921e-02,1.843855e-01,4.950554e-04,-8.616700e-02,-1.134598e-01,1.721576e-01,-5.467503e-02,-8.926230e-02,-4.361484e-01,-4.625620e-01,2.982861e-01,2.062323e-02,2.247060e-02,7.009192e-02,-9.038343e-03,1.775760e-02,3.740354e-01,-2.135901e-01,-1.038228e-01,1.844061e-02,-4.863727e-01,-2.358150e-03,-1.236471e+00,-1.565702e-01,4.404686e-02,4.438503e-01,3.167316e-01,6.180194e-02,1.327793e-01,6.459138e-03,-6.920713e-03,-1.050858e-01,-1.089125e+00,4.449423e-01,2.538857e-01,-4.081352e-01,3.923143e-02,8.338100e-02,1.436392e-01,-4.151087e-01,-1.107636e-02,
-5.193297e-01,-2.450966e+00,-1.805521e-01,1.513260e+00,2.213077e+00,8.533418e-01,-1.496266e+00,7.570689e-01,1.061028e+00,-5.791082e-01,-7.971725e-01,3.219864e-02,4.464062e-01,7.712970e-01,-8.582481e-01,-2.416067e+00,-2.784575e-01,2.010191e+00,-5.342802e-01,-1.148131e+00,3.753250e-01,2.860230e-02,5.113025e-01,-8.395851e-01,8.505338e-03,8.875268e-01,-4.576868e-04,-5.822570e-01,-1.115018e-02,-3.958935e-01,2.765930e-02,-4.398811e-01,5.361389e-02,-1.272415e-01,2.298752e-01,4.863840e-01,7.947950e-01,-6.104991e-01,1.383683e+00,3.138436e-01,-3.606444e-01,-1.527418e+00,9.667455e-01,-1.324743e+00,3.275447e-01,7.244038e-01,2.759164e-01,-1.065343e+00,9.380611e-01,-7.184109e-01,
5.666221e-01,-5.637450e-01,-1.661233e-01,3.624039e-01,4.079535e-01,1.683298e+00,-7.652718e-02,9.627261e-01,-3.028977e-01,-1.708684e-01,9.057063e-01,5.793568e-04,2.856181e-01,1.926393e-01,4.082237e-01,1.627513e-01,7.347645e-01,-1.002570e-01,6.097623e-01,2.123167e-01,-6.728816e-01,-8.802660e-03,3.182284e-01,-5.355310e-01,1.254970e-02,-4.125660e-01,-1.430420e+00,-3.768378e-02,-8.667911e-03,-4.891272e-01,-1.568690e-02,-2.151361e-01,1.681408e-01,4.852089e-02,9.852833e-02,-4.173017e-01,-1.613071e+00,-4.543282e-01,6.875513e-02,2.867852e-01,-5.996237e-01,-1.329717e+00,5.232582e-01,-9.447590e-01,2.906536e-01,1.330798e-02,1.915827e-01,-7.120137e-01,-3.619511e-01,3.726294e-02,
2.412801e-01,4.599461e-01,6.095276e-02,1.266234e-01,-3.774855e-01,7.536287e-02,-1.689623e-01,-9.775811e-02,-1.713073e-01,6.666321e-02,1.056849e-02,7.812750e-04,-1.644609e-01,7.344823e-02,7.695196e-02,2.463711e-01,3.465778e-01,-9.058248e-02,-4.750853e-01,-2.711652e-01,3.123346e-01,2.445670e-02,2.539268e-03,-1.768386e-01,1.986419e-02,9.393619e-02,-1.371313e-01,6.350862e-03,-2.472644e-03,-1.403789e-01,5.061630e-02,-5.904069e-01,-3.179463e-01,2.205880e-01,4.684604e-02,-4.741201e-01,5.202388e-01,4.252040e-01,-1.231604e-02,-2.036330e-01,5.349468e-02,-9.652392e-01,-3.172457e-01,-1.000028e+00,3.293316e-01,-3.737362e-01,1.729878e-01,4.328426e-02,-8.895423e-02,1.399455e-01,
5.029157e-01,-1.042399e+00,4.945076e-01,1.282707e+00,-2.343482e+00,1.626663e+00,6.990901e-01,6.589097e-01,-5.796456e-01,1.451154e+00,1.848159e+00,-4.640714e-03,1.220183e+00,-2.366043e+00,-5.977256e-01,-8.410563e-01,-5.082864e-01,9.509247e-01,3.795230e-01,-2.630428e+00,-1.023199e+00,-1.304530e-02,-7.212352e-01,-4.311161e-01,4.960899e-03,-1.649313e+00,-1.303001e-01,-2.377368e-01,-3.271475e-03,7.167114e-01,3.502540e-02,1.682825e+00,-2.670080e+00,1.781624e-01,-8.257172e-02,-3.562738e-01,-2.401381e+00,2.515061e-01,-1.588089e+00,1.572926e+00,7.114805e-01,-9.604446e+00,3.207120e-01,-5.596188e-01,1.398055e+00,-1.025143e+00,8.123466e-02,-5.111972e+00,-4.061621e-01,2.147384e-01,
2.440341e-01,-3.419292e-01,7.390777e-01,-5.149145e-01,5.627217e-01,2.851786e-01,-1.629582e-01,8.915498e-01,3.365261e-01,1.358176e-02,-5.464574e-01,-8.292580e-03,1.862076e-01,4.936296e-01,-2.973289e-01,-1.076572e+00,-4.173303e-01,1.121174e-03,-7.128444e-01,-5.032284e-01,-6.018894e-01,3.580630e-02,1.053750e-01,1.210247e-02,1.689590e-02,1.175855e-01,-1.460300e-01,-1.559389e-01,-2.781073e-02,-1.204838e+00,-1.320990e-02,1.205615e+00,-3.374081e-01,3.547019e-01,-2.544210e-01,7.904800e-01,-2.798686e-01,-3.109092e-01,-5.409731e-01,-1.735732e-01,5.090347e-01,-1.702378e-01,-2.218705e-01,2.396088e-01,-2.619838e-02,-1.670223e-01,-5.911620e-02,-7.889030e-02,6.116919e-02,-1.068305e-03,
1.390381e-01,-1.010334e+00,5.865695e-01,9.346689e-01,-4.061581e-01,1.998122e-01,-2.951556e-01,8.257977e-01,-2.710678e-02,-8.024104e-03,1.731979e+00,3.896213e-02,7.444202e-01,-3.678025e-01,-7.211711e-01,-2.302602e-01,8.093374e-01,5.477756e-02,-2.838260e-01,-5.603408e-03,4.182039e-01,3.883050e-02,-8.059354e-01,3.275997e-02,2.565667e-03,-5.705130e-01,1.333612e-01,1.347096e-01,-1.242707e-02,-2.474524e-01,2.877200e-02,1.562863e-01,-2.522133e-01,2.510183e-02,-1.080197e+00,-2.705914e-01,3.077928e-01,2.526971e-01,-5.146755e-02,3.326878e-01,9.977984e-02,6.285677e-01,2.924864e-01,-8.661852e-01,3.310415e-01,-8.989495e-03,-2.969204e-02,1.515492e+00,-3.457124e-01,2.043931e-01,
-4.192437e-01,1.669774e+00,3.913549e-01,1.951740e-01,3.380439e-01,-4.618536e-01,2.343520e-01,-3.510323e-01,5.524213e-01,1.585737e-03,1.174091e+00,1.087720e-02,-3.944643e-01,2.051008e-01,4.759747e-01,3.653308e-01,1.408329e-01,-1.757396e-01,3.957371e-01,2.023650e+00,2.295235e-01,-3.374960e-02,-3.710736e-01,6.147816e-03,-4.113038e-02,7.689150e-01,-2.564499e-01,2.807698e-01,-1.103699e-02,-8.726287e-01,-2.889210e-02,-9.584024e-01,9.712429e-01,6.197433e-01,-7.227904e-02,7.743195e-01,-2.288576e-01,3.380138e-01,5.484384e-01,8.515709e-01,-3.466308e-01,8.050324e-02,-6.478921e-01,-2.199709e-01,-3.406456e-01,4.919505e-02,9.329927e-02,2.508570e+00,-8.982985e-01,2.316083e+00,
2.137888e-02,9.944912e-02,5.681884e-02,3.619882e-01,5.301298e-01,1.122930e+00,-6.981139e-01,5.333189e-01,5.029820e-02,-4.770766e-01,-2.764569e-01,5.274348e-04,2.012758e-01,-2.333840e-01,-5.565648e-01,3.078933e-01,3.678909e-01,1.042840e-01,-4.159620e-01,-2.534596e-01,2.857515e-01,3.429530e-02,-1.729711e-01,7.594850e-01,1.738690e-02,8.615458e-02,-4.765362e-02,-3.877234e-01,-3.082700e-03,-3.494994e-01,1.414350e-02,6.509079e-01,1.737043e-01,1.511039e-01,1.672501e-01,-3.124769e-03,-7.146815e-01,3.140706e-01,-9.581289e-02,2.649935e-01,-7.410498e-02,9.673283e-02,-4.075472e-01,-4.994346e-01,-9.408225e-02,1.140454e-01,-1.458140e-01,2.218281e-01,8.532075e-01,-2.716613e-01,
1.698229e-01,2.565917e-01,-7.971114e-03,-1.848332e+00,5.845203e-01,1.138131e+00,-1.980482e-01,-1.864513e-01,-1.158801e+00,6.249199e-01,1.063046e+00,-2.708351e-02,-5.786673e-01,-5.694504e-01,1.621646e-01,6.165844e-02,-2.495210e-01,8.880688e-02,8.592141e-01,1.843868e-01,2.335571e-01,6.403640e-03,-1.778599e-01,-4.288617e-01,3.928083e-02,6.769181e-02,-9.375708e-01,4.196139e-01,-3.707898e-02,3.520799e-01,-3.602260e-02,1.805866e+00,9.352659e-02,3.089202e-01,-9.457737e-02,-6.195224e-03,-4.540182e-01,-5.674851e-01,5.670241e-02,1.483409e+00,5.143754e-01,1.504299e+00,-2.692780e-01,-4.458593e-01,2.005950e-01,-1.826771e-01,2.364499e-03,-6.761221e-01,8.149577e-02,5.947701e-01,
-4.101494e-01,2.571860e-01,-7.377768e-01,-9.399711e-01,-1.159805e+00,1.166384e+00,3.229318e-01,3.324691e-01,-1.085707e-01,-2.684276e-01,4.406295e-01,-4.024790e-02,-7.339023e-01,6.895215e-02,1.333681e+00,-5.699577e-01,-7.180246e-03,2.177246e-01,6.566901e-01,-1.340919e+00,6.129304e-02,3.904860e-02,-8.207298e-01,-9.381378e-02,2.223340e-02,-1.291319e+00,-1.331800e-01,8.624367e-02,-7.071982e-03,1.265627e-01,-1.788970e-02,-2.961050e-02,-2.247838e-01,-6.716779e-03,7.453629e-01,7.292024e-01,-8.877934e-01,6.122309e-02,-2.830835e-02,2.166814e-01,2.575099e-01,-2.804087e+00,2.314317e-02,-2.277145e-01,1.845645e+00,-2.291373e-01,-3.888876e-01,1.526128e+00,-1.632195e+00,-2.239963e-01,
6.447595e-02,-9.155666e-01,6.405998e-03,-9.467568e-01,-1.928309e-02,1.441318e-04,-3.999321e-01,-6.441764e-01,-5.616822e-01,4.741624e-03,7.265096e-01,2.503920e-02,-1.433008e-01,-6.774921e-01,-2.705552e-01,5.048893e-01,2.089729e-01,-3.782611e-01,-1.292649e-01,-7.431068e-01,-2.908089e-01,1.215550e-02,-4.153839e-01,4.468399e-02,3.941283e-02,2.210968e-01,8.816867e-01,4.469146e-02,2.545204e-02,3.632391e-01,-3.697540e-02,1.036777e+00,-8.918120e-01,2.956041e-01,-2.253139e-01,-8.936561e-03,5.060728e-01,-2.945873e-01,-3.342057e-01,1.625552e-01,4.867392e-01,1.304015e+00,-7.845458e-02,-1.847621e-01,7.117379e-01,2.382257e-01,8.413349e-01,8.732206e-01,1.449521e-01,-2.766866e-01,
9.274206e-02,4.984967e-02,-4.801010e-01,5.363461e-02,1.435906e-01,-1.765273e+00,1.007006e-01,6.981097e-01,9.642731e-01,3.061373e-01,3.222832e-01,-4.019330e-02,-5.825211e-01,-6.797499e-03,6.082864e-01,-2.260471e-01,-2.431094e-01,-3.564623e-01,5.028142e-01,-1.724622e-01,1.301180e-01,-3.582720e-03,5.949921e-01,1.222478e+00,-4.331173e-03,-2.296899e-01,-2.070571e-03,4.123386e-03,-3.000882e-02,4.949106e-01,-3.536740e-02,-2.661902e-02,2.225481e-01,-3.751305e-01,2.452300e-01,5.072961e-01,-6.019614e-02,4.697824e-02,6.370259e-02,-1.514528e-01,3.698873e-02,4.586310e-01,-4.953640e-01,1.056773e-01,-8.962316e-03,-3.671548e-01,-3.269271e-03,-1.650316e+00,-1.238695e+00,-2.941421e-01,
1.031373e+00,1.124150e+00,2.856900e-01,-8.811036e-02,-1.605337e-03,3.027562e-01,-4.149610e-01,-3.935811e-01,4.791104e-01,-4.039438e-01,-6.637329e-03,2.139662e-02,3.239401e-01,4.555351e-01,5.010957e-01,-8.002474e-01,-1.729554e-01,-8.592401e-04,4.829009e-01,-4.729338e-01,-6.844978e-01,3.581040e-02,-4.064617e-01,-2.918738e-01,-1.713673e-02,-1.578847e-01,-3.381419e-01,9.411459e-02,2.633163e-02,3.685704e-01,-2.271090e-02,1.676736e+00,5.963012e-01,-3.786287e-02,-2.486026e-01,2.403423e-01,-2.703015e-01,-2.295765e-01,-5.503709e-02,-3.936504e-01,3.636194e-01,1.562153e+00,-5.882719e-01,2.904380e-02,-1.729485e-02,-1.285622e-01,-4.884442e-03,-4.051862e-01,-5.002410e-02,8.959610e-01,
-3.508494e-03,7.927317e-01,5.628591e-01,1.921191e+00,1.053300e+00,6.351914e-01,-1.706460e+00,9.231932e-01,-1.491167e-01,3.788956e-01,-3.698673e-01,1.396440e-02,4.846047e-01,-9.334926e-02,2.108036e-01,1.639206e+00,-6.726608e-01,-7.450193e-03,-1.001124e-01,7.396469e-01,4.674999e-01,1.250950e-02,-5.139804e-02,3.337437e-01,2.039579e-03,-4.379369e-01,-1.293438e+00,1.113734e-01,1.846342e-02,-7.519806e-03,-2.775820e-02,-8.369490e-01,-2.347482e-01,7.410644e-01,3.166725e-01,8.520080e-02,7.882213e-01,-3.996391e-01,5.277554e-01,4.779493e-01,8.463949e-02,-1.147207e-01,-8.510909e-03,4.833710e-01,-1.083540e-01,3.498805e-01,-4.753188e-01,-3.111098e+00,-5.449343e-01,1.584793e+00,
5.216390e-02,-3.793544e-01,3.567871e-01,-2.386054e+00,-1.954109e-02,3.448585e-01,1.152971e-01,5.399116e-01,-4.770603e-03,2.311348e-01,-6.825617e-03,7.323454e-04,-1.129488e+00,-3.437447e-02,8.920962e-02,2.126309e-01,4.193792e-01,-2.284105e-01,-3.451433e-01,2.305868e-01,-2.903961e-03,4.031940e-02,-3.388515e-01,4.363812e-02,3.157173e-02,-1.774053e-01,1.208061e-01,-1.556262e-01,-4.574472e-02,2.844988e-01,-2.047000e-02,-1.244038e-01,1.113172e-01,6.210198e-02,-1.487996e+00,-4.971417e-01,3.806748e-01,-4.096076e-01,3.241668e-01,3.942441e-01,5.942895e-02,1.595428e+00,5.076694e-01,-4.982254e-03,3.590895e-01,1.791829e-01,6.035401e-02,5.469761e-01,-5.910423e-02,-4.434610e-01,
-1.420154e+00,-2.609219e+00,3.021420e-01,-1.555013e+00,-3.494971e+00,-2.269948e+00,-8.236688e-01,-1.014583e-01,4.087283e-01,-2.662649e+00,4.551181e-01,-1.908209e-02,-5.227509e-01,2.656114e-01,4.388876e-01,-7.533490e-01,-1.982403e-01,-1.648276e+00,-7.496846e-01,-1.890763e+00,2.006789e+00,6.902710e-05,1.511968e-01,-1.452202e-01,2.190850e-02,9.494986e-02,2.490788e-02,7.511303e-01,-6.159702e-03,-9.094692e-01,2.933230e-02,-5.097439e-01,-1.222736e+00,5.870332e-01,-1.750040e+00,-1.186792e-01,1.535638e-01,-1.756458e-01,-6.977433e-01,-4.687732e-01,-6.266242e-02,-3.052796e+00,-4.892751e-01,-5.767232e-01,-2.988726e+00,-4.644478e-01,9.044273e-01,1.012239e+00,-6.478968e-01,-4.121875e-01,
6.085669e-01,-1.317621e+00,-1.351728e-01,5.998248e-01,-4.179854e-01,-3.612449e-01,1.140354e-01,1.207962e+00,3.622047e-01,6.288559e-03,4.543814e-01,-2.815613e-02,-3.566611e-01,6.206294e-02,6.108932e-01,-1.048718e+00,2.311671e-01,-6.905450e-01,1.363115e+00,-1.137419e+00,-3.344350e-01,-7.046680e-03,1.800307e-01,1.439966e-02,3.391723e-02,4.674017e-01,-2.348597e+00,-1.522393e-03,-3.993093e-02,1.006782e+00,-2.301940e-02,1.287324e-01,1.838145e-01,-4.719234e-02,-9.134228e-01,-3.629455e-02,-1.856506e-01,1.033457e-01,3.164023e-02,6.934720e-01,3.153170e-01,-2.248914e+00,-1.621197e-01,-7.150002e-01,5.697763e-01,4.009140e-01,-6.863753e-01,8.805031e-01,6.446186e-01,7.551323e-02,
2.918565e-02,4.741927e-01,-2.669491e-01,-2.762531e-01,7.629452e-02,7.304824e-01,2.202682e-02,-1.479856e-01,-7.488962e-02,9.633417e-01,9.452337e-01,-2.443195e-02,1.150336e+00,4.032709e-01,1.059815e+00,1.999416e-01,4.198959e-02,3.266478e-01,4.221251e-01,-3.711354e-01,-1.041392e+00,2.230970e-03,-2.987402e-01,-3.775359e-01,-4.706607e-02,-1.136341e+00,-6.070507e-01,-1.535650e-01,-5.126503e-03,1.521265e+00,2.484070e-02,-1.754479e-03,4.252451e-01,2.105088e-01,2.356586e-01,-4.630335e-02,1.137780e-01,-1.821790e-01,-5.709574e-01,1.923033e-02,1.977237e-01,-1.395859e+00,6.686241e-02,3.806226e-01,1.415775e+00,5.611515e-02,-4.188255e-01,-6.463430e+00,-1.737345e-01,6.362677e-01,
-4.907408e-01,2.022676e+00,2.012732e-01,3.910034e-02,-1.520426e+00,7.215841e-01,3.896531e-01,-7.991760e-01,3.033646e-01,-1.773083e+00,5.613501e-01,1.785360e-02,5.037648e-01,2.431675e-01,4.724754e-01,1.348358e-01,-4.783935e-03,-4.457124e-01,3.418142e-01,-5.691397e-01,2.624829e-01,-2.532910e-02,-3.159435e-01,1.057771e-01,-6.557456e-03,1.168372e-01,-1.501747e-01,-5.302493e-03,1.756914e-03,-5.819029e-01,-3.154390e-02,1.101581e+00,6.227977e-01,3.603505e-01,1.131922e-01,-2.165088e-01,6.519700e-01,6.315621e-02,-2.817756e-01,1.342707e+00,1.144291e-01,1.270380e+00,-6.232202e-02,1.576724e-01,-5.182835e-01,2.032094e-01,4.814516e-02,1.208263e+00,-1.198936e-01,4.491814e-01,
2.691267e-02,2.522438e-01,3.057752e-02,-5.095275e-01,2.785746e-01,-3.004559e-02,8.534580e-01,-3.548278e-01,3.338407e-01,-4.647804e-01,1.536666e+00,-3.211456e-02,4.450290e-01,2.885892e-01,1.768570e-01,3.221502e-01,2.876643e-01,-6.332962e-02,8.641677e-01,-1.896839e-01,-6.142667e-02,1.656950e-02,-5.739582e-01,3.695446e-01,-4.284415e-02,6.145383e-01,1.420428e-01,-4.494365e-03,-8.369742e-03,-1.398341e+00,-3.061060e-02,-5.274787e-03,-4.070549e-01,4.479296e-01,3.744029e-01,8.297982e-02,9.980354e-02,4.359039e-01,-8.989273e-01,-1.765306e-01,-5.540655e-02,-3.562263e-02,-8.466536e-02,-1.186305e-01,1.534768e-01,5.294259e-02,4.930087e-01,1.156211e+00,-7.017142e-03,3.395170e-01,
5.073193e-02,1.672461e-01,1.261383e-01,-2.424926e+00,7.887670e-01,-2.962208e+00,2.282625e-01,1.086965e+00,-2.754607e-03,5.719328e-01,-5.091821e-03,2.296980e-02,2.422749e-01,7.958832e-01,-2.529490e-01,1.467186e-01,-7.458203e-01,-1.964974e-01,1.404527e+00,-3.860435e-01,-1.277170e-01,3.842500e-02,-1.988578e-01,-3.005316e-01,3.136163e-02,8.078856e-01,-1.273496e-01,8.809542e-02,6.103441e-03,-5.056340e-01,1.483470e-02,-1.205304e+00,8.709847e-01,2.362562e-01,-8.757010e-01,4.758285e-02,5.500498e-01,-1.558579e-01,-1.582763e-01,4.428870e-01,1.785711e-01,-3.501062e+00,1.213011e-01,-7.609742e-01,3.760281e-01,1.010782e-01,6.099975e-01,-1.459692e-01,6.996784e-01,1.957646e-01,
-5.859783e-01,-1.813571e+00,1.520233e+00,-9.766368e-02,-9.654748e-01,1.731028e+00,1.793032e+00,-6.590590e-01,5.387184e-02,1.311982e+00,-8.444330e-01,-5.106660e-03,-1.031151e+00,4.109613e-01,9.871862e-01,-5.310946e-01,2.208089e+00,-4.794924e-01,1.335668e+00,1.049057e+00,9.814909e-01,3.405790e-02,-1.740419e+00,3.011831e+00,-9.055105e-03,-5.569923e-01,-5.903652e-01,-1.934271e-01,-4.985713e-03,1.871900e+00,-1.798410e-02,2.169809e+00,-1.561269e+00,-5.558230e-03,3.834516e-01,1.430230e+00,8.133566e-01,-7.268487e-01,-8.683907e-01,2.601351e-02,4.109101e-01,1.495917e+00,-6.404542e-01,4.874034e-01,-7.621670e-01,2.995870e-02,-1.617017e-01,1.697019e-02,-3.282256e+00,-5.569749e-01,
-2.718598e+00,-7.311493e-01,1.312383e-01,-6.590861e-02,1.768222e+00,1.099673e+00,-5.874078e-01,7.015721e-01,1.845823e-02,4.705364e-01,-1.416893e+00,3.648323e-02,3.226022e-01,2.890960e-01,-3.753061e-01,-6.214119e-01,-3.694060e-01,1.933532e+00,1.169208e+00,-2.742494e-01,2.918370e+00,-2.634790e-02,3.367117e-01,-3.796459e-01,-2.737410e-02,4.323653e-01,-3.221086e-01,3.029937e-01,1.394862e-02,-3.025682e-01,-1.744910e-02,7.441384e-01,-5.414246e-01,2.560319e-01,6.146507e-02,7.783115e-01,7.568544e-01,2.526647e-01,-3.715592e-02,7.953843e-01,5.659258e-01,-1.374003e+00,4.575755e-01,1.668002e-01,-4.594398e-02,3.045738e-01,1.663299e-02,3.275629e-01,1.055751e+00,-3.082412e-01,
2.627528e-01,-9.209506e-02,5.400087e-02,4.843608e-01,2.568741e-02,-5.780771e-01,4.469349e-01,-2.279696e+00,-5.573326e-02,-5.101423e-01,-3.347773e-02,1.833800e-02,-6.655749e-01,1.445617e-01,-1.403600e-01,-1.244568e-01,-5.918043e-01,-2.910694e-01,-2.158635e-02,4.349159e-03,6.723973e-01,-3.547020e-02,-5.217961e-03,9.969027e-01,-4.619794e-02,3.396354e-01,-7.420312e-01,-7.898679e-03,-1.845226e-02,-9.555733e-03,-1.083550e-02,-6.124779e-03,4.927503e-01,2.071156e-02,-6.254873e-02,3.565766e-01,3.548626e-01,1.244072e-02,-2.993968e-01,5.088091e-02,6.694217e-01,4.197594e-01,-1.209055e-01,-1.396781e-01,-2.045888e-01,3.054015e-01,-6.302668e-01,-7.049337e-02,2.563251e-01,-3.573025e-01,
-2.283149e-01,4.920124e-01,4.677012e-01,1.975823e+00,6.010683e-01,-1.398952e+00,1.529016e+00,7.742351e-02,1.449001e+00,2.436411e+00,8.806880e-01,-2.254241e-03,9.512691e-03,5.433266e-02,6.690481e-01,1.986449e+00,1.040791e-01,7.287826e-01,-1.897193e+00,8.582339e-02,6.053011e-01,3.325970e-02,-3.199972e-01,1.011634e+00,-3.534430e-02,5.776078e-01,1.696582e-01,-4.307969e-01,-1.067780e-02,-9.563833e-01,1.070590e-04,-8.796746e-01,-7.725552e-01,5.229446e-01,5.821097e-01,2.581781e-01,5.076432e-03,-2.134653e-01,1.131289e+00,-7.283915e-01,-5.152308e+00,6.180044e-01,-1.205992e+00,-9.140196e-01,3.820637e-01,4.339527e-01,-7.089061e-01,1.495800e+00,2.691501e-02,-5.094962e-01,
1.170908e-01,-1.455799e+00,-2.406267e-01,1.635610e+00,-6.373318e-01,7.139917e-01,-3.796768e-01,2.933961e-01,4.619305e-01,6.006274e-01,-2.739032e+00,-7.620042e-04,1.306068e+00,-1.064686e+00,8.286214e-02,8.939487e-01,-6.812879e-01,-1.217986e-01,5.920573e-01,-5.956724e-01,-2.463007e-01,3.112410e-02,-4.949937e-01,1.048031e+00,-2.611398e-02,8.751208e-01,-5.457125e-02,-4.807599e-02,9.105270e-03,-8.484280e-03,-3.859770e-02,1.597946e+00,-4.273136e-01,1.313268e-01,1.118675e-01,5.200721e-01,9.525448e-01,1.051141e+00,-8.498394e-01,-7.012095e-01,4.365432e-01,6.853442e-01,-7.487968e-01,-9.843714e-01,8.472351e-01,2.694651e-02,-3.020205e-01,7.731062e-01,1.660786e+00,-3.234579e-02,
6.716622e-01,-7.191918e-02,2.694200e-01,-2.855992e-01,1.714250e-01,-1.987428e-01,7.411993e-01,9.218026e-02,4.968334e-01,1.334839e+00,-6.738533e-01,-2.340235e-02,-3.564615e-01,5.214695e-01,7.551718e-01,5.030553e-01,1.104494e-01,-5.787341e-01,-7.249790e-01,4.404312e-01,1.375479e-01,-3.064310e-02,4.296466e-01,6.793775e-01,-3.718154e-02,2.438188e-01,1.988819e-01,-2.073279e-01,6.936889e-03,6.738852e-01,3.742460e-02,5.553687e-01,1.417217e+00,-1.468746e-01,4.251595e-01,-2.104745e-01,6.007429e-01,-1.400222e+00,4.952011e-01,-2.713577e-01,-4.782475e-01,2.088233e+00,-3.217898e-01,1.265992e+00,-8.351483e-03,1.923169e-01,3.263513e-01,-2.783430e-01,-2.522251e-01,-1.384037e-01,
5.519730e-01,-7.605698e-01,-2.744969e-01,-1.634771e+00,-9.871049e-01,-6.630428e-01,-1.204743e+00,-1.117921e+00,-6.869063e-01,2.657977e-01,1.136732e+00,2.048430e-02,1.292605e-01,-4.317540e-01,-7.068127e-03,-4.677787e-01,-3.956904e-01,-1.852982e+00,-9.063514e-01,1.422502e+00,9.753752e-01,-1.194500e-02,-3.332396e-01,-1.318109e+00,2.704540e-02,1.495882e+00,-6.659117e-01,6.122846e-01,-6.147134e-03,-1.240995e-01,-2.434350e-02,-4.764150e+00,-1.216113e+00,6.603747e-01,-3.232504e-01,-6.350165e-02,7.016269e-01,-3.987284e-02,7.690733e-01,-4.552952e-01,-6.022730e-01,-7.043668e+00,-2.393496e+00,-1.991284e-01,-2.224848e+00,1.337467e-01,-1.434802e+00,1.480085e+00,2.629176e-01,-1.883274e-01,
-4.144529e-01,-3.799912e+00,-2.691668e-01,6.118648e-01,6.788929e-01,-2.714613e+00,1.806541e-01,1.617024e+00,1.340598e+00,3.005326e+00,2.249615e-01,4.823313e-02,2.027260e+00,-3.684645e-01,-3.757008e-01,1.070850e+00,8.395663e-01,-1.061150e+00,-2.610169e+00,-1.603036e-01,-7.576815e-02,-3.334510e-02,4.742348e-01,3.290475e-01,-2.671028e-02,1.414402e+00,-3.636719e-01,-4.627247e-03,-3.881885e-02,-7.356588e-01,4.429780e-02,-6.491685e-03,1.455799e-01,8.989966e-01,-1.959243e-01,1.755635e+00,-3.995963e-01,1.851928e+00,5.797707e-01,-5.879245e-01,-6.853020e-01,2.722171e-01,-8.493748e-01,-1.430124e+00,-3.440809e-01,3.403077e-01,1.494869e+00,5.796593e-01,9.422600e-01,9.598412e-01,
-7.923672e-01,-1.266472e+00,-5.458398e-01,2.481532e-01,8.737170e-01,3.246195e-01,-1.764771e-01,-1.817794e-02,-2.176195e-01,1.688434e-01,3.155057e+00,2.036905e-03,-1.522458e-01,5.663169e-01,1.370301e-01,-7.667989e-01,-1.541299e-01,1.917762e+00,1.383752e+00,-9.350733e-01,-4.938883e-01,-3.531430e-03,-3.174897e-01,-1.973755e-03,-1.099547e-02,3.014178e-01,4.033309e-01,3.639769e-02,-6.584690e-03,2.800494e-01,-2.946420e-02,1.141000e+00,-8.664655e-03,2.971480e-03,-8.379100e-01,1.432778e-02,1.861016e-01,1.439440e+00,-4.639462e-01,-1.029273e-01,2.294956e-01,3.307020e-01,3.869694e-02,8.152571e-02,1.057373e+00,-4.771076e-01,-7.048146e-02,-5.508319e-01,4.357115e-01,9.072340e-01,
-4.929201e-01,-1.828505e+00,-1.639879e-01,-4.029751e-01,-1.902570e+00,1.654619e+00,-6.370868e-01,-1.383718e-01,8.291802e-01,1.097193e+00,1.344629e+00,1.818030e-02,8.950359e-02,1.097581e-01,-1.373214e+00,-1.509875e+00,-2.875911e-02,-2.626618e-01,-2.046021e+00,-1.061884e+00,-3.389044e-01,-2.508420e-02,3.233511e-01,-1.622378e+00,4.254470e-03,4.563806e-01,4.517129e-01,-1.946849e-01,-8.944535e-03,8.000306e-01,1.690410e-02,-1.088019e-01,4.713514e-01,-2.141342e+00,-2.310384e-02,1.902162e+00,4.514529e-01,1.130020e+00,5.007721e-01,-1.040224e-01,1.096745e-01,6.688583e-01,2.600574e-02,-7.092646e-02,7.165828e-01,5.265442e-02,5.842015e-01,-1.403240e+00,-9.091365e-01,1.810973e+00,
-5.817230e-02,-6.590503e-03,-3.092746e-01,-1.008719e-01,1.507170e+00,5.485317e-01,-1.177333e+00,2.193183e-01,4.431640e-01,5.222570e-01,-8.042345e-01,-3.333359e-02,7.392567e-01,5.758885e-01,-4.210780e-03,-5.166068e-01,-9.365852e-02,6.703881e-01,6.394929e-01,-2.292235e-01,-4.820148e-02,-4.318000e-03,-2.463510e-01,3.460222e-01,3.319263e-02,-5.574352e-01,-4.334441e-01,1.813009e-01,1.970526e-03,-2.026246e-01,1.629300e-02,5.418598e-01,6.433673e-01,-2.434581e-01,-1.776661e-01,-3.768228e-02,-2.170451e+00,-7.126095e-01,-2.338589e-01,-1.372994e-01,-3.604600e-01,1.478533e+00,-9.669369e-01,-8.619072e-01,-4.803050e-01,-2.862864e-01,3.847000e-01,-1.991472e-01,1.266958e+00,1.943726e-01,
-6.027440e-01,1.404623e+00,-2.871016e-01,-1.113226e+00,1.608260e+00,-6.101257e+00,9.961980e-01,-3.613025e-01,6.932217e-01,1.292492e+00,-3.293051e-01,-7.297010e-04,9.388975e-01,8.210227e-01,1.326501e-01,7.197595e-01,-5.252275e-01,1.781890e-01,1.678972e-01,1.253650e-01,4.690529e-01,4.239680e-03,1.686971e-01,3.315909e-01,-8.364932e-03,-8.783935e-01,9.497669e-02,5.886621e-02,3.503360e-02,1.360634e+00,-1.490280e-02,-8.752849e-03,4.337946e-01,-3.894677e-01,-1.265996e-01,-1.572076e+00,1.588891e-01,-1.019218e-01,-8.394508e-01,-3.970974e-01,-1.212299e+00,8.951263e-01,-8.606490e-01,8.767151e-02,8.844200e-01,-2.551239e-01,-2.596245e+00,-8.664758e-01,1.107040e+00,2.337233e-01,
-7.395239e-03,1.175736e-02,-2.613833e-03,-6.837522e-03,-1.286812e-02,-4.905337e-03,5.016327e-03,-6.164858e-03,-2.923394e-02,-7.870920e-03,9.450505e-03,5.250652e-03,-8.225967e-03,7.254133e-03,2.384242e-02,-3.787819e-03,9.184747e-03,-3.082328e-03,-5.858438e-03,-2.460739e-02,-6.931867e-04,-8.895890e-03,-2.549447e-02,4.728794e-04,2.773899e-02,-1.969240e-02,-5.460267e-02,-4.014239e-03,-6.743987e-04,-3.649156e-02,-3.888940e-04,-6.674292e-03,-5.170923e-03,-2.498962e-02,-2.474168e-02,-7.435684e-03,-2.935125e-02,2.272194e-02,2.229548e-02,1.652870e-03,-4.015482e-03,3.811117e-04,-5.422423e-03,-6.797133e-03,-3.204503e-03,-6.142759e-03,-2.844679e-02,-1.799644e-02,-1.068152e-02,-5.233028e-03,
-2.088719e-02,1.277159e+00,-1.380788e+00,-1.072989e+00,-2.126449e+00,2.039381e-01,4.961987e-01,-5.407504e-01,-4.965232e-01,1.417747e+00,1.332532e+00,3.027378e-03,-3.444744e-01,-9.496281e-02,-2.801264e-01,-7.348493e-01,6.693284e-01,1.925466e-02,2.937208e-01,-1.071350e+00,-7.506831e-01,1.582240e-03,-2.676448e-01,1.030684e+00,1.272700e-02,1.986317e+00,1.123625e-01,5.801425e-01,-2.440882e-03,-2.226772e+00,-3.895600e-02,-2.088411e+00,-1.484024e+00,1.170387e+00,-1.354366e+00,-3.937049e-01,-6.978932e-01,-3.036508e-01,-1.039749e-01,-6.119163e-01,5.343831e-01,-4.214101e+00,-1.197581e+00,1.189464e-01,-8.103692e-01,-2.664271e-02,8.095986e-02,-2.911912e+00,-1.003117e-01,1.047908e+00,
-1.611324e-02,
-6.514329e-02,
-7.129017e-01,
6.859888e-01,
2.910986e-01,
-6.347774e-01,
5.002466e-01,
-7.115778e-01,
-1.173267e+00,
-2.457305e+00,
-1.389578e+00,
2.453573e-01,
-3.088147e-01,
-1.763764e+00,
1.484151e-01,
2.725739e+00,
-4.644506e-01,
2.709866e-01,
4.471711e-01,
-3.346689e-01,
-9.394313e-01,
-1.567068e+00,
2.981333e-01,
1.244034e+00,
2.244612e-01,
1.497810e-01,
1.871591e-02,
-7.259528e-01,
-2.156501e+00,
-8.216627e-01,
1.586466e+00,
9.429135e-01,
-6.920375e-01,
-1.213260e+00,
-1.340199e+00,
-6.856220e-01,
9.346317e-01,
2.294172e-01,
-4.927872e-01,
-1.408021e+00,
-1.952958e+00,
-9.784179e-01,
4.821283e-01,
-1.602844e+00,
-4.821035e-01,
-1.432870e+00,
-3.636920e-01,
-7.248611e-01,
-4.601238e-02,
1.195808e+00,
1.328954e-01,-1.265071e+00,-6.761287e-01,2.314073e-01,6.351684e-01,-9.267761e-01,3.711429e-01,-4.942272e-01,-6.263296e-01,6.713482e-01,8.050439e-02,2.288726e-01,9.402997e-01,6.968384e-01,4.693808e-02,-1.817594e-01,8.276134e-01,1.888331e+00,5.978989e-01,2.764827e-02,-2.060385e+00,9.971622e-01,-8.093793e-01,7.919468e-01,6.651447e-01,-3.032247e-01,6.582710e-01,-3.041213e-02,-2.543097e-01,5.327997e-01,2.058417e-01,3.840856e-01,-3.841853e-01,-5.376282e-02,-1.265591e+00,8.396195e-01,2.477655e-01,1.416950e-01,5.189761e-02,3.311349e-01,1.133034e+00,-3.617655e-02,3.122645e-02,2.645113e-02,-6.532038e-01,-8.697051e-01,-1.066768e+00,1.374623e-02,-6.796820e-03,-1.456065e-01,
-1.515251e-01,1.937939e-02,-3.152798e-02,-3.987959e-02,-4.401653e-02,5.946656e-03,-6.334231e-02,-1.386120e-02,-1.113592e-02,8.098798e-02,-7.621512e-03,-1.557069e-01,-7.706974e-03,-4.337906e-03,-1.928682e-02,-2.491619e-02,-2.535176e-02,2.450946e-02,-2.848475e-03,-1.487569e-01,-8.698643e-03,1.972542e-02,-1.458362e-01,-8.458722e-03,1.279744e-02,-1.264463e-01,-2.723102e-02,-9.072826e-02,-1.103202e-02,-5.184283e-03,-6.087202e-03,-7.791840e-03,-3.959808e-02,-2.457198e-02,-4.003289e-02,-2.490191e-02,-2.688502e-02,-1.952205e-02,-4.602094e-02,-7.574694e-03,8.700087e-03,-1.276273e-01,-7.641524e-03,-2.403176e-02,-8.411997e-03,-8.298288e-03,-1.607762e-01,-4.779685e-02,-3.321978e-02,-2.913554e-02,
7.146329e-02,2.558582e+00,-1.109089e+00,8.588040e-01,2.978490e+00,-1.885703e+00,1.446258e+00,2.483292e-03,1.256617e+00,1.910568e-01,3.070865e-02,6.303507e-01,-1.023238e+00,3.881061e-01,-9.465510e-01,-2.033157e+00,1.936958e-02,4.464812e-01,-2.083866e-01,1.629809e+00,1.524114e+00,-1.854783e-01,1.129645e+00,6.672758e-01,2.856593e-01,7.015509e-01,4.927358e-01,8.135227e-01,-8.421681e-01,2.283880e+00,3.216259e-01,-1.070608e+00,-7.865542e-01,4.878290e-02,2.584103e+00,8.621111e-01,-1.095083e+00,1.104884e+00,2.981618e+00,7.498732e-01,1.025457e+00,9.609953e-02,-7.103541e-01,-3.650866e-01,1.592072e+00,-1.925992e+00,1.652133e+00,9.279253e-01,-4.594792e-02,8.920826e-03,
1.605522e-01,-5.420121e-01,1.077836e-01,5.985037e-01,-7.366465e-01,2.024641e+00,-6.221796e-01,-5.148528e-01,3.454665e-02,-3.062912e-01,-6.592830e-01,2.310076e-01,2.511396e-01,-1.818654e+00,-3.521775e-01,-2.698776e-01,1.115791e+00,-1.673214e+00,-8.308152e-03,-1.095798e+00,5.582725e-01,4.396035e-02,-2.500949e+00,1.148874e-01,-1.898089e-01,-1.044633e+00,3.641713e-01,-1.861092e+00,1.229791e+00,5.123859e-01,-8.539602e-01,-5.350406e-01,2.983231e-01,6.906590e-01,-6.337432e-01,-3.814695e-01,-2.443017e-03,1.116852e+00,2.119479e-01,-4.794331e-01,-6.754863e+00,-2.618923e-01,-3.576967e+00,-9.799681e-01,-1.064982e+00,-1.965876e-01,7.754082e-01,-1.062674e-01,-5.374675e-03,-6.612009e-01,
-8.160748e-01,1.398070e+00,-1.150196e-01,2.215888e-03,1.796580e-01,-9.905993e-02,2.659716e-01,3.033258e-01,-1.074178e-01,-5.855095e-01,1.152730e+00,1.857899e-01,3.219640e-01,1.593791e-01,8.667828e-01,-7.932227e-02,3.245510e-01,5.138067e-01,1.052545e-02,2.991729e-02,9.781696e-02,5.574449e-01,1.362639e-01,1.187222e-01,-4.256190e-02,2.168186e-02,3.623158e-01,-1.399570e-01,-5.313339e-01,-3.833610e-01,2.126804e-01,-1.201039e+00,1.397811e+00,-7.782568e-01,1.025588e+00,7.393745e-01,1.211186e-01,-1.245983e-01,7.817407e-01,9.957460e-02,-7.129388e+00,-8.924689e-02,2.677899e-01,4.926012e-02,-1.290326e-01,5.812017e-01,-1.957069e-01,-2.826101e-01,1.765265e-02,5.548011e-02,
-7.363114e-03,-1.715753e-01,1.493279e-01,-9.669331e-02,-9.330267e-02,5.878122e-02,1.032225e-01,-4.491758e-02,1.838273e-01,-2.062881e-01,2.396173e-01,-1.216829e-02,-3.773123e-01,-7.702982e-02,3.192232e-01,-3.122353e-01,2.389947e-01,6.633587e-02,4.187814e-02,1.849686e-01,-6.050413e-01,1.237541e-02,4.527114e-02,-2.715728e-01,-1.690771e-01,3.358042e-01,-8.044188e-02,1.796344e-02,2.498120e-02,4.104437e-01,-9.559110e-02,-3.394216e-01,2.712976e-01,6.657814e-02,9.400432e-01,1.312375e-01,-4.325526e-03,4.123522e-01,1.009300e-01,-1.394365e-01,-4.670710e-01,3.276290e-01,2.110775e-03,-7.171231e-03,-4.120905e-02,-8.819758e-03,7.457089e-02,-7.592704e-02,-2.083209e-02,1.300536e-01,
-4.582177e-01,1.497051e+00,2.132771e+00,2.951896e-02,1.389692e-01,-8.258150e-01,-5.299707e-01,-5.602502e-01,1.542799e-02,2.273549e-01,-7.431511e-02,-1.322033e+00,4.161369e-01,1.919731e+00,9.048017e-01,-2.335860e-01,4.094909e-01,1.002096e+00,2.709681e-01,1.771869e-01,-1.800872e-01,3.355571e-01,6.210985e-01,-4.290701e-01,1.044555e+00,-5.186746e-01,2.246558e-01,-6.155264e-01,-3.486005e-01,1.508469e-01,9.992857e-01,6.624827e-01,1.165092e-01,1.046958e+00,1.318067e+00,1.420644e+00,-4.091277e-01,-2.186296e-01,2.821891e-01,-8.084317e-02,2.322269e+00,6.132782e-02,-3.422952e-01,-8.641629e-02,2.107954e-01,5.426816e-02,1.577978e+00,-4.385870e-01,-7.885505e-03,-3.469760e-01,
-3.346022e-02,4.276924e-01,-6.682061e-01,8.000859e-04,1.122064e-01,-3.618936e-01,-1.969223e+00,4.177742e-01,-1.047589e+00,-4.172061e-01,-1.599047e-01,-1.460197e+00,3.710695e-02,4.379420e-01,-4.335127e-01,-3.767074e-01,1.522572e-01,-1.135665e+00,6.456549e-01,5.927047e-01,1.267094e+00,-3.132774e-01,-2.576875e+00,2.577724e-02,-2.522669e-01,3.665321e-01,7.363665e-01,-6.434262e-01,5.691221e-01,9.246798e-01,-1.425578e-01,3.525522e-01,1.089863e+00,4.747188e-01,-9.841244e-01,4.185863e-01,-7.696575e-01,-5.161325e-03,-1.033984e+00,-7.292012e-01,1.556748e+00,2.337001e-01,9.336724e-01,3.112590e-02,-3.606325e-01,3.496064e-01,-1.000868e+00,-1.338628e+00,-1.915258e-02,-4.571323e-03,
2.506572e-01,-1.227710e+00,-1.066087e+00,1.346779e-01,8.632388e-01,-6.328351e-01,2.545598e-01,3.928824e-01,-3.588469e-01,-3.017914e-01,1.089143e+00,-8.719963e-01,-7.774296e-01,-4.544758e-02,-1.178632e+00,8.717810e-03,-2.811553e-01,-2.640980e-01,9.156679e-01,9.929048e-01,9.917901e-02,-1.000990e-01,-1.104809e+00,2.166542e-01,-5.746931e-01,7.149546e-01,-2.677816e-01,4.269260e-02,1.010629e-01,1.585233e+00,7.996586e-01,7.516772e-02,-1.236165e+00,1.189921e-01,1.863807e+00,2.634148e-01,1.814907e-01,4.339097e-02,3.380290e-02,3.965514e-01,-1.049867e+00,-5.275285e-01,3.362241e-01,1.821461e-01,-6.348875e-01,1.545548e-01,1.595350e-02,4.251390e-01,-6.495296e-03,1.470289e+00,
-7.111871e-01,-2.023838e+00,6.243958e-01,-6.621169e-01,-2.080293e-01,1.467727e+00,8.166793e-04,3.975716e-01,-1.333474e-01,-4.366112e-01,-8.098409e-01,-3.882689e-01,2.423620e-01,1.499115e-01,-7.230939e-01,-2.941836e-01,1.162385e-01,1.415693e+00,7.779887e-02,-8.634210e-01,-2.783842e-01,3.497238e-02,4.721397e-01,4.037839e-02,3.634354e-02,-1.633176e-01,-9.045368e-03,-1.103356e-01,7.250336e-01,-9.741893e-01,3.963112e-01,-2.714833e-03,7.780216e-01,3.290085e-01,2.449763e-01,3.704243e-01,-5.819319e-01,1.442287e-01,8.565369e-01,-1.522616e+00,1.361444e+00,1.843695e-01,-5.839329e-01,5.482863e-01,-8.012699e-01,-2.080167e+00,-2.032660e+00,-2.251546e+00,-5.126145e-03,-9.943892e-03,
5.297583e-02,-1.468734e-01,2.569229e-01,3.003987e-01,-1.284274e-01,-5.446941e-01,-4.893768e-01,5.423863e-02,-1.100538e-01,-4.189025e-03,2.134806e-01,4.195419e-01,4.294898e-01,3.603611e-01,-2.029226e-01,4.996282e-02,-5.875163e-03,2.909521e-01,2.552578e-01,1.813766e-01,4.041421e-01,3.279615e-01,4.182877e-01,4.159987e-01,1.326570e-01,2.453344e-01,-3.615564e-01,1.648898e-01,-4.698875e-01,5.268412e-01,2.853294e-01,2.803016e-01,8.562935e-02,-2.498378e-01,1.950408e-01,-3.761994e-01,-2.214907e-02,-5.844829e-01,5.186554e-01,1.143607e-01,-2.604258e-01,1.377913e-01,8.398125e-02,6.564467e-02,-2.579124e-02,-1.933371e-01,3.785097e-01,2.094431e-01,2.924020e-03,7.692050e-02,
9.578949e-02,4.349153e-01,1.876399e+00,4.187043e-02,-9.371768e-04,-9.318129e-01,-4.275846e-01,-1.178983e+00,1.058895e+00,9.435115e-03,-1.166858e+00,-2.710280e+00,6.218654e-01,-2.251045e+00,1.299042e-01,1.466559e-02,1.438379e+00,-1.232755e+00,8.912510e-02,-6.165453e-02,4.870309e-01,-4.881614e-01,-1.482074e+00,2.988808e-01,6.845084e-01,-1.605056e+00,8.137034e-01,5.589712e-02,5.807019e-01,-3.944268e+00,-2.030541e-01,-4.772540e-01,-1.044626e+00,-2.705093e-01,-2.676203e+00,-2.527475e+00,3.313649e-01,-6.304225e-01,-1.309717e+00,-1.858004e-01,-1.151064e+00,6.382829e-01,-3.638697e+00,7.933226e-01,6.426720e-01,-2.501640e+00,-1.039625e+00,9.209172e-01,-1.418177e-02,1.873382e-01,
2.215932e-01,3.399695e-01,8.464580e-01,2.990505e-01,4.234606e-01,-4.395694e-01,2.321541e-01,4.488930e-02,-3.857010e-01,4.579501e-01,7.665008e-01,-3.392996e-01,8.859591e-02,-2.063574e-01,-4.243550e-01,3.964336e-01,-8.882454e-03,-3.678087e-01,4.495043e-01,2.963083e-01,-9.243131e-01,3.432238e-01,1.257498e+00,-7.901291e-03,1.404286e-02,-3.901381e-01,-7.239519e-01,-1.171385e+00,4.277244e-01,6.380553e-01,4.916926e-01,3.146524e-01,-1.130643e-01,4.238757e-01,2.015556e-01,-8.259013e-01,-8.524651e-03,-3.210000e-01,4.805686e-01,-3.676492e-01,1.995418e-01,-3.220140e-01,5.146611e-01,3.069213e-02,2.073918e-01,7.010222e-02,-2.782471e-01,-2.224364e-01,2.019902e-03,6.063151e-02,
-8.344686e-04,2.943262e+00,6.415547e-01,2.420350e-01,6.723454e-01,-5.996118e-01,5.779473e-01,2.193016e+00,1.261966e-01,3.738936e-01,2.126241e+00,7.615619e-01,1.499389e-01,-2.124280e+00,-1.470549e+00,-7.377745e-01,1.853721e+00,2.649385e+00,5.649090e-01,-1.344683e+00,9.034384e-01,5.821337e-01,4.556084e-01,-6.015359e-01,1.008549e+00,-3.500748e+00,3.762067e-01,-4.032334e-01,1.871682e-01,1.715048e+00,1.097200e+00,1.530904e-01,1.851781e+00,-1.163870e-01,1.798358e+00,5.966274e-01,-2.913569e-01,-3.218415e-01,1.086913e+00,-6.522756e-01,-3.079036e+00,3.139389e-01,-1.981507e+00,-2.937564e+00,3.090158e-01,-6.217591e+00,1.848277e+00,-3.145288e-01,-3.631862e-02,6.913242e-02,
7.006930e-01,1.012267e+00,2.585453e-03,6.468275e-01,7.367117e-01,3.425262e-01,1.094093e-01,-1.457868e-01,-8.410419e-03,3.082624e-02,4.730733e-01,1.088998e+00,1.994931e-01,-3.079040e-01,-2.099632e+00,-6.045175e-01,4.125855e-02,1.018858e-01,3.532191e-01,-2.651944e-01,2.923490e-02,-2.072102e-01,1.487759e+00,3.429497e-01,1.387726e+00,-5.822899e-01,-2.149272e-01,-1.725031e+00,3.841238e-01,1.006667e+00,5.738549e-01,-3.184398e-01,-1.189001e+00,-1.527593e-01,-3.461631e-01,-9.180113e-01,-3.452547e-01,1.066429e+00,1.087421e+00,3.627248e-01,-3.011626e-01,3.810381e-02,7.040526e-01,-1.965711e-02,3.433634e-01,5.941204e-01,7.908770e-02,6.337665e-02,9.520171e-04,2.356452e-01,
3.795734e-02,-6.789494e-01,9.412208e-02,1.732950e-02,1.032607e+00,-1.399043e+00,3.890098e-02,-9.268864e-01,1.897074e+00,-8.039452e-01,8.261750e-01,5.188137e-01,-1.411782e+00,2.015234e+00,-5.571883e-01,-1.356621e-01,-3.514572e+00,1.709320e-01,9.828629e-02,7.765204e-02,-6.288373e-01,-4.735981e+00,1.246986e+00,4.227380e-01,-2.926873e+00,9.422661e-01,-5.756945e-01,5.741033e-02,-2.171183e+00,4.060365e-01,4.100701e-02,-1.736526e+00,-2.908538e+00,-1.298537e+01,4.015496e-01,9.509291e-02,-3.248972e-01,-3.810461e-01,-8.595240e-03,1.843703e-01,1.322781e-01,-1.007443e-01,-4.563473e-01,-1.940268e-01,-3.662440e-01,-4.968021e-02,-5.489428e-01,6.166945e-01,-1.752224e-02,1.618592e-01,
3.001121e-01,3.627558e-01,7.457341e-01,2.450169e-01,2.392788e-01,6.457245e-01,-9.921779e-01,-3.380840e-01,1.798058e+00,-7.498327e-01,-2.104164e+00,1.666336e-01,3.304968e-01,-1.819353e+00,-2.842717e+00,-1.069811e+00,-3.712563e-01,-5.839769e-01,-1.089909e+00,-8.150281e-03,5.926638e-01,6.825763e-01,-8.404318e-01,2.537847e-01,-9.710127e-01,-3.356185e-01,-1.076746e+00,-6.363409e-01,-9.331648e-01,-1.227139e+00,9.163857e-01,-4.234290e-01,-7.603931e-01,3.852935e-01,2.193879e+00,-1.050347e+00,5.098672e-02,1.508978e+00,-5.901148e-01,9.018975e-01,2.642801e+00,6.106662e-01,-4.776291e-01,-5.446443e-03,-7.374805e-01,6.779357e-01,-6.327546e-02,-6.787194e-03,-1.638177e-03,3.232172e-01,
-1.523505e-01,-3.870749e-02,-1.777972e-02,-1.551760e-02,-7.171429e-03,1.886292e-02,-7.728177e-02,-4.574092e-02,2.810248e-02,3.440795e-02,-7.884100e-03,-1.333184e-01,-2.899341e-02,2.090235e-02,-6.100676e-02,-3.948147e-03,-2.297683e-02,-6.564341e-03,-6.788153e-02,-1.260555e-01,-1.369358e-02,1.189082e-01,-1.078113e-01,-8.322265e-03,9.151009e-03,-1.092757e-01,-4.740596e-02,-1.528186e-01,-8.302792e-03,-1.945426e-02,-6.597982e-02,1.173500e-02,-7.948093e-03,2.717911e-02,9.089967e-03,-6.002354e-02,-2.912439e-02,-6.426780e-02,-8.061996e-03,-7.784133e-03,-1.914118e-02,-1.182491e-01,-7.000558e-03,-4.656825e-03,1.031416e-02,7.052487e-03,-1.063604e-01,-6.831414e-03,-2.788706e-02,-6.620739e-02,
-6.608495e-02,2.854072e+00,4.035439e-01,2.844013e-01,-1.645457e+00,1.457161e+00,4.511843e-01,-2.104460e+00,-1.416391e+00,-3.406273e-01,-1.055341e+00,1.194661e-01,3.085988e-01,2.551884e+00,-4.988827e-01,2.380005e-01,-2.346057e+00,1.370062e+00,-3.042233e-01,-9.064834e-01,1.124178e+00,-3.460701e-01,6.260402e-01,-1.113078e+00,3.948705e+00,-5.595146e-01,6.298301e-01,-6.945778e-01,2.093641e-01,-2.150018e+00,4.935023e-01,-2.067901e+00,1.095195e+00,4.083095e-01,1.077861e+00,4.648027e-01,-5.452833e-01,-4.608999e-01,-1.302928e+00,9.835725e-02,-5.451499e+00,5.586984e-01,-7.638007e-01,1.451192e-01,-2.660409e-01,3.399120e-01,3.366675e-01,1.407109e-02,-2.303921e-02,-1.606625e-01,
-3.686292e-02,1.464907e+00,2.417965e-01,7.082911e-01,-1.114908e+00,-2.260474e-01,-3.749354e-01,-3.401161e-01,4.756244e-01,-2.983406e-01,1.169019e-01,6.949993e-01,-3.466039e-01,1.884490e-01,-4.660491e-01,-4.112091e-01,-6.134104e-03,2.652983e-01,4.432419e-01,2.424231e-01,5.962450e-01,5.564610e-02,-5.477021e-01,-4.473095e-03,-1.141778e-01,-5.972103e-01,3.577498e-01,-1.917676e-01,2.477206e-01,-1.608191e+00,-1.698460e-01,-4.173237e-01,-8.156205e-02,-8.095428e-01,-5.392088e-01,2.170708e-01,1.406930e-01,7.810218e-01,4.570964e-04,6.891943e-01,2.160161e+00,5.002384e-01,2.457430e-01,3.396662e-01,1.299698e-01,-1.636232e-01,7.163472e-01,7.250661e-02,-2.029270e-02,-4.883320e-01,
1.013937e+00,1.878780e+00,6.570675e-01,1.092528e+00,3.452300e-01,-1.080191e+00,1.322729e-02,-4.083618e-03,-5.326898e-01,-7.235454e-01,-3.135943e-01,2.937301e+00,7.199270e-01,6.450011e-01,-1.068274e+00,-6.142918e-01,6.510280e-01,-7.967228e-02,2.736476e-01,2.191909e-01,2.058790e+00,1.433965e-01,3.008833e-01,2.326777e-01,1.489619e+00,7.888034e-01,-7.265767e-02,-2.977388e-02,-6.185571e-01,-3.096362e-03,1.867466e-01,-4.460514e-01,1.065728e+00,-1.228153e-01,7.699823e-01,-7.245986e-03,4.826893e-01,-2.551947e-01,7.135127e-01,-1.104762e+00,2.042773e+00,1.479629e+00,1.797352e-01,-3.201245e-01,4.444411e-02,-5.843731e-02,3.891939e-01,-5.495919e-01,-8.066338e-03,1.155614e-01,
-1.734437e-01,1.945039e+00,1.968331e+00,-6.068813e-01,-1.055248e+00,1.010439e+00,-2.150342e-01,1.698191e-01,-9.432247e-01,2.662726e-01,-7.520688e-01,2.406311e-01,3.156213e-01,1.564458e+00,-2.479777e-01,-8.422565e-01,1.191308e+00,8.318240e-01,8.079255e-02,-1.069539e+00,4.460866e-01,3.876358e-02,2.817711e-01,-1.876726e-01,7.808667e-01,3.202940e-01,-1.503202e-01,-6.906893e-01,-2.643835e-01,1.448674e+00,-5.812970e-01,9.938299e-02,5.596493e-01,-1.538275e+00,1.238307e+00,-1.693522e+00,-2.924955e-01,9.556481e-01,7.547187e-01,-6.451880e-02,9.236303e-01,5.870505e-01,-8.526931e-01,6.954529e-01,-1.490133e-01,-4.437281e-01,1.460071e+00,-8.545302e-01,-4.086390e-03,-2.075633e-01,
3.182394e-01,1.126328e+00,3.373807e-01,5.134916e-01,-1.828339e+00,-3.267340e-01,-3.151797e-01,4.908114e-01,7.470347e-01,-1.097678e-01,-1.298067e+00,2.082791e-01,2.733374e-01,-1.105171e-01,-7.900274e-03,-7.878878e-03,-4.471998e-01,-1.260051e+00,-2.405475e-03,1.487340e-01,3.782853e-01,1.505404e+00,-1.261953e+00,7.304147e-01,1.915840e+00,-1.217391e+00,8.425451e-01,-8.005800e-02,-7.700441e-01,-1.759008e+00,-2.327062e+00,-6.222695e-01,-2.853916e-03,6.148994e-01,-1.026215e+00,-3.000745e+00,-1.331611e-01,-2.196986e-01,-1.232220e+00,4.283024e-01,-1.997137e+00,4.955873e-01,-4.065921e+00,2.702324e-01,-2.310876e-01,-1.154889e+00,1.469574e-01,-2.802049e-01,3.731570e-03,-5.569865e-01,
-5.065175e-01,-1.013719e+00,3.517859e+00,4.794680e-01,9.266281e-01,6.853597e-03,-4.982285e-02,1.080938e+00,1.319055e+00,5.781627e-01,2.770201e-01,2.655198e-01,1.319199e+00,2.370491e+00,1.642995e+00,-5.198776e-01,-1.481347e-01,3.345438e-01,8.135928e-01,8.344654e-01,-9.211516e-01,7.748461e-01,6.166496e-01,-8.460609e-01,1.246046e+00,-4.255916e-01,-8.334172e-01,-3.425365e-01,5.970077e-01,8.778948e-01,-5.559126e-01,4.870663e-01,4.437017e-01,5.736833e-01,6.324362e-01,4.056206e-01,-3.266619e-01,-3.389093e-01,9.646630e-02,3.322045e-01,8.035253e-01,-2.583223e-01,-3.926728e-01,-5.523623e-01,-6.883489e-01,-4.935826e-01,3.620424e-01,-2.142066e+00,-2.626916e-02,1.011097e-01,
-1.497415e-01,-2.588819e-01,2.025829e-02,1.460285e-01,1.079596e+00,1.259899e+00,-4.642365e-01,5.210748e-01,6.451985e-01,-1.395152e-01,7.816582e-01,-4.127480e-01,3.343686e-01,5.687057e-01,5.894959e-01,-3.209744e-01,4.608997e-01,-5.501928e-01,1.477567e-01,5.284479e-01,-1.844832e+00,-8.053249e-03,-1.363236e+00,4.658503e-03,8.054489e-01,4.865289e-01,-3.787728e-01,1.494290e-01,-7.435889e-01,9.697622e-01,6.437331e-01,2.877278e-01,-3.008184e-01,1.773403e-01,2.788529e-01,5.578222e-01,2.905191e-01,1.968714e-01,-3.995672e-03,3.027148e-01,-1.362517e+00,-1.623188e-01,5.521170e-01,-4.585332e-01,-8.097798e-01,4.498272e-01,1.512760e-01,1.119024e+00,2.419113e-02,-1.331302e-03,
4.026300e-01,1.348386e-01,-8.782669e-02,8.792800e-03,-4.743402e-01,3.953283e-01,-3.613961e-01,4.062453e-01,-4.875424e-01,-9.393067e-02,5.405481e-01,1.057563e+00,1.387810e-01,-7.909696e-01,-7.348285e-01,-5.767645e-02,6.893732e-02,-1.285131e-01,5.113453e-01,-1.903733e-01,-2.359947e-01,4.011074e-02,1.719266e-01,3.380139e-01,3.791272e-01,1.706605e-01,-5.894343e-01,-1.394632e-01,-2.171378e-01,2.220573e-01,2.765335e-01,3.105645e-01,-4.033096e-01,-1.770538e+00,7.078856e-02,-6.051316e-01,-2.285161e-01,-3.175493e-01,-4.281550e-03,1.847981e-02,1.736775e-01,3.426338e-01,-3.832207e-03,-3.061489e-01,3.688422e-01,1.616887e-01,6.826819e-02,-2.116019e-01,-5.475459e-02,3.642116e-01,
3.630824e-01,-1.630595e+00,2.822504e+00,1.198458e+00,-2.743664e+00,-2.973127e+00,1.379367e+00,-1.278763e+00,-2.557410e+00,2.029066e+00,-6.596348e-01,5.095973e-01,-1.621127e+00,-9.577217e-01,-5.832425e-01,-3.080792e-01,1.617294e+00,7.540978e-01,7.431530e-01,-1.489534e+00,1.892045e+00,1.509031e+00,1.542062e+00,-1.295534e+00,1.565654e+00,6.168678e-01,4.400069e-01,-6.270412e-01,2.763433e-01,9.869139e-01,1.525959e-01,1.833111e-01,1.716252e+00,1.147255e+00,-1.692152e-01,1.210082e+00,-5.291280e-01,5.907515e-03,7.760352e-01,-2.761926e+00,-6.137655e-01,-1.393983e+00,1.340697e+00,-2.834733e-01,-9.638675e-02,-3.840231e+00,3.021663e-01,-3.573048e-01,-2.964167e-02,-4.849162e-01,
2.896018e-01,6.196273e-01,-1.303906e-01,-6.963975e-03,3.925652e-01,3.965950e-01,7.110179e-02,2.145913e-01,-3.155496e-01,-1.262756e-02,1.130635e-02,-1.300515e-02,4.117635e-01,6.362307e-01,1.814180e-01,-2.950788e-01,2.919751e-01,-9.593464e-01,3.697120e-02,-1.030414e-01,1.360713e+00,6.311297e-01,2.634996e-01,-4.678710e-03,4.181565e-01,-2.225745e-01,2.490298e-01,-4.586689e-01,1.199104e-01,-4.165486e-03,3.914127e-01,3.846365e-02,3.633813e-01,1.147028e+00,9.027713e-02,1.921868e-01,4.480533e-01,1.209055e-01,7.934683e-01,-9.940807e-02,-4.382965e-01,8.924794e-02,2.469822e-01,6.560448e-02,7.210974e-01,-3.628347e-03,-1.024678e+00,-8.365326e-02,-1.290508e-02,-5.362884e-03,
-1.427259e-02,9.236627e-01,-7.880444e-02,-1.842187e-01,-5.161562e-01,4.875864e-01,5.136118e-01,-6.698312e-01,6.831653e-01,-9.280648e-01,1.267588e-01,1.677694e+00,4.613524e-01,-1.211146e+00,1.116232e+00,9.847552e-02,-5.648901e-01,-3.015546e-01,-5.408063e-01,-5.408702e-01,2.696136e+00,1.695347e+00,-2.864411e-01,6.195173e-01,-6.357549e-01,-5.273498e-01,6.560960e-01,1.885468e-02,-6.064641e-02,-2.996593e+00,1.471590e-03,-1.068968e+00,-1.241665e-01,-2.097983e-01,-3.761467e-01,4.218039e-01,9.618255e-01,9.214535e-01,8.713998e-01,2.457307e-01,2.318235e+00,4.394819e-01,-1.501876e+00,-4.857371e-03,3.226505e-01,-9.027967e-01,9.168260e-01,1.445398e+00,-5.350663e-03,9.245861e-02,
2.880355e-01,-8.368619e-01,-8.175222e-01,-6.386931e-02,3.867843e-01,9.908940e-01,-1.787422e+00,-2.598797e-01,1.358525e-01,-1.296935e+00,-2.101018e+00,7.337376e-01,-1.685255e-01,-7.485093e-01,-1.574821e+00,1.589165e-01,7.473703e-01,-2.904029e-01,-8.657720e-01,5.931100e-02,-3.687417e+00,1.571444e-01,-4.405678e-01,3.231249e-01,2.247544e+00,-1.262531e-01,4.533091e-01,4.966956e-02,9.228032e-01,-2.094557e+00,-9.096869e-01,-2.310251e-01,-2.182854e+00,1.474813e+00,-4.867520e+00,3.589306e-01,-3.728506e-01,-3.179883e+00,-1.361732e+00,-5.214718e-01,2.555914e+00,1.009684e+00,-1.076721e+00,-1.055520e+00,-3.797786e-01,3.532519e-01,5.064989e-02,-3.391933e-01,8.620713e-03,-6.367539e-01,
5.488344e-02,1.032351e+00,-3.250416e-02,3.178157e-01,1.840123e+00,-1.968349e+00,-1.844887e-01,2.239221e+00,-2.284944e+00,-2.089808e-01,2.761535e+00,7.866473e-01,1.137000e+00,8.870531e-01,9.898971e-01,-5.795823e-01,-5.633594e-01,5.751097e-01,-3.427573e-01,-5.158840e-01,1.077052e+00,-1.196028e+00,1.512389e+00,1.727339e-01,-2.286897e-01,5.399534e-02,-4.967520e-01,1.065176e-01,4.341201e-02,-1.540464e-01,-3.148416e-02,7.559690e-02,1.869849e+00,-8.940157e-01,1.704504e-01,-5.210369e-03,-3.228276e-01,-8.315652e-01,5.945358e-01,-4.191182e-01,-6.942934e-01,-2.165420e-01,-1.525702e+00,3.100679e-01,8.196609e-02,5.337704e-01,4.095458e-01,4.982168e-01,-3.388421e-02,2.409125e-01,
-1.113105e-01,-3.950634e-03,4.540219e-02,4.033260e-01,-1.276482e+00,3.217890e-01,-4.702486e-01,-5.043078e-01,6.763097e-01,8.766223e-02,6.372091e-01,-1.966564e-01,3.827004e-01,-2.234667e-01,7.935738e-02,1.191987e-01,2.040894e-01,6.871151e-01,-1.805284e-01,3.121657e-01,6.042492e-01,4.606544e-01,-5.464513e-01,1.852621e-01,-5.382412e-01,-2.734529e-01,-5.850949e-01,-2.995194e-01,9.091831e-01,2.032392e-01,1.055617e+00,5.564177e-01,4.798958e-01,9.785978e-01,2.364917e+00,2.517962e-01,2.357882e-01,8.564918e-02,-8.254940e-01,5.379649e-01,8.663039e-01,1.313471e-01,-1.759335e-01,-6.056886e-01,-5.000461e-01,4.156020e-01,-6.541030e-01,5.483525e-01,-1.359602e-02,-5.762042e-01,
4.887970e-01,-1.608149e+00,1.584193e-01,1.424747e-01,-4.483650e-01,-1.150311e+00,3.423494e-02,-2.459858e-01,-1.564808e-01,1.849973e-01,-1.322793e+00,2.221736e-01,5.715493e-02,-1.228731e+00,-2.074738e+00,7.405002e-02,9.259826e-01,-1.515167e+00,2.218585e-01,-4.993677e-02,-1.204865e+00,-8.586480e-01,8.336852e-01,1.098429e+00,4.129386e-03,1.332690e+00,5.172769e-01,3.125265e-01,8.429362e-01,1.923262e+00,-4.993726e-01,2.675320e-02,1.532970e+00,-1.776568e-01,5.460306e-01,-3.404728e-01,1.581761e+00,-4.005246e-01,-2.821352e+00,2.516181e-01,6.124133e-01,3.018181e-02,4.150850e-01,-2.991301e-04,-1.050769e+00,1.697694e+00,-1.334995e+00,-4.964484e-01,-8.169510e-03,5.814565e-01,
-1.779968e-02,-4.580148e-02,-2.699566e-02,-1.241645e-02,1.813759e-02,-2.774032e-02,-4.737584e-02,-3.196993e-02,-7.462496e-03,-1.609572e-02,1.769291e-02,-2.575560e-02,-3.681254e-02,1.340912e-02,-9.247686e-03,-2.435277e-02,-6.634561e-03,-2.911945e-03,-2.157808e-02,-4.310701e-02,-7.811016e-03,-2.954711e-02,-1.781111e-02,-1.404754e-02,-4.100309e-02,-8.831325e-04,-8.115266e-03,-1.942603e-02,-4.750929e-02,-2.390838e-02,-1.516153e-02,-1.425348e-02,-4.578070e-02,-7.930405e-03,1.808549e-02,8.188550e-03,-2.479271e-02,-2.809223e-02,-8.365919e-03,-4.045674e-02,4.031280e-03,-2.701785e-02,-2.701482e-04,1.246023e-02,-4.681268e-02,1.537392e-02,-1.627858e-02,-6.615066e-03,9.789342e-03,-6.661737e-03,
-3.879382e-01,-4.430820e+00,1.623601e-01,-1.945116e-01,5.043364e-01,-2.258622e+00,-2.003205e-01,3.413969e-01,4.836616e-01,1.344462e-01,-1.542779e-01,1.196130e-01,1.003525e-01,-8.935112e-01,1.306586e-01,1.738774e-02,6.755321e-02,1.250731e+00,1.726039e-02,4.402592e-01,9.327450e-03,3.567593e-01,9.033090e-01,-2.724068e-01,3.718598e-01,1.437674e-02,7.006776e-02,-1.161305e-02,-1.071138e+00,1.731911e-01,1.498229e-01,1.025042e-01,-4.774547e+00,-1.927953e+00,-2.082605e+00,-4.107491e-01,5.005817e-02,-1.234460e-01,-3.786939e+00,-1.103140e-01,2.228024e+00,-1.605668e-01,2.375673e-02,-7.057768e-02,2.812350e-01,-3.400936e-03,-8.825096e-01,-1.150937e-01,-4.197092e-02,1.022263e-01,
2.011009e-02,1.565939e-01,5.459382e-03,-3.320090e-01,-1.348369e+00,-2.191110e-01,2.236495e-01,7.285489e-01,-1.407533e+00,6.008066e-01,-7.371788e-02,-9.214071e-01,-5.926343e-01,1.450112e+00,2.040777e-02,-1.445208e-01,-3.031225e-01,5.874035e-02,2.199143e-02,4.146229e-01,9.370875e-02,-3.111857e-01,-2.038750e-01,4.207928e-02,1.154956e+00,-2.085715e-01,9.737001e-02,3.965061e-01,-1.636970e-01,5.760674e-01,2.231478e+00,1.459707e-01,2.857376e-02,-1.202668e-01,8.542770e-02,1.155048e-01,-5.425223e-01,-1.734350e+00,-8.652728e-01,-2.949542e-01,1.418204e+00,-3.459303e-01,1.677978e-01,2.706897e-01,1.870377e-01,-6.341080e-01,-1.973282e+00,1.658183e-01,-6.032234e-03,1.947989e-01,
-1.823556e-01,1.483457e-01,-3.276554e-01,-1.092542e-02,9.506377e-01,6.472550e-01,4.865519e-01,8.455241e-01,-3.947079e-01,3.765413e-01,8.539160e-02,2.093223e-01,1.903364e-01,9.635965e-01,-3.544561e-01,-1.261411e-01,1.532820e-01,-6.588878e-01,-3.476610e-02,6.293136e-01,9.445155e-01,-2.023439e-01,1.773869e-01,-6.366352e-01,-8.350938e-01,-2.419147e-01,3.752443e-01,-5.200894e-01,-3.995178e-01,1.140495e+00,4.761940e-01,1.608566e-01,2.213357e-01,1.511937e-01,1.206639e+00,-4.365242e-01,8.375253e-02,-1.463295e-02,-1.044739e+00,2.956656e-01,-2.782556e-01,-8.588251e-02,-3.902799e-01,-3.034382e-01,2.010441e-01,4.490594e-01,-6.573794e-01,-4.410913e-01,-2.940904e-02,7.211024e-01,
-1.006270e+00,1.412168e+00,1.646002e+00,9.141357e-01,1.571824e+00,1.152964e-01,-3.668038e-01,-4.250992e-01,1.983498e+00,2.263777e-01,3.565775e-01,1.852300e-01,-3.227051e-01,-4.263677e-01,6.369659e-01,-1.268039e-02,-4.117576e-01,4.500378e-01,-8.994911e-01,5.862328e-01,-3.052952e+00,-1.332856e-01,1.815357e-01,-1.048114e+00,6.511963e-01,5.524499e-02,-1.039386e+00,4.513491e-01,-1.471900e+00,9.234610e-01,-3.826610e-01,4.868182e-01,-4.996232e-02,-5.365079e-02,1.802481e+00,-2.713066e-01,6.994334e-01,2.817485e-01,-7.352873e-02,1.285209e-01,-7.589748e-02,-1.056715e-01,3.981373e-01,-5.293045e-01,6.101914e-02,-1.069218e+00,-1.142060e+00,-6.421626e-01,-1.627597e-02,6.555394e-01,
-1.460223e+00,-4.708182e+00,3.629982e+00,6.669587e-01,7.546682e-01,-5.800862e-01,-1.533822e+00,4.852681e-01,1.670742e+00,8.044383e-02,-5.327105e-02,9.694338e-01,1.676926e+00,1.182116e+00,1.879939e+00,-4.849456e-01,7.616085e-01,1.112343e+00,-6.901734e-01,1.704934e+00,-6.418293e-01,-1.250926e+00,-6.769494e-01,2.880389e-01,2.552604e+00,1.190198e-01,2.888418e-01,-1.126996e+00,-2.010571e+00,-1.116713e+00,6.493978e-01,1.318290e+00,-2.858332e+00,1.641618e+00,4.482097e+00,1.662001e+00,-4.977944e-01,-7.065959e-01,-2.228053e-01,1.930509e+00,-5.271707e-01,-4.091989e-01,-3.113919e-01,-2.308181e+00,1.624888e+00,-8.066228e+00,-4.352418e-01,-2.399588e+00,-1.857727e-03,-5.411441e-01,
