// The contents of this file are licensed under the Creative Commons
// Attribution 4.0 International License: https://creativecommons.org/licenses/by/4.0/
// Neural Network File Format by Kyle Julian, Stanford 2016 (generated on 11/27/2021 23:33:44)
7,5,5,50,
5,50,50,50,50,50,50,5,
0,
0,0,0,0,0,
0,0,0,0,0,
19791.091,0.0,0.0,650.0,600.0,7.5188840201005975,
60261.0,6.28318530718,6.28318530718,1100.0,1200.0,373.94992,
-4.494342e-01,-1.352300e+00,1.831925e+00,-3.560219e-01,8.093834e-01,
-1.374263e-03,-1.732474e+00,2.091018e+00,1.882006e-01,-6.091251e-01,
2.227553e-01,-3.735302e-01,3.210603e-01,-8.499987e-02,-8.580955e-01,
2.508115e-01,1.790789e+00,1.854004e-01,1.330537e+00,-1.753681e+00,
3.375056e+00,-2.737113e-02,-3.968384e-02,3.021331e-02,-9.058231e-03,
-1.529245e-02,-1.290626e+00,-6.323164e-01,3.710075e-01,-1.581062e-01,
4.679713e-02,-1.030164e+00,1.135243e+00,-6.702805e-02,2.861773e-01,
-1.117993e-01,-5.858411e-01,-1.517593e-01,3.279533e-01,-1.784250e-01,
-4.084389e-01,7.070500e-01,-1.261791e+00,6.663626e-02,3.151341e-02,
6.278654e-02,-3.633154e-01,-1.293998e-01,3.322087e-01,-4.843810e-01,
9.431314e-02,-1.389363e+00,1.716638e+00,2.195805e-01,-5.106357e-01,
5.251483e-01,-2.884608e-02,8.698341e-02,-2.588887e-01,-5.968704e-01,
7.538368e-02,-7.705504e-02,-5.228333e-01,-2.067631e-01,2.733796e-01,
6.194883e-02,1.805497e-01,-1.549776e-01,-4.201363e-01,4.107920e-01,
3.013681e-01,-8.269790e-01,-2.483017e-01,-2.600242e-04,1.073087e-01,
-8.079360e-03,-5.637690e-04,-7.124030e-03,1.850730e-03,6.155190e-03,
1.289043e-01,1.127696e-01,-2.203190e-01,5.035836e-02,3.171982e-02,
1.057352e-01,-6.067077e-01,8.229261e-01,-1.077306e-01,7.503958e-01,
-1.268656e-01,-2.372771e-01,2.593255e+00,1.273358e-01,3.870239e-01,
1.362235e-01,2.155764e+00,-9.489248e-01,3.143989e-01,1.612035e-01,
-1.596372e-01,8.910111e-01,7.944431e-02,-4.776153e-01,6.789845e-01,
1.844970e-01,-1.677229e+00,6.216659e-01,4.302533e-01,-6.279142e-01,
-2.628540e-02,9.695473e-02,2.194324e-01,-6.233581e-01,-8.714201e-02,
-2.374955e-02,1.462515e+00,-1.747534e+00,-2.892078e-01,6.995209e-01,
-1.028119e+00,2.381387e-01,8.407678e-02,1.198593e-02,-2.205882e-01,
4.227212e-02,-1.792249e-01,4.800813e-01,-8.835357e-01,8.106582e-01,
-2.807488e-01,-2.571003e-01,2.694446e-01,1.006483e+00,-1.204035e+00,
-6.170163e-02,8.830055e-01,9.282983e-01,2.627724e-01,-7.502665e-02,
-3.850302e-02,-1.697631e-01,-1.970783e-01,1.187926e-01,1.750596e-01,
1.888984e-02,1.355534e+00,-1.596809e+00,-1.215365e-01,5.104334e-01,
1.003141e+00,4.020200e-01,2.771962e-02,2.834907e-01,1.670152e-01,
-1.449816e-02,3.433220e-01,1.117826e+00,-2.345467e-01,2.179904e-01,
4.369342e-02,3.508717e-01,4.600488e-01,-3.910434e-01,1.563169e-01,
8.159161e-02,-1.102223e+00,-3.279073e-01,3.563108e-01,-1.697432e-01,
-1.117476e-02,9.570620e-01,7.766134e-01,3.313753e-01,-1.981520e-01,
-7.443662e-03,1.227021e+00,-1.077790e+00,-2.852936e-01,1.719885e-01,
-1.459961e-01,-8.873242e-01,-5.712966e-01,-2.973794e-01,2.324418e-01,
-1.495130e-02,1.650100e-02,8.741090e-04,8.299480e-03,1.082470e-02,
1.161909e-01,-1.516363e+00,1.485432e+00,9.507941e-02,2.563484e-01,
1.178477e-01,4.387097e-02,-5.681832e-02,-1.450499e-01,-2.188442e+00,
-1.089740e-02,1.368670e-02,1.999810e-03,-1.924230e-03,-1.665690e-03,
2.854152e-01,1.392714e+00,-8.423465e-01,2.132338e-01,-1.480283e-01,
1.797260e-02,-2.681479e+00,9.700418e-01,4.787504e-01,-7.524566e-01,
6.482046e-03,-4.620653e-01,-1.086261e-01,-1.807389e-01,-1.150845e-02,
-5.123332e-02,-1.672233e+00,-1.897055e-02,3.206762e-02,-6.898823e-01,
7.750051e-02,1.041509e+00,-1.057763e+00,-3.562078e-01,4.251089e-01,
3.615200e-01,1.210874e+00,4.796472e-01,7.937497e-01,-3.830738e-01,
-2.145063e+00,2.191079e-02,4.457316e-02,3.808317e-01,2.421017e-01,
5.303491e-02,5.570164e-01,-7.862636e-01,1.243346e+00,-1.575349e+00,
-2.125961e-01,2.128713e+00,-1.989628e+00,6.258214e-02,-5.971790e-01,
-3.683793e-01,
-3.863540e-01,
-3.699055e-01,
-2.340412e-01,
9.278386e-01,
-2.215530e-01,
-5.229235e-01,
1.371525e-01,
-6.616125e-02,
-1.229871e-01,
1.458459e-01,
8.517100e-02,
1.489119e-02,
1.070532e-01,
1.359210e-01,
-1.397500e-02,
-3.427010e-02,
1.515041e-01,
2.534496e-01,
2.474718e-01,
1.995559e-01,
-3.403043e-01,
7.518220e-02,
-3.654985e-01,
-2.418736e-02,
6.388839e-02,
-1.907398e-02,
9.045813e-02,
7.282571e-02,
-5.750911e-01,
4.448735e-01,
3.535236e-03,
-8.151359e-02,
3.444770e-02,
-1.938811e-01,
3.407929e-01,
2.073852e-01,
-2.756540e-02,
-5.110713e-01,
-8.364998e-01,
-1.365580e-02,
-3.342973e-01,
-1.870953e-01,
3.268055e-02,
-2.891633e-01,
-5.962263e-01,
1.527571e-01,
-2.577375e-01,
4.127727e-01,
-1.335201e-01,
-1.455034e-02,-1.244236e-02,-7.169069e-03,-1.712268e-02,-5.630484e-02,-1.378167e-02,-3.630826e-03,-5.666116e-03,-4.389992e-02,2.298293e-02,-5.126724e-03,1.735847e-02,-1.451579e-02,-1.749100e-04,3.155126e-02,-2.192890e-02,-3.741221e-03,5.355385e-03,-3.977443e-03,-1.580355e-02,-3.524465e-02,1.251698e-02,-3.619420e-02,-4.498959e-02,-1.789580e-02,-5.701190e-02,-7.002023e-02,-3.885306e-02,-1.456915e-02,1.410969e-02,-2.813297e-02,1.689039e-03,-2.892867e-02,-3.985559e-02,-4.899509e-03,-6.466537e-03,-4.819508e-02,7.336570e-03,-1.946620e-03,-6.245680e-02,1.694410e-02,-6.600602e-03,2.392650e-02,-7.340962e-03,2.357775e-02,-4.659879e-03,-1.805134e-02,-1.206380e-02,1.885783e-02,1.073067e-02,
-2.568062e-01,8.927445e-01,-7.773990e-01,-2.055618e-01,-4.187902e-02,-7.138357e-01,2.211089e+00,3.500617e-02,-1.219218e-01,1.212968e+00,1.100124e+00,-4.131767e-01,-4.340609e+00,1.376316e+00,-3.608029e-01,3.334240e-02,-2.685921e+00,4.893838e-01,2.564747e-01,-2.477325e+00,-1.525164e+00,1.291495e+00,-8.746943e-01,-9.917189e-02,-8.988301e-01,1.273932e-01,-2.464367e+00,-6.380694e-01,-6.944653e-01,-4.938472e-02,-8.110420e-02,-2.448673e+00,-1.194444e+00,3.372587e-01,-3.606703e-01,-9.506839e+00,-1.507445e+00,-4.351370e-02,9.969425e-01,3.755553e-01,3.093710e-02,-1.357151e-02,5.252321e-01,-1.608083e+00,-4.930802e-01,-1.606026e-02,-8.003290e-01,-3.183672e-01,3.952764e-01,-3.457490e-02,
-1.233590e+00,-3.750927e+00,2.139701e-01,4.707403e-01,-1.093098e-01,-2.007873e-01,-4.620023e-04,-1.405758e+00,-1.409796e-01,-5.911771e-01,-3.708921e-01,8.868099e-01,-4.358354e-02,1.522966e-01,-4.937392e-03,3.125150e-02,-8.742644e-03,-1.007114e+00,-2.721152e-01,-2.151609e-01,-9.980569e-01,3.645101e-02,5.416749e-01,3.705012e-02,-1.429770e-01,1.790419e+00,2.621978e-01,-7.355453e-01,-1.733960e-01,8.501714e-03,-6.190035e-01,-3.972403e-01,1.504577e+00,-3.641655e-01,-9.535314e-01,3.585213e-01,8.661387e-03,-8.362150e-03,1.829124e-02,7.168573e-02,2.322190e-02,2.816468e-01,-6.860395e+00,3.489504e-01,-6.129154e+00,1.662945e-01,9.311076e-02,-3.684921e-01,7.100917e-02,4.018061e-01,
1.676506e-01,-6.708622e-04,8.940118e-02,-1.104734e-01,-5.480005e-03,9.257474e-01,-7.572150e-01,-1.401007e-01,-1.165643e+00,-1.696591e+00,-2.148419e-03,-1.756461e-01,5.048589e-01,7.356614e-01,-3.829614e-03,2.903030e-02,1.312899e-01,-1.435745e-01,-1.348796e-01,-4.689291e-01,4.425550e-02,1.397532e-01,4.253671e-02,-1.588260e+00,1.709618e-01,2.396228e-01,-1.199782e+00,-4.009822e-02,6.899424e-01,-1.280613e+00,2.200875e-01,2.810463e-01,4.991117e-01,5.270948e-03,1.210132e+00,-1.273921e+00,7.393639e-01,3.239030e-02,-4.967407e-01,-3.823676e-01,-4.527300e-02,-1.207248e-01,2.662612e-01,2.785399e-01,3.695751e-01,-8.285717e-02,-1.214632e-01,-2.773078e-01,-1.118080e-01,6.109387e-01,
2.857550e-02,2.035400e-02,3.892540e-02,-2.365380e-02,-6.367060e-03,-1.545410e-02,3.702870e-02,-2.664110e-02,2.015180e-02,4.261600e-02,-4.824460e-02,2.347020e-02,-3.016200e-03,-2.559330e-02,1.004130e-03,-3.940100e-02,-4.467340e-02,-4.234080e-02,-2.630790e-02,-1.152150e-03,-4.475460e-02,-3.936190e-02,1.852480e-03,-1.474320e-02,-3.516600e-02,-2.254950e-02,-2.324810e-02,-2.119720e-02,-6.313840e-03,3.250480e-02,-3.627540e-02,-2.288910e-02,-1.606270e-02,-4.692980e-02,-1.597260e-02,2.195320e-02,6.087020e-03,2.398220e-02,-2.731620e-02,-2.060560e-02,-4.936930e-02,1.167150e-02,-1.177750e-02,-2.877230e-02,-4.656210e-02,-3.030780e-02,-3.918120e-02,2.290390e-02,-2.828790e-02,1.403130e-02,
5.329018e-01,4.920970e-02,2.943369e-01,-2.967325e-02,-2.344562e+00,-1.711368e-01,3.241911e-01,1.700492e-01,5.986841e-01,-2.549105e-01,4.786335e-01,1.657100e-01,1.261282e+00,-3.547946e-01,-4.020573e-01,-2.584060e-02,-2.665239e-01,5.256868e-02,-9.697337e-02,1.990465e-01,-2.270605e-01,-6.866432e-01,-5.262195e-02,1.549425e-01,8.546784e-01,2.328494e-01,8.485737e-04,-3.139051e-01,9.489474e-02,2.244389e-01,-6.846747e-01,1.281937e-02,9.691920e-02,1.615026e-01,-2.816613e-01,-1.756712e-01,1.576180e-01,2.212590e-02,-7.660972e-02,1.550249e-02,3.020340e-02,-1.181331e+00,1.347493e-01,-7.245190e-01,-1.734582e-01,-6.181091e-01,9.104318e-02,9.119567e-01,1.976093e-01,-3.552442e-01,
-5.762667e-02,1.859670e-02,5.197010e-03,1.235515e-03,-4.733810e-02,2.517930e-02,1.393900e-02,2.833850e-02,8.007100e-03,4.148690e-02,-2.445051e-02,-4.353740e-02,1.518310e-02,2.283550e-02,-2.875050e-02,-3.791140e-02,-4.691850e-02,3.434393e-02,3.497833e-02,-1.253940e-02,-3.393468e-02,-3.809840e-02,-5.453120e-03,2.962240e-04,1.508599e-02,-5.109257e-02,-2.113374e-02,-5.711327e-02,-3.234679e-02,-3.592620e-02,-2.074840e-02,2.704460e-02,-2.939177e-02,-5.128875e-02,-2.621640e-02,-4.672180e-02,2.109195e-02,-1.231510e-02,-2.838051e-02,-1.365090e-02,1.048600e-02,1.052930e-02,-2.129760e-02,2.542990e-02,-5.097400e-02,-4.838080e-02,-2.625125e-03,-1.156931e-02,-2.832710e-02,3.585130e-02,
4.261951e-03,1.363773e-02,9.649490e-03,-5.937041e-02,-4.240549e-02,2.769857e-02,3.274828e-03,1.209881e-02,2.843813e-02,-3.136439e-02,-5.692294e-03,2.385766e-03,-3.176348e-02,-4.291300e-03,-3.098625e-02,-1.459390e-02,-1.520993e-02,4.399639e-03,3.810869e-03,4.461829e-03,-6.208432e-02,1.945873e-02,-3.740080e-02,-1.150467e-02,-5.648660e-03,-6.106380e-02,-4.466169e-02,5.050473e-03,-3.151677e-02,5.670588e-03,-6.935455e-02,-2.780047e-02,-2.975387e-02,-4.190657e-02,9.596959e-03,9.923486e-03,-5.977792e-02,-3.583050e-02,1.382377e-02,-4.814591e-02,3.621110e-02,3.307286e-02,2.122741e-02,-1.231732e-02,-3.842862e-02,-1.502509e-02,-2.768593e-02,-8.875470e-03,1.555306e-03,1.853581e-02,
-8.676385e-01,-7.741424e-03,5.085501e-01,6.049521e-01,1.282951e-01,7.724105e-01,-1.471860e+00,4.691233e-01,-2.210567e+00,2.656108e-01,-3.763366e-01,-1.577241e-01,-4.450175e-01,1.787778e-01,1.285310e-01,-5.114290e-02,-9.874180e-02,3.319879e-01,-1.218074e-01,-6.149692e-01,-6.146358e-01,-1.002258e+00,2.602112e-01,-1.448069e+00,1.247607e-01,9.656933e-02,-1.409129e-01,-9.402336e-02,6.104890e-01,-9.674369e-01,-2.653073e-01,-2.130980e-01,4.465525e-01,5.099395e-01,1.026015e+00,1.723159e-01,4.921190e-01,4.350970e-02,-1.042454e+00,-1.697568e+00,3.529010e-02,1.734035e-01,2.881072e-01,-6.424148e-02,-7.464662e-01,-4.335656e-02,-3.934605e-01,3.856311e-02,-7.510188e-01,-4.448083e-01,
-4.724010e-02,-6.721541e-02,-2.130457e-02,-4.771425e-02,1.039927e-02,-2.267738e-02,-1.619445e-02,-5.558438e-03,-2.489621e-02,-4.018778e-02,-3.536201e-02,1.014931e-02,-3.000766e-02,-3.326050e-03,-3.519131e-03,-4.519290e-02,7.000007e-03,2.657003e-03,1.722287e-02,-4.887813e-02,-7.443687e-03,-2.052962e-02,-5.887440e-02,-3.294829e-02,1.747050e-02,-2.131090e-02,-1.971923e-02,-2.861785e-02,1.268219e-02,2.676152e-02,-3.219618e-02,3.197954e-03,3.961956e-03,-5.306551e-02,-3.446181e-02,5.689380e-03,-2.839923e-02,-1.373620e-02,-6.461419e-02,-3.353904e-03,1.481850e-03,2.153315e-02,-3.389912e-03,-5.246547e-02,-9.001021e-04,-4.778566e-02,-3.373377e-02,1.742290e-02,-1.879315e-02,-3.555867e-02,
-1.931999e+00,9.393422e-02,1.344452e+00,1.689259e-02,-1.134380e-02,-1.538938e-01,3.882439e+00,-1.305394e+00,5.363437e-01,-4.164362e-01,5.123004e-01,-8.204526e-01,-4.610809e+00,-2.445089e+00,5.223210e-02,-2.071760e-02,-2.725452e-01,-8.925362e-01,4.528546e-01,4.329314e-01,-1.582820e+00,-3.960048e-01,8.175578e-01,6.852462e-01,-1.491739e+00,-3.321038e-01,-1.101862e+00,-3.210838e-01,-3.024021e-01,-2.292376e-01,3.379281e-01,-1.144247e+00,7.550533e-01,2.232165e-02,8.475159e-01,3.881675e-02,-1.063645e+00,1.949910e-02,-9.045095e-01,-1.213612e+00,-2.065230e-02,-3.414725e-01,-2.256738e-01,9.283272e-01,1.518281e+00,-4.150732e+00,2.506628e-01,-3.819925e-01,3.361872e-01,4.378525e-01,
-4.696845e-03,3.062022e-01,-1.015109e-01,-1.072677e-01,-1.786855e-01,4.662392e-01,-3.502333e-02,-6.710662e-02,4.437410e-01,-8.294225e-01,1.727789e-02,-1.965457e-01,5.630692e-01,-2.438001e-01,-2.092669e-01,-2.307650e-02,3.304281e-01,-1.498525e-01,-4.594113e-01,-4.769241e-01,-9.207873e-01,6.825708e-01,9.028982e-02,-4.129360e-01,6.843463e-01,6.318420e-01,-6.681006e-01,-6.447459e-01,1.328192e+00,8.771901e-01,4.460395e-01,6.267667e-01,7.745377e-02,1.238450e-01,4.374180e-03,3.597595e-01,1.317169e-01,-2.387990e-02,3.629400e-01,9.920884e-01,-5.220940e-02,-6.895310e-01,8.955967e-02,-1.384441e-01,-2.951728e-02,2.431671e-01,-2.185769e-01,4.915435e-02,1.020718e-01,2.693622e-01,
1.233225e-01,-2.333370e-01,6.273265e-01,-4.277299e-02,1.055057e-01,2.064677e-01,4.924701e-01,8.758519e-01,-8.433250e-02,-1.998041e-01,-8.555226e-02,6.316761e-01,6.075866e-01,-2.436568e-01,-4.708874e-01,-9.139580e-03,-1.800102e-01,2.420557e-01,-2.862566e-02,-2.214573e-01,-2.620815e-01,3.030601e-01,3.630801e-01,-2.074846e-01,3.641783e-01,-4.219306e-01,5.416477e-02,5.440944e-01,-3.762460e-01,8.726159e-01,-8.380625e-01,4.017075e-01,-2.653456e-01,9.092844e-02,1.571202e-01,5.109230e-02,-7.727660e-02,-1.108510e-02,1.975856e-01,3.538648e-01,-2.236550e-02,8.461038e-01,-1.818723e-01,2.151733e-01,-9.770724e-01,-4.067883e-02,-3.224229e-01,-4.673502e-02,1.894476e-01,-1.609763e-01,
3.748780e-02,-5.481550e-02,-9.867020e-03,-2.455400e-02,-3.395770e-02,-5.108770e-03,-1.495370e-02,1.127660e-02,-4.326060e-02,1.205770e-02,-1.397010e-02,1.945170e-02,-2.267740e-02,-2.954490e-02,-5.656230e-02,-2.213400e-02,5.875960e-03,-4.723260e-02,9.959600e-03,-3.738840e-02,-2.925120e-02,-2.073640e-02,-1.054530e-02,-3.412470e-02,2.614070e-02,-2.984620e-02,-4.992640e-03,3.538880e-02,-5.167370e-02,-8.747560e-03,-3.211490e-02,3.697320e-02,1.821260e-02,3.633290e-02,-4.258030e-02,-4.589080e-02,-1.695490e-03,2.222580e-02,-4.803890e-02,-3.896990e-02,2.061330e-02,-1.154130e-02,-2.070320e-02,3.166780e-02,7.278360e-03,-6.863070e-04,-4.279820e-02,-3.411630e-02,3.753960e-02,-4.054580e-02,
-6.548049e-01,-2.464437e-01,3.609652e-01,-3.594332e-01,-7.017045e-02,-5.818503e-01,2.104356e+00,-1.108181e-03,2.099759e-01,-2.127820e-01,-2.712940e-01,1.925011e-01,-5.472284e-03,-2.387235e-02,-2.358911e-01,1.613020e-02,2.085305e-01,1.381692e-01,1.054097e-01,-2.926208e-01,-1.245925e-01,-1.041383e-02,-4.495477e-01,-5.448332e-01,4.155824e-02,-2.870489e-01,2.665761e-02,-7.374006e-01,5.324746e-01,2.213467e-01,5.003386e-02,5.003825e-02,1.152547e+00,2.459474e-02,2.079283e-01,-1.838389e-01,-2.736299e-01,-1.898190e-02,-6.482235e-01,7.309296e-01,4.411490e-02,4.254932e-01,4.594529e-01,-3.141196e-01,-1.657566e-01,1.786804e+00,-2.062292e-01,2.693364e-01,7.128114e-01,-1.600138e-01,
3.434829e-01,-1.433496e-01,-3.175240e-01,1.559104e-01,-5.752174e-01,2.029329e-01,4.400617e-01,2.562271e-01,3.350873e-01,7.963580e-01,1.108114e+00,-1.868028e+00,9.179645e-01,2.549231e-01,-6.464954e-01,2.923260e-02,5.351836e-01,-3.260913e-01,4.968432e-01,3.315671e-01,-3.369992e-01,-5.248904e-01,3.775187e-01,7.762115e-01,-4.365971e-02,1.850778e-01,-4.296623e-03,-5.599453e-01,1.483590e-02,-3.479393e-01,1.730539e-01,7.264455e-01,-1.127519e+00,-1.629304e-01,-7.535550e-01,2.730807e-01,2.635898e-01,3.034550e-02,-7.199702e-01,-9.793846e-01,-1.420700e-02,-1.369331e+00,-1.577547e-02,-1.097417e+00,6.349171e-01,6.241432e-01,3.312759e-01,-1.009632e+00,-2.171151e-01,4.523408e-01,
-8.623903e-01,-5.209516e-01,1.239781e+00,-1.883518e+00,7.579370e-02,1.274409e+00,3.732324e-01,8.461909e-01,-7.386909e-01,8.205295e-01,2.457615e-01,-8.823237e-01,-1.026162e+00,1.448181e+00,-1.103889e-01,1.222920e-02,8.243149e-02,4.075398e-01,3.884384e-01,-5.238458e-01,8.851358e-01,9.792166e-01,-1.745063e+00,-2.723183e-01,-1.030613e+00,1.131180e-01,-1.769752e-01,-9.781106e-01,4.716319e-01,7.115171e-01,7.520570e-01,9.045314e-01,-1.635660e+00,1.436625e+00,-1.148400e+00,-5.993510e-01,-9.536682e-01,4.176620e-03,-1.704126e+00,4.750138e-01,-2.777120e-02,1.726049e+00,3.232720e-01,-9.828257e-01,2.043784e-01,-2.142281e+00,1.989818e-01,3.538927e-01,1.590586e-01,2.351291e-01,
2.271469e-02,2.279470e-02,2.008899e-02,-5.133417e-02,-1.170808e-02,-3.302313e-02,1.096479e-03,-4.282913e-02,-1.726699e-02,1.950620e-02,-4.503082e-02,-4.862908e-02,2.237000e-02,6.920440e-03,2.913975e-03,1.496670e-02,-2.535500e-02,-4.498147e-03,-1.663418e-03,2.480819e-02,-1.566114e-02,-3.036951e-02,-4.237920e-02,-2.895420e-02,6.174690e-03,2.516010e-02,-5.668597e-02,-2.079682e-02,-1.796317e-02,3.557971e-03,-1.671290e-02,2.939221e-02,-5.360859e-02,-3.578145e-03,-7.146309e-03,-5.021128e-04,-8.362616e-03,-4.308580e-02,-2.087241e-02,2.998651e-02,-4.744500e-02,2.543489e-02,2.603204e-03,-2.765739e-03,-2.909931e-02,1.867674e-03,-2.420411e-02,2.058050e-02,-6.796672e-03,2.290200e-02,
-1.070560e+00,1.338567e-01,-2.540685e-01,-1.340749e+00,-7.029219e-02,-5.440682e-01,2.616681e-01,8.656525e-01,-8.830351e-01,2.057678e+00,-1.435555e+00,-4.887076e-02,8.116282e-01,6.197797e-01,1.153050e+00,2.590010e-02,1.450828e-01,1.159712e-01,7.210077e-02,-2.103815e-01,3.450688e-01,8.804034e-01,2.938538e-01,-1.021317e+00,-6.475142e-01,1.442719e+00,8.375263e-01,-8.727967e-01,-1.677071e-01,-1.878236e+00,1.008465e-01,1.962804e+00,1.070102e+00,1.378934e+00,2.172209e-01,6.703776e-01,6.033913e-01,-3.816580e-02,2.324609e-01,-1.648799e+00,2.179160e-02,-1.153162e+00,7.141891e-01,-5.722055e-01,-1.573185e+00,-2.919911e+00,-1.296541e-01,-5.955842e-01,-5.018397e-01,-7.452348e-01,
-2.316255e+00,-3.354008e+00,-1.129843e+00,2.360598e+00,1.166743e-01,-1.849756e+00,-4.772042e+00,-3.229747e+00,2.819026e-01,-2.841777e+00,-2.345012e-01,4.422125e-02,-1.023338e+00,-2.887462e-01,-1.905056e+00,-1.919310e-02,-8.546603e-01,1.172492e+00,1.226944e+00,-1.646702e+00,-1.526507e-01,-2.299557e+00,2.053439e-01,-2.110296e+00,5.333198e-01,1.059410e+00,-6.537706e-01,1.430915e+00,-7.418333e-01,1.308752e+00,3.766657e-01,-1.693714e-01,-1.154631e+00,-1.724673e+00,2.042731e+00,-2.521054e+00,1.509496e-01,6.155360e-04,-4.411749e+00,3.326146e-01,-5.807050e-03,-5.929485e-01,-1.277909e+00,-1.111631e+00,-1.220052e+01,-3.728949e+00,1.630931e-02,-8.040413e-02,-9.604435e-02,1.167026e+00,
-5.080168e-03,2.299355e+00,1.028248e+00,-1.087168e+00,3.516901e-03,8.348717e-01,3.633168e-01,8.474942e-01,-2.282241e-01,1.559884e+00,-3.965530e-01,-3.409224e-01,1.179589e+00,6.780759e-01,8.495398e-01,-3.765720e-02,6.995971e-03,-1.921656e-01,-1.273930e+00,-6.580367e-01,1.416734e+00,7.600323e-01,-3.171132e-01,-1.617113e+00,-4.118927e-01,-9.238745e-02,-1.306153e-01,-1.586372e+00,1.409690e+00,-2.581232e+00,3.647333e-01,5.709432e-01,1.738211e+00,1.624372e+00,3.961438e-02,9.753422e-01,7.768957e-01,-1.339930e-02,1.215225e+00,-4.224793e-01,4.254580e-02,-7.294391e-01,1.264226e+00,5.204628e-01,2.438954e+00,-2.042244e-01,-4.026224e-01,-1.526046e-01,1.785915e-01,-1.250086e+00,
2.187390e-02,3.035840e-02,-1.321830e-02,-2.438370e-02,-4.809080e-02,-9.048130e-03,-4.366880e-02,-4.146280e-02,1.288690e-03,-8.447370e-03,1.017490e-02,-2.361180e-03,-1.683510e-02,-2.939930e-02,2.438730e-02,6.005250e-03,7.090380e-04,7.791960e-04,-1.513100e-02,-3.824790e-02,-5.392920e-02,-4.894520e-02,5.545480e-03,-1.067950e-02,-1.564320e-02,-4.762160e-02,2.221590e-02,1.469240e-02,8.772630e-03,-3.318150e-02,-3.423210e-02,-1.428010e-02,-1.348350e-02,-4.095470e-02,-1.410230e-03,1.569470e-02,-2.376510e-02,-3.896800e-02,2.579100e-02,2.163400e-02,-1.276400e-02,-4.457150e-02,-1.374290e-02,-2.701770e-02,-6.275640e-03,-3.689170e-02,-2.380570e-02,3.740700e-03,2.886910e-02,6.603870e-03,
3.251409e-01,-1.543204e-01,5.509611e-01,-5.655466e-03,-8.872513e-02,3.561451e-01,2.104748e-01,6.241104e-02,1.987007e-02,2.373239e-02,-2.513466e-01,4.113399e-02,3.631319e-02,3.664598e-01,5.847457e-03,3.876900e-02,-1.776240e-01,3.540223e-02,-2.929853e-02,-1.934020e-01,-4.847560e-01,3.588090e-02,5.431888e-01,-4.298760e-02,1.155100e-01,2.252025e-01,-1.597603e-01,-2.673743e-01,4.296323e-03,-5.770489e-02,2.470689e-02,-3.213474e-01,-1.578728e-01,1.600018e-01,-2.337333e-02,-1.034690e-01,3.405389e-02,3.160900e-02,7.822420e-02,-3.050199e-01,-4.720160e-02,6.412927e-02,6.634349e-02,4.054599e-02,3.464450e-01,-5.945479e-01,-8.743866e-01,7.645273e-02,-2.820622e-02,3.977649e-01,
-2.307644e-01,1.108477e-02,8.544869e-01,-3.642501e-01,-1.803546e-01,6.297505e-01,-8.135131e-01,5.276495e-01,-1.405814e+00,-6.745299e-01,5.514099e-02,3.310472e-02,4.647456e-01,1.995506e-01,8.135577e-02,-2.884950e-02,-7.041562e-03,-2.762282e-01,2.383612e-01,3.894424e-01,5.682632e-01,-1.525530e-01,-4.125899e-01,7.075467e-02,4.303859e-01,5.620152e-01,3.180624e-01,1.754313e-01,-3.079829e-01,-4.005840e-01,-3.087384e-01,3.331242e-01,4.848761e-01,4.721248e-01,1.522097e+00,2.704884e-01,4.593391e-01,-2.282520e-02,-8.720281e-02,-1.003406e+00,9.582220e-03,-6.825286e-01,-2.967370e-01,6.153960e-01,4.184500e-01,-1.401464e-01,2.419988e-01,-2.717294e-01,-1.533315e-01,3.649203e-01,
5.326085e-01,1.319582e+00,2.313012e-01,4.558650e-02,-1.323881e-01,-1.352289e+00,3.554608e+00,-5.294377e-01,1.099306e-01,-3.448861e-02,7.897331e-01,-3.104271e-02,-1.977515e-01,2.305019e-01,3.620228e-02,4.394160e-03,-2.312525e-01,4.868205e-02,-5.181305e-01,-8.412943e-02,-2.893625e-01,1.736134e-01,6.405810e-01,5.515553e-01,-3.183326e-01,-9.123319e-02,-1.996624e-01,-5.651268e-01,-4.943260e-01,1.353648e+00,-2.521104e-01,-4.972489e-01,-1.316015e+00,-5.285589e-01,-1.905453e+00,2.232084e-01,-1.095748e+00,4.637770e-04,2.701993e+00,2.005461e+00,-2.464430e-02,2.074854e+00,3.706067e-01,-6.429288e-02,1.411758e-02,8.872496e-01,-3.762976e-01,-3.789035e-01,6.233169e-01,1.952574e-01,
4.946327e-01,2.468227e-01,-7.060062e-02,3.351547e-04,1.074193e-01,3.522438e-01,-2.250459e-01,7.278582e-01,-3.616060e-01,1.027679e+00,4.918442e-01,8.975531e-01,-6.581758e-01,9.632142e-01,-2.750782e-01,6.218560e-03,3.123213e-01,2.330798e-01,1.784257e-01,8.964706e-02,3.572180e-01,-7.673930e-01,7.576007e-01,1.089965e+00,2.555754e+00,-3.335618e-01,1.416891e-01,3.795528e-01,-9.373423e-02,-1.096202e-01,-1.938108e+00,-3.763606e-01,-5.740577e-01,3.845291e-01,-6.309698e-01,4.519132e-01,2.385675e-01,-3.368030e-02,-3.836046e-02,8.485725e-01,4.145450e-02,-1.957951e-01,-6.299220e-01,9.904379e-01,5.837622e-01,-3.331723e-01,6.682148e-02,1.667008e+00,-8.640988e-02,1.283429e-01,
-1.613497e+00,-1.989920e+00,2.513013e-01,8.723928e-01,9.079570e-02,2.754050e+00,-3.565661e+00,-5.741448e-01,-9.450856e-01,1.509075e+00,-1.637237e+00,-2.927709e-02,1.118874e+00,-7.717121e-01,3.394396e-01,-1.320180e-02,-4.976599e-02,6.950203e-01,2.704201e-02,-3.208094e-01,4.999540e-01,-8.049597e-01,9.648872e-01,-5.501735e-01,3.485707e-01,7.437320e-03,-3.583891e-01,1.749175e+00,3.100335e-01,6.236269e-01,1.159969e-03,1.670446e+00,1.670596e+00,1.800670e-01,3.044203e+00,-6.035241e-01,2.193313e+00,-2.562760e-02,-3.766296e+00,1.091282e-01,-2.331770e-02,7.733749e-01,-5.178339e-01,1.190407e+00,9.293172e-03,4.026313e-01,7.156996e-01,2.759614e-01,-7.259947e-01,-4.006133e-01,
1.174030e-02,4.999930e-03,1.495510e-02,-4.375530e-02,-2.356460e-02,3.767180e-03,1.614570e-02,1.871610e-02,1.042010e-02,-4.495010e-02,-2.292380e-03,2.272180e-02,-2.726040e-02,4.400930e-02,-4.379450e-02,4.187790e-02,-3.708290e-02,1.797130e-02,-1.215170e-02,-3.792020e-02,-3.698000e-02,-3.686890e-02,2.654660e-02,-2.513920e-02,-2.541310e-02,-1.797430e-02,-3.638110e-03,1.277600e-02,-1.970880e-03,2.712700e-02,-2.639600e-02,1.559010e-02,1.405410e-03,-1.683860e-02,-2.899010e-04,-1.018660e-02,1.978640e-02,-3.036350e-02,-1.916300e-02,-6.651980e-03,-5.063720e-02,-1.509320e-02,-2.761170e-02,-5.235330e-02,2.459610e-02,-2.093410e-02,8.524370e-04,-2.619060e-02,7.847060e-03,3.047230e-03,
-1.296772e+00,4.986146e-01,7.532467e-01,-2.226781e-01,-1.867903e-01,1.274984e+00,-1.906944e+00,4.477159e-01,2.349607e-01,-6.216078e-01,-7.700895e-01,-1.444019e+00,-2.738993e-01,-2.343822e+00,9.567333e-01,3.020200e-02,-1.127767e+00,-3.018642e-01,-1.424090e+00,6.051559e-01,-1.402587e-01,3.910064e-01,-1.904203e+00,-2.325840e+00,-1.109231e+00,-1.617704e+00,-2.939680e-01,8.203691e-01,2.984485e-01,-3.207439e-02,-6.309369e-01,1.631319e+00,-5.661950e-03,1.082267e+00,-8.485940e-03,-2.263257e+00,1.603184e-01,8.688750e-03,-3.751665e-01,1.412098e+00,2.266180e-02,6.190855e-02,6.875424e-01,2.470041e-02,7.023388e-01,5.639274e-03,5.785753e-01,-8.590069e-01,-3.823859e-01,-6.419375e-01,
1.714914e-01,-1.635074e-01,-3.184909e-02,-9.509439e-02,-2.974167e+00,-5.983746e-03,-8.562437e-01,-3.511432e-01,1.472128e-01,-5.650276e-02,5.205060e-01,6.975870e-01,-1.723529e-01,5.924394e-02,1.039163e-01,-4.546800e-02,1.762549e-01,1.845683e-01,-2.080420e-01,-2.574420e-02,1.824090e-01,-1.562918e-01,3.646503e-01,1.637749e-01,-2.060066e-01,-3.327789e-01,2.450780e-01,1.420353e-01,3.767195e-02,-3.038004e-01,-2.572731e-01,-1.783984e-01,-3.539138e-02,1.249764e-01,-3.179558e-02,2.373836e-01,-6.449099e-02,-2.002370e-02,1.274485e-01,4.098224e-01,1.959150e-02,-4.315462e-02,-2.468304e-01,5.622261e-01,4.429083e-02,-1.218259e-01,-8.409890e-02,-2.780800e-01,-4.553289e-02,7.479568e-02,
1.842247e-01,1.239585e-01,3.093773e-02,-5.053378e-01,-3.700211e-01,-2.992899e-01,-5.170783e-01,4.664758e-01,1.133492e-01,8.052206e-01,2.753103e-01,-1.346468e-01,2.053948e-01,-3.826561e-01,-8.661296e-01,3.645230e-02,8.142360e-02,1.496177e-01,-1.840754e-01,-1.012346e-01,2.512309e-01,-4.537955e-01,-2.109945e-01,7.060602e-02,2.621220e-01,2.435234e-01,5.087914e-01,1.138776e-01,9.262491e-01,6.569674e-02,-4.517724e-02,1.621118e-01,-5.765443e-01,-2.125935e-01,-1.877730e-01,1.063530e-01,1.186294e-02,-1.057090e-02,-5.512547e-02,-5.309657e-01,8.476490e-03,-7.019857e-01,8.364408e-02,-7.697783e-01,7.480379e-01,2.367742e-01,-3.274106e-01,-7.542217e-02,2.141346e-01,3.247780e-02,
1.166495e-03,1.614642e-04,1.291953e-03,-2.838700e-02,-4.060977e-02,-1.562463e-02,-2.027575e-02,1.826040e-02,4.183258e-03,2.614689e-02,-5.467723e-02,3.291153e-02,-5.296542e-02,3.110630e-02,5.889778e-03,-5.037200e-02,-2.211813e-02,1.661425e-03,5.830993e-03,2.986354e-03,-1.382106e-02,-8.025708e-03,-2.847490e-02,-5.275303e-02,6.330150e-03,-1.363220e-03,-5.016347e-02,-7.374031e-03,-2.713210e-02,2.919490e-02,2.879844e-03,-1.470195e-02,-5.174129e-03,2.715720e-02,-1.860705e-02,2.315360e-02,-2.203005e-03,1.539910e-02,2.519899e-02,-6.521017e-02,1.133240e-02,2.604800e-02,-6.026061e-02,-1.736130e-02,8.166497e-03,-2.628308e-02,-6.016743e-04,-2.378720e-02,-1.759180e-02,-2.150542e-02,
-4.845409e-02,2.124782e-02,5.495691e-03,1.933368e-02,-5.314426e-03,-1.315872e-03,-2.650134e-03,-5.402743e-04,7.573927e-03,-3.853310e-02,-8.165355e-03,9.566318e-03,6.063230e-03,-2.194790e-02,2.513648e-03,2.737150e-02,-2.697236e-02,6.210306e-03,-8.256250e-03,-7.319538e-03,-1.950495e-02,-9.543778e-03,-6.243010e-02,-4.828268e-02,1.812170e-02,-2.799920e-02,-4.934406e-02,-4.910107e-04,-5.036469e-02,-2.724675e-02,-2.893651e-02,-1.627476e-02,-3.710765e-02,2.928845e-02,-2.358924e-02,5.378720e-03,-6.064111e-03,-3.845370e-02,-3.320064e-03,-6.458196e-02,3.387150e-02,2.065090e-02,-1.600189e-02,1.067672e-02,-1.868523e-02,-3.090032e-02,1.101304e-02,-4.272180e-02,-4.918582e-02,-8.190646e-03,
-6.122692e-01,-4.898145e-01,2.208304e+00,1.087214e+00,3.911983e-01,-1.897236e-01,8.646390e-01,-1.761892e+00,-2.380859e-02,4.108723e-02,3.407138e-01,1.036552e+00,8.125310e-01,1.832345e+00,-4.194510e-01,-1.226680e-02,-1.217262e-01,4.759194e-02,4.215024e-01,5.374405e-01,2.286682e-01,-7.483383e-01,8.973180e-03,-1.394313e+00,-1.430505e-01,4.377938e-01,-6.408518e-01,3.699761e-01,-1.232837e+00,-2.131846e-02,-3.412064e-01,-6.985136e-01,-1.859774e-01,5.392502e-02,-3.418293e-01,1.141443e+00,-4.833461e-01,-1.729090e-02,1.972715e-01,1.918840e-01,4.183410e-02,-1.149156e+00,1.553668e-01,2.897224e-01,-7.264500e-01,-9.531004e-02,-4.205370e-01,1.413127e-01,3.914287e-01,-3.331020e-01,
-3.771482e-02,-3.632795e-02,-3.196694e-02,-1.252774e-02,-3.888917e-02,1.165670e-02,-7.970758e-03,-4.918437e-03,-2.911994e-02,8.580501e-03,-2.569680e-02,-8.946314e-04,-6.624194e-03,-9.812020e-03,2.000648e-03,-1.943400e-02,-3.045446e-02,2.759307e-02,2.163863e-02,-4.847246e-03,-7.852834e-03,-4.721661e-02,-8.891560e-03,-7.630961e-03,1.267300e-02,-4.648850e-02,1.223480e-02,-4.204487e-02,-7.464051e-03,1.654332e-03,7.216071e-03,-6.848095e-03,1.641905e-02,-7.457484e-03,3.187444e-03,-3.849759e-02,-3.180186e-02,-4.362230e-02,-3.398504e-02,-1.781558e-02,-5.436850e-02,2.874295e-02,-2.089359e-02,-1.479212e-02,-3.410357e-02,-3.378367e-02,-5.842362e-02,-1.942170e-02,-3.642118e-03,-1.974500e-02,
2.976524e-02,-1.341579e-02,-4.853579e-02,-7.694078e-04,-8.900334e-03,-3.710625e-02,-1.178838e-02,-1.924428e-02,-1.810189e-02,1.106845e-03,-2.024946e-02,-6.199992e-02,-5.086256e-03,-2.525510e-02,-1.760693e-02,-4.356190e-02,-3.526573e-02,1.422239e-03,3.504206e-03,-4.041162e-03,-2.431361e-02,1.295660e-02,-2.297720e-02,-6.828514e-03,1.626700e-02,-3.673590e-02,-5.194279e-02,-1.135048e-02,2.744883e-02,-4.264641e-02,-5.869514e-03,-2.399697e-03,-6.476302e-03,-1.617755e-02,1.766976e-02,-4.448429e-02,3.601462e-02,2.804590e-02,1.652228e-02,-1.817082e-02,-4.944140e-04,-4.015990e-02,-4.114680e-02,1.129271e-02,8.047311e-03,2.120700e-02,2.153196e-02,1.428730e-02,-5.194874e-02,-1.298802e-02,
-2.087193e-02,-1.108378e-02,-5.189196e-02,-1.990060e-02,8.110030e-03,5.291823e-03,-1.491978e-02,7.166448e-03,-4.268917e-02,8.046525e-03,-3.421321e-03,-9.860608e-03,-5.972910e-03,-3.867200e-02,9.479075e-03,2.753640e-02,2.294524e-03,1.104515e-02,1.120213e-02,-3.877643e-02,-3.480145e-02,-4.110614e-03,-3.989120e-02,6.008978e-03,1.558200e-02,2.000170e-02,-1.182186e-02,-4.661228e-03,1.364176e-02,2.247433e-03,-7.468268e-02,-5.517595e-03,1.134689e-03,-2.910710e-02,3.797600e-03,-3.990453e-03,-3.709099e-03,-1.975820e-02,-2.620520e-02,-5.100426e-02,4.040000e-02,2.581961e-02,-2.686646e-03,4.227840e-03,-4.357744e-02,5.520087e-03,2.024497e-02,-3.593070e-02,-4.594829e-02,-4.335964e-02,
1.852105e-03,3.832123e-02,-3.351318e-02,-7.509658e-02,-4.616727e-02,2.779260e-02,-4.293039e-02,-1.065406e-02,3.582823e-02,-1.698280e-02,-2.857893e-02,-3.285109e-02,-3.420140e-02,-4.535510e-02,-3.695136e-02,-5.263890e-02,2.555393e-02,2.864610e-02,1.106533e-03,-3.714059e-03,1.375890e-02,-1.146642e-02,8.477620e-03,-2.891017e-02,-4.774930e-02,-2.420430e-02,1.650359e-02,2.998961e-02,-2.120621e-02,-4.480036e-02,2.021560e-02,-4.285859e-02,-3.497892e-02,2.167420e-02,-2.192172e-03,-1.113466e-02,1.761726e-03,1.719720e-02,2.013844e-04,-4.941087e-02,-4.399000e-02,3.151864e-02,-3.349403e-02,2.662910e-02,-6.523931e-03,5.444828e-03,2.131809e-02,-2.062940e-02,-5.537307e-02,3.414669e-04,
3.870705e-01,2.652807e-01,7.346732e-01,-5.776377e-01,1.103111e-01,5.462448e-01,-4.096810e-01,2.131484e-01,-5.110257e-01,2.134210e+00,-5.694093e-01,5.523217e-01,5.487575e-01,9.390724e-01,-3.307861e-01,1.792880e-02,3.150106e-01,-1.395806e+00,1.581238e-01,2.788360e-01,4.973900e-02,9.003992e-01,2.277948e-01,-5.059221e-01,4.564231e-01,-3.490774e-01,9.791117e-02,9.972785e-02,3.841134e-01,-2.895589e-01,2.838638e-01,3.533271e-02,5.544367e-01,-9.337206e-01,8.074091e-02,-9.509568e-01,4.067136e-01,-2.803170e-02,-2.772855e-01,2.805734e-01,5.901890e-03,4.529089e-02,1.326401e-01,-4.960582e-01,5.947689e-02,-3.283029e-01,-7.247352e-01,-8.146188e-01,-1.361095e+00,-1.863983e-01,
-1.501522e-01,-2.438146e-02,-3.121232e-01,-1.887093e-02,-1.871318e-02,-9.680532e-01,-2.855274e-01,-1.023792e-01,-7.188187e-01,-6.606961e-02,-9.716620e-02,-2.753980e-02,-2.624285e-01,-5.903546e-01,2.313350e-01,-2.869750e-02,-4.591860e-01,3.131033e-01,3.248106e-01,-9.394299e-01,-1.361742e-01,1.971489e-01,-1.881635e-01,-6.575595e-03,7.180007e-02,2.841745e-01,-3.993475e-01,-4.219093e-02,1.194624e-01,5.412215e-03,-2.207037e-01,-3.577606e-01,4.714710e-02,-1.501925e-01,3.678067e-01,-1.111000e+00,1.914480e-03,7.608660e-03,-6.127133e-01,-1.458572e+00,-2.099850e-03,7.771576e-02,2.117944e-01,7.858208e-01,-1.224555e-03,2.558834e-01,-8.777395e-03,3.259625e-01,1.175624e-01,-1.308247e-01,
-1.506240e+00,5.175735e-01,1.030339e+00,2.370617e-02,2.475295e-01,-1.152162e+00,-3.881218e+00,-7.246369e-01,-1.085659e+00,4.270461e-01,-1.973392e+00,-1.580828e-01,-1.302145e+00,8.047680e-01,1.900437e-01,-2.759140e-02,-2.991983e-01,-9.788357e-02,3.822474e-01,-1.374793e-01,4.863279e-01,1.032227e+00,2.702124e-01,-2.845151e-01,-2.210506e-01,5.997316e-01,-3.947948e-01,-7.344513e-02,-1.755960e-01,-1.429315e+00,-8.317488e-02,5.724609e-02,-4.728843e-01,7.313363e-01,1.861674e-01,-2.287923e-01,4.948756e-01,-3.197820e-02,-2.584307e+00,-3.338222e+00,-3.805600e-02,-1.552588e+00,-1.914411e-01,6.894017e-01,3.078536e-01,-2.026421e+00,-1.191933e-01,3.101998e-01,-1.064612e-01,-1.011544e+00,
-1.135146e+00,-9.430169e-02,-7.371899e-01,-1.387972e+00,-1.250907e-01,-4.299373e-02,8.051747e-02,-2.793508e-01,-1.998387e-01,-1.099135e+00,-6.822245e-01,4.976363e-01,-1.144585e+00,-9.502891e-01,-2.356290e-01,2.314060e-02,-5.740070e-01,-2.514564e-01,6.484972e-01,-1.672554e-01,-5.299182e-01,2.332615e-02,4.424332e-01,4.444315e-01,-2.776156e-01,9.607320e-01,-2.438197e-01,2.799356e-01,-1.002815e+00,-6.074842e-01,5.044326e-02,3.804318e-01,-3.800564e-01,-6.702258e-02,-4.125469e-01,-5.916932e-01,5.793154e-01,1.889390e-02,-3.612128e-01,5.349475e-01,-2.194410e-04,4.579083e-01,-1.046629e-01,5.541180e-01,6.597549e-01,-2.344833e+00,6.183634e-01,2.074685e-01,3.017163e-01,-3.705298e-01,
5.930285e-01,-1.540762e-01,6.109618e-02,9.084740e-02,-1.571166e+00,-6.888663e-01,-1.908680e+00,4.444682e-02,6.359745e-01,6.176662e-01,7.867659e-01,5.691665e-02,5.592874e-01,2.924321e-02,3.423467e-01,-4.147870e-02,-2.834251e-01,1.414930e-01,-9.930530e-02,1.465665e-01,2.752415e-02,-6.971349e-01,-5.384265e-02,-1.308380e-01,-5.863645e-01,-1.813628e-02,-3.700794e-02,7.296348e-02,-3.414320e-01,-4.350888e-01,5.079972e-01,-2.941104e-01,2.362381e-01,-5.317931e-02,-2.454507e-01,3.176716e-01,-2.541387e-02,-2.113780e-02,-1.869191e-01,-1.623497e+00,-3.546270e-02,-8.180041e-01,-1.189458e-01,1.589927e-01,1.055488e-01,-4.630971e-02,3.290665e-01,1.586672e-01,-5.915002e-02,3.622413e-02,
-2.481921e+00,-3.167829e-01,-4.463891e-02,9.854505e-02,2.849760e-01,4.810300e-01,8.340592e-03,9.168921e-01,3.245455e-02,2.259626e+00,-6.737584e-02,7.810846e-02,2.163991e-01,3.066051e-01,-4.193837e-03,7.767390e-03,1.321224e-01,-1.180602e-01,9.056564e-03,7.028772e-02,7.410101e-01,8.093350e-01,3.748507e-01,-9.977972e-05,6.645507e-01,-1.895361e-01,-4.386699e-01,6.060978e-01,1.816921e+00,5.393649e-01,-4.587095e-01,1.062690e+00,1.188027e+00,-5.669629e-01,1.113137e+00,5.056655e-02,5.737355e-01,-4.329250e-02,-2.708182e+00,-7.181300e-01,-4.253100e-02,-3.806312e-01,-3.533017e-01,1.930778e-01,7.569042e-01,5.884815e-01,-6.649439e-01,8.593991e-02,-7.104140e-01,1.031354e+00,
3.868591e-01,3.509516e-02,5.046319e-01,-1.935793e-01,-2.000590e+01,-2.523811e-01,-5.639564e-01,4.405618e-01,4.664310e-01,5.450539e-01,6.265530e-01,-1.020698e-01,7.174608e-01,5.088726e-01,3.130710e-01,1.379580e-02,5.987849e-01,3.915250e-01,9.991452e-03,6.391742e-02,-2.868515e-01,1.041424e-01,-2.604768e-01,4.072215e-01,-7.673267e-01,1.060023e-01,4.992697e-01,1.395997e-01,1.972065e-01,-8.522846e-02,9.555697e-01,6.305671e-01,-5.021314e-02,-2.594502e-02,-7.236866e-01,4.520447e-01,5.871137e-02,4.282360e-03,-2.071338e-01,5.878130e-01,4.311080e-02,-4.867072e-01,-2.469544e-01,9.792799e-03,-4.796050e-02,1.148443e-01,-2.627372e-01,-8.177828e-01,3.214840e-01,-2.042556e-01,
-1.210770e-02,2.586950e-02,2.190280e-02,-6.213800e-02,-3.284630e-02,2.733610e-02,1.827940e-02,-2.987380e-02,1.320320e-02,-2.284610e-02,-1.816920e-02,-3.621090e-02,-5.622820e-02,2.472280e-02,-1.570450e-02,-5.727000e-03,-6.814660e-02,-2.343930e-02,-2.054180e-02,2.041770e-02,1.098090e-02,2.181920e-02,1.318760e-03,-2.279740e-03,-5.652180e-02,-4.017330e-02,2.440760e-02,3.051890e-02,-4.792030e-02,4.264250e-03,-3.203210e-02,-5.211210e-02,-3.918990e-02,-1.811600e-02,-5.288630e-02,2.775280e-02,-2.626100e-02,-1.889540e-03,1.936010e-02,8.394470e-04,1.990140e-02,1.327640e-02,1.581550e-02,-4.420290e-02,3.138950e-02,2.404790e-02,-1.420530e-02,2.598440e-03,-3.811280e-02,-3.059060e-02,
-5.547282e-01,-5.599613e-01,1.044873e+00,1.061844e-01,-3.590531e-01,6.535631e-01,-4.928800e-01,-1.005224e-02,-1.454182e-01,6.495355e-01,3.750210e-02,1.306509e+00,5.733770e-01,-1.345491e-01,-1.734408e+00,2.350630e-02,1.180461e-01,1.086724e-01,-5.531401e-03,-1.399966e-01,-8.789702e-01,-5.378795e-01,-9.248453e-02,1.870832e-01,-8.646247e-01,-5.078213e-01,5.354457e-01,7.106739e-02,-5.451360e-02,1.339861e+00,-5.557120e-01,5.195964e-01,8.257424e-01,-3.215959e-01,-3.897899e-02,2.728840e-01,2.942787e-01,-2.508190e-02,4.913227e-01,7.150055e-01,4.387020e-03,-3.857745e-01,4.360939e-01,9.376638e-01,6.524768e-03,4.718811e-01,-7.081006e-02,1.872444e-02,2.572969e-01,1.774430e-01,
1.272655e-03,-3.009861e-01,1.001330e+00,1.208126e+00,-1.413385e-01,-1.771413e+00,-1.773430e-02,-3.216674e+00,6.996979e-01,-1.595488e+00,7.734489e-01,1.508820e-01,-1.016464e-01,1.415683e-01,-2.107912e+00,4.469170e-02,1.711238e-01,-6.400995e-01,-7.897391e-01,6.354706e-01,-1.835597e+00,4.673260e-02,-9.458174e-01,1.769091e+00,-8.547154e-01,-2.029332e+00,-2.377231e-02,-5.612867e-01,-2.073255e+00,3.688032e+00,-2.392393e-02,-4.065796e+00,-3.732049e+00,-2.014760e+00,-2.268538e+00,3.853499e-01,-3.587232e+00,1.640030e-03,5.174824e-01,-9.149198e-02,1.217360e-02,2.215044e+00,-5.836908e-01,-7.127692e-01,-4.612908e+00,4.028472e+00,2.077535e-01,-4.249009e-01,8.740302e-01,1.734773e+00,
-8.255069e-01,-1.007209e+00,1.005291e+00,1.325840e+00,3.927240e-01,-9.090633e-01,2.151726e+00,-3.414769e+00,-6.574459e-02,-1.868124e+00,-9.663722e-01,-6.924592e-01,-1.971283e+00,1.034987e-01,1.101778e-01,-1.380730e-02,-1.864232e-02,-1.314518e+00,3.708876e-01,-1.371686e-01,-1.562796e+00,6.918004e-01,1.303213e+00,-1.866635e+00,1.236047e+00,-1.702824e-01,-1.103348e+00,1.503418e+00,-5.080520e-01,-2.860029e+00,6.985515e-01,9.559998e-01,-9.773727e-01,-7.826900e-02,1.146366e+00,-2.097725e-01,4.707101e-01,-5.101140e-02,-1.737236e-01,1.177670e+00,-3.723210e-02,-2.477344e+00,5.032425e-02,-2.636736e-01,-1.102707e+00,-1.375575e+01,-2.943174e-01,-1.015791e+00,1.213651e+00,-3.812959e-01,
-1.363754e-01,8.843751e-02,2.693699e+00,1.682893e-01,3.346033e-01,2.525751e-01,1.823345e+00,2.297505e-01,4.558540e-01,1.394864e-01,2.086308e-01,-2.153095e-01,1.204463e-01,1.142987e+00,2.881263e-01,-1.060640e-02,2.405278e-01,9.118160e-02,-3.100842e-01,-1.594863e-01,-6.410396e-01,-1.184431e-01,-3.615160e-01,4.564077e-01,1.219715e+00,-8.412958e-01,-2.420637e-01,-2.565985e-01,6.532074e-01,6.246553e-01,-4.663598e-01,1.621523e-01,8.174310e-01,9.232704e-04,2.090555e-01,7.798056e-02,-2.127099e-01,1.117790e-02,1.423390e+00,1.597663e+00,-1.520010e-02,-9.793272e-02,3.731104e-01,1.759119e-01,-2.604716e+00,3.111354e-01,-2.153959e-01,-4.937399e-01,4.413120e-01,2.081876e-01,
-2.748239e-02,
-1.320324e-01,
-3.225243e-01,
-3.784181e-01,
-1.410810e-02,
5.858951e-01,
-1.766630e-02,
-4.399340e-02,
5.360976e-01,
-3.122250e-02,
2.005104e-01,
-7.449562e-01,
-4.177707e-01,
-2.613940e-02,
1.694298e-01,
-9.720363e-02,
1.187370e+00,
-3.860847e-02,
3.239482e-01,
1.146472e+00,
-2.549632e-01,
-2.090870e-02,
-2.037580e-01,
-1.110281e+00,
-6.868333e-01,
-1.071339e+00,
8.894191e-01,
-1.074230e-02,
7.804079e-03,
5.235935e-02,
-6.914876e-03,
-1.663530e-02,
-3.494487e-02,
-2.147718e-01,
-2.711416e-02,
-2.327482e-02,
-3.103962e-02,
-1.740030e-02,
1.835829e-01,
-1.864024e-02,
1.361188e+00,
5.266322e-01,
-6.248567e-02,
-1.681769e+00,
8.152807e-01,
-2.142140e-02,
-4.179645e-01,
-1.124951e+00,
1.155632e+00,
-1.637410e+00,
-2.483725e-02,-1.858105e+00,-1.303172e+00,-3.639559e-01,4.356440e-02,-1.535150e+00,-6.720070e-04,-3.299152e-02,-8.349627e-01,3.608853e-03,-4.244340e+00,-1.656949e+00,1.292804e+00,2.742420e-03,-8.499342e-01,-1.378405e+00,-2.773746e-01,-4.155105e-03,-2.368570e+00,-1.134434e+00,-3.242496e+00,-4.694610e-02,1.465413e-01,-3.596452e+00,-1.819269e+00,-1.118836e+00,-2.135344e+00,4.772800e-03,-1.702826e-02,2.177665e+00,-3.011216e+00,3.239753e-02,-6.700590e-03,-1.653507e-03,1.878107e-03,-5.259935e-03,2.073238e-02,-7.180398e-03,-9.697121e-01,2.429779e+00,-2.101225e+00,-2.656560e+00,-3.263474e+00,-5.960537e+00,9.430116e-01,-6.156050e-04,2.586586e+00,3.184327e-01,8.534870e-01,-6.787499e-01,
-4.792144e-03,-8.033048e-02,1.667039e+00,5.810388e-01,9.643040e-03,2.405839e-01,-3.011833e-03,-3.385272e-02,5.969017e-01,-1.357923e-02,-1.034414e-01,-7.164563e-01,3.287416e-01,-1.239590e-02,2.630561e-01,6.566383e-01,6.834482e-02,-2.941721e-02,-4.520198e-01,4.722135e-01,-5.152831e-02,-1.403060e-02,2.301122e-01,-1.727194e-01,-3.555935e-01,6.417954e-01,-1.905407e-01,6.124890e-03,4.670186e-01,6.471775e-01,2.672076e-01,-1.714627e-02,1.059926e-03,-4.661346e-01,4.218498e-03,-4.426039e-02,-6.626341e-03,3.713353e-02,-2.964039e-01,5.719761e-01,-8.436751e-02,5.227473e-01,-1.627737e+00,4.720216e-01,4.730004e-01,-2.510470e-02,-3.454499e-01,-3.159248e-02,4.696221e-03,1.742495e-01,
-1.963408e-03,1.663614e+00,3.640518e-01,2.872048e+00,3.038840e-02,1.217877e-02,-2.071799e-02,3.493483e-02,-1.141258e+00,-3.036766e-02,-3.346904e-01,4.691816e-01,2.225862e+00,4.343330e-02,6.201822e-01,2.396554e-01,-8.182482e-01,2.177350e-02,-2.360973e-01,1.310387e+00,2.164191e-01,2.380840e-02,2.277127e-01,-4.039301e-02,6.558456e-01,-5.527585e-01,-8.874784e-01,-3.519780e-02,-1.518533e-01,9.680738e-01,-1.319912e-01,-2.604137e-03,2.129475e-02,-5.960972e-02,-2.194368e-02,-3.126678e-02,1.271671e-02,-3.027359e-02,-1.496458e+00,-2.769823e+00,1.783317e-01,2.079993e-01,-2.066828e+00,2.438734e-01,2.274724e+00,2.777070e-02,7.806393e-01,4.749371e-01,-4.169306e-01,-1.485806e+00,
2.198818e-02,-9.620328e-01,2.440915e-02,1.835384e+00,-1.415110e-02,4.760124e-01,1.600493e-02,-2.941476e-02,5.504119e-01,-4.957218e-03,-1.019132e+00,5.009286e-02,-4.365286e-01,-4.704200e-02,-2.485488e-01,2.743225e-01,2.089935e-01,2.347050e-02,-3.144048e-01,-5.124926e-01,-5.837630e-01,1.039070e-02,2.035874e-01,5.627872e-02,-7.631043e-01,1.069358e+00,-1.681161e-01,-1.424090e-02,2.221877e+00,-1.157714e-01,4.481035e-01,5.739772e-02,-8.541177e-03,1.233751e-01,-7.949675e-03,3.131648e-02,-2.056828e-02,-3.731415e-02,-2.081201e-01,9.417109e-01,-2.816893e-01,7.184501e-01,6.033369e-01,6.834943e-01,-3.045834e+00,4.941350e-02,-3.576746e-01,3.754152e-02,2.851067e-01,9.146879e-01,
-2.501984e-02,-5.201390e-01,9.876057e-02,5.111991e-01,-4.732140e-02,1.318176e-01,1.927540e-02,-4.562955e-02,3.206656e-01,-2.337229e-02,-5.760016e-02,4.589518e-01,1.425346e+00,5.968830e-03,-5.662302e-01,1.914317e-01,9.895072e-02,-1.351440e-02,4.359905e-01,-1.316886e+00,1.441589e-01,1.041960e-02,4.073736e-01,-2.048817e-01,4.519437e-02,-2.265208e-01,-4.773031e-01,-3.666420e-02,6.410081e-01,1.073059e-01,-4.937754e-01,-2.763990e-02,1.029814e-02,-1.140406e-01,2.622268e-02,3.828431e-02,1.865348e-03,3.220503e-02,-2.123953e-01,-8.311617e-01,1.836080e-01,3.492929e-01,4.483117e-02,4.156029e-01,-8.320132e-01,-4.295590e-02,-4.405451e-01,9.346169e-02,1.908028e-01,-1.482517e-01,
-1.579379e-02,8.990408e-01,-9.059485e-01,2.131862e+00,-3.974670e-02,-4.351715e-01,-4.147312e-03,-4.965654e-03,-1.070496e+00,-7.077867e-03,1.179831e+00,1.497660e+00,2.482197e+00,-3.384050e-02,-4.097908e-01,7.176689e-01,-9.632573e-01,5.833730e-03,-2.139500e-01,-1.033454e-01,-4.561136e-02,3.436870e-02,9.959528e-01,2.521122e+00,-1.480900e-02,1.351602e-01,-1.550250e+00,2.240750e-02,7.663599e-01,1.013692e+00,2.609952e+00,-1.470565e-02,-1.890859e-02,4.832794e-01,-3.488687e-02,1.790805e-02,2.557671e-03,-2.953804e-02,1.348515e+00,1.948096e+00,1.693996e+00,7.001575e-01,7.790274e-01,-8.082902e-01,-4.494074e-01,1.047530e-02,1.345547e+00,-6.404525e-01,-1.882938e-01,8.032128e-01,
-3.289338e-02,-5.534880e-01,-1.589195e+00,6.796154e-01,7.001460e-03,-3.203963e-01,-2.640750e-02,-3.865278e-03,1.013135e+00,-1.960203e-03,7.444516e-01,4.226023e-01,-4.386338e+00,3.105820e-02,1.606127e-02,3.224356e-01,-2.245085e-01,4.371703e-02,3.073726e-01,9.054203e-02,-2.016513e-01,-3.017300e-02,-2.071575e-01,-1.405026e+00,1.040000e-01,-1.581572e-01,3.010423e-01,-1.255930e-02,-8.263482e-01,6.784167e-01,-1.337153e+00,5.257153e-02,8.557271e-03,-1.241111e-01,-6.269052e-05,-5.647550e-03,-5.195140e-03,1.233676e-03,-1.082929e+00,1.176792e+00,2.402991e-01,6.250024e-01,-1.066937e+00,2.370516e-01,3.698914e-01,1.195140e-02,1.049548e+00,1.447780e-01,1.085526e-02,1.933782e+00,
3.450726e-02,2.660693e-01,1.795040e+00,1.446953e+00,2.800440e-02,-1.655658e+00,3.421680e-02,3.999087e-02,1.666076e+00,-1.775759e-03,7.698001e-03,1.641808e-01,1.997952e+00,-2.534080e-02,1.723738e-01,1.826623e-01,1.417057e-01,-5.870939e-03,-2.147648e-02,6.527507e-03,-2.950628e-01,-3.133150e-02,-6.144588e-01,6.185099e-01,9.536010e-01,5.364959e-01,3.271527e-01,-3.097370e-02,-5.789332e-01,3.174776e+00,6.250849e-01,2.075480e-02,1.860121e-02,1.111546e-01,-2.179169e-03,-1.716090e-02,2.269143e-02,-5.491549e-03,8.075774e-01,-2.550304e+00,1.281871e+00,1.377856e-01,-1.263092e-01,1.919993e-01,3.605501e-01,1.269180e-02,-1.181064e+00,1.558020e-02,9.880255e-03,-1.449479e-02,
-4.405054e-02,7.566757e-01,1.202707e+00,1.100956e+00,1.492040e-02,3.481146e-01,-4.132072e-03,-2.389143e-02,-4.528484e-01,2.833555e-02,3.660853e+00,6.025786e-02,-6.037678e-02,-1.314950e-02,-2.967482e-01,-2.806090e-01,-8.019493e-01,-1.270784e-02,1.185701e+00,2.281306e-01,-1.478621e-01,1.168160e-02,-2.504053e-01,-2.038118e+00,-8.619575e-01,6.364223e-01,-7.720942e-01,1.914010e-02,9.360456e-01,1.166189e+00,2.423829e-01,1.033120e-02,2.292472e-02,-3.808903e-01,2.941297e-02,1.928509e-02,-3.128349e-03,-1.761929e-02,-3.329112e-02,1.629451e-01,-3.696786e-01,9.977087e-01,7.493936e-01,1.029558e+00,-1.983290e-02,1.816470e-02,1.896346e+00,-4.929795e-01,1.092171e-01,1.843113e+00,
-4.834455e-02,-1.177327e-01,-1.208949e+00,-4.012804e+00,-2.030720e-02,-1.230224e+00,-5.637767e-03,2.209504e-02,6.966297e-02,-6.286322e-02,5.938034e-02,-9.400545e-01,1.684369e-01,-8.712740e-03,-1.513703e+00,2.390866e-01,1.430609e-01,9.698497e-03,8.180219e-02,3.182132e-01,4.746971e-01,3.430380e-02,1.435159e-01,-6.886947e-01,-2.245442e-02,-2.000902e+00,4.159920e-01,2.449170e-02,-4.059131e-01,-1.833434e+00,-3.480037e-01,1.306440e-02,1.786141e-02,-4.644388e-01,-7.244810e-03,-2.047048e-03,2.810541e-02,-3.605648e-02,-2.934280e+00,7.000874e-01,-1.132877e+00,-8.738143e-01,4.223257e-01,-2.990175e-01,1.754777e+00,-2.216610e-02,9.162234e-02,2.600522e-01,-1.525714e-02,-6.652655e-01,
3.906368e-03,1.421868e-01,-2.181695e-01,6.973298e-01,-2.247330e-02,-1.047353e-01,-7.781700e-03,1.005964e-03,6.217227e-01,-3.614341e-02,2.109536e+00,5.904958e-02,-4.405582e+00,1.262130e-02,1.639266e+00,-4.031506e-01,-7.716410e-01,3.350703e-02,-7.974683e-01,-5.988309e-02,1.218951e-01,-1.464070e-02,6.459366e-02,1.072002e+00,-2.752977e+00,-6.183071e-01,3.547003e-01,4.369500e-02,9.297294e-01,1.050546e+00,5.751863e-01,-5.356292e-02,2.617233e-02,1.002782e-01,1.330359e-02,-1.761775e-02,-2.858034e-02,-8.712915e-03,1.138525e+00,9.634985e-01,7.909135e-03,-4.910856e-01,1.058860e+00,1.139984e+00,2.818347e-01,-5.469770e-03,9.520251e-01,-2.023403e+00,-4.824432e-01,4.792648e-01,
2.127222e-03,4.670576e-01,3.166092e+00,2.719218e+00,-1.237410e-02,3.489576e-01,4.397030e-03,-4.809819e-03,-1.568666e+00,-9.082507e-04,9.408732e-01,-4.091778e-01,2.872777e+00,9.726740e-03,1.160181e+00,5.867546e-01,-5.461522e-01,1.050090e-02,2.083454e-01,6.486487e-01,-1.536910e-01,-1.725170e-02,-2.376590e-02,2.000953e+00,-7.315874e-01,3.358380e-01,-7.127884e-02,-3.300370e-02,-6.540998e-01,1.401406e+00,6.246533e-02,4.903663e-02,8.102113e-03,-1.182482e+00,-7.411844e-03,4.878308e-02,4.466968e-03,5.331728e-03,1.209718e+00,8.231643e-01,-9.321203e-01,1.633185e-02,1.788257e+00,1.160912e+00,2.268043e+00,-1.748010e-02,8.550880e-01,1.102269e-02,-5.537779e-01,2.957971e-01,
9.395646e-03,-1.884790e-01,9.666557e-01,-3.939940e-01,-2.417270e-02,-4.092112e-01,-4.341673e-02,6.117327e-03,-2.522673e-02,-2.661476e-02,2.591781e-01,-6.735699e-01,6.789136e-01,-3.125850e-03,6.313347e-01,3.936845e-01,-6.202172e-02,2.569999e-03,-3.453611e-01,2.853427e-03,2.343946e-01,3.613430e-03,-1.164825e-01,1.885230e+00,2.352877e-01,6.183415e-01,-3.116746e-01,-1.187400e-02,4.805537e-01,-1.098123e+00,-7.621747e-01,2.763030e-02,2.234421e-02,-2.451394e-01,1.828833e-02,3.345672e-02,1.806661e-02,3.017771e-02,2.484028e-01,9.350425e-01,-2.461757e-01,1.456542e-01,-3.278809e-01,-3.868621e+00,-6.415305e-01,-3.082670e-02,3.131582e-01,-1.712358e-01,3.581005e-02,-1.396160e+00,
-4.895667e-03,1.381813e+00,1.017004e+00,-1.481273e+00,-2.466890e-02,5.652179e-01,1.820591e-02,-5.161438e-03,2.199349e+00,-3.285724e-03,-6.728380e-02,6.327716e-01,9.224690e-01,3.784270e-02,7.815346e-01,-5.495700e-01,-2.373945e-01,-1.684429e-02,-9.806597e-01,-1.993520e-01,-3.552815e+00,2.610880e-02,9.522528e-02,3.637090e-01,-2.050057e-01,2.286269e-01,5.028551e-01,3.517830e-03,1.824441e-02,9.383280e-01,1.159551e-01,-1.562078e-02,-4.084886e-03,-1.265712e-01,-4.115713e-02,7.803406e-03,4.242655e-02,4.319594e-03,-1.036861e+00,-1.679764e+00,-4.575586e-01,7.978817e-01,-1.867682e-01,3.666480e-01,-5.470161e-01,1.868060e-03,-2.578876e-01,9.622509e-02,-2.920725e-01,1.047080e+00,
-8.110952e-03,1.529428e+00,3.304002e-01,-7.549211e-02,-3.540620e-02,1.785786e+00,-1.453714e-02,3.213685e-02,-1.333693e+00,3.722533e-02,6.758831e-01,-1.676039e-01,4.762926e-01,-3.665660e-02,1.722345e+00,-1.212137e+00,-1.534225e-01,-4.482780e-02,7.851873e-03,3.805748e-01,-2.704078e-01,9.087650e-03,-1.485570e-01,1.015203e+00,5.680021e-01,4.576786e-01,-4.816952e-04,-4.090360e-02,-1.438828e+00,1.506213e+00,-5.404413e-01,-2.078610e-02,-1.336446e-02,-4.512231e-01,-7.099852e-03,-1.645829e-02,2.744012e-03,-9.149260e-04,1.257542e+00,4.044080e-01,8.258455e-01,-9.347897e-01,3.294826e-01,1.057637e+00,2.943219e-01,2.877270e-03,2.632262e-01,3.671464e-01,-8.461442e-03,-2.651687e+00,
-1.183097e-02,-2.619875e+00,1.435828e+00,-5.553903e-02,4.042840e-02,2.183646e-01,-5.096970e-03,5.334868e-03,-4.631930e+00,-5.058649e-03,7.469087e-01,1.210905e+00,-6.643690e-01,2.767560e-02,-3.175203e-01,-2.346671e-01,3.911023e-02,2.793670e-02,-5.609437e-01,-1.108164e+00,-1.557749e-01,-3.167630e-02,-1.406852e-01,1.210831e+00,3.228313e-01,1.195590e-01,-4.778377e-01,-4.733120e-02,4.906569e-03,-2.695717e-01,-1.923763e+00,-1.059113e-02,-5.075534e-03,3.987592e-01,-1.603184e-03,3.700711e-02,-3.428406e-02,4.270695e-03,-2.613558e-01,-7.658642e+00,-4.099801e-01,1.280398e-01,-1.241910e-01,-2.461425e-01,-3.177476e+00,-4.928130e-02,-2.187948e-01,6.078823e-01,-1.624457e-01,-4.145241e-01,
3.093512e-02,-1.620695e+00,-1.909359e-01,7.975958e-01,1.200850e-02,8.585351e-01,4.113990e-03,6.406725e-04,-4.166120e-01,-9.754466e-03,-3.566207e-01,-1.626489e+00,-9.825513e-01,-2.514980e-02,-5.727657e-01,3.231984e-02,6.492289e-01,2.153820e-02,2.911765e-01,-2.782400e-01,1.512971e-01,3.969610e-02,3.650469e-01,-1.250854e+00,-6.186052e-01,1.606000e+00,-8.460489e-02,1.746420e-02,-6.615638e-01,-2.182584e+00,1.187397e+00,2.517440e-02,-5.839982e-02,4.546175e-01,2.245605e-02,3.802360e-02,2.493915e-03,2.538690e-02,-1.087404e+00,-2.288769e+00,-4.600257e-01,-9.541388e-02,-1.285986e+00,9.636835e-01,-1.937626e+00,-2.476450e-02,-2.236203e+00,5.740529e-02,1.412144e-02,2.787895e+00,
-6.986199e-03,3.300171e-01,-3.078077e-01,2.193482e+00,1.760730e-02,-8.267115e-01,-5.800782e-03,3.636920e-02,1.150341e+00,4.108349e-02,-1.200096e+00,1.178777e+00,1.003730e+00,-3.594940e-02,4.343102e-01,-8.435768e-01,-1.111344e+00,2.196830e-02,4.875637e-03,-3.734376e-01,-1.620585e-01,1.856990e-02,-3.061621e-01,-1.431164e+00,2.689865e-01,3.493926e-01,2.213355e-01,2.315260e-02,1.580575e+00,1.003836e+00,1.715584e+00,2.676250e-02,-5.581462e-03,4.980943e-03,-2.603589e-03,-1.291405e-02,3.436641e-02,-4.321281e-03,4.158651e-01,2.012007e+00,7.055281e-01,-5.760745e-01,1.036806e+00,-8.094823e-01,-4.498903e-01,-3.697560e-02,4.817407e-01,2.667211e-01,5.012697e-02,2.346027e-01,
-3.010747e-02,6.730034e-01,-1.548890e-04,2.522467e-03,-3.450900e-02,1.690858e-01,-4.459420e-02,-5.420976e-03,1.556313e+00,-3.384354e-02,3.408956e-01,-4.966488e-01,-3.238027e-01,-4.028150e-02,-5.153066e+00,-7.000050e-01,2.597556e-01,9.905998e-03,3.337719e-01,-6.201388e-01,1.935229e-02,-1.852410e-02,-7.318494e-02,-1.278741e+00,2.884190e-01,-3.756314e-01,-1.428758e+00,-3.766650e-03,1.156519e+00,5.186135e-01,-1.467675e+00,1.937390e-02,-1.860564e-03,-6.242647e-01,-3.494979e-02,-2.758349e-02,-4.439848e-02,2.657236e-03,7.392102e-01,-8.628581e-01,-2.609499e-01,9.709677e-02,4.707361e-01,1.183425e+00,-7.063715e-01,4.408780e-02,-1.658825e-01,2.397697e-01,1.092804e-01,3.806922e-01,
1.582392e-02,1.529600e+00,3.338654e+00,1.122365e+00,-3.203170e-03,-6.757222e-01,5.186289e-04,-4.147080e-03,-1.679781e-01,1.974394e-02,2.208853e+00,-5.127704e-01,8.872014e-02,1.170520e-02,2.449597e-01,-2.495027e-01,-7.225082e-01,3.462433e-02,8.055099e-01,-2.518787e-01,1.453379e-02,-2.462140e-02,4.027768e-01,3.063174e-01,-6.001831e+00,4.662053e-01,-2.112965e-01,-4.028770e-02,3.069546e-01,1.359021e+00,4.002885e-02,-1.936915e-03,-2.660836e-02,1.390077e-01,2.875518e-02,2.213213e-02,3.116149e-02,-2.250458e-02,1.311851e+00,1.004314e+00,-8.382574e-01,1.336076e+00,2.091714e+00,2.078233e+00,4.877504e-01,-4.560010e-02,-3.370235e+00,-1.736630e+00,-1.576835e-01,7.196324e-01,
-3.697547e-02,2.220041e-01,-4.999442e-01,4.741001e-01,-4.225200e-02,-3.603510e-01,5.086502e-03,-5.410216e-03,9.145935e-01,-3.453588e-02,-2.059037e+00,-1.450588e+00,3.389854e+00,4.701910e-02,-1.942165e+00,-4.710858e-01,-5.102335e-01,-2.634149e-03,9.819558e-01,9.424505e-01,5.834261e-01,-3.687890e-02,8.503245e-01,-2.172032e-01,6.712901e-01,-4.688784e-01,-1.804087e-01,-2.829330e-02,1.017462e+00,1.150296e+00,-4.454986e-01,5.080846e-03,-4.492955e-04,1.196934e+00,3.660788e-02,3.961847e-02,-5.152205e-03,3.798423e-02,3.528313e+00,-1.301802e+00,3.297151e-01,2.486012e+00,-1.822519e-01,-2.462356e+00,-4.917260e-01,-1.832130e-02,-3.797477e+00,-1.617470e-01,9.414204e-02,-1.244881e+00,
3.941400e-02,2.304004e+00,2.666148e+00,2.032770e+00,4.661540e-02,1.132466e+00,2.588993e-02,2.552919e-02,-6.854354e-01,-5.845414e-03,8.812665e-01,8.410617e-01,-1.525662e+00,-9.544670e-03,-7.388961e-01,-2.173285e-01,-8.446705e-01,-2.944156e-02,1.181851e+00,4.486717e-01,9.646255e-01,-1.555560e-02,6.498619e-01,1.902578e+00,1.181719e+00,1.786076e+00,1.160070e+00,4.999760e-03,3.670025e+00,7.098297e-01,2.145533e+00,9.970847e-04,2.860106e-03,-6.279224e-03,1.502630e-02,5.220456e-03,-2.526310e-03,-3.447511e-03,2.966358e-01,-8.830801e-01,3.005887e-01,-8.959437e-01,1.279701e+00,1.215501e+00,4.511697e-01,-2.093800e-02,-6.281041e-01,1.469982e+00,-8.288609e-02,-4.997232e-01,
-2.041922e-02,-3.542299e-01,2.587780e+00,-2.676247e+00,-2.744000e-03,4.889748e-01,5.108740e-04,-4.760321e-02,-3.627802e-01,-1.431801e-02,1.076121e-01,1.414081e+00,-2.750748e-01,-3.748190e-02,-2.088514e+00,-6.790058e-01,5.721032e-01,2.169170e-02,3.169274e-01,-1.787136e-01,1.801589e-01,4.451420e-02,-3.330603e-02,1.013943e-01,1.496587e+00,-6.012393e-01,8.152799e-01,8.767680e-03,7.861254e-01,-2.300067e+00,-2.139332e+00,-1.899024e-02,-2.303646e-03,-1.411390e-01,2.268899e-02,-4.071023e-02,-6.813604e-03,-2.157813e-02,4.162132e-01,-2.437876e+00,9.900700e-02,5.064466e-01,-1.270035e+00,-1.368899e+00,-7.361156e-01,-2.961730e-02,8.170674e-01,1.843731e-01,1.135206e-01,9.645349e-01,
-3.773793e-02,1.431919e-01,1.675040e-02,2.421801e-01,-3.715330e-02,1.760676e-01,4.401303e-02,-1.123459e-02,2.215453e-01,-3.056347e-02,1.412780e-01,-4.284923e-01,-1.349617e+00,-2.040140e-02,-4.439549e-01,1.877783e-01,-2.988698e-01,-3.510564e-03,7.093125e-04,-4.783105e-02,1.716033e-03,-3.461500e-02,-3.698419e-02,5.810356e-01,-5.062758e-01,-7.201494e-02,-5.870988e-01,-5.579860e-03,3.667305e-02,-3.398440e-01,5.463215e-01,1.856600e-02,1.991328e-02,6.948201e-02,-1.222699e-02,-1.464190e-02,-1.186670e-02,-2.122550e-02,3.159142e-01,1.054401e+00,1.735615e-02,3.142152e-02,2.524804e-01,2.305367e-01,1.452199e-02,-1.957670e-02,-9.347214e-03,8.352706e-02,-1.306257e-01,6.312389e-01,
-1.182327e-02,4.923996e-01,-1.566487e-01,1.661835e-01,2.835520e-02,-1.864744e-01,-3.932286e-03,2.291399e-02,2.655652e-01,2.746827e-03,-2.378712e-01,2.687759e-01,-1.814312e-01,2.283460e-02,1.135297e+00,4.368039e-01,-7.559860e-01,-2.027225e-02,-4.838632e-03,4.136131e-02,-1.615765e-03,1.690810e-02,3.882274e-01,3.404305e-01,-1.744053e-01,-9.365756e-01,-5.715435e-01,-2.640010e-02,8.616987e-01,1.068600e+00,-5.484420e-01,-2.121923e-02,-2.307050e-02,-1.063022e-02,2.431236e-02,-5.250864e-03,-9.810825e-03,4.026035e-04,3.020508e-01,1.133538e-01,1.156176e-01,8.863961e-02,3.683496e-01,-8.957606e-02,4.806106e-01,-1.100160e-02,-5.758496e-01,2.741663e-02,2.302033e-01,4.180217e-01,
-1.929024e-03,9.224410e-01,3.355580e-01,4.210554e+00,-2.708570e-02,1.442234e+00,2.278274e-03,2.799978e-02,-4.798322e-01,-1.260258e-02,1.924753e+00,-5.304103e-04,1.021079e+00,-4.316190e-02,1.076881e+00,1.410068e-01,4.191834e-02,2.571870e-02,-2.136471e-01,3.092179e-01,-8.271809e-01,8.811110e-03,6.085177e-02,2.329802e-01,-2.134069e-01,1.177468e-02,3.141818e-04,-3.413830e-02,1.442082e+00,1.831624e+00,5.943753e-01,-2.671348e-02,-1.546288e-02,-6.103275e-01,-2.473515e-02,-1.703179e-02,-2.829820e-02,-7.983060e-04,1.522390e+00,-6.148465e-01,-3.699590e-01,-2.401466e-01,-3.881624e-01,3.455474e-01,1.199415e+00,2.130580e-03,3.377831e-01,-6.565695e-02,-1.020450e-01,1.375907e+00,
-5.069034e-03,-2.872306e+00,1.744607e+00,-1.737820e-02,-1.123330e-02,-4.881535e-02,3.301370e-02,3.307471e-02,-4.286567e+00,-1.772906e-02,-5.153934e-01,-2.935203e+00,-2.464883e+00,-2.170420e-02,-1.567956e+00,-3.811455e-01,-2.525791e+00,-5.117680e-02,-4.962776e+00,-1.882996e-01,-7.264770e+00,2.839350e-02,-3.363481e-01,2.215073e+00,-4.481941e-01,-5.777238e-01,2.734842e-01,1.188710e-02,1.473571e-02,-1.229727e+00,-2.989444e+00,3.378083e-02,-3.185401e-02,7.209015e-01,-2.619277e-02,7.374785e-03,2.909028e-02,1.932320e-02,1.083401e+00,-2.987937e+00,-2.323454e+00,3.197026e-02,-3.838477e-01,3.416319e-01,-3.177580e+00,2.591160e-02,1.282138e-01,-8.895219e-02,1.484696e+00,1.729002e+00,
4.205256e-02,-3.699504e+00,1.561176e+00,1.733144e+00,-2.395570e-02,-2.529433e-01,-4.100458e-02,1.139804e-02,4.543775e-01,-4.871924e-03,2.116807e-01,-1.259836e+00,1.507252e+00,3.024740e-02,-4.410469e-01,5.867350e-01,-4.167297e-03,-1.688547e-02,-6.100696e-01,-7.198193e-01,1.995616e-01,-2.426480e-02,-8.271841e-02,-4.763885e+00,-1.153321e+00,-5.632750e-01,1.884491e-01,-4.823670e-02,4.949229e-01,-2.958016e+00,8.413693e-01,3.282523e-02,2.669010e-02,-3.921953e-01,-3.346276e-02,2.371568e-02,-4.845083e-03,-3.484660e-02,-7.072276e-03,-2.019996e+00,5.528260e-01,6.662337e-01,3.217031e-01,-9.830421e-01,-8.219062e-02,-2.234950e-02,-7.935613e-01,1.725511e-01,3.938251e-01,-1.025809e+00,
1.759618e-02,1.233670e-02,7.501283e-02,3.233704e+00,4.236690e-02,-1.241265e-02,-3.088666e-03,-3.523564e-03,9.732545e-01,-7.076975e-03,-1.311624e+00,1.141849e+00,2.496926e-01,-4.294100e-02,1.324176e-01,6.118738e-02,1.101330e-01,-1.313715e-03,-4.911863e-02,7.624400e-01,-3.551739e-01,4.144620e-02,2.007249e-01,1.023650e-01,2.710789e-01,5.910719e-01,-6.302466e-01,-4.014520e-02,-1.039751e-01,1.139680e+00,-1.891802e-01,6.941796e-03,-2.966462e-02,-1.170809e+00,-7.509457e-03,2.776213e-02,2.993101e-02,-4.484274e-03,1.587746e+00,-8.614827e-01,7.951502e-01,7.910810e-01,1.242445e+00,-5.020278e-01,2.031861e-01,5.451650e-02,-6.334660e-01,-5.325192e-01,2.196745e-01,-8.681726e-01,
1.208452e-02,-9.273096e-02,-1.195067e+00,-3.370105e+00,4.443320e-02,-7.150956e-01,-3.695410e-02,-3.557111e-02,-6.035815e-01,2.675968e-02,-9.907517e-01,-4.318407e-01,1.626835e+00,4.054620e-02,1.866814e+00,-1.129215e+00,-7.591134e-01,3.246413e-02,9.362576e-01,-8.220041e-01,9.331539e-01,9.620980e-03,-3.936350e-01,7.152827e-01,6.810864e-01,-9.246233e-01,6.518261e-01,-3.190530e-02,-1.808262e+00,5.877407e-01,-1.942195e+00,3.387753e-02,-4.903356e-02,4.000843e-01,1.031604e-02,-9.991781e-03,-3.935654e-02,-2.553160e-02,-2.126619e-01,5.929363e-01,-2.441863e-01,-2.635716e-01,-2.053500e+00,-3.675904e+00,8.836706e-01,-3.715810e-02,1.669443e+00,1.122955e-01,3.391595e-01,3.509490e-01,
9.247115e-03,4.986716e-02,-2.144697e-01,-1.177846e-01,-4.742180e-03,-7.503044e-01,-1.854420e-02,-4.791493e-03,-7.935821e-01,-1.455714e-03,1.155221e+00,1.234968e+00,-1.180021e+00,-2.397590e-02,-3.169763e+00,4.475113e-01,-7.701079e-01,-5.929483e-02,6.953142e-01,1.796470e-01,-4.350705e-01,2.829580e-02,4.937102e-01,-8.534142e-01,1.700763e+00,-4.373485e-01,1.353862e+00,9.693650e-03,5.436208e-01,-5.065284e+00,-2.326079e-01,-5.545763e-02,2.947398e-02,2.658256e-02,-1.918742e-02,-4.303382e-02,-4.972610e-03,2.103540e-02,-1.179969e+00,-5.551291e-02,1.281405e+00,1.037000e+00,-1.101606e+00,-5.445138e-01,-8.087242e-01,-1.933100e-03,-7.937886e-01,-4.211534e-01,2.450353e-02,-8.708692e-02,
-4.669765e-02,2.309442e-02,3.172265e-01,6.546212e-01,6.131830e-03,-4.484844e-01,-1.553100e-02,5.115720e-04,6.269673e-01,-8.958919e-03,3.116069e-01,5.750915e-01,-3.028148e-01,-2.552090e-02,7.438471e-01,1.953139e-01,-2.689057e-01,-3.613080e-02,1.390532e-01,9.495801e-02,-6.576031e-02,-5.199710e-03,-2.901212e-02,-6.664479e-03,3.923966e-01,1.800496e-02,4.343284e-02,8.523910e-03,3.210775e-02,1.322173e+00,-5.354560e-03,-2.927294e-02,-1.464987e-02,-6.399441e-02,-2.450480e-02,-2.915972e-02,3.643958e-02,2.170444e-04,1.588717e+00,-7.861589e-01,-6.775574e-02,-5.210885e-01,7.500469e-01,-3.501303e-01,-3.098551e-01,-2.303340e-02,-5.155873e-01,4.731024e-02,-4.613622e-01,-2.135402e-01,
-4.098978e-03,-7.561510e-03,-2.205083e-01,-1.528788e+00,-1.759310e-02,9.555829e-01,-3.649290e-02,1.003628e-02,1.352065e+00,-2.429141e-03,9.587274e-01,4.431439e-01,-1.637783e+00,2.828210e-02,-3.279767e+00,2.868587e-01,3.068612e-01,-2.385102e-02,2.424412e-01,9.682301e-01,6.188208e-01,-1.932210e-02,3.809824e-01,-3.230146e-01,1.228350e-01,2.640009e+00,3.250892e-01,4.971220e-02,1.493370e+00,-5.264023e+00,5.054055e-01,2.689201e-02,-4.036503e-02,5.519158e-01,1.663272e-02,-4.325809e-02,-5.485954e-03,-1.269633e-02,8.820620e-01,-1.983291e+00,-2.972006e-01,-9.231872e-01,-9.806751e-01,-3.997917e+00,-2.220304e+00,2.708900e-02,-1.750493e+00,7.104510e-01,2.295485e-01,-8.200627e-01,
-9.243968e-04,-6.390924e-01,-3.977444e-01,5.675710e-01,-3.425260e-02,1.016897e-01,-7.490198e-04,-3.769568e-03,2.526469e-01,1.015540e-02,7.561197e-02,3.998603e-01,1.148423e-01,-6.507540e-03,-4.077417e-01,7.246958e-02,1.216281e-01,3.695534e-04,-5.363363e-02,-3.228634e-01,-2.724176e-01,-4.560400e-02,-4.202962e-02,-3.752262e-03,-3.134273e-01,-2.043161e-01,-3.310530e-01,4.209640e-02,6.369133e-01,1.887331e-01,7.539074e-01,-3.919632e-04,-2.321455e-02,1.955130e-01,-3.359094e-02,2.610067e-03,8.186977e-03,1.481680e-02,-2.380586e-01,1.065294e+00,-1.098645e-01,2.081103e-01,6.140834e-01,2.356555e-01,1.992983e-01,9.655740e-03,2.335890e-02,-3.828925e-01,1.486412e-02,2.241824e-02,
-2.064449e-02,1.914978e-01,5.525175e-01,-1.102723e+00,-2.491200e-02,-6.683583e-01,-1.499210e-02,-3.950626e-02,4.917595e-01,-6.222994e-03,-1.138620e+00,6.112835e-01,-1.378952e+00,1.234340e-02,-1.513510e-01,-3.537637e-03,4.106880e-01,-3.374382e-03,1.097421e+00,9.326350e-02,9.975659e-01,1.764110e-02,-1.227293e-01,-7.922838e-01,9.670456e-01,4.588784e-01,4.508079e-01,3.045250e-02,2.062838e+00,-2.534716e+00,1.189176e+00,-1.702965e-04,-1.569723e-03,-7.052527e-02,-2.001953e-02,-2.566210e-03,-6.079193e-03,-5.291731e-04,6.579806e-01,9.204361e-01,5.187870e-02,7.790051e-02,-1.413113e+00,-5.822132e-03,-1.091472e+00,-2.354400e-02,-1.361681e+00,1.288128e+00,2.301883e-01,-1.513910e+00,
-5.737176e-04,4.558142e-02,-8.422586e-01,-7.827626e-03,1.541820e-02,-1.775397e-01,-1.733520e-02,6.869538e-03,1.297062e+00,-6.757424e-03,-4.376720e-01,-1.434395e+00,-1.675307e+00,-4.120880e-02,-2.006754e+00,2.733003e-01,-1.691486e+00,-4.823709e-02,-5.985837e-01,2.010473e-01,-6.759977e+00,-4.396660e-02,-1.677421e-01,-6.718879e-01,-4.749393e-01,-6.815592e-02,2.915674e-01,-1.151690e-02,-9.915193e-03,-1.825237e+00,9.561061e-02,-1.759573e-02,1.393064e-02,-1.751577e-01,-2.618148e-03,-1.997299e-02,1.541037e-02,-1.891684e-02,-1.207496e+00,-1.055678e+00,-6.971641e-01,-5.857731e-01,1.609281e-01,5.289277e-01,-3.613260e-02,2.438560e-02,8.672722e-01,4.724294e-01,6.346454e-01,1.107159e+00,
-1.027043e-02,-8.250512e-01,-1.190555e-01,-2.955487e-02,4.833730e-02,1.663760e-03,-8.782490e-03,-3.814461e-02,5.092060e-01,-7.225023e-03,-4.709710e-01,5.335592e-02,-2.128657e+00,3.151960e-03,-7.116502e-01,1.143838e-01,4.697951e-01,4.318628e-03,-1.317426e+00,1.208100e-01,-5.677384e-01,4.526610e-02,-3.233723e-01,-1.663674e-01,-1.811544e-01,-3.813297e-01,-3.591020e-01,-1.430000e-02,-6.783067e-03,-3.029418e+00,-1.801584e-01,1.565820e-02,5.605101e-04,-4.347489e-01,2.933388e-02,1.284053e-02,-3.057973e-02,-4.425215e-02,-5.254459e-01,-4.377015e-01,-7.641917e-02,1.572329e+00,-1.046773e+00,1.506516e+00,-5.100183e-01,1.898550e-02,8.928312e-01,5.723433e-01,4.254344e-01,-1.461612e+00,
-3.145283e-02,2.210555e-01,-8.995131e-01,5.110828e-01,4.621480e-02,-8.257324e-02,1.613240e-02,-2.099158e-02,9.819261e-01,1.396906e-02,4.084097e-02,2.942932e-01,-1.596601e-04,2.424330e-02,-6.291491e-03,2.173689e-01,1.849327e-01,-9.204453e-03,-3.888013e-01,-2.721088e-01,-6.970536e-01,1.728900e-02,-5.767418e-01,-9.323955e-02,2.432338e-02,-7.105579e-03,1.901453e-01,-2.935900e-02,5.632215e-01,-6.113945e-01,1.012132e+00,-2.492494e-02,4.055274e-02,3.010363e-01,-3.885810e-02,3.300112e-02,6.562942e-03,-2.370685e-02,-2.759306e-01,2.115450e-02,1.945086e-02,1.236710e-01,6.906868e-03,-3.010090e-01,-9.158372e-01,-3.963140e-02,-5.609505e-01,-1.629206e-01,3.065449e-03,6.057338e-01,
2.411969e-02,6.960352e-01,6.677017e-01,5.372931e-01,2.990550e-02,5.849346e-02,2.529660e-02,-1.369630e-02,3.024590e-02,4.745243e-03,4.063816e-01,2.161208e-01,-5.068897e+00,-2.978960e-02,4.917569e-01,-4.920487e-01,-4.622371e-01,5.433364e-04,4.160932e-02,-1.358149e+00,3.537554e-01,-2.376630e-02,5.787792e-02,2.454101e-02,-1.016848e+00,8.955573e-03,1.999486e-01,4.180890e-02,-2.110297e-01,-1.612163e+00,5.958243e-01,8.667558e-04,-3.452827e-02,6.059263e-01,-7.554832e-04,1.262678e-02,-3.744010e-02,-1.515996e-02,4.102632e-01,-2.904252e+00,-6.357927e-01,-9.373226e-01,-1.891055e-02,-7.004049e-01,-2.136969e-01,2.882060e-03,1.046915e-01,-2.652525e-01,-2.316886e-01,9.309853e-01,
-3.392886e-02,1.670783e-01,-7.932959e-01,-3.691689e+00,3.740450e-03,-2.551025e-01,-2.009290e-02,-3.263809e-02,-1.306286e+00,5.212057e-03,1.186354e+00,-2.451804e-01,-1.076442e+00,1.405460e-02,5.036868e-01,9.137368e-01,1.652439e-01,-2.986728e-03,3.303271e-02,9.788324e-01,1.075011e+00,-3.344320e-02,-1.546553e-01,3.497699e-01,7.900667e-01,-2.577557e-01,1.715638e-01,4.250460e-03,-8.825779e-01,-1.995524e+00,1.551104e+00,1.947990e-02,-4.676608e-03,1.587084e-02,-1.137975e-02,-4.212584e-02,4.367342e-03,1.230160e-02,-1.146055e+00,-1.639399e+00,3.128438e-01,-1.303427e-01,3.122616e-01,3.130659e-01,-1.818393e+00,-1.604160e-02,-1.095077e+00,4.232486e-01,-4.001748e-02,-2.109781e-01,
-3.947574e-02,7.403101e-03,-1.864917e+00,-2.510360e+00,-3.581260e-02,1.506168e-01,2.323933e-02,1.679897e-03,-2.033489e+00,-7.254667e-03,-7.202823e-01,-6.615570e-01,2.021035e+00,5.127530e-03,-1.036659e+00,3.105695e-01,1.079188e+00,-1.697290e-02,-3.633961e-01,4.520297e-01,6.760491e-01,3.502090e-03,-2.870273e-01,9.799472e-02,-1.056813e+00,-8.227683e-01,-5.414910e-01,1.479440e-02,-1.885532e+00,1.090630e+00,-7.759755e-01,2.326120e-02,4.905323e-03,-3.076434e-01,-1.114979e-03,7.466484e-03,-4.188970e-02,3.069571e-02,-1.225093e+00,-2.101419e-01,-1.449158e+00,-2.748551e-01,-1.503351e+00,-1.167303e+00,-4.004301e-01,3.418590e-02,-1.514950e+00,8.124673e-01,8.310995e-01,3.014551e+00,
-6.840057e-03,4.729736e-01,4.802200e-01,1.440230e-01,-3.920400e-02,8.330430e-02,2.666170e-02,-4.063496e-03,-1.529166e+00,-5.337554e-03,-3.251902e+00,4.486645e-01,-4.056555e-01,4.903390e-02,-1.021851e+00,7.367739e-02,-4.931101e-01,1.823879e-02,2.333587e-01,2.504868e-01,4.929205e-01,3.748660e-02,1.632100e-02,-4.703212e-01,-4.482318e-01,-2.759147e-01,-2.437307e-01,3.576930e-03,3.776088e-02,2.156997e+00,1.908549e-01,2.567560e-02,-2.635749e-02,3.823092e-01,6.467810e-03,2.569332e-02,-1.100581e-02,-1.293371e-02,6.723269e-01,8.638501e-01,-3.305988e-01,3.562240e-01,-1.723100e-01,7.397363e-01,2.329070e-01,-9.656880e-03,-4.262003e-01,1.097988e-02,-5.714048e-02,5.890095e-01,
-4.459117e-02,-8.429406e-01,3.645594e-01,-3.396105e-01,-5.777460e-03,2.632852e-02,3.305093e-02,-4.155940e-02,-1.993842e-01,8.658481e-03,4.834211e-01,-5.015729e-03,2.362927e-01,-1.721380e-02,6.428308e-01,-3.461975e-01,4.584780e-01,2.005620e-02,5.174693e-01,1.992327e-01,-4.020999e-02,6.505140e-03,-7.835309e-03,-3.025811e-01,4.374974e-01,5.578033e-01,-7.437176e-01,2.899400e-02,1.491138e+00,-3.120019e+00,-4.177153e-01,4.509423e-02,-1.194564e-02,-1.550931e-01,-6.077833e-03,-1.101758e-03,3.677627e-03,-3.655994e-03,-2.021839e+00,1.217714e+00,-2.167475e-01,-8.174853e-01,5.133532e-01,-3.372530e-01,4.734045e-01,-1.383030e-02,9.099245e-02,7.882735e-02,4.107122e-01,-6.892212e-02,
-2.542859e-02,2.866834e-01,1.507380e+00,2.411515e+00,-3.091360e-02,3.173143e-01,3.652530e-03,7.530859e-03,1.194963e+00,-5.051663e-02,3.185183e-01,6.340417e-01,-1.687718e-03,2.869100e-02,1.376157e+00,-8.029210e-02,-1.441478e+00,-3.950230e-02,5.156100e-01,4.490844e-01,-6.763891e-03,3.457780e-02,1.845713e-01,-5.942843e-02,4.195743e-01,-3.783571e-01,-2.135771e-01,-4.301150e-02,-1.598291e-01,1.463400e+00,2.768983e+00,4.543898e-03,-4.522380e-03,-1.138484e-01,6.298502e-03,-4.830545e-02,1.896679e-02,3.850123e-02,-3.092544e-01,1.725013e+00,-3.976499e-01,-7.447722e-02,-1.184243e+00,-2.719560e+00,-5.804279e-01,-4.303380e-02,-3.465697e-01,2.901643e-01,7.978849e-01,1.462605e+00,
9.149976e-03,3.011732e-02,4.712985e-02,2.158101e-01,-1.032000e-02,4.687076e-01,-2.433021e-02,-3.150553e-02,-2.857604e-01,-2.620420e-02,-4.588928e-01,-5.237623e-01,5.775861e-01,-2.318160e-02,1.238082e-01,1.355585e-02,4.058779e-02,3.546015e-03,6.102605e-02,1.317192e-01,-1.987041e-01,-3.984210e-02,-1.696905e-02,-4.852101e-03,-3.299724e-01,3.219962e-01,-7.661894e-02,3.731980e-02,2.370179e-01,-3.666455e-01,4.600872e-01,-1.448581e-02,-2.098966e-02,-1.326182e-02,-3.088901e-03,1.341723e-03,-1.595453e-03,-2.617409e-02,1.362252e-01,4.671131e-01,-2.157016e-01,-1.881536e-01,8.069062e-01,1.488013e-01,6.098769e-02,-3.258330e-02,-3.061958e-01,-6.685840e-02,-1.423923e-01,4.063320e-01,
-2.820851e-02,-1.277694e-01,-1.594332e+00,-2.848816e-01,-2.419240e-02,-1.382447e-01,4.574863e-02,1.825264e-02,2.403285e-01,-4.855955e-03,4.698305e-01,-6.012551e-01,3.815631e-01,-1.702790e-02,7.096291e-01,-9.112499e-02,2.261841e-01,-1.986698e-02,-4.766721e-04,-2.864638e-01,-1.915626e-01,-1.251980e-02,-4.600842e-01,-2.193101e-01,3.765137e-01,-5.470973e-01,6.690892e-02,2.159240e-02,6.593034e-01,-2.534128e+00,1.504459e+00,2.484360e-02,-1.564698e-02,-2.894633e-01,2.805205e-02,-3.231213e-02,1.181483e-02,-2.012043e-03,-2.448197e-01,-1.882076e+00,8.723502e-01,-3.103969e-01,7.003673e-01,-6.629897e-01,6.715308e-01,4.621920e-02,1.586123e+00,-4.336174e-01,2.266443e-01,7.476558e-01,
-2.230539e-02,7.224888e-01,-1.422492e+00,-1.526326e+00,1.920240e-02,7.066182e-01,-6.099960e-03,-3.554171e-02,-9.875473e-01,1.628589e-02,3.843103e-01,9.788823e-02,9.169886e-01,-4.509020e-02,4.862684e-01,1.151313e-01,1.043817e-01,2.455409e-02,1.122473e-01,5.748934e-03,9.831119e-02,2.967720e-02,-3.914998e-01,7.598643e-01,8.770788e-01,-7.535426e-01,6.141676e-01,-3.949500e-02,5.651550e-01,-9.062048e-01,-1.152369e+00,-7.934903e-03,1.173181e-02,-2.149680e-01,3.426040e-02,6.617071e-03,-5.626543e-03,-3.920259e-02,-1.219247e+00,-3.512976e-01,-1.237994e+00,-3.951027e-01,7.334232e-01,-2.072502e+00,-1.529387e+00,1.628500e-03,-1.366986e+00,2.602268e-01,2.350368e-01,1.002112e-01,
2.730148e-03,-2.686210e-01,1.311900e-01,-4.934608e-01,-1.820170e-02,1.356851e+00,-1.024541e-02,-2.258954e-02,-1.421225e+00,2.329401e-02,1.462529e-01,7.007609e-02,-1.028218e-01,3.550030e-02,5.569838e-01,1.346956e+00,-7.357818e-02,-3.564715e-02,8.696658e-01,6.537613e-01,-1.016723e-01,-2.021390e-02,4.376568e-01,8.309284e-01,-3.211756e-01,-3.622525e-01,-5.916541e-01,1.685860e-02,8.569002e-01,-8.821648e-01,5.170761e-01,-7.130035e-03,2.084556e-03,-8.380713e-01,-4.561101e-03,2.726427e-02,1.858590e-03,-7.299797e-03,-1.157108e+00,9.550380e-01,-4.938673e-01,-6.584486e-01,8.226023e-01,1.109865e-01,9.571689e-01,9.079820e-03,-4.558371e-03,1.506566e-01,1.352375e-01,1.066612e+00,
-9.546319e-03,-2.065732e+00,1.900806e+00,-2.764258e+00,2.748800e-02,-4.839646e-01,4.309400e-02,2.893085e-02,-6.936187e-01,-1.223461e-02,7.132317e-01,-2.803192e-01,-2.679374e+00,8.081630e-03,7.924665e-01,-8.373207e-03,4.550430e-01,-8.747343e-03,6.791001e-02,6.088974e-01,1.006950e+00,-1.658700e-02,-3.162213e-01,-7.343642e-01,5.601424e-01,3.150067e-01,-9.134287e-02,2.272710e-02,7.681705e-01,-1.386906e-01,-5.008303e-01,-1.241431e-02,4.094901e-03,4.051213e-01,2.461179e-02,-3.616087e-02,1.692205e-03,-3.018308e-02,-1.360029e+00,-1.361449e+00,1.026308e-01,-3.626630e-02,7.899137e-01,6.621218e-01,-3.190823e-01,-1.762810e-02,4.513539e-02,3.414008e-01,5.242074e-02,1.565504e+00,
1.130367e-02,-1.450247e-01,-6.491891e-01,9.955614e-01,1.383280e-02,2.225428e-01,5.936870e-04,1.011470e-03,-2.117258e-01,1.414434e-02,-5.542728e-02,3.411312e-01,-1.756365e+00,-1.655950e-02,-1.571198e-01,9.197674e-02,-5.835567e-01,-2.145571e-02,1.203186e-02,-6.389437e-01,1.172375e-02,2.869200e-02,3.098243e-01,1.688138e-04,-6.295502e-01,-1.721864e-01,2.272759e-01,2.614070e-02,-8.561470e-02,2.905450e-02,5.687387e-01,-2.701545e-02,2.452163e-02,1.554275e-01,-1.326358e-02,2.538702e-02,-1.987349e-04,-2.987837e-02,-1.154677e-01,-3.273725e-01,-9.457623e-01,-3.487175e-01,4.120325e-01,5.463471e-02,8.993487e-02,-1.635250e-02,5.054775e-01,-9.948728e-03,-1.032186e+00,8.988585e-02,
1.461929e+00,
5.500314e-01,
-2.168504e-01,
1.268947e-01,
-4.966109e-01,
-2.504478e+00,
-1.321004e+00,
-1.142562e+00,
-4.451893e-01,
5.178998e-01,
-6.007271e-01,
6.218218e-01,
-3.792961e-02,
2.982873e-01,
-9.192660e-01,
-9.564301e-02,
-7.004330e-01,
-2.084813e-01,
-7.631879e-01,
-2.039043e+00,
3.926734e-01,
-1.853724e-01,
7.013167e-01,
3.171081e-01,
4.084493e-02,
6.691630e-01,
-1.934478e+00,
-7.320158e-01,
-2.546489e+00,
-1.022428e+00,
-1.003356e-02,
4.472318e-01,
-7.173889e-01,
5.849299e-01,
-9.479529e-01,
-7.020009e-01,
-6.530647e-01,
-2.758687e-01,
-4.810753e-01,
-5.863488e-01,
7.587861e-01,
-1.074256e+00,
-1.079136e+00,
-2.026760e+00,
1.586597e-02,
1.145629e+00,
8.463982e-01,
1.055358e+00,
-3.813523e-01,
-2.431108e-01,
-1.291717e+00,-4.940051e-01,2.254673e-01,-1.917347e-01,9.703371e-01,1.489348e+00,1.766966e+00,-1.416638e+00,1.546250e+00,1.679976e+00,-1.095404e+00,3.135627e-01,1.345042e+00,1.301294e+00,1.779396e+00,5.749551e-01,-8.070823e-01,-6.534193e-01,-1.515144e+00,-7.440597e-01,-1.109439e-01,-8.127822e-01,-6.519930e-03,1.561519e+00,1.160309e+00,-1.902678e+00,6.349797e-01,-2.707950e+00,-1.752312e+00,2.036888e-01,4.248415e-01,1.011561e+00,3.997951e-01,7.675193e-01,4.017569e-01,1.868360e+00,1.041729e+00,2.711702e+00,2.681360e+00,9.192305e-01,7.225940e-02,1.808755e+00,-1.782671e+00,1.566863e+00,2.953756e+00,-2.065296e+00,8.521827e-02,-8.437176e-01,-4.389620e-01,-6.355876e-02,
-1.037887e-01,8.942137e-02,-2.046649e-01,3.003496e-01,2.218197e-01,-1.386154e+00,1.260836e+00,1.141882e-01,-1.359321e-01,2.242154e-01,-7.887446e-01,-1.028881e-01,-6.901685e-01,2.394119e-02,-4.040556e-01,4.802093e-01,4.578300e-01,1.694110e+00,1.256215e+00,3.828104e-01,2.207907e-02,-4.995151e-03,3.371702e-01,7.693145e-02,-5.384254e-01,7.355039e-01,5.259037e-02,1.510128e+00,-1.652898e+00,4.576290e-01,-4.877519e-01,3.617422e-01,-1.930315e-03,-5.108212e-01,4.378265e-03,4.486507e-01,1.150005e+00,1.149932e+00,9.814184e-01,9.493295e-01,-3.959281e-02,-2.007084e+00,1.877120e+00,4.308014e-01,8.510705e-01,2.279302e-01,-3.569977e-01,-2.573431e-01,-1.519936e+00,3.611541e-01,
2.937626e-01,-5.308591e-01,-5.477953e-02,-1.709155e-01,-2.443084e+00,-1.644878e-01,-2.577762e-01,-2.088685e+00,-3.678061e-01,-1.766510e+00,-1.007459e+00,-5.074548e-01,-1.116164e+00,1.361585e-01,6.068006e-01,2.260383e+00,3.479389e-03,-8.263664e-01,-1.493055e+00,1.070207e+00,1.293977e-01,3.545187e-01,6.854070e-01,-1.272891e+00,5.227146e-01,-6.607282e-01,1.163172e+00,-1.197039e-01,-1.624661e+00,3.403911e-01,4.609836e-01,1.712118e-01,6.790230e-01,-7.261473e-01,9.242547e-01,-5.235980e-01,1.574255e+00,-1.517336e+00,1.769921e+00,9.006613e-01,1.351810e-01,-2.367888e+00,1.382961e-01,-2.589013e-01,-6.719694e-01,3.205358e-01,1.288324e+00,-4.802735e-01,-7.466249e-03,-1.150657e+00,
9.460739e-03,3.108591e-01,-2.161468e-01,-8.453237e-02,2.815036e+00,7.564989e-01,-2.998108e-01,-1.074938e+00,-3.704558e-01,-6.691865e-01,4.100067e-01,-7.037693e-02,-8.061062e-01,1.364288e-01,3.727420e-01,-8.947285e-01,3.366253e-02,-4.526225e-01,1.637800e-01,1.175819e+00,-1.807137e-02,-3.282042e-01,-1.402128e-01,9.061427e-02,2.130076e-01,4.111231e-01,-1.870854e-01,-1.459109e+00,1.625566e+00,-2.863089e-01,-9.587674e-01,7.711092e-01,4.769280e-01,1.020302e+00,8.100356e-02,-9.365360e-01,-2.485493e-01,2.496947e+00,3.485137e-01,1.947694e-02,-1.077569e-01,3.815137e-01,-4.437610e-01,8.659618e-01,1.394655e+00,6.000135e-02,2.895055e-01,1.426463e+00,-3.214733e-03,-6.683387e-02,
-3.727167e-04,-1.094837e-01,6.358933e-02,-2.616533e-01,2.076019e-01,-1.788935e-02,-2.522191e-01,-1.876389e+00,5.759368e-02,-1.393438e-01,-1.079682e+00,1.217540e-01,-2.187577e+00,2.456217e+00,-3.210679e+00,1.562455e+00,7.458544e-01,-9.860849e-01,1.763375e+00,-2.179825e+00,4.638806e-01,-8.076400e-03,1.433720e-01,-1.028119e-01,8.458582e-01,-4.242253e-02,6.328844e-01,-1.730190e+00,-2.607219e+00,2.628523e-01,-3.510340e-01,2.350467e-01,-2.187494e-01,2.216335e+00,1.933389e-02,2.365889e+00,-8.287374e-01,5.851591e-01,1.573533e+00,-5.663017e-01,9.602634e-02,3.260767e+00,-7.268318e-01,-1.651056e+00,6.221860e-01,-9.272696e-01,7.908162e-01,-1.741175e+00,8.520054e-01,4.087949e-01,
-1.878772e-02,-5.264537e-02,-3.886575e-02,-8.428115e-03,7.948194e-03,-5.398517e-03,2.891180e-02,-4.551443e-02,9.922022e-03,-1.628064e-02,-4.400990e-02,5.392178e-03,-1.195588e-03,5.807609e-04,-2.061305e-02,-6.720813e-03,2.127577e-02,9.123764e-03,3.441941e-02,4.278390e-02,-4.590767e-02,-6.377643e-02,-2.530250e-02,-5.959370e-02,2.941773e-02,-6.472930e-02,-7.649022e-03,-7.616221e-03,-7.652975e-03,1.811776e-02,-2.035719e-02,6.047735e-03,-1.869782e-02,-4.889673e-02,-2.271087e-03,-2.953273e-02,-3.417876e-02,-2.225065e-02,2.770881e-02,-2.520605e-02,-4.115983e-02,3.309111e-02,-5.141850e-03,1.801342e-02,-4.825628e-03,-8.580752e-02,-1.106635e-02,-5.295315e-03,2.753071e-02,-6.063812e-03,
3.255770e-02,-2.519181e+00,-7.692605e-01,4.638848e-01,-1.505884e+00,-6.613465e+00,-9.382565e-01,-7.414281e+00,3.854419e-01,2.018802e+00,-7.869828e-01,-2.961808e-01,-3.601408e+00,-9.940909e-01,-1.053841e+00,1.112583e-01,-1.499983e-01,-1.680758e+00,-1.471264e+00,-7.251646e+00,7.365537e-02,-3.871784e-01,3.079122e-01,2.488967e-01,1.196944e-01,-1.113613e+00,-1.332313e-02,-1.318759e+00,1.822605e+00,4.346514e-02,-2.792405e-01,8.793229e-01,6.979514e-01,5.392914e-01,4.092351e-01,-2.150829e-01,5.997271e-02,1.769763e+00,-1.768732e+00,5.255275e-01,6.038222e-01,1.578555e+00,1.281781e+00,-1.794548e+00,-1.982114e+00,-2.118150e+00,-8.842169e-02,1.115603e+00,9.362247e-01,1.040407e+00,
6.527439e-01,1.060142e-01,-5.208780e-01,4.637891e-01,1.421897e+00,-1.195107e+00,1.904422e-01,-3.261151e-01,-4.963494e-02,-6.519105e-01,-1.120715e-01,1.339854e+00,2.277803e-01,6.080922e-01,-7.532991e-01,-1.742387e+00,1.090046e-01,-8.777138e-01,-2.735824e+00,8.113886e-01,-7.573606e-01,-5.521417e-01,-1.465565e-01,1.981955e+00,8.076981e-01,8.673340e-04,2.931665e-01,1.587868e+00,2.705225e+00,-2.532975e-01,3.869304e-01,-1.936336e-01,1.960616e-01,1.910524e+00,1.505732e-01,-2.325337e+00,6.483092e-01,9.328674e-01,4.993803e-01,-5.411205e-01,-1.164672e-01,-1.164500e+00,-9.673730e-02,-3.946215e-01,6.376927e-01,9.588751e-02,8.185187e-01,1.877438e-01,3.639873e-02,-5.014520e-02,
1.272899e+00,6.316648e-01,5.562667e-01,-1.410346e+00,-2.276209e+00,7.418883e-02,3.457690e+00,2.367704e+00,1.594315e-01,3.078157e+00,1.193812e+00,-6.492319e-01,1.207125e+00,1.147820e+00,1.129470e+00,4.108154e+00,1.244412e+00,2.363140e+00,3.822722e+00,7.246085e-01,1.296743e+00,2.086880e+00,2.393416e+00,4.929645e-01,6.197997e-04,8.351435e-02,2.586118e+00,2.465765e-01,4.067370e-01,1.665730e+00,1.342928e+00,1.309952e+00,6.022280e-02,4.876479e-01,1.223703e+00,3.348871e+00,6.513357e+00,-7.225599e-01,2.521927e+00,2.320209e+00,3.546069e+00,4.022782e-02,3.194115e+00,2.945294e+00,6.529726e-01,3.561611e+00,2.731482e+00,-1.888303e-01,2.742946e+00,1.295657e+00,
4.881059e-01,-6.912029e-01,5.560317e-01,9.362174e-01,3.187932e+00,1.188724e+00,-2.718551e+00,9.526956e-01,-5.326943e-01,2.054324e+00,4.561027e-01,1.502786e+00,1.920124e+00,-9.036431e-01,3.439278e-01,2.276492e+00,1.190213e+00,1.451194e+00,1.966602e+00,2.366614e+00,-7.926983e-01,-8.213397e-01,-1.364460e-01,2.532829e+00,7.550248e-01,1.294235e+00,1.488630e+00,3.358963e+00,1.305883e+00,-2.877083e+00,-1.770815e+00,4.647619e-02,-7.820758e-01,3.294746e+00,-1.114677e+00,-1.786457e+00,-9.512810e-01,2.501854e+00,1.506781e+00,8.454780e-02,-2.143393e-01,-3.523306e+00,1.499857e+00,3.079870e+00,1.409513e+00,2.146087e-01,-1.278083e+00,1.107125e+00,-3.696909e+00,1.400244e-01,
-6.666829e-03,-2.356260e-02,-4.341135e-02,-6.703287e-03,-1.385305e-02,-5.267355e-03,-7.888718e-03,-2.969291e-02,-1.523803e-03,2.112185e-02,-1.586037e-02,-3.634658e-02,3.208231e-02,-1.307009e-02,1.518247e-02,6.495519e-03,1.529308e-03,-7.206698e-03,-5.113232e-02,1.177891e-02,-1.116494e-02,-1.331946e-02,-4.156173e-02,-4.246317e-02,-3.609574e-02,-5.789080e-03,4.939668e-03,-7.894668e-03,-3.467010e-03,-4.904233e-03,9.768045e-04,-2.188136e-02,-3.931991e-02,3.513807e-03,-3.721285e-02,-5.741483e-03,-3.082564e-02,-2.695260e-02,-6.944232e-03,-4.729725e-02,-1.042125e-02,-3.431470e-02,-2.809796e-02,-4.871733e-03,4.157974e-03,-2.649508e-02,-4.190376e-02,-2.407815e-02,-7.540832e-03,6.299433e-03,
-3.603293e-01,1.054896e+00,-3.730372e-01,9.839364e-02,-4.057568e+00,3.154275e-01,-2.826934e+00,8.046263e-01,-7.677354e-02,1.000508e+00,4.831713e-01,-1.478771e+00,1.975589e-01,9.435806e-01,-1.001061e+00,2.814120e+00,1.584859e+00,-4.893812e-01,1.518135e-01,-1.420655e-01,5.933709e-01,2.887116e-01,-4.037223e-02,-3.053145e+00,-4.681416e-01,6.397161e-01,1.444606e+00,-3.934901e+00,-3.929468e+00,1.092741e-01,4.872304e-01,-4.463367e+00,2.640894e-02,6.377978e-01,3.229200e-01,-1.192185e+00,-2.322494e+00,3.604262e+00,9.767283e-01,-2.662904e+00,3.834352e-01,1.370111e+00,-2.472866e+00,1.619687e+00,8.269145e-01,-3.790486e-01,-5.460320e-01,-2.448907e-03,4.571725e-01,-1.374890e-01,
3.461545e-02,4.922871e-02,2.803847e-01,1.035778e+00,-2.458983e+00,1.172503e+00,8.014169e-01,4.176043e-02,2.682071e-01,1.012826e+00,2.496307e-01,4.272325e-01,-2.066225e+00,1.374587e-01,2.038414e-01,2.870970e-01,1.799379e-01,2.718022e-02,1.423381e+00,1.137537e+00,-1.498835e-01,-1.683922e-01,3.215476e-01,1.181215e+00,1.413033e-01,6.510805e-02,-1.779000e-01,-5.292673e-01,2.196434e+00,3.694846e-01,4.500966e-02,1.336471e+00,-1.189372e-01,-5.772692e-02,-1.014998e+00,-5.633065e-01,-1.196948e+00,1.820122e+00,-7.579469e-01,-6.702203e-01,7.327062e-02,-8.756954e-01,7.675983e-01,1.115003e-01,1.469822e+00,1.897289e-01,1.904614e-02,4.934027e-01,-1.044762e+00,-1.073076e-01,
6.898877e-01,-2.112516e-01,5.116248e-01,-1.281195e+00,-3.097841e+00,5.191535e-01,1.097917e+00,2.547601e-01,2.515239e-01,-1.525804e-03,1.407579e+00,-6.173924e-01,1.855963e+00,9.924703e-01,2.243098e-01,-1.209161e+00,-2.654256e-01,-5.839813e-02,2.638876e+00,5.526231e-01,-9.652510e-02,-1.637329e-01,-8.025699e-01,1.326130e-01,-9.114369e-01,1.810264e-01,6.320657e-01,1.081322e+00,1.319456e+00,-1.285825e+00,-4.612615e-01,2.365953e+00,-3.260224e-03,-1.851440e-01,-4.725334e-01,-9.553947e-01,9.591916e-01,-4.959083e-03,-9.005969e-01,2.259907e-01,2.359537e-01,-6.982129e-01,4.917154e-01,1.605434e+00,2.604339e+00,6.110401e-01,-4.323750e-01,2.263162e-03,-1.116845e+00,-1.506679e-01,
-2.495263e-01,2.384312e-01,2.903502e-01,-8.051794e-01,-2.168252e+00,-1.167997e+00,3.351060e+00,-7.467680e-02,1.009516e-01,5.105084e-01,6.225976e-01,-5.761179e-01,2.208085e+00,1.518790e+00,2.441230e-01,1.143297e+00,-8.340666e-01,1.295048e+00,2.190538e+00,-3.164548e+00,-8.004509e-03,-5.593541e-01,3.964040e-01,3.433920e-01,9.854707e-01,-6.747094e-01,1.081233e-01,2.300024e+00,-8.609688e-02,-1.842728e-01,-4.941441e-01,2.075253e+00,1.861924e-01,-1.812070e+00,-8.457345e-01,4.085692e-01,1.271505e-02,-1.795220e+00,1.425999e+00,-9.122732e-01,2.385151e-01,2.297387e+00,1.169653e+00,9.377458e-01,7.749608e-01,1.731331e-01,6.058034e-01,8.831267e-01,-4.683105e-01,6.551300e-01,
1.832991e-01,-1.480834e-01,-3.438495e-01,2.170015e-02,5.744164e-02,-2.652692e-01,-3.123493e-01,8.783881e-01,-6.791214e-01,-6.591269e-01,4.324959e-01,-1.874308e-01,9.570724e-02,-9.661930e-01,1.341006e+00,-6.142030e-01,5.031352e-01,4.225945e-01,1.946589e-02,-9.902799e-01,7.805535e-02,-1.792488e-01,3.827176e-01,-1.075435e-01,2.787801e-02,-5.380319e-01,-1.172279e-01,6.229115e-01,-1.432301e+00,-3.771310e-01,-2.120926e-01,1.071964e+00,-4.630598e-01,8.865061e-01,5.496411e-02,9.166864e-01,-1.244242e+00,-6.376439e-01,3.372356e-01,4.318364e-01,3.430717e-01,-8.279076e-01,-4.369898e-01,9.756047e-02,-2.102846e-02,1.591400e-01,-2.665953e-01,-4.862156e-01,2.186058e-01,5.355994e-03,
4.695601e-01,9.461664e-01,8.670274e-01,1.547053e+00,1.126282e+00,2.515032e+00,1.494695e+00,1.203867e-01,-4.874522e-01,1.032243e-01,8.631709e-01,3.897936e-01,-1.969665e-02,-1.540214e-01,6.253415e-02,-7.970095e-01,-6.999645e-01,1.553743e+00,1.670937e+00,2.267356e+00,-2.112462e-01,-4.193370e-01,1.188877e-01,2.903904e+00,5.027578e-01,6.130682e-01,1.630687e-01,4.636248e-01,1.643241e+00,1.026141e-02,-5.525364e-01,9.180478e-01,-5.684907e-01,6.190212e-01,-1.190204e+00,-2.477505e-01,-1.518493e+00,2.135546e+00,9.270944e-02,-1.516741e+00,-2.357367e-01,3.541553e-01,1.101237e+00,7.820118e-01,1.385145e+00,4.447679e-02,4.541692e-02,1.258520e+00,-1.480038e+00,3.522278e-01,
-6.082243e-01,6.848264e-01,-5.188696e-01,-4.893776e-01,-2.693975e-01,-2.849517e+00,-6.530064e-01,2.690166e-02,-8.916630e-01,-1.375526e-02,1.610784e-01,-7.431577e-03,3.542342e-01,-9.221768e-01,-5.364437e-02,-1.850566e+00,-4.563717e-01,-4.635679e-03,7.420300e-01,6.096997e-02,-1.152980e-01,1.525252e-01,3.876427e-02,-1.835668e+00,-1.617690e+00,1.826328e-01,3.329557e-01,-3.463757e-01,-6.500843e-01,2.559796e-01,5.347826e-01,3.726016e-01,-2.958127e-01,-1.162575e+00,4.406238e-01,-7.669432e-02,-3.235063e+00,-1.659130e+00,-1.704534e+00,-1.177255e+00,9.545535e-02,-1.806639e-01,3.541641e-01,3.347330e-01,-1.646811e+00,-1.325493e+00,1.341036e+00,-2.900468e-02,-1.945162e-01,-7.808615e-01,
4.334481e-01,5.131886e-01,3.186707e-01,-3.963956e-01,3.670504e-01,5.031972e-01,1.685761e+00,1.285197e+00,-9.469991e-02,5.618451e-01,-4.235278e-01,2.835247e-02,1.613157e+00,-7.651165e-03,-8.430052e-02,7.508560e-01,1.549382e-01,-1.285190e+00,1.004094e+00,-1.038775e+00,-3.043039e-01,1.959677e-01,3.126974e-01,5.886362e-01,2.542111e-01,-3.780719e-01,-6.046627e-01,6.900370e-01,-2.348423e-01,5.397255e-01,-6.744689e-03,-5.539243e-01,1.224882e-01,9.556989e-01,-1.603831e-01,-1.039571e+00,2.802990e-01,-3.516044e+00,5.769866e-02,5.390293e-01,2.649094e-01,9.421268e-01,1.592898e+00,-4.776039e-01,1.062280e-01,-1.615584e+00,-9.622423e-02,-5.315235e-01,-3.288718e-01,-1.324608e+00,
1.920662e-01,4.608233e-01,5.920304e-01,1.030076e+00,3.071764e-01,1.352375e+00,8.518389e-02,9.724706e-01,1.586078e-01,-2.101677e-01,3.180165e-01,4.671937e-01,-1.994118e+00,5.522318e-01,-1.150015e+00,4.659214e-02,-1.626109e-01,-9.481879e-02,-1.378009e+00,4.062711e-02,-1.660585e-01,-4.107815e-01,3.617765e-01,7.143099e-01,-6.479941e-01,3.728818e-01,5.522863e-01,-9.174064e-01,-1.511159e+00,-4.478633e-01,-1.661470e-01,1.312817e+00,-4.226093e-01,8.760353e-01,-3.994475e-01,-9.521360e-02,-1.151625e+00,-2.043963e-01,5.184234e-01,-8.185405e-03,2.684946e-03,1.553328e+00,1.447876e+00,7.377651e-01,1.356318e+00,3.552935e-02,-3.292240e-01,7.177556e-03,-6.736993e-01,-2.111389e-02,
-5.554317e-03,-3.491741e-02,-3.912409e-02,9.911581e-03,-4.847192e-02,-2.883868e-02,-5.285791e-02,-3.136708e-02,-7.141178e-03,-3.905597e-02,1.831870e-02,-1.021276e-02,-4.199626e-02,-5.623942e-02,-3.298658e-02,-2.021370e-02,8.340862e-03,-4.148008e-02,-3.214823e-03,-5.092856e-02,-3.700221e-02,-5.885160e-02,-4.030541e-03,-1.438741e-02,-3.259477e-02,1.789397e-02,-1.182140e-02,-8.961853e-04,1.236703e-02,-7.268803e-03,-5.690845e-02,-8.063502e-03,-4.729020e-02,-1.111400e-02,-4.845268e-03,3.090261e-02,7.772057e-03,2.742746e-03,1.047677e-02,-1.505855e-02,-5.094042e-03,-1.653627e-03,1.286074e-02,-8.625938e-03,1.700192e-02,-5.218355e-02,6.640990e-03,-6.500690e-02,-5.082262e-02,3.258409e-03,
3.249965e-01,-6.324682e-01,6.873590e-01,8.055896e-01,7.011022e-01,-5.568721e-01,1.335126e+00,-8.914240e-02,-2.041944e-01,2.301383e-01,3.912056e-01,1.582521e-01,-5.767366e-01,7.235209e-01,-2.048140e+00,-3.931108e-01,6.143416e-01,1.333241e+00,6.408767e-01,7.892818e-01,1.064169e-01,-2.645246e-01,-2.681954e-01,5.672838e-01,-1.357890e+00,8.474445e-02,3.250820e-01,1.039892e-01,-1.705369e-01,-1.426744e+00,4.430451e-01,2.542186e-01,-4.689780e-02,-1.495933e+00,1.681505e-01,-1.013087e-03,3.587017e-01,-2.524915e-03,1.667551e+00,1.810653e-01,-2.200120e-01,1.518595e+00,-1.827886e-01,9.314606e-01,-6.122925e-01,1.763609e-01,7.954392e-01,5.845802e-01,-6.840210e-01,-3.837416e-01,
1.782073e-01,-4.501209e-01,-2.460444e-01,-1.399092e-01,1.577180e-02,-3.598391e+00,1.143412e+00,-3.449554e-01,-1.067845e-01,-3.937256e-01,4.652705e-01,-5.515822e-01,-6.283063e-01,1.537277e+00,6.158789e-01,5.222846e-02,-4.237004e-01,2.204954e-02,1.052482e+00,-6.491261e-01,-2.261424e-01,-3.678427e-01,1.519247e-01,-4.878182e-01,5.825188e-01,-4.808304e-01,8.182723e-04,1.318713e+00,-1.179329e-01,-7.047432e-01,-2.173342e-01,-6.060218e-01,-7.021607e-02,6.016836e-01,4.582304e-02,-1.605150e+00,-5.190231e-01,3.876601e-02,-9.814256e-02,-1.295197e+00,5.525900e-01,1.427545e+00,6.868282e-01,3.151526e-05,-1.027012e+01,5.231757e-01,3.146574e-01,-1.912492e-01,1.489765e-01,8.148650e-01,
-1.467497e-01,2.815049e-01,9.629132e-01,8.094517e-01,2.271979e-01,5.386239e-02,7.359163e-01,-7.501286e-02,2.435163e-01,1.225596e-01,-1.237379e-02,6.407524e-01,1.084504e+00,-8.217369e-01,5.076123e-02,1.034104e+00,-9.418969e-01,3.446739e-01,-2.396737e+00,9.214766e-02,3.313153e-02,-9.378141e-02,2.833448e-01,-1.050879e+00,2.319400e-01,-5.067265e-01,1.368115e-01,8.032331e-01,5.216034e-01,-1.876421e-03,3.724172e-01,4.374623e-01,8.560828e-02,-8.508548e-01,-4.811753e-01,8.087972e-01,4.368023e-02,1.104528e+00,1.838696e+00,3.717095e-02,7.953603e-01,4.411488e-01,-5.899983e-01,3.096003e-01,-8.360982e-01,4.450161e-01,1.501460e-01,-4.252645e-01,3.040941e-01,8.033090e-01,
-4.857577e-01,-5.142639e-01,1.577683e+00,-1.818770e-01,2.445663e+00,1.385188e+00,1.951520e+00,4.222251e-01,-1.044263e+00,1.548293e+00,1.307156e+00,-6.073123e-01,3.158128e+00,2.949442e+00,3.366448e-01,2.384260e+00,8.606250e-01,1.039950e+00,2.732788e+00,3.613084e+00,-3.136305e-01,-1.673838e+00,-1.585196e-01,-7.410139e-01,-5.598208e-01,5.944775e-01,8.080591e-01,-6.468997e-01,-1.770517e+00,2.041275e-02,-1.066410e+00,7.500063e-01,8.711333e-01,6.100720e-01,-3.419814e-01,-5.983360e-01,2.340227e+00,2.439073e+00,2.631675e+00,1.216258e+00,-1.090956e+00,5.048844e+00,1.213519e+00,7.390556e-01,1.408223e+00,3.416183e-01,-3.675700e-01,1.779229e-01,-3.709591e-01,6.106699e-01,
-3.466859e-01,-6.987044e-01,-4.082501e-01,-6.741809e-01,2.567811e+00,2.398472e-01,2.732179e+00,9.624662e-01,2.996548e-01,5.790891e-02,1.442285e-01,-6.487367e-01,1.011362e+00,2.179346e-01,5.712517e-01,-1.022858e+00,-7.473104e+00,-1.743176e-01,-4.593198e+00,-1.346680e-01,1.227188e-01,-1.874107e-01,-5.287419e-01,1.393914e+00,8.681644e-02,3.497913e-02,3.696605e-01,1.105366e+00,4.038583e-01,6.434116e-01,-3.604535e-01,2.389363e+00,-5.768659e-01,1.589576e-01,-2.193998e+00,1.148808e-01,1.304548e+00,3.856655e-01,1.990557e-01,3.354062e-01,4.581606e-01,1.132624e+00,2.923974e-01,2.327306e-02,1.339019e+00,2.366210e-02,2.902877e-01,5.000359e-01,3.706876e-01,7.693108e-01,
1.939128e-01,2.154419e-01,-6.316928e-01,-4.319727e-01,-5.533313e-01,1.339165e-01,5.630497e-01,8.252643e-02,3.209763e-01,5.771291e-01,6.617791e-01,-2.772097e-01,3.222308e-01,-1.147231e+00,1.838017e-01,-4.118826e+00,2.083626e-01,-4.160303e-01,-3.857541e-01,3.236068e-01,3.578344e-02,7.144938e-02,1.995979e-01,6.409276e-01,-2.010938e-01,-2.004942e-01,-1.353416e+00,1.344597e-01,9.868164e-02,-3.436687e-01,-4.894360e-01,-6.576587e-01,1.419420e-02,1.529419e+00,1.240892e-01,3.686594e-01,-2.980889e-01,-3.059190e-01,4.330146e-01,-4.302866e-01,1.514484e-01,-9.269559e-01,1.855011e-01,6.182329e-01,9.657332e-02,5.616974e-02,-7.990655e-01,-1.125414e-01,-9.669863e-02,-1.240815e-01,
-1.292409e-01,5.639297e-01,-5.395180e-01,-7.269939e-02,-6.408969e-02,1.100733e+00,-5.631035e-01,-2.286562e+00,3.515421e-01,5.079624e-01,4.703146e-01,6.751258e-01,8.629538e-01,3.878276e-01,-2.336403e+00,6.550859e-01,8.275555e-01,1.044489e-01,1.369297e-01,1.317105e+00,-3.593857e-02,-3.524681e-01,-3.632812e-01,2.026149e+00,-2.796849e+00,-4.902679e-01,-5.278985e-01,6.262764e-01,4.375697e-01,5.081680e-01,6.523759e-01,4.701022e-02,8.833122e-02,7.456877e-01,3.016367e-01,-4.277924e+00,-6.603262e+00,-1.130551e+00,-6.780069e-01,-1.240316e-01,-3.898556e-01,9.502014e-02,-4.116304e-01,1.633071e+00,1.620756e-01,-2.208681e+00,-7.060876e-01,-9.238423e-01,1.704787e-01,1.176900e+00,
1.387676e-01,7.271453e-01,-7.714212e-01,5.946441e-01,1.221690e+00,5.020112e-01,3.412690e-01,1.176781e+00,3.374434e-01,-7.081940e-01,-1.303020e+00,3.711682e-01,-5.052300e-01,7.383183e-01,1.701882e-01,2.067178e-01,-5.938136e-01,1.113644e-01,9.816199e-02,1.685520e+00,1.061813e-02,-8.962759e-01,9.923644e-02,-7.906448e-01,-6.738161e-02,-3.040643e-01,2.912926e-01,8.371949e-01,6.079829e-01,-3.649924e-01,1.564699e-01,1.549317e+00,4.733305e-02,4.138010e-01,6.119365e-02,-5.454252e-01,4.095348e-02,1.472346e-01,2.785596e-02,-1.607818e+00,-2.070645e-01,2.176432e+00,-3.038867e-01,1.334048e-01,-2.037050e+00,4.132572e-01,2.785114e-01,6.706464e-01,6.356276e-01,9.402152e-01,
-2.340063e-02,2.184975e-01,3.069856e-01,3.464400e-01,7.794935e-01,1.341587e-01,3.097385e-01,7.239524e-01,2.481127e-01,-5.824838e-01,4.478196e-02,1.754368e-01,1.210454e+00,1.586095e+00,3.277560e-01,9.554097e-01,1.953367e-01,-3.133118e-01,-1.180346e+00,1.657602e+00,5.509895e-02,-7.836561e-01,1.881922e-01,7.081655e-01,1.297406e+00,6.491715e-01,3.995238e-01,6.782470e-01,6.317186e-01,4.064362e-02,-8.455913e-01,2.468928e-01,2.830356e-01,-8.772915e-01,1.408394e-01,1.001507e+00,8.073545e-01,-8.474791e-01,2.929202e-01,-7.293809e-02,-4.881217e-01,1.208258e+00,1.308603e+00,-1.437593e+00,-2.099710e+00,-9.544513e-01,-4.239018e-01,-4.628365e-01,-9.281585e-02,6.758473e-01,
-1.690356e-01,1.309035e-01,3.100651e-02,2.977454e-01,9.700739e-01,1.893018e+00,1.246405e+00,-9.339007e-01,9.012903e-01,-2.070561e+00,-6.034768e-01,1.896915e-01,8.574886e-01,1.223686e-01,2.189271e-01,3.361307e-01,7.987363e-01,1.319828e+00,-1.083285e+00,9.964614e-01,-2.401904e-01,-4.696305e-01,1.470945e-01,1.225731e+00,-1.869418e-01,7.505850e-01,3.965594e-01,1.071743e+00,1.733250e+00,6.684697e-02,-2.683469e-01,2.392888e+00,1.019488e-01,1.264353e-01,-8.976792e-01,-1.575879e+00,-9.985723e-01,1.500936e+00,4.567735e-01,-8.455103e-01,-1.116413e+00,1.883548e+00,-9.978660e-01,-2.614310e-01,6.657451e-01,-2.445340e-01,-3.187751e-01,6.226096e-01,-5.641814e-01,3.908518e-01,
-2.532795e-01,-3.346651e-01,2.464330e-01,5.808601e-01,1.584461e+00,1.210134e+00,6.581009e-01,1.172110e+00,-8.764876e-01,-8.892174e-01,-3.956684e-01,3.867395e-01,3.712206e+00,1.702108e+00,2.203583e+00,1.612578e+00,1.134703e+00,-3.022103e-01,1.666450e+00,8.614696e-01,8.902155e-02,-1.124513e+00,-1.108315e+00,1.889118e+00,-3.948668e+00,-2.324311e+00,-2.469408e-01,5.359237e-01,3.060504e+00,5.344320e-01,6.912238e-03,1.463201e+00,-3.871692e-01,3.596155e-01,-8.514833e-04,1.117858e+00,2.455605e-01,8.432286e-01,9.189959e-01,-7.006819e-01,5.054302e-02,1.856481e+00,1.721007e+00,-3.961185e+00,3.115666e+00,-2.609626e+00,-8.627884e-01,2.071734e-01,9.981666e-01,-1.022296e-01,
4.452243e-01,1.543502e+00,-1.418381e-01,-4.768867e-01,4.727629e-01,2.352676e+00,8.673220e-01,-1.379521e+00,2.133822e+00,2.525992e-02,1.276554e+00,-1.189066e+00,5.020841e-01,1.634925e+00,-7.088791e-01,-2.313344e+00,8.106026e-01,-2.529687e+00,-1.782664e-01,-1.203933e+00,-3.374981e-01,5.147948e-01,-1.297330e+00,-1.746838e+00,2.601899e-01,1.203581e+00,-1.691074e+00,-1.136932e+00,-1.125824e+00,-1.584846e+00,-1.538366e+00,-2.204776e+00,-9.448305e-01,-1.270800e+00,1.943044e-02,4.310749e-01,1.108530e+00,-1.326033e+00,1.902195e+00,1.930249e+00,8.130766e-01,-4.830509e+00,1.751012e+00,-1.675228e+00,-1.030749e+00,-9.091704e-01,8.475025e-02,-1.766323e-01,7.300647e-02,3.001434e-01,
-1.620111e-01,2.827735e-01,2.907220e-01,-1.107268e-01,7.408634e-01,-3.071850e+00,1.150971e+00,-3.788890e-03,-3.669955e-01,8.110437e-01,8.932831e-02,-6.232594e-01,-2.928697e+00,-4.355492e-01,4.598622e-01,1.548720e+00,-2.592081e-01,1.836751e+00,1.564013e+00,1.372831e+00,2.583333e-01,-4.820402e-01,2.370918e-01,-9.234935e-03,-2.224088e-01,-5.851164e-01,7.311069e-01,5.507412e-02,1.794118e+00,-1.151930e+00,2.361353e-01,7.450330e-01,-3.007999e-01,3.887979e-01,-2.599156e-01,-3.393590e-01,-5.518340e-02,7.566791e-01,-1.504407e+00,1.883684e-01,-1.861360e-01,7.088213e-01,1.240226e+00,1.727807e-02,5.068057e-01,8.985214e-02,-6.026445e-02,-4.490837e-01,4.345775e-01,-1.178073e+00,
4.293012e-01,-2.075581e-01,1.654398e-01,-2.532285e-01,1.166767e+00,1.023925e+00,2.598372e-01,7.329316e-01,2.259101e-01,-1.488522e-01,-7.104715e-01,2.842701e-01,2.435321e-01,-1.267779e+00,2.436514e-01,1.357644e+00,-4.979214e-01,1.505815e-01,5.232590e-01,-1.295284e-01,1.326319e-01,-1.746859e-01,1.017890e-01,4.393709e-01,2.241162e-01,3.220458e-01,6.739281e-01,1.097347e+00,9.303201e-01,2.554965e-01,-1.384117e-01,2.065795e-01,-4.424898e-01,1.815963e-01,-3.894827e-01,9.329089e-01,-1.520127e+00,8.831852e-01,7.934983e-01,2.442124e-01,-1.461522e+00,3.927581e-02,3.472627e-01,-2.882120e+00,8.319365e-01,-4.392361e-01,2.211773e-01,-6.427638e-01,4.486457e-01,1.184299e+00,
1.059952e-01,-4.604591e-01,-5.333552e-01,-7.376896e-01,-7.818175e-01,-1.309691e+00,-1.441727e+00,-6.783460e-01,7.087232e-01,4.413393e-01,-8.123158e-01,4.249018e-01,-4.721774e-01,4.509081e-01,-2.780559e-01,8.313744e-01,-5.756826e-01,-6.468472e-01,-3.887585e-01,-7.329066e-01,1.301965e-01,1.961692e-01,-6.561819e-01,-1.333923e-01,2.790883e-01,-5.389084e-01,1.144034e-02,6.440980e-01,-4.956763e-01,-3.220995e-01,3.832770e-01,-1.417380e+00,-2.517468e-01,-1.342785e+00,3.660995e-01,-9.061841e-01,1.182206e+00,4.180661e-01,-1.956289e-02,-5.927886e-01,5.175913e-01,8.525034e-01,8.166232e-02,1.278403e+00,3.673396e-01,1.032136e-01,1.999733e-01,2.104685e-01,3.090934e-02,4.062115e-01,
1.841202e-02,5.961792e-01,-1.320078e-01,-1.989947e-01,-3.201460e+00,2.229625e-01,6.330591e-01,4.966948e-01,4.646502e-01,-2.069276e+00,4.358573e-01,-2.225476e-01,-9.953280e-01,-3.504111e-02,9.595669e-01,-2.313087e+00,-3.071167e-01,1.143412e-01,1.422817e+00,-1.297647e+00,-4.345571e-01,6.194360e-01,9.566676e-01,-1.401462e+00,-7.248909e-01,-4.785869e-01,4.308715e-02,1.012432e+00,1.980231e+00,4.267973e-01,-5.651743e-01,-8.309994e-01,6.735421e-01,-1.467327e-01,2.232255e-02,6.471438e-01,5.244821e-01,-3.817662e+00,3.866617e-01,1.786412e-01,3.059180e-01,-9.933820e-01,4.066112e-01,5.316015e-01,1.185193e+00,3.571138e-01,-3.220741e-01,-1.172340e+00,9.764148e-01,3.037685e-01,
1.626172e-02,-9.154098e-02,-7.062561e-01,9.484330e-01,5.767363e-01,-9.472962e-01,-1.809821e-01,8.791037e-01,-6.445470e-03,3.636929e-01,1.411931e-01,-9.998614e-01,-2.007504e+00,4.324263e-01,-2.251323e+00,-6.863839e-03,-3.263063e-01,-1.332678e-01,-4.426819e-01,-8.464016e-01,8.915344e-02,-2.662757e-01,8.294197e-01,-1.109762e+00,-9.268355e-01,-7.612483e-01,4.098061e-02,-5.486348e-01,-2.575013e+00,1.261787e+00,-1.174728e-01,-6.136858e-01,-5.261802e-01,1.185009e-01,-5.512062e-02,-1.887045e+00,8.831825e-01,1.944634e+00,-8.433754e-01,6.253802e-01,-3.079043e-03,-5.217397e+00,1.060867e+00,8.185541e-01,-2.957532e-01,-5.014878e-01,-9.839337e-01,-8.621374e-01,-1.879586e-01,-3.118202e-01,
5.346556e-01,5.773845e-01,6.528103e-01,-5.288657e-01,-4.378819e-01,9.561423e-01,1.219469e+00,-4.167681e-01,1.039106e+00,8.379611e-01,1.672946e+00,-4.873647e-01,-5.449982e-01,-3.978694e-01,5.029898e-01,1.030054e+00,8.395048e-01,3.888046e-01,1.306386e+00,-3.722227e-01,-1.310285e-01,-3.439121e-01,-1.440934e-01,2.135142e+00,8.771504e-01,-5.383005e-01,1.045751e+00,-9.728649e-01,1.819403e+00,-1.262546e+00,-2.192592e-01,6.291052e-01,6.757225e-01,1.547507e+00,-2.627994e-01,-9.068810e-01,2.664951e+00,5.339553e-01,1.116691e+00,-1.010144e+00,3.182565e-02,1.540549e+00,1.233186e+00,-3.041575e+00,-3.357604e-01,6.880128e-01,-2.226851e+00,-1.128996e+00,2.492100e-02,-5.036762e-01,
