// The contents of this file are licensed under the Creative Commons
// Attribution 4.0 International License: https://creativecommons.org/licenses/by/4.0/
// Neural Network File Format by Kyle Julian, Stanford 2016 (generated on 04/06/2022 01:22:21)
7,5,5,50,
5,50,50,50,50,50,50,5,
0,
0,0,0,0,0,
0,0,0,0,0,
19791.091,0.0,0.0,650.0,600.0,7.5188840201005975,
60261.0,6.28318530718,6.28318530718,1100.0,1200.0,373.94992,
7.298585e-03,4.448837e-02,1.001541e-01,1.895870e-02,-1.909490e+00,
-3.455792e-01,1.427166e+00,-1.665810e+00,-5.429970e-01,6.289864e-01,
4.338570e-02,-1.630835e+00,1.102494e-01,3.721020e-01,-5.857180e-01,
1.842453e+00,-3.876209e-03,1.798074e-02,1.288952e-01,1.182982e-01,
-1.766791e-02,9.126184e-01,-2.535980e-01,-1.305649e+00,1.283053e+00,
2.105210e-01,-1.734028e-01,5.053220e-01,-1.021781e+00,1.049512e+00,
8.701634e-02,1.489308e+00,-1.120105e+00,1.954056e-01,-4.998307e-02,
-1.305306e-01,-1.175125e+00,1.155888e+00,1.174528e-02,-3.558357e-01,
9.756112e-02,-9.846110e-01,1.127235e+00,2.319937e-01,6.504644e-02,
1.126279e-01,2.744186e-01,1.318567e+00,8.878923e-01,-2.965987e-01,
-1.557723e-01,2.225224e+00,-1.911575e+00,1.259912e-01,-8.326858e-01,
6.636354e-02,1.771541e+00,-1.758621e+00,-5.846480e-01,8.318130e-01,
-4.033459e-02,-1.396389e+00,-4.321316e-02,2.574110e-01,-1.841690e-02,
-5.519241e-02,1.754525e+00,-1.670099e+00,-3.049237e-03,-5.118751e-01,
7.287920e-02,1.816482e+00,-4.030126e-01,5.875506e-01,-7.961795e-01,
8.885215e-02,-3.317997e-01,-1.146662e-01,1.476446e-01,9.237310e-02,
-1.880543e-02,6.655791e-01,3.438944e-01,-2.840580e-01,3.465615e-02,
7.530598e-02,-8.378651e-01,3.838515e-01,-8.253456e-01,9.813144e-01,
-3.477556e-01,1.768430e+00,-1.645868e+00,-4.367168e-02,4.014292e-01,
-1.583958e+00,-5.825268e-02,-2.939161e-02,1.085383e-02,2.426066e-01,
4.812969e-02,9.639993e-01,3.463068e-01,1.645550e-01,-2.438424e-02,
-4.953233e-02,1.925946e+00,6.838531e-01,-8.791236e-01,1.248585e-01,
5.933992e-02,3.842511e+00,5.570255e-03,-6.125883e-05,8.890442e-03,
-4.839499e-02,9.141498e-01,-1.117076e+00,-1.483111e-02,4.122113e-01,
-6.336677e-03,-1.950762e-02,-5.128768e-03,-1.389752e-01,-1.136551e+00,
-3.442556e-02,-1.350585e+00,1.475684e+00,-1.708423e-01,4.974075e-01,
-5.897932e-03,4.127188e-03,-2.178741e-01,-1.201635e+00,1.202135e+00,
-1.870864e-02,5.535408e-01,8.051855e-01,1.679239e-01,3.348009e-02,
-1.170607e+00,3.463902e-02,1.029005e-01,-8.281352e-02,2.770094e-02,
3.295950e-02,1.059814e+00,-5.013337e-01,-4.229254e-01,4.312281e-01,
-3.545243e-01,-3.255284e-01,1.192521e+00,1.105007e-01,-1.498061e-01,
-3.126384e-02,-5.883564e-01,-7.936386e-01,-1.173458e-01,-1.212816e-01,
2.665355e-02,3.040488e-01,-9.392571e-01,-6.220055e-01,6.392617e-01,
1.646775e-01,1.293842e+00,-1.686125e+00,1.905767e-01,-5.115058e-01,
9.728239e-02,-1.650750e+00,1.205552e+00,3.638434e-01,-4.455267e-01,
6.150118e-01,1.757474e-02,-1.143274e-02,2.747142e-02,-2.086620e-01,
2.359287e-01,8.209439e-02,1.251165e-01,-1.116902e+00,-3.443441e-01,
-5.369287e-01,3.777226e-02,2.116139e-02,2.844896e-01,-3.630557e-01,
-2.115423e-03,1.061991e+00,7.836459e-01,2.620121e-01,-1.424173e-01,
-1.340965e-02,-4.916886e-01,-9.488794e-01,4.376742e-01,-4.798942e-01,
-8.574518e-03,1.328088e+00,-1.411336e+00,-5.053321e-02,3.192469e-01,
-1.018050e-03,-1.694581e-02,-1.402604e+00,7.622000e-02,3.314213e-02,
-3.071676e-01,-1.170916e+00,-7.358497e-01,3.528142e-01,-3.170391e-01,
-3.088438e-02,3.369876e-01,3.306267e-01,-3.085494e-01,5.614393e-01,
3.130508e+00,7.972335e-02,-1.175942e-01,-1.801344e-02,3.081806e-02,
-3.283092e-02,5.614920e-01,1.238718e-01,7.085780e-01,-8.072698e-01,
7.636961e-02,8.715921e-01,-8.147351e-01,-1.366177e-01,1.854585e-01,
4.299575e-02,-7.691566e-01,1.025791e+00,-4.054125e-01,4.168300e-01,
-6.201589e-02,-1.681984e+00,1.992922e+00,-3.533943e-01,7.882716e-01,
3.684723e-02,-6.676701e-01,3.167816e-02,1.037932e-01,-3.282276e-01,
-6.105063e-01,
-7.403222e-01,
-1.486434e-01,
5.237003e-01,
8.256733e-02,
-4.805941e-01,
-4.256352e-01,
-6.089263e-02,
-3.788519e-01,
-1.050102e-01,
-1.156616e-01,
-4.172531e-01,
1.530123e-01,
-3.334810e-01,
-2.839887e-01,
-7.443570e-02,
5.351039e-02,
1.160935e-01,
-2.713805e-01,
-2.461165e-01,
-7.700162e-02,
-2.993980e-01,
-5.299897e-02,
-3.371636e-01,
-5.214526e-01,
-4.960515e-01,
-1.394365e-02,
-1.150163e-01,
-1.175798e-01,
1.886485e-01,
-6.224738e-02,
2.669098e-02,
9.879683e-02,
1.136278e-01,
-3.205306e-01,
-3.818396e-02,
-4.875894e-01,
-4.921744e-02,
-3.131743e-01,
-9.475957e-03,
-5.831012e-01,
7.455593e-02,
-5.352101e-02,
2.240755e-01,
9.325691e-01,
-8.403714e-02,
-4.867613e-01,
-5.960099e-01,
-4.144566e-01,
-1.435284e-01,
-1.560222e+00,-6.451601e-01,3.867538e-02,1.259422e-01,1.295341e-01,-1.253860e-01,-2.097574e+00,-1.238336e+00,4.418086e-01,-1.714952e-01,-5.925284e-01,-1.431050e-01,9.271360e-01,-7.653931e-01,-4.977032e-01,4.564118e-01,-5.499247e-02,1.016353e+00,-3.204781e-01,-1.341974e+00,-1.048272e-01,9.628767e-01,-6.715953e-01,-1.464225e+00,-6.454772e-01,-1.574318e+00,1.070825e-04,2.914289e+00,3.361989e-02,3.118498e-01,6.217329e-01,-5.016703e-01,-3.747254e-01,2.602435e-01,-4.673994e-01,-7.727541e-01,2.780950e-01,-1.230643e+00,1.934756e+00,1.285847e-02,-2.761267e+00,1.498311e-01,1.856897e-01,6.669134e-01,2.874896e-02,-4.076235e-01,-1.475533e+00,-2.289655e-01,-7.558162e-01,-1.654424e+00,
-4.118163e-01,-8.384182e-01,9.735579e-01,-3.932848e-02,1.058370e+00,1.661174e-01,-3.760438e+00,1.014478e+00,1.471447e+00,-4.367774e-01,-7.497030e-01,-7.185174e-01,1.305218e+00,-1.706057e+00,-8.447241e-01,1.277915e+00,1.338817e-02,-9.512354e-01,-8.023180e-01,-2.241310e-01,-1.101145e+00,-4.811147e-03,-2.097224e-01,-2.143191e+00,1.824477e+00,3.194427e-01,2.495769e-01,-3.207127e-01,2.060214e-01,9.379493e-01,1.392563e-01,7.334384e-01,1.059479e+00,2.665873e-01,6.416526e-01,-2.104407e-01,8.515626e-01,-9.103729e-01,-1.578184e+00,1.359941e+00,-2.981841e+00,2.055804e+00,3.310135e-01,-3.478921e-01,5.484264e-03,-1.176046e+00,-1.780014e+00,-6.208895e-01,-3.040669e-03,2.449037e+00,
5.290980e-03,-2.781820e-02,1.578695e-03,-2.485518e-02,-9.593180e-03,3.112410e-02,3.307405e-02,-5.456865e-03,-5.936665e-03,2.095560e-02,-9.558599e-04,-1.743804e-02,-6.331761e-03,-4.130672e-02,-3.445572e-02,-3.460627e-02,-2.906845e-02,-1.195386e-02,-4.255580e-02,-3.264760e-02,-2.343301e-02,-5.188015e-03,9.179596e-03,-8.695503e-04,-1.604919e-02,-1.913487e-02,-5.824990e-03,-5.454538e-03,8.953180e-03,-9.793037e-03,-1.606564e-02,-4.574249e-04,-1.048280e-02,-1.477720e-02,5.688319e-03,-4.638894e-02,1.809440e-02,-8.540464e-03,-2.943171e-02,-2.168412e-03,-6.463662e-04,2.355779e-02,-4.000897e-02,2.587432e-02,-1.487943e-02,-4.973445e-02,-1.350665e-02,-1.011726e-03,2.007058e-02,9.872667e-03,
2.020299e-01,1.270411e-01,-2.958933e-02,2.421973e-01,2.212854e-01,2.834915e-02,1.372061e+00,4.287728e-01,-7.231874e-01,-5.295521e-02,-3.777393e-01,7.352509e-01,9.032255e-02,-2.386300e-01,-5.694498e-01,4.118540e-01,-5.196270e-01,-1.022446e+00,2.765809e-02,-3.859874e-02,2.101839e-01,5.547372e-02,-2.040256e-01,-1.307758e+00,9.223570e-02,-7.335868e-02,-1.386849e+00,1.354822e-01,-1.902032e+00,3.710821e-01,5.132443e-01,8.147029e-01,-7.206178e-01,-2.872015e-02,3.574404e-02,-1.497575e-01,1.883965e-01,-1.135067e+00,-7.678107e-01,7.803838e-01,-2.308162e+00,-4.804121e-02,6.709880e-02,5.883456e-01,-1.465384e-01,-1.540618e-01,-9.615404e-01,1.261585e-01,3.008013e-01,6.212506e-01,
-1.236232e+00,-2.521111e+00,-2.376724e+00,1.965834e-01,-8.912776e-01,1.434247e+00,-2.635604e-02,-1.121909e+00,-1.981490e+00,5.055944e-01,6.498858e-01,-2.722944e+00,-1.369488e+00,-9.163833e-01,1.953338e+00,-1.499549e+00,3.622102e-01,1.358834e+00,-1.008806e-01,-1.668308e-01,2.066323e+00,1.934107e-01,3.632894e-01,-3.106501e-01,-2.046440e+00,-1.958826e+00,6.666447e-01,1.618343e+00,6.356578e-02,9.477295e-02,-6.205028e-01,-1.831089e+00,-2.551013e+00,-7.012715e-01,-2.163096e+00,-3.462903e-01,-3.797531e-01,-1.003792e+00,1.216138e+00,-2.910601e+00,-1.385208e-01,-5.981290e+00,-7.688960e-01,1.200242e+00,-5.518002e-02,1.614748e+00,8.958294e-01,-2.567954e+00,-1.256186e+00,-2.047520e+00,
-1.141879e-01,1.166987e-02,9.195647e-01,1.578164e-01,-5.007232e-01,1.803366e+00,3.811301e-02,1.040838e+00,1.718420e+00,-7.003918e-01,8.001299e-02,-2.413122e-02,4.783350e-01,3.694773e-02,-3.395835e-03,-1.727501e+00,-2.110011e+00,-2.301572e-01,2.788050e-02,-1.098683e+00,-2.317496e+00,6.114761e-01,-7.612663e+00,-4.019218e-02,-1.377298e+00,2.247364e+00,-1.179730e+00,-1.159084e+00,-1.264464e+00,-1.560429e+00,-2.857993e-01,-2.309414e+00,-2.169358e+00,1.146564e+00,2.177110e+00,-1.871494e-01,-4.853771e-01,-2.708997e-01,-1.730178e+00,-1.886014e-01,-2.693188e-03,-7.962120e+00,-7.536561e-01,-7.814021e-01,-1.174817e-01,-2.524734e-01,-1.928604e-02,3.003504e+00,1.025047e+00,6.225452e-02,
-5.913043e-02,-6.781768e-03,-1.487820e-02,1.144451e-02,1.418650e-02,2.156310e-02,-3.946735e-02,-4.076988e-02,-2.594800e-02,4.288173e-03,-5.806457e-03,-8.118670e-03,-4.681250e-03,-4.511943e-03,5.065690e-03,3.663631e-02,-1.202502e-02,-3.222714e-02,3.225324e-03,-9.187810e-03,-4.226286e-02,-1.176772e-02,-2.964437e-03,8.965391e-03,6.841236e-04,3.556817e-02,2.536270e-02,8.097283e-04,-3.433710e-02,-3.750575e-03,2.526009e-02,8.964736e-03,-2.920023e-02,-3.083083e-02,-6.192797e-03,-2.108488e-02,4.006590e-02,-1.013228e-03,2.112314e-03,-3.956852e-02,-2.116296e-05,-3.585724e-02,6.153916e-03,-2.554437e-02,-2.469232e-02,-4.283286e-02,2.555096e-03,-4.320934e-02,-4.527814e-02,-6.096815e-03,
3.708782e-01,-8.250051e-01,-1.089037e-01,1.729734e-01,1.395162e-01,4.362788e-01,6.081817e-01,-5.555199e-02,-1.377780e-01,1.722693e-01,1.568218e-01,1.959219e-01,3.538366e-02,3.192383e-01,7.590189e-01,-1.531833e-01,3.748797e-01,4.921996e-01,7.900216e-02,-1.283017e+00,1.821974e-01,-5.320398e-01,1.383693e-01,1.461177e-01,-1.267968e-01,9.818190e-02,1.925229e-01,1.444042e-01,-8.477737e-01,1.045236e-02,3.834217e-01,-5.064963e-01,-4.026058e-01,9.760784e-02,4.237131e-02,2.592113e-01,-4.591328e-01,7.176492e-04,-1.764202e-03,-2.441822e-04,-2.339760e-01,1.650428e-02,-8.058366e-01,1.600397e-01,5.863197e-02,-3.303136e-01,8.844422e-01,1.221346e+00,-1.469904e-01,2.318733e-01,
-9.793501e-01,-1.395822e+00,6.400790e-01,5.232596e-02,-3.973407e-01,3.558098e-01,3.709355e-01,4.266336e-01,-4.417225e-01,1.217151e-01,5.210431e-01,4.193406e-01,-6.891485e-02,5.192609e-01,7.077014e-01,-2.977775e+00,9.459350e-01,4.540228e-01,-1.176055e+00,-3.743998e-01,-8.086066e-02,1.374349e-01,-4.150616e-01,-1.659203e+00,1.957469e+00,5.354459e-01,5.847530e-01,2.776306e-01,7.662003e-01,-3.216324e-01,7.626883e-01,1.692176e-01,5.245211e-01,-3.431251e-01,1.575246e-02,-1.467085e-01,6.939035e-01,1.624080e-01,-3.738682e-01,-5.078250e-01,-1.238278e+00,1.070774e+00,-5.571963e-01,-1.452934e-01,-3.715040e-01,7.306403e-01,-5.553744e-03,2.470838e-02,-7.649239e-01,-1.395563e-01,
7.243802e-02,7.414190e-02,1.828846e-01,-1.308768e+00,-1.432561e-01,-3.802903e-02,-1.061452e-01,-4.097147e-02,-6.508567e-01,3.441595e-01,2.629788e-01,2.064635e-01,9.591053e-02,-4.380897e-01,9.706640e-02,2.293536e-01,-4.398870e-01,-2.608249e-02,8.907034e-02,9.722804e-01,4.868426e-02,-3.984905e-02,2.486218e-01,-2.669930e-01,5.463634e-02,-1.338090e-01,1.383086e-01,7.051100e-02,-3.789640e-01,1.024756e-01,5.054482e-01,2.589105e-01,-1.144751e-01,2.550791e-01,-5.347469e-01,-5.708541e-02,4.268068e-01,-9.306698e-02,-3.073056e-01,-1.052135e-01,1.422541e-01,-1.510673e-01,-7.623724e-03,3.178950e-01,-1.669098e+00,6.302486e-02,-9.537108e-02,-2.393516e-01,2.652419e-01,5.253711e-01,
-2.822754e-02,-1.289803e-02,-6.371936e-03,-4.611555e-02,1.791190e-03,-9.343870e-04,-4.482582e-02,-7.471201e-03,-5.037892e-03,-6.505882e-03,1.120811e-02,-1.377991e-02,-4.548788e-03,2.234383e-02,6.664550e-04,-2.532574e-02,-7.500187e-03,5.104081e-03,7.928680e-03,1.215840e-02,-1.165159e-02,-2.526882e-02,-1.587246e-02,-1.557166e-03,2.451293e-02,-2.680997e-02,-4.504670e-02,-4.902974e-03,1.690570e-02,-1.571638e-02,7.099699e-03,-3.662172e-02,1.301201e-02,-1.830956e-02,1.445750e-02,-2.545172e-02,-6.322800e-02,-4.405491e-02,-2.661366e-02,-5.001580e-03,7.609042e-04,1.450387e-02,-6.102759e-03,2.080381e-02,-4.829473e-03,2.359585e-02,-1.442006e-03,-4.315150e-02,-1.269504e-02,-3.254693e-02,
-1.758498e+00,-6.533200e-01,-5.377152e-01,2.882640e-01,9.431522e-02,-6.326553e-01,6.491742e-01,-2.010340e+00,-1.635043e+00,3.938784e-01,9.530900e-02,-1.532837e+00,-7.264900e-01,-6.711283e-01,1.362970e+00,9.451879e-01,7.993832e-01,4.211378e-01,-8.646283e-01,-9.233398e-01,9.631249e-01,-5.294820e-03,-5.516006e-01,8.105014e-02,-2.783606e+00,-2.586708e+00,1.271629e+00,1.945689e+00,-1.720318e+00,4.361309e-01,-1.159927e+00,1.207676e+00,1.697771e-01,-1.180369e+00,-1.512407e+00,-2.676898e-01,1.381372e+00,-4.961102e-01,-1.699101e+00,-2.543365e-01,-5.329583e-02,-7.985477e-02,6.212888e-01,4.534008e-01,-3.355478e-02,-4.537465e-01,4.267422e-01,-1.636268e+00,-1.105190e+00,-7.331933e-02,
-1.095064e+00,3.630177e-01,2.098192e-01,-6.988927e-02,-9.596735e-02,-5.230344e-01,-2.644749e+00,1.445567e+00,-2.697863e+00,-5.299616e-01,-4.181925e-01,-2.923827e-01,-6.574349e-01,-4.166131e-01,-4.550419e-02,8.759384e-01,-3.507618e-01,7.034478e-02,7.897851e-01,6.865049e-01,-9.822202e-01,-1.325230e-01,-1.526161e-01,-5.856087e-01,-6.861816e-01,9.431368e-02,1.561458e-01,-1.374553e+00,1.008615e-01,4.746092e-01,-6.558103e-01,1.152822e-01,2.742797e-01,4.572279e-01,2.952729e-01,4.192925e-01,5.895626e-01,-1.226581e-01,-1.834795e+00,1.159410e-01,-1.702117e+00,9.996997e-01,-7.495147e-02,6.382962e-01,3.700334e-02,1.285244e-01,-5.180962e-01,4.328766e-01,4.578741e-02,-2.723475e-01,
-7.168088e-03,1.225970e-02,4.695393e-03,-6.490757e-02,-1.470930e-02,1.519180e-02,-4.304979e-02,-1.354855e-02,-5.783132e-03,5.150493e-03,8.518997e-03,6.722293e-03,-1.350813e-02,5.504006e-03,-4.005516e-02,1.101975e-03,-2.692448e-02,-3.080505e-02,-3.964689e-02,3.472630e-02,-3.689647e-03,-1.796089e-02,2.809040e-02,-2.060636e-02,2.348549e-02,1.765919e-03,-1.209930e-02,-3.138970e-02,2.494190e-02,-1.943864e-02,2.258649e-04,-4.342930e-02,-1.933367e-02,-8.110932e-03,1.358350e-02,3.478833e-02,-4.147610e-02,-2.282477e-02,-7.332460e-03,-4.255512e-02,4.086663e-02,-3.804745e-03,3.488044e-04,-4.708336e-02,-3.519238e-02,2.508389e-02,2.422404e-03,-4.768666e-03,-1.933490e-02,-6.071319e-03,
-4.809282e-02,2.937117e-02,2.041245e-02,-4.795393e-02,-5.843220e-02,9.290290e-03,8.352068e-03,-3.263959e-03,1.121104e-02,-1.378349e-02,4.841418e-04,-6.234164e-02,-5.812215e-02,5.293512e-03,4.209559e-02,-1.178618e-03,9.557612e-03,-6.634521e-02,-7.288838e-03,1.201130e-01,-6.963479e-03,2.340128e-02,-4.392957e-02,-1.138123e-02,-1.064410e-01,2.720711e-02,-2.727360e-02,7.285909e-03,2.940520e-03,-4.914749e-02,-1.477679e-02,-6.760327e-03,3.493411e-03,2.327390e-03,-4.108032e-04,8.350667e-02,9.965480e-03,-2.244335e-03,3.432245e-02,-2.086801e-02,4.002441e-02,-3.108759e-02,-1.548181e-02,-4.608603e-03,2.331079e-03,2.432828e-02,8.131524e-02,-2.032505e-02,-4.794804e-03,2.214729e-02,
-2.996923e-01,8.448831e-01,-5.679746e-04,-4.971200e-02,-1.290791e-01,1.458531e-01,-1.333141e+00,4.900014e-01,-4.819824e-01,3.833460e-01,1.984404e-01,1.495783e-01,3.382754e-01,3.610324e-01,2.100624e-01,1.380723e+00,1.884302e-01,5.276607e-01,-2.748602e-01,-1.249191e-01,-4.543411e-01,-5.049551e-01,8.416951e-02,-2.054210e-01,-2.724737e-01,-1.846381e-02,-4.446631e-01,4.690731e-01,-1.551561e+00,3.670180e-01,-9.250739e-01,-8.298761e-01,1.302800e-01,-1.562471e-01,2.700312e-01,-5.880234e-01,-1.710676e+00,-7.403673e-01,-5.060135e-01,1.025007e+00,-6.959932e-01,-1.629414e-01,-7.625827e-01,-1.805150e-01,2.135542e-01,1.705501e-01,2.290570e+00,-1.563179e+00,-3.367666e-01,-1.236193e+00,
9.884213e-01,-1.000243e-01,-2.211601e-01,-2.772445e-01,2.451707e-01,9.926552e-02,-8.865100e-01,-4.050814e-01,-1.368934e-01,4.257399e-01,1.581172e-01,3.820505e-01,1.488737e-01,-2.969649e-01,-9.118469e-01,-1.024646e+00,-9.000615e-02,7.214038e-03,5.429561e-01,-4.841114e-02,-1.094377e+00,-7.916058e-01,-3.095475e-01,5.404165e-01,2.360416e+00,2.295888e-01,-4.681375e-01,3.473546e-01,3.290226e-01,-3.294743e-01,3.820851e-01,-7.594019e-01,-7.237703e-02,4.844241e-01,-5.517939e-01,-1.152598e+01,-1.600662e+00,5.391235e-01,4.425200e-01,1.196662e-01,-1.326936e+00,-2.241922e-01,1.259574e-01,5.179986e-01,-6.461599e-01,1.886065e-01,1.264180e+00,2.187101e-01,2.745968e-01,-2.067188e-01,
7.512562e-02,7.673246e-03,-1.418669e-01,-1.061318e-01,-4.096727e-01,-9.627340e-03,-1.730944e-01,2.902342e-01,-3.842664e-01,-2.118492e-01,1.373066e-01,4.221234e-01,-1.545685e-01,-9.888280e-02,-2.285461e-01,1.114143e+00,4.239491e-01,1.537746e-01,-7.076458e-01,3.050431e-01,5.883082e-01,4.446268e-01,-2.419449e-01,-5.706000e-01,1.277979e+00,-2.562935e-01,-5.289247e-01,-2.344826e-01,2.940377e-01,3.725398e-01,-8.580816e-01,6.860088e-01,8.384125e-03,-3.253128e-01,-1.757499e-02,-4.586075e+00,4.001221e-02,6.860222e-01,3.366440e-01,2.231485e-02,7.424569e-01,5.490718e-02,-2.940362e-01,-5.461270e-02,1.572023e-01,7.188868e-01,-2.838964e-03,1.423900e-02,9.244796e-02,7.977274e-01,
-1.163333e+00,-3.661092e-01,-4.025357e-01,2.319765e-01,-4.290644e-01,-2.103271e-02,6.523753e-01,3.072277e-01,-5.935977e-01,-2.087231e-01,8.552560e-01,1.402519e-01,5.306641e-01,-5.310571e-01,-2.072084e-01,-2.836792e-01,1.604231e-01,1.095864e-01,-6.359571e-01,-1.717449e-01,3.791930e-01,1.218050e-01,-7.622433e-01,8.003716e-01,-1.263901e+00,2.162815e-02,7.467467e-01,3.460213e-01,3.352077e-01,-1.612845e-01,8.450998e-02,4.975673e-01,-3.234207e-01,6.331924e-01,-2.548118e-01,-2.495817e-02,-1.459348e-02,-3.812066e-01,1.246294e+00,-1.151206e+00,3.409787e-01,-1.119178e+00,2.791264e-01,7.630534e-01,-7.711800e-03,7.505054e-01,1.520212e+00,-4.747222e-01,2.515111e-01,5.163385e-01,
-8.620447e-01,-2.480280e+00,8.829786e-01,8.147027e-02,-4.368462e-01,1.371995e-02,1.300003e+00,-3.220701e-01,1.816319e+00,-5.065216e-01,-1.820043e-01,-1.853878e+00,-1.316329e-01,-1.503918e+00,-8.258721e-01,-2.200707e-01,5.378741e-01,-6.317552e-01,-8.656318e-01,4.322018e-01,9.368798e-01,2.098124e-01,2.314833e-01,1.177963e+00,-1.008604e+00,2.154176e-01,4.514222e-01,-1.802948e-01,5.477534e-01,-1.486551e-01,-1.872931e+00,3.986130e-01,6.410919e-01,-1.148318e+00,-7.816424e-01,4.549928e-01,-4.034976e-01,-3.616027e-01,4.603154e-02,-4.219988e-01,1.282340e+00,-7.066333e-01,2.117473e-01,3.734083e-01,-5.607106e-02,-7.383310e-01,-9.702389e-01,1.234893e+00,-7.278125e-01,1.114804e+00,
1.171572e+00,-4.786059e-01,-5.249130e-01,1.833157e-02,3.597194e-01,-7.044290e-01,3.957202e-02,-2.377124e+00,-3.803860e+00,2.115389e-01,-1.433799e+00,-1.448293e+00,2.725233e-02,-5.596395e-01,7.350666e-01,1.902701e+00,1.409676e+00,3.658213e-01,-1.599081e+00,1.071654e+00,1.188252e+00,2.416089e-01,-7.195825e-03,-6.808499e-02,1.070676e+00,-2.747737e+00,1.788843e-01,1.302507e+00,4.509342e-01,6.660148e-01,-1.514929e+00,1.791774e+00,1.597148e+00,-2.369102e+00,-2.035204e+00,3.408573e-01,1.320095e+00,3.972738e-01,3.354509e+00,1.485689e+00,-9.117179e-01,1.311610e+00,3.278463e-01,9.279450e-01,-1.422809e-01,7.045344e-01,1.285686e+00,-3.022005e+00,-1.278860e+00,-1.041922e-01,
8.917960e-01,-7.963597e-01,-1.054710e-02,2.046941e-01,-5.676137e-05,3.461387e-01,-1.734533e-01,-1.410443e-01,1.188021e-01,5.930505e-01,-3.315262e-01,-2.541386e-02,-2.609376e-03,-6.855009e-01,-3.229647e-01,1.930039e+00,-1.311320e-01,-2.919316e-01,6.151344e-01,2.876214e-01,3.361682e-01,-4.367519e-01,-2.403544e-01,3.252130e-01,-5.215851e-01,8.943932e-02,-9.795574e-02,8.402099e-01,-2.054657e+00,8.940792e-05,3.818708e-01,-4.452580e-02,2.137222e-01,9.059276e-01,-3.820423e-01,-5.841032e-02,7.977489e-01,9.921495e-01,3.829503e-01,9.671808e-01,-8.352429e-02,7.301480e-02,-9.515008e-01,6.291951e-03,-7.836712e-01,-1.713927e-01,7.877468e-01,-1.013062e+00,3.446705e-01,3.199129e-01,
-4.183953e-01,1.450508e+00,3.755350e-01,3.877749e-02,5.228379e-01,-2.277323e+00,6.945255e-01,-1.438689e-01,8.415557e-01,3.474318e-01,-6.636940e-01,3.681824e-01,8.589361e-01,-2.695811e-01,-1.310062e+00,1.756469e+00,-2.077801e+00,4.605264e-01,1.720278e-01,-2.142373e+00,1.133128e+00,2.753333e-03,-6.713612e+00,-3.504391e+00,-1.930229e-01,4.583070e-01,-8.951035e-01,-4.197516e-01,-1.850025e+00,-1.541907e+00,1.168296e-01,3.450368e-01,3.672266e-01,6.081759e-02,4.250776e-01,-2.552640e-01,-1.484083e+00,-6.387662e-01,-1.852045e+00,1.402617e+00,1.466648e+00,2.199119e-01,5.822162e-01,-2.645640e+00,7.548624e-02,-7.436722e-01,2.428394e-01,3.113591e+00,2.286931e-01,4.064935e-01,
-7.556059e-01,-3.331857e-01,-3.373207e-01,2.812335e-01,6.660623e-03,4.968890e-01,-2.340350e-01,2.622156e-01,-2.934153e+00,3.540588e-01,-7.416429e-02,7.054362e-02,-8.492470e-01,3.668619e-01,9.712882e-02,-1.146941e+00,1.246291e+00,1.270917e-01,-1.061709e+00,-1.293876e+00,4.579343e-01,2.519119e-01,-5.302200e-02,-9.115195e-01,1.337969e+00,4.016660e-02,-3.698203e-02,-6.281092e-01,8.297234e-02,5.264211e-01,-3.699612e-01,5.793905e-01,1.172961e+00,-1.217331e+00,1.088341e+00,-3.728110e-01,3.039790e+00,5.954285e-01,-2.264915e+00,8.518944e-01,-5.923117e-01,-4.917192e-01,-4.598567e-02,-3.036910e-01,-1.616522e-02,-4.978569e-01,6.701339e-01,-1.217275e+00,-4.406489e-01,-1.512820e+00,
2.290137e-02,-4.360233e-03,-9.112164e-03,-2.053412e-02,-6.273990e-02,-1.052760e-02,5.093646e-03,8.899949e-03,-3.966914e-02,-5.689292e-02,-4.667210e-03,1.839998e-02,5.477340e-03,-3.216740e-02,1.631415e-02,-1.271924e-02,-2.313611e-02,5.771836e-03,8.871895e-03,-6.773870e-02,-5.016739e-03,-5.479616e-03,-4.546312e-03,-3.490617e-02,4.133888e-02,-5.889732e-02,3.948730e-02,-4.759038e-02,6.855670e-03,-4.305642e-02,-3.974236e-02,-2.201762e-02,-4.069607e-03,2.759490e-02,1.995366e-02,-5.641956e-02,-4.451950e-02,-5.430728e-03,-4.692147e-03,-3.694573e-02,3.405401e-02,-4.482207e-02,-4.841402e-03,-2.015749e-02,-3.744754e-02,2.220278e-02,-9.501718e-04,9.946944e-03,3.860031e-03,1.117490e-02,
1.644416e+00,-2.712423e+00,9.231243e-01,3.237469e-04,7.220807e-02,-1.479743e+00,-2.376035e-01,2.954313e-01,-3.144794e+00,3.619805e-02,8.493323e-01,-5.059912e-01,5.209537e-01,6.307542e-01,3.880988e-01,2.169506e-01,2.941942e-01,3.532746e-01,-6.199222e-01,8.648351e-02,-1.462201e+00,-4.758303e-01,9.281203e-01,-2.650907e-04,1.913893e+00,-3.457139e+00,-7.678286e-01,7.002522e-01,7.553795e-02,-5.122568e-01,3.663545e-01,6.600640e-01,-1.996878e-01,1.831827e-01,-1.205651e-01,5.062273e-02,2.039469e+00,-5.265176e-01,-9.599507e-01,-1.663254e+00,-1.995346e+00,-7.828876e-01,2.840699e-01,-1.059381e+00,-1.883107e-02,-1.274456e-02,-3.009953e+00,-3.892595e+00,2.133759e-02,3.511567e-01,
6.879644e-01,-1.727697e-01,1.382728e-01,-2.960772e-01,-1.501329e+00,8.649326e-01,-1.728603e+00,-4.517761e-01,-1.431511e+00,8.479878e-01,-5.694492e-02,1.350942e+00,1.055404e+00,-1.883724e-01,1.327471e-01,-1.035507e+00,1.424255e+00,1.041969e+00,4.645820e-01,3.228251e-01,6.897691e-03,1.703932e+00,-4.130580e+00,-1.968907e+00,1.701259e+00,5.571472e-01,4.275940e-01,3.788548e-01,1.203615e+00,-2.331187e-01,2.553770e-01,7.448888e-01,-4.963869e-01,6.015482e-01,-3.527009e-01,1.205649e+00,1.472692e+00,-7.592500e-01,5.395566e-02,-6.256624e-01,2.869225e+00,-1.167259e+00,-5.756398e-01,-6.961004e-02,7.277365e-03,1.189929e+00,-1.635897e-02,5.696472e-01,-1.971712e-01,-4.090781e-01,
-8.259428e-01,-6.364542e-02,6.827921e-02,1.752264e-01,-2.782503e-01,-1.189611e-01,-1.450060e+00,-6.825653e-01,-1.512019e+00,-4.412521e-01,-1.509552e-01,2.399649e-01,4.219548e-01,5.030455e-01,5.492522e-01,3.128878e-01,-6.499968e-01,2.204868e-01,-1.502343e-01,-4.596618e-01,1.203889e+00,2.278441e-02,1.025231e+00,-3.309749e-01,-4.285915e+00,-3.013147e-01,-9.405035e-01,-3.826089e-01,5.781418e-01,4.991409e-01,-1.869582e+00,8.996593e-01,-1.964798e-01,-9.412695e-01,-1.586388e+00,4.799812e-01,6.702458e-01,1.034860e-02,-2.238176e-01,5.316160e-01,1.551600e-01,-2.278206e-01,1.730497e-01,2.785092e-02,-1.528932e-01,4.015928e-01,2.716724e+00,-1.405497e+00,9.097699e-01,-2.338055e+00,
1.293499e-01,7.577388e-01,8.239616e-01,1.748938e-01,-2.925389e-01,-5.251052e-01,-8.852977e-01,-1.918215e-01,-8.592492e-01,-1.179315e-01,3.867624e-01,-5.346136e-03,7.176404e-01,-4.386168e-02,3.482362e-01,3.516128e-01,6.718492e-01,-5.415031e-01,6.349738e-01,-4.739606e-01,4.092526e-01,1.666107e-01,2.062232e-01,-6.553788e-01,-2.241024e+00,-3.072240e-01,4.793910e-01,1.112523e+00,1.455033e+00,4.954779e-01,-3.199914e-01,2.436650e-01,2.659620e-01,-3.155626e-01,-6.100759e-01,1.476658e+00,1.652593e-01,-2.502710e+00,3.325200e-01,-3.394037e-01,-1.382815e+00,-5.287472e-01,4.707587e-01,-5.566294e-01,3.219394e-01,-1.713483e-01,-1.083010e+00,-2.978414e-01,3.458625e-01,9.500034e-01,
1.396789e+00,1.510277e+00,-2.222928e+00,-2.682981e-02,-3.392867e-01,5.736590e-01,1.581552e+00,-1.988893e+00,-5.927242e-02,1.308736e+00,8.538402e-01,7.129454e-01,-2.750009e+00,1.452757e+00,5.943564e-01,-1.332804e+00,-6.665565e-01,-9.409968e-01,4.139080e-01,-1.684760e+00,5.366773e-02,-1.682283e+00,2.193847e-01,1.522696e+00,1.659788e+00,4.811966e-04,-1.258242e+00,-1.836345e+00,-1.199035e+00,-8.041714e-02,-3.254341e+00,-1.665544e+00,-3.567201e-01,8.430753e-01,-1.003540e+00,-5.368942e-01,-1.064181e+00,-3.634656e-01,-6.092189e+00,-1.288246e+00,2.781480e+00,-1.097844e+00,-1.890984e+00,-8.278394e-01,4.778142e-02,2.568258e+00,5.432961e+00,-1.258084e-02,2.711740e-02,-4.079443e+00,
1.417707e+00,-1.712814e+00,-3.876169e-01,-5.704593e-02,1.438863e+00,3.510664e-02,-4.309035e+00,7.282931e-01,-1.958034e+00,-5.664999e-01,2.142333e-01,-2.097933e+00,-1.374128e+00,7.402573e-01,1.960115e+00,-1.195761e+00,-5.371430e-03,1.050446e+00,-1.127004e+00,-1.024108e+00,-2.437457e+00,3.217688e-02,-2.819543e-02,-3.346142e+00,-1.365325e-01,-4.606775e+00,2.855247e+00,-9.511989e-01,7.229728e-01,5.471848e-01,1.928664e-01,-6.583944e-01,9.198598e-01,-4.561462e-01,4.912666e-02,-2.735415e-01,5.684433e-01,3.420916e-01,-8.531911e-01,-6.678111e-01,-3.120537e+00,-2.849947e+00,4.541922e-01,-5.236936e-01,5.901937e-02,9.819037e-01,-4.515495e+00,-3.995396e+00,-1.994380e+00,7.720888e-01,
4.597163e-01,-3.137587e-01,-2.238634e-01,-5.318949e+00,4.912266e-01,-8.409914e-01,7.366160e-01,-4.488866e-01,5.134131e-01,1.077585e-01,-3.277175e-01,-6.429127e-01,2.709657e-01,-3.941312e-01,5.446159e-01,-8.335431e-01,3.845757e-01,3.026325e-01,6.329525e-01,1.691565e+00,-9.535813e-01,2.660017e-02,1.264082e-01,5.054264e-01,3.208963e+00,-1.514501e-01,-2.297328e-01,2.044266e+00,3.014955e+00,5.547152e-01,3.269012e-01,4.848910e-01,-1.170065e-01,4.259689e-01,2.708248e-01,-3.643540e-02,-9.177078e-01,1.105207e+00,2.122358e+00,-6.981443e-02,1.385992e+00,8.128337e-01,7.587345e-01,2.707040e-01,-5.861250e+00,4.824479e-01,1.375038e+00,1.285361e+00,-1.058050e-01,1.804119e+00,
5.077810e-02,1.894080e-02,-4.946790e-02,-2.380990e-02,-2.536470e-02,-7.278620e-03,-4.131700e-02,2.366970e-02,-4.242400e-04,-2.423970e-02,2.000310e-02,-6.265510e-03,-6.696580e-02,-4.094020e-02,-5.247810e-02,2.833240e-02,-2.358450e-02,5.117470e-02,-3.352310e-02,2.897690e-02,4.596360e-03,-1.220040e-03,1.528090e-02,-2.666250e-02,6.636160e-02,-2.524740e-02,-2.173070e-02,-5.925240e-02,-6.578220e-02,-2.236670e-03,-1.160790e-02,4.529360e-02,-2.174200e-02,6.724120e-03,-3.145800e-02,-1.010680e-02,4.056240e-02,-5.056120e-03,2.043000e-02,-2.281180e-02,-4.375570e-02,-8.606160e-02,-3.461000e-02,-6.159660e-02,-4.135980e-02,2.588390e-02,-3.408540e-02,3.606980e-02,-8.430150e-03,2.794930e-02,
7.311046e-01,1.849797e+00,-4.926022e-01,-1.624601e-01,-1.827033e-02,-2.376900e-01,2.055014e-01,1.651334e-01,2.821325e-01,-1.667188e-01,5.081657e-01,-7.329572e-01,-2.468032e-01,-6.616887e-02,2.660344e-01,-2.352533e-01,7.521535e-01,-8.320114e-01,-6.696452e-01,8.864039e-01,6.382495e-01,-2.445458e-02,-2.022952e+00,1.334107e+00,2.195198e+00,6.765419e-01,-5.070536e-01,2.667952e-01,6.322523e-01,-3.553577e-02,-2.982267e-01,7.287452e-01,3.248547e-01,-2.336098e-01,9.380972e-02,4.814715e-01,-1.152642e-01,9.598278e-01,6.501575e-02,7.427709e-02,1.683073e+00,-1.926693e-01,4.106859e-01,-1.058594e+00,1.411895e-01,3.233545e-01,1.560153e+00,1.503742e+00,2.540206e-01,-4.005660e-01,
9.484441e-01,2.133383e-01,-4.952118e-01,-2.106753e-02,1.814328e-01,-7.776713e-01,-8.756495e-01,4.837594e-01,-1.087416e-01,-2.524652e-02,3.345807e-01,-4.208036e-01,-1.927850e+00,-6.887821e-01,2.290243e-01,9.734834e-01,-3.464941e-01,-7.735851e-01,5.471308e-02,5.747806e-01,6.899001e-02,-3.286596e-01,-1.482185e-01,2.055153e-01,1.085485e+00,-5.910648e-01,-3.353817e-01,-6.870645e-01,1.060952e+00,6.416614e-01,5.309194e-01,-1.754039e-02,6.654859e-01,-1.398559e-01,-4.944531e-01,-1.259531e-01,5.416746e-01,-2.190116e-01,2.564132e-01,4.321274e-01,-9.187373e-01,6.191584e-01,2.532816e-01,-1.232449e-02,8.123476e-02,6.565078e-01,2.596772e+00,-3.254415e-01,-2.004463e-01,1.293868e-02,
4.865171e-03,-2.632779e-02,2.339512e-02,-6.432747e-02,-3.665880e-02,-3.340800e-02,-1.745412e-02,-1.085552e-02,2.200504e-02,2.355812e-02,6.599398e-03,1.683187e-02,-3.022517e-02,-6.622158e-03,-2.109856e-02,1.631202e-02,8.546292e-03,-3.290166e-02,1.972070e-02,-4.444880e-02,-2.375180e-02,2.864908e-03,-1.440587e-04,2.517860e-02,1.976162e-02,-8.338112e-03,4.274860e-03,-4.406237e-02,-1.103900e-02,-3.205023e-02,2.343507e-02,7.789330e-03,2.212107e-02,-6.949122e-03,-2.405769e-02,-5.290846e-03,2.859120e-02,-4.499890e-02,1.950537e-02,1.834008e-02,-5.004788e-03,-3.453229e-03,-2.675031e-02,-2.321009e-02,-2.860408e-02,1.565962e-02,3.276440e-03,1.584115e-02,-2.299338e-02,-2.183352e-02,
-1.639119e-02,-5.723250e-04,-1.607806e-02,-9.692551e-03,-1.874230e-02,1.969700e-02,-3.326114e-02,-3.293450e-03,-4.489900e-02,1.449256e-02,-4.760505e-03,4.214115e-03,-3.876005e-02,-2.237836e-04,3.713156e-02,-2.680479e-02,-1.699946e-02,-4.565666e-02,1.481993e-02,-4.615430e-02,-4.319109e-02,-2.784175e-02,-2.108460e-02,-8.603687e-03,4.122375e-03,-5.535749e-04,-4.666330e-02,-4.986753e-04,-6.214730e-02,-6.453547e-03,6.455347e-05,1.044804e-02,-2.401154e-02,-4.031796e-03,3.991389e-02,-3.401103e-02,-2.331900e-02,-2.144661e-03,-3.998818e-02,-2.553505e-02,-3.790379e-02,-6.591032e-04,3.473742e-02,3.190121e-03,-2.038971e-02,-4.038212e-02,1.340286e-02,-3.965332e-02,1.582065e-02,-2.966054e-02,
6.195509e-01,1.369897e-01,4.993780e-01,3.242995e-01,-1.523129e-01,-9.121001e-02,5.197898e-03,-6.198212e-02,1.285885e+00,2.220623e-01,-4.410526e-04,-7.159926e-02,2.322607e-01,-1.327849e-01,2.288541e-01,1.312411e+00,5.817061e-01,2.213927e-01,-6.389503e-01,2.680649e-01,9.257388e-01,-1.791270e-01,6.577876e-01,8.088548e-01,2.516760e+00,4.055752e-01,2.325675e-04,7.814098e-01,-6.681746e-01,1.724552e-01,-1.928641e-01,9.469362e-01,3.799710e-04,-1.241771e-01,9.854494e-01,-3.903518e-01,1.059973e+00,1.134525e-01,2.068066e+00,5.814090e-01,7.913617e-01,1.468202e-01,1.891202e-01,2.567483e-01,4.377488e-01,1.212816e-01,8.902659e-01,9.625853e-01,2.660673e-01,1.340479e+00,
5.866596e-02,-3.009132e-01,2.652202e-01,-6.722085e-02,-3.989701e-01,3.630257e-01,6.183879e-01,7.141572e-01,-5.865053e-01,1.225274e-01,4.294434e-01,6.724023e-02,2.962641e-01,5.208826e-01,2.642357e-01,3.752132e-01,-1.216709e-01,-1.863560e-01,1.274850e-01,-4.388231e-01,3.278002e-01,2.907580e-01,1.297414e-01,-3.902582e-01,-1.770459e+00,-3.316735e-01,1.000349e+00,3.804884e-01,-2.562369e-01,-6.319851e-01,-8.239388e-01,1.387046e+00,4.881727e-01,-5.228898e-01,-1.649679e-01,-1.481211e-01,9.760100e-01,-1.222914e+00,1.799373e+00,-2.466890e-01,-1.453512e-01,-9.738128e-01,7.457598e-02,-2.443737e-01,1.285052e-01,-5.282255e-01,-5.453543e-01,-2.530742e-01,4.692309e-01,3.382096e-01,
-1.055950e-02,1.031096e-03,3.125324e-01,3.485056e-01,-3.510753e-02,-2.406909e-01,8.525326e-02,-1.691025e-02,2.398197e-01,-1.369718e-01,-4.183191e-02,-3.608794e-01,2.074071e-01,2.732895e-01,5.530714e-01,1.636109e+00,-4.166682e-01,6.571579e-01,-7.156442e-01,1.156840e+00,-2.138657e-01,2.387104e-01,1.080588e+00,-5.927964e-01,-1.138646e+00,7.368402e-01,2.454646e-01,-4.194847e-01,7.059864e-01,6.654680e-01,-8.084372e-01,3.542649e-01,-1.830943e-01,-6.403648e-01,5.564955e-01,5.130472e-01,1.963250e-01,-1.527032e-01,3.453369e-01,-8.309472e-02,-9.327931e-02,6.300503e-02,-3.201722e-01,-8.959051e-01,-4.173654e-01,-1.234922e-01,-1.814576e-02,-2.311380e-02,-1.793162e-01,1.245979e+00,
1.348590e-01,-1.033979e+00,-5.112444e-01,-6.112804e-02,4.668740e-01,3.500114e-01,-1.741955e+00,-1.287341e+00,5.831039e-01,-5.076364e-03,-8.791431e-01,-3.758169e-01,-9.029418e-01,-6.449074e-01,-2.455894e-01,-3.650950e-01,3.195647e-01,1.964635e-01,5.749491e-03,7.970341e-02,-2.012125e-01,-6.678984e-01,1.765170e-01,-2.183734e+00,-5.921007e+00,9.041548e-01,-1.518015e-01,8.105376e-01,-9.672428e-01,7.989193e-01,-2.127486e-01,1.108661e+00,8.461470e-01,-2.457332e-01,3.275382e-01,-9.361475e-02,-8.018871e-01,7.239974e-01,2.537970e+00,-6.254762e-01,-2.508508e+00,-7.107916e-01,3.147315e-01,5.022010e-02,7.049424e-02,-4.604551e-01,-3.869940e+00,1.198692e+00,-1.128098e+00,-4.328193e-01,
6.852686e-01,6.101305e-01,-4.012695e-02,6.175984e-02,3.751900e-01,6.236939e-02,5.671495e-01,-4.551438e-01,-3.003948e-01,1.374692e-01,4.855081e-01,-1.282846e-01,-2.099653e+00,-1.197493e-02,-4.398124e-01,-5.530586e+00,8.533468e-01,-9.543297e-02,1.104881e-01,6.645298e-02,5.322222e-01,7.183840e-01,-2.296399e-01,5.695829e-01,1.100316e+00,1.674027e-01,-4.567669e-01,7.838105e-01,9.886571e-01,-1.727785e-01,3.914120e-01,-4.522382e-01,-6.346948e-01,-8.305307e-02,-4.419612e-01,-5.722663e-01,1.650073e+00,-4.866417e-01,1.620426e+00,7.347893e-01,1.183658e+00,-1.021756e+00,1.187281e+00,1.742741e-01,2.440875e-01,6.659485e-01,2.401437e-01,-1.122676e+00,-2.925570e-01,-1.848866e+00,
-5.791969e-01,-1.506854e-01,9.143732e-02,-2.192329e-01,-2.538506e-03,-7.144816e-02,-7.785481e-01,-5.432872e-01,-1.276281e+00,2.564430e-01,5.435817e-01,-2.613162e-03,-1.175037e+00,-2.079737e-01,-9.912549e-02,3.860210e-01,5.640167e-01,4.170257e-01,5.814380e-01,2.593559e-02,1.501703e-01,3.555880e-01,1.202693e-01,-3.482094e-01,1.269150e-01,-5.588585e-01,1.706788e-01,8.739817e-01,-3.516586e-01,-1.287250e-02,8.265159e-01,1.446552e+00,2.801638e-02,-2.412193e-01,-2.891567e-02,3.951962e-01,6.427029e-01,-8.918232e-02,8.576889e-02,-6.336053e-02,7.504185e-02,-1.373093e+00,9.794080e-01,-6.991433e-02,1.327471e-01,-1.730406e+00,1.863796e-02,4.603541e-01,9.961394e-02,-8.802505e-01,
-5.604390e-02,-5.167900e-02,-1.067730e-02,-1.435400e-02,-4.732880e-02,-3.885760e-02,3.305131e-03,-1.390600e-02,-1.839380e-02,-3.938820e-02,-1.128854e-02,1.614913e-02,-5.824440e-02,-7.405648e-03,-1.965931e-02,-3.789630e-02,-8.436396e-03,-8.295720e-03,6.316015e-03,-3.423871e-02,1.759969e-02,-3.121804e-03,-2.874814e-02,-5.276410e-02,-5.038270e-02,2.604310e-02,1.920490e-02,-1.691380e-03,9.224772e-03,-6.605330e-02,-4.542710e-02,-5.599280e-02,-1.709633e-03,2.256495e-02,-4.167480e-02,-2.283360e-02,-1.815210e-02,2.211928e-02,2.278120e-03,-1.917454e-02,-2.180615e-02,-2.113040e-03,4.945570e-04,1.942424e-02,-5.668560e-02,-6.325405e-02,-2.649600e-02,-3.802190e-02,3.252360e-02,3.329080e-02,
2.685023e-01,-3.170565e-01,-3.172083e-01,2.777230e-01,-1.278729e-01,5.714464e-01,1.488983e-01,-4.428001e-02,2.803943e-01,4.704304e-02,6.644000e-02,-5.215381e-03,-3.679266e-01,2.335396e-01,-4.759425e-02,1.708936e-01,-2.312400e-01,7.079816e-02,-7.967558e-02,-2.178811e-01,2.392744e-01,1.113339e-02,-3.655644e-01,4.965104e-01,1.122394e-01,1.128688e-01,-5.672801e-01,4.830238e-01,9.040628e-02,-2.074335e-01,-3.964351e-01,3.751516e-01,-3.216883e-01,-1.226250e-01,3.163666e-01,-4.824542e-01,-3.532691e-02,1.210920e+00,-2.277170e-01,-4.365157e-01,2.573795e-01,1.526739e-01,9.280235e-02,2.944434e-01,-1.756209e-01,1.046955e-01,4.101900e-01,9.804083e-01,-1.254428e-01,-1.960624e-01,
1.611647e-01,-1.509937e+00,-4.405808e-01,-1.055420e+00,-1.485604e-01,-8.415236e-02,-5.118874e-01,-2.342722e-01,5.658428e-01,-1.749700e-01,-1.010206e+00,7.414863e-01,8.236859e-01,-2.209297e+00,5.355833e-02,2.459956e+00,-5.339487e-02,4.544703e-01,4.831830e-01,1.778753e+00,-9.502566e-01,-7.158245e-01,-3.204389e-01,-1.258220e+00,1.404138e+00,-4.447247e-02,8.773438e-05,1.271946e+00,4.702945e-01,2.202789e-01,3.957954e-02,-1.659000e+00,-1.904494e-01,3.475871e-01,-1.615268e-02,-6.577674e-02,-6.230474e-01,8.964410e-01,9.284986e-01,4.221116e-01,-3.288171e-01,-6.629167e-01,3.358621e-01,5.139114e-01,1.317369e-01,1.387657e-01,-1.289871e-03,-3.613980e-01,-3.599723e-01,4.716343e-01,
3.396277e-01,1.370436e+00,4.185867e-01,-2.488056e+00,-2.578445e-02,8.397955e-01,1.056506e+00,6.734453e-01,-8.678333e-01,6.963094e-01,2.614395e-01,-3.856386e-01,2.914318e-01,-5.957709e-02,-5.282035e-01,-3.977410e-03,-3.540426e-01,4.535968e-01,-4.172152e-01,3.972230e+00,1.039615e+00,3.225390e-01,9.152679e-01,-3.630831e-01,6.902306e+00,-6.019248e-01,6.510903e-01,2.014287e+00,1.774446e+00,-1.973523e-04,1.079646e+00,-1.908759e-01,-5.152951e-01,-1.772302e-01,-1.792012e-01,3.134916e-01,5.883957e+00,4.583727e-01,-8.986075e-01,1.813165e+00,3.157229e-01,2.005749e+00,2.144193e-02,3.076374e-01,-5.960922e+00,6.269298e-01,-9.047722e-01,1.723532e-01,2.230889e-01,-8.632405e-01,
-3.975967e-02,3.075122e-02,2.250009e-02,-1.086411e-02,-2.173410e-04,1.709430e-02,3.870332e-03,-1.459776e-02,-2.338146e-03,2.031009e-02,-1.433392e-02,-9.191830e-03,-3.149391e-02,1.776284e-02,1.580305e-02,1.848866e-02,-1.626913e-02,3.170699e-02,1.898967e-02,-8.767560e-04,7.125341e-04,-8.212502e-03,-4.337228e-02,1.189173e-02,-3.115576e-02,2.165178e-02,3.073700e-02,1.647435e-03,-3.582980e-02,-4.776030e-02,-1.686927e-03,-2.709852e-02,-9.457738e-03,-4.001274e-02,-2.457384e-02,-1.907642e-02,3.435270e-02,-5.863032e-03,-7.530696e-03,-3.178056e-02,-5.174129e-03,-1.485042e-04,-1.289001e-02,-3.454299e-02,-3.412770e-02,2.180609e-02,-1.714274e-03,6.714758e-03,-2.482623e-02,-2.202143e-02,
-2.451042e-01,1.080400e-02,1.392990e+00,2.114635e-01,2.348554e-01,7.161803e-02,-6.926505e-02,1.501597e-01,-1.609638e+00,-1.377921e-01,4.712295e-01,3.553168e-01,6.212183e-01,-1.019966e+00,2.367916e-01,2.939811e+00,-7.517080e-02,1.434316e-02,1.662604e+00,-2.739339e-01,-7.507036e-01,-5.056817e-01,2.243017e-02,-1.595770e-01,7.482797e-02,-4.792946e-01,-5.809917e-01,-2.103983e-01,-5.808192e-01,1.211499e+00,9.540631e-02,1.037634e+00,-3.079945e+00,-2.458762e+00,3.103432e-01,-1.723909e-01,8.967071e-01,1.263388e-01,-6.628882e-01,-1.925716e+00,-4.783301e-04,-3.842457e+00,8.640218e-01,6.567861e-01,-2.586750e-02,3.670704e-01,2.397955e-02,-4.916300e-01,-3.016933e-01,2.223978e+00,
2.915479e-01,-1.259321e+00,-2.708122e-03,1.137299e-01,-1.300186e+00,-7.725680e-02,2.978627e-01,7.230398e-02,8.149006e-02,-4.053848e-01,-8.776958e-01,4.921017e-01,-4.877376e-01,4.258888e-01,3.449825e-01,-3.040936e-01,1.045710e+00,-2.663291e-01,1.896593e-01,4.634249e-01,5.901693e-01,-1.054714e-01,-1.086804e+00,4.632047e-01,8.351386e-01,3.087823e-01,-8.357847e-01,3.457781e-03,-2.446531e-01,1.321122e+00,-2.743167e-01,1.027360e+00,5.480763e-01,-7.039225e-01,-3.785215e-01,2.270024e-01,-1.082280e-02,5.961272e-01,2.226663e-01,-4.216497e-01,1.969405e-01,1.001064e-01,-1.344540e-01,1.949765e-01,-5.788195e-02,1.340665e+00,5.694248e-02,8.333672e-01,3.960604e-01,6.519049e-01,
9.916261e-01,
-5.943926e-01,
-1.988470e-02,
1.573924e-01,
7.595154e-01,
-6.162786e-01,
-1.729756e-02,
-3.391227e-01,
-8.137069e-01,
7.290741e-01,
-3.660692e-02,
1.625381e+00,
-3.656714e-01,
-1.508354e-02,
-8.246285e-02,
3.318817e-01,
2.721333e-01,
-2.969079e-01,
-3.511513e-01,
9.474123e-01,
2.321030e+00,
4.489107e-01,
-3.537101e-01,
3.864567e-01,
-2.838752e-02,
2.857608e-01,
-7.141448e-02,
4.428143e-01,
-1.173883e+00,
-4.123849e-01,
5.460758e-01,
-2.152461e-01,
-1.138660e-02,
-5.425225e-01,
-2.335789e-01,
-2.617784e-02,
-1.963378e-02,
-2.503544e-01,
-5.160087e-01,
-3.382493e-01,
1.008031e+00,
-7.625356e-01,
-4.806615e-01,
-2.607745e-02,
1.362163e-01,
-6.836901e-01,
-6.005324e-01,
-3.065158e-02,
-4.319759e-01,
-5.716633e-01,
-6.327035e-01,6.389961e-02,2.369979e-03,1.208319e-01,-3.997624e-01,-9.118768e-02,-6.623878e-03,-1.066966e+00,6.535668e-01,-4.268222e-01,-3.261602e-02,4.146381e-02,-8.475308e-01,3.158643e-02,-1.027358e-02,4.751230e-01,2.596874e-01,-1.233824e+00,5.424591e-01,-3.595916e-01,1.035433e-01,-2.949569e-02,9.061331e-01,1.980545e-01,-3.601246e-02,-1.797525e-01,-1.506349e+00,8.780766e-01,1.704839e-01,1.676512e-01,3.920738e-01,-3.051416e-02,2.995510e-04,-2.139162e-01,2.766907e-01,-2.730346e-02,-4.198823e-02,-2.006088e-01,-4.345488e-01,3.058336e-02,1.120152e-01,8.083049e-01,3.696204e-01,-3.529182e-02,4.906986e-01,6.148003e-01,2.911583e-02,1.834712e-02,-6.896388e-01,-3.113419e+00,
2.958029e-01,1.607739e+00,3.063134e-03,4.779858e-01,1.473429e+00,2.546747e-02,-1.184367e-02,-2.481323e-01,-2.871261e+00,-2.189009e+00,4.595946e-04,2.669632e-01,8.278156e-01,2.207151e-03,2.310497e-03,2.221589e-02,-1.216235e-01,-3.645591e-01,1.561469e-01,-3.292357e-02,2.821783e-02,2.575623e-01,-1.417724e+00,3.284131e-01,-1.152755e-02,-4.119331e-01,-6.874201e-02,-6.533515e-01,3.309063e-01,4.838260e-01,1.329384e-01,-5.152166e-01,3.697730e-02,-1.653036e+00,-1.330928e+00,-1.244990e-02,-1.697361e-02,1.505468e-01,-2.400824e-01,-1.076672e+00,-2.455861e-01,-6.274816e-01,2.370500e-01,2.864100e-02,2.038220e-01,-1.008102e-01,1.225436e-01,-5.047702e-03,2.662737e-01,-2.948317e-01,
-4.868440e-02,1.266557e-01,3.723913e-02,-2.314029e-01,6.606779e-01,7.032056e-01,1.559737e-02,1.694250e-01,1.362455e+00,-9.452983e-02,-1.176359e-02,2.239654e-03,5.253410e-02,2.863301e-02,-4.335373e-03,1.980690e-01,1.145204e+00,2.484055e+00,-3.335670e-01,-7.737741e-01,3.009368e-01,5.482469e-01,1.539862e-01,4.209631e-01,-1.723757e-02,1.451308e-02,3.085230e-01,-3.373060e-01,-3.951937e-02,5.886390e-01,-1.543092e-01,-8.519201e-01,9.745770e-03,2.055054e+00,2.522551e-01,3.619247e-02,-6.011890e-03,-1.110853e+00,-1.078415e+00,9.205053e-02,4.525413e-02,1.531861e-01,1.084640e+00,1.214770e-02,2.431284e+00,3.330543e-01,-3.910184e-01,3.021659e-02,8.034577e-01,2.174424e+00,
2.488664e-01,-4.460445e-01,-4.055866e-03,1.265302e+00,-1.614304e-01,3.971288e-01,2.559835e-02,3.081887e-01,-1.207074e+00,1.536767e-01,-1.805175e-02,-7.404984e-01,-7.268073e-02,4.145852e-02,7.918826e-02,1.342897e-01,-2.069024e-01,-1.667586e+00,-4.974026e-01,9.876072e-02,-8.389885e-02,-2.740046e-01,7.408983e-01,-4.935410e-01,-3.947138e-02,1.553368e-01,6.077813e-01,3.076604e-01,2.399977e-01,-1.699901e-01,3.512806e-01,-1.411983e-02,-3.446520e-02,6.851233e-01,6.280324e-01,-2.247533e-02,-2.995972e-02,-1.951726e-01,-3.176164e-01,-6.305852e-01,3.956776e-01,-4.846742e-02,-3.851213e-01,-3.093010e-02,-1.592481e+00,-1.340523e-01,-2.783414e-01,-9.487736e-04,3.609641e-01,2.031325e+00,
-3.963435e-01,1.547747e-01,-3.775245e-02,-5.041795e-04,4.959195e-01,5.972393e-01,2.593908e-02,-9.087402e-01,-2.899488e+00,3.635850e-01,-4.769039e-02,2.944545e-01,4.417642e-01,-4.038620e-02,2.986128e-02,-5.891508e-01,-3.017213e-01,1.641849e+00,-5.791592e-01,1.353449e+00,5.724596e-02,1.421803e+00,-5.392609e-01,-3.894594e-01,-3.817230e-03,1.360107e-01,1.715858e-01,7.460604e-01,3.202121e-01,3.650076e-01,5.939085e-01,-4.435996e-01,9.210230e-03,1.969689e+00,-6.729963e-01,4.463733e-03,-5.078191e-03,-7.980952e-01,-1.290369e-01,1.942475e-01,7.517217e-02,-1.083763e+00,5.077984e-01,6.301416e-03,-1.727663e+00,-3.939836e-01,4.392923e-01,1.472521e-03,1.224884e+00,-1.925776e+00,
-2.404654e-01,8.235706e-02,1.081460e-02,1.997187e+00,-2.241136e-01,5.095606e-02,-7.445942e-03,8.148992e-02,9.008385e-02,-1.441098e-01,1.157061e-02,7.692244e-01,-3.076113e-01,-1.283303e-02,1.457224e-02,2.140759e-02,-2.706001e-01,-2.851952e-01,-1.237924e+00,9.557918e-01,-3.130459e-01,-2.354219e-01,2.254916e-01,7.984122e-01,2.032505e-02,-5.100693e-04,-6.171085e-02,7.678360e-02,-4.993902e-03,2.050063e-02,4.825164e-01,-4.970071e-02,-1.144760e-02,-3.168934e-01,-6.087248e-01,3.359025e-02,-7.279965e-03,-1.456335e-01,-1.343148e+00,1.425084e+00,2.719232e-01,3.376083e-01,-5.805484e-03,2.254075e-02,1.761103e+00,-1.602875e+00,7.929447e-02,-1.556262e-02,3.649391e-01,4.151996e-01,
4.573962e-01,3.287593e-01,2.519431e-03,2.090477e+00,6.493382e-01,5.620400e-01,1.319674e-02,5.605700e-01,2.336487e+00,8.110674e-01,-4.715196e-03,6.797549e-01,-1.366478e+00,2.863725e-03,-1.381509e-02,-1.587103e-01,-4.097761e-01,-1.417583e-01,5.739416e-01,1.436304e+00,-9.021477e-01,6.853269e-01,-1.344906e-01,3.777674e-01,-4.390081e-03,8.950904e-03,-3.081746e-01,-1.489572e+00,1.182440e+00,2.834651e-01,-5.361462e-01,-1.560846e+00,-3.949990e-02,3.726585e-01,-9.885855e-01,-2.956167e-03,1.090018e-02,-1.182602e+00,-1.052718e+00,1.818911e+00,5.795119e-01,1.560398e+00,1.136153e+00,-3.247680e-02,5.746322e-01,1.274588e+00,-2.577980e-01,-6.150119e-03,3.346412e-01,2.938937e+00,
4.473740e-01,1.400881e-01,-4.134120e-02,1.060967e-02,-2.743193e-01,-1.427735e+00,9.998093e-03,3.421678e-01,-1.971707e+00,-2.942472e-01,-3.178765e-02,5.237399e-02,-1.613853e-01,-2.476264e-03,-3.795604e-03,-3.425084e-01,-1.066243e+00,8.502604e-02,-1.480128e+00,6.688013e-01,-2.470280e-02,6.464738e-01,5.904313e-01,-2.954661e-01,-1.510333e-02,3.878498e-01,5.756242e-01,7.167253e-01,2.096500e-01,-2.336375e-01,2.008168e-01,-1.835859e-01,3.618010e-02,-1.126805e+00,1.307364e+00,1.368115e-03,1.776621e-02,3.732981e-02,-6.124778e-01,6.308497e-01,3.826809e-01,-4.702421e-01,-1.239084e+00,-4.302410e-02,-1.264768e+00,5.310326e-01,1.004490e-02,2.011582e-03,6.251378e-01,-1.264539e+00,
3.416327e-01,-2.385161e-01,-1.396481e-02,7.286782e-01,4.400164e-01,2.373919e-01,2.732786e-02,-6.333081e-01,-3.796855e-01,5.200572e-02,-3.968163e-02,-9.991912e-01,-5.581733e-03,-2.052556e-02,3.619528e-03,-1.149044e+00,9.122177e-02,-8.165151e-01,-1.357930e+00,-3.993955e+00,-4.457157e-01,3.260486e-01,-1.433268e+00,-1.170599e+00,-2.206070e-02,4.045172e-01,-6.031949e-02,-5.375094e-01,1.177247e+00,-5.318629e-02,3.341535e-01,5.112798e-01,-1.080770e-03,-1.405556e+00,-7.072962e-01,-3.647647e-03,2.757505e-02,1.688240e-01,-2.952268e-01,1.244547e-01,1.054665e-01,2.614236e-01,6.920316e-01,3.816260e-02,-1.573979e+00,-8.993704e-01,-9.305509e-02,4.601132e-02,5.598025e-01,1.014057e+00,
-9.341258e-01,-1.344065e-01,-1.467382e-02,-1.057585e+00,4.564807e-01,8.246004e-01,-1.534665e-02,-5.005701e-01,1.315939e+00,1.382009e+00,-4.899886e-03,4.346527e-02,3.386679e-01,-2.512013e-03,7.790933e-02,-8.864914e-01,1.689227e-01,2.084086e+00,1.122576e+00,-7.869561e-01,3.128481e-01,1.049627e+00,4.817202e-01,-8.593164e-01,6.822912e-02,-8.085775e-01,-1.028853e+00,-9.488958e-01,1.918323e+00,3.058183e-01,4.774694e-01,1.843028e+00,-6.402890e-02,-2.194479e+00,5.094969e-02,-5.491481e-03,3.667083e-02,-1.053658e+00,6.277134e-01,1.817127e+00,-9.572626e-02,-7.640476e-01,1.725246e+00,5.977887e-02,4.265285e-01,1.601163e+00,8.040583e-01,-4.717649e-03,1.484118e+00,1.178488e+00,
-2.243733e-01,1.104131e-01,-3.851493e-02,9.365897e-01,1.555724e+00,-5.437223e-01,-2.377681e-02,5.077843e-01,-1.419808e+00,-1.642155e-01,2.959104e-02,-6.099079e-01,2.230429e-01,-1.244329e-02,-2.304199e-02,-7.633302e-01,-1.864052e-02,-5.359952e-01,-6.620934e-01,1.042115e+00,-9.702544e-01,-4.382061e-01,-3.073246e-01,8.060868e-01,-4.341513e-02,-1.778745e-01,4.500013e-01,1.269731e+00,5.087553e-01,1.181737e-01,2.876492e-01,2.181295e-01,-2.285500e-02,1.799837e+00,2.619187e+00,3.126837e-02,-7.388514e-03,-1.047351e-01,3.692823e-01,4.920209e-01,-2.565722e+00,-2.002214e-01,1.016950e+00,-3.836297e-02,1.936439e+00,-4.221346e+00,3.121973e-01,-3.047932e-02,1.273524e+00,1.309680e+00,
6.996289e-01,-5.954875e-02,-3.231955e-03,6.623002e-01,-6.613429e-01,4.487179e-01,-3.126458e-03,1.276093e+00,2.023664e+00,-1.076866e+00,-1.291964e-02,1.844206e+00,-5.409456e-01,-7.861846e-03,6.707223e-03,6.731362e-01,5.165945e-01,-8.624423e-01,6.100215e-01,-2.116382e-01,-9.392648e-01,-5.502692e-02,1.463891e+00,-4.725789e-01,3.487879e-02,2.405034e-01,-2.867368e-01,-4.320490e-01,-2.192241e-01,-7.241377e-02,2.812316e-01,8.188855e-01,-4.568030e-02,4.039800e-01,-1.083747e+00,2.246204e-02,-3.899244e-02,-7.372254e-01,1.220058e+00,1.182947e+00,6.160045e-02,-1.810072e+00,-1.012380e+00,-2.426950e-03,9.506069e-01,1.927385e+00,-2.878370e-01,1.301725e-02,4.530050e-01,1.534425e+00,
-7.681689e-01,-1.516136e+00,-1.471762e-02,-8.619606e-01,-1.254615e-01,-2.570998e+00,5.317004e-03,-1.309637e-02,2.034320e-01,5.334605e-01,1.452946e-02,-1.568951e-01,1.044215e-01,1.536230e-02,-5.277711e-02,-3.028004e-01,-9.573743e-02,-2.320858e+00,2.108829e+00,1.372959e+00,1.253755e-01,1.013364e+00,7.604020e-01,-9.008481e-01,-1.902834e-02,8.917771e-01,-1.434784e-01,3.719927e-01,-6.487050e-01,-3.630032e+00,3.761359e-01,-3.787463e-01,-2.463710e-02,-1.706846e+00,-3.424069e+00,2.429650e-02,-3.700119e-02,1.517994e-01,-2.440854e+00,3.023076e-01,1.251043e-01,-3.715802e+00,-4.812485e+00,-2.770340e-02,-5.419064e+00,-5.768649e+00,3.110852e-01,-1.726469e-02,-2.277396e+00,-3.066113e+00,
5.905024e-01,4.596765e-01,-5.881119e-03,1.381670e-01,8.685499e-01,3.387676e-01,-3.722890e-02,5.792422e-01,7.611084e-02,3.218627e-01,-7.118013e-03,1.715866e-01,1.052478e+00,2.027770e-02,-1.958096e-02,-2.770481e-01,-4.267434e-01,4.493659e-01,-4.110786e-02,6.709048e-01,-1.005455e+00,-5.329591e-01,2.116683e-01,4.210247e-01,-2.081316e-03,2.977299e-02,1.573410e-01,1.357342e-01,5.124115e-01,-6.278540e+00,-3.054667e-01,-5.277578e-01,3.988900e-02,4.315439e-01,7.372349e-01,2.080801e-02,-3.161257e-02,-9.224541e-01,6.948420e-01,1.301542e+00,1.077382e+00,1.946169e+00,-1.149732e+00,4.636820e-03,7.161765e-01,1.019743e+00,6.342737e-02,-1.939425e-02,7.075936e-03,5.714978e-01,
-1.594413e-01,-2.662011e-01,3.283884e-02,-1.526547e+00,-5.396712e-01,-6.962539e-01,-3.686237e-02,-8.023289e-01,-1.238178e+00,6.999800e-01,-1.989610e-02,-8.564907e-01,6.400315e-01,-3.651235e-02,2.265060e-02,-1.469165e-01,1.606909e+00,6.932352e-01,3.880260e-01,1.467298e+00,-6.227632e-01,2.555206e-01,-1.176138e+00,6.233203e-01,-3.927334e-02,-5.732074e-02,2.429470e-01,-3.423229e-01,2.191730e-01,-8.529886e-01,-9.116434e-01,2.913685e-01,-6.941800e-03,5.620276e-01,1.671354e+00,-3.688061e-02,3.468696e-03,6.090240e-02,9.707248e-02,-1.143728e+00,-2.006231e-01,-1.686696e+00,2.305744e-01,3.140850e-02,1.549081e+00,-8.629034e-01,2.733801e-01,-4.187003e-02,-1.510823e-01,8.977721e-01,
3.097018e-01,1.822118e+00,-4.994147e-03,-6.307445e-01,1.439736e+00,1.887716e-01,1.293031e-02,4.180706e-01,-1.232679e+00,-3.906831e-01,-6.485285e-03,2.664210e-01,-5.460936e-01,1.572879e-02,-6.134509e-02,1.705467e-01,-8.138645e-01,-1.353664e+00,-7.896687e-01,8.230387e-02,4.550668e-01,-7.009057e-01,7.764321e-01,7.819607e-01,-2.283578e-02,-2.893378e-01,4.012818e-01,-2.414417e-01,-2.932841e-01,6.450369e-01,2.198405e-01,-1.265369e+00,1.120970e-03,-2.545228e+00,-1.086211e+00,4.157633e-02,6.345856e-03,-1.591758e-01,-4.441014e-01,1.599901e+00,2.539015e-01,3.423501e-01,9.138181e-01,2.711750e-03,4.783164e-01,-1.396332e+00,1.313938e-01,6.326672e-03,-1.275219e+00,-3.465571e+00,
3.787240e-01,1.550029e-02,1.391685e-02,1.056356e+00,5.092713e-01,-1.827188e-03,-1.363411e-02,3.989092e-02,-6.250956e-01,1.212249e+00,-4.989327e-03,-1.466860e-01,8.182777e-01,-8.843130e-03,-1.002952e-02,2.536894e-01,5.671424e-02,4.783554e-01,9.831203e-01,1.233947e-01,-4.082897e-01,7.649775e-01,6.264431e-01,-4.034968e-01,-4.741867e-03,2.622125e-01,7.190989e-03,7.588247e-03,9.828398e-02,-1.613224e-01,1.451586e-01,1.204650e-01,3.673710e-02,3.761488e-01,2.278366e-01,-2.136367e-02,2.479303e-02,-3.617610e-01,1.663895e+00,-1.036648e+00,5.641559e-04,2.812096e-02,3.379323e-01,-3.113750e-02,-8.262165e-05,2.360213e-01,-2.659399e-01,5.511404e-03,1.848834e-01,5.370518e-01,
4.440293e-01,-5.406830e-01,-1.652404e-02,-4.780288e-01,-5.949603e-01,-9.317035e-01,3.155337e-02,1.171198e-01,-4.973754e-02,-1.821383e-02,-3.143386e-02,-4.175143e-01,4.563971e-01,-4.283904e-02,1.772191e-04,2.766207e-01,6.448021e-01,-2.111556e-01,5.729008e-01,5.754001e-01,-7.362839e-01,6.272352e-01,-8.486570e-01,8.563588e-01,-3.066491e-03,1.658452e-01,1.822081e-01,4.876698e-01,3.426156e-01,-1.103335e+00,-1.694742e-01,8.369523e-02,1.623080e-02,1.242724e+00,1.053543e+00,1.693094e-02,-2.436018e-02,9.927620e-02,1.137266e-01,-2.428797e-02,-6.648780e-02,-3.625208e-01,1.559074e+00,-4.088760e-03,5.579957e-01,-7.730924e-01,-1.333643e-01,2.518556e-02,1.516616e-01,2.859438e-01,
4.828804e-01,-1.925361e-01,2.868608e-02,1.365619e+00,-2.648878e-02,-6.235361e-02,3.492759e-02,-1.042098e-01,1.254043e+00,-5.624113e-02,2.750055e-02,-4.410211e-01,1.249733e+00,-3.539637e-02,-6.663801e-03,8.148716e-01,1.524150e+00,2.372070e-01,1.313027e-02,7.149373e-01,-2.247977e-03,-5.155350e-01,-2.056177e+00,-3.720487e-03,-4.413658e-03,6.548633e-02,7.497221e-02,1.892462e-01,-1.122224e+00,1.016114e-01,6.896518e-01,-2.839635e-01,1.371030e-02,2.668783e+00,7.460114e-02,-4.481541e-02,3.656253e-02,-2.825063e-01,-2.215035e+00,1.966297e-01,2.021535e-01,-4.426175e-01,-1.697596e+00,-1.940010e-02,8.300238e-01,9.967876e-04,2.437068e-01,-5.074875e-03,-4.038797e-02,2.239902e+00,
-6.118525e-01,-4.834536e-02,-3.330132e-02,-2.489116e+00,-2.217355e+00,-1.063335e+00,-4.608811e-03,-8.210282e-01,1.523556e+00,-5.425414e-01,8.725416e-03,-9.634302e-01,4.796644e-01,3.085511e-02,1.305845e-02,-3.231113e-01,-1.415313e+00,-3.161778e+00,5.799364e-01,2.991218e-01,-2.146390e-01,-2.523156e+00,6.436827e-01,7.749225e-01,-8.827816e-03,3.146934e-01,6.736953e-01,-3.813416e-01,7.233879e-01,3.244823e-01,4.653293e-01,5.986625e-01,-3.839590e-02,-1.578398e+00,-2.307908e-01,3.160537e-02,3.100380e-02,-3.008678e-01,-1.883375e-01,2.007284e-01,-8.820803e-01,-1.737625e-01,-8.501290e-01,-9.646814e-03,1.213610e+00,1.988489e+00,2.967763e-01,-3.869317e-02,7.325422e-01,1.596118e-01,
2.816409e-01,6.151670e-01,2.539018e-03,7.096095e-01,3.157647e-01,5.749751e-02,-1.179277e-02,8.846735e-01,1.717622e+00,1.700397e-01,3.259506e-02,9.432731e-01,1.500287e+00,-1.308421e-02,-4.498260e-02,-6.129700e-01,1.847188e-01,2.297098e+00,-4.443534e-01,1.828604e-01,1.066948e-01,-3.565187e-01,5.978574e-01,5.267268e-01,1.194542e-02,-3.895890e-02,9.917924e-01,-2.062098e-01,4.173942e-01,2.281547e-01,8.231502e-02,-1.264780e-01,2.137950e-02,1.481879e+00,2.162544e+00,-4.040575e-02,-4.198984e-03,-2.821717e-01,-3.462400e-01,1.899888e+00,-1.571316e+00,5.704296e-01,2.415450e+00,-2.679952e-02,1.211388e+00,-2.052767e+00,4.437874e-01,-6.686408e-04,-6.030138e-01,-6.126069e-02,
3.168289e-01,1.692526e+00,-1.103544e-02,7.981588e-01,6.287130e-01,-1.437757e+00,4.553340e-03,4.694328e-01,1.003746e-01,5.024313e-01,-2.728831e-02,-2.599837e+00,-4.201138e+00,2.353409e-02,4.889141e-02,-6.031519e-01,-5.427538e-01,4.451059e-01,-1.240043e+00,-1.706932e+00,-1.235549e+00,7.436591e-02,-2.592354e-01,4.685454e-01,3.653566e-02,-1.650609e+00,-2.740363e-01,-1.731664e+00,-2.569152e+00,-5.520824e-01,1.576264e-01,6.056341e-01,-1.630650e-02,-1.105837e+00,6.671245e-01,-1.049946e-02,1.232680e-02,2.327295e-01,5.858870e-01,-1.600446e-01,-2.036541e-01,7.674723e-01,-2.785936e+00,-4.335070e-02,1.326900e-02,-2.035905e+00,-9.413248e-02,-4.818634e-03,-3.050857e-01,3.880788e+00,
3.039719e-02,-4.718029e-01,3.544596e-02,5.586662e-02,5.509723e-01,-1.727142e-01,-3.105522e-02,6.419956e-01,-4.710621e-01,-1.764600e+00,2.112018e-02,-5.366673e-01,-4.178667e-01,1.007110e-02,2.943150e-03,6.064563e-01,-7.088019e-01,1.176298e+00,7.527947e-01,2.724700e-01,-1.124753e-01,1.027643e+00,-1.114138e+00,8.542433e-01,-6.600332e-03,8.352000e-02,-1.725926e-01,-1.490672e+00,-4.404409e-01,8.560752e-02,4.315096e-01,3.103166e-01,2.556310e-02,-4.841225e-01,1.331478e+00,-1.283925e-02,-4.735207e-02,-3.365027e-01,7.986725e-01,-1.276259e+00,3.857745e-02,1.761712e-01,1.181852e+00,2.400100e-02,-9.522077e-01,1.980242e+00,2.698222e-01,-9.398417e-03,8.381568e-01,-1.235985e-01,
-3.832537e-01,7.147841e-01,-6.371713e-03,1.807294e+00,7.385328e-01,1.473534e+00,-1.949496e-02,4.163117e-01,7.821050e-01,3.044251e-01,1.416019e-02,-1.374964e-01,-2.417477e+00,5.554643e-02,-6.516487e-03,2.292150e-01,5.456032e-01,4.371553e+00,1.670907e+00,9.366556e-01,2.701349e-01,5.106320e-01,3.221619e-01,8.887601e-01,-3.018260e-02,6.683189e-01,-7.816350e-02,-1.358087e-01,7.023406e-01,9.597426e-01,2.133662e-01,9.485826e-01,4.406860e-02,2.988071e+00,6.114997e-01,2.657173e-03,-3.613496e-03,-1.960637e+00,1.734916e+00,1.543256e+00,5.554532e-01,1.429635e+00,2.166434e+00,3.477448e-02,6.440839e-01,1.897789e+00,4.334201e-02,-3.186985e-02,2.476003e-01,4.854874e-01,
5.209141e-01,8.157738e-02,-4.965279e-03,-6.104846e-01,-1.768969e+00,4.290717e-01,-2.976056e-02,-2.397137e-01,-1.433994e+00,4.471939e-01,3.032408e-02,1.337272e+00,-1.477700e-01,-7.926651e-04,-3.680982e-02,-8.059583e-01,-4.633668e-01,1.856611e-02,-4.377491e-01,-2.489558e+00,-1.722606e-01,-7.584617e-02,-1.388911e+00,2.614368e-01,-1.947560e-02,-5.594027e-01,-6.193025e-01,-2.497520e-01,1.030599e-01,2.579205e-01,-3.131825e-01,-4.128332e-01,9.782490e-03,-1.829861e+00,-1.937983e-01,-4.567008e-03,2.653948e-02,-1.036296e-01,-1.102201e+00,1.449964e-01,4.569325e-01,-1.438486e+00,-2.076668e+00,3.832040e-02,2.832063e-01,-1.648580e-01,4.080406e-01,4.257800e-03,1.905924e-01,1.180918e+00,
-4.191188e+00,-9.080391e-02,-3.791840e-03,1.758997e-01,-3.563221e-01,-1.277256e-01,1.718383e-02,1.866719e-01,-1.044572e+00,1.735956e-01,-1.935560e-03,-1.383592e+00,-2.271287e-03,2.302730e-02,1.369759e-02,-2.493189e-01,-2.562426e-02,4.399236e-01,-3.423952e+00,-2.834414e+00,-4.565616e-01,2.121110e-01,3.295407e-01,-2.783457e+00,-6.728270e-03,1.785733e+00,-6.189535e-01,-1.813485e+00,-3.734238e+00,-6.863331e-01,-9.942266e-01,-3.103441e-01,8.862830e-03,-7.811055e-01,-1.977512e+00,-3.186302e-02,-1.770764e-02,1.303443e-01,-7.506065e-01,5.746938e-01,-3.535053e+00,-2.051589e+00,-3.524264e+00,-2.462040e-02,-1.020377e+00,-1.139948e+00,5.637661e-01,1.261072e-02,-3.488562e-01,-2.413055e-01,
8.181334e-01,1.890838e-01,1.747759e-02,2.757857e+00,-1.648201e-01,1.300171e+00,-1.517309e-03,4.297212e-01,-5.106645e-02,4.271405e-01,-3.538082e-02,-3.355657e-01,-8.467530e-01,-2.758117e-02,-6.481012e-02,-3.709290e-01,-8.262159e-01,-1.956523e+00,2.065139e-01,-1.074730e+00,9.320535e-02,-9.917510e-02,-1.154557e+00,-3.236406e+00,-1.117940e-02,-5.262796e-01,-1.661376e+00,-2.595642e-01,-3.941868e-01,5.522183e-01,9.399011e-03,1.252960e-01,-1.013600e-02,1.081962e+00,5.030226e-02,-4.149924e-03,-3.554584e-02,-3.101208e-02,-1.517276e+00,-3.525736e-01,-1.511240e-02,1.607149e+00,7.215713e-01,2.100973e-02,2.653950e-01,-6.543214e-01,-2.025539e-01,2.057228e-03,2.740163e-01,6.859543e-01,
-1.742741e+00,1.198136e-01,6.512275e-03,5.410514e-01,4.310668e-03,2.252989e-01,-1.851813e-02,-2.050890e-01,9.068226e-01,3.702107e-01,3.514917e-03,4.768536e-01,1.032738e+00,5.639746e-04,4.048071e-02,8.723149e-02,-9.460300e-01,1.357355e+00,1.706666e-01,1.264282e+00,2.583307e-01,1.486115e-01,1.263126e-01,3.663541e-02,2.190323e-02,-2.613627e-02,-4.937062e-01,1.479980e-01,1.146758e-01,2.981839e-02,-1.245013e-02,-6.564211e-02,6.900780e-03,-5.673562e-01,2.898799e-02,1.667896e-02,-2.034074e-02,-1.806261e-01,2.838603e-01,-6.433294e-01,-9.601333e-01,2.932518e-01,2.456030e+00,-2.737840e-02,-2.445219e-01,6.792896e-01,-7.204704e-02,-2.343206e-02,-2.851091e-01,-1.109510e-01,
1.579360e-01,-1.863134e+00,-5.099714e-03,7.387660e-01,4.997209e-01,1.140736e+00,-3.278933e-02,-2.431846e-01,1.323278e+00,3.644564e-01,-2.866659e-02,1.528660e-01,1.980579e+00,-4.224478e-02,2.345170e-02,1.788693e+00,-3.620648e-01,5.761186e-02,6.957152e-01,-8.296006e-01,-2.624631e-01,-8.711893e-01,1.581277e+00,1.571780e-01,-4.864346e-03,6.738819e-02,1.363422e+00,5.082903e-01,4.888809e-02,3.032291e-01,2.415626e-01,2.796744e-01,7.494700e-02,-4.706000e-03,2.412886e+00,2.204206e-02,-2.373576e-02,-6.458516e-01,1.145925e+00,1.418822e+00,3.322181e-01,1.487519e+00,1.918978e+00,3.760367e-02,9.599212e-01,-6.097636e-02,-1.962200e-01,-2.204700e-02,9.139239e-01,1.894909e+00,
4.496284e-01,5.144759e-02,2.844014e-02,2.617925e-01,4.814614e-01,5.415182e-01,2.619815e-02,5.711904e-01,-1.625255e+00,3.677662e-01,-4.454363e-03,2.005994e-01,7.394599e-01,1.983120e-02,-1.737229e-02,3.893107e-01,-2.228860e+00,-1.549045e+00,2.856626e-01,5.821849e-01,-1.008724e+00,-4.370659e-01,3.316992e-01,2.480184e-01,-5.183997e-03,-3.429982e-01,-2.336236e-02,1.859334e+00,-9.875686e-01,7.021799e-01,4.968521e-01,1.552290e-01,1.543250e-02,2.037879e+00,4.138303e-01,-3.608311e-02,-5.627699e-03,-4.776428e-01,1.133237e-01,1.212798e-01,2.950472e-01,-7.369903e-01,7.857850e-01,-3.383218e-02,7.786653e-01,8.565216e-01,-5.163795e-01,-3.062943e-02,3.567908e-04,3.516207e+00,
5.252988e-01,2.025678e-02,4.903654e-03,-4.892030e-01,-1.712115e+00,-6.687432e-03,7.529789e-03,-2.313598e-01,-1.079124e+00,-4.656822e-01,-2.453597e-02,1.036254e+00,3.488373e-01,-2.161191e-02,-1.795098e-02,-7.200109e-01,-2.883678e-01,-1.473837e+00,-1.179968e+00,-6.532400e-01,-2.872290e-01,-1.115142e-03,-2.035564e-01,-3.635379e-02,3.599942e-03,-5.427402e-01,-4.392465e-01,9.475899e-01,-1.627790e-01,6.566053e-02,1.047197e+00,-4.301416e-01,-1.525160e-02,1.657081e+00,5.359106e-01,3.667507e-02,1.926241e-03,4.288211e-01,-1.334047e+00,-5.053919e-01,-5.240763e-01,2.201550e+00,-1.066391e+00,-2.206740e-02,-1.149963e-02,1.090649e+00,4.723698e-02,-1.151143e-02,7.016397e-02,1.060413e+00,
-4.193402e-01,-6.171685e-02,4.122377e-02,-8.519323e-01,2.387251e-01,3.338246e-01,-6.426177e-03,4.677739e-01,-2.407430e-01,8.298283e-02,-1.136583e-02,9.823982e-01,-9.354302e-01,1.485289e-02,-4.087543e-02,4.973270e-01,-4.167628e-01,-1.686069e-01,1.313594e-01,4.419565e-01,1.272280e-01,-2.546954e-01,-5.192468e-01,1.186314e+00,-9.484163e-03,1.125579e+00,5.016746e-01,-1.980569e-01,4.063663e-01,-1.518044e+00,-8.386108e-02,-2.645458e-01,1.944450e-02,5.846094e-01,8.372936e-01,4.010619e-02,1.111088e-03,-4.041056e-01,-1.168950e-01,2.001831e-01,7.834396e-01,-2.264874e-01,-7.224544e-01,2.800870e-02,-1.359244e+00,-1.089675e+00,-5.964290e-01,-4.836966e-03,2.517209e-01,-9.738208e-01,
-6.415284e-01,2.517507e-01,-2.684178e-02,-4.495526e-01,-2.777106e-01,5.508677e-01,-9.596078e-03,1.714914e-02,1.271819e-01,7.960088e-01,1.972426e-02,4.920319e-01,-1.739759e+00,-3.400667e-03,8.194001e-03,-3.631587e-01,-1.326790e+00,-3.578310e+00,-2.536072e+00,6.537690e-01,8.002464e-01,-1.361379e+00,1.431049e-01,-7.525145e-01,3.159092e-02,-3.373417e-01,-1.736327e-01,2.926907e-01,-4.017222e+00,-4.186919e-01,-4.004520e-01,9.630693e-01,2.699660e-02,-2.930828e+00,-1.440780e+00,2.882501e-02,-3.238616e-03,5.939066e-01,-4.056862e+00,1.424002e+00,5.463490e-01,-1.623498e+00,-2.796479e+00,7.619769e-03,-1.395249e+00,6.088585e-01,9.343129e-01,-2.295090e-02,-3.980165e-01,-3.519420e+00,
7.185925e-02,-5.347810e-01,-4.102270e-02,2.762839e-02,-1.951783e-01,2.059210e-01,-8.531464e-03,5.239899e-01,5.066890e-01,-4.539489e-01,2.853914e-02,-2.142910e-01,5.902597e-02,-7.619714e-03,-5.690653e-03,-4.087151e-01,-8.465917e-01,-3.774021e+00,1.426648e+00,1.328236e-01,-6.408335e-03,-1.430176e-01,-5.353064e-01,3.699722e-01,-4.700588e-03,-3.919146e-01,-7.200909e-02,8.870685e-01,3.966677e-02,-4.516011e+00,-2.852128e+00,1.735606e-01,-1.230870e-02,-6.668937e+00,1.205182e+00,-2.090981e-02,1.915829e-02,-2.341891e-01,-1.268558e+00,-4.901801e-03,6.749949e-01,-6.180425e-01,1.129003e+00,9.647370e-04,2.237586e+00,-2.804415e+00,1.474716e-01,1.624053e-03,1.195004e+00,5.997871e-01,
3.875403e-01,2.619271e-01,2.566338e-02,1.651604e+00,1.484079e+00,2.519897e+00,8.454782e-03,-2.743014e-01,3.062296e+00,-4.406827e-01,1.318748e-02,1.164992e+00,-5.569218e-01,2.820020e-02,-6.280190e-04,-1.272585e+00,1.707330e+00,3.672190e+00,2.627185e+00,1.323222e+00,-5.121007e-01,4.642506e-01,8.821272e-01,-1.049720e+00,-1.645460e-02,5.827934e-01,-2.210567e-01,2.129419e+00,3.891036e-01,1.160520e+00,1.189074e+00,6.567838e-01,-7.658820e-03,7.844170e-01,3.672253e+00,5.797630e-03,-4.493291e-03,-3.025275e+00,1.661413e+00,1.732957e-02,-8.648015e-02,-5.467623e-01,3.453935e+00,-4.003404e-02,1.175487e+00,-6.578308e+00,-1.253739e-01,-3.870759e-02,2.281257e+00,2.969525e+00,
1.295791e+00,3.543344e+00,-2.523937e-02,2.680509e+00,3.391619e+00,3.531034e+00,8.972178e-03,1.048099e+00,-3.281166e-01,2.509991e-01,3.681850e-03,1.216236e+00,6.616924e-01,3.084270e-03,1.657342e-03,5.091682e-01,6.479281e-01,1.444382e+00,1.016063e+00,3.599446e-01,8.047155e-01,8.823355e-01,2.932631e+00,3.706582e-01,3.004265e-02,1.059015e+00,-5.319343e-01,1.062305e+00,1.314430e+00,4.067114e+00,2.709600e+00,7.100279e-01,-1.352680e-02,1.747094e+00,1.126577e+00,3.520266e-03,-1.806289e-05,2.104047e+00,1.436788e+00,1.272019e+00,1.031811e+00,3.183517e+00,3.782390e+00,3.460055e-02,1.462535e+00,-5.401117e-01,1.914404e-01,2.339663e-02,9.656962e-01,2.569069e+00,
4.600910e-01,-3.126281e+00,4.565565e-03,-4.164100e+00,6.107126e-01,-6.303453e-02,2.999412e-02,-9.659920e-01,1.726674e+00,-2.703748e-01,2.581643e-02,6.815454e-01,1.245372e+00,-3.999231e-02,-4.844592e-03,4.012854e-02,6.382735e-01,-4.790664e+00,1.009803e-01,-2.293679e+00,4.605123e-01,-5.872554e-01,3.599873e-02,2.415752e-01,1.611861e-03,-1.684314e+00,-4.331288e+00,-2.657251e-01,4.516799e-01,-1.749454e+00,-5.426406e-01,4.316869e-02,1.643980e-03,-1.756713e+00,1.765464e+00,5.737782e-03,-5.325351e-03,-9.508849e-01,1.916916e+00,1.139370e-01,-2.490146e-01,4.495073e-01,1.595127e+00,-5.163580e-04,-4.538059e+00,1.173407e+00,2.326016e-01,7.360207e-03,-1.808514e+00,2.437669e+00,
-2.662047e-02,3.497010e-01,3.887574e-02,-3.329033e-01,7.924610e-02,5.277101e-03,-2.341061e-02,-4.213272e-01,-1.399412e-01,6.077181e-01,3.135775e-02,-3.537838e-01,5.135080e-01,3.728892e-03,-5.411155e-03,-1.116998e-01,-4.661191e-03,1.083076e+00,3.955429e-01,-4.304466e-01,-2.682891e-01,1.053267e-01,-2.513779e-01,-1.659667e-01,2.630268e-02,1.227109e-01,-1.229165e-01,-3.784699e-01,4.952419e-01,5.224324e-03,5.206311e-01,-3.881676e-01,-3.798410e-03,9.900980e-01,9.535111e-02,2.962179e-02,2.151233e-03,-7.595976e-01,2.302008e-01,-3.052566e-01,4.835131e-02,8.681903e-01,7.983098e-01,-1.815850e-02,7.750737e-01,-1.318181e+00,1.831795e-01,-6.812944e-03,-3.988691e-01,1.487316e+00,
-4.615583e-02,-2.821420e-01,2.848663e-02,6.805956e-01,-1.006965e+00,-4.877566e-01,2.600589e-02,2.827896e-01,-3.821381e-01,-5.292830e-01,3.800965e-02,2.310531e-01,-5.522670e-01,3.208902e-02,-5.303700e-02,-4.720125e-01,1.832371e-02,1.819270e+00,-7.218456e-01,4.731814e-01,-3.948898e-02,-7.333376e-01,-6.539727e-01,-5.521453e-02,4.309418e-02,-9.180444e-01,1.983528e-01,-6.457349e-01,1.546064e-01,5.023048e-02,4.766339e-01,3.043733e-02,-3.070960e-02,1.215488e+00,2.780176e-01,-1.026109e-02,5.865408e-03,5.054987e-01,-9.577050e-01,-1.280810e+00,-3.154773e-01,-3.055978e-01,-1.092278e-01,-3.521080e-02,3.061829e-01,-2.303564e+00,1.952713e-01,2.863535e-02,1.922419e+00,-1.245023e+00,
2.376381e-02,-1.227832e+00,9.820695e-03,9.354705e-03,-4.982477e-01,-8.208585e-02,-3.620448e-02,1.011377e+00,1.460761e-01,7.559538e-01,-5.037448e-03,5.589921e-01,-4.187759e+00,-2.394319e-02,-6.570996e-02,-3.959112e-01,5.213544e-02,-8.359997e-01,4.231772e-02,-2.470626e-01,4.273057e-02,1.275505e+00,2.403642e-01,-2.071375e+00,-2.403272e-02,4.901379e-01,-8.997961e-01,1.534055e+00,-8.422301e-02,-8.779720e-01,-1.451966e-01,-5.699986e-01,-4.370610e-02,-6.421764e-01,-1.961967e+00,-3.334909e-02,1.445863e-02,-2.312580e-01,2.004947e+00,5.438573e-01,-6.654711e-01,1.132839e+00,-2.815569e-01,-4.718790e-02,8.387886e-01,-3.720211e+00,3.259457e-01,-1.721096e-03,1.391016e+00,-2.600423e+00,
4.687736e-01,-5.298640e-01,1.693499e-04,-1.009742e+00,7.050319e-01,-2.098569e-02,2.023019e-02,-2.781013e-01,6.041854e-01,-1.046929e+00,-4.420898e-02,-5.342023e-01,-8.876085e-01,7.308694e-03,-5.042361e-03,2.078934e-01,-1.177929e+00,-1.449859e+00,-2.858929e-01,-3.204704e-01,3.781237e-01,-7.362177e-01,-7.498215e-01,-1.368078e+00,4.144689e-02,8.228390e-01,-6.792783e-01,-6.297077e-01,-2.983566e-01,1.060771e+00,-5.521613e-01,-4.586513e-01,-6.756150e-02,-1.860767e+00,1.632107e+00,5.401551e-03,8.955745e-03,-2.707816e-01,-1.093127e+00,-1.438573e+00,-3.482078e-01,2.955950e-01,1.421605e+00,-5.011187e-02,-2.555712e-01,7.205469e-01,-3.301682e-02,1.819893e-03,4.879150e-01,8.043205e-01,
-1.736696e-01,-6.713260e-01,-3.175029e-02,-2.153795e-01,-1.205757e+00,-2.765567e-01,-3.096917e-02,1.671041e-01,-1.198584e+00,-7.226930e-01,2.445285e-02,9.449720e-01,1.189658e-01,5.327893e-02,-1.382548e-03,1.080673e+00,8.016394e-01,4.896102e-01,1.962000e-01,-6.082336e-01,8.327783e-02,3.968593e-01,-8.955325e-01,-7.363051e-01,1.435301e-04,7.296020e-02,-1.503467e-01,2.463210e-01,-2.786002e-01,-4.758571e-03,7.000573e-01,-1.088121e+00,1.356150e-02,-6.463373e-01,8.312958e-01,6.137658e-03,2.555672e-02,3.502508e-01,7.967942e-01,-4.747734e-01,-3.943376e-01,-2.396677e-01,-1.737985e+00,1.486700e-02,8.005720e-01,-1.403067e+00,4.463323e-02,2.686065e-03,-1.328173e+00,1.025407e+00,
-2.201423e-02,2.005246e-01,2.727133e-02,-6.670223e-01,-1.154587e+00,-6.211385e-01,3.704933e-02,5.036643e-02,1.881079e-01,-1.547323e-02,-1.017231e-02,8.016705e-02,-1.257730e-01,9.714197e-03,-1.007863e-02,5.749357e-01,1.893157e-01,1.570698e+00,4.996943e-01,1.106403e-01,-2.611991e-01,5.244425e-03,2.365221e-01,3.999592e-02,3.568145e-02,-5.062913e-02,-2.810177e-02,1.061116e-01,-4.072358e-01,-5.071337e-01,-4.127255e-02,1.122011e-01,-2.909950e-02,4.884475e-01,4.819173e-01,2.864884e-02,-9.775647e-04,-1.971170e-01,1.785560e-02,8.027644e-01,1.614891e-02,7.022051e-01,-4.980181e-01,5.172690e-02,-7.435364e-02,-3.783067e-01,-2.048103e-01,-2.789843e-02,2.877453e-01,-4.182932e-01,
4.897708e-01,8.469074e-01,-3.084454e-02,6.545802e-01,8.070772e-01,1.162410e-01,-1.749203e-02,8.777061e-02,-1.106415e+00,-3.844461e-01,-8.139439e-03,1.639666e-01,-8.175734e-01,-1.970028e-02,-2.062739e-02,4.004451e-01,1.568219e-01,-9.482636e-01,-8.380346e-01,-1.174080e-01,2.697996e-01,-5.811664e-03,-4.679472e-01,4.659735e-02,-1.738078e-02,9.735517e-02,6.609030e-01,5.551367e-01,-7.709261e+00,3.052991e-01,6.222827e-01,-2.532990e-02,-6.366980e-02,1.607796e+00,5.483613e-01,-2.990907e-02,-3.696564e-02,1.455758e-01,-2.888082e-01,-1.940390e-01,2.223270e-01,1.277959e+00,-7.031250e-01,-4.181919e-02,-7.145908e-01,1.963649e-02,-4.935942e-01,-6.786502e-03,-3.782139e-02,8.213425e-01,
3.347881e-01,-2.235017e-01,-5.267889e-03,-4.952439e-01,3.649234e-01,3.188765e-01,-3.763760e-02,6.115174e-01,-1.903077e+00,-3.316511e-01,-3.680083e-02,1.408010e-01,7.484811e-01,1.197720e-02,1.671886e-02,-4.998027e-01,7.827035e-01,-3.655444e-01,-3.859027e-01,-2.398475e-01,-3.049198e-03,-8.836938e-01,-5.137258e-01,-3.788612e-03,2.720121e-03,-7.104851e-01,-9.920627e-01,4.179029e-01,8.911955e-01,-3.162846e-01,-9.477484e-01,-1.441031e+00,-1.583950e-02,-4.253584e-01,8.824508e-01,3.677096e-03,-7.308169e-03,1.378552e+00,2.749372e-01,4.611302e-01,-2.168960e-01,-3.030985e-01,2.264978e-01,3.047880e-02,-1.169387e-01,-2.633619e+00,2.862604e-02,-1.220271e-03,-1.464778e-01,-1.338293e+00,
-7.097176e-01,5.681858e-01,-5.254049e-03,6.386695e-02,8.889519e-01,1.621039e-01,2.385950e-02,-7.539721e-01,-1.722347e+00,-8.542574e-01,-2.494259e-02,-7.738514e-03,-1.330424e+00,-4.631690e-02,-2.934785e-03,-1.134187e+00,-1.405193e-01,-1.653186e+00,-5.138811e+00,8.475279e-01,6.288577e-01,-5.128576e-01,1.251115e+00,-6.971208e-01,1.911315e-02,1.205006e+00,-5.542900e-01,1.553734e-02,-1.284524e+00,6.464795e-01,-9.096195e-01,2.741094e-01,-1.276190e-02,-3.010449e+00,-2.547400e+00,-1.010114e-02,-6.333300e-03,1.884814e+00,-5.006639e+00,-1.466530e+00,-9.544247e-01,1.305610e+00,-4.520635e+00,3.554657e-02,-3.397075e+00,1.928439e-01,-4.573555e-01,-1.133309e-02,3.339560e-01,-1.216020e+00,
-1.523812e+00,-1.905088e-01,-3.476175e-02,-3.999753e+00,-4.978517e+00,1.132319e+00,1.672118e-02,-1.536549e+00,1.021434e+00,-1.689644e+00,-3.676455e-02,-1.686746e+00,-1.569068e+00,-1.118837e-02,1.087620e-03,6.400440e-01,-1.666001e+00,1.438132e+00,1.723016e+00,-1.765616e+00,-1.464725e+00,1.338189e-02,-1.689120e+00,2.000230e-01,-1.975191e-02,1.240836e+00,5.822877e-01,1.112060e-02,-3.084866e-01,8.712796e-01,-1.335307e-01,-5.396770e-01,-8.022480e-02,-2.367787e+00,2.938453e-01,-2.191494e-02,-2.812311e-02,1.425006e+00,-6.349350e-01,-2.590778e+00,-1.368598e+00,-2.248237e+00,-5.085887e-01,-2.440481e-02,-3.470544e+00,-1.352358e+00,-1.099132e-01,-4.603518e-03,2.260306e+00,-2.997862e+00,
-9.087527e-01,-2.851422e+00,1.529507e-02,1.764219e+00,6.297738e-01,4.084994e-01,-2.123176e-02,-3.341893e-01,1.336604e+00,-1.212368e-01,-1.687796e-02,9.595836e-01,6.601343e-02,2.757231e-03,4.048549e-02,4.149226e-01,7.049304e-01,1.542794e+00,4.971143e-01,2.426771e-01,1.052434e-01,-3.474211e-01,2.579538e+00,7.847808e-02,-5.061992e-03,-3.603883e-01,-7.537299e-01,1.147266e-01,8.483842e-02,1.362131e-01,6.041036e-01,2.875238e-01,1.800930e-02,-4.421181e+00,-1.438527e+00,3.619742e-03,4.884000e-04,3.222124e-01,8.379889e-02,8.266762e-01,-1.653074e-01,5.680997e-01,1.070567e+00,-1.761660e-03,1.269168e+00,-2.163838e+00,-3.827037e-01,-5.545114e-03,-3.058388e-01,1.456006e+00,
3.333608e-01,2.159417e-01,2.259449e-02,-1.465344e-01,5.239829e-01,2.255836e-01,-4.986321e-03,1.310639e-01,5.030873e-01,5.078683e-01,-2.489302e-03,-1.868449e+00,3.724976e-02,-1.712152e-02,-1.682002e-02,3.132888e-01,8.479928e-01,8.526970e-01,6.216716e-01,-3.191828e-01,-1.219026e-01,9.225024e-01,-4.237976e-01,7.377722e-01,1.551570e-02,8.351880e-02,6.882828e-01,2.757935e-02,4.599745e-01,4.879309e-01,-3.300716e-02,-2.925091e-01,-6.688830e-03,1.542106e+00,8.796046e-01,1.644635e-03,-4.410369e-02,-1.954699e+00,9.165379e-01,6.428881e-01,-3.414167e-04,9.540938e-02,1.537181e+00,-2.306584e-02,9.560854e-01,1.851799e+00,-1.232479e-01,8.464952e-03,7.099611e-02,2.396934e+00,
4.821381e-02,5.082481e-01,2.595149e-03,-1.103681e+00,1.004992e+00,9.789402e-01,3.841104e-02,3.825634e-01,-4.282981e-01,3.734856e-01,-3.659322e-03,-6.303812e-01,1.299109e+00,-7.442309e-03,5.235058e-02,-2.841236e-01,3.739180e-01,2.302436e+00,2.612168e-01,2.714612e-01,-3.609437e-01,5.671292e-01,1.471104e+00,-2.563764e-01,-5.068424e-03,1.607657e-01,1.305809e-01,6.194746e-01,8.263414e-01,4.401086e-01,-1.986198e-02,8.524589e-02,1.955760e-02,1.578023e+00,3.609927e-01,-1.727175e-02,-3.509272e-04,-1.352340e+00,3.089442e-02,-2.236810e+00,3.185695e-01,2.842714e+00,1.073692e+00,2.179134e-02,7.979236e-01,4.428467e-01,7.444256e-02,1.760091e-02,-3.893989e-01,5.184636e-01,
-1.945451e-01,
6.111588e-01,
1.147373e+00,
3.355549e-01,
-2.231544e+00,
-3.670213e-01,
-2.161107e+00,
-7.071688e-01,
-1.245521e+00,
2.374995e-01,
-1.146226e+00,
-2.196361e+00,
-3.898031e-01,
-1.006635e+00,
3.253468e-01,
-5.846138e-01,
-6.901702e-01,
8.500574e-01,
-2.286144e+00,
1.207264e+00,
-1.495806e+00,
-5.180399e-01,
-9.471217e-01,
-3.789413e+00,
-1.692463e+00,
3.291175e-01,
1.916959e+00,
-1.227287e-01,
-2.980644e+00,
-5.011862e-01,
1.647606e-01,
-3.177954e-01,
-2.667172e+00,
-8.104784e-01,
-3.304331e+00,
1.152669e+00,
4.905598e-01,
7.030663e-01,
8.758490e-01,
-1.031641e+00,
-1.204763e+00,
5.966185e-01,
2.167812e-01,
-1.227364e+00,
1.009505e+00,
1.546723e-01,
3.209848e-01,
6.690815e-02,
-1.963996e-01,
4.222336e-01,
-1.927198e+00,9.104059e-01,-3.464779e-01,2.330482e-01,-2.355199e+00,-2.185915e+00,-2.174815e+00,-7.177248e+00,3.989500e+00,2.651960e-01,-1.733007e-01,-2.365633e+00,3.039749e+00,2.687189e+00,2.698035e-01,9.723741e-01,-1.288830e+00,-1.296046e+00,4.799366e+00,-1.367485e+00,-1.079602e+00,-3.801757e+00,4.735373e-02,5.609289e-01,-1.350494e-01,-1.433581e+00,-6.416994e-01,-1.913286e-01,6.428627e-01,-2.347741e+00,-8.210497e+00,-1.879460e-01,-8.061140e-01,-1.557792e+00,-2.338112e-01,2.662131e-01,-3.578913e-01,-1.817129e+00,9.415724e-01,-3.259054e+00,7.506743e-01,-3.285032e+00,-6.002241e+00,1.271531e+00,9.118771e-01,3.636576e-02,1.827040e+00,-1.124173e+00,-3.491038e+00,-8.015884e-01,
1.814219e+00,1.747717e+00,-6.642377e-01,1.931504e+00,2.105301e+00,-1.186732e+00,3.944154e+00,-5.571582e-01,-2.738167e+00,-9.916286e-01,2.230521e-01,-1.523545e+00,1.194200e+00,8.685465e-01,5.940919e-01,-3.649462e-01,1.970688e+00,7.764455e-01,-7.991585e-01,-5.256425e-03,-4.672803e-01,3.435938e-01,9.802946e-02,1.608383e+00,-2.752343e+00,1.298340e+00,-7.808212e-01,1.607945e+00,7.288142e-01,3.741767e+00,-1.100775e-01,1.182090e+00,-2.089202e+00,4.309361e+00,1.431401e-03,-6.246203e-01,4.534201e-01,-3.837091e-01,9.413019e-01,1.657373e+00,1.375359e+00,4.982693e-01,2.656110e+00,-1.556566e-01,-2.211505e-01,3.443931e-01,-4.315104e-01,2.249640e-01,1.235945e+00,-1.974916e+00,
-5.164173e-01,3.018114e-01,-1.306019e-01,-1.296009e+00,1.756088e+00,4.178436e-01,2.012079e-01,-2.732367e+00,-1.961631e+00,-1.122995e+00,-6.887241e-02,-1.482411e+00,1.095129e+00,-1.406438e+00,-4.120374e-01,1.196781e+00,-2.232870e+00,5.571612e-01,3.907934e-01,-5.640271e-02,-5.688198e-01,-7.203335e-01,-1.005377e+00,2.027863e-01,1.208325e-01,1.050219e+00,8.496470e-02,-2.187406e+00,3.782276e-01,9.161838e-01,2.959262e-01,8.808978e-01,5.618684e-01,-1.931660e+00,1.019670e+00,4.250885e-01,2.620231e-01,-1.380966e+00,-1.437701e-01,-2.151373e+00,6.728203e-01,-1.387201e-01,-5.954730e+00,1.764521e+00,2.469660e-01,5.004659e-01,7.824140e-01,9.302301e-01,-1.028286e+00,3.683029e-01,
-2.116245e+00,-3.170132e-01,1.632055e+00,1.668642e+00,1.677991e-01,1.335952e+00,2.760422e+00,1.361275e+00,-3.637730e+00,-2.619072e-01,3.757703e-01,2.275669e+00,2.413903e+00,1.239854e+00,4.034506e-02,-4.770392e-01,-1.158853e+00,-1.442811e-02,1.198019e+00,-5.301118e-01,2.030804e+00,1.894704e-01,-1.069695e+00,7.050722e-01,5.207522e+00,3.044589e+00,2.026758e-01,-1.736157e+00,1.302267e+00,1.127721e+00,8.098285e-02,3.198066e-01,-8.106753e-01,4.845941e-01,5.866513e-01,-1.001863e+00,-5.483172e-02,8.474205e-01,5.571115e-01,-2.464935e-01,1.622182e+00,8.823016e-01,1.431790e+00,1.428332e+00,3.015755e-01,2.216681e-03,-2.376625e-01,2.774456e+00,3.749660e-01,5.036354e-01,
9.878812e-01,-2.506364e-01,2.770039e-01,2.050273e-01,2.584935e-01,-7.769639e-02,-1.102858e+00,1.342544e+00,-6.345258e-01,8.690318e-02,8.131782e-01,-2.385432e+00,1.439605e+00,-1.102837e-01,2.062517e-02,-4.118124e-01,-8.362512e-01,-8.246056e-01,-2.884471e+00,1.684550e-01,5.709584e-01,7.265792e-02,1.581529e+00,-7.750590e-03,6.777502e-01,1.330380e+00,-1.832444e-01,2.117772e+00,1.187703e+00,-1.583428e+00,-6.975499e-01,1.189279e+00,-4.939530e-01,1.152836e+00,-2.803531e+00,-1.805607e-01,-1.371199e+00,1.689503e+00,-1.100229e+00,1.100197e-01,2.614296e-01,-7.543030e-01,2.861197e+00,-2.017612e+00,1.662633e-01,-7.028164e-01,1.592402e-01,4.431579e-01,7.876374e-01,-1.299961e-01,
-2.681741e+00,-6.691827e-01,-2.556088e+00,-1.558940e+00,2.485850e+00,7.849914e-01,-1.248625e+00,1.413745e+00,2.727813e+00,-4.087098e-01,3.178723e-01,-2.607246e+00,3.945227e-01,-2.044457e+00,-3.386139e+00,1.879172e-01,-1.768664e+00,-3.982490e+00,2.466911e-01,-1.025334e+00,-7.411027e-01,-1.257433e-01,-5.502975e+00,2.178007e+00,2.525065e+00,-1.145349e+00,-1.760513e+00,-1.800717e+00,-1.105895e+00,-9.813188e-01,-2.928298e-01,-7.347937e-01,1.130463e+00,-6.943179e-01,-8.001230e-01,9.576885e-01,-1.505875e+00,-4.003164e+00,-1.059824e+00,-9.123164e-01,1.287219e+00,-1.428337e+00,-2.876247e+00,-1.930374e+00,-4.237518e-01,-3.080018e-01,1.666302e-01,1.428396e-01,-1.395919e+00,6.777681e-01,
1.993933e+00,1.275838e+00,2.121657e-01,-1.497573e+00,1.003479e+00,1.766130e+00,8.948116e-01,2.461115e+00,9.514844e-01,4.981978e-01,1.344672e+00,9.249980e-02,-2.455604e+00,3.324469e+00,2.358001e+00,6.099656e-01,2.491119e+00,-6.253767e-02,2.294832e+00,-4.204352e-01,4.191395e+00,2.239828e+00,1.645373e+00,8.375222e-01,2.176243e+00,3.713038e+00,1.828881e-01,-9.251699e-01,9.780125e-01,3.219664e+00,2.026639e+00,1.822611e+00,-1.150369e+00,1.364222e+00,2.659224e+00,-1.202856e+00,2.659764e+00,1.984465e-01,1.612617e+00,2.795277e-02,2.584291e+00,9.202155e-01,9.301985e-01,1.302917e+00,-1.150168e+00,1.495401e+00,9.329497e-01,2.762799e+00,1.168162e+00,1.325058e+00,
-4.747133e-01,-3.739097e-01,8.182937e-01,2.490442e-01,1.855327e+00,1.389564e+00,9.192289e-01,1.542096e+00,-4.699933e+00,-4.075249e-01,1.228437e+00,-7.748145e-01,-1.954941e+00,2.745524e+00,-1.117351e+00,2.384057e-01,1.959347e+00,5.817783e-01,3.034834e+00,1.083346e+00,1.444690e+00,-5.249056e-01,1.696112e+00,8.265594e-02,3.100799e+00,-5.707597e+00,3.876591e-01,2.998494e+00,1.140285e+00,2.275646e+00,1.203263e-01,1.222329e+00,5.845559e-01,4.197194e-01,1.682227e+00,-6.270398e-01,9.895692e-02,-7.436054e-01,1.285056e+00,4.089718e-01,-4.324190e+00,1.546874e-01,-4.655039e-01,-3.613508e-01,-3.736052e-01,-1.693407e+00,-1.167180e+00,4.182252e-01,-9.333517e-01,1.278529e-02,
-4.406649e-01,-1.233579e+00,6.073014e-01,1.946064e+00,1.814996e+00,-4.722788e-01,2.080015e-01,5.402790e-01,2.859014e-01,4.879592e-01,8.731253e-01,6.466855e+00,2.635739e-02,-5.364084e-01,-8.981054e-01,9.618900e-01,4.721583e-01,-1.109812e+00,1.822639e+00,-4.622978e-01,7.787223e-01,2.940602e+00,1.685563e+00,-7.185811e-01,3.005726e+00,2.488227e-01,3.078410e-01,1.529130e+00,1.724710e+00,-1.776109e+00,-6.073322e-01,4.306980e-01,9.066895e-01,3.058351e+00,-5.001991e-01,-8.920135e-01,1.064648e+00,-7.993863e-01,1.647867e+00,1.782645e+00,1.340540e+00,1.266492e+00,3.140785e+00,4.653532e+00,-4.995617e-01,1.758871e+00,-2.157183e-01,1.067108e+00,1.655662e+00,-9.267913e-02,
-1.847667e-01,1.005897e+00,8.881050e-01,4.243506e+00,1.879552e+00,3.265136e+00,5.931764e+00,1.272487e+00,2.442121e+00,1.823027e+00,2.428476e+00,5.118777e-01,3.093713e+00,1.005065e-01,1.147160e+00,5.600994e+00,4.715707e-02,-2.000442e+00,-2.856818e+00,-2.137147e+00,3.589227e+00,2.953210e+00,1.083844e+00,1.174208e-01,9.241474e-01,4.536593e+00,3.885954e+00,-4.257033e-01,6.186422e+00,5.384573e+00,3.594525e+00,4.169136e-01,3.569019e+00,2.685638e+00,3.374497e+00,3.456866e+00,4.129254e+00,4.109019e-01,3.067184e+00,2.357610e+00,3.956947e+00,9.944803e-01,1.191468e+00,6.802939e+00,6.153976e-01,6.741663e+00,2.826430e+00,4.459152e+00,1.260009e+00,9.258228e-01,
-2.144020e-01,2.097674e-01,-2.236948e-01,-7.138523e-01,9.578922e-01,-3.726424e-01,-8.734910e-01,-1.724092e+00,2.027095e+00,5.427787e-01,1.622144e-01,-1.927854e-01,-8.948596e-01,-2.837355e-01,-7.417577e-01,-1.489317e-01,6.127626e-01,1.266788e+00,6.208705e-02,2.549184e-01,6.606824e-01,7.816920e-02,3.092206e-01,8.631881e-01,7.339226e-02,-1.209321e+00,-4.789626e-01,2.892928e-01,1.120452e-01,1.139174e-01,-2.467086e-01,-9.008640e-01,5.799450e-02,-1.548046e+00,2.062957e-01,-1.375164e-01,1.247921e-02,3.510422e-01,-3.520629e-01,-4.219125e-01,1.130287e+00,-5.984362e-01,2.754525e+00,-5.520583e-01,4.612874e-01,-1.154273e-01,-4.012615e-01,-9.724138e-01,1.716759e-01,1.172606e+00,
1.418995e+00,7.193730e-01,4.092804e-01,-1.770001e+00,-6.756042e-01,9.013568e-01,-1.766266e+00,-3.267015e-01,-2.486641e-01,1.931108e-01,1.539716e+00,-2.589981e-01,1.389303e+00,-1.951541e-01,5.081315e-01,9.050047e-01,3.014721e-01,-2.227350e-01,1.390632e+00,1.584827e+00,1.690242e+00,-4.505748e-01,2.137181e+00,3.462335e-01,-8.650208e-02,1.334612e+00,8.498362e-01,1.506657e+00,2.804639e+00,-2.358252e+00,6.494504e-01,-1.599828e+00,-2.349608e-01,3.054673e+00,-7.853364e-01,-6.767887e-01,4.067972e-01,8.466766e-01,-7.297833e-01,1.420148e+00,2.861032e-01,-1.095794e-01,1.311876e+00,-1.865767e+00,1.045410e+00,7.527468e-01,3.149914e-01,9.814690e-01,1.587943e-01,3.634671e-01,
9.117423e-01,3.105764e-01,-9.610576e-02,5.281542e-01,1.013159e+00,-1.069613e+00,1.724964e+00,1.940539e-01,7.906106e-01,7.723862e-01,-2.180575e-01,1.016483e+00,5.400807e-01,9.485029e-01,-9.741796e-01,1.511706e+00,1.142940e+00,1.025341e-01,-3.302124e-01,-1.173343e+00,-9.807631e-01,4.642472e-01,3.183718e-01,3.507928e-01,2.987012e-01,5.028335e-01,3.572671e-01,3.161725e-01,-6.108937e-01,1.431342e+00,5.157119e-01,2.576103e-01,9.511314e-02,5.264375e-01,5.103380e-01,-7.124482e-01,3.950953e-01,2.104020e+00,6.423641e-01,-1.354337e+00,1.335069e+00,-4.926602e-02,-2.887857e+00,-6.183444e-01,4.487159e-01,1.023932e-01,5.873156e-01,2.379308e+00,2.546013e-01,8.728253e-01,
1.972504e+00,7.696993e-01,1.429554e-01,2.341365e-01,1.256704e+00,-1.267433e+00,6.318730e-02,-1.146776e+00,7.824748e-02,4.628428e-01,2.839103e-01,2.458207e+00,3.488685e-01,7.244361e-01,-5.109981e-02,4.325995e-01,1.435272e+00,6.741666e-01,4.508926e-01,1.916165e-01,8.937312e-01,3.818644e-01,6.919767e-01,-4.035362e-02,-1.043072e-01,1.146911e+00,2.729397e-01,-2.629396e-01,-1.766460e-01,1.644688e+00,-2.179155e-01,-2.533206e-01,-2.688330e-01,5.085203e-01,5.129792e-01,-5.221043e-01,5.741212e-01,1.504633e+00,-3.624690e-01,-4.749402e-01,-1.339104e+00,-2.661811e-01,4.345112e+00,-2.105895e+00,1.993973e-01,6.902522e-01,1.193826e-02,1.381183e-01,9.276603e-01,-6.300668e-02,
-1.545819e+00,2.877293e-02,-1.395305e-01,3.134905e-01,2.997494e-01,1.637370e+00,3.338974e+00,3.106900e-01,3.619559e+00,2.276583e-01,4.475043e-01,-2.550493e+00,4.887494e-01,1.699622e+00,-4.190718e-01,4.907140e-01,-1.388344e+00,-6.280899e-01,-2.027471e-01,9.721504e-01,-1.412279e+00,3.166329e+00,-1.038595e+00,2.426809e-01,3.027858e+00,-5.584049e-01,-5.986748e-02,-1.685275e+00,3.513523e-01,4.852768e-01,2.449470e-01,1.704307e-01,-7.427244e-01,5.985533e-01,1.617773e-01,-1.545132e-01,2.410362e-01,-1.403363e-01,-2.883983e-01,2.107388e-01,1.355202e+00,-2.416573e-01,-3.910688e+00,2.688836e+00,6.320611e-01,6.080532e-02,9.908698e-01,2.475441e+00,-1.104751e+00,3.257194e-01,
-1.560223e-02,-1.227363e-02,1.301523e-03,4.572883e-04,6.861751e-03,-6.491377e-03,-2.260030e-03,-1.795876e-02,1.604626e-02,-2.788020e-02,5.870250e-03,2.825743e-02,-6.267025e-04,-9.377282e-03,-2.791353e-02,-4.359401e-02,-2.153190e-02,-4.031971e-02,-5.165435e-03,-6.780532e-03,2.718910e-03,-3.988650e-02,2.533087e-02,-3.854683e-03,-3.283917e-03,-6.800492e-04,-3.365237e-02,5.955308e-03,-5.201701e-03,2.472426e-03,-4.454494e-02,3.093808e-02,-3.385026e-02,1.022409e-02,9.333296e-03,-3.038502e-02,1.495514e-02,-4.977163e-02,1.025278e-03,1.936865e-02,-1.140102e-02,-3.701087e-02,-2.582328e-02,-7.436656e-03,-1.935090e-02,-4.260965e-02,-3.941879e-02,-5.185366e-03,-5.496161e-02,2.642368e-02,
2.079126e-01,-7.601149e-01,-4.102385e-01,2.300762e-01,3.078893e-01,-4.343425e-01,8.449794e-02,3.363107e-03,-1.132411e-01,-2.493889e-02,-1.109186e+00,-1.220426e-01,-5.706146e-01,-6.828773e-03,-1.127410e+00,5.780116e-02,4.737081e-01,4.415220e-01,-7.585510e-01,1.163698e-01,-3.188402e-01,-9.702467e-01,-7.238045e-01,-8.993209e-02,-4.256996e-01,3.035348e-01,4.304658e-01,-3.894323e-03,-5.506392e-01,-2.258011e-01,-5.560232e-02,-1.098454e-01,-1.766519e-01,-3.841805e-01,4.346495e-01,1.131864e-01,-4.722345e-01,-5.992199e-01,-1.761766e-01,-4.044662e-01,-6.128647e-01,-2.786703e-01,2.285925e+00,-8.605285e-01,-5.329544e-03,-4.425341e-01,-7.648131e-01,4.866148e-01,-2.543052e-01,4.560007e-01,
1.924556e+00,1.332339e-01,2.948728e-03,1.737236e-01,-9.456495e-01,6.387125e-01,5.475631e-01,1.878780e+00,4.775308e-01,5.547714e-01,8.169994e-01,9.728001e-02,8.435797e-01,2.956501e+00,8.000486e-01,1.214882e+00,-1.461388e-01,1.145523e+00,3.131760e+00,1.012377e-01,2.474249e-01,1.095104e+00,3.729392e+00,-1.378092e+00,3.921156e+00,-7.906187e+00,2.476058e-01,1.471685e+00,2.040806e-01,2.690116e+00,2.761418e-01,7.889351e-01,-2.377547e-01,8.972241e-01,-1.684708e+00,-1.107993e+00,-3.524857e+00,2.647141e-01,9.160612e-01,2.054649e+00,2.419076e-01,7.885717e-01,3.868330e+00,-1.211418e+00,9.953895e-01,8.792104e-02,6.606475e-01,2.471251e+00,-7.380002e-01,-3.476993e+00,
6.711833e-01,-9.666255e-01,1.251894e+00,2.044479e+00,-8.917699e-02,1.032890e+00,1.830425e+00,-3.469784e-02,2.198290e+00,8.718017e-01,2.711641e-01,5.410203e-01,2.751094e-01,1.292604e+00,4.660442e-02,-7.969577e-01,1.920895e+00,8.833144e-01,7.086683e-01,-9.539301e-01,1.123522e+00,3.404660e+00,-5.323796e-01,-4.503911e-01,4.502535e+00,-6.158717e-01,4.124849e-01,2.085620e+00,2.977479e+00,9.363443e-01,-1.236422e-03,7.041315e-01,3.080124e-02,1.673561e+00,-1.025816e-01,-1.286123e+00,-9.022325e-01,8.199717e-01,1.763904e+00,2.521343e-01,-1.252022e+00,1.747193e+00,-4.516570e-01,2.701130e+00,7.300055e-01,-4.722479e-01,-8.900200e-01,1.419358e+00,5.773799e-01,4.791188e-01,
3.395147e+00,1.501319e-01,2.150567e+00,1.406261e+00,-2.729467e-01,7.901922e-01,6.181294e-01,5.832760e-02,5.015881e+00,8.149399e-01,-6.779538e-03,-1.224723e+00,-7.056337e-02,2.892037e+00,-1.657528e+00,-4.019341e-01,2.665596e+00,6.915323e-01,2.999178e+00,2.133750e+00,1.049326e+00,2.997889e+00,2.500222e+00,-1.531768e+00,1.381962e+00,2.100947e+00,7.121988e-01,9.378471e-01,2.391402e+00,-6.795155e-01,-2.023712e-02,-8.193430e-01,1.752606e-02,1.367146e+00,2.202163e+00,-1.350178e+00,1.436938e+00,3.402053e+00,1.772824e+00,9.679797e-01,1.927739e+00,3.875957e-01,1.898970e+00,4.212714e-01,8.294340e-01,-2.223567e-03,-3.975425e-01,1.279871e+00,2.016341e+00,-5.273152e-01,
-2.447020e-01,-4.131572e-01,-1.617030e-01,-7.737041e-02,-2.059914e-01,-2.422358e-01,2.512654e-01,-2.083527e-03,-1.267695e+00,4.114655e-02,4.456048e-01,1.938066e-01,-5.634581e-02,5.577175e-03,2.556682e-01,-4.500950e-01,-4.069929e-01,-3.616937e-01,-4.614568e-01,-4.024895e-01,-3.260945e-03,-7.680516e-01,-5.287649e-01,-8.619024e-02,-2.511239e-01,-5.312458e-01,-1.073493e-01,-3.090734e-01,-1.004962e-01,-4.161482e-01,-1.165665e-02,-1.955235e-01,1.717443e-01,-1.844030e-01,1.449279e-01,2.157579e-02,9.380097e-03,9.336841e-02,-5.074187e-01,-3.052436e-01,-2.565539e-01,-2.595029e-02,-8.589386e-01,2.058407e-02,3.892150e-03,2.844034e-01,-4.085183e-01,-2.088955e-01,-2.082488e-01,-1.497193e-03,
-4.808631e-01,-1.210573e-01,-2.245252e-01,4.428850e-01,7.258423e-01,-2.610577e-02,1.248206e+00,2.083119e+00,-1.330447e+00,7.440231e-01,-2.977378e-01,9.228646e-01,1.337373e-01,2.999693e-01,-5.047207e-01,1.724121e+00,-7.133973e-01,-1.185853e-01,-3.309363e-01,-3.101881e+00,9.350846e-01,6.894855e-01,1.505570e+00,4.256777e-01,1.246892e+00,5.567794e-01,6.150960e-01,2.770003e-02,-1.450600e-02,6.741120e-01,4.362054e-01,1.058914e+00,6.954154e-01,-5.071993e-01,1.246789e+00,-5.906280e-01,1.581368e-01,-3.783327e-01,2.179518e+00,-7.489617e-01,1.106560e-01,8.357161e-01,2.358399e+00,2.131005e+00,3.723278e-02,1.239978e+00,5.546964e-01,2.880185e+00,8.961231e-01,-1.647830e-01,
1.746011e+00,1.149703e-01,5.447129e-01,8.196084e-01,1.296887e+00,-3.490312e+00,-1.596282e+00,1.765928e+00,2.577036e+00,1.068784e+00,2.297343e-01,-1.435734e+00,1.104005e+00,3.357110e+00,1.220842e+00,-1.780084e+00,2.057985e+00,1.750297e+00,1.887735e+00,6.405363e-01,1.835032e+00,3.321006e+00,8.780218e-01,-1.128604e+00,5.588981e-01,6.328050e-01,9.639125e-01,-1.068688e+00,2.207891e+00,1.362940e-01,-1.610967e-01,1.416671e+00,-4.058230e-01,2.310729e+00,2.516255e+00,-1.011124e+00,-3.032667e-01,2.027094e+00,-1.419313e+00,7.203305e-01,-1.333059e+00,8.223290e-01,9.100324e-02,8.917939e-01,8.429908e-01,7.019926e-01,-1.147478e+00,1.715728e+00,1.977654e+00,-4.569564e-02,
2.627401e-01,1.691154e-01,-1.013240e+00,1.516858e+00,1.758037e+00,1.957335e+00,-4.441581e-01,2.710521e+00,7.123510e-01,-8.352167e-02,4.784515e-02,1.787250e+00,1.045777e+00,3.525350e+00,1.147717e+00,8.033863e-01,-3.931696e-01,3.013247e-01,-1.262242e+00,-1.261955e+00,1.881082e+00,-7.574632e-01,-1.357550e+00,-1.811831e+00,1.190416e+00,5.221558e-01,1.153044e+00,3.579535e+00,1.915187e+00,1.009927e+00,2.311371e+00,1.587967e+00,5.946327e-01,1.938511e+00,7.347934e-01,-8.892586e-01,1.825183e+00,1.195966e+00,-7.365611e-01,6.251528e-01,-1.607117e+00,-8.553015e-01,2.252076e+00,-1.541420e-01,5.744863e-01,-1.243022e-01,1.628994e+00,5.997673e-01,3.828972e-01,-1.294584e+00,
6.122940e-01,-9.163522e-01,8.768453e-02,9.335808e-02,8.340498e-01,-1.443694e+00,-2.312447e+00,1.191702e+00,2.202322e-01,-2.999504e-01,5.072429e-01,1.513658e+00,3.976934e-01,-6.491232e-01,-1.294702e+00,1.981277e-02,-3.536547e-01,3.134789e-01,1.286561e+00,4.941962e-01,-4.796183e-01,1.673182e+00,8.598652e-01,-6.703182e-02,-3.725357e-01,7.328866e-01,2.953407e-01,-2.125734e-01,-3.963698e-01,6.092772e-01,2.385996e-01,7.975821e-01,4.680935e-01,-7.971148e-01,1.745257e-01,-1.208123e-01,-6.811419e-01,-2.153360e-01,8.685001e-02,5.004816e-01,-1.218652e+00,-1.528907e-01,3.536632e-01,2.216460e+00,-1.174461e+00,-1.157532e+00,2.682862e-01,1.854873e+00,-4.838831e-01,-3.737502e-01,
4.579462e-02,1.042872e+00,-1.806818e+00,3.087258e+00,-9.529462e-01,-7.848179e-01,-1.493875e+00,-2.812443e+00,2.373366e+00,-8.858426e-01,1.883931e+00,-2.352993e+00,3.875346e+00,2.835034e+00,1.456395e+00,2.165589e+00,1.541077e+00,1.607203e+00,3.438936e+00,-1.236141e+00,9.832812e-01,2.704833e+00,2.284771e+00,-2.150142e-01,3.650884e+00,1.541853e+00,2.202713e-01,2.882423e+00,-2.126364e+00,8.938726e-01,2.163530e+00,-1.050820e+00,3.179969e-01,3.996224e+00,2.722881e+00,-1.118880e+00,2.638030e+00,1.556412e+00,4.857240e-01,2.541444e+00,4.031465e+00,-8.350194e-01,5.523958e+00,1.601434e+00,1.090734e-01,1.164388e+00,5.128375e-01,1.909904e+00,2.113204e+00,2.029363e+00,
1.944694e-01,-3.300578e-01,-5.095314e-01,-7.051067e-02,1.302268e+00,8.272498e-01,-7.698725e-01,-6.277890e-01,9.790719e-02,2.511104e-01,9.638553e-01,-4.332868e-01,-2.638818e-01,3.800575e-01,-6.805880e-01,1.992963e-01,4.839576e-01,4.130757e-01,2.590755e+00,9.927415e-02,1.124077e+00,-2.584107e-01,-3.277692e-01,-6.243917e-01,1.510184e+00,-2.701173e+00,-6.286693e-02,1.316424e-01,-6.951016e-01,1.775828e+00,-2.288598e+00,4.205839e-01,-3.747264e-02,9.983426e-01,1.190298e+00,-4.581429e-01,7.026345e-01,-6.414759e-01,2.055337e+00,7.974305e-01,3.479983e+00,6.553095e-01,-1.482000e+00,1.085413e+00,-9.684467e-02,1.605201e+00,1.003323e+00,5.975119e-01,1.091552e+00,-1.013472e-01,
-6.671109e-01,1.793678e-01,-1.633280e+00,-1.435013e+00,-4.863301e-01,6.538357e-01,2.929154e+00,1.185110e-01,4.212045e+00,-4.682338e-01,1.460235e+00,1.828105e+00,-9.906833e-01,-1.859307e+00,-8.246950e-01,1.006199e+00,-1.657432e-01,1.252965e+00,1.173956e+00,-1.211830e+00,-1.427171e+00,7.580547e-01,-2.523972e+00,1.949668e+00,2.463416e+00,1.542585e+00,-2.629053e-01,1.635833e-01,-4.115554e-01,1.260936e+00,1.150221e+00,9.181983e-01,2.275145e+00,-4.869844e-02,1.196996e+00,5.731871e-02,8.285114e-01,-9.556370e-01,3.129061e-01,-1.488138e-01,3.498509e+00,-8.630917e-01,9.977319e-01,2.029623e+00,-1.466536e+00,2.078607e-01,1.061668e+00,1.755351e+00,-5.081398e-01,1.029700e+00,
5.147123e-01,-3.522150e-01,2.187119e-01,-1.086571e+00,3.552112e-01,3.262587e-01,-5.991506e-02,1.153906e+00,-7.302523e-01,1.279223e-01,1.120302e-01,-1.995325e-01,4.709511e-01,6.143429e-01,-8.357859e-02,1.727064e-01,5.951673e-01,7.784018e-01,-1.823514e-02,-6.412714e-03,2.009228e-01,3.346878e-01,2.529926e-01,2.273110e-01,3.719258e-01,-2.577757e-01,4.259946e-01,6.105258e-01,3.200482e-01,1.301675e-01,-1.093434e-01,-1.999668e-01,-6.109653e-01,-1.016850e+00,1.065859e-01,-3.149388e-01,4.576062e-01,9.275542e-01,-2.509317e-01,4.210628e-01,-2.081372e-03,-6.291454e-01,-1.202976e+00,3.156296e-01,-7.920750e-01,1.078565e-02,2.573076e-01,-1.854458e-01,-3.307946e-01,-1.836473e-01,
1.405566e+00,-4.726746e-01,1.761619e+00,1.616702e+00,7.301376e-01,1.180820e+00,1.806102e+00,-1.195831e+00,2.797829e+00,4.883094e-01,7.615768e-01,3.011495e+00,5.207368e-01,1.948279e+00,1.491698e+00,5.176619e-01,1.235009e+00,-3.455498e+00,1.879694e+00,1.216550e+00,1.364659e-01,1.941036e+00,2.527645e+00,-2.320051e-01,5.548205e-02,-4.095823e-01,8.600807e-01,1.274366e-01,3.485878e-01,6.929139e-01,-1.025946e+00,7.872885e-01,4.090187e-01,2.351328e+00,1.370382e+00,-1.158934e+00,1.456767e+00,1.930611e+00,2.600421e+00,1.446800e+00,6.858305e-01,8.975433e-01,8.991813e-01,-9.338022e-01,2.277584e-01,6.345183e-01,4.912955e-01,1.704188e+00,9.614955e-01,8.710999e-01,
-1.345356e+00,-1.192259e+00,1.197102e-01,2.467781e-01,-7.338610e-01,-1.867957e+00,2.148294e+00,-1.600320e-01,2.231045e+00,2.267871e-01,3.352690e-01,-5.037445e-01,-6.209444e-01,4.049400e-02,-1.692673e+00,1.158933e-01,9.591501e-02,-3.954129e-01,6.596673e-01,5.726234e-01,8.796625e-01,8.557929e-02,1.691173e-01,3.664395e-02,1.464990e+00,1.403249e+00,-1.198474e-01,-6.505621e-01,-7.207136e-01,3.803673e-01,7.799461e-01,3.767653e-01,-6.937996e-02,9.980668e-01,3.408599e-01,-9.438349e-02,2.854649e-01,-7.249998e-01,1.737279e-02,8.331583e-01,-7.284039e-01,6.239601e-01,-4.787764e-01,7.753237e-01,-3.858415e-01,2.075666e-01,-2.091523e-01,-5.286041e-01,-4.711149e-02,-2.131344e-01,
4.819832e-01,-5.342747e-03,5.056823e-01,2.259673e-01,-9.611688e-01,3.197570e-01,-4.065832e-01,3.032450e-01,2.651182e-01,5.811807e-01,8.072691e-02,1.399726e+00,9.472602e-02,8.165773e-01,-6.395528e-01,3.604781e-01,8.494468e-01,5.584333e-02,2.524083e-01,4.877790e-01,1.626513e-01,6.347893e-01,-9.071466e-01,1.650348e-02,-5.982151e-01,5.397190e-01,4.378402e-03,1.532079e+00,5.840783e-01,-1.109364e-01,-4.852924e-01,-2.007895e-01,-4.334719e-01,7.890585e-01,1.806301e-01,-3.878573e-01,1.230577e-01,8.993695e-01,-1.185351e-01,2.586091e-01,-5.651642e-02,3.351463e-02,1.853529e+00,9.654346e-02,-1.982890e-02,1.129471e-01,-7.813717e-02,2.931511e-01,-6.369951e-03,2.119847e-01,
6.133222e-01,-1.321598e-01,7.743100e-01,2.022895e+00,3.902619e-02,-4.805586e-01,9.671222e-01,1.736630e-01,-1.070334e-01,8.834441e-01,-1.471488e+00,1.499880e-01,2.241528e-01,5.326131e-01,-1.455176e-02,4.152148e-01,-9.058948e-01,2.218406e-01,4.309035e-01,1.762315e+00,2.069549e-01,1.324607e+00,-2.432008e+00,4.956962e-01,-3.546763e+00,1.132529e+00,5.182996e-02,4.891214e-01,1.328224e-01,9.521595e-01,-9.367685e-01,-3.568670e-01,-4.853974e-01,-2.045877e+00,6.481348e-01,-6.072380e-01,-5.073338e-01,-1.902001e-01,2.581468e-01,8.913729e-01,1.393453e-01,6.386369e-01,3.214437e+00,-9.119277e-01,3.842599e-01,1.014498e-01,2.673767e-01,6.097707e-01,4.619217e-02,1.231163e+00,
1.327050e+00,3.225053e-01,-6.427243e-01,-7.301567e-03,6.880627e-01,-6.850682e-01,4.607680e-01,2.134584e+00,1.356579e+00,-2.853374e-01,1.485385e+00,1.660792e+00,-9.668009e-01,3.801713e-01,6.896292e-01,1.295658e+00,1.016153e+00,-6.814570e-01,-5.278890e+00,9.287551e-01,-1.389904e+00,6.215044e-01,1.801492e+00,-3.586303e-01,-2.338718e+00,1.156050e+00,-7.333717e-01,6.848230e-02,-1.795710e+00,-9.745815e-01,-2.796620e+00,-6.036876e-01,4.759457e-01,-2.959295e+00,3.310884e-01,-1.431844e-01,4.477657e-01,8.669101e-01,-5.623512e-01,1.027616e+00,2.260581e-01,-5.733243e-01,2.942981e+00,8.391675e-01,-5.142435e-01,1.715192e-01,5.823551e-01,1.316211e+00,6.386051e-01,-3.114874e+00,
6.020618e-01,-1.079326e+00,3.233891e-01,7.307591e-01,-5.864379e-01,1.910346e+00,-8.568739e-01,3.031394e-01,4.134960e+00,1.029937e-01,5.242644e-01,1.066054e+00,-5.889098e-01,2.113188e+00,-1.282125e+00,-4.823494e-01,-2.358804e+00,1.489010e-01,7.949685e-01,1.096696e+00,4.089978e-01,2.384854e-02,1.913637e+00,1.230385e+00,2.793728e+00,-5.232387e-01,-4.213102e-01,1.918106e+00,-1.530393e+00,9.223147e-02,2.039281e-01,3.262105e-01,-4.250066e-01,-2.678305e+00,-5.374127e-01,-5.038173e-01,-8.775766e-01,-3.783945e-01,1.804125e-01,4.240705e-02,3.709826e-02,9.019668e-01,9.120762e-01,2.171762e+00,3.277869e-01,2.404032e-01,-4.782281e-02,-1.082095e-01,6.842805e-01,4.066650e-01,
-1.176453e+00,6.684732e-01,-8.197449e-01,-1.723866e+00,-8.249699e-02,-1.177122e+00,-1.703911e+00,-1.448850e+00,8.113163e-01,1.782192e-02,-1.040635e-01,-4.327525e-01,-1.518017e+00,3.423457e-01,-9.419569e-01,-3.728600e-01,5.266986e-01,-5.149277e-01,9.270486e-01,-1.270782e+00,-1.207516e+00,-4.815607e-01,-1.694580e+00,7.158740e-01,2.323179e-01,-4.964227e+00,-5.006711e-01,2.311770e-01,6.828162e-01,-1.487619e+00,6.922562e-01,-2.254275e+00,-5.919921e-01,-3.401917e-01,-5.747696e-03,4.226409e-01,-7.677906e-01,-1.688250e+00,1.483726e+00,-7.472620e-01,4.307744e-01,-1.385479e+00,-3.598104e+00,-2.161863e+00,2.240711e-01,-4.642800e-01,-4.231475e-01,-1.512166e+00,-1.746129e+00,5.428143e-01,
1.715537e+00,1.020560e+00,1.391319e+00,1.486318e+00,1.150176e+00,1.385195e+00,2.508288e+00,2.807793e-01,2.676001e+00,8.681525e-01,-5.484872e-01,-1.547833e-02,-2.776669e+00,2.646360e+00,3.103355e-02,-2.447689e+00,4.364527e-01,1.172343e+00,1.730402e+00,6.978081e-01,-2.599478e-01,4.397328e+00,-2.588445e-02,-3.176058e-01,2.327730e+00,-8.499781e-01,4.802901e-01,1.042343e+00,1.165648e+00,6.384993e-01,-1.915824e+00,7.100440e-01,9.471320e-02,8.075399e-02,1.190354e+00,-1.082315e+00,-1.708364e+00,7.999452e-01,3.363291e-02,2.633237e+00,-2.488303e+00,9.420380e-01,1.785240e+00,8.093438e-01,1.232063e+00,5.260240e-01,-3.701616e-01,-1.673059e-01,7.339997e-01,7.439615e-01,
2.147716e+00,1.234167e+00,-5.622586e-01,-2.183061e-01,8.466119e-03,7.884893e-01,3.391499e+00,9.565710e-01,4.539655e+00,2.625813e-01,-4.119653e-01,1.991182e+00,-1.553105e+00,2.620028e+00,-1.960948e-01,8.198088e-01,1.527836e+00,-6.063016e-01,-1.084446e+00,9.316679e-01,3.698287e-01,2.923203e+00,9.650203e-01,-1.213806e-01,-4.946311e-01,-7.718520e-01,-8.720844e-01,-1.103584e+00,5.186859e-01,3.709288e+00,3.860492e-01,4.025068e-01,9.313269e-01,1.260207e+00,5.349877e-01,-5.588727e-01,9.203861e-01,1.481912e+00,-5.998141e-01,-8.900078e-01,1.679084e-01,6.099774e-01,1.421708e+00,-5.181198e-01,8.487242e-01,-2.438608e+00,5.160756e-01,-5.804044e-01,6.314628e-01,-7.560394e-01,
-3.117114e+00,-6.534908e-01,-1.062350e+00,-3.603354e-02,-4.842613e-01,-2.093202e+00,-9.617487e-01,-6.555166e-01,3.224468e+00,-4.031377e-01,9.146503e-01,6.571649e-01,-4.429672e-01,-4.508986e-01,1.816466e+00,7.370626e-01,-2.322222e+00,-1.896155e+00,-2.136357e-02,3.039383e-02,1.643706e+00,-1.007524e+00,-1.466712e+00,-3.172911e-01,-6.236700e-01,-1.592559e+00,-1.449906e+00,-7.736628e-01,-1.958794e+00,1.740579e+00,2.207178e-01,1.424681e+00,-3.228552e-01,-3.341700e+00,7.113228e-01,2.192176e-01,1.847808e-01,-1.128284e+00,-9.647930e-01,-3.331605e-01,2.309286e+00,-1.170120e+00,-1.352676e+00,-6.634034e-01,-2.793233e-01,2.017977e-01,-6.514664e-01,1.645553e+00,6.666773e-01,1.426422e+00,
