// The contents of this file are licensed under the Creative Commons
// Attribution 4.0 International License: https://creativecommons.org/licenses/by/4.0/
// Neural Network File Format by Kyle Julian, Stanford 2016 (generated on 04/06/2022 00:56:05)
7,5,5,50,
5,50,50,50,50,50,50,5,
0,
0,0,0,0,0,
0,0,0,0,0,
19791.091,0.0,0.0,650.0,600.0,7.5188840201005975,
60261.0,6.28318530718,6.28318530718,1100.0,1200.0,373.94992,
-1.136536e-01,2.682957e-01,-9.664086e-02,-1.405144e+00,-5.600073e-01,
7.538088e-01,1.961678e-03,2.665682e-01,1.060376e-01,-1.785836e-01,
-6.817193e-02,2.667440e-04,1.650003e+00,2.701388e-02,-6.124732e-03,
6.405053e-02,8.433048e-03,6.189577e-02,-6.359392e-01,-1.466813e+00,
-9.542350e-02,1.535065e-01,-3.643539e-01,-3.402496e-01,4.532820e-02,
2.265515e-02,-1.489376e+00,-2.597398e-03,9.119273e-03,-4.948988e-02,
1.086629e-01,-1.167362e-01,1.815779e-01,-1.277237e-02,-1.325768e+00,
1.183207e-02,-6.292856e-02,-2.472796e-02,-1.053176e+00,4.815465e-01,
-4.270525e-01,-9.029865e-02,8.564339e-02,-4.603903e-01,1.898151e-01,
1.212013e-02,1.201275e+00,-1.190497e+00,-1.096947e-01,5.351504e-01,
-4.700820e-02,2.724735e-02,1.135022e+00,2.482461e-02,-9.804455e-03,
-2.235449e-01,1.210549e+00,1.625064e+00,6.323079e-01,-2.676122e-01,
-1.571279e+00,3.008391e-02,-6.152081e-02,-2.575984e-01,1.551250e-01,
1.420325e-01,7.577087e-01,2.586815e-01,-8.660530e-01,9.743426e-02,
8.386284e-02,-1.055588e-01,1.240333e-02,-6.640006e-01,-1.477116e+00,
3.607697e-02,-2.843211e-01,3.232732e-01,-1.706361e-01,-1.667687e+00,
-6.411300e-02,1.057119e+00,6.525609e-01,-3.455016e-02,6.238795e-04,
1.370471e-01,1.429502e-01,-1.527938e-02,-1.242771e+00,-7.232076e-01,
1.478983e-02,-2.314892e-02,7.247377e-02,5.960480e-01,-9.620293e-01,
2.629921e-01,1.034276e-01,-9.692049e-02,-5.620982e-01,-1.161315e+00,
1.100249e-02,-1.366394e-01,7.278805e-02,-1.471086e+00,-6.155761e-01,
-1.381153e+00,-4.225435e-02,-8.850888e-02,4.213488e-02,-5.224662e-01,
-3.094281e-03,-7.193775e-01,-1.121799e+00,9.944420e-02,-7.088139e-02,
-1.990171e+00,-1.078710e-01,1.716305e-03,8.861575e-02,1.451779e-01,
-5.659912e-02,-1.607886e+00,1.833318e+00,-8.303529e-02,3.768802e-01,
1.020450e-01,-1.821805e+00,3.627244e-01,-1.948659e-01,-7.019874e-01,
1.524365e-01,-1.086626e-02,-2.463923e-01,3.652019e-01,-9.925494e-01,
-3.306084e-02,6.323119e-04,-5.201737e-03,-7.743321e-01,-9.844213e-01,
-2.055550e-02,2.382620e-02,-7.104810e-03,9.934860e-03,-1.958510e-03,
-8.148713e-01,-3.448623e-02,-2.046517e-02,-6.490964e-02,-2.881699e-02,
1.320134e-01,1.134826e-01,1.015548e-03,-1.015656e+00,-1.165174e+00,
-1.219167e+00,-3.636519e-02,-1.595303e-01,-4.036033e-01,-2.406445e-01,
-2.899697e-02,-5.346366e-02,-5.377498e-02,-7.155575e-02,1.091602e+00,
-6.682649e-02,-1.523733e+00,1.263937e+00,-1.080790e-02,-2.793708e-01,
7.540931e-03,1.882219e-01,5.921078e-01,-4.814813e-01,5.106459e-01,
-5.456894e-01,-5.820481e-01,5.876000e-01,2.359179e-01,-3.923599e-01,
1.266145e-02,-1.487258e-01,-6.868601e-02,-3.548198e-01,-6.440262e-02,
-1.015469e-01,-3.849711e-02,2.913116e-01,-1.126477e-01,-1.545043e+00,
-7.018316e-01,9.733272e-02,-4.663510e-01,-4.130790e-02,3.081368e-01,
-1.444703e+00,-4.250342e-02,7.700763e-01,1.178834e-01,2.268001e-02,
-1.908099e-01,1.000436e+00,-1.294296e+00,2.315584e-01,-4.576105e-01,
-3.715322e-01,-1.820987e-01,-7.606664e-02,-1.217290e+00,1.112323e-01,
-1.671233e+00,2.676605e-02,-2.243369e-03,1.056318e-01,-2.952740e-01,
-9.692743e-03,-1.147944e+00,-7.670149e-02,1.236041e-01,-1.224940e-01,
-6.045171e-02,2.974608e-01,4.138718e-01,-2.723366e-01,8.162344e-02,
-1.955620e+00,1.169899e-01,5.757790e-02,7.704803e-02,-1.121115e-01,
-2.191940e-02,-2.431670e-03,8.030580e-03,4.777200e-03,6.413400e-03,
-8.991313e-02,2.355879e-01,-3.408290e-01,-5.411413e-01,-1.419500e+00,
2.578743e-01,2.093858e+00,-5.880867e-01,1.473757e-01,-2.086279e-01,
-1.404937e+00,-1.742088e-02,-7.488260e-02,-9.401685e-02,-5.440550e-02,
-4.163286e-01,
2.894770e-01,
2.899459e-02,
-7.057000e-01,
-5.912952e-02,
-2.177109e-02,
-2.077379e-01,
-7.190067e-02,
-1.323085e-01,
-3.153993e-01,
1.632736e-01,
-1.689796e-01,
-4.487724e-01,
-3.262580e-01,
-6.263064e-01,
-1.307839e-01,
-3.332659e-01,
-6.963723e-01,
1.266969e-01,
-6.214782e-01,
-5.745950e-01,
-4.366300e-01,
6.256483e-03,
-3.829299e-01,
-1.650136e-01,
-3.271399e-01,
1.771375e-01,
-1.424064e-01,
-3.032110e-02,
4.575629e-02,
-1.007714e+00,
-5.375167e-01,
1.801807e-01,
-5.993016e-03,
2.149163e-02,
-9.542327e-02,
7.232274e-02,
-6.485191e-01,
-1.668660e-01,
-4.073057e-01,
1.900345e-01,
-4.729038e-01,
-5.280806e-01,
2.774439e-02,
8.343997e-03,
-3.785793e-01,
-1.804910e-02,
-6.028819e-01,
-8.773456e-03,
-1.912103e-01,
-1.942465e-01,-4.327938e-02,-6.989120e-02,1.086875e+00,3.007768e-01,-2.348171e+00,1.988893e-01,-1.475034e-01,6.292751e-01,1.413484e+00,-9.256613e-02,-1.434389e-01,-4.670860e-01,-7.493533e-01,6.379072e-01,1.613021e-01,-1.622365e-01,6.402103e-01,-3.717533e-02,6.984458e-01,-3.136403e-02,7.511005e-01,2.870162e-01,3.177023e-01,3.850047e-01,4.335454e-02,-5.048280e-01,-2.373253e-01,-9.773630e-03,5.685188e-01,2.373095e+00,1.060171e+00,-6.316247e-01,-9.094574e-02,-9.872077e-01,4.532097e-01,-3.439083e-02,8.049681e-01,-4.497154e-03,5.602642e-01,-1.693358e-01,1.029537e+00,6.922084e-02,-1.129440e+00,8.200282e-03,2.650617e-01,4.432410e-02,-2.829256e-03,-7.705957e-01,4.431067e-01,
8.260620e-01,-1.580669e+00,-6.393580e-01,-4.088971e-01,3.444718e-01,4.502214e-02,-7.381736e-02,1.876170e-01,1.099255e-01,-1.753157e-02,6.319228e-01,3.780239e-01,9.656631e-01,-2.952479e-02,-1.157670e+00,-6.257397e-01,-2.751637e-01,9.751682e-01,-8.971332e-01,1.179437e+00,-3.392276e-01,3.645085e-01,5.795550e-01,6.846402e-01,-2.207631e-01,8.656589e-02,-1.421633e+00,2.011267e-03,-2.890950e-02,1.300805e-01,1.845342e+00,6.147540e-01,-3.199360e-01,1.741309e-01,8.780571e-01,-1.006660e-02,-5.277596e-01,-5.113264e-01,2.585592e-01,-1.154446e+00,-7.202803e-01,4.421890e-02,7.022514e-01,3.123695e-01,7.536989e-01,1.021948e+00,-2.494680e-02,1.421457e-01,-2.105618e-01,6.992288e-01,
2.640757e-01,1.777876e+00,-2.931700e-01,-1.433895e-02,2.709313e-01,4.674943e-01,1.644258e-01,2.381177e-01,-2.021098e-01,1.687795e-01,2.891868e-01,1.235851e-01,-4.036529e-01,1.609569e-01,1.381109e-01,2.539689e-02,-1.008400e-01,6.338339e-01,-8.308451e-01,-4.111365e-01,-1.095282e-01,-5.883731e-01,-3.780003e-01,9.717327e-03,-5.297210e-02,9.460443e-02,5.768070e-01,1.144994e-01,-4.578210e-02,-1.550112e+00,-2.749902e-01,-8.353016e-01,-2.856630e-01,-8.325311e-04,-2.693374e-01,-6.035327e-01,8.333633e-01,-8.539482e-01,-2.949204e-01,3.568671e-01,6.113039e-02,1.516707e-01,-1.791159e-01,1.428699e-01,1.295948e-01,-7.487372e-01,-1.815790e-02,2.480952e-01,-1.184974e-02,-1.151606e+00,
-1.279919e+00,3.924888e-02,-1.839122e-01,1.270734e+00,-9.819998e-01,-3.379740e-02,9.316615e-01,1.958169e+00,1.309224e-01,4.814044e-01,-1.415527e-01,-5.445111e-03,2.411499e-01,5.808102e-01,-1.463981e+00,-1.391127e+00,-2.718496e-03,1.178068e+00,-2.057851e-01,-5.974410e-01,8.527088e-01,1.737636e-01,-2.329717e-01,1.802418e-01,-4.234868e-01,1.584787e-01,5.849998e-01,1.242179e+00,3.892090e-03,1.980582e-01,-3.277124e+00,-5.094385e-01,-3.197039e-01,8.128893e-01,1.013731e+00,-5.394009e-03,4.650567e-01,1.352913e+00,-1.693763e-01,-2.418944e-02,8.309670e-01,8.856069e-01,1.699092e-01,-2.810178e-01,6.753287e-02,3.138740e-02,-1.678540e-02,8.799687e-01,-4.499143e-01,-2.125208e-01,
5.846680e-01,-5.537434e-02,3.035735e-01,1.727663e+00,-4.468787e-01,-5.359434e-01,2.465710e-01,-8.442977e-02,1.144722e-01,-3.571105e-01,9.399183e-01,1.932501e-02,-2.156601e-01,-1.894594e-01,-1.111909e+00,-3.107524e-01,7.938439e-01,1.070084e+00,-2.894873e-01,-7.199437e-01,-8.865902e-01,-9.920619e-01,-8.958764e-01,1.154960e-01,-2.234399e-01,-3.347418e-01,1.328388e-01,5.007502e-01,-6.049890e-03,-6.794745e-02,6.339905e-01,3.552585e-01,-1.825618e-01,-9.907951e-01,-3.690180e-01,-7.467991e-02,-1.151157e-01,-4.146580e-02,-2.083054e-01,1.144857e-01,1.278615e-01,-1.809363e-01,-3.836335e-01,-4.685421e-01,2.194986e-03,-2.088659e-01,3.788750e-02,-3.251225e-03,1.473870e+00,-1.684409e-01,
-1.812510e-01,-3.799454e-02,-5.844629e-01,5.156004e-01,-2.696178e-01,-9.086154e-03,2.974494e-01,-3.129793e-01,1.288163e-01,1.452972e-01,4.826112e-01,2.614621e-01,4.182148e-01,5.754552e-01,9.066181e-01,-8.888554e-01,-3.305849e-01,5.510634e-01,-1.661180e-01,-7.936385e-01,1.441253e+00,-5.298617e-02,3.153878e-01,-1.345283e-01,-6.124991e-01,2.582292e-01,3.162917e-01,8.666785e-01,1.238190e-02,-2.541025e-02,-1.580136e+00,-2.503003e-01,6.073202e-01,-7.638430e-01,1.421823e-01,-4.219645e-01,1.261693e+00,-3.628137e+00,2.625482e-01,-2.084162e-01,-6.841028e-01,-3.060054e-01,-1.507231e-01,-8.995688e-01,-3.916496e-02,-3.785571e-01,9.671420e-03,-5.564964e-01,4.765062e-02,6.809860e-02,
1.130936e-01,-1.073357e-01,-1.165973e+00,-2.603633e-01,1.218019e-01,7.287296e-03,-3.759474e-01,-1.667377e-01,2.656098e-01,-3.164698e-01,-1.273974e+00,8.267345e-02,5.938189e-02,-3.327254e-01,2.644196e-01,-5.196545e-02,6.963053e-01,-3.647301e-01,-2.556268e-01,-2.318894e-01,2.199268e-01,-4.614124e-01,1.534582e-01,1.262360e-02,-4.400679e-01,4.719856e-01,-5.141948e-02,6.977554e-02,2.488560e-02,-7.646604e-02,3.809094e-01,6.943486e-01,4.702734e-01,-1.735906e-01,-1.088994e+00,-7.714431e-02,7.508790e-03,-2.005298e+00,5.119227e-02,-8.643838e-01,7.849584e-02,1.337088e-01,4.749116e-01,6.907594e-02,-9.072346e-02,1.612024e-01,-1.179290e-03,-9.554714e-02,-3.531605e-01,-6.153025e-02,
5.150810e-01,-9.378121e-02,5.114252e-01,-1.473976e+00,4.852197e-02,4.932235e-01,1.235927e-01,6.101540e-02,-4.571789e-01,-1.197862e+00,-1.165738e+00,2.886138e-02,-1.835636e-01,-2.610943e-01,6.323000e-01,-8.401899e-02,1.029991e+00,6.864652e-01,-6.918803e-01,2.108082e-03,5.408278e-01,4.782110e-01,8.319374e-01,-2.644652e-02,-7.329516e-01,-8.042035e-01,3.305174e-01,1.694254e-01,3.750310e-03,2.021722e-01,-3.441253e+00,-9.009803e-04,3.809566e-01,-3.610349e-01,1.511166e+00,-8.224717e-02,-2.856726e-01,-4.772806e-01,1.704412e-01,-1.004633e-01,-1.116852e+00,-2.539724e-01,-1.452955e-03,8.839647e-01,1.038881e+00,2.096506e-01,-2.630810e-02,-1.310981e+00,-2.961852e-01,1.964864e-01,
1.599111e-01,-1.627244e-01,-4.944343e-03,-1.124543e+00,-2.406938e-01,1.148118e-01,1.189398e+00,-2.247532e-01,9.136353e-02,-1.083850e-01,-3.312946e-01,-8.170900e-02,1.253234e-01,3.232806e-01,7.920647e-01,3.133250e-01,-2.880702e-04,8.099428e-01,-1.015902e+00,-1.026084e+00,1.042093e-01,-9.952011e-01,-7.954066e-02,3.574511e-02,2.506143e-01,1.215274e-02,-7.170452e-01,-7.125480e-01,2.919470e-02,9.443861e-03,4.124508e-01,9.164830e-01,-1.563034e+00,2.588390e-02,-1.394144e-01,-2.927544e-01,6.849834e-01,1.058610e-01,-2.133443e-01,1.102534e-02,-2.875842e-03,5.810171e-01,-1.272706e-01,-1.263334e-01,3.687531e-01,-3.061956e-01,2.532130e-02,6.732993e-01,-1.146393e-01,1.268473e-01,
6.977852e-01,-6.908460e-01,3.680592e-01,-8.419214e-01,-1.321620e+00,1.023088e+00,7.535926e-01,-2.044931e+00,-1.588209e+00,-2.056493e+00,2.598843e-01,-3.633403e-01,-1.973741e+00,-6.732808e-01,8.094795e-01,7.518803e-01,5.693017e-01,-2.210597e-01,-3.758401e-02,1.252610e+00,-2.200170e-01,-6.252841e-01,-1.075829e-01,-3.113455e-01,2.622544e-02,1.695019e-01,-9.962322e-01,-4.357797e-01,-3.438540e-03,1.712662e-01,1.684682e+00,2.119765e+00,-1.527108e+00,-1.872731e-01,-1.983141e-01,-4.494824e-02,-1.523273e+00,1.771418e-01,-3.862533e-01,-5.819502e-01,6.849040e-03,-2.266416e+00,1.959504e+00,7.725785e-01,-1.479980e+00,-4.006162e-01,-3.005350e-02,2.170392e-01,1.244513e+00,1.048912e-01,
-5.234302e-01,-6.590383e-02,-8.655049e-01,3.163666e-01,-4.518950e-01,2.181860e-01,-5.835807e-01,-3.343160e-01,3.894624e-01,1.265072e+00,-1.177970e-01,1.432419e-01,-1.570015e-01,-1.311726e-01,6.065292e-01,-5.133530e-01,-1.077371e-01,1.641586e+00,1.564474e-01,1.872103e+00,-2.279500e-01,8.314057e-01,1.894737e-01,-1.894454e-01,-6.435124e-01,3.010661e-01,-2.749535e-01,6.476642e-01,4.580470e-03,1.906134e-02,-8.933796e-01,1.205760e+00,8.804965e-01,5.341401e-01,8.366540e-02,4.089042e-01,4.914063e-01,-8.513732e-01,2.337938e-01,-1.192412e-01,-7.400712e-01,-3.472573e-02,-5.446957e-01,-6.551705e-02,6.181484e-01,-1.135358e-01,4.305310e-02,-3.587222e-01,-2.952670e-01,2.836667e-01,
1.581183e-02,1.952735e-02,-6.137071e-01,-1.947046e-02,6.919731e-02,-1.116234e-01,3.368384e-01,3.858930e-01,1.778188e-01,7.727453e-02,-1.057903e+00,-2.919984e-01,1.180596e-01,-3.473210e-01,-9.036186e-01,-3.589809e-01,-4.556310e-01,6.040906e-01,-3.201351e-01,-3.031696e-01,2.982557e-01,9.011674e-02,8.593909e-01,-8.417094e-02,-2.941799e-01,1.771918e-01,-6.709321e-01,8.204647e-02,-2.859210e-02,-5.579007e-01,9.088255e-03,-8.125936e-02,-5.391199e-01,2.378401e-02,9.412042e-01,1.730529e-01,-9.745102e-02,2.239858e-01,2.550474e-01,-5.661571e-02,-3.563969e-01,1.330590e-01,-6.438583e-03,-1.733947e-01,5.835439e-01,-3.367091e-01,1.272300e-02,-1.626111e-01,9.992548e-03,-5.478768e-01,
-1.175331e-01,2.911910e-02,1.133763e-03,7.223815e-01,6.992810e-01,3.935326e-01,-1.311243e+00,-7.625506e-02,3.508787e-01,5.807192e-01,5.136071e-01,-2.378815e-01,-6.708797e-01,-6.826386e-02,7.168205e-01,-3.816735e-01,-3.371861e-01,-1.063051e-01,1.801415e+00,3.572956e-02,5.403249e-04,1.537318e+00,-8.926379e-02,-2.748015e-02,8.740705e-01,-1.183529e-01,-7.526243e-01,9.123672e-01,1.223870e-02,-4.839702e-01,1.299820e+00,7.912966e-01,3.289222e-01,5.576740e-01,-1.095210e+00,-6.670214e-02,-3.030835e-02,1.695517e-01,4.057909e-01,6.454211e-01,8.069326e-01,-3.687342e-01,-7.048056e-01,-7.774288e-02,-1.488988e-01,1.794418e-01,-2.401310e-02,-6.692523e-01,5.562152e-01,8.903451e-02,
-3.083059e-01,-4.448936e-01,-1.763648e+00,-2.064172e-01,9.015783e-01,4.911142e-01,-2.719919e-01,1.423223e-01,-1.380058e-01,8.934243e-01,-1.358370e+00,-2.549566e-01,1.514785e-01,-3.570213e-01,3.378007e-01,-2.621916e-01,-1.201916e+00,1.740832e+00,2.636666e-01,-1.211381e+00,7.044594e-01,4.409129e-01,-6.629368e-03,4.563260e-01,-5.333835e-05,-9.444296e-01,-2.411623e-01,8.999997e-01,7.177800e-03,-1.276454e-01,-1.940168e+00,9.334840e-01,-1.928383e-01,-1.005413e+00,-4.541432e-01,8.799154e-01,5.595890e-01,4.282065e-01,5.590352e-02,1.123325e+00,2.870339e-01,1.641307e-01,-3.506248e-01,-4.680358e-01,-5.311685e-03,-9.493867e-01,-1.387810e-03,-9.587349e-01,1.246695e+00,-8.704532e-02,
2.358128e-01,1.193530e-03,-5.113299e-01,-9.370748e-01,1.343324e-01,3.350473e-03,-6.242864e-01,-4.755956e-01,-7.832051e-02,-4.125078e-01,-4.202152e-01,1.276098e-02,-1.365987e-01,-7.205482e-02,1.705655e+00,1.496445e-01,1.344954e+00,5.603279e-01,3.417652e-01,6.243592e-01,-4.475519e-02,5.297386e-02,3.566767e-01,-3.074926e-02,3.086471e-02,-3.882797e-01,2.227068e-01,3.007376e-01,-4.525230e-02,9.554475e-02,8.343523e-04,4.107423e-01,4.919856e-01,-2.180912e-01,-8.735730e-02,1.210293e-01,5.954095e-01,3.646670e-01,-3.681964e-01,1.190705e-01,-1.364179e-01,-9.818634e-01,-6.723541e-01,9.817470e-01,-8.662447e-01,-3.215835e-01,-1.785880e-02,-1.144643e+00,-4.341758e-01,1.035406e-01,
-8.184080e-03,-3.481390e-02,3.892730e-02,-1.996570e-02,-2.843380e-02,-5.302310e-02,-4.437820e-02,2.977830e-02,-4.238250e-02,-8.832160e-04,-3.395240e-02,-4.435990e-02,-4.144050e-02,-2.510800e-02,1.617580e-03,-1.944370e-02,-3.017730e-02,-3.495530e-03,-4.097240e-02,-3.911950e-03,5.056900e-03,2.683620e-02,1.434360e-02,-2.123170e-02,1.299420e-02,-1.869560e-03,-8.318220e-03,2.097650e-02,-2.207600e-02,-1.460200e-04,-5.085470e-02,-2.834060e-02,-4.208750e-02,-2.493300e-02,3.494690e-02,2.783580e-02,2.310510e-02,-4.253980e-02,3.671790e-02,-1.837580e-02,-5.024100e-02,2.244730e-02,-3.962860e-04,1.446940e-02,-2.608410e-02,3.436760e-02,1.252520e-02,1.565540e-02,-2.280260e-02,1.245460e-02,
-3.074198e-01,-7.146131e-02,6.292753e-01,1.033182e+00,-1.176209e-02,-3.868378e+00,-2.297110e-01,-3.726994e-01,-1.003748e+00,2.771266e-01,-8.924909e-01,-1.676651e-02,-6.545432e-01,7.084039e-02,-1.565031e+00,5.039735e-01,-2.552134e-01,1.999435e-01,-2.521714e-01,-7.281023e-01,1.318983e-01,1.553565e+00,-6.076889e-01,2.373544e-02,-3.815412e-02,-4.601455e-01,2.523925e-01,-1.403041e-01,2.007430e-02,9.374797e-02,1.422584e+00,1.794784e+00,1.323506e-02,-3.703876e-01,4.394544e-01,-1.179042e-02,-1.037956e-01,5.759254e-02,8.687273e-01,8.613847e-01,2.963734e-02,-5.099121e-01,1.409862e+00,-8.647544e-02,2.371411e-01,2.352582e-01,7.167190e-03,-2.764425e-01,5.595147e-01,1.411005e-01,
-3.170257e+00,3.829069e-02,2.023688e-01,-6.611353e+00,6.575821e-02,-8.737129e-03,-2.270826e-01,6.091124e-01,3.899449e-01,-2.594723e+00,2.117378e-01,1.548574e-02,-2.904450e-01,9.716883e-01,1.022659e+00,-1.512635e+00,-7.757324e-02,1.124664e+00,7.035075e-01,2.900360e+00,-2.256046e-01,2.062190e-01,-1.560033e-01,1.123069e-02,-4.987967e-01,6.143330e-01,-2.045560e+00,1.446097e+00,-2.917650e-02,9.514187e-02,-4.785470e-03,2.953705e+00,-2.099684e+00,4.990663e-01,-2.619778e-01,-1.945588e-01,-1.374397e-01,-3.181946e-01,1.249925e-01,-3.400359e-02,-4.850338e-03,-2.659249e+00,-4.821986e-01,-9.573615e-02,1.073462e-01,-1.277366e-01,2.316150e-02,-6.135701e-02,-1.639660e+00,2.296918e-01,
-1.831792e-01,-1.860081e-01,-5.833068e-01,-5.484357e-01,1.124534e+00,1.001628e-01,3.223547e-01,7.410018e-01,3.999627e-01,-1.442733e-01,-7.281423e-01,-5.663767e-02,7.918977e-02,2.867303e-01,4.221905e-01,-5.910075e-03,4.606656e-01,1.152078e+00,-1.148266e-01,1.444339e-01,-4.870376e-01,1.599347e+00,-1.624230e-01,-4.529395e-01,-5.462276e-01,7.682488e-01,-1.497970e+00,-1.553929e-01,6.189630e-02,3.672496e-01,6.043187e-01,4.681022e-01,-7.894493e-01,6.575384e-02,-1.872817e-01,7.720787e-01,-5.578558e-01,-3.509073e-01,-3.776170e-01,1.451220e+00,2.108535e-01,-1.777972e+00,8.132817e-01,7.016814e-02,2.407076e-01,-4.158600e-01,-4.253230e-02,4.544224e-01,8.573210e-02,6.199724e-01,
2.905514e-01,7.606559e-02,-7.226708e-03,1.701835e+00,3.048406e-01,-2.406027e-01,8.301607e-01,5.989467e-01,1.157686e-01,-1.349465e+00,3.009060e-01,1.382307e-01,4.968317e-01,-3.599963e-01,-1.044801e+00,-3.554138e-01,-1.589880e-01,-3.682827e-01,-7.611445e-02,-7.873588e-01,5.469133e-01,-9.009744e-01,1.099037e-01,1.298797e-01,-7.636804e-01,2.778466e-01,-2.106661e-01,1.036265e-02,-7.312160e-03,-2.104784e-01,-1.008050e-01,1.016148e-01,3.645773e-02,-1.048895e+00,1.124350e-01,2.760959e-01,-8.458584e-02,7.023171e-01,2.594906e-01,-3.094960e-01,-1.866882e-01,9.004217e-02,-2.216136e-01,-4.454342e-03,-7.493296e-02,3.607394e-01,-4.057020e-02,3.868059e-02,-3.520856e-01,5.323287e-02,
-1.408052e-01,1.644426e-01,6.047652e-01,1.620920e+00,2.444713e-02,-9.866555e-02,-8.992621e-02,1.546501e+00,6.517357e-01,-1.078763e+00,4.251662e-01,7.151213e-01,1.540546e-01,7.040738e-02,-8.149994e-01,-3.653631e-02,7.234805e-01,-5.627586e-02,-4.107052e-01,1.130136e+00,1.234497e-01,-5.839921e-02,1.340465e-01,7.860428e-02,-1.439619e+00,8.156279e-02,-2.287142e-01,1.004859e-01,-3.743180e-02,6.379231e-02,-3.301479e+00,-1.840592e-01,4.736929e-01,-1.590792e+00,5.988426e-01,8.514140e-03,4.473875e-01,-1.594643e-01,-4.959136e-01,-1.815577e-01,-9.285925e-01,1.175682e+00,-4.980920e-01,1.616972e-02,1.668142e-01,1.710647e-01,-3.189490e-02,-1.114931e+00,-1.054895e+00,1.804138e-01,
-2.540254e-01,-4.530854e-01,-8.974382e-01,-5.467482e-01,1.748813e-01,-5.757295e-01,-5.503770e-01,-3.597747e-01,6.509929e-01,-2.950826e-01,-1.461816e+00,-9.286522e-02,4.242046e-01,4.635284e-01,3.585913e-01,-2.344502e-01,9.926617e-02,5.368674e-01,3.379334e-01,-4.018603e-01,1.091220e-01,1.242844e+00,-5.183375e-02,8.972309e-01,-3.200000e-01,6.368727e-02,-2.697316e-01,1.162000e-01,4.932190e-02,1.240020e-01,-5.032620e-01,6.368067e-01,1.210258e-01,8.748242e-01,-1.137995e-01,1.480359e-01,-3.231899e-01,-4.562513e-01,1.052220e+00,-8.860592e-02,5.362421e-01,-3.774579e-01,-2.977218e-02,-8.192905e-02,2.384752e-01,5.514964e-02,-2.475860e-02,-1.485615e-01,-1.167220e-01,8.668486e-01,
-9.128658e-02,-7.432734e-02,9.568018e-01,1.772078e+00,4.654958e-01,-2.367485e-01,-3.221562e-01,-3.269491e-01,-2.224090e-03,8.597776e-01,4.037293e-01,-2.425927e-02,-2.494534e-01,-4.767091e-01,4.770468e-01,1.214704e-01,6.397779e-02,-1.915091e+00,2.095638e-01,-1.244333e-01,6.268309e-01,3.774116e+00,-3.877928e-01,-1.391189e-01,-2.183887e-01,1.957894e-02,-1.315634e-01,3.285364e-01,-1.688460e-02,7.486598e-01,-1.147554e+00,2.922132e-01,3.635799e-01,-7.537839e-01,2.819834e-01,1.201316e+00,-7.851851e-02,-6.404472e-01,-6.420884e-01,1.593670e+00,8.566494e-02,4.623826e-01,1.406933e+00,8.910598e-01,-3.809159e-01,9.254751e-01,1.060180e-02,-1.720253e-01,-4.607688e-01,8.783461e-01,
2.137560e-03,-3.832209e-02,-1.913961e-02,3.548550e-02,-2.355595e-02,-5.453361e-03,-3.162442e-02,3.758510e-02,-1.190440e-02,-1.309449e-02,-1.104814e-04,-3.524476e-03,-4.379590e-02,2.040180e-02,-3.004890e-03,-5.076578e-02,-5.126635e-03,3.422460e-02,1.938205e-02,-1.329030e-02,2.810590e-02,-1.304420e-02,-8.757492e-03,-2.695450e-02,-3.453651e-02,3.344437e-03,1.000695e-02,-3.808408e-02,1.579450e-03,-2.926820e-02,-3.536290e-02,-4.485420e-02,-1.691100e-02,-3.384134e-03,6.507253e-03,-2.555582e-02,-2.500915e-02,-2.387246e-03,2.870310e-02,-1.395380e-02,-4.045368e-02,-4.590230e-02,2.868910e-02,-3.437138e-02,-3.732336e-03,3.304150e-02,3.525930e-02,-7.285511e-03,3.084079e-03,-5.102350e-02,
3.011000e-02,-5.239557e-02,-1.047237e-03,4.011390e-02,7.455669e-03,2.057697e-02,-1.672099e-02,-1.633890e-03,-1.382080e-02,-3.744001e-02,-2.538129e-02,-1.676346e-02,-3.823580e-02,-3.112430e-02,-5.908160e-02,1.493419e-02,-2.882397e-02,3.934250e-02,3.508555e-03,-3.909520e-02,7.002560e-03,1.143340e-02,2.675693e-03,-1.191680e-02,-3.101649e-02,-1.007346e-02,-6.800277e-02,2.056218e-02,-3.754610e-02,1.854210e-02,4.154880e-02,-4.945380e-02,-4.811420e-02,1.950574e-02,5.633004e-04,1.317326e-03,-4.534395e-02,-8.519724e-03,-1.226170e-02,-2.730390e-02,-1.553957e-02,3.492130e-02,-6.855180e-04,-1.914725e-02,1.098356e-03,-3.722810e-02,-2.367360e-02,-3.531374e-04,-2.366950e-02,-1.664290e-02,
1.262756e-01,-2.902012e-01,5.874363e-01,-7.010421e-01,3.208953e-01,7.545845e-01,-1.652487e-01,-1.358506e+00,-5.308760e-01,-6.753563e-01,-2.638216e-01,-3.408918e-01,4.441250e-01,7.366697e-01,9.937891e-01,3.684681e-01,-1.162284e+00,-1.507548e+00,1.675015e-01,6.402778e-01,4.305590e-01,-7.992828e-01,-1.214962e-01,3.039163e-03,2.088632e-01,6.951870e-01,3.428667e-02,-6.326903e-01,3.588430e-02,2.318628e-01,1.664367e+00,-1.104419e+00,-2.177580e-01,2.490130e-01,7.513609e-01,-8.660326e-02,-3.645867e-01,6.869611e-01,-3.750381e-01,-4.158964e-01,-5.176881e-02,-1.287359e+00,5.627004e-02,3.025888e-02,-3.981127e-01,2.155144e-01,2.302520e-02,1.023926e-01,6.734039e-01,3.322870e-03,
5.871397e-02,-3.425634e-01,-1.243227e+00,-4.430782e-02,1.098386e+00,3.712970e-01,-7.747504e-01,7.758959e-01,5.937335e-01,8.687045e-01,-5.304757e-01,4.799534e-02,1.807031e+00,-8.674835e-02,-5.659593e-01,-3.134531e-01,8.131751e-01,2.844617e-01,-2.239268e-01,9.614908e-01,-5.241721e-01,5.530347e-01,-9.409263e-01,5.477297e-01,-3.169823e-01,2.068418e-01,1.804129e-02,5.009534e-01,7.830360e-03,9.051772e-01,-9.814034e-01,1.004682e+00,2.747749e-01,-1.887134e-01,-6.063287e-01,4.736634e-01,-6.659465e-01,-9.356053e-01,-3.381922e-01,1.355470e+00,1.266639e-01,1.550772e+00,-1.164841e-01,7.043390e-01,5.203969e-01,1.141667e-01,-1.851820e-02,-6.474382e-01,3.714340e-03,4.936540e-02,
-1.229240e-01,-4.230379e-01,-4.415766e-02,4.458957e-01,6.541641e-01,-4.302340e-01,-1.590126e-01,4.421476e-01,-8.872191e-01,8.453061e-02,-5.884746e-01,-2.661223e-01,1.574117e-01,-2.313258e-01,2.307009e-02,1.452389e-01,-4.818952e-01,1.406433e-02,3.372758e-01,-8.895574e-01,2.874104e-01,-4.701415e-01,-5.064870e-01,1.778465e+00,3.907535e-01,3.982749e-01,-6.260662e-04,8.921462e-02,6.378470e-04,1.846174e-01,-1.544910e-01,5.426025e-01,-1.641724e-01,-1.399169e-02,-5.965316e-01,2.075403e-01,8.018690e-01,2.973378e-01,1.368764e+00,-8.864056e-01,-3.083431e-01,-7.448515e-01,1.214394e+00,-2.750815e-01,4.227402e-02,1.312300e+00,1.916360e-02,-2.877494e-01,3.363899e-01,8.596943e-01,
-5.055608e-01,-1.989349e-01,3.165275e-01,5.390810e-02,3.371250e-01,-3.211463e-01,1.479224e-01,1.021833e+00,-8.964047e-03,9.214972e-01,1.291465e-01,4.341767e-01,4.516716e-01,3.709004e-01,4.036641e-01,3.140031e-01,1.076422e-01,-1.530204e+00,-1.321348e+00,8.564907e-01,1.046843e+00,1.157310e+00,-1.828550e-01,-1.527489e-01,-6.875913e-01,3.197889e-01,5.829854e-01,-7.053836e-01,-2.307300e-02,-3.052830e-01,3.002480e-01,-5.277980e-01,4.507641e-02,7.024455e-01,7.333253e-02,3.267639e-01,-4.762174e-03,-9.076879e-01,-9.665862e-02,8.788498e-02,-1.168974e+00,4.059691e-01,3.602136e-01,-4.283450e-01,-4.168701e-01,1.383859e-01,2.760810e-02,1.859425e-01,-1.828225e-01,-4.838357e-01,
-7.150562e-01,6.860833e-01,5.268274e-01,-5.892966e-02,5.210366e-01,-9.017276e-03,-2.771827e-01,-3.406685e-01,3.135349e-01,-6.071550e-01,4.262491e-01,-4.627726e-01,1.539868e+00,5.421264e-01,-4.498073e-01,6.866273e-02,-2.291502e-02,5.618534e-01,-5.318569e-01,-5.955781e-01,-3.220488e-01,-1.179251e+00,-6.418136e-01,1.543764e+00,-4.099916e-01,3.750883e-01,-2.535760e-01,4.427461e-01,1.518990e-02,1.882524e-01,3.812973e-01,6.303397e-02,-4.045772e-01,-2.919923e-01,-4.346978e-01,5.208467e-01,-2.005507e-01,-1.022464e+00,1.277122e-01,5.256991e-01,-5.512828e-01,-6.867633e-01,1.479050e+00,-1.951846e-01,-1.127230e-01,3.282256e-01,-3.830980e-02,4.926025e-01,2.606774e-01,2.369334e-01,
1.191148e-03,2.301530e-01,3.021874e-01,-2.993650e-01,-4.011306e-01,2.041572e-01,-1.235223e+00,-1.050343e-01,4.194770e-01,5.259877e-01,-2.497405e-01,-9.853624e-01,-3.489704e-01,5.933348e-01,-9.824014e-01,-4.045122e-01,1.660241e+00,2.176846e+00,-1.442572e+00,-8.624116e-01,-4.977882e-02,-2.084556e+00,5.120364e-01,1.004375e+00,2.690931e-01,5.368795e-01,2.235364e-01,1.781521e-01,5.725810e-03,9.113706e-01,7.626516e-01,1.035270e+00,-6.933267e-02,4.524251e-01,3.853644e-01,-6.762119e-01,1.586719e-01,1.361244e+00,6.593811e-01,-4.370426e-01,7.477551e-01,-3.845612e-01,-9.172269e-01,7.571141e-02,-1.516274e+00,8.337831e-01,2.035180e-02,2.750150e-02,4.728555e-01,1.225978e+00,
6.920845e-01,-9.517341e-02,-9.952195e-01,-7.791518e-01,-1.016593e+00,4.599317e-01,-3.439847e-01,-1.679196e-01,-1.132716e-01,1.761881e+00,-1.634706e-01,-5.527244e-01,2.328428e-02,-3.570307e-01,-9.417616e-01,1.616810e-02,1.269112e-02,-1.097148e-01,-3.227776e-01,-6.596501e-03,1.264421e+00,4.733603e-01,-8.023912e-02,-5.782930e-02,-8.933141e-03,-3.897054e-01,-7.354373e-01,6.077018e-01,3.700080e-02,-4.114306e-03,-2.304760e+00,4.620851e-01,5.370247e-01,5.575998e-01,-2.808117e-02,-2.111790e-01,2.350296e-01,-8.455150e-01,-9.576081e-02,5.917681e-02,-8.960121e-01,-1.299645e-01,-2.312060e-02,1.108983e-01,5.153992e-01,-3.017541e-02,3.665020e-02,4.571022e-02,-5.176274e-01,-2.395068e-02,
-5.392861e-02,-5.343267e-01,-3.553704e-01,6.815346e-01,-8.639602e-02,7.796197e-02,1.944391e-01,-4.658986e-01,1.204947e-01,2.414754e-01,-2.426249e-03,-2.576976e-02,1.475091e+00,1.987227e-01,7.907254e-01,-1.004605e-01,4.797009e-01,4.416658e-01,-4.786698e-01,5.284340e-01,4.627846e-01,1.647507e+00,1.694631e-01,2.076472e+00,-6.109790e-02,3.720218e-01,-3.965599e-01,-2.560950e-01,3.744140e-02,-2.943498e-01,1.096436e+00,1.162792e+00,-4.507720e+00,4.057709e-02,1.360730e-01,-2.427421e-01,-1.112745e-01,5.254706e-01,-6.648915e-02,-1.954075e-01,1.188856e-01,2.191575e-01,2.006971e+00,-9.090651e-02,-3.093519e-01,6.383616e-01,1.844950e-02,-4.154072e-02,-1.464168e-01,9.291029e-02,
-8.811502e-01,-4.933188e-01,-1.922856e-01,-1.903925e+00,6.659346e-01,5.577127e-01,-9.553533e-01,-3.669034e+00,1.437172e-01,1.229069e+00,-7.264339e-03,-2.787064e-01,-4.381292e-01,6.986101e-01,7.355514e-01,2.430335e-01,4.486095e-01,-1.407646e+00,9.028770e-03,7.861961e-01,2.135789e+00,-1.415135e+00,5.057212e-01,2.763981e-01,-8.855212e-01,2.843943e-01,1.797193e+00,2.838080e-01,-2.731300e-02,-2.272275e-01,2.525580e+00,3.938399e-02,3.939928e-01,3.234811e-01,4.754168e-03,-1.179497e-01,-9.552718e-01,-7.648925e-01,-1.422215e-01,-5.211388e-01,-8.298266e-01,7.568004e-01,-1.199769e-01,2.263435e-01,-9.572289e-01,-1.515764e-01,-2.779270e-03,8.513472e-01,1.684217e-01,1.170480e-01,
9.462507e-01,-1.618915e-01,7.197751e-02,1.541840e-02,-3.608103e-01,1.697794e-02,-5.627027e-01,6.724653e-01,8.994829e-01,2.045970e-01,-8.020345e-01,2.582920e-01,9.488914e-03,6.974685e-01,-6.074487e-03,-2.753004e-02,-9.235393e-02,2.714440e-02,1.549676e+00,-5.011805e-03,-4.238670e-02,-5.415019e+00,2.427129e-01,-2.214580e-01,1.280545e-01,-1.067736e-02,1.064829e+00,-2.935481e+00,-1.139710e-02,-2.433595e-04,3.026310e-02,-2.835510e-02,1.089759e+00,2.134334e-01,8.057678e-02,-3.752769e-03,-8.922762e-01,2.342719e-01,1.069506e-01,2.797329e-01,-2.521174e-01,-9.564953e-01,3.155450e-01,-6.811656e-01,-8.485459e-01,4.908260e-01,-4.901310e-02,8.936465e-02,-2.066607e-01,3.888018e-01,
5.700679e-03,-1.920210e+00,-1.222912e-01,-1.515854e+00,-1.047215e+00,2.347584e-01,5.091399e-01,-1.795896e-01,1.062142e+00,9.153363e-01,1.087019e-01,-1.664826e-01,3.902613e-01,1.964681e+00,8.512457e-03,-2.312421e-01,-1.482259e-01,-5.452422e-02,-6.088327e-01,4.695350e-01,5.371853e-02,-8.122264e-02,3.334325e-01,1.900866e+00,4.076379e-01,6.429628e-01,8.673862e-02,1.672246e-02,-1.487480e-02,6.777582e-02,2.022527e+00,-3.545762e-01,1.162358e-01,1.187254e-03,2.006451e-01,4.974498e-01,8.013493e-02,1.475831e+00,-3.420424e-01,5.321954e-01,2.690318e-01,-7.825512e-01,-1.165900e+00,2.157972e-01,-2.505481e+00,1.159505e+00,-3.035580e-03,2.179653e-01,1.780316e-01,4.197508e-01,
-2.900153e-03,1.316861e-02,-7.516650e-02,2.521131e+00,-6.563537e-01,1.286590e-01,6.821533e-01,1.906910e-01,-2.836777e-01,4.413477e-01,-2.327789e-01,-2.958072e-03,-1.921888e-01,-3.642561e-01,2.687772e+00,-1.873112e-01,-2.482065e-01,-2.183325e-01,1.317966e+00,-5.515404e-01,-4.909987e-01,-1.539699e+00,5.204944e-03,1.378718e-01,-1.530853e-01,-2.190819e-03,6.261935e-01,-1.368526e+00,-4.896470e-02,-2.829096e-01,4.465405e-01,1.484835e+00,2.227099e+00,-2.735288e-01,4.849229e-01,3.971715e-01,-7.629767e-01,1.013074e+00,2.407873e-01,-1.727959e-02,-2.891064e-03,5.967857e-01,-1.919124e-01,-1.885522e-01,-2.112992e-01,-2.168533e-02,-2.190630e-02,1.196254e+00,1.328690e-01,-9.525668e-02,
-3.982628e-01,1.115831e+00,-1.492753e-01,5.675030e-01,-5.109763e-01,8.550975e-01,7.887533e-01,2.488310e-01,-2.368201e-01,-3.196882e-01,1.664685e-01,1.148421e-01,-5.684282e-01,6.489291e-01,2.306719e-01,-3.814507e-01,4.507847e-01,1.562294e-01,2.784547e-01,1.060588e+00,4.418358e-01,4.653575e-01,5.152708e-01,-9.925456e-02,-6.119549e-01,-4.302033e-02,6.508041e-01,4.396734e-01,-2.858020e-03,-6.459644e-02,1.520442e+00,-1.926003e+00,1.871369e-01,-3.845462e-01,-1.446993e-01,-1.108938e-01,-1.542787e-01,9.819937e-02,-1.775153e-01,-2.575260e-01,-3.461465e-01,-5.543261e-01,-1.348150e-02,1.793773e-01,1.204295e+00,-4.605558e-01,8.341160e-03,2.270582e-01,1.224646e-02,-3.793899e-01,
-2.562952e-01,-6.505574e-01,2.289324e-01,-8.057675e-01,-4.150802e-01,-3.060957e-01,5.907964e-01,2.115654e-01,-8.171434e-01,2.914237e-01,1.966296e-01,1.385670e-01,7.533486e-01,1.451568e-01,2.183925e-01,-2.297812e-01,-3.018419e-01,-8.859940e-01,-4.371404e-01,-1.403177e+00,-2.692171e-01,1.361019e+00,2.113538e-02,2.424979e+00,1.288298e-01,-9.440440e-03,-4.241968e-02,-5.939177e-01,-2.460010e-02,5.737291e-01,-3.195056e+00,4.119421e-01,-5.079440e-01,-9.124553e-02,5.567563e-01,2.390357e-02,-6.408160e-01,-7.298245e-03,-3.754608e-03,1.182948e+00,4.614798e-01,2.797934e-01,6.457362e-01,-6.183706e-03,-6.157144e-01,1.294559e+00,2.342080e-04,5.328988e-02,-1.565401e-01,1.249129e+00,
2.941537e-01,2.195413e-01,1.611854e-01,1.189472e+00,-8.902761e-02,6.126830e-02,-4.808457e-01,1.148486e+00,-1.288158e-01,1.108398e+00,-2.331819e-02,1.061212e-01,-3.500865e-01,-7.257052e-01,1.462465e+00,1.308419e+00,2.063055e-01,1.882043e+00,-1.850007e+00,-1.155768e+00,-2.155382e+00,8.852751e-01,5.988801e-02,1.703281e-01,6.124771e-01,-7.993916e-02,-1.038810e+00,-1.906020e-01,2.686430e-02,2.291376e-01,-3.793775e+00,-2.618732e-01,-5.964333e-01,7.860504e-01,-7.638393e-02,-2.713794e-01,8.108928e-01,-3.816074e-01,-4.866113e-01,-8.226493e-02,4.784797e-01,-4.746837e-01,-2.962748e-01,1.232400e-02,7.182971e-01,-7.108821e-02,2.502000e-02,1.236556e-01,3.644604e-01,-8.187906e-02,
-3.345830e-01,2.669258e-01,-1.031258e-01,-2.416080e-01,7.990690e-01,-1.802452e-01,-6.814014e-01,7.076507e-01,1.827834e-01,9.407804e-01,-2.106814e-01,3.521678e-01,1.085429e-01,-7.360385e-01,-1.100548e-01,1.628136e-01,6.561494e-01,8.843210e-01,-4.451795e-02,8.354411e-01,3.304305e-01,2.181897e+00,1.220734e+00,-7.192302e-01,6.769023e-01,-3.044839e-01,2.079505e-01,5.269167e-01,1.930440e-02,-3.920530e-01,-1.175232e+00,9.127535e-01,-1.579785e-01,3.155476e-01,1.237410e+00,9.267095e-03,-2.625691e-01,1.555847e+00,8.490397e-01,5.371035e-01,2.893296e-01,2.826234e-01,-1.558265e-01,-2.873496e-01,3.540157e-01,2.783978e-01,-1.702300e-02,2.592356e-01,2.227528e-01,2.458085e-01,
6.243370e-01,-2.926535e-01,1.411850e-01,-5.277313e-01,5.013427e-01,3.804074e-01,7.220217e-01,-5.031755e-01,1.414598e-01,2.451252e-01,-1.581154e-01,-2.596451e-02,2.928249e-01,1.322957e-01,1.836423e+00,-5.922343e-01,-1.974514e-01,-2.289232e-01,-3.101147e-03,-9.430964e-01,-1.296264e+00,-3.606784e-01,-6.019914e-02,3.739936e-01,1.526486e-01,-6.533466e-01,-1.514267e-01,-1.042998e+00,4.380910e-02,7.072886e-02,2.865165e-01,1.307454e+00,-3.341482e+00,-4.053199e-03,7.664378e-01,5.298955e-02,1.197835e+00,2.764834e-01,-3.069654e-01,-2.316160e-01,1.217130e-01,8.759044e-01,2.635081e-01,-2.823137e-01,-4.880774e-04,1.670582e-01,4.245720e-02,5.378827e-03,8.897303e-02,2.762350e-01,
6.053562e-01,-1.790964e-01,1.539126e-01,1.923770e+00,-1.417774e+00,3.237853e-01,-7.464092e-01,1.779990e-01,7.822617e-02,-1.751534e-01,2.054373e-01,-1.383161e-01,1.027780e+00,1.325316e-01,2.217155e-01,-5.353253e-02,1.603577e-04,9.876741e-02,-3.234607e-01,5.905777e-01,-9.556246e-01,1.720546e+00,-4.127773e-01,-3.648954e-01,1.920670e-01,3.738868e-01,7.880834e-01,-6.724526e-01,1.236120e-02,1.015984e+00,-7.192270e-02,1.816648e+00,-2.933217e-01,-7.796223e-03,4.856904e-01,-6.095599e-02,-4.605931e-01,-4.298373e-01,1.439030e+00,-1.595027e-01,2.327671e-02,2.618758e-01,-1.952726e-01,-5.741040e-02,6.779658e-01,-2.340701e-01,2.992550e-02,-4.989390e-01,8.848771e-02,1.141660e+00,
4.659801e-01,-7.284857e-01,3.532853e-01,-2.029612e+00,1.278947e+00,-8.985521e-02,-1.161228e+00,-8.234723e-01,9.388981e-01,4.258637e-01,3.175414e-01,-7.431082e-02,-5.011755e-02,-4.618005e-01,-9.750301e-01,3.296928e-01,5.548741e-01,1.074854e+00,-3.566650e-01,-9.699570e-01,-4.847009e-01,-2.147361e+00,-1.125226e+00,9.568300e-01,6.073400e-01,-4.028507e-01,-5.533267e-01,-3.127769e-01,1.942350e-02,8.246804e-01,-4.337320e-02,7.812628e-01,1.290064e-01,-1.702614e-01,2.709083e-01,6.145691e-01,8.229382e-01,-5.585197e-03,-1.142352e+00,8.502491e-01,-5.111824e-01,1.821695e-01,-1.255669e+00,-5.106381e-02,-7.040474e-01,3.290537e-01,3.643090e-02,3.218101e-01,4.746086e-01,-4.181771e-02,
3.203535e-01,4.189151e-02,7.310420e-02,-2.204665e+00,1.567086e+00,-1.116460e-01,5.073731e-01,-1.150224e+00,2.534119e-01,1.002140e+00,-4.204331e-03,-6.093991e-03,5.285550e-01,7.374884e-01,-1.064085e-01,-9.284205e-01,5.494995e-01,1.115151e+00,2.748658e-01,-8.858045e-01,2.077899e-01,1.199972e-01,2.309923e-01,-5.895643e-01,1.446329e+00,4.425433e-01,-1.075772e+00,5.670153e-01,-1.923470e-02,-1.306342e-01,9.620811e-01,1.081873e+00,8.948284e-02,6.747271e-01,8.910562e-01,-4.250240e-01,7.815997e-02,-7.135195e-01,1.946020e-02,-3.080006e-01,7.160898e-01,3.746753e-02,-7.831884e-01,4.383426e-01,2.508942e-01,1.234996e-01,-1.606760e-02,5.944860e-01,5.147280e-02,3.499556e-01,
-7.075386e-02,-2.879752e+00,6.744116e-02,1.431175e+00,2.593343e-01,-3.032440e-01,2.856784e-01,7.748795e-01,-7.875050e-01,3.218341e-01,1.084013e-01,1.986798e-01,-8.886972e-01,-6.079886e-01,-5.002112e-02,1.722209e-01,-1.296410e+00,6.232228e-01,3.898157e-01,1.521468e-01,2.513229e-01,1.487019e+00,-2.420972e-02,1.907936e-02,-1.063972e+00,2.062014e-01,-6.096998e-01,-4.948963e-02,-1.893770e-02,3.146025e-01,1.101397e+00,6.189438e-01,-6.483870e-01,-1.445900e-01,5.798589e-01,3.741949e-01,-1.348975e-01,1.018972e+00,-4.294954e-01,5.281377e-01,1.158873e-01,-8.639302e-01,9.483055e-01,5.154222e-01,8.972932e-02,-1.129549e+00,-2.247220e-02,1.410696e-01,2.264942e-02,-6.893119e-01,
9.200968e-01,-4.603399e-02,3.000517e-01,-3.875550e-02,-9.728928e-01,1.026477e-01,-8.233030e-01,-1.114773e-01,7.337389e-02,-5.342050e-01,6.282718e-02,-6.302401e-01,6.024926e-02,7.221891e-01,1.450325e+00,9.981800e-01,-2.559914e-01,-1.227574e+00,-5.350022e-01,4.930938e-01,-9.348509e-01,-1.674856e+00,-2.881651e-01,1.165276e-02,1.309826e+00,1.918628e-01,-3.835761e-02,-1.371834e+00,-3.325190e-02,-2.127453e-01,1.288976e+00,7.343935e-01,-4.396645e-01,7.243388e-01,-7.614435e-02,4.085049e-01,-1.419026e-01,-6.444820e-01,-1.124418e-01,-3.272628e-01,1.517721e+00,2.030683e-01,-3.455624e-01,2.104750e-01,-5.146356e-01,-1.104792e-01,-3.210280e-02,1.416783e+00,-2.269540e+00,-1.055236e-01,
-4.002277e-01,-4.536791e-01,-3.817887e+00,9.326838e-01,4.296019e-02,-6.346724e-01,-1.025028e+00,-2.753386e-04,1.218471e-01,2.002531e+00,-6.539052e-01,-2.698034e-01,5.119444e-02,-8.521244e-03,-5.503616e-01,3.671235e-01,1.429997e-01,1.870656e+00,6.742849e-02,8.685917e-03,-6.479750e-01,-1.090166e+00,-5.393409e-01,1.683354e-01,-1.647363e-01,-5.477832e-01,-1.786840e-01,3.737479e-01,-4.364750e-02,-3.817983e-01,-7.630456e-01,4.002175e-01,-4.717004e-01,-3.555852e-01,-5.704107e-01,6.516933e-01,-9.791192e-02,1.170651e-01,-1.478775e-01,-2.442390e+00,6.121478e-01,6.522775e-01,-4.633096e-01,-6.405627e-01,-9.871444e-01,-1.754109e-01,9.204750e-03,6.828846e-01,5.793054e-01,-5.578601e-01,
-1.457970e-01,-2.738659e-01,-8.594247e-01,1.141376e+00,3.880808e-02,-7.312682e-01,8.605844e-01,-6.231500e-01,-5.471964e-01,1.431891e+00,-8.114139e-01,2.430499e-01,6.984431e-01,5.047578e-01,4.034344e-01,3.710185e-01,-9.665881e-01,-5.457911e-01,6.145496e-01,2.321316e-02,-3.279004e-01,-5.206148e-02,5.510222e-02,-8.907509e-01,7.715806e-01,-7.448034e-01,4.619523e-01,-2.904874e-01,-3.182000e-02,1.219891e-01,9.995841e-01,1.005466e-01,-2.865034e-02,7.539722e-01,-1.122611e+00,-1.042001e-01,3.276807e-02,1.314375e+00,-1.594735e-01,-3.548719e-01,5.402012e-01,-5.921460e-01,-3.398099e-01,-1.518753e+00,-9.363230e-01,-4.388368e-01,-7.052890e-03,8.301242e-02,6.092904e-01,5.546608e-01,
-1.423388e-01,-1.088175e-02,-2.621469e-01,1.066611e+00,3.720981e-01,1.993249e-01,-5.583503e-01,1.485777e-01,2.012000e-01,-7.823097e-02,3.829015e-01,1.678348e-01,1.426707e+00,-3.571881e-01,-7.564247e-01,3.459606e-02,3.567252e-02,1.255555e+00,-4.322297e-01,4.811233e-01,-2.585226e-01,2.046171e+00,-8.526747e-02,2.519926e+00,-5.478758e-02,3.337312e-01,-1.928370e-01,1.224047e+00,-1.346950e-02,1.921317e-01,-1.435465e-01,1.689041e+00,-4.220796e-01,-1.730130e-02,-1.514419e-01,-2.114817e-02,5.549611e-01,2.674731e-01,-2.260811e-01,-2.030586e-02,2.192449e-01,4.378409e-02,1.010545e+00,-2.251402e-01,5.449917e-02,2.414446e+00,2.142200e-02,4.343897e-02,7.156259e-02,1.069913e+00,
-8.736426e-01,
-3.578031e-01,
7.911639e-01,
-3.059832e-01,
7.181050e-01,
6.738372e-01,
4.524425e-01,
7.480071e-01,
8.526801e-01,
4.184692e-01,
-2.158655e-01,
9.093940e-01,
-9.607425e-01,
-5.109049e-01,
3.997332e-01,
-9.985040e-03,
-3.881691e-01,
4.969351e-01,
3.695830e-01,
6.496686e-01,
9.232459e-01,
-3.802410e-01,
-4.298922e-01,
-2.988107e-02,
-3.140780e-02,
-3.856803e-01,
-4.918897e-01,
-8.018385e-01,
-6.356958e-01,
-3.660555e-01,
-9.615591e-01,
2.488283e-01,
-9.422342e-01,
-1.457345e-01,
-1.213674e+00,
-1.111312e+00,
-1.452198e+00,
1.823952e-01,
-3.266079e-01,
-1.061436e+00,
-9.333032e-01,
1.166941e-01,
-6.583185e-01,
-4.396733e-01,
-1.255463e+00,
-6.590323e-01,
-1.112020e+00,
-7.079805e-01,
-5.767584e-01,
-4.499134e-01,
2.675331e-01,-3.770337e-02,-6.012465e-01,1.911510e-01,-3.846870e-02,7.533681e-02,-1.356280e-01,-5.509908e-03,7.278654e-01,9.926158e-03,-1.787836e-01,-5.921907e-03,-2.751952e-01,1.888854e-02,4.516556e-02,-5.947360e-04,6.156113e-02,8.616294e-02,1.781436e-01,4.377051e-02,-1.924268e-01,-1.528922e-01,1.281888e-01,-1.508251e-02,-6.412514e-03,-7.271839e-02,2.966249e-01,-3.291157e-01,6.028929e-01,1.791172e-01,-8.092587e-02,8.744293e-02,2.181252e-01,4.573360e-01,-1.555106e-01,1.316951e-03,-3.280591e-01,-2.054207e-01,6.171863e-02,-1.240344e-01,7.378098e-04,2.747715e-01,1.112003e-03,-5.641047e-02,-2.373643e-01,-7.799044e-02,-4.111671e-03,2.144195e-01,-1.839679e-01,5.549857e-01,
1.223409e+00,1.043440e+00,3.235121e-01,-2.961207e-01,1.154018e-01,3.285409e-01,-3.502536e-01,-1.424590e-01,1.127745e-01,-6.550055e-02,7.447222e-01,-3.151893e-01,-1.302842e+00,3.500208e-01,6.938982e-02,-4.115830e-02,2.907108e-01,1.033558e+00,-4.009741e-01,-8.189422e-02,-4.462952e-01,7.992887e-01,2.409511e-01,-4.789997e-03,-3.326182e-02,2.635462e-01,2.126787e-01,5.934817e-01,1.088080e-01,4.050045e-01,-1.637902e-01,5.909131e-01,1.071188e+00,1.839048e-01,-2.957583e+00,3.216336e-01,-2.607176e-01,-6.609271e-01,-8.456277e-01,-9.363554e-02,3.756480e-03,-8.229748e-03,3.755561e-01,-6.737567e-01,-2.919036e-01,-4.999245e-01,7.766013e-01,5.653906e-01,-1.503833e-02,4.157459e-01,
4.909417e-01,1.101753e-01,1.112539e-01,3.010626e-02,-2.879047e-02,3.422794e-01,-3.003509e-01,-6.467001e-01,5.136523e-02,-3.747416e-01,5.162011e-02,-2.580116e-02,-2.294259e-01,-2.451173e-01,9.539281e-01,-4.299680e-02,-5.080259e-02,-4.774220e-01,-6.672485e-02,1.758689e-01,-3.942759e-02,-4.265422e-01,-2.731343e-01,-1.417130e-02,6.740654e-03,1.206837e-01,2.991765e-01,4.732797e-01,-2.731251e-01,2.134300e-01,2.410301e-01,-4.794383e-01,-4.327484e-01,1.028245e-01,1.904120e-02,-2.752165e-01,-7.799377e-02,-2.436892e-03,2.421138e-01,6.876747e-02,2.573950e-01,2.974851e-02,-6.247369e-03,-2.118699e-01,4.149549e-01,2.007323e-01,-5.803033e-01,-5.488200e-01,5.887805e-02,-8.595461e-02,
-4.981178e-01,-1.275772e+00,1.985461e-01,2.551435e-01,-4.016516e-02,2.543326e-01,5.075750e-02,2.317272e-01,8.114835e-02,1.551667e-02,-4.656734e-02,4.606910e-01,3.399546e-01,-3.729591e-01,1.626547e-01,-3.947810e-02,2.306228e-01,-2.635139e-01,-6.163030e-02,-5.268357e-01,6.237650e-01,-5.127337e-01,-1.177763e-01,1.242603e-02,3.302268e-02,2.814255e-01,2.852573e-01,-1.146451e+00,8.161973e-02,-9.968739e-03,-2.742774e-01,-4.475446e-02,-1.393832e-01,-8.039768e-01,-3.540000e-01,-1.767689e-01,-7.798820e-01,-9.375979e-01,-9.037261e-02,2.852284e-01,-2.226114e-01,5.064813e-01,1.730313e-01,-2.181441e-01,7.966100e-02,4.823890e-01,-8.883022e-03,9.093992e-02,3.742289e-01,-2.057763e-01,
-4.618339e+00,1.859048e-01,1.147560e-01,-2.624865e-01,3.190020e-01,-6.195351e-01,4.190723e-02,3.409870e-01,6.666013e-01,-5.170430e-01,3.070346e-01,5.680647e-01,-3.548309e-01,-4.744948e-01,5.940909e-01,1.694580e-02,-5.558596e-03,-1.357680e-01,-2.184501e-01,-2.681288e-01,2.268460e-03,-5.849951e-01,-9.148407e-01,-5.136216e-04,-1.396096e-03,8.588980e-01,1.754034e-01,-5.622420e-01,-1.340206e+00,2.739915e-01,-2.307412e-01,9.475221e-02,-2.357512e-01,2.887025e-01,-9.340793e-01,1.326445e-01,5.991762e-01,1.369533e-01,1.990060e-01,7.495659e-01,-2.717197e-01,4.071777e-01,3.547588e-01,1.529384e-01,3.397534e-01,-4.872397e-01,1.647284e-01,9.533938e-01,-8.419830e-01,1.665165e-01,
7.001989e-01,-2.145734e-01,-1.780981e-02,3.080656e-03,1.011028e+00,-5.881414e-02,-1.646797e+00,1.802319e-01,4.567884e-02,-6.031056e-03,1.080705e+00,-4.747853e-01,-2.460962e-01,-4.004095e-01,-8.139718e-01,3.580070e-02,-9.375208e-01,6.051908e-01,-5.992019e-01,2.133488e-01,4.533148e-01,1.860067e-01,-7.237602e-03,-4.390688e-03,-7.280766e-03,-4.615029e-01,-2.948571e-01,-9.194991e-01,-5.245882e-01,-1.606408e-01,-7.059729e-01,4.990602e-01,1.115540e-01,4.396184e-01,8.885388e-01,9.089880e-01,-1.289244e+00,-2.291151e-01,2.292398e-02,-1.422162e+00,-4.535775e-02,7.407723e-02,-8.379848e-02,-4.213594e-01,-6.690807e-01,3.759913e-01,-7.343177e-01,-1.607263e+00,7.081800e-01,9.963279e-02,
-5.972556e-01,-1.681547e-01,-9.317477e-02,-1.830038e-01,1.020064e-01,-3.732898e-01,-2.007296e+00,-1.239082e+00,-8.042964e-01,-3.486763e-01,3.065642e-01,2.457948e-01,3.498955e-03,-7.073202e-02,-1.237644e+00,-4.705120e-02,5.270285e-01,-2.839846e+00,-4.265142e-01,-5.012222e-03,1.278117e-01,4.043365e-01,-2.545199e-01,1.150483e-03,2.531773e-02,3.949015e-01,1.274912e-03,3.372837e-01,-1.792069e-01,4.678336e-01,5.443637e-01,3.492560e-02,-6.591896e-01,-1.223463e+00,6.568329e-02,2.316470e-01,-2.008597e-01,-1.788030e-02,-2.975674e-01,1.179747e-01,1.770305e-01,2.009473e-01,-7.484680e-02,-4.216365e-01,-1.300476e-02,5.240716e-01,4.757563e-01,-1.059494e-01,3.483092e-01,4.315425e-01,
3.980571e-02,1.089509e-01,-5.148898e-03,1.439459e-01,-6.793742e-01,-1.134520e-02,-5.954635e-01,-2.567278e-01,-5.014006e-01,6.842269e-01,-1.874881e+00,-8.239114e-01,1.666120e-01,4.126889e-01,2.250720e-01,-8.293420e-03,-1.604231e+00,-3.835818e-01,6.515846e-02,-4.171932e-01,-1.203372e+00,-1.770232e-01,-1.068768e-01,-8.430406e-03,9.759075e-03,6.366644e-01,2.093317e-02,-1.645611e-02,6.471940e-01,-1.068730e-01,-7.328287e-03,-1.792995e-01,2.901659e-01,1.646039e-01,-5.007985e-01,-3.584710e-01,1.839109e+00,2.494137e-01,-1.086466e-01,9.036573e-01,3.012342e-01,5.577509e-01,-2.561767e-01,4.681465e-02,3.042836e-01,4.868962e-01,9.975520e-01,-2.295403e-01,-5.018000e-01,-2.255202e-02,
1.984451e-02,3.685680e-03,-5.014946e-02,-1.688123e-02,-5.420931e-03,-4.834599e-03,-1.342662e-02,-5.744025e-03,-8.207681e-03,-3.272016e-02,-3.200535e-02,7.374810e-03,-8.706329e-03,-1.300198e-02,-8.824301e-03,1.726000e-02,-2.420473e-02,-5.174316e-03,-4.177093e-03,-3.790697e-02,-3.306639e-02,-2.668720e-02,-3.823946e-02,2.264765e-02,-3.910851e-02,-4.232823e-03,-5.614607e-03,-3.490140e-02,-1.295691e-02,1.122641e-02,-1.382050e-03,-1.327274e-02,1.278690e-02,-5.114285e-03,-4.517546e-04,1.505397e-02,3.045790e-03,-6.773701e-03,-1.332674e-02,2.610360e-02,-4.294783e-02,-3.329748e-02,-6.446820e-03,2.289458e-03,-1.214409e-02,2.036000e-03,9.308606e-03,-1.163079e-02,-1.210809e-04,-4.833770e-02,
-8.630174e-03,5.767638e-01,-2.610684e-02,-3.145742e-01,-2.250002e-01,-3.261839e-01,1.137960e-01,3.184584e-01,2.435512e-01,-3.582970e-01,4.921435e-01,-6.249753e-01,-4.905049e-01,7.676438e-01,1.157555e-01,2.096740e-03,5.858738e-01,1.460458e-01,-1.626420e-02,8.202631e-01,2.522893e-01,3.184783e-02,-2.247296e-01,-6.703139e-03,-4.615683e-04,2.393820e-01,-4.906664e-01,1.474099e-02,1.405893e-01,7.011169e-01,-5.133837e-03,2.544300e-01,-7.694960e-01,-6.961166e-03,-1.350838e+00,-1.282063e-01,-7.974082e-03,1.816755e-01,1.957968e-04,7.409367e-01,4.769643e-02,5.456133e-01,2.098471e-01,6.468688e-02,8.275175e-03,-1.846476e-01,-9.312263e-01,-1.817982e+00,3.072654e-02,-1.821356e-02,
-3.876996e-01,6.301518e-01,9.935810e-02,-2.775487e-01,-1.696559e-02,-1.507283e-01,2.469032e-02,9.680547e-02,8.113114e-01,2.065297e-02,-1.029349e+00,3.578930e-01,2.453338e-02,4.332924e-01,-4.989333e-01,3.632250e-02,-1.414927e+00,-3.985215e-01,-1.469728e-01,-2.481891e-01,7.451391e-04,2.063837e+00,-2.859177e-01,3.417113e-03,-9.871887e-03,-2.496535e+00,3.427323e-01,4.808865e-01,-4.336353e-01,-1.844444e-02,1.523174e-01,-1.767433e-02,5.005311e-01,-3.446797e-03,-6.954713e-03,2.994842e-01,1.136655e+00,-5.727019e-01,1.023253e-01,-1.017582e-03,-2.181312e-01,-1.464488e+00,6.891089e-01,-4.337013e-02,-3.148611e-01,-2.442290e-02,1.580312e+00,4.471703e-01,-2.078345e-01,3.576478e-01,
2.936777e-01,1.326645e+00,1.873060e-01,-1.037230e+00,-4.954744e-03,4.482610e-02,8.123719e-02,-8.066442e-01,-3.108105e-03,-3.408097e-01,1.159917e+00,4.630614e-01,-8.699787e-01,-4.206157e-01,-2.524863e-03,-9.927540e-03,6.691976e-01,7.893589e-01,9.307209e-01,5.111924e-01,-4.974992e-01,1.869713e-01,7.388767e-02,-5.172252e-03,-2.363290e-02,-6.841797e-02,-2.335597e-01,-5.830700e-02,5.428030e-01,-1.486226e-01,1.702095e-01,-3.047614e-01,7.436384e-01,2.324029e-01,-9.140649e-01,3.229548e-02,-4.555008e-01,-2.387865e-01,-4.732065e-02,5.026114e-01,-3.802436e-02,2.073872e+00,-1.060707e+00,3.688885e-01,-3.004687e-01,-3.312890e+00,-5.156541e-03,6.629556e-01,-6.240119e-02,-2.773091e-01,
-9.564254e-02,3.438502e-01,-3.626260e-01,-4.365223e-03,6.730379e-01,-2.097035e-02,-3.409143e-01,-2.452899e+00,-7.892095e-01,-7.351819e-03,-1.108510e+00,-4.979638e-01,-1.120616e-01,4.811562e-01,1.852253e-02,4.547260e-02,4.808277e-02,-1.461395e+00,3.088657e-01,-4.930242e-01,-5.888877e-01,1.157723e-01,8.598131e-03,-2.879337e-02,2.175591e-02,-1.579582e+00,1.070491e-01,1.703452e+00,-1.482598e+00,3.556811e-01,2.164920e-01,5.457925e-01,1.158012e+00,-1.113127e+00,-1.225407e+00,-2.235164e+00,1.990392e+00,7.628880e-02,1.210340e-01,9.787607e-01,2.613316e-01,-4.731868e-01,-1.273488e+00,-9.024581e-01,5.556950e-01,-2.526119e+00,-1.304701e+00,1.289878e+00,1.733570e-01,2.305038e-01,
-3.461737e-03,1.685180e-02,-4.943462e-02,-3.965282e-02,-3.755910e-02,-2.262875e-02,-5.300436e-03,-1.730740e-02,1.538243e-02,-7.421641e-03,1.516611e-02,-5.080899e-03,-5.867780e-04,-6.785487e-03,-1.053566e-02,-1.594320e-02,7.550820e-03,2.086019e-02,-2.517989e-02,1.775784e-02,-5.106960e-03,1.415762e-02,-2.127334e-03,-1.374889e-02,-3.094390e-03,-1.269968e-02,-7.588684e-03,1.550470e-02,-4.994848e-03,-6.082046e-03,1.000538e-04,1.254425e-02,-4.724750e-03,-5.509150e-03,-8.170684e-03,-2.972799e-03,-7.339576e-03,-5.840326e-02,-5.827436e-03,8.953360e-04,-1.092444e-02,-2.789603e-02,-3.973673e-03,-1.215507e-04,-6.800190e-03,2.139420e-02,-2.958294e-02,-4.661241e-03,-5.178472e-03,9.545760e-03,
1.278088e+00,5.862052e-01,1.193643e-02,-1.770613e-01,1.115281e-01,1.261000e-01,8.389791e-01,7.793432e-01,5.024052e-01,3.002698e-01,-4.724277e-01,3.142269e-01,4.828522e-02,-1.410104e+00,-5.450463e-01,3.023440e-02,-1.225344e+00,8.684646e-01,-5.246652e-01,-1.125353e+00,-2.327890e-01,1.323063e+00,2.162911e-01,-5.069092e-03,-3.896496e-03,4.522768e-01,2.911268e-01,3.330710e-01,6.021626e-01,4.358951e-03,9.728124e-02,-1.686646e-01,-1.318220e-01,-3.246069e-02,-2.459134e-04,1.121222e+00,-1.571397e-01,2.141764e-01,2.036044e-01,-5.327553e-01,3.462882e-01,4.943021e-01,2.979081e-02,-3.419352e-02,-4.650919e-01,-1.889853e-01,1.117475e+00,7.068877e-01,6.265265e-01,-1.973478e-01,
-4.089295e+00,-5.044914e-01,-1.027801e-01,-2.596075e-01,-1.111351e+00,8.379725e-01,-9.927677e-01,1.018178e+00,1.803312e-01,-1.387986e+00,5.915327e-01,1.691214e-02,-2.307967e+00,-1.945013e-01,-1.083545e+00,-2.686340e-02,5.544122e-02,1.632874e-01,1.790022e-01,3.515394e-02,-1.637764e-01,-3.799328e-01,-4.012562e-01,-4.810469e-03,3.036576e-03,-2.986386e+00,1.016446e+00,1.049871e-01,1.788676e+00,-6.580907e-01,-5.538609e-01,-1.945765e-01,-1.688459e+00,-1.513039e-01,1.714984e+00,6.711639e-01,-1.338329e+00,8.029597e-01,-6.437575e-02,-5.896870e-01,-2.846187e-01,2.656434e-01,4.430550e-01,-4.663036e-01,-1.486361e+00,3.484986e-01,-3.270242e+00,-2.628896e+00,-5.601221e-01,7.842739e-01,
8.990249e-01,-1.717588e+00,-7.552529e-02,-1.259322e+00,-1.781789e-01,4.917056e-01,1.988767e-01,-4.223479e-03,-6.379904e-01,4.419221e-01,-1.478483e+00,-3.328403e-01,-1.286635e+00,5.559606e-01,-7.734607e-01,1.810610e-02,-8.981850e-01,1.560451e+00,-3.754204e-02,-5.826164e-01,-3.067079e-01,-9.087492e-03,1.332900e-01,2.211711e-02,-2.168855e-02,4.210408e-01,-8.103198e-03,-5.198627e-01,1.195160e+00,2.909454e-02,1.100908e-01,4.950687e-01,-2.740704e-01,1.918025e-02,-2.028234e+00,-2.866272e-01,1.750515e+00,1.446966e-01,3.267369e-02,-3.351670e-01,9.957895e-02,-5.979587e-01,-2.053942e-01,-1.525186e-01,-1.661254e-01,1.214096e+00,9.995508e-01,4.962758e-01,1.426802e+00,7.528136e-02,
8.367491e-01,-6.103520e-01,-1.441697e+00,-1.040105e-02,3.408029e-02,6.812644e-01,-6.735746e-03,-2.189266e-02,-1.772272e-01,-7.711644e-02,6.579753e-01,-6.199846e-01,3.022500e-01,-2.935073e-01,8.540561e-02,3.772290e-02,-8.065111e-01,-2.237458e-02,1.158872e-01,7.736238e-02,2.180423e-02,4.423134e-01,-4.001738e-02,7.170477e-03,-1.687381e-02,-1.397377e-01,7.078636e-02,4.419778e-01,1.730895e-02,9.103420e-01,-8.247503e-01,-8.625242e-01,1.249908e+00,1.011921e-02,-8.606126e-03,-8.133469e-01,-6.265596e-03,5.436774e-02,-2.825481e+00,-1.746379e+00,4.958821e-02,1.144794e-02,-1.071155e-02,5.443051e-01,6.443743e-01,3.302926e-01,-1.047087e+00,-1.670141e-02,4.160832e-03,5.885078e-01,
-6.988285e-03,-3.570130e-03,-8.983529e-02,-4.398485e-02,1.042821e-03,-1.077943e-02,-2.455774e-02,-8.750586e-03,-2.618033e-03,-8.355964e-03,-3.583664e-03,-1.763370e-02,-6.522475e-03,-8.248412e-03,-5.857095e-03,3.936490e-02,-8.006105e-03,-2.551496e-02,-2.092626e-02,-3.638662e-02,6.170637e-03,-8.782213e-03,2.326321e-03,-1.709523e-03,-9.809704e-03,2.349989e-03,-7.435598e-03,3.038110e-02,-3.118615e-03,-2.631504e-02,4.298820e-03,-3.335529e-02,3.885130e-02,-6.833335e-03,-7.016861e-03,-2.509646e-02,-5.086042e-03,-5.857436e-02,-2.797348e-02,-4.621370e-02,-6.723556e-03,-1.723588e-02,6.468896e-03,-6.325551e-03,-8.123627e-03,5.485510e-03,2.157366e-03,2.517908e-03,-2.138069e-02,1.214080e-02,
1.759812e+00,-3.560072e-01,-5.342525e-02,8.832418e-01,-3.804268e-01,3.439517e-01,1.586895e-01,-9.001089e-03,-2.375988e+00,6.325090e-01,-1.383894e-01,6.339664e-02,2.620090e-01,9.114789e-01,-1.677750e+00,4.204570e-02,-8.462797e-01,-7.967152e-02,-2.068858e-01,-3.678855e-01,-1.059520e+00,-4.524760e-01,8.266239e-02,2.778900e-02,2.620364e-02,-1.146438e-02,6.444078e-01,-3.686902e-01,1.478303e+00,-9.544742e-01,5.110928e-01,1.765437e-01,-4.142701e-02,7.675846e-01,-1.428306e+00,2.787862e-01,-1.662405e+00,8.631645e-02,-8.083957e-01,1.690933e-02,2.206752e-02,-2.408458e+00,-1.863915e-01,2.804052e-01,1.077381e+00,-5.598722e+00,2.783309e-01,9.451225e-02,-5.007100e-01,8.132946e-01,
-2.582981e-03,-3.332100e-02,-6.810150e-02,-6.773557e-03,-1.652201e-02,-1.397752e-02,-6.899676e-03,-7.662137e-03,-2.375044e-04,-7.748155e-03,1.860960e-02,-5.776556e-03,-3.544670e-02,-1.431706e-03,-9.720342e-03,-3.089690e-02,-7.589746e-03,-1.765015e-02,-8.464683e-03,-9.148715e-03,-4.960628e-03,-2.169196e-02,-2.407163e-02,-6.109362e-03,-4.013008e-03,-5.788788e-03,-2.658082e-02,-4.587800e-02,-6.564325e-04,-4.973900e-03,-1.517423e-03,-6.927580e-03,3.674290e-03,-1.011614e-02,-2.136489e-03,-4.948602e-03,-5.241804e-03,-4.563400e-02,1.509148e-03,-1.576220e-03,-1.260284e-02,3.724227e-04,-5.078257e-03,-8.244253e-03,6.890080e-03,-4.959370e-04,-2.446465e-02,1.920048e-02,-7.858976e-03,2.612170e-02,
-9.468957e-01,-1.774498e+00,-1.898852e+00,-1.067048e-01,-4.924230e-03,8.007453e-02,4.646561e-02,-9.091066e-01,-1.625543e-01,-2.041706e-01,4.911866e-01,-6.898635e-01,-6.970491e-01,2.689327e-01,-4.108494e-01,-5.136820e-03,7.847060e-01,-3.252437e-01,8.536281e-01,-7.337648e-01,-3.674434e-02,-1.197078e+00,3.260323e-01,-1.425445e-02,-3.371094e-03,1.295100e-01,2.658876e-01,-4.038107e-01,-5.749790e-01,-5.293791e-02,-5.175536e-01,6.006115e-02,1.413511e+00,4.945946e-01,-9.951998e-03,7.849636e-02,-1.149672e-01,4.211310e-01,-1.381168e+00,-1.428962e+00,1.887554e-01,7.984458e-01,5.520473e-01,-1.176106e+00,-1.593608e-01,-3.494801e-01,6.348944e-02,-1.617187e-01,-5.540368e-02,3.825191e-01,
-4.225576e+00,1.877627e+00,-7.181527e-02,-2.459552e-01,3.593884e-01,2.191244e-04,-1.151895e+00,-3.981114e-01,7.639445e-02,1.103240e-01,-9.234777e-01,-4.287424e-01,-2.348475e-01,-1.307941e-01,5.470022e-01,-4.527350e-02,2.325350e-02,5.354711e-01,5.460382e-02,-1.293195e-01,5.800804e-01,-9.191791e-01,-2.400485e-01,-4.433895e-03,6.907036e-04,-5.872224e-03,-6.610748e-01,2.705322e+00,-4.777808e-01,-8.134487e-01,3.851658e-01,2.180490e-01,7.651090e-01,-1.147429e+00,1.018530e+00,-1.707284e+00,-1.342441e-01,2.425924e-01,-3.085819e-01,-7.091923e-01,8.135292e-03,-7.790179e-01,-1.049385e+00,5.178002e-02,1.980020e-01,9.962300e-01,-2.407224e-01,2.259974e+00,-2.018873e+00,-3.923611e-01,
-4.712181e-01,1.003318e+00,-6.755691e-01,2.729736e-02,-1.881797e-03,2.793961e-01,-3.185275e-01,-9.139928e-04,1.797249e-01,1.472350e-01,-2.692570e-01,-2.746694e-01,-5.125561e-02,-9.916387e-02,-6.181729e-02,3.963520e-02,9.520511e-02,1.762891e-01,-2.450042e-01,6.220908e-02,-2.036566e-01,1.149313e+00,1.003727e-01,3.107223e-02,2.622019e-02,1.682929e-01,3.385235e-01,1.199605e+00,-1.527649e-01,1.415034e-01,1.513289e-01,2.662523e-02,2.050749e-02,-6.531924e-02,1.785016e-01,3.342505e-01,-1.578254e-01,-9.803037e-02,6.146454e-02,2.749006e-01,1.475105e-01,-1.045252e-01,1.084727e+00,3.862520e-03,-1.031136e-02,4.333073e-01,8.722875e-02,-1.884687e-01,2.834816e-01,8.378236e-01,
1.124765e-01,7.214470e-02,-2.939416e-01,6.329064e-04,-1.289345e-01,-6.804666e-02,-3.158899e-03,-1.245818e-02,-1.007530e-01,-4.223231e-02,-7.193028e-03,-1.780613e-01,-4.523896e-02,4.874149e-03,-7.640840e-02,4.766240e-02,4.154300e-02,-2.379815e-02,2.037053e-02,-8.368728e-02,-8.789068e-03,2.425303e-02,3.645501e-03,2.851841e-02,-2.530515e-02,-1.754167e-03,5.320677e-02,3.724040e-02,7.155459e-02,1.897491e-02,-6.197972e-03,-2.711678e-02,6.171730e-02,-8.398808e-03,1.894536e-02,7.531242e-02,-4.127162e-02,-5.198438e-02,-4.986318e-03,-1.721840e-02,-8.304269e-03,2.747134e-02,-5.343649e-03,6.529292e-02,-8.393402e-03,1.198850e-01,-2.646726e-02,-5.310228e-02,2.968195e-03,4.375330e-03,
-5.741071e-01,-9.276195e-02,1.748795e-01,-4.975916e-03,2.548772e-01,7.555288e-01,-2.544775e+00,9.454355e-02,-3.790743e-04,-5.664790e-01,-1.405972e+00,-4.128486e-01,9.618705e-02,-1.382124e+00,7.685233e-03,4.323670e-03,1.923406e+00,-1.583451e-01,8.702645e-01,-1.314260e+00,1.788273e-01,-2.518495e+00,-3.010099e-01,1.283536e-03,-3.505917e-02,8.775470e-01,-5.847899e-01,3.669013e-01,4.307759e-01,1.622579e-01,-3.602675e-01,3.489035e-01,-4.028481e-01,6.270493e-01,-2.370780e-02,3.797513e-02,1.865607e-01,-4.824362e-01,9.342709e-01,6.735785e-01,-1.609449e-01,9.305032e-01,-8.665482e-02,2.284287e-01,1.732213e-02,3.895316e-01,-2.526082e-01,-1.031697e+00,-1.943852e+00,5.828755e-01,
7.600209e-01,-2.665271e-01,-4.421380e-01,1.201426e-01,-8.161846e-01,3.009622e-01,7.612958e-02,7.965884e-03,3.392681e-01,3.839146e-01,-5.297643e-02,4.160925e-02,-3.555323e-01,1.683656e-01,1.736521e-01,3.408840e-03,-3.303408e-01,9.825504e-02,-1.117073e-02,6.492864e-01,-3.140009e-01,1.514114e-01,3.093384e-02,-1.383155e-03,-9.738936e-03,5.122997e-01,-5.815210e-01,-6.051720e-01,7.195583e-01,-5.595522e-01,-6.138497e-01,1.770143e-02,-3.839229e-01,1.038729e+00,-2.883957e-01,4.324442e-01,3.386226e-01,6.162376e-01,1.079576e-01,-4.714600e-01,-4.110575e-02,8.136117e-02,-3.562103e-01,-1.362258e-01,1.725289e-01,-6.137179e-01,4.124463e-01,8.930550e-01,6.860780e-02,4.008934e-02,
-1.630573e+00,-7.052516e-01,-6.495660e-02,5.225978e-02,5.267426e-01,2.116413e-01,6.226298e-01,6.832057e-01,1.600049e-01,1.815773e-01,-4.267749e-02,1.966150e-01,2.135401e-01,-4.381096e-01,1.458582e-01,-1.331040e-02,2.709386e-03,7.347544e-02,2.288501e-01,-6.096185e-01,2.209801e-01,-6.419884e-01,-2.407085e-01,-6.676363e-03,2.878284e-02,4.651311e-01,-1.793483e-01,-6.280267e-01,-1.210492e-02,-2.323787e-01,-2.125676e-01,9.001645e-03,4.835127e-01,6.854632e-01,-4.799821e-01,3.519856e-01,6.073840e-01,-1.072168e-01,1.483449e-01,1.969965e-01,-2.403866e-01,2.726983e-01,-1.439037e-01,-6.305859e-01,1.725791e-01,-8.394752e-02,2.906183e-01,1.007909e+00,1.076247e-01,5.805466e-01,
3.083518e-01,6.465233e-01,-5.140742e-01,-5.121394e-03,-5.043623e-03,5.423158e-01,-6.618037e-03,9.284915e-02,-3.496217e-01,5.274700e-02,7.562868e-01,7.652918e-01,8.627133e-04,-7.190020e-01,-8.763889e-02,-6.584270e-04,3.525234e-01,2.503780e-02,-1.213362e-01,-1.199720e-01,4.429632e-01,6.360041e-03,1.657326e-01,-2.114978e-02,5.173465e-03,3.388424e-01,1.987148e-01,2.998694e-01,-2.270645e-01,-3.622979e-02,-1.798148e-01,-3.784744e-01,-6.321931e-01,5.908478e-01,-3.603982e-01,1.026884e-01,-5.673212e-01,6.387751e-01,1.262656e+00,-2.196422e-01,-5.751150e-01,3.804156e-01,1.965275e-01,7.261443e-01,-1.821650e-01,-7.650286e-01,3.267277e-02,6.809353e-01,-2.782902e-01,3.054071e-01,
-4.101417e-01,-3.839365e-01,-2.793653e-01,7.535476e-02,2.659208e-02,-7.645418e-02,1.492120e-01,-8.446819e-01,-5.829081e-01,7.080560e-01,-2.128109e+00,-1.268718e-02,4.725133e-01,1.341403e+00,4.489092e-01,5.504660e-03,-2.844782e-01,1.643876e-01,9.084897e-02,-1.851000e-01,-9.652148e-01,7.818906e-01,-3.527669e-03,1.223679e-02,-2.489424e-02,8.144984e-01,-2.380606e-01,4.515123e-01,-1.240391e+00,-1.906900e-01,6.633889e-02,9.186893e-01,-3.373454e-01,-1.277882e-01,-4.616852e-01,5.242077e-02,1.496736e+00,2.824685e-01,3.178080e-02,1.019897e+00,5.982952e-01,-1.076780e+00,2.159580e-01,4.517959e-02,4.539163e-01,3.865305e-01,2.349521e+00,1.577397e+00,3.057595e-01,-2.311183e-01,
9.231909e-01,7.199689e-01,-5.675236e-01,-1.530818e-01,6.940730e-01,-2.019656e+00,-5.524408e-01,-4.535434e-01,3.497599e-01,2.176315e-01,2.238887e+00,-8.651341e-01,-6.663653e-01,1.373585e+00,-6.035823e-01,1.116820e-02,-7.768026e-02,2.781312e-01,-7.380078e-01,1.808387e-01,4.559162e-01,-3.935199e-01,3.030608e-01,-3.065539e-02,3.235281e-02,-1.324257e+00,-6.206172e-01,1.019851e-01,3.867046e-01,4.888838e-01,5.284575e-01,6.160918e-01,-4.022606e-01,-2.457955e-01,1.262963e+00,-3.109785e+00,-6.831099e-01,-1.040676e+00,-4.976670e-02,1.115034e-01,-6.966493e-02,-7.689411e-01,-8.138700e-01,-1.142857e+00,-4.122412e-01,-1.364701e+00,-2.771472e+00,-1.916448e+00,8.117588e-01,-1.928945e-01,
-5.029716e-01,2.551487e-01,9.004204e-01,-3.987199e-01,4.180283e-01,8.619952e-01,-5.170938e-01,7.914145e-01,7.806412e-01,1.830045e-01,4.327754e-01,3.666564e-01,2.063199e-01,-1.049171e-01,-2.146513e-01,-6.410880e-03,9.021634e-01,3.885742e-01,2.358283e-02,5.282010e-02,9.564906e-01,-5.940470e-01,-6.140558e-01,-3.209781e-02,-6.495648e-03,1.278134e+00,-2.496372e-01,-1.720294e+00,4.129526e-01,-1.588708e-01,-1.325081e-02,5.513732e-01,-1.561359e-01,2.284947e-01,1.525253e-01,-4.358066e-01,-8.900673e-01,1.055506e+00,8.153080e-02,-6.611232e-02,-1.749052e-01,3.023631e-01,5.945518e-01,-4.249482e-02,-3.018051e-01,8.976343e-03,4.247022e-01,2.074714e+00,1.187817e-02,2.142088e-01,
-1.944713e-01,2.934892e-01,-1.367571e-01,7.724105e-03,-2.152276e-01,-4.666319e-01,1.813875e-01,2.129513e-01,-9.624062e-03,4.773988e-02,1.389033e-01,-5.241036e-01,-5.089709e-03,-7.364494e-03,-1.515260e-01,-3.286050e-02,-1.969330e-01,6.287676e-02,1.324568e-01,-3.020635e-01,6.632267e-02,-3.500865e-03,-7.158686e-03,-7.402401e-03,-3.868839e-03,1.869531e-01,-1.337660e-01,5.218298e-03,-1.820166e-01,7.425150e-02,3.591317e-01,3.247263e-01,-1.130862e-02,-2.552115e-01,-1.806669e-01,4.050146e-01,-1.396403e-01,-2.193383e-01,1.407346e-01,7.173639e-02,-1.601373e-01,2.100296e-01,3.427570e-01,2.868633e-01,-4.664382e-02,2.273642e-01,-3.273363e-01,-5.113482e-02,-1.888748e-03,2.429086e-01,
2.521499e+00,1.289511e-01,2.947320e-01,6.792907e-01,4.877727e-02,9.533007e-01,1.108247e-01,3.738016e-01,-3.127605e+00,-6.796016e-01,4.604058e-01,-4.884560e-01,-7.653049e-01,1.707088e-01,-3.914066e-03,-5.429970e-04,-1.589923e-01,-8.247609e-01,6.466234e-01,-4.847393e-01,-3.905259e-01,1.017111e-01,-5.856341e-02,4.184721e-03,1.262071e-02,4.771402e-01,-4.255997e-01,-9.209473e-02,-3.288058e-01,-1.407707e-01,-7.156606e-03,1.433539e-01,2.204529e+00,3.703854e-01,7.479810e-01,-1.134863e-01,-6.856783e-01,-5.503734e-01,1.930249e-02,-1.198642e+00,-1.923585e-01,-2.098888e+00,-1.346354e-01,3.095617e-01,4.000938e-01,4.688003e-01,1.256630e-04,3.966878e-01,4.920385e-02,-1.153663e-02,
-2.330317e-01,1.108808e+00,-1.656291e+00,-2.864806e-01,-2.773035e-01,7.452178e-04,-3.041979e-01,1.387042e-01,-5.107046e-01,1.759850e-01,-2.551872e-01,-9.223347e-01,-2.744919e-01,1.131881e-01,-5.559981e-01,3.683990e-02,3.524823e-01,-3.875316e-01,1.530123e-01,2.678337e-01,-3.709922e-01,-8.441856e-02,1.535244e-01,-5.255708e-03,2.798754e-02,-3.394783e-01,3.192780e-01,5.715994e-01,4.490990e-01,7.400706e-01,2.067081e-02,-2.514616e-01,2.000976e+00,-3.426251e-01,2.491990e+00,4.403704e-01,5.132242e-02,-3.770292e-01,-1.317759e+00,9.277545e-01,1.580902e-01,2.649611e-02,3.435981e-01,1.492562e-01,-5.998578e-04,-1.781541e-01,-8.689753e-01,-1.371260e-01,8.616430e-02,5.702187e-01,
-6.662649e-03,-1.361460e-02,-1.363708e-02,-7.430193e-03,-3.172964e-02,-6.777702e-03,-6.855190e-03,-7.305364e-03,-7.025912e-03,-1.650129e-02,4.759246e-03,-4.942748e-03,1.392210e-02,3.554797e-03,-1.364621e-02,4.314880e-02,-7.251333e-03,-5.073247e-03,-6.655477e-03,9.467851e-03,-8.004490e-03,-1.957567e-03,-2.771027e-02,3.773625e-03,-1.795523e-02,-3.010659e-03,-4.940517e-03,5.966330e-03,-8.225588e-03,-8.783256e-03,-6.005935e-03,-3.684263e-03,-1.763020e-02,-8.363055e-03,-1.936044e-03,-2.599001e-02,8.007187e-03,-8.270819e-03,-1.931311e-02,1.792060e-02,-7.845696e-03,6.580429e-03,-2.792560e-02,-2.996700e-02,-5.872266e-03,-2.391330e-02,-4.757388e-03,-7.548531e-03,-8.287363e-03,8.764360e-03,
1.566174e+00,-5.460714e-01,-2.185884e-01,-6.628929e-02,1.462477e-01,6.613042e-01,-3.399682e-01,7.318543e-01,-6.598255e-01,5.010662e-01,-7.843766e-02,-1.924367e-01,1.114440e+00,2.277807e-02,-4.358618e-02,-7.981160e-03,2.171207e-01,2.771564e-01,5.973521e-01,6.961393e-01,9.542688e-01,-2.199148e-01,-1.957451e-01,-1.643436e-02,-9.694578e-03,-1.745805e-01,-3.803304e-01,-6.345537e-01,-1.489270e+00,1.981748e-01,-8.140279e-02,5.515950e-01,-1.085688e+00,5.344796e-01,1.136997e-01,-2.757285e-01,-2.475614e+00,-2.184638e-01,2.886381e-02,-1.101173e+00,-2.623760e-01,-2.113947e-01,-2.140273e-01,-2.810206e-03,-6.348278e-02,-2.465041e+00,-2.021343e+00,3.121764e-02,7.127146e-02,1.506042e-01,
1.958378e+00,1.007135e+00,-1.103284e-01,3.151504e-01,-9.578810e-01,4.185454e-02,-1.343964e-01,-1.441765e-01,2.695694e-01,7.464398e-01,3.491157e-01,-4.829272e-01,7.637516e-01,-3.680753e-01,1.443505e+00,-1.998800e-03,-1.076808e+00,-3.539590e-01,-6.341756e-01,9.017053e-02,5.140967e-01,-5.011690e-01,-1.758472e-01,-8.220717e-03,-4.742342e-03,3.093483e-01,1.699827e-01,-1.265802e-01,1.701865e-01,-5.181390e-01,1.277138e-01,-4.411132e-01,-7.991803e-02,-4.825770e-03,-2.448629e-01,-8.800223e-01,3.345213e-01,-7.247129e-01,-3.125504e-01,-5.443693e-01,5.387454e-02,-3.717713e-01,6.426914e-02,2.629668e-01,6.834493e-01,-3.252164e+00,6.254934e-01,-5.503807e-01,-5.751054e-01,-5.154970e-01,
-8.722149e-01,1.911687e-02,-7.804729e-01,-9.234625e-03,-2.052552e-01,2.393265e-01,-3.153862e-01,7.530425e-02,-4.666051e-02,1.349420e-01,6.140226e-01,3.104122e-01,-4.012352e-01,-4.585758e-01,-6.844358e-01,-4.796180e-02,1.075001e+00,1.522584e-01,5.422849e-01,-1.370437e-01,-1.133440e-02,-1.382834e-01,1.205104e-01,-8.257241e-03,-4.916100e-03,3.541950e-01,-9.531073e-02,-7.848796e-01,-4.762381e-01,-8.514152e-03,2.995986e-01,-3.501015e-01,3.818470e-01,-5.845072e-03,2.635462e-01,-4.474792e-01,2.857441e-01,1.173177e-01,-1.748135e-02,-3.201120e-01,9.302655e-02,8.877858e-02,-3.373645e-02,-1.089660e-01,3.747609e-01,3.979018e-01,4.189625e-01,2.765485e-01,-8.227389e-04,7.161947e-01,
1.085507e+00,1.185965e-01,3.364673e-01,1.787712e-01,-4.253981e-01,-7.500391e-02,2.870504e-01,-1.722946e-01,-5.640084e-03,7.304361e-01,-7.421578e-02,7.400052e-01,6.445152e-02,2.591708e-02,-8.284873e-03,2.588930e-02,8.503397e-01,-6.724123e-03,3.797286e-01,-1.576738e-01,-7.335238e-02,2.965965e-02,-2.259238e-01,-4.728991e-03,1.003687e-02,2.862641e-01,2.941083e-01,7.823098e-02,-1.608622e+00,5.742754e-02,2.678502e-01,-2.972001e-01,-1.128283e+00,4.757747e-01,-8.944330e-01,-2.912115e-01,2.768770e-01,-3.881937e-01,-9.424876e-02,1.014606e+00,6.925288e-01,8.591300e-01,5.309232e-01,8.024589e-02,-1.371917e-02,-7.944852e-01,-1.850028e-01,-4.777554e-01,-1.127413e+00,-1.536433e-01,
-1.004184e+00,-4.067211e+00,-3.197620e-01,-4.756098e-01,1.397132e-01,7.185004e-01,5.197838e-01,-7.914556e-01,-2.735687e+00,-1.341791e-01,-4.378057e+00,-1.266946e-01,7.756203e-01,-9.448303e-02,8.982542e-01,3.304990e-02,1.889763e-01,-1.159087e+00,-5.323890e-01,2.793077e-02,4.135354e-03,2.361232e-01,-3.259486e-03,8.053215e-03,5.120416e-03,2.134916e-01,-1.862555e-02,-1.399378e-02,1.935652e+00,3.641803e-01,-1.795613e-01,-3.078190e-01,1.741867e+00,1.108678e-01,-1.551941e+00,-9.011763e-01,1.014304e+00,2.711367e-01,-1.180887e-01,2.086464e+00,-2.384126e-01,2.515795e-01,1.020134e+00,-1.819954e-01,1.701258e-02,-6.678140e-01,-6.825640e-01,1.942008e-01,-4.585437e-02,5.812100e-03,
-2.727405e-03,2.853270e-02,-6.517035e-02,-5.007574e-03,-5.018633e-03,-4.529343e-03,-1.345609e-02,-2.959173e-02,-2.501724e-02,-1.297637e-02,-6.783904e-03,-6.481268e-03,-3.156057e-02,-8.842536e-03,-1.791935e-02,-4.162040e-03,-3.738867e-02,-6.854406e-03,-4.203191e-02,-8.006940e-03,-8.874912e-03,1.375722e-03,-2.993832e-02,1.462998e-02,1.358883e-03,-8.500485e-03,-6.847628e-03,8.272010e-04,-7.974771e-03,-2.826711e-02,1.035480e-03,-1.588769e-02,3.864730e-03,-5.263397e-03,-2.084072e-02,-4.126238e-03,-3.851074e-03,-5.411235e-03,-6.912967e-03,-2.316250e-03,1.574586e-02,-1.127006e-03,6.603737e-03,-2.608525e-02,-7.810879e-03,-1.998860e-02,-1.615508e-02,-6.806629e-03,-7.634995e-03,1.092790e-02,
2.421516e-02,3.878842e-01,-5.488012e-01,3.588072e-01,-7.063283e-01,-7.941865e-01,-2.175901e-01,-1.729075e-01,-6.324322e-01,2.534265e-01,-2.255853e-03,-6.645476e-01,-5.254532e-01,9.265509e-02,-2.178871e-01,-1.755610e-02,-6.016704e-01,-3.950377e-03,-8.147889e-02,-5.675498e-01,-1.749144e-01,6.883737e-02,5.388111e-01,4.256032e-02,-4.834957e-03,-7.431731e-01,5.069122e-01,3.495742e-01,-4.124267e-01,4.383714e-01,6.507703e-01,7.688177e-02,1.292574e+00,-3.886548e-01,-1.658227e-01,-4.181418e-01,-8.857149e-02,-5.579060e-01,7.018740e-01,-1.212037e+00,-2.498042e-01,1.487816e-01,4.107216e-01,4.654205e-03,-7.680775e-03,6.250274e-01,-3.162446e-01,-1.232675e+00,2.681254e-01,5.509261e-01,
7.602624e-02,-1.334199e+00,-5.224923e-01,-5.267490e-01,1.125087e+00,3.284492e-01,-5.318146e-01,-1.584155e+00,5.658655e-02,7.114492e-02,3.537607e-01,-9.821187e-01,3.290455e-02,-1.240826e+00,-5.438251e-01,-1.491820e-02,-3.459082e-01,7.416899e-02,-1.981890e-01,1.064632e-01,-6.058390e-01,-7.835817e-01,2.634059e-01,-1.958004e-02,-1.071174e-03,2.758590e-01,-7.567220e-01,4.447365e-01,3.829630e+00,-2.486002e-01,-1.160602e+00,-3.401948e-01,-2.182147e-01,7.766432e-01,5.312067e-01,2.555656e+00,-1.283174e+00,1.080003e+00,2.540854e-03,9.063512e-01,9.757327e-01,1.316494e+00,-2.051434e+00,-3.807780e-01,-1.421634e-01,-5.869898e-01,8.383225e-01,-3.046554e+00,-3.482696e-01,3.193762e-01,
-9.427415e-02,-6.500847e-01,-5.386267e-01,-6.433959e-01,1.851115e-01,4.662948e-01,-1.148640e+00,1.054925e-01,4.048969e-01,-3.052541e-01,3.018848e-01,-4.071017e-01,5.346273e-02,3.452148e-01,4.821413e-01,-2.790680e-02,4.337340e-01,2.522532e-01,5.341765e-01,2.110212e-02,-4.716256e-01,1.784958e-01,-5.419061e-01,6.324213e-03,7.513687e-03,3.399327e-03,7.719820e-01,4.067958e-02,2.955127e+00,-1.429559e-01,-5.409836e-01,5.745116e-01,2.520666e-01,-1.358747e-01,-9.680094e-01,-3.583067e-01,1.309216e-01,1.341257e-01,3.279702e-01,-7.762992e-01,-7.694069e-01,-2.314555e-01,1.135683e-01,-6.283314e-01,4.924138e-02,-3.475249e+00,-9.628956e-01,-1.039063e+00,-6.329532e-02,3.147828e-01,
-6.832303e-03,-1.911290e-02,-8.812995e-03,-6.897690e-03,-7.463682e-03,7.174335e-04,-4.731539e-03,-3.727451e-02,-5.422842e-03,-5.315876e-03,2.698878e-03,-1.395705e-02,-3.144472e-02,-3.770944e-03,-1.308282e-03,-2.669670e-02,3.268018e-03,-3.518268e-02,2.811049e-03,-7.538646e-03,-3.228182e-02,-7.317198e-03,-1.136667e-03,-1.588833e-03,-5.455354e-03,-5.274841e-03,1.750445e-04,-4.450600e-02,-7.711828e-03,-8.091207e-03,1.264336e-02,-5.096676e-03,5.127940e-03,-1.138854e-03,5.745979e-03,-3.536358e-02,-7.980850e-03,-6.867110e-03,-6.134621e-03,-5.991970e-03,-3.313223e-02,-6.526023e-03,-8.141004e-03,-2.514414e-03,-5.020776e-03,-4.949210e-02,-2.562022e-02,-8.290943e-03,-7.272496e-03,-5.448560e-02,
-5.415341e-03,-9.914750e-03,-9.148321e-02,-4.962063e-03,8.579290e-03,-6.708807e-03,-4.490133e-03,5.326785e-04,-4.790212e-02,-6.968556e-03,-8.402272e-03,-3.365461e-02,-3.967379e-02,5.066407e-03,-2.324500e-02,2.727470e-02,-3.276020e-02,-5.638490e-03,-1.956317e-05,-8.763208e-03,-4.477045e-02,-8.495822e-03,-6.330888e-03,1.660918e-02,-5.686663e-03,-3.266436e-02,1.871899e-02,-2.004610e-02,-3.693828e-03,-4.914973e-03,-3.060382e-02,-8.445038e-03,1.019290e-02,-4.682970e-03,-2.485487e-02,-6.914691e-03,5.195781e-04,-3.128186e-02,2.052910e-03,-1.510140e-02,-2.975457e-02,-1.874006e-02,-1.578765e-03,9.632793e-03,-3.739494e-02,-3.513080e-02,1.567141e-02,-2.996540e-02,-3.053885e-03,-2.499180e-02,
3.916061e-01,2.962845e-01,-2.063393e-01,-7.454383e-03,3.262392e-01,2.562102e-01,-3.472908e-03,-3.918438e-01,3.865841e-02,-3.272977e-01,-7.365124e-02,2.899701e-01,-3.836372e-01,2.008304e-01,2.958538e-01,1.967190e-03,4.963708e-02,-4.740261e-02,2.129636e-01,1.146067e-01,-1.709992e-01,4.372039e-01,-2.232151e-02,1.263690e-02,-7.202674e-03,-1.408609e+00,2.813779e-02,3.744183e-01,8.370644e-01,-2.469613e-01,7.642406e-02,1.853821e-01,-9.397240e-01,1.325810e-01,-3.056665e-01,1.210067e-01,-1.215146e-01,1.304389e-01,1.369946e-01,-2.370650e-01,5.149831e-02,-1.509602e-01,1.313938e-01,2.778501e-01,9.264264e-02,-2.062745e-01,6.466538e-02,1.808729e-02,-3.911953e-01,3.535916e-02,
-3.617749e-01,1.143007e-01,-3.471927e-01,4.063694e-01,-6.880368e-01,6.763859e-01,6.233704e-01,-9.343392e-01,-1.485175e-01,-3.336260e-03,-2.927663e+00,-3.027936e-01,-4.043627e-01,8.780719e-01,-1.914669e-01,1.390700e-02,-2.133721e-01,-2.502915e+00,-4.775788e-01,7.263956e-02,-2.255997e-01,1.171363e-01,9.687991e-02,2.187293e-02,1.937567e-02,9.595332e-01,-6.523072e-01,-1.900225e-01,-7.335140e-01,-7.930771e-02,-8.280060e-01,-2.308089e+00,2.752559e-01,1.527918e-01,3.346911e-01,-7.481842e-01,8.681656e-01,6.153867e-01,-1.981171e-01,-1.244562e-01,3.927059e-01,-2.614142e-01,7.314105e-02,7.919118e-01,-2.291892e-02,6.278716e-01,-8.978971e-03,7.651413e-01,2.689081e-01,2.435929e-01,
9.605314e-03,7.454876e-01,1.065685e-01,-1.005422e-03,-4.457747e-01,2.690710e-01,9.418698e-01,5.733587e-01,3.351462e-01,-7.097508e-02,1.047377e+00,1.438879e+00,-3.133021e-01,-1.083020e+00,7.515807e-01,-6.331680e-04,-5.811136e-01,1.630252e-01,-7.283381e-02,6.543834e-01,-8.471856e-02,9.901357e-01,-5.143134e-01,4.231774e-05,-6.207130e-03,-3.438644e-01,4.810674e-01,7.140012e-01,1.461616e+00,-5.540642e-01,-2.081622e-01,-5.309263e-01,-1.124232e+00,7.919911e-01,2.578187e-01,-4.641899e-01,-1.075523e+00,1.984380e-01,6.192700e-04,-9.196128e-01,-3.274657e-01,3.423220e-01,5.412824e-01,-7.266979e-01,-8.764095e-01,7.142154e-01,-1.479580e+00,-1.255054e+00,-7.063581e-01,2.975916e-02,
8.831611e-01,
-1.150768e+00,
1.013633e-01,
-2.051390e-01,
-1.469805e+00,
7.682824e-01,
-1.659900e-01,
1.339617e+00,
-3.408027e-02,
-6.978898e-01,
1.037996e-01,
2.675405e-02,
-1.227596e-01,
-3.361496e-02,
-1.040828e+00,
1.796106e-01,
4.608022e-01,
-6.116657e-01,
-4.895900e-02,
-1.722214e-01,
-4.191937e-02,
-9.838606e-01,
-2.968800e-01,
7.357759e-01,
-1.391343e-01,
-8.586665e-01,
3.532307e-01,
-4.826208e-01,
2.626303e-01,
-2.683961e-01,
5.017568e-01,
-7.556061e-01,
6.190508e-01,
-3.254332e-01,
-1.041193e+00,
-5.217568e-02,
-2.487904e-01,
2.930283e-01,
-9.009621e-01,
-1.419077e+00,
-9.886644e-01,
-4.694691e-02,
-8.035925e-03,
-7.833943e-01,
2.521493e-02,
-6.099043e-02,
-4.809332e-02,
-5.524594e-01,
-6.717248e-01,
-3.142135e-01,
2.414091e-01,4.807857e-01,3.913531e-01,-3.039210e-02,-3.870742e-01,3.611620e-01,7.719532e-01,3.364770e-01,-7.250124e-03,1.570155e-01,1.696756e-01,5.853703e-01,-3.939272e-01,-3.079708e-03,2.846256e-01,4.411243e-01,-6.792791e-03,1.823692e-01,-3.145779e-02,-7.279902e-03,9.209326e-03,-1.787811e+00,-2.227307e-01,-4.446802e-01,1.323344e-01,-3.219386e-01,-1.686661e-01,4.388769e-01,-2.128965e-01,-5.266424e-01,-6.077435e-03,-4.944199e-01,4.436529e-01,1.187496e+00,-2.361625e+00,-2.145401e-02,-3.237807e-01,2.031374e-01,2.100211e-01,2.835666e-01,2.439879e-01,-9.124382e-04,-3.626354e-01,-2.068111e-01,7.093112e-01,4.991805e-03,-7.003690e-03,7.375953e-01,6.158004e-01,-7.781339e-02,
2.113642e-01,-8.251707e-02,1.296950e-01,3.667093e-02,6.068533e-02,-7.820914e-03,-8.613010e-03,-9.664898e-03,-5.980159e-03,-1.808902e-01,5.646210e-02,3.321354e-02,1.141551e-02,-7.885573e-03,3.135848e-02,-9.621120e-02,-2.476998e-01,1.249971e-02,5.137428e-03,-1.266457e-01,-3.644563e-02,-2.569533e-03,-3.645528e-02,2.137273e-02,9.641428e-02,-1.883778e-01,-6.876313e-02,-2.049459e-01,-2.453208e-01,-1.093411e-01,-2.676008e-01,3.769485e-02,-2.589105e-01,1.098052e-01,-3.973733e-01,-5.607289e-03,-1.572608e-01,1.012822e-01,-1.614166e-01,8.073232e-02,-5.342710e-03,-4.709309e-03,1.377441e-01,-5.337665e-02,5.105743e-02,2.041705e-02,2.182554e-02,-7.446076e-03,-6.518854e-03,-3.206957e-02,
3.123430e-01,2.401059e-01,-3.366944e-01,3.937733e-01,1.289066e-01,-8.449625e-03,-6.612342e-03,2.958560e-02,-4.567268e-02,3.521228e-01,2.819146e-02,-1.727224e-01,-9.825088e-01,-8.524063e-03,1.459919e-01,-4.560864e-02,6.389481e-03,7.030587e-01,-4.239407e-02,-1.747425e-01,2.845938e-02,7.046513e-02,1.125598e+00,1.682054e-01,9.384409e-02,3.161315e-02,-1.681305e-01,5.191946e-01,8.447716e-02,-2.296675e-01,-9.571979e-03,-2.153335e-01,-4.370709e-01,-2.594234e-01,-2.376378e-01,3.445144e-03,-4.295628e-01,-2.110115e-01,4.398165e-01,1.123648e-01,2.631490e-03,-8.697910e-03,6.988859e-01,-6.908225e-03,6.169316e-02,-1.878015e-02,1.611507e-02,1.063951e+00,-5.429894e-03,-3.634816e-01,
-7.374850e-01,1.483655e+00,7.445102e-02,-1.578394e+00,-1.550716e+00,-8.555344e-01,1.261311e+00,2.644244e-01,-6.562595e-04,1.564179e+00,-1.321227e+00,-5.860661e-01,-6.067866e-01,-2.098268e-02,1.083794e+00,-2.159784e-01,-1.872982e+00,1.904692e+00,-3.385345e-02,-1.598244e+00,4.943989e-03,1.189892e+00,-1.717852e+00,-9.969311e-01,7.545803e-02,-2.571133e-01,4.293362e-02,2.837264e-01,9.207952e-01,-7.012094e-01,-7.074249e-01,-7.718155e-03,-1.632392e-01,-1.409144e+00,3.535557e+00,-8.989873e-03,-6.147025e-01,6.973017e-01,5.293787e-01,-1.541658e-02,5.744328e-01,-2.071421e-02,4.245163e-01,2.349756e-01,-1.297352e+00,-4.458643e-02,1.151693e-02,-8.650483e-01,8.278676e-01,9.014999e-01,
-2.286206e-01,-1.015875e-01,5.765976e-01,-5.714880e-01,2.088748e-01,1.647187e-01,1.220460e+00,8.665239e-03,1.354045e-02,-2.409272e-01,3.451000e-01,-1.720729e-02,2.017842e-02,-3.295388e-02,-8.342080e-01,-4.372140e-01,-5.992836e-02,-7.003551e-03,2.011847e-02,2.912743e-01,-1.047836e-02,3.181303e-01,-8.874656e-01,1.812737e-02,-8.561674e-03,5.268021e-01,-7.399947e-01,-3.135094e-01,6.560285e-01,7.190596e-01,1.187846e-01,1.246155e-01,4.422081e-01,6.501500e-02,-3.131706e+00,8.203156e-03,2.556557e-02,3.359346e-01,-4.040138e-02,-5.954598e-02,-5.066124e-01,2.919900e-02,5.580704e-01,5.840538e-02,-2.203298e-01,-2.981785e-03,-7.116126e-03,-6.327088e-01,-5.632778e-01,-3.991588e-01,
-3.744468e-01,1.042717e+00,7.076808e-01,4.978504e-01,1.246377e+00,5.745091e-01,-1.089941e+00,-2.729794e-01,-5.153726e-03,8.301564e-01,-9.259095e-01,1.377099e-01,3.263935e-01,-1.661750e-03,5.027116e-01,1.045043e+00,-1.508509e-01,5.354642e-01,-6.582345e-03,3.000365e-01,-2.471769e-02,-2.265387e-01,5.070502e-01,2.539999e-01,1.108701e-01,-7.645909e-03,1.031502e-01,5.258235e-01,-3.151883e-01,-5.281258e-01,2.927322e-01,-5.049331e-01,2.519322e-01,-9.496372e-01,6.978629e-02,-8.728100e-03,1.789096e-01,4.408706e-01,1.906519e-01,1.148851e+00,1.874213e-03,-3.548768e-02,1.972240e-01,-2.403131e-03,-6.950355e-01,-2.231669e-02,-2.280381e-02,1.872662e+00,8.625981e-01,-1.767376e-01,
1.154255e+00,7.180000e-02,3.880789e-01,2.822731e-01,1.951770e-01,-2.217645e-01,-9.021600e-03,-4.473974e-01,-5.307296e-04,-2.042701e-01,1.680584e-01,5.462806e-01,1.193332e-01,-6.586519e-03,4.861951e-01,-1.024698e-03,1.817134e-01,4.462217e-01,-4.824285e-03,2.238476e-01,-4.039174e-02,-4.400469e-01,1.553699e-01,2.496442e-02,-6.589893e-02,9.888383e-02,-1.778438e-01,-1.094869e-01,-4.729852e-01,4.362860e-01,1.964829e-01,1.109782e-02,4.255889e-01,6.900430e-01,-1.290562e+00,-2.129995e-02,4.005533e-02,1.290193e-01,-2.758322e-01,7.179321e-02,4.793270e-01,-6.169869e-03,-3.477735e-01,1.587453e-01,-3.863725e-01,-1.567079e-02,-7.034425e-03,6.641600e-01,1.595804e-01,-3.118687e-01,
-2.443812e-01,-1.335315e-01,-3.759974e-01,-9.237081e-01,-1.092514e+00,1.615368e-01,6.350892e-01,2.104100e-01,-6.766675e-03,-3.522997e-01,-3.808377e-01,2.201968e-01,2.122295e-02,5.188122e-04,-3.420886e-01,2.994218e-01,-3.747248e-01,1.163183e-01,1.542980e-02,3.857713e-01,2.932205e-02,2.522719e-01,-7.360645e-01,3.488494e-01,1.095837e-01,8.660560e-02,-1.062559e-01,8.920060e-01,6.904161e-02,1.372142e-01,4.795088e-02,2.113339e-01,-3.052287e-01,-1.028079e+00,4.646212e-01,2.123482e-02,2.494908e-01,1.370486e-01,-9.807100e-02,-4.420392e-02,-9.529077e-01,-3.778933e-02,-3.180046e-01,1.317100e-01,3.229045e-01,-2.083713e-02,-5.967699e-03,-2.106536e+00,-8.128543e-01,2.267473e-01,
2.881370e-01,1.345547e+00,1.242304e-01,-7.942765e-01,-2.699172e+00,-1.978758e-01,1.720740e+00,7.832480e-02,-2.837312e-02,-8.474551e-01,-3.460205e-01,4.473135e-01,-7.970269e-02,-1.173521e-04,-1.150079e-01,1.399830e-01,1.652555e-01,-1.726080e-01,1.276562e-02,4.981336e-01,-6.821026e-03,-5.066845e-01,-4.047769e-01,-2.257777e-01,1.164203e-01,5.535636e-01,1.984526e-01,-4.891594e-01,6.226202e-02,-4.769202e-01,-2.924141e-01,-4.263892e-01,-1.430319e+00,-7.645521e-01,-1.816965e+00,-3.632184e-02,2.360091e-01,-5.800074e-01,1.304272e-01,2.156553e-02,2.901399e-02,-7.981338e-03,-1.534606e-01,-3.358941e-01,-2.593698e-02,-1.172145e-02,-5.332110e-03,-7.170141e-01,2.366481e-02,-5.393624e-02,
1.479198e-01,4.270213e-01,-8.015878e-01,9.514046e-02,-2.525403e-01,-3.822036e-04,4.557659e-01,-1.115853e-01,-6.586031e-03,-2.515446e-03,7.445821e-02,4.516988e-01,4.857875e-03,-5.007233e-02,-1.941304e+00,3.989038e-02,-6.144136e-01,-1.037202e+00,5.511994e-03,-2.394591e-01,-4.247038e-02,-1.512886e-01,7.818559e-01,2.028528e-01,6.481086e-03,2.283385e-01,-9.518155e-02,-1.004574e-01,5.173733e-04,-3.265394e-01,-2.456017e-01,-2.959951e-01,-6.664133e-01,-8.793302e-03,-1.158674e+00,2.286360e-02,-4.565872e-02,1.502262e-01,-3.049549e-01,5.611686e-01,8.851629e-02,8.005949e-03,-3.963581e-01,-8.899513e-03,2.924462e-01,1.068448e-02,-3.974126e-02,5.963844e-01,3.916480e-01,9.029177e-02,
1.456934e-01,-1.704378e+00,-5.459064e-01,3.937657e-01,9.274703e-02,-6.962637e-01,1.906372e+00,4.276704e-01,-1.774178e-03,-3.133123e-01,2.676230e-01,-1.452129e+00,-2.892527e+00,-2.871238e-02,-1.767584e-01,-2.631290e+00,1.087749e+00,-1.957484e+00,-3.452610e-04,-3.051219e-01,1.263214e-02,1.051133e-01,1.976346e+00,-1.462573e-01,-3.170907e-02,-5.462061e-01,-5.087650e-01,3.252647e-01,-4.950983e-01,3.140059e-01,4.700223e-01,-1.016120e-02,4.265272e-01,7.887397e-02,-1.770172e+00,-1.829709e-02,2.497244e-01,5.003552e-02,9.707336e-03,3.839346e-01,-5.414869e+00,-3.586233e-02,1.312337e-01,5.306796e-01,7.509357e-01,-4.207053e-02,3.510545e-03,1.810485e+00,-1.081403e+00,-1.896902e-01,
5.320226e-02,-1.347523e+00,-1.817137e-01,-4.750783e-01,1.320226e-01,4.913415e-03,-2.704602e+00,-1.625054e+00,-8.148975e-03,-3.529009e-01,-4.514395e-01,1.877317e-01,-1.053151e+00,3.668229e-03,4.692992e-01,1.429604e-02,9.607518e-01,-7.669237e-01,-5.077272e-03,2.911621e-02,-2.670640e-02,1.445671e-01,3.073264e-01,-3.851778e-01,-8.714387e-03,-9.032860e-01,7.626365e-01,-3.275705e-01,-6.539953e-01,-4.163615e-01,-2.620233e-01,-1.230509e-02,1.039419e+00,-1.016343e+00,-6.762179e-01,-6.278370e-03,1.589859e-01,3.671739e-01,4.268193e-01,-1.396066e-01,6.016039e-01,-2.813498e-02,-8.578271e-01,2.346771e-01,1.251462e+00,-3.850555e-02,-3.246519e-02,-7.712151e-01,2.819109e-01,4.095078e-02,
-5.603705e-02,6.249491e-01,-9.535805e-03,-1.348739e-01,-1.942461e-01,2.555312e-01,2.998924e-01,-1.915537e+00,-1.147273e-02,2.431575e-01,-5.371629e-01,-9.088409e-01,8.840432e-02,-3.839950e-02,1.214373e-01,3.607375e-01,1.057469e+00,-5.354362e-01,1.334657e-02,8.056450e-02,-1.605825e-02,3.562468e-01,3.623244e-01,-1.650420e-01,-6.634100e-03,-8.227752e-01,-4.391615e-01,-1.627097e-01,6.297495e-02,4.650339e-01,3.384171e-01,4.393705e-01,-2.580881e-01,-2.040002e+00,-8.233621e-01,-1.103435e-02,4.896273e-01,-4.870521e-01,4.199104e-02,-7.987803e-01,-8.319510e-01,3.386269e-04,2.233225e-01,6.108390e-01,-2.046633e-01,-2.840664e-02,-3.940406e-02,1.796783e-01,1.578246e-01,-2.645644e-03,
-3.471586e-01,5.450499e-01,-5.779909e-01,5.725312e-01,-8.247788e-01,3.633960e-02,-9.534950e-03,1.962836e-01,-8.252519e-03,8.431143e-01,3.255503e-01,-6.827419e-01,5.685036e-02,-8.567443e-03,-2.558458e-01,-1.738604e+00,7.293024e-02,1.173798e+00,-1.710256e-03,7.897950e-02,2.105835e-02,5.563619e-01,-1.387613e+00,-3.278569e-01,5.845490e-02,-5.200006e-04,-3.882597e-01,5.275463e-01,1.679552e-01,2.991500e-01,3.517914e-02,-2.036942e-01,-3.218603e-01,-6.442506e-01,2.151186e+00,-2.592664e-02,2.389188e-01,-5.163571e-01,9.325764e-01,4.117759e-01,-1.522187e+00,-4.246857e-03,2.075689e-01,1.729549e-01,-2.424694e-01,-7.772394e-03,-3.957925e-02,-3.235798e-01,-1.552769e-01,2.642497e-01,
-2.196299e-01,3.315324e-01,3.658590e-01,4.859003e-03,5.528267e-01,-3.498032e-01,2.450693e-01,-8.607089e-03,-1.080477e-03,-2.395483e-01,-3.585193e-01,-1.910533e-01,-8.910346e-01,-1.158401e-03,3.400413e-02,5.149567e-02,4.301243e-01,-7.312722e-01,9.066079e-03,1.909151e-01,2.466454e-02,-5.421461e-01,9.471650e-02,-1.258367e-01,1.176413e-01,2.673723e-01,5.360938e-03,-7.249589e-02,-1.175338e-01,-2.925186e-01,-1.964831e-01,-1.295369e-01,2.133546e-01,-6.438612e-02,1.026432e+00,3.359532e-02,4.920222e-01,-9.317968e-02,5.921172e-01,3.138273e-02,-4.718902e-01,-2.804738e-02,7.252010e-01,-3.369480e-02,-4.335272e-02,-2.190880e-02,-7.907802e-03,6.462453e-01,-6.112247e-03,-3.598729e-01,
-1.478751e-01,5.022740e-01,1.116678e-02,2.915744e-01,2.619620e-01,3.951317e-01,-7.015789e-01,2.126863e-01,2.522143e-02,-1.014657e+00,-9.183393e-01,-3.532766e-01,3.473501e-02,1.487046e-03,-7.201213e-01,7.909714e-01,5.530316e-02,-5.311705e-01,2.388808e-02,7.086536e-01,-1.481574e-02,1.520413e-01,9.463332e-01,-2.205810e-01,1.450581e-01,1.074183e-01,2.778478e-01,6.755092e-01,3.822345e-02,1.992050e-01,-7.184253e-01,4.052300e-01,3.704338e-01,-3.305918e-02,1.335593e+00,-3.286589e-03,-2.401569e-02,1.192649e-01,1.278430e+00,3.274568e-01,-6.133456e+00,-5.960199e-03,-1.722903e-01,1.548435e-01,3.551159e-01,-4.638955e-02,3.124326e-03,1.555266e-01,1.093278e-01,2.706947e-01,
1.067257e+00,1.027039e+00,7.372467e-01,1.323565e-02,2.192252e-01,-3.853305e-01,-5.696130e-01,3.952156e-01,1.234131e-02,3.695137e-01,4.083896e-01,1.155396e+00,5.606794e-01,-8.413816e-03,1.750296e-02,2.036185e-01,-3.038207e-01,7.623023e-01,1.602673e-03,9.439220e-02,-5.092053e-03,-5.600955e-01,-1.504681e-01,9.576975e-01,-1.757763e-02,1.732437e-01,-1.559648e-01,-5.177119e-01,5.977990e-01,-5.548815e-01,8.005479e-02,-3.305455e-01,8.953522e-01,6.340704e-01,-5.556630e-01,1.504933e-02,2.428911e-03,1.327758e-03,6.552420e-01,1.332482e-01,1.517738e-01,1.453670e-02,8.210208e-03,-3.482459e-01,-7.041818e-01,-2.544479e-02,-1.567076e-03,6.854901e-01,2.981609e-02,-1.223099e-02,
-1.225276e+00,1.242853e+00,1.787079e-01,-2.213830e+00,-1.168284e+00,-7.582920e-01,1.679870e-01,3.806469e-01,1.881293e-02,-1.326761e+00,-3.867199e+00,-4.300656e+00,-5.462492e+00,-4.573756e-02,-1.698067e-01,-6.371514e-02,2.221979e-02,8.425629e-01,-3.020629e-02,1.291102e-01,-8.051121e-03,1.058605e-01,1.152184e-01,-3.464457e-01,-6.290100e-03,1.104123e-01,8.945627e-01,-1.744504e-01,1.364356e-01,-7.056677e-03,-1.185991e+00,2.456414e-01,6.163087e-01,-1.066559e+00,-9.647593e-01,-2.524520e-02,5.401394e-01,2.293464e-03,7.476720e-01,9.459140e-02,-4.453070e-01,-5.613133e-03,5.022216e-01,1.021940e-01,9.329064e-01,-9.341005e-03,-2.632403e-02,-4.296443e+00,-3.261181e-01,-4.400614e-03,
-2.747780e-01,-1.851799e-01,3.623586e-01,-1.122056e-02,-1.316563e+00,1.072191e-01,2.016466e-01,3.853461e-01,2.751257e-02,-6.528482e-02,-6.887943e-03,3.181795e-01,-2.285568e-01,-3.154853e-02,-3.055919e-01,6.650556e-02,-2.148330e-01,-2.039332e-01,-6.311155e-03,-5.223198e-01,-4.123420e-03,-3.844222e-01,-2.448331e-01,-1.125795e-01,7.376907e-02,3.752992e-01,1.809961e-01,-2.750936e-01,-2.135923e-01,-3.786593e-01,-2.842145e-01,6.023822e-02,3.128633e-01,1.698085e-01,8.384451e-01,1.816539e-02,1.182911e-01,-2.626970e-01,1.374499e-01,-6.523024e-01,-8.459727e-02,-5.307442e-02,-1.382564e-02,-9.105808e-02,-8.288147e-02,-5.781727e-03,1.865103e-02,1.521132e+00,-5.458233e-02,-5.162538e-02,
-4.870070e-02,1.617207e-02,-3.725827e-02,-4.249115e-03,-3.534951e-03,-2.057108e-02,-1.200255e-02,-1.422261e-02,2.627231e-02,-4.800016e-02,-4.682647e-02,-5.669387e-03,-2.045239e-02,-1.153763e-02,-2.457184e-03,-1.604470e-03,-2.368619e-05,-2.132224e-02,-1.526996e-02,-4.198026e-02,2.730711e-02,-4.039676e-02,-3.012898e-02,-4.488831e-02,-3.725987e-02,-1.993239e-02,-1.612228e-02,-3.126922e-02,-2.528046e-02,-9.054543e-03,-2.007006e-04,-4.156212e-02,-3.561997e-02,-3.971641e-02,-4.622193e-04,-4.466712e-02,1.380443e-02,1.146221e-02,-3.318483e-02,8.805839e-03,-5.391153e-03,-1.794242e-03,-7.947826e-03,-3.383154e-02,-3.760540e-02,-2.606950e-02,1.782148e-02,-5.547729e-04,-2.718149e-03,-2.241440e-02,
-3.259371e-01,-6.540891e-01,8.848398e-01,-9.536973e-01,-5.865347e-01,-2.033362e-01,-7.657699e-01,2.085699e-01,-4.592965e-03,-3.847279e-01,-1.610721e-01,3.694686e-02,1.192464e+00,-5.459183e-03,5.820282e-01,-3.490935e-01,1.595003e-01,-3.023592e-01,1.857748e-02,1.424818e-01,-3.458845e-02,4.517116e-01,1.293285e+00,-1.707487e-01,-2.192331e-02,-8.331912e-01,2.451729e-01,-4.888065e-03,-6.740986e-02,1.898063e-02,-2.305144e-01,-3.093434e-01,-1.202779e-01,-2.290884e-01,3.559080e-01,5.440388e-03,5.544660e-01,3.101323e-01,2.179826e-02,-3.844950e-01,-1.144127e-01,7.338571e-03,4.838269e-01,2.398106e-01,-2.390741e-01,1.865436e-02,-8.210558e-03,-4.501679e-01,1.694029e-01,-1.357893e-03,
6.976663e-02,-1.199668e-01,-1.083946e-01,-5.360800e-02,5.651312e-01,-7.096983e-03,-6.771504e-01,-6.491295e-01,-4.161251e-03,-3.494690e-01,-1.447254e-01,-2.915793e-01,-4.788327e-01,-2.193498e-02,1.857439e-01,-5.120783e-01,2.570160e-01,-8.787099e-01,1.413625e-02,2.228450e-01,-7.879551e-03,3.105635e-01,6.558821e-01,4.277373e-02,-8.134244e-03,4.203623e-01,-8.717553e-03,-2.685206e-01,1.688348e-01,3.709416e-01,-1.290859e-01,1.371950e-02,-4.279077e-01,6.417074e-01,-1.989970e+00,-8.190781e-03,2.857976e-01,-7.193586e-01,2.948694e-01,-2.908257e-01,6.063196e-01,-8.863122e-03,2.730870e-01,2.688164e-01,-7.326035e-01,1.209809e-02,1.923148e-02,-1.767361e+00,-2.123754e-01,-1.227057e-01,
1.257594e-01,-5.029631e-01,-1.027667e-03,2.180503e-01,1.336017e-02,-1.084922e-01,-8.261081e-01,4.996367e-01,-4.124210e-02,-4.765532e-01,2.609032e-01,-3.521499e-01,1.022241e+00,-3.921128e-02,-1.062545e-01,1.897145e-01,-8.192021e-02,-6.293686e-02,-4.963769e-04,3.953174e-01,8.497719e-03,1.007594e+00,2.014830e-02,2.461958e-01,-2.686416e-03,2.199047e-01,-4.256875e-01,-4.319720e-01,-1.167942e-01,3.994425e-01,1.040907e-01,2.496549e-01,-3.080901e-01,4.227915e-01,-6.707256e-01,-8.835283e-03,6.041332e-01,-6.296932e-03,1.595777e-01,6.105101e-01,-8.908513e-01,-6.958431e-03,-3.892519e-01,-3.138961e-01,-7.469255e-02,-8.849094e-03,9.983843e-03,-1.207303e+00,-7.669233e-01,-8.057517e-01,
2.526310e-03,1.124764e-02,-6.418183e-03,2.008743e-01,-1.076011e-02,2.608405e-02,-5.294212e-01,-1.996300e-01,-1.341220e-03,-3.258589e-01,1.637435e-01,1.975739e-01,-8.539122e-03,-2.227334e-02,-1.481774e-02,-6.604602e-02,1.452028e-01,4.427232e-01,-1.185035e-02,7.190996e-02,-3.132343e-02,-3.397815e-01,-3.574851e-01,-1.649358e-01,1.208312e-01,-2.403323e-01,-5.337941e-02,-2.877055e-01,-1.344641e-02,-3.146134e-01,-3.110089e-01,-3.701770e-02,5.471935e-01,-9.445608e-02,-4.869412e-01,-7.792096e-03,-2.711234e-01,7.491960e-02,2.791287e-01,1.268469e-01,-1.124835e-01,2.758481e-03,-1.750033e-01,5.459355e-02,2.231948e-01,-8.809264e-03,3.267584e-03,2.245557e-01,-2.413258e-01,-1.090515e-01,
-1.789869e-02,-1.335497e-03,-4.545774e-02,-8.028581e-03,-4.394544e-03,-7.462400e-03,-4.034468e-02,-2.541307e-02,-4.955055e-02,2.039490e-03,-3.920603e-02,1.076449e-02,-4.993905e-03,-2.123587e-02,-6.380860e-03,-4.950893e-02,-6.232600e-03,-7.591115e-03,-4.396648e-02,-5.654452e-02,-6.854555e-03,-3.464384e-02,-2.741630e-02,-5.822735e-02,-4.586754e-02,-7.765886e-03,-5.342183e-02,-8.114483e-03,-5.930477e-02,-1.722424e-02,1.454552e-02,-5.419177e-02,-4.379197e-03,-4.573169e-02,2.277794e-02,1.324183e-02,-5.625069e-03,-9.650702e-03,8.231979e-03,-6.821420e-04,1.926739e-02,1.202908e-02,-1.349601e-02,-2.227461e-02,-4.908912e-02,-8.525272e-03,-4.333773e-02,-4.724497e-03,-4.253515e-02,-3.033265e-02,
8.411378e-02,-2.154101e-01,4.445834e-01,6.804740e-01,8.668807e-02,-4.386240e-01,2.578769e-04,-1.768961e-01,-2.185600e-02,4.943573e-02,7.338084e-02,9.584171e-02,-1.296961e-01,-1.053535e-02,-2.653326e-02,5.530187e-01,-4.279067e-01,2.963158e-01,2.168944e-02,-1.166423e-01,2.212800e-02,1.254147e-01,1.719777e-01,-4.261004e-02,-3.467064e-02,-7.329416e-02,4.845448e-01,6.558383e-02,1.222680e-01,-3.307066e-01,-1.843044e-01,-2.267209e-01,-1.234777e-01,2.120637e-01,-1.155314e+00,1.580023e-02,-1.806874e-01,-7.769953e-02,-2.533674e-01,-2.057767e-01,8.061326e-02,2.325294e-02,-1.275582e-01,1.422251e-01,-1.488791e-01,-5.529301e-03,-3.171998e-02,3.554051e-01,2.184767e-01,-3.089457e-02,
7.687687e-02,-6.856569e-03,6.671264e-01,1.459609e-01,-3.381503e-01,-6.986666e-01,-1.501340e+00,1.493017e+00,4.642934e-03,-4.281979e-01,-3.151721e-01,1.296753e+00,-6.440459e-01,-1.663890e-02,3.781431e-01,8.512842e-02,-4.502416e-01,-7.380428e-01,-3.535341e-02,1.138545e-01,6.032064e-03,1.519547e-01,1.543845e-01,-1.211103e-01,-3.871037e-02,-3.983081e-02,8.679090e-01,1.314108e-01,-1.019027e-01,-7.289509e-01,-8.709308e-01,2.250743e-02,2.938039e-01,6.548778e-01,1.698122e-02,-8.232263e-03,-2.064468e-01,4.990209e-01,-2.775488e-01,-7.748568e-01,1.467782e+00,-1.558987e-02,-3.982795e-02,-5.400783e-01,1.198166e-01,-4.851962e-02,-2.717003e-02,-5.331401e-01,7.346254e-01,9.946543e-01,
-1.255411e-02,-5.867375e-01,-4.099826e-01,2.525586e-01,-1.585083e-01,2.470336e-01,-4.271537e-01,6.816313e-01,1.546995e-02,-3.356393e-01,1.273425e-02,-3.823509e-03,4.217084e-01,-4.272648e-02,-1.961190e-01,1.476982e-01,3.848244e-01,-6.438602e-01,-2.752383e-02,1.551762e-01,-3.479350e-02,3.511191e-01,4.244837e-01,-1.092144e-01,-2.268605e-02,3.156378e-01,-4.682229e-01,3.010553e-01,-2.272756e-01,-1.499587e-03,3.224752e-01,6.539180e-01,-4.483522e-01,4.802935e-02,-4.013776e-01,-4.995096e-03,2.390652e-01,6.110476e-01,-4.776450e-01,2.207504e-01,6.351522e-01,-6.758200e-03,4.307039e-01,4.336061e-01,5.233209e-02,1.374069e-02,3.323530e-02,-3.978690e-01,-7.515284e-03,4.900629e-01,
-9.659711e-02,3.041652e-01,1.107579e-01,-9.076940e-01,-2.138289e+00,1.117147e+00,-1.575846e+00,-1.942454e+00,2.570482e-02,8.819396e-01,-9.620922e-01,-1.676228e+00,-9.066731e-01,-7.482406e-03,5.239275e-01,7.283869e-01,1.459838e+00,-4.584256e-01,-8.565066e-03,3.552480e-02,-4.830739e-02,-5.895330e-01,-3.467123e-01,-2.520770e-01,4.822566e-02,-8.871818e-01,-7.721227e-01,-2.090335e-01,-7.797986e-02,2.780232e-01,-8.638100e-01,7.494730e-03,-5.957792e-01,-2.323430e+00,2.687705e-01,-3.886594e-03,7.516794e-04,-9.265855e-01,-6.400621e-01,2.751819e-01,-6.620587e-01,-3.118357e-02,6.716412e-01,4.648315e-01,-3.379720e-01,-2.309016e-03,-7.760831e-03,-5.164763e-01,4.913842e-01,-9.228147e-01,
6.257681e-01,8.789750e-01,3.240805e-01,1.022389e+00,4.033684e-01,6.044018e-01,-6.418769e-01,1.221054e+00,-8.850545e-03,-1.896166e+00,-3.463346e-01,1.447682e+00,2.714839e-01,-2.497866e-02,1.057128e+00,-9.025982e-03,-8.223106e-03,1.281965e+00,-1.942072e-03,1.598464e-01,-8.987708e-03,4.415163e-01,1.229497e+00,-8.041456e-02,7.340216e-02,2.479566e-01,-2.644950e-01,7.534184e-02,-5.359824e-01,-1.524164e-01,9.944552e-01,-2.441467e-01,-4.982569e-01,8.293000e-01,-1.836951e+00,-4.784907e-02,7.525154e-01,-2.566692e-01,1.447618e+00,-7.911744e-01,-2.142232e+00,-5.675458e-03,-8.466494e-02,-1.466627e-01,8.875580e-01,1.161851e-02,-8.581250e-03,5.888615e-01,5.492687e-01,4.230917e-01,
3.421757e-01,4.283281e-02,-1.603484e-01,5.526513e-02,-9.514667e-02,2.529129e-02,-1.440552e-01,4.349357e-02,-4.380704e-02,-2.371587e-02,9.359387e-02,1.515600e-01,8.802611e-02,-1.368670e-02,-2.317819e-02,1.430138e-01,-2.076072e-01,4.531668e-01,-2.839895e-02,1.577255e-01,-2.052810e-02,3.714993e-01,1.834201e-02,4.792831e-01,-8.363276e-03,1.207552e-01,-1.351118e-01,4.798195e-01,6.073127e-01,1.902608e-02,8.810949e-02,-2.467656e-01,3.117107e-01,-2.326932e-01,1.061160e+00,-2.835612e-04,2.780605e-02,3.147904e-02,3.375829e-01,-1.551621e-01,-3.419021e-01,-4.123294e-02,-4.689813e-01,-6.902509e-03,4.040134e-01,-2.918322e-02,-3.358333e-02,-3.345464e-01,-2.494238e-02,2.082401e-03,
6.718981e-02,-2.904969e-02,1.416531e-01,-1.886493e-03,-5.793062e-01,1.546762e+00,1.305812e-01,-9.570478e-02,8.313828e-03,-3.369316e-01,5.441858e-03,-4.182089e-01,5.399455e-01,-3.306575e-03,-6.548894e-01,9.562997e-01,3.441661e-01,-6.443070e-01,-2.518834e-02,5.694062e-01,7.904100e-03,1.150673e+00,1.577300e+00,-6.664340e-02,1.332904e-02,1.094242e+00,-7.453430e-01,3.142874e-01,-1.077542e-01,1.383626e+00,1.567996e-01,2.677607e-01,-1.829399e-03,-4.205627e-01,-9.475057e-01,5.399961e-03,3.182824e-01,1.105831e-01,-5.648586e-03,8.863543e-01,-8.800345e-01,-3.376418e-02,2.464134e-04,6.740492e-01,-1.654222e-02,-7.428796e-03,-4.171931e-02,-4.782466e-01,-5.211353e-01,-4.976598e-01,
7.477883e-01,-5.575986e-01,4.109913e-02,4.493107e-01,1.089785e-01,-4.065985e-01,-4.132394e-02,9.386457e-01,7.344279e-03,-8.164271e-01,2.797015e-01,1.123612e+00,-4.446292e-01,-8.190256e-03,-7.298705e-01,-6.970999e-02,-2.237176e-01,9.671103e-02,-2.475169e-02,1.909519e-02,-8.735390e-03,6.388998e-01,-9.409689e-01,-5.714045e-01,-1.680240e-02,-7.547128e-01,1.896810e-01,1.320774e-02,1.058871e-01,3.776413e-01,-3.778539e-03,1.978720e-01,-7.217543e-01,8.182706e-01,-2.379376e+00,-7.845368e-03,7.023329e-02,2.870135e-01,-3.488340e-01,-5.292863e-03,-1.196871e-01,-2.203684e-02,-5.550264e-01,-3.439179e-01,2.414950e-01,-8.138577e-03,-6.168983e-03,8.978601e-01,-2.885266e-01,3.647161e-01,
-1.034686e+00,-3.656501e-01,-6.208150e-01,2.365652e-02,-7.579353e-01,7.489624e-02,-5.502639e-01,-3.715331e-01,-3.474251e-03,-4.843746e-01,-1.768473e-01,-5.140702e-01,3.883995e-01,-4.906690e-02,4.478041e-01,4.792486e-01,-4.631996e-03,1.339008e-01,9.831371e-03,-1.607987e-01,-4.256515e-02,-8.028546e-01,-9.647109e-01,2.387086e-01,-7.587872e-03,-3.106431e-01,-5.546420e-01,2.426925e-01,2.811046e-01,-4.974493e-01,-2.280311e-01,-2.919602e-01,2.612276e-01,8.059622e-02,3.983219e-02,7.659356e-04,-2.282514e-01,6.206101e-02,1.121347e-01,-5.233898e-01,7.464091e-01,-6.552378e-03,-2.998575e-01,-2.112170e-01,1.945386e-02,-1.191201e-02,-1.733745e-02,-5.729736e-01,6.164495e-01,-6.246135e-04,
-8.990389e-01,6.288897e-01,8.923566e-02,-4.405959e-03,1.482574e-01,-2.599555e-01,3.707854e-01,8.108110e-01,-4.385118e-02,-5.006853e-01,3.010646e-01,4.796766e-01,1.100019e+00,-6.175091e-03,1.427101e-01,-6.935528e-01,-7.275454e-01,-2.674914e-03,-1.378477e-02,3.366492e-01,1.805208e-02,-9.910582e-01,5.045043e-02,-4.694187e-01,-7.501127e-03,2.398953e-01,5.271780e-02,2.548603e-01,-7.120364e-02,-6.737487e-01,1.169153e+00,2.921044e-02,4.913186e-01,4.731484e-01,-3.462696e+00,-1.782124e-02,1.657311e-02,4.054875e-01,-3.730944e-01,-5.078228e-04,4.443865e-01,-3.415824e-02,-1.061136e+00,-3.612818e-01,-6.445960e-01,-8.436310e-03,-4.803902e-02,1.294112e+00,3.921373e-01,5.492544e-01,
4.147761e-01,1.079878e-01,-3.220820e-01,-3.584122e-01,-6.561898e-01,-1.694399e-01,2.126548e-02,-7.295805e-03,9.726007e-03,1.874595e-01,3.766986e-02,-1.568954e-01,-5.170369e-01,-2.600097e-03,2.630668e-03,-3.592718e-01,9.897035e-02,1.950586e-01,-3.834284e-02,-1.050059e-01,-1.573268e-03,1.096030e-01,2.261904e-01,1.870146e-01,7.993460e-02,1.634170e-01,4.694808e-02,5.880961e-02,-4.990663e-01,-2.800398e-01,-4.056580e-01,-1.714421e-01,-8.413804e-02,1.425296e-01,5.276985e-01,-8.950138e-04,1.196174e-01,-9.733021e-02,1.716686e-01,2.021839e-02,9.073392e-04,-4.809162e-02,-3.145620e-03,-3.176447e-01,3.770067e-01,7.670579e-03,-4.863944e-02,-4.895817e-01,-1.157264e-01,-7.437278e-02,
2.788704e-01,-3.246134e-01,2.251170e-01,-6.232325e-03,-3.154815e-01,4.502952e-02,1.214725e-01,2.476828e-01,-1.841908e-02,-2.690082e-01,2.408144e-01,1.005774e-01,3.841080e-01,-5.545066e-03,1.642976e-01,-3.542092e-02,1.702840e-01,-1.270068e-01,-4.441546e-02,5.440854e-02,-2.004051e-04,3.192702e-01,7.264351e-02,3.012314e-02,1.148163e-01,8.887117e-03,-1.068985e-01,2.961463e-01,3.103791e-01,1.683737e-03,2.882121e-01,2.564344e-02,5.876992e-01,3.876353e-02,5.740339e-01,8.058507e-03,1.927209e-01,8.044153e-02,5.005693e-02,-3.996269e-01,8.331944e-02,-8.156573e-03,-2.363727e-01,-3.779706e-03,2.261548e-02,4.152071e-03,-8.381325e-03,-5.325709e-01,-4.874879e-03,1.125477e-01,
-2.428446e-02,-6.276592e-03,-5.595807e-02,-5.185501e-02,-5.985846e-03,-1.032078e-02,-8.796988e-03,-2.164438e-02,1.572287e-02,-3.044855e-02,-9.119075e-03,-2.932617e-02,-6.374447e-03,-7.702369e-03,8.642637e-03,-1.641323e-02,-4.523383e-02,8.059290e-03,-3.829287e-02,-1.915530e-02,-1.470539e-02,5.803280e-03,-6.383310e-04,-6.365797e-02,-4.870537e-02,-1.869129e-03,-3.097774e-02,-4.938489e-02,-2.246682e-02,-2.826421e-02,-5.570930e-03,-1.255495e-02,-3.178948e-03,6.269990e-03,-7.015269e-03,1.161593e-02,-7.501528e-03,-1.155546e-02,-9.026619e-03,-3.936831e-02,-9.555796e-03,-2.143108e-02,-3.626459e-02,9.169335e-03,-3.845133e-02,-6.577752e-03,-2.357008e-02,-3.932869e-02,-1.774619e-02,-7.950469e-03,
