// The contents of this file are licensed under the Creative Commons
// Attribution 4.0 International License: https://creativecommons.org/licenses/by/4.0/
// Neural Network File Format by Kyle Julian, Stanford 2016 (generated on 04/06/2022 01:06:37)
7,5,5,50,
5,50,50,50,50,50,50,5,
0,
0,0,0,0,0,
0,0,0,0,0,
19791.091,0.0,0.0,650.0,600.0,7.5188840201005975,
60261.0,6.28318530718,6.28318530718,1100.0,1200.0,373.94992,
-3.222308e-01,5.237978e-02,-4.794497e-01,-1.337582e-01,-1.055565e+00,
-4.375640e-02,6.308909e-01,-6.778085e-01,-4.764185e-02,-9.281173e-01,
-8.433900e-03,-2.118890e-03,-1.060110e-02,3.028270e-03,2.295410e-03,
-3.862986e-02,-4.645478e-02,-6.896362e-01,-5.659938e-01,3.671381e-01,
3.231891e-01,-2.618245e+00,-1.173845e-01,-8.877655e-02,2.602981e-01,
-2.015872e+00,-1.877227e-02,6.528453e-02,-4.312554e-02,5.973428e-03,
-1.689837e-02,7.840736e-01,-3.341112e-01,-2.349084e-01,2.463927e-01,
-3.044913e-01,8.784255e-02,2.311025e-02,9.105299e-02,5.459286e-01,
6.835630e-02,2.721987e-02,1.105371e-01,-1.464114e+00,-9.498182e-01,
3.582777e-02,-4.457177e-01,6.205131e-01,-1.523194e+00,6.931000e-01,
7.133697e-03,2.951098e-01,2.952605e-02,-4.922519e-01,-2.028713e+00,
-3.304053e-02,6.887419e-02,2.340301e-01,1.395187e+00,-1.127942e+00,
-1.861549e+00,1.173487e-01,-1.519996e-01,-7.090624e-02,-7.202308e-02,
-4.108098e-02,1.321675e+00,-3.092693e-01,-4.803472e-01,7.955352e-02,
-3.951184e-02,-7.286727e-01,7.183619e-01,8.517781e-02,-9.581364e-01,
4.873387e-01,-2.007758e-03,-9.173084e-02,3.375678e-01,-2.549302e-01,
-5.001986e-02,1.148359e-01,-3.387976e-02,1.232519e+00,-1.052961e+00,
4.993205e-01,-2.832543e-02,-3.013112e-01,2.481555e-02,-9.899174e-01,
-6.339840e-01,2.760479e-01,7.626192e-02,7.028490e-02,5.221716e-02,
-3.782903e-02,8.836684e-02,-5.614058e-01,-4.453000e-01,3.170544e-01,
-1.254968e+00,-1.011265e-01,7.404599e-02,2.335322e-02,-3.051258e-01,
8.745882e-02,2.319201e-02,-2.254520e-02,6.421967e-01,1.010716e-01,
1.707865e-01,3.844713e-01,-2.979765e-03,-1.811859e-01,5.717827e-02,
6.963541e-02,-3.951705e-02,-5.820755e-01,-6.016747e-01,4.056087e-01,
-5.149713e-03,-1.107126e+00,1.041692e+00,-2.012502e-02,3.138062e-02,
1.519637e-01,3.435469e-01,-2.063793e-01,-4.112417e-01,4.979718e-01,
-1.030391e-01,1.581113e-01,7.644187e-01,1.147164e-01,-7.394721e-02,
-2.276619e-02,4.149060e-01,-2.499676e-01,-1.301831e+00,6.126862e-01,
-1.038952e-01,-3.052969e-02,-2.004216e+00,-6.523914e-02,1.363825e-01,
4.925646e-02,3.451853e-01,-2.088843e-01,-1.803649e+00,7.436591e-01,
-1.583092e-01,1.288355e+00,-7.955379e-01,-3.028221e-01,3.114896e-01,
3.167120e-03,7.114046e-01,-7.114969e-01,3.369673e-02,-9.550962e-01,
-6.445383e-01,2.739753e-01,-3.316570e-01,1.350690e-01,-6.586815e-02,
-3.354624e-02,1.987188e+00,8.130259e-04,-6.958574e-02,4.326071e-01,
7.435494e-02,-1.787590e-01,3.110316e-01,-3.783447e-01,-9.107371e-01,
-1.085392e+00,-1.176104e-02,-3.704019e-02,1.080379e-01,1.152736e-01,
-3.548775e-02,-1.611075e-01,7.410865e-02,-1.071235e+00,-1.446280e+00,
2.585248e-02,1.603125e-01,-2.581694e-01,-2.967135e-01,1.311126e+00,
-6.037596e-01,-4.313681e-02,-4.683361e-02,-1.553142e-01,-1.537663e-01,
-1.398590e-02,-9.782370e-04,-6.883650e-03,1.980260e-02,-9.499670e-04,
-2.425153e-02,-5.515729e-02,9.877944e-01,-4.286205e-01,5.071320e-01,
4.177645e-01,7.815053e-01,-5.923902e-01,-1.599333e-01,4.577380e-02,
-7.355122e-02,-4.830604e-01,6.172022e-01,6.915314e-02,-1.939856e-01,
-2.280356e-02,-2.347572e-01,-1.196115e+00,-6.202560e-02,1.317631e-01,
-1.614619e-02,-3.818517e-01,3.083644e-01,-4.384997e-01,4.369556e-01,
3.080683e-02,-1.269903e+00,1.240518e+00,-4.927190e-01,-7.553418e-01,
-2.301220e-02,-3.912800e-03,-3.112640e-02,-7.442380e-03,5.061920e-04,
2.446477e-02,-1.307421e+00,-3.803505e-01,5.284083e-01,-8.971331e-01,
5.288698e-02,1.285895e-01,-2.649876e-01,-1.487446e+00,3.510012e-01,
-1.131899e+00,-3.701725e-02,-7.625742e-03,-1.225793e-01,-1.427724e-03,
-3.347850e-01,
-1.888827e-01,
-1.949790e-02,
1.263055e-01,
2.524278e-01,
-3.493902e-01,
1.884883e-01,
2.229991e-01,
-4.585816e-01,
-4.653726e-02,
-4.582145e-01,
2.650863e-02,
-3.694748e-01,
-5.690156e-01,
-9.473673e-02,
2.486784e-01,
2.203094e-01,
-9.288578e-02,
4.771709e-02,
1.764435e-02,
-3.689166e-01,
2.606315e-01,
8.685958e-02,
-1.001932e-01,
6.881498e-01,
6.740126e-03,
9.483336e-02,
-8.436850e-02,
1.315976e-01,
-6.381949e-01,
6.983536e-01,
-7.649479e-03,
-4.647254e-02,
2.332945e-01,
2.713241e-01,
-1.744093e-01,
-4.837402e-01,
2.081684e-01,
1.275482e-01,
-2.249340e-02,
1.727099e-01,
3.713257e-01,
1.697444e-01,
1.580762e-01,
4.500091e-02,
-3.947145e-01,
-3.019940e-02,
1.602389e-02,
-5.469154e-01,
-7.028504e-02,
-7.852070e-01,-2.799610e-01,1.096780e-02,-8.195503e-03,3.121765e-01,-2.357469e-01,5.239105e-01,-2.537299e-01,1.547239e-01,-3.460983e-01,-3.498589e-01,-1.245473e+00,1.919639e-01,2.614163e-01,7.612672e-01,-5.471738e-02,5.354881e-01,6.733218e-02,-3.515761e-01,2.121674e-01,-2.973117e-01,-8.484734e-01,4.201287e-01,-3.987758e-02,2.613818e-01,3.902155e-02,2.799786e-01,6.579402e-01,-2.861390e-01,-2.137361e+00,2.767918e-01,-9.976756e-02,5.490866e-01,-7.130902e-02,-2.616762e-01,-4.601687e-01,4.123949e-01,-1.453235e-01,-5.930676e-01,4.062310e-02,2.364007e-01,-1.377134e-01,-3.082509e-01,-4.112174e-02,-1.474738e-01,2.530738e-01,2.786430e-03,-8.101824e-03,1.311969e+00,-3.504583e-01,
-2.776203e-01,4.021908e-01,2.159460e-03,-1.971064e-01,-1.013953e-01,5.194421e-01,2.001899e-01,-7.969149e-01,1.009931e+00,7.943927e-01,8.292321e-01,-5.558137e-01,-4.705837e-01,-1.147879e-01,-8.936684e-01,-6.151633e-01,-6.153616e-01,-2.965785e-01,2.967246e-01,-1.543698e-01,2.877172e-01,1.481475e+00,2.482589e-01,-1.490541e-02,3.511603e-01,8.247324e-01,-2.041470e-02,2.568289e-01,-7.358654e-02,7.861118e-01,-2.471340e-01,-1.629396e-01,2.376457e-01,-3.321749e-02,4.419252e-01,-6.460046e-01,7.506626e-01,-3.622119e-01,5.427715e-02,-4.177690e-02,9.667574e-02,-7.487343e-02,-6.841229e-01,1.060835e-01,7.561262e-02,7.160621e-01,3.551340e-02,-2.010133e-02,-1.965348e-01,-1.122341e-02,
-3.283719e-01,7.515408e-01,-1.225660e-02,-2.092008e-02,-3.433003e-01,-1.573999e-01,-4.752917e-01,-5.714830e-01,1.920115e-01,1.389847e-01,1.060356e-01,-3.657460e-01,2.284860e-01,4.659159e-01,3.856652e-01,1.118853e-01,1.315516e+00,-1.009983e-01,7.200148e-02,9.126701e-03,7.171366e-02,-5.442875e-01,-2.824003e-01,7.208372e-01,2.902867e-01,3.935897e-01,1.297019e-01,-2.011083e+00,-4.991202e-01,-4.634671e+00,6.909481e-01,-5.247519e-03,-1.519562e-01,-8.041047e-01,-2.094502e-01,-1.974947e-01,-4.710914e-01,2.303113e-01,4.018060e-01,4.531270e-02,2.417451e-01,1.422977e-01,-3.971172e-02,1.538876e-04,1.124311e+00,-9.809186e-02,4.913970e-03,-7.496127e-03,3.205511e+00,3.220031e-02,
-2.646392e-01,-5.079735e-01,-7.803490e-03,-3.345570e-01,1.063205e-01,1.930248e-02,3.198434e-02,9.862362e-01,1.108191e+00,4.619251e-01,-2.748980e-01,1.238763e-01,-6.192739e-02,-4.929999e-01,3.528867e-01,-7.422513e-02,6.825677e-01,-4.953165e-02,-4.260044e-01,-3.329974e-01,-4.922016e-01,1.139055e+00,-3.611842e-01,-2.196815e-01,-6.437936e-01,4.643885e-01,7.261627e-03,-2.649956e-01,2.923724e-01,1.654788e+00,-1.567739e-04,2.088088e-01,-2.868366e-04,1.494466e-01,-9.086975e-01,-2.018137e-01,2.337564e-01,2.487974e-02,-4.537340e-03,-6.063460e-03,-7.125591e-03,4.619495e-01,1.150837e+00,-1.264655e-02,8.917129e-01,-2.025198e-01,-2.551770e-02,-1.837156e-01,-1.466678e+00,2.737507e-01,
1.718149e-01,-7.947968e-03,3.203320e-02,7.112287e-02,-4.024116e-01,8.944803e-01,-2.668408e-01,-6.832215e-01,-1.522048e-01,2.606814e-01,3.126443e-01,2.331682e-01,6.534116e-01,-3.787589e-01,-7.826955e-03,5.264938e-01,-5.977890e-01,-7.551929e-01,3.536413e-01,2.440421e-01,4.824017e-01,8.710482e-02,1.080730e-01,1.004732e-02,6.058009e-02,8.181153e-01,3.184604e-01,1.732007e-01,-2.935259e-02,3.850744e-01,-1.694922e-01,2.397997e-01,2.001030e-02,4.387556e-01,6.926525e-02,-9.208277e-01,4.829191e-02,-2.222065e-01,9.169614e-02,-5.016040e-02,-4.290506e-01,-3.867300e-01,-6.728181e-01,1.058260e-03,-1.673519e-01,-1.129273e-03,-3.408010e-02,-4.138273e-01,2.091339e-01,6.794929e-01,
6.462698e-01,-7.117628e-04,-5.169000e-02,-2.684254e-01,-1.008604e-01,-2.184712e-01,-2.696523e-01,-2.530267e+00,6.159385e-01,-1.173189e-01,5.558472e-01,-1.103713e+00,-1.581482e-02,-2.097484e-02,-7.877655e-02,3.470653e-01,2.854657e-01,-3.995124e-01,-1.230599e+00,5.404401e-01,-1.636182e-01,-4.165445e+00,8.011352e-02,5.232678e-01,-3.048927e-01,1.088711e+00,2.492596e-02,-4.498705e-01,-4.193035e-01,-3.859955e-01,-9.656451e-01,-3.119770e-01,-8.809993e-02,-1.989907e-01,3.965443e-01,8.936346e-01,6.225699e-01,-2.842513e+00,9.451914e-01,3.467450e-02,2.347968e-01,-1.223765e+00,-5.540081e-01,1.799485e-01,-1.281912e-01,5.141771e-01,-2.869270e-02,-1.455950e-01,1.278172e+00,-1.033849e+00,
1.259261e-02,-2.829886e-02,3.771810e-02,1.584540e-02,-1.551838e-02,-1.775390e-02,1.098968e-02,2.896120e-03,-3.272670e-02,-4.736530e-02,-3.853830e-02,2.106098e-02,-3.061110e-02,-3.848369e-02,2.449631e-02,1.084093e-03,-6.106812e-02,3.016548e-03,4.580280e-02,-4.766860e-02,1.280700e-02,-1.274314e-02,2.526011e-02,-7.921710e-04,-6.782663e-03,-8.285870e-03,-1.890695e-02,3.826980e-02,-1.745083e-03,1.922790e-02,1.842498e-03,-2.196835e-02,-6.208879e-03,-4.165095e-02,-3.651384e-02,-2.174530e-02,-1.416670e-02,3.885310e-02,4.494380e-02,3.979270e-02,-3.738922e-02,-3.781105e-03,1.588506e-02,-4.185470e-03,-1.431888e-02,-1.399871e-02,-3.407420e-02,-3.148064e-02,-3.941700e-02,-2.386880e-02,
-1.879075e-01,2.697519e-01,-2.829320e-02,-2.522699e-01,-1.711915e-01,1.533257e+00,-1.728325e-01,-2.707072e+00,8.950710e-02,-4.736369e-02,9.239446e-02,-4.709750e-01,1.191959e+00,-2.651826e-01,3.511054e-01,-2.048703e-02,-3.953829e-01,-9.180219e-02,2.666724e-02,-2.189750e-01,1.468421e+00,-2.376840e+00,-3.591878e-01,-1.872643e-01,-2.601326e-02,6.910380e-01,-2.193604e-01,-4.598660e-02,2.511543e-01,6.993196e-01,-2.919766e-01,9.463248e-02,-3.647177e-01,1.127867e+00,-1.001731e-01,3.010050e-02,1.423537e-01,-1.514496e+00,-5.783478e-02,2.403310e-03,-4.331042e-01,-4.132932e-01,3.476622e-01,4.307081e-01,-3.997757e-02,1.219295e-01,2.191520e-02,-1.683129e-01,9.356228e-01,3.260617e-01,
-3.999269e-02,2.963649e-02,4.437610e-02,-9.395878e-03,6.777947e-03,1.417130e-02,1.127703e-02,3.990210e-02,-1.197170e-02,-3.836030e-02,-1.473763e-03,4.535167e-03,2.474030e-03,1.165690e-02,-4.090534e-02,-3.348849e-02,-6.152850e-02,7.340828e-03,-4.335420e-02,2.726200e-02,-3.783830e-02,-3.850165e-02,-1.878612e-02,-3.404490e-02,-4.807146e-03,1.161790e-02,4.722255e-03,1.088520e-02,-3.974888e-03,-1.221230e-02,-1.606985e-02,-1.538826e-04,-4.917921e-03,8.691009e-04,-2.804161e-02,-3.700320e-02,-1.831850e-02,2.363290e-03,2.698330e-02,2.496450e-02,3.014748e-03,-3.405619e-02,-1.522687e-02,-4.487545e-03,-3.961278e-02,4.668200e-03,-3.828650e-02,1.176809e-02,-3.382070e-02,-5.063790e-03,
1.964149e-01,3.841100e-01,-3.673650e-02,-6.230184e-01,7.293127e-01,-2.536928e-01,-1.262660e+00,-3.575696e+00,9.539930e-01,8.898000e-02,1.551657e+00,-1.007905e+00,-4.906568e-02,-6.755049e-03,-3.014472e-01,1.846331e-01,3.311878e-02,1.257373e+00,1.389591e-01,-4.898024e-01,2.604302e-01,1.039172e-01,9.882323e-02,-1.587717e+00,-6.085190e-01,2.172853e+00,-4.988930e-01,-5.910164e-01,2.158542e-01,3.180631e+00,-1.613769e+00,-6.450967e-02,6.009769e-01,-5.418713e+00,4.686813e-01,-1.795143e+00,9.581085e-01,2.395027e-01,-2.198547e+00,-6.734880e-03,-1.834259e-01,-8.036630e-01,-1.095050e+00,-3.688417e-01,-5.168591e-01,3.972919e-01,-2.117490e-02,1.004962e-01,-6.942406e-01,-4.879941e-01,
4.852514e-03,-1.153414e-02,1.716390e-02,-1.166958e-02,-4.261037e-03,-2.159220e-02,3.485702e-03,-3.405730e-02,2.977710e-02,-1.383020e-02,1.802785e-02,-1.021457e-02,-3.218100e-02,-1.164749e-02,-1.379787e-02,2.685306e-02,-2.907060e-02,-2.316572e-02,-1.989260e-02,-4.839590e-02,7.127820e-03,-2.769472e-02,-5.233340e-03,1.572300e-02,-2.969200e-04,-3.880330e-02,-1.678710e-02,-3.044790e-02,2.302305e-03,1.903370e-02,-8.316686e-03,-6.686695e-03,2.561303e-02,-7.923624e-03,-4.766181e-02,-1.197700e-02,-1.664960e-02,1.975350e-02,-4.090480e-03,2.017560e-02,-3.407997e-02,-2.934784e-02,-2.886748e-02,-7.636660e-03,-3.847517e-02,-1.608323e-02,-4.766620e-02,-9.710633e-03,-3.159210e-03,-2.000980e-03,
-2.446212e-01,-1.818108e-01,1.217250e-02,4.098567e-01,-6.367043e-01,2.559766e-01,7.508737e-01,1.262993e-01,9.183790e-01,-1.937893e+00,-6.671662e-02,-2.840210e-01,5.700306e-01,5.242966e-01,1.588345e+00,-1.804650e-01,1.052812e+00,9.138651e-02,-3.383182e-02,7.351751e-01,2.763672e-01,4.360893e-01,2.824585e-01,5.240569e-01,-2.514788e+00,6.442142e-01,-1.255116e+00,9.008067e-01,8.961121e-01,8.286734e-01,8.727407e-01,3.466848e-01,-1.378868e-01,6.388231e-01,9.059926e-01,5.630417e-01,-5.374077e-01,5.453863e-01,2.390157e-01,3.980940e-02,-1.237273e+00,3.572766e-01,7.384713e-01,4.428371e-01,-1.076431e+00,2.488991e+00,-3.239230e-03,-2.743640e-01,-8.295482e-01,-3.478623e-02,
2.476612e-01,5.541672e-01,2.103840e-02,4.444260e-01,-3.177086e-01,9.671746e-01,-2.187622e-01,5.490975e-01,-9.526042e-03,2.164113e-01,3.412798e-01,-1.414067e+00,3.729267e-01,5.895653e-01,5.982178e-01,7.798071e-01,-1.249913e+00,-4.141638e-01,4.065749e-01,5.750529e-02,6.287550e-01,2.190797e-01,4.989194e-01,6.049831e-01,7.076545e-04,-7.518780e-01,3.333264e-01,6.314332e-02,-4.316610e-02,-1.089796e+00,-1.909500e-01,-1.127764e-01,1.012175e+00,-2.276990e-01,5.567244e-01,-2.301860e+00,3.095442e-01,7.610334e-01,1.566940e-01,1.416470e-02,-3.907123e-01,-1.384151e-01,1.187591e-01,-4.726819e-01,-4.216810e-01,3.006772e-01,5.090160e-03,8.961162e-01,7.342908e-01,8.083648e-02,
3.633180e-02,-2.311867e-01,-7.693320e-03,-8.169761e-02,-9.892350e-02,4.055827e+00,-7.149706e-03,7.494065e-01,-8.515801e-02,8.332188e-02,-1.422334e-01,-2.035590e-01,3.322541e+00,2.731867e-01,3.329448e-03,-6.336492e-02,1.912744e-01,-3.159100e-02,5.672340e-01,1.024003e-01,5.857167e-01,3.255658e-01,8.007932e-01,6.540149e-02,1.171427e-01,-4.931569e-02,-3.449847e-01,-6.513941e-02,3.659554e-01,-5.977201e-02,-2.063713e-02,-8.197486e-02,9.856040e-01,3.733637e-02,2.130101e-02,1.867343e+00,1.857524e-01,-2.581240e-01,2.329330e-01,2.250000e-02,-1.991870e-01,-2.525912e-01,1.969839e-01,-3.054634e-04,8.235745e-02,-4.731305e-03,1.588200e-02,1.324572e-01,3.348341e-01,1.837856e+00,
8.898283e-02,3.901084e-01,8.965140e-03,-3.592541e-03,-2.277140e-01,-9.045278e-01,-4.392752e-01,4.133443e-01,-2.173931e-01,8.590221e-02,-3.522430e-02,4.232857e-01,1.008126e-01,1.368956e-01,6.231002e-01,-1.146924e+00,-1.583929e-01,-1.008392e+00,7.912954e-01,-5.851035e-01,8.240498e-01,-3.348377e-01,-7.176354e-01,-1.181908e-01,-1.156642e-01,-1.309456e+00,3.662101e-01,-6.185859e-01,1.918780e-03,3.744090e-01,3.646558e-01,6.341227e-01,5.113974e-01,-4.095551e-01,-1.893318e-02,-3.080884e-01,2.332884e-01,5.550667e-02,7.047640e-01,2.627580e-02,-2.552581e-01,-3.214099e-01,1.695711e-02,3.148289e-01,1.320622e-01,-1.786325e-01,-2.629870e-02,-1.031357e-01,-1.424857e-01,1.058198e-01,
9.547105e-02,2.228167e-01,-3.965320e-02,7.154755e-02,-4.721950e-01,1.528783e+00,2.305851e-01,-4.074184e+00,4.844673e-01,3.429759e-01,2.586670e-01,-1.504963e+00,9.297605e-01,7.524863e-01,1.078586e-01,-1.047708e+00,-1.728176e+00,2.934083e-01,-3.193344e-01,5.809143e-01,1.449737e+00,-1.077670e+00,-7.762458e-01,4.444320e-01,-6.692360e-02,-8.987747e-01,-2.889979e-01,-1.012167e-01,-3.100335e-01,-1.288630e+00,-4.904633e-01,1.646229e-01,2.794199e-01,-2.829513e-01,1.908761e-02,2.590898e-02,4.399733e-01,-2.316790e+00,-3.729794e-02,-4.643760e-02,-1.021521e-01,2.653458e-02,2.654215e-01,1.744297e-03,-7.773462e-02,-4.411505e-01,-2.019650e-02,3.244477e-01,8.890082e-01,4.410433e-01,
1.611737e-01,6.873486e-01,-1.226850e-02,9.062304e-02,-8.258061e-03,1.091601e+00,-2.061111e-01,3.187409e-01,-3.928343e-01,8.705236e-02,-1.826434e-02,3.167432e-01,1.493807e+00,2.083324e-02,1.268912e-01,-8.916231e-01,3.048529e-01,-8.167698e-01,-8.726548e-02,-7.119803e-01,9.833152e-01,-5.529418e-02,-2.873985e-01,-3.559827e-01,-1.961912e-01,-3.951345e+00,-2.828288e-01,-2.764457e-01,-5.156212e-03,-2.887331e+00,9.200005e-03,-6.068280e-01,3.406990e-01,-2.952803e+00,3.880182e-01,1.158366e+00,-1.539544e-01,-9.000215e-02,3.657233e-01,-1.666370e-02,4.266625e-02,2.062203e-02,-1.282981e-01,-4.395832e-01,8.587785e-03,6.695955e-01,2.136650e-02,-5.529004e-02,1.368092e+00,6.265056e-01,
-4.882121e-03,-4.667267e-02,-2.139550e-02,-2.291129e-02,-7.660627e-04,-5.935830e-02,-1.275152e-03,-5.705530e-02,3.035220e-02,2.281280e-02,-1.030295e-02,1.020597e-02,-2.575690e-02,3.077271e-02,-3.367236e-03,2.119937e-02,-5.575648e-02,2.456171e-02,-3.957190e-04,2.091130e-02,-6.272840e-02,-4.668128e-02,-3.789672e-03,-6.733890e-03,-2.745931e-02,4.637920e-03,-1.038349e-02,-6.610020e-02,-2.704368e-03,2.062660e-02,-8.768586e-04,-3.942703e-03,6.277997e-03,6.522926e-03,-2.789901e-02,-1.096370e-02,4.645440e-03,-5.861270e-02,-7.725940e-02,-3.176900e-02,-3.426641e-02,-1.450936e-02,-8.539356e-03,-3.772257e-03,-8.033401e-03,1.720504e-02,3.483860e-02,4.268677e-03,-5.569440e-02,-4.052630e-02,
1.087304e+00,3.115786e+00,-4.020750e-02,-1.223151e+00,3.158248e-01,-4.243875e-01,-8.802048e-01,-2.069778e-01,-1.258347e+00,4.302352e-01,-5.767061e-01,-8.128332e-01,7.700990e-01,-9.975450e-02,3.602704e-01,1.854177e-01,6.804737e-01,-1.170500e-01,-3.605162e-01,-8.123513e-01,1.067822e-01,-8.676454e-01,-6.539391e-01,-2.616422e-01,1.012637e+00,-8.563374e-01,7.682887e-02,2.318267e-01,-7.421851e-01,1.851251e+00,-2.687760e+00,1.114209e+00,3.918063e-01,-5.669845e-01,-1.123880e+00,-3.062835e-01,1.033787e+00,3.323500e-02,-1.309799e-01,2.506210e-02,7.866857e-01,-8.710273e-01,5.243389e-01,-6.818913e-01,1.571193e-01,2.168062e-01,1.721090e-03,2.893464e-01,-1.049991e+00,-3.396894e-01,
8.004572e-01,-9.276088e-01,-5.313100e-02,-8.643165e-01,-1.662000e-01,-6.370161e-01,3.234628e-01,6.387379e-01,-2.982405e-01,5.476874e-01,-7.986908e-01,-6.537548e-01,-8.811948e-01,1.122479e+00,8.176194e-01,9.160292e-02,7.162593e-02,2.779212e-01,7.608655e-01,-1.986567e+00,-6.866599e-01,-1.930778e-01,-9.453184e-02,-7.473230e-02,7.996122e-02,-4.428543e-01,1.058213e+00,4.502235e-01,-1.369403e-01,1.110638e+00,5.856344e-01,4.658981e-01,3.963715e-01,3.009342e-01,-8.406049e-01,-2.205654e+00,9.209410e-01,-8.799040e-01,-7.675834e-01,-1.565800e-02,1.445553e-01,6.536002e-01,2.445958e-01,-2.333579e-02,-7.408824e-02,-2.303583e-01,-1.406240e-02,2.962700e-01,1.000036e+00,4.328685e-01,
-3.152395e-01,-1.708068e+00,-2.734220e-02,8.298393e-01,-4.040545e-01,-2.347341e-01,3.746379e-01,1.728510e-01,7.229530e-01,-9.656115e-02,1.458152e-01,3.728151e-01,2.205863e-01,3.451264e-02,-2.359862e-01,-5.301001e-02,3.905521e-01,3.713385e-03,5.456980e-02,8.707730e-01,2.464413e-02,-1.476244e-01,3.236886e-01,9.695821e-01,-3.726419e-01,-3.023102e-01,-2.208798e-01,1.607357e-01,1.580369e-01,-1.405400e+00,8.874794e-01,-1.378870e+00,-9.621964e-01,3.597311e-01,1.524076e-01,-1.637281e-01,-7.478328e-02,1.284671e-01,2.794579e-01,-3.767060e-02,-1.097488e-01,3.436414e-01,-6.344922e-01,2.993388e-01,2.384547e-01,-3.984263e-01,-5.097840e-02,-1.128004e-01,1.158019e+00,7.418031e-02,
-4.527515e-01,-5.004009e-01,6.661210e-03,3.374715e-01,3.382570e-02,-1.872716e-01,-4.694177e-02,-1.444002e+00,-2.018154e-01,2.844455e-01,-5.442375e-02,1.403848e+00,4.409525e-01,-2.084321e-02,-1.812024e-01,-3.488483e-01,9.170751e-01,-4.267822e-01,6.695495e-01,7.126895e-01,-1.156168e+00,-6.731853e-02,8.065236e-02,2.913531e-02,3.976694e-01,1.692646e-01,-1.210139e+00,7.917707e-01,1.186710e+00,-1.280624e-01,-3.823690e-01,-5.272369e-01,1.140465e+00,-8.481940e-03,-4.866377e-01,5.892303e-01,4.702105e-01,-3.220377e-01,-1.736699e-01,-1.651250e-03,-4.942464e-01,-4.589151e-01,-9.765483e-01,-4.226321e-01,3.578070e-01,-2.275839e-03,3.091980e-02,-7.406603e-01,-2.055205e-01,-3.967937e-01,
3.253331e-01,1.475325e-01,1.599530e-02,3.647766e-01,-7.720349e-02,-2.886844e-01,-3.286594e-01,-1.057424e+00,-4.917414e-01,7.689039e-01,-9.055256e-01,-4.193193e-01,1.244674e-01,4.060997e-01,4.777338e-01,-5.547549e-01,-1.101161e-01,-2.278477e-01,4.656250e-02,5.506204e-01,-2.936032e-01,-1.940167e+00,5.114651e-01,9.426473e-01,-1.698210e-01,3.110501e-01,-5.952778e-03,9.781182e-01,-4.144917e-01,8.279312e-01,-3.768432e-01,8.307309e-01,-3.903862e-01,-2.249434e-01,1.914220e+00,-1.040856e-01,-2.244565e-01,-9.798125e-01,5.070076e-01,1.089320e-02,-4.030005e-01,-9.394181e-02,-1.715218e+00,-1.803187e-01,2.108967e-02,1.356817e-04,7.447890e-02,1.779788e-01,-4.171571e-01,2.540552e-01,
-4.704123e-01,2.393854e-02,2.966170e-02,1.220883e-01,-2.300456e-01,-2.931259e-01,2.083100e-01,4.147307e-01,6.046276e-01,8.349314e-01,8.775895e-01,1.432679e+00,-6.526961e-01,-4.888694e-01,1.643150e+00,1.610059e+00,-2.392013e+00,1.341708e+00,9.623452e-02,-1.584990e-02,-1.875675e+00,1.020326e+00,-1.364387e+00,-6.763841e-01,-3.705971e-01,-7.341237e-01,1.120163e-01,8.769397e-02,-1.409610e-01,3.672574e-01,1.873538e-01,-5.341046e-01,1.357355e+00,3.452369e-01,3.854885e-02,2.400069e+00,-1.171834e+00,4.574051e-01,3.624938e-02,-1.350170e-03,-3.626534e-01,-8.472454e-01,-7.986626e-01,1.617428e-01,-1.357275e-01,-6.549336e-01,2.824590e-02,1.441242e-01,1.641424e+00,-4.407761e-01,
4.182420e-02,3.743250e-02,-3.048830e-02,-2.588590e-02,-4.774490e-02,-9.814680e-03,7.599940e-03,-1.629160e-02,3.424730e-02,2.121050e-02,-3.170710e-02,-8.375340e-03,-3.784840e-02,1.038580e-03,-6.325010e-03,-2.482870e-02,-3.764010e-02,-3.577500e-02,-1.069720e-02,-7.040070e-03,7.703950e-03,-1.324980e-03,-4.752260e-02,2.264420e-02,-6.076150e-04,-4.991740e-03,-3.998370e-02,-1.823200e-02,1.603160e-02,-2.924110e-02,6.711500e-03,-2.669210e-02,-2.048330e-02,-3.141070e-02,1.288620e-02,-3.072890e-02,-2.270240e-02,3.952460e-03,3.623380e-02,-1.138120e-02,1.588270e-02,-1.379340e-02,9.327180e-03,-3.505200e-02,-3.488920e-02,3.382080e-03,1.411780e-02,-5.085720e-03,-2.221390e-02,1.028140e-02,
2.863776e-01,3.506036e-01,1.114940e-02,-7.024662e-03,-1.736514e-02,3.444380e-01,6.545763e-02,-8.607211e-01,-1.556187e-01,-1.878563e-03,3.328805e-01,-1.276972e-01,1.949865e-01,-7.526854e-01,4.849403e-04,1.057112e+00,-5.624222e-01,1.838971e-02,-9.247225e-01,-2.046167e-01,-8.124599e-01,-8.649316e-02,1.174050e+00,9.354992e-01,1.469947e-01,1.990310e-01,3.579123e-01,-9.078868e-02,-1.708112e-01,-4.335658e-01,-5.061820e-03,-1.215761e-01,-3.234124e-01,2.922988e-01,1.903580e-01,5.773582e-01,-2.027729e-01,2.668964e-03,-9.952955e-01,3.357410e-02,-8.331296e-02,6.520064e-01,2.801528e-01,1.877472e-01,1.693128e-01,-4.078387e-01,-3.741390e-02,2.992028e-02,1.053946e+00,-9.146644e-01,
-2.379467e-02,5.708761e-01,-7.382360e-03,-2.182025e-01,-2.771077e-01,-1.285636e+00,1.653764e-01,-4.957918e-01,-1.051501e+00,6.969827e-02,9.158530e-01,-4.804233e+00,2.423756e-01,-4.824730e-01,-2.577266e+00,9.603782e-01,-1.912210e+00,-1.944281e-01,1.149262e-01,1.829972e-02,-1.796762e+00,9.539466e-01,-2.768245e-01,1.305231e+00,4.747307e-01,-8.331954e-02,1.864138e-01,8.861120e-03,-1.281323e+00,1.254212e+00,5.380791e-02,1.870463e-01,3.425727e-01,1.716356e-01,-2.000570e-01,-4.605222e-01,2.996337e-01,-8.678885e-03,5.856438e-02,-3.144910e-02,4.467033e-01,-1.121514e-01,-1.404008e+00,-1.132108e-01,-8.999239e-01,1.090333e-01,-1.950300e-02,1.446142e+00,-3.069576e+00,4.856748e-01,
-4.504449e-01,-3.974786e-01,-9.193070e-03,1.481002e+00,-4.101679e-01,-4.085593e-01,3.056860e-02,3.074010e-02,7.674969e-01,-4.528940e-01,7.952988e-01,-3.891027e-03,-1.056538e+00,-3.150035e-01,-1.015005e+00,1.950005e-01,3.241991e-01,3.561349e-01,-7.873179e-02,-5.140250e-01,1.669005e-01,-6.447166e-01,2.048398e-01,-2.250978e-01,-1.436964e-02,-3.027514e-03,-7.303570e-03,-7.895215e-01,-1.445315e-01,-3.925210e+00,-5.428744e-02,2.040828e-01,1.981380e-01,-7.432748e-04,3.660950e-01,2.054862e-01,-1.539286e+00,5.920952e-01,-2.163761e-01,4.102310e-03,-4.276359e-02,-1.562180e-01,5.468299e-01,3.517571e-02,6.269307e-01,5.844039e-01,-1.674190e-02,-7.454851e-02,3.045964e+00,5.151164e-02,
1.457044e-01,2.419371e-01,-1.053740e-02,1.201006e-01,5.385666e-02,1.817559e+00,7.935578e-02,-1.157456e+00,-5.923495e-02,-1.332396e-01,1.267244e-01,2.929548e-01,1.393560e+00,-2.067150e-02,1.509312e-01,-7.539389e-01,1.769404e-02,-2.794288e-01,1.550229e-01,4.455434e-01,1.375505e+00,4.732466e-02,-1.096908e-01,2.101602e-01,-1.720203e-01,-3.262739e-01,1.118885e-01,-2.311445e-01,-7.045066e-02,6.196372e-01,-1.185631e-01,2.053819e-01,3.033756e-01,6.802974e-02,-1.538415e-01,1.816613e+00,-2.591103e-02,-2.216220e+00,-3.862552e-02,-3.968970e-02,5.958496e-02,-2.143169e-01,7.834669e-02,-3.420122e-02,-4.607223e-01,5.206756e-01,-1.893710e-02,-1.181316e-01,3.564583e-01,5.325962e-01,
-3.960742e-01,5.068350e-01,2.737510e-02,-3.125084e-01,3.914073e-01,7.945276e-02,-2.877684e-01,-4.187033e-01,-1.303879e-01,-8.863530e-01,1.872658e-01,2.401323e-01,6.739940e-03,-4.350865e-01,-1.945711e-01,9.903699e-01,1.176352e+00,2.042432e-01,1.349965e-01,-2.221250e-01,2.306126e-01,-3.914710e-01,2.353274e-01,5.311909e-01,-1.878017e-01,-1.520386e-01,1.113915e+00,-3.809975e-01,-5.834178e-04,5.604949e-01,4.551068e-01,8.181551e-01,-1.532149e-01,8.554973e-01,5.810732e-01,-2.795527e-01,3.823832e-01,1.079592e-01,-2.039808e-01,-5.942050e-03,-9.049033e-01,3.819853e-01,1.030185e+00,1.856805e-01,7.136775e-01,5.699306e-01,-5.498220e-03,-3.247161e-01,-5.370600e-01,2.363563e-01,
-7.912352e-04,3.197712e-02,-1.516160e-02,-1.153543e-01,-1.047172e-01,7.346375e-02,-2.460701e-01,-2.345541e+00,9.559707e-01,5.369951e-01,9.391850e-01,-1.465025e-01,-1.004675e-01,-7.643135e-01,2.498005e-01,-3.115379e-02,1.088375e+00,5.000712e-01,-1.159327e-01,-1.172827e-01,9.063556e-01,-8.147314e-01,-5.319810e-02,7.802948e-01,-7.182676e-01,3.917271e-01,-1.447555e-01,-1.297205e-01,-1.284305e-01,6.202478e-01,-2.327278e-02,-1.602549e-01,-5.443124e-01,-5.961159e-02,2.685710e-01,-5.490439e-01,1.411951e+00,-1.414032e+00,-3.229847e-01,-2.614670e-02,3.686201e-01,-1.525882e-01,-6.990669e-01,-3.309333e-01,-1.601594e-01,4.162914e-01,1.066010e-02,-4.267897e-01,1.425933e+00,6.044141e-01,
-1.141852e-01,-1.252657e-01,8.575040e-03,2.722866e-01,6.284533e-01,-4.962050e-02,-2.760397e-03,1.364608e-01,-1.638323e-01,4.742736e-02,-5.256878e-01,-3.684390e-01,1.421839e-01,-2.163699e+00,-4.252631e-03,-5.642534e-01,-2.141495e-03,5.892020e-01,-1.409531e-01,3.779916e-01,4.425368e-03,2.197224e-02,1.482620e-01,-4.466670e-01,1.192355e-01,6.542827e-01,-4.919589e-01,5.805068e-02,-2.323708e-01,1.953329e-01,-8.135745e-01,2.870544e-01,2.448917e-01,-2.138172e-04,-3.395863e-01,-5.956630e-01,1.170618e-01,5.554802e-01,1.308314e-01,-1.868330e-04,1.822042e-01,3.015312e-01,7.630162e-01,5.417774e-01,8.631201e-01,5.462835e-02,-2.089510e-02,2.602612e-01,4.479430e-01,-3.599519e-01,
-4.214830e-02,-9.042530e-03,-2.230490e-02,7.897770e-03,-1.200710e-02,1.924160e-02,-3.850330e-02,-2.825870e-02,3.938650e-02,-2.552660e-02,2.645280e-02,-4.391990e-02,-3.055930e-02,-1.677310e-03,-3.823030e-02,1.337160e-02,-2.546470e-02,7.619310e-03,2.067210e-02,-3.864460e-02,6.675740e-03,-5.119370e-02,-5.660470e-02,2.216180e-03,2.166230e-02,6.532130e-03,-1.147090e-02,-2.041390e-02,1.451620e-02,-2.799140e-03,1.742300e-02,1.086370e-02,-3.571700e-02,2.145850e-02,-4.895010e-02,1.138670e-02,-4.863200e-02,2.770110e-02,-1.891970e-02,-3.224840e-02,6.778490e-03,-1.307200e-02,-5.399260e-03,-1.964380e-02,-3.971440e-02,-4.380930e-02,3.340480e-02,1.750720e-04,-2.041310e-02,9.360300e-03,
-1.190995e-01,8.104175e-02,3.338350e-02,4.073316e-01,-4.801310e-01,4.512553e-01,-1.197114e-03,-1.873515e-01,5.203589e-01,9.057134e-02,1.325473e-01,2.292494e-01,4.099165e-01,-1.042521e+00,-6.292809e-01,-1.281258e-01,5.068235e-01,-4.007728e-01,-1.703895e-01,3.961231e-01,-6.151357e-01,-7.969034e-01,-2.352143e-01,3.434237e-01,9.610151e-02,-2.082134e-01,-2.253662e-01,-1.117365e+00,-2.571964e-01,-1.216352e-01,4.623903e-01,-1.694703e-01,5.807698e-02,-4.367387e-01,-2.171063e-01,-2.179881e-01,-4.145798e-02,-3.200710e-02,9.471447e-01,4.353560e-02,4.221300e-01,3.991271e-01,-4.690775e-01,-4.780430e-01,3.141151e-01,1.237055e-01,-3.581700e-02,-7.661540e-02,-6.310526e-02,5.882029e-01,
3.589510e-01,3.535002e-01,1.538320e-02,-4.637084e-01,-1.228282e+00,6.480492e-01,1.063848e-01,-1.559156e+00,1.049985e+00,2.100300e-01,8.047831e-02,1.308756e-01,1.030080e+00,-1.378086e+00,5.892284e-01,-4.818709e-01,6.968886e-01,2.456167e-01,-5.935486e-02,-7.476515e-01,1.291535e+00,-1.268430e+00,-3.030388e-01,2.019313e-01,-3.989045e-01,-6.341210e-01,3.193450e-01,-1.365855e-01,9.035800e-02,-9.088913e-01,-5.815350e-03,2.076649e-01,3.241966e-01,6.885603e-01,-1.995834e-01,-2.436191e-01,3.251184e-01,8.124262e-01,2.240201e-01,1.982680e-02,4.147990e-01,-8.616433e-03,-1.191025e-01,6.698584e-02,-3.785470e-01,-1.544472e-01,1.214580e-02,-4.638507e-01,-6.728362e-01,-4.083118e-01,
1.449172e-01,8.630261e-01,-6.762390e-03,-1.238371e+00,1.121444e+00,-1.805738e-01,2.348425e-01,1.307359e-01,3.237667e-01,3.475487e-02,2.888644e-01,-3.548516e-01,4.357430e-01,2.536452e-01,6.601279e-01,-7.463306e-01,1.165628e+00,-2.255519e-01,-2.109755e-01,6.115591e-01,1.604833e-01,-5.686263e-01,1.698312e-01,7.293420e-01,-6.041458e-01,2.440210e-01,-3.936573e-01,-2.004754e+00,-1.085017e+00,-9.304961e-01,4.853570e-01,4.361430e-01,-3.125651e-01,1.293939e+00,-1.544871e-01,6.177913e-02,8.764045e-02,1.522425e-01,2.213278e-01,3.672170e-02,3.866954e-01,5.605720e-02,4.533748e-01,-4.370917e-01,1.388044e-01,-1.245249e-01,-2.604070e-02,-9.276409e-04,6.619042e-01,-1.262756e-01,
1.152039e-02,-5.428233e-03,4.805020e-02,-6.519139e-03,-1.183232e-02,-3.359460e-02,3.706143e-02,4.550660e-03,3.494880e-02,3.015420e-02,-3.622854e-02,7.220126e-03,-3.298750e-02,2.840534e-02,-4.509432e-03,-6.587025e-03,-5.606793e-02,2.936334e-02,-1.305320e-02,-2.715660e-02,-3.927110e-02,-5.680468e-02,-6.001759e-03,-3.205680e-02,-2.471353e-02,-2.193480e-02,-3.117410e-02,5.675130e-03,-1.528500e-02,-6.807030e-03,-3.741593e-02,-3.337431e-02,-3.135176e-03,8.342161e-03,1.527070e-02,-2.526100e-02,4.414110e-03,-4.842660e-02,-1.540900e-02,-2.973390e-02,-2.324324e-02,-2.741891e-02,5.861513e-03,1.169076e-03,-7.025945e-03,6.559197e-03,-8.126380e-03,4.706087e-03,-3.873960e-02,2.881280e-02,
-2.539640e-02,-1.215657e-02,-3.677270e-02,-6.784278e-02,-1.361806e-02,-4.072050e-02,-1.432229e-02,6.666180e-03,1.295260e-02,3.557380e-02,-3.309998e-02,1.952489e-02,1.865330e-02,-5.759893e-02,-3.250097e-02,4.325693e-03,-1.946541e-02,-1.065389e-02,1.998830e-02,-5.397560e-03,2.257670e-02,-3.052621e-02,-3.597631e-03,-4.887300e-02,1.833871e-03,-2.859020e-02,3.401359e-03,1.587650e-02,1.378269e-02,-6.235050e-02,-2.598504e-02,-3.169608e-02,1.526170e-02,-2.753698e-02,-3.238379e-02,1.206590e-03,-3.559370e-02,1.364500e-02,-5.592130e-02,-4.426690e-02,-1.969905e-02,-5.852574e-02,1.831260e-02,-5.666034e-03,2.927230e-02,-4.125522e-02,-2.470130e-02,1.755124e-03,2.503160e-02,1.617410e-02,
8.926239e-01,-2.098336e-02,-1.325240e-02,-9.960280e-02,1.572092e-01,-1.058067e-02,-2.845447e-02,-4.802161e-01,-8.375219e-01,-4.644125e-01,-1.281372e-01,4.802338e-01,-2.456377e-01,-8.452992e-01,4.676483e-01,1.567643e-01,-5.214413e-01,-2.062987e-01,-3.897344e-02,6.268182e-01,-9.643183e-01,-3.671150e-01,4.282273e-01,-8.287503e-01,-3.698238e-02,-7.446598e-01,-2.908592e-01,1.110971e+00,1.549201e-01,8.566970e-01,3.230516e-01,-2.009485e-01,-6.921718e-01,7.358911e-04,2.708384e-01,5.125735e-01,5.741339e-01,-1.810187e+00,4.082543e-01,5.381190e-02,4.972394e-01,-4.521481e-01,-2.522987e-01,-1.580941e-01,8.484915e-01,-3.172431e-01,1.857080e-02,-1.281246e-01,-1.269342e+00,-1.016688e-01,
-2.758655e-03,-5.972547e-03,-5.038310e-02,-1.659829e-02,-9.897522e-03,-4.933000e-02,-2.437779e-02,-3.002480e-02,-1.392060e-03,-4.691730e-02,1.132579e-02,-3.084900e-02,7.830390e-03,3.083262e-02,1.047804e-02,-5.654824e-02,2.991806e-02,-1.515603e-02,-2.584840e-02,-5.604980e-03,2.062050e-02,-6.112195e-02,-1.747836e-02,-1.541320e-02,-7.350356e-03,-3.371430e-02,-2.841892e-02,-1.219340e-02,-1.781618e-03,-4.322200e-02,-5.170242e-03,-7.175810e-03,8.124161e-03,-3.073715e-02,-4.526514e-02,2.259580e-02,3.817110e-02,4.117520e-02,-1.569010e-02,-1.244910e-02,2.723251e-03,-3.316480e-02,-2.324329e-02,3.349836e-02,-2.929362e-02,8.930503e-03,3.682300e-02,-5.328399e-03,-3.045380e-02,-2.441800e-02,
-8.154175e-02,5.543960e-01,-1.466070e-02,6.279430e-01,-1.277933e+00,2.398394e-04,6.278700e-02,-1.343885e+00,1.360946e+00,3.414572e-01,5.084274e-01,4.433013e-01,6.386576e-01,2.132881e+00,7.399495e-01,2.052133e-01,1.202420e+00,7.985870e-01,6.441919e-03,-1.607364e-01,8.542968e-01,-9.624173e-01,1.056524e+00,-5.248219e-01,-6.493206e-02,-2.301350e-01,-1.029312e+00,2.374847e-01,1.110047e-01,-3.637359e+00,-8.911595e-01,-2.235731e-02,6.971825e-01,-1.268300e+00,-9.062441e-02,-1.849921e-01,2.265438e+00,-2.683140e+00,-6.820428e-01,9.364510e-03,-5.200260e-01,-3.393587e-01,-5.841615e-02,5.417565e-02,-8.189192e-03,4.567744e-04,-4.122140e-02,-4.223624e-01,-8.778952e-01,8.098034e-01,
-6.568317e-02,-1.442393e-01,2.069520e-02,-5.216514e-01,-2.162681e-01,5.756772e-01,-1.299248e-01,4.682238e-01,9.369693e-03,1.000348e-03,-2.947453e-01,1.949516e-01,-4.685029e-01,-3.700925e-02,-2.750874e-01,2.648495e-01,-2.809801e-01,-3.635663e-02,1.520167e-01,-1.688042e-01,-2.327381e-01,-1.050311e-01,3.170135e-02,1.206946e+00,4.017818e-01,-5.242461e-01,6.947775e-01,5.363753e-01,-9.327722e-01,1.523553e-01,-9.998759e-02,2.245152e-02,-7.001812e-01,4.578695e-01,-1.949324e-01,3.149465e-01,3.488026e-01,-2.406492e-01,4.412427e-01,3.085830e-03,-2.467125e-02,4.901904e-03,7.450683e-01,-5.551292e-01,3.682913e-01,-2.439042e-01,-3.378920e-02,-2.255583e-02,3.169772e-01,2.647201e-01,
5.470881e-01,1.726920e-03,-3.014550e-03,2.041420e-01,6.416281e-01,9.348948e-02,-5.726930e-01,-3.392384e+00,-2.092699e-01,-7.415903e-01,1.337697e+00,9.674680e-01,5.778692e-01,1.656309e+00,4.293617e-01,-3.495879e-01,1.126887e-01,6.455557e-01,6.430159e-02,5.457719e-01,5.356459e-01,-8.107625e-01,-1.199452e+00,8.935776e-01,-1.665182e+00,3.093349e+00,7.226920e-01,2.158392e-01,9.437548e-02,-6.632050e-01,-3.251409e-01,5.572075e-01,-2.674924e-01,-1.428504e+00,-3.513176e-01,7.960645e-01,1.505677e+00,-3.966733e+00,1.298040e+00,-2.897460e-02,-1.120873e-04,-1.838647e-01,2.690942e-01,-6.627525e-01,-7.708209e-01,8.778847e-01,5.841600e-02,3.551140e-01,-9.552054e-01,-1.053787e+00,
-8.251203e-02,6.340243e-02,3.596680e-02,2.483931e-01,5.001414e-01,-4.531715e-01,1.948289e-01,-1.604858e+00,-3.483953e-01,1.625019e-01,-2.792661e-01,-1.066392e+01,-1.945461e-01,5.694513e-01,-2.863544e-01,-4.735227e-01,-8.432889e-01,-3.632058e-01,-7.352156e-01,4.973848e-01,-7.456436e-01,-2.666696e+00,4.344147e-01,8.442356e-01,-5.488386e-01,2.697854e-01,2.852069e-01,2.562807e-01,4.110638e-01,2.282170e-01,7.224417e-02,9.454474e-01,-1.727410e-01,5.232525e-01,-5.009077e-02,1.962911e-01,4.967240e-02,-5.222535e-01,1.393940e-01,2.544710e-02,-5.901963e-01,4.211625e-02,1.640228e+00,-2.704944e-01,-3.731193e-01,1.424786e+00,-1.000590e-02,-6.237702e-02,2.031353e+00,1.465233e-01,
-9.939558e-02,2.379350e-03,3.579800e-02,7.676212e-01,6.042699e-01,-1.417021e-01,-5.105311e-01,6.849974e-01,2.033146e-01,9.556454e-02,-7.432541e-01,-8.202732e-01,8.381870e-02,3.249961e+00,7.105171e-01,3.359047e-01,8.235587e-01,3.774250e-01,-8.217546e-01,6.152710e-01,-8.943947e-02,5.339620e-02,-4.791788e-01,1.350988e-01,2.179833e-01,6.744814e-01,-2.189216e+00,-8.372386e-01,9.177358e-01,-1.637248e+00,-3.222212e-01,-5.082278e-01,-8.157192e-01,-9.924517e-01,3.359053e-01,-3.136804e-01,6.094269e-01,5.115581e-01,6.472775e-01,2.727280e-02,-1.437534e+00,-4.511148e-01,-5.307489e-01,1.046278e+00,-9.591718e-01,5.661526e-01,-9.012500e-03,8.680364e-01,3.411216e-01,-3.372043e-02,
5.293765e-01,-4.301569e-01,3.928230e-02,3.106137e-01,3.437941e-01,6.817321e-03,-6.884333e-04,2.499033e-01,1.067861e+00,2.063919e-01,-5.479761e-01,6.188021e-01,1.625259e+00,-1.085126e-01,-1.177908e+00,-8.846340e-01,1.050707e+00,-1.317211e+00,9.141856e-01,3.587269e-01,7.037416e-01,-2.764741e-01,6.430884e-01,1.051932e+00,-1.484682e-01,-5.045476e-01,-2.796093e-01,4.637505e-01,9.455214e-01,4.161666e-01,-5.307868e-01,-1.419298e+00,-2.904413e+00,-2.880135e+00,1.801987e-01,1.070258e+00,-2.607864e-01,-2.031246e-02,2.212368e-01,-4.171660e-02,-1.827079e-01,-1.545361e-01,-2.852502e-01,3.286280e-01,4.781493e-02,2.590939e-01,-2.643830e-03,1.990515e-02,-2.002069e-01,2.026323e-01,
-2.810268e-02,2.522426e-02,-3.501900e-02,-5.780360e-02,2.985013e-01,-1.705454e-01,2.189279e-01,-2.159998e-02,-1.468527e-01,6.227493e-01,-1.848112e-01,-5.537394e-01,-1.358641e-01,-1.822950e+00,-3.223740e-01,-9.026879e-02,-1.221166e+00,-3.496082e-02,-2.830189e-01,1.522887e-01,3.440927e-01,7.577007e-01,-3.473853e-01,2.687911e-01,4.809197e-01,-3.491631e-01,-6.809222e-01,-1.656308e-01,1.829705e-01,1.284221e+00,2.425123e-01,3.473475e-01,9.191656e-03,4.882647e-01,-2.079936e-01,-2.812604e-01,4.857082e-01,-1.007366e+00,1.668672e-01,-3.419170e-02,-4.094815e-01,-1.664962e-01,1.905824e-01,1.116642e-01,-3.205401e-01,7.901876e-02,4.275300e-02,2.472335e-01,-5.800200e-01,2.047655e-01,
-2.474046e-01,1.135431e+00,4.363580e-02,1.355755e-01,2.314802e-01,-4.775003e-01,-4.533714e-01,1.457620e-01,-4.231573e-01,7.997230e-01,-2.564822e-01,-1.987130e+00,3.750449e-01,-7.831956e-03,2.878308e-01,7.616613e-01,-3.729780e-01,6.280755e-01,-2.295333e-01,1.028815e+00,-1.370617e-01,5.548277e-01,9.751806e-02,1.288526e-01,1.653446e-01,-3.171613e-01,1.029044e-01,3.501731e-03,4.266878e-01,1.154941e+00,-2.448971e+00,8.551415e-01,1.055388e+00,5.968059e-01,-2.118441e-01,3.350484e-01,-2.965416e-01,-1.159877e-01,5.262505e-01,3.366220e-02,8.353729e-01,-1.301385e+00,-1.131403e-01,-2.693029e-01,3.405996e-01,6.639446e-01,1.586860e-02,-6.143886e-01,-3.935302e-01,6.041462e-01,
1.289490e-02,-4.319030e-03,4.385960e-02,2.895450e-02,-3.160300e-02,3.113100e-03,-3.124150e-02,2.143430e-02,-3.656150e-04,2.611780e-02,3.361230e-02,-5.187420e-02,-2.749190e-03,3.701070e-02,3.857260e-02,-1.355130e-02,-5.188840e-02,4.092170e-02,1.730580e-02,-2.515840e-02,3.571880e-02,-1.522090e-02,-3.434610e-02,-3.328260e-02,-4.640880e-02,5.023560e-03,-2.415100e-02,-2.323440e-02,-1.407510e-02,-2.535000e-02,2.497600e-02,-3.045680e-02,-2.769350e-02,-1.661440e-02,6.497220e-03,-5.905100e-02,-1.960220e-02,2.232080e-02,-4.301990e-04,4.434000e-02,-1.018950e-02,1.901640e-02,-5.160700e-02,-5.295690e-02,-1.119230e-02,-4.863640e-02,3.705960e-02,-1.879970e-02,-1.117360e-02,-4.271790e-02,
-1.222047e+00,-7.388757e-01,1.381300e-02,-2.544229e-01,-2.329105e-01,-2.673865e-01,3.850114e-01,-3.418609e-01,5.517414e-01,-3.391011e-01,-9.619365e-03,-3.618353e-01,1.191133e-01,4.931186e-01,-1.021271e+00,-1.286771e-01,-1.037217e+00,-1.342445e-01,-2.073643e-01,8.086135e-01,-6.732491e-01,1.184566e-01,2.545693e-01,1.551099e+00,1.376461e-02,-5.039755e-02,1.875229e-01,3.691227e-01,-6.590922e-01,-1.339873e+00,6.401575e-01,2.474958e-01,-2.308347e-01,-9.153088e-01,6.520762e-01,-7.303707e-01,-4.786512e-01,2.578180e-01,-8.109327e-02,1.640900e-02,-1.889803e-01,2.257340e-01,-4.501101e-01,-1.320377e-01,-2.302621e-01,-1.050168e-01,2.738120e-02,-2.610651e-02,1.913012e+00,4.217499e-01,
-1.614498e-01,
-3.906933e-01,
-1.874524e-01,
-6.109388e-01,
-1.524729e-01,
1.905111e-01,
-2.854631e-02,
-6.622549e-01,
-2.506053e-02,
1.776364e-01,
-1.182067e-02,
-4.967246e-01,
-4.260891e-01,
-6.410879e-01,
-2.697912e-01,
-6.727844e-01,
-6.107977e-01,
-2.712298e-02,
-3.094284e-01,
-6.699142e-01,
6.120708e-01,
6.918989e-01,
5.468146e-01,
2.420671e-01,
-1.352340e-02,
3.543001e-01,
-1.070434e-02,
6.043001e-02,
-6.231645e-01,
-3.837284e-02,
-5.256332e-01,
2.794085e-01,
-1.777120e-02,
3.553799e-01,
-5.435352e-01,
-7.266271e-01,
-1.949526e-02,
-2.364361e-02,
1.455207e-01,
-1.496234e-02,
-1.592338e+00,
1.303141e-01,
-5.414678e-01,
-1.020535e+00,
9.740590e-01,
-4.262898e-01,
-3.765858e-01,
-8.325123e-01,
-1.548420e-02,
4.525972e-01,
6.367303e-01,2.853683e-02,-1.218967e-01,-5.342293e-02,5.400931e-01,-3.195499e-02,-1.924132e-03,3.724432e-01,-2.815892e-02,-4.364665e-01,-2.667250e-02,-1.409509e-01,-4.790019e-01,-7.646231e-02,-4.505136e-01,1.654112e-01,2.520752e-01,4.205569e-03,-7.802382e-03,-2.528840e-01,-1.974269e-01,-1.911804e-01,3.283690e-02,3.385895e-01,1.653960e-02,3.422068e-01,1.121488e-01,-5.014634e-01,-1.159949e+00,1.402358e-02,1.192353e-02,-4.352691e-01,1.482350e-02,-2.537006e-01,-3.252372e-01,-2.941786e-01,-1.429116e-02,-2.325037e-03,-3.512349e-01,-2.953052e-02,3.311092e-01,-3.358837e-01,-7.932524e-02,-2.955885e-01,-1.232417e-01,-4.873141e-02,1.400140e-01,6.232907e-02,-6.689260e-04,2.300340e-02,
-3.908053e-03,2.268710e-03,-6.568820e-03,-1.922092e-02,-1.597486e-02,2.566400e-02,3.557653e-03,-1.212710e-03,-2.529559e-02,-7.516096e-03,-5.324614e-03,-4.923083e-03,-1.340650e-02,-2.373317e-02,-1.699516e-02,4.763480e-02,-5.247760e-03,-2.950142e-02,-4.832167e-03,-7.242540e-03,1.591258e-03,-9.595965e-03,2.037905e-03,-6.057119e-03,4.368620e-02,-6.755065e-03,2.747870e-02,-1.215468e-02,-8.139400e-03,-7.093856e-02,-9.320152e-03,-1.003478e-02,7.600110e-03,-9.206031e-03,1.247372e-02,-1.788173e-04,5.912299e-03,-9.853882e-03,1.431672e-02,-3.097819e-03,-1.717278e-02,-1.167069e-02,2.240196e-03,2.514580e-02,7.778984e-04,-6.971415e-03,5.227226e-03,2.392641e-02,1.806670e-03,-3.656053e-03,
5.461394e-02,8.039583e-02,-9.025751e-01,6.221448e-02,-8.720389e-01,4.893185e-01,-7.834848e-03,1.289233e-01,-1.440775e-02,4.150247e-01,5.949160e-03,-7.686642e-01,-2.429289e-01,-5.144472e-01,-4.097705e-01,-5.506086e-02,-2.264677e-01,-6.164002e-03,1.907488e+00,-4.476778e-01,3.320518e-01,2.419588e-01,1.348014e-02,-5.947661e-05,7.259320e-03,1.508497e+00,-2.136912e-01,8.881517e-02,-6.500384e-01,6.100160e-01,1.048966e-01,2.637293e-01,8.772020e-03,-3.418377e-01,-6.346560e-03,6.227546e-02,-3.365005e-02,-3.851934e-04,-2.916244e-01,3.951674e-02,-1.586124e-01,-2.044781e-01,1.860676e-01,1.726868e-01,3.925739e-01,6.142447e-02,-3.530185e-01,5.386759e-01,1.739070e-02,2.627014e-01,
-4.717313e-01,-8.726785e-02,-8.144231e-03,1.852814e-01,3.245055e-03,1.315979e-02,-8.173833e-03,7.762367e-01,-2.391704e-02,9.046697e-01,-3.848558e-02,7.846075e-02,3.288077e-01,3.336859e-01,8.609778e-02,4.330930e-01,-1.516463e-01,-7.700067e-03,1.386294e-02,-1.544068e-01,-9.239208e-02,8.395287e-02,5.335967e-02,-1.938737e-01,-2.788180e-02,4.133419e-01,3.772955e-01,-8.675603e-03,7.534595e-01,-3.505588e-01,2.042422e-01,-8.509985e-02,1.925030e-02,4.418079e-01,4.064462e-01,5.225164e-02,-3.596184e-02,1.009446e-02,2.063548e-01,2.477337e-02,1.838359e-01,-8.175774e-03,3.025879e-01,6.057687e-02,-1.734996e-03,1.976317e-01,4.498081e-01,-3.757149e-01,3.292400e-02,3.567852e-01,
4.639199e-01,3.580295e-01,2.634022e-02,-3.783206e-01,2.484782e-01,2.500833e-01,-1.151322e-02,-1.444964e-01,1.606395e-02,-6.541814e-01,-3.556225e-02,-2.111121e-01,-3.569860e-01,-1.024757e-02,6.127066e-01,4.296773e-01,1.230174e-01,4.378179e-02,8.245742e-02,-5.678668e-02,4.122949e-01,2.466906e-01,3.155981e-01,1.754864e-01,-2.624240e-02,1.875570e-01,6.429495e-01,-4.152197e-02,-9.841156e-01,-3.834550e-01,-7.758343e-04,1.036219e-01,2.749880e-02,-3.333688e-01,-1.533132e-01,3.895196e-01,-2.916263e-02,2.512556e-03,1.633083e-01,-2.998360e-02,-4.570422e-01,1.547205e+00,9.563421e-02,5.229022e-02,-9.646577e-02,2.662248e-01,-2.698833e-02,-2.383626e-01,-6.976350e-03,1.293432e-01,
-3.040967e-01,-1.233911e-03,-3.684209e-01,8.385257e-02,-2.441934e-01,5.091409e-01,1.295587e-02,4.176517e-01,2.027792e-03,3.963397e-01,8.875999e-03,3.420250e-02,-9.363598e-02,3.409977e-01,5.266055e-01,2.828089e-01,1.981131e-01,-4.620519e-03,2.505640e-01,1.406909e-02,-5.272151e-01,-3.608108e-02,-1.518381e-01,-5.011600e-01,-3.991190e-02,2.432234e-01,7.746483e-01,6.794111e-02,3.981860e-01,-4.645508e-03,-5.121174e-02,6.080343e-01,-2.790390e-02,-5.184497e-01,1.893985e-01,1.140923e-01,-4.699782e-03,-2.983141e-02,5.928879e-01,3.630081e-02,-4.948414e-01,-3.353620e-01,3.791887e-01,-5.888171e-01,-6.087120e-02,-5.388928e-03,2.418726e-01,1.197441e-02,-4.315330e-03,-1.967226e+00,
2.806051e-01,-1.793741e-01,8.339731e-01,-1.764151e+00,-7.682253e-01,-4.130715e-01,-1.847249e-02,1.269743e+00,-6.449787e-03,-1.693459e-02,-1.131860e-02,-1.579482e-02,7.305186e-02,3.880525e-01,7.823033e-01,8.521013e-01,3.269980e-01,-5.958971e-03,1.185978e-01,3.037795e-01,8.283354e-02,3.647041e-01,-6.032420e-02,-6.835588e-01,5.217610e-02,6.615629e-01,-2.315060e-02,-3.284928e-01,-3.370161e-01,-4.522691e-01,3.414596e-01,-2.442709e-01,6.930580e-03,-4.370167e-01,-2.382907e+00,9.143606e-02,3.867271e-02,3.495938e-02,2.559456e-01,-1.341928e-02,9.426293e-01,-1.025600e-01,5.909685e-01,5.845230e-01,-4.173587e-02,-5.531921e-03,-2.891913e-01,-1.829556e-01,-2.275260e-02,-5.251657e-01,
-6.263155e-01,-2.742527e-01,-1.568515e-01,-3.207822e-01,-9.085928e-01,1.902028e+00,2.227450e-02,-7.297172e-01,6.955820e-03,5.411217e-01,3.614584e-02,3.102150e-02,-5.893411e-02,-2.508360e-01,-1.160420e+00,5.182502e-02,6.184740e-03,-4.644525e-03,-7.174258e-01,2.252583e-01,3.458975e-02,1.553189e-01,3.256575e-02,1.473988e-02,3.646920e-03,3.146308e-01,1.824495e-03,2.427778e-01,-1.170638e+00,1.021694e+00,8.074038e-02,1.946114e-01,2.806040e-02,-1.532909e-01,-3.172942e-03,1.549629e-01,-3.029325e-02,3.003259e-03,2.649086e-01,-3.448992e-03,1.491312e-01,7.074907e-01,-7.582001e-01,4.522068e-01,-1.934065e-01,-1.208305e+00,-4.286119e-01,-1.403056e-01,1.269870e-02,-5.823526e-01,
-2.087606e+00,-3.276140e+00,-3.546082e-01,7.815996e-01,-2.121094e+00,4.376273e-01,2.736202e-02,7.010995e-01,-8.317470e-03,2.307470e+00,3.720521e-02,-2.762014e-01,-1.344474e-01,-2.897920e-01,7.910690e-02,1.000920e+00,-6.248340e-01,2.838663e-03,-3.109213e-02,1.453704e-01,-1.113264e-01,5.637359e-01,7.109852e-01,3.186767e-01,-1.407700e-03,6.460540e-02,1.100473e-01,-7.244604e-01,1.787942e+00,-2.166394e-01,-2.274275e+00,-1.214851e-02,2.916440e-02,-8.712684e-01,1.613938e+00,-2.538200e-02,1.622698e-02,-1.007111e-03,-1.691951e+00,3.256411e-02,-1.356122e+00,-8.597216e-01,1.371429e+00,-9.648760e-01,-8.283384e-02,3.492221e-01,-6.081335e-01,-4.668559e-01,-1.029110e-02,4.403194e-01,
7.281578e-02,-2.182640e-01,8.947907e-02,-2.092802e+00,6.242331e-01,7.573898e-02,1.586342e-02,1.309037e-01,-1.626527e-02,-8.324542e-02,6.406694e-03,-7.824667e-04,1.352823e-01,1.098172e-01,5.320055e-01,-1.749853e-02,-1.871762e-01,3.887915e-02,-8.790564e-02,1.325535e-01,2.288340e-01,-2.447493e-01,-4.501821e-02,-9.450357e-01,-2.563010e-03,-2.478419e-01,5.549731e-01,3.327942e-01,1.563863e-01,-3.864153e-01,3.096893e-02,8.419827e-02,3.305600e-02,1.087047e-01,-1.324495e-03,-2.714240e-01,-1.772562e-02,1.473533e-02,-3.399850e-01,-3.196230e-03,-4.661544e-01,-8.636284e-02,1.481014e-01,-1.101270e+00,8.164117e-02,-2.013968e-01,9.236529e-02,-1.760718e-01,4.221470e-02,-2.382658e-01,
-9.450736e-01,-3.983026e-01,-1.257617e+00,-6.653745e-02,-6.501342e-02,-2.897072e-01,6.970435e-03,8.176940e-01,-6.235105e-03,-5.556897e-02,-5.152057e-03,-3.345493e-01,-2.627899e-01,-1.240860e-02,4.743008e-01,1.209071e+00,1.040728e+00,-1.510169e-02,1.129449e-01,-5.773079e-02,-2.693961e-01,-6.974994e-03,-1.576294e-01,-5.053481e-04,2.075560e-02,-3.312925e-03,2.455085e-01,3.421521e-01,1.327959e+00,9.810816e-01,-1.097131e-01,-1.034248e-03,-1.680200e-03,-2.862210e-01,2.290913e-01,7.701571e-01,3.148137e-02,1.468696e-04,-1.053318e+00,-1.364554e-03,1.241580e+00,1.848795e-02,-1.863655e-01,1.088868e-01,-1.961352e-01,2.015575e-01,1.033282e+00,-4.820545e-02,3.346380e-02,-1.375412e-01,
1.126278e-01,-5.984245e-01,1.269969e+00,2.189470e-01,1.206997e+00,1.298379e+00,-5.939632e-03,-1.430709e-01,-2.975687e-03,-1.856978e+00,1.449022e-02,6.516700e-01,-4.146765e-01,-6.605164e-02,2.652143e-01,-7.671058e-01,-1.902202e+00,-1.434857e-03,-8.593628e-03,4.763741e-01,2.654200e-01,4.405736e-04,-6.432871e-01,2.326015e-01,2.369910e-02,1.067067e-01,-5.567431e-02,-2.619385e-01,-2.175565e-01,-2.447350e-01,9.592288e-04,1.522069e-01,-1.151540e-02,-9.704374e-03,-6.925516e-02,2.071958e-01,-4.573672e-03,-2.836538e-02,2.624653e-01,1.128878e-03,-2.746648e-02,2.329876e-01,-1.580774e-01,1.202951e+00,-9.704522e-02,-3.280072e-01,1.234288e+00,-1.691934e+00,2.674500e-02,5.142500e-01,
-4.427841e-01,-1.834144e-02,1.744003e-01,-3.862174e-01,4.905459e-01,-3.008530e-01,4.794294e-03,1.400922e-01,4.799046e-04,7.691736e-01,1.609639e-02,2.957689e-01,-1.950017e-01,5.311470e-01,4.266155e-01,5.091730e-01,4.209346e-02,1.267589e-02,6.869002e-02,-8.552619e-02,6.151607e-03,1.973894e-01,4.925550e-02,1.951349e-01,-2.109180e-03,-1.021326e+00,1.139051e-01,1.631434e-01,1.011938e-01,-3.361385e-01,-8.891045e-02,9.881788e-03,-4.628180e-02,-2.240179e-02,1.742670e-01,-1.258956e-01,-4.220135e-03,-3.533204e-02,-6.623702e-02,3.075150e-02,5.459510e-03,5.322583e-01,1.101864e-02,4.090072e-02,3.386637e-02,-3.886340e-03,-1.772388e-02,-6.613064e-02,2.822330e-02,-3.550898e-02,
-1.610033e-02,-4.733880e-02,-8.882807e-03,-1.244722e-02,-8.710333e-03,3.667480e-02,-2.358642e-03,2.542470e-02,-3.698057e-03,2.819924e-03,3.214503e-02,1.161477e-02,-2.745440e-02,-5.013827e-03,-1.196173e-03,-4.413190e-03,-2.589895e-02,-8.521437e-03,-3.576787e-03,-4.470322e-03,-1.884162e-02,-6.578564e-03,-5.078065e-03,-4.803801e-03,-1.007010e-02,-6.608264e-03,1.128570e-02,-1.872168e-02,3.465490e-02,-5.305638e-02,-1.370004e-02,-5.864223e-03,-2.828770e-02,-8.424222e-03,-4.491635e-03,-4.653021e-03,-3.020809e-04,3.325263e-02,-9.109752e-03,1.180906e-02,-2.510246e-02,-2.727575e-02,-2.498258e-03,-3.043940e-02,-6.439941e-03,-2.754124e-02,9.809339e-03,-2.017817e-03,1.732480e-02,9.324078e-03,
-2.094725e+00,-8.085845e-01,-2.074608e-02,-1.021936e+00,-2.609912e-01,-2.879046e+00,3.395695e-03,3.901885e-01,7.289577e-04,-9.509554e-01,2.043110e-03,-4.182120e-01,4.601185e-01,9.138137e-02,-6.448563e-01,-4.717026e-01,-7.012933e-01,-7.576155e-03,-2.042898e+00,-3.161398e+00,-1.552274e+00,5.555128e-01,-1.848929e-01,-5.180913e-01,2.125170e-02,-1.220925e+00,-4.539637e-01,-6.465353e-01,-1.290104e+00,1.995819e+00,1.191675e+00,9.726353e-02,3.004630e-02,-9.440406e-01,-2.612636e-01,-1.423002e-02,2.759467e-02,1.737379e-04,1.283230e+00,-3.296337e-02,6.151614e-01,-3.239655e+00,8.189902e-01,1.768426e-01,1.173454e+00,-1.019829e+00,-1.172461e+00,-1.027896e+00,-1.225700e-03,-1.289951e-01,
2.140984e-02,8.954416e-02,1.267955e-01,8.935240e-02,-1.830516e+00,1.345376e-01,-7.407169e-03,-3.246342e-01,1.208383e-02,-7.781912e-03,-1.392617e-02,-3.469166e-01,-1.558893e-01,1.517250e-01,3.857216e-01,-3.254399e-01,-7.837630e-01,-1.963126e-02,-2.543188e-01,8.192272e-02,-2.634174e-01,-1.757537e-01,-1.009422e-02,-5.974383e-03,-1.598650e-02,5.391442e-02,-5.114560e-01,-1.086758e-01,-1.078509e-01,-1.336074e-01,-3.232348e-03,3.292281e-01,6.224060e-03,3.290310e-01,-8.888867e-01,-1.039316e-02,1.209612e-02,3.456985e-02,-3.156750e-02,-1.572115e-02,-1.044905e-01,-7.415684e-02,2.688918e-01,-9.621187e-03,1.099713e-01,3.296360e-01,1.314028e-01,2.505668e-01,4.102350e-02,3.181277e-01,
-4.397846e-01,6.880606e-01,-8.139629e-01,-1.771937e-01,9.619798e-01,1.353888e+00,1.999864e-02,8.758473e-01,4.088827e-03,-1.222168e+00,2.691772e-02,-1.452261e-01,1.129287e-01,9.030074e-02,-1.431063e+00,1.038005e+00,-4.048177e-02,-2.455386e-02,5.620023e-01,-9.882193e-01,-7.204438e-04,1.608165e-01,-8.553381e-02,-3.991318e-01,3.795880e-02,4.901877e-02,-9.823961e-01,2.177151e-01,8.073447e-01,-5.496818e-01,7.023475e-01,-6.094195e-01,2.203500e-02,-4.953591e-02,3.671035e-01,8.315348e-01,-2.244849e-03,2.932938e-02,-1.067257e-01,-4.094133e-02,9.247882e-01,-4.167212e-01,1.153333e+00,-5.295743e-01,-4.456980e-01,4.691173e-01,3.734495e-01,3.315021e-01,-4.621060e-02,-7.370219e-02,
-1.177423e+00,-4.233521e-01,1.410238e-01,1.188080e-01,1.834167e-01,7.385716e-01,-7.224218e-03,5.843018e-01,4.523930e-03,5.918213e-01,1.567819e-02,1.456349e+00,5.909277e-01,-4.521556e-01,1.576019e-01,1.406718e+00,1.149845e-01,-9.163692e-03,1.291013e+00,4.181364e-02,5.834211e-02,-3.286457e-01,-6.640078e-01,-7.295696e-03,-2.771560e-02,1.573618e-02,-5.673483e-01,1.556808e-01,3.758239e-01,1.195322e+00,8.245698e-01,-6.102480e-01,-5.725440e-03,-2.275161e-01,1.743969e-01,-1.847801e-02,-2.744241e-02,6.052628e-03,1.561794e+00,4.119907e-03,2.004140e+00,-1.887307e+00,-8.712987e-01,1.209864e+00,-5.188495e-01,1.243967e+00,1.146403e-01,2.142371e+00,-3.958230e-03,5.269766e-02,
-3.764779e-01,4.449331e-01,-3.590515e-01,-2.661972e-01,-3.862875e-01,4.847667e-01,5.036955e-03,1.308518e-01,5.902889e-03,3.155425e-01,-3.453824e-02,7.418557e-01,1.917075e-01,-8.016796e-02,9.653124e-01,7.929401e-01,1.119027e-01,-2.697397e-02,-6.620002e-01,1.417130e-01,-6.330054e-01,1.061056e-01,1.147210e-01,2.167002e-01,-4.072500e-02,1.671554e-01,6.800418e-01,6.089959e-02,-6.604094e-01,-7.051871e-01,-2.639530e-03,4.730783e-01,-1.300520e-02,-7.580757e-01,-2.599368e-01,-4.776851e-01,9.627621e-03,2.665064e-02,7.052369e-01,-3.759865e-02,-8.186220e-02,5.202803e-01,-2.034492e-01,-2.822208e-01,3.721790e-02,-2.573551e-01,3.064762e-01,2.652876e-01,-3.579910e-03,2.572971e-01,
1.071551e+00,3.771828e-01,-4.765443e-01,3.253555e-01,-2.347496e-01,-7.647707e-01,-7.145341e-03,9.736757e-01,5.233445e-03,5.254962e-02,8.311909e-03,1.747946e-01,1.258496e-01,9.855339e-02,6.983146e-01,-7.338827e-02,-1.413186e+00,-6.448893e-03,7.568583e-01,3.937835e-01,-5.171262e-01,6.842448e-02,8.070268e-02,-1.171806e-01,-1.647090e-03,-6.729045e-03,2.889506e-01,-1.043589e+00,2.176296e-01,-1.082419e-01,-2.081529e-01,-5.169970e-01,-4.451200e-02,-1.025722e+00,-1.742340e-01,1.623026e+00,8.945184e-03,-2.378759e-02,1.129340e-01,3.271629e-02,2.609181e-01,3.500844e-01,3.316819e-01,-5.941532e-01,-5.043402e-01,2.810487e-01,1.262859e+00,-4.237863e-01,-3.083910e-04,3.711784e-02,
1.256006e-02,-7.180760e-02,5.079637e-01,4.345719e-02,6.746950e-01,1.978956e-01,3.125249e-03,3.238111e-01,7.711677e-03,3.836001e-01,-4.753384e-03,2.389214e-01,-1.193688e-02,5.948193e-02,-3.356930e-01,1.166043e-02,5.115809e-01,8.439331e-04,3.332097e-01,-1.954804e-01,-1.699834e+00,-6.938366e-02,2.853839e-01,-1.236611e-01,2.513310e-02,-2.265199e-01,4.084730e-02,-8.882475e-01,-2.036206e-03,4.302320e-02,-2.555607e-01,4.412731e-01,4.388020e-02,-3.903322e-01,-7.637764e-01,-1.973256e-01,-2.189394e-02,5.444361e-03,-2.594469e-01,8.144353e-03,-1.808593e-01,1.154307e-01,-5.304623e-03,2.552713e-01,2.841802e-02,-3.044571e-01,-5.619914e-01,7.314780e-01,4.421190e-02,-1.368266e+00,
4.427808e-01,4.828219e-01,-2.263751e-01,-7.824237e-01,-5.130095e-01,2.563133e-01,-3.488272e-03,-2.942526e-02,-3.617844e-02,6.316555e-01,-6.757120e-03,-7.082070e-02,3.581933e-01,1.188252e-01,-1.908253e-01,5.004902e-01,-7.716936e-01,-2.260076e-04,-1.495315e-01,6.385297e-01,-2.892390e-01,7.196887e-01,-3.282909e-01,1.963820e-01,4.372450e-02,-1.354820e+00,2.105004e+00,9.292578e-01,1.338741e-01,-2.338417e-01,4.205899e-01,-1.170563e-01,-4.053240e-02,-1.543947e-01,2.778675e-01,1.044333e+00,-4.031453e-02,-1.335158e-02,3.212075e-01,6.065809e-03,-2.179231e-01,4.306202e-01,-6.151941e-01,1.851826e-01,-6.393244e-03,1.703186e-01,2.227856e-01,-3.509237e-01,4.174970e-02,8.818521e-02,
1.868235e-01,-1.625415e-01,6.913761e-01,3.655411e-01,2.839012e+00,9.303663e-01,-1.503004e-02,2.275616e-01,-2.789834e-02,1.276290e-01,1.028293e-02,2.374593e-01,3.610717e-01,-1.353483e-01,-3.205791e-01,3.135650e-01,9.283555e-02,-1.147064e-02,5.488530e-01,6.853376e-01,-1.286250e+00,4.179345e-02,5.975580e-01,7.085951e-02,5.295030e-02,-9.358210e-02,2.479273e+00,3.573030e-01,-1.544482e+00,1.561430e-01,-5.245483e-03,-1.534300e+00,-3.228910e-02,-2.491055e-01,3.634726e-01,-1.201420e-01,7.672341e-03,3.474560e-02,9.565877e-01,2.620549e-02,3.094018e-01,9.552097e-01,2.182951e-01,-9.510264e-01,2.080154e-02,-1.029516e+00,7.597460e-01,6.759068e-01,3.700510e-02,-5.337952e-01,
-4.387444e-01,-1.355651e+00,3.990215e-01,1.262898e-01,9.010871e-02,-3.242019e-01,3.568431e-02,1.898720e-01,-1.748368e-03,-7.195687e-01,-5.564271e-03,-3.047841e-01,1.235499e+00,-1.135969e-01,2.931645e-01,8.391270e-01,5.301992e-01,3.047200e-03,-2.861346e-01,-6.801824e-04,-4.223049e-01,-3.003665e+00,-1.301774e+00,2.519524e-01,-4.808200e-02,3.008874e-01,3.440706e-01,-6.619717e-01,1.370070e-01,-5.058137e-01,-7.748394e-01,-4.568354e-01,4.670410e-02,-7.850563e-02,3.972125e-01,5.802055e-01,-6.268648e-03,-2.264070e-02,1.352764e+00,-1.253961e-03,-8.220791e-01,1.561458e-01,-5.304025e-03,1.283059e+00,2.227870e-02,4.114114e-01,2.887115e-01,-9.882624e-04,1.789430e-02,5.180733e-02,
-4.625329e-02,-1.085370e-02,6.874775e-03,-7.985212e-03,1.395060e-02,1.768810e-02,2.409659e-02,3.786870e-02,1.400983e-03,5.006189e-04,2.404116e-02,-6.430511e-03,1.344560e-02,-7.031617e-03,-2.699367e-02,1.712330e-02,-4.989112e-03,-2.394496e-03,-5.404735e-03,-5.698270e-03,-7.320597e-03,-2.617753e-02,4.302404e-03,3.492263e-03,-2.507950e-02,-1.437818e-02,-4.092530e-02,8.967242e-04,1.297550e-02,-7.580663e-02,2.581061e-03,-4.490369e-02,-4.635890e-03,6.091607e-04,-7.867036e-03,-8.726773e-03,-9.754900e-04,-3.712079e-02,-9.279754e-03,1.188450e-02,-5.408927e-03,-5.347933e-03,-3.437515e-02,4.758250e-03,3.770275e-03,-8.801326e-03,6.473396e-03,1.378737e-02,2.165260e-02,-1.412378e-03,
4.361210e-01,-1.837169e-01,-8.200663e-01,-5.138035e-01,7.920530e-01,1.477343e-01,2.438722e-02,6.957369e-01,-8.982598e-04,-5.518449e-01,-4.985583e-03,-1.217374e-01,-6.259042e-02,1.222525e-01,-2.662771e-01,9.511322e-01,7.662795e-01,-1.106346e-02,-8.602273e-03,-1.388733e-02,-2.611101e-01,4.307069e-01,1.810928e-01,-1.012520e+00,4.114740e-02,-1.324581e-01,7.408549e-01,1.703234e+00,1.033736e+00,1.721509e-01,2.678255e-01,6.582606e-02,-5.672420e-03,-3.944158e-01,-3.756070e-01,3.305969e-01,-3.283543e-03,-5.658384e-03,3.649012e-01,1.884315e-03,-8.287830e-01,1.276839e-04,1.909641e-01,3.024236e-01,2.435282e-01,-3.291808e-01,-4.030924e-01,7.616338e-02,-9.190360e-03,2.689931e-01,
2.350275e-01,7.203509e-02,-9.271557e-03,-4.305295e-01,2.969130e+00,-1.313619e+00,4.347649e-03,-1.909751e+00,-3.650223e-02,-9.760342e-01,-3.065098e-02,-6.426219e-02,-1.795015e-01,-5.688490e-01,1.642401e+00,1.007430e+00,4.920577e-01,-5.337110e-03,-8.797523e-01,-2.899508e+00,-3.084709e+00,-3.674615e+00,1.777295e-01,7.740659e-01,-2.874130e-02,-7.781830e-01,-4.157435e-01,-9.990227e-01,-3.011592e-02,6.494154e-01,2.261764e-01,4.332208e-01,8.193380e-03,-2.536074e+00,3.090006e+00,-1.237628e+00,3.606550e-02,-5.309429e-03,1.203243e-01,-6.864932e-03,5.456333e-01,1.352974e-01,1.274141e-01,-2.476579e+00,1.707698e-01,1.773430e+00,-1.874461e+00,3.266146e-01,2.614140e-02,-2.238916e+00,
1.927712e-02,3.545080e-01,1.398740e-01,2.498053e-01,-1.611542e+00,9.594675e-01,-6.442288e-03,7.302283e-02,-8.154418e-03,-5.042488e-02,1.101580e-02,1.647846e-01,-8.721465e-02,4.722166e-02,9.336885e-01,3.885331e-01,-5.338448e-01,-3.380734e-02,-2.743735e-01,-8.342484e-01,-4.617226e-02,-5.585339e-01,8.099377e-02,-2.530393e-01,2.461980e-02,4.475299e-01,3.759706e-01,1.246401e+00,4.551251e-01,-6.744449e-01,4.582850e-01,-6.525898e-02,2.553200e-02,-8.178592e-02,-3.760400e-01,2.882473e-01,-2.176479e-02,-4.460953e-02,-4.215693e-03,-5.745758e-03,2.707993e-01,-6.851247e-03,5.569117e-01,8.419552e-01,-5.686773e-02,-4.433540e-01,4.582950e-01,1.986183e-01,4.300380e-02,-8.878665e-03,
3.762459e-02,9.617711e-01,-4.809093e-01,-1.830505e+00,4.156198e-01,3.845796e-01,-9.760305e-03,-8.707879e-02,4.217492e-03,-1.144198e+00,-3.959832e-02,8.529248e-02,4.777493e-01,-1.195879e-01,2.883746e-01,8.334184e-01,9.869910e-01,2.425518e-02,3.478290e-01,1.275768e-01,-1.157491e-01,-3.094261e-01,7.712377e-01,1.306019e-01,9.226730e-03,4.864303e-03,5.118994e-01,1.599413e-01,-2.111562e-01,1.164470e-02,1.897467e-01,1.417963e-01,-4.108520e-02,2.311126e-01,5.092353e-01,-1.378443e-01,2.088709e-02,3.569780e-02,6.840262e-01,-1.376957e-02,4.247664e-01,-1.461475e-01,-2.683478e-01,3.102654e-01,-1.272431e-02,6.629629e-02,3.843122e-01,-9.181952e-02,-6.319200e-03,9.490650e-02,
-5.274377e-01,1.997635e-01,-8.645288e-03,-4.109455e-01,1.956419e+00,7.865454e-01,4.039984e-03,2.579425e-01,2.082410e-02,-6.138989e-01,-2.734591e-02,-1.377235e-01,-2.811900e-01,3.265049e-02,7.692915e-01,2.318059e-01,-9.726413e-01,3.059354e-02,1.591133e-02,1.673376e-01,-1.884889e-01,-3.575203e-01,-4.317799e-01,2.403009e-01,4.516590e-02,3.891003e-01,-3.976537e-02,-3.918155e-01,-4.718398e-01,1.553094e-01,-9.879605e-02,-4.327308e-01,-1.808950e-02,1.472005e-01,-4.626400e-01,6.976003e-01,4.390767e-03,-5.360400e-03,-9.281372e-02,3.177185e-03,1.362633e+00,-3.343914e-01,1.093720e-01,-8.277588e-01,4.490257e-02,8.349000e-01,-8.823407e-02,4.834035e-01,1.997410e-02,-8.720657e-01,
-3.167519e-01,1.416414e+00,6.643321e-01,3.621773e-01,4.197475e-01,-1.548830e+00,-3.515394e-03,1.195319e+00,-4.989304e-03,-2.870218e+00,-3.178333e-02,-1.385547e+00,-6.739458e-01,2.106637e-01,-6.206087e-01,6.346774e-01,-9.747845e-01,5.573619e-03,1.000734e+00,3.949132e-01,8.799192e-01,-8.763988e-03,4.879849e-01,-1.699991e-01,-1.894990e-02,5.951066e-01,1.246065e+00,-5.386268e-01,-6.380227e-01,-8.691477e-01,-4.158883e-01,-2.395425e-01,3.674460e-02,2.450477e-02,7.174537e-02,-9.577967e-01,1.097375e-02,-3.039239e-02,-7.911471e-01,-3.263867e-02,1.090648e+00,-7.755783e-01,-1.354451e+00,5.592882e-01,-5.627841e-01,-2.891231e-01,1.693560e+00,-4.754796e-01,2.028750e-03,5.774130e-01,
1.500700e-01,-6.648911e-02,-9.984218e-02,-6.742846e-02,-6.203179e-01,-1.383057e-01,-2.505895e-02,1.622120e-01,7.009930e-03,1.371475e+00,-3.695863e-02,-2.568368e-01,-4.713307e-01,5.010261e-01,1.049165e+00,-1.757975e+00,-4.241433e-02,-2.096809e-03,5.677055e-01,1.484845e-02,-6.610996e-02,4.550651e-01,6.211245e-02,-7.465553e-01,2.665050e-02,3.483717e-01,-1.161115e+00,8.426782e-01,1.045046e+00,-1.828575e-01,-5.489448e-01,-6.710776e-01,-3.893560e-02,-3.639351e-01,4.752293e-01,5.562211e-01,1.341050e-02,-3.839722e-02,3.046213e-02,-1.833273e-02,-6.168256e-01,-6.584390e-01,-2.550864e-02,-1.442539e-01,-5.849118e-02,1.799498e-02,3.488684e-01,6.847356e-02,2.235760e-02,-4.017080e-01,
1.550301e-01,-8.899675e-02,-3.099973e-01,7.461840e-01,-3.122211e-01,-1.723018e-01,-3.157299e-03,1.055441e+00,-8.330293e-03,-2.564206e-01,5.262412e-03,-8.187487e-01,1.283007e+00,8.779059e-02,6.851657e-01,2.723991e-01,-1.715946e-01,-1.539919e-03,2.120356e-01,-4.712594e-01,-6.398135e-01,4.724135e-01,1.114357e+00,-6.332514e-01,-5.890350e-03,6.446071e-01,2.116956e+00,1.256911e+00,1.528642e+00,3.682124e-01,3.494447e-01,-1.874367e+00,-1.849550e-02,-3.006164e-01,2.637211e+00,3.611890e-01,2.398802e-02,2.340931e-03,-1.004683e-01,-2.667006e-02,-8.973774e-02,1.243381e+00,-3.514413e-01,-1.960260e+00,4.067085e-02,-2.528526e-01,1.372325e+00,2.586238e-01,-3.809120e-02,-4.475536e-01,
-2.513092e-01,3.606027e-01,-5.138194e-01,-4.068869e-01,-2.325983e-01,1.680574e-01,-1.662198e-03,1.452054e-01,-8.373690e-03,1.572439e-01,-2.938620e-02,-1.470109e-01,-1.237995e-02,-1.623199e-01,3.699443e-02,5.958002e-01,-4.958114e-01,-7.638217e-03,6.482231e-01,-1.229062e-01,1.306282e-01,1.734629e-01,7.958173e-02,7.438445e-02,-1.751360e-02,-3.061874e-01,3.627752e-01,-2.241943e-03,1.581232e-01,1.175854e-01,-3.633524e-01,-5.556581e-02,2.678180e-02,-1.112940e-01,-3.400654e-01,-1.185998e-01,3.237651e-03,-2.713721e-02,-4.394652e-03,3.022337e-02,-3.800973e-02,-2.208013e-01,-4.522688e-01,-3.075521e-01,4.868454e-02,3.704239e-02,-9.723604e-02,-2.780569e-01,-1.847040e-02,1.419833e-02,
5.409206e-01,7.700419e-01,-2.756617e-01,3.804421e-01,1.543583e+00,-3.674187e+00,2.723695e-02,1.113397e+00,-2.829367e-02,6.899818e-01,-2.106215e-02,-4.072223e-03,2.880284e-01,8.653953e-02,-7.699043e-01,-7.517272e-01,-7.366573e+00,6.557160e-03,7.267102e-02,1.053680e-01,-4.296902e-02,-5.028672e-01,7.796756e-02,6.372716e-01,4.416310e-02,-4.834253e-03,8.237973e-01,-3.793785e-01,1.155089e+00,-7.681549e-01,2.099648e-01,-9.651771e-01,2.569420e-02,9.225192e-02,1.921397e-01,-6.304477e-04,-9.376739e-03,-4.303673e-03,3.139120e-01,-6.447211e-03,-1.427436e-01,-8.955235e-01,2.283142e-01,6.447267e-03,2.068191e-01,3.116848e-01,4.113701e-01,-5.327710e-02,-3.305280e-02,2.128566e-01,
-1.516604e-01,2.363466e-02,1.152606e+00,1.105618e+00,-1.001621e+00,-1.297715e-01,-3.645729e-02,7.858426e-02,-2.304174e-03,4.638933e-01,6.616946e-03,1.016896e+00,1.929542e-01,1.920774e-01,-2.424208e-03,5.807149e-01,-1.778530e+00,5.068451e-03,-1.502314e+00,3.158620e-01,-8.764781e-01,2.766062e-01,-5.995592e-01,-6.053214e-01,-5.019550e-04,1.186152e+00,-3.541616e-01,-2.737465e-01,4.489586e-01,6.495922e-01,5.284911e-01,-7.844741e-03,-4.066950e-02,8.767693e-01,9.233347e-01,-1.977717e+00,2.116403e-02,3.338173e-02,1.169325e+00,5.199544e-03,7.507009e-02,2.562494e-02,-3.988290e-01,-3.103260e-01,-5.278726e-01,5.205678e-02,8.856985e-02,8.006433e-01,-4.423480e-03,4.797979e-03,
2.851526e-01,-1.630443e-01,1.274846e+00,2.401036e-01,-2.352479e+00,8.090742e-01,-2.467185e-03,8.731835e-01,3.394656e-02,-6.916796e-03,-5.101077e-04,3.705934e-02,6.611059e-01,-9.499814e-02,-4.558636e-01,-3.211402e-01,4.029444e-01,2.370927e-02,1.739325e+00,-1.171905e+00,-3.016942e+00,-4.877920e-01,3.250332e-01,4.285948e-01,-1.806040e-03,-4.178531e-01,-2.135442e-02,-2.176237e+00,8.372332e-01,3.577502e-01,-2.930943e-01,5.145011e-02,-1.971680e-02,-1.329597e+00,1.803796e-02,-1.231152e+00,-3.231176e-02,1.848253e-02,-1.231057e+00,9.289368e-03,-3.513015e-01,8.783282e-01,-6.059252e-02,-3.052249e-01,-2.421217e-01,6.213163e-01,-1.344196e+00,5.632029e-01,2.941910e-02,-2.033990e+00,
8.969327e-02,1.156744e-01,4.540904e-03,-8.989259e-02,-2.970962e-03,-3.740473e-01,2.159381e-02,3.912498e-01,-3.030193e-02,-3.160072e-01,3.063017e-02,-2.298773e-02,-6.506888e-02,1.366318e+00,3.737671e-03,3.912260e-01,1.059255e+00,-3.220023e-02,2.284892e-01,-2.575699e-03,-2.681444e-01,-2.505221e-02,4.022972e-02,-8.610731e-03,-5.267900e-02,4.691069e-02,1.603885e-01,1.117648e-03,8.001354e-01,-8.301344e-02,-2.913887e-02,2.181351e-02,-4.533460e-02,-2.154782e-01,-6.200796e-02,7.510102e-02,-6.472685e-03,-2.051153e-02,3.068137e-02,-3.871079e-03,-1.741004e-01,1.488129e-01,5.751448e-02,3.401401e-01,-1.158101e-01,1.636293e-01,-2.110668e-01,1.839933e-01,4.565930e-03,7.630173e-02,
-1.310818e-02,1.777434e-01,1.332126e+00,-6.713553e-01,-2.960395e+00,7.901713e-01,6.501559e-03,-7.910122e-01,-9.175958e-03,4.584483e-01,3.080135e-03,-1.991240e-02,1.020401e+00,-1.166069e-01,1.540549e-01,2.555152e-01,1.231552e+00,-9.557568e-03,-8.360591e-01,-8.617110e-01,-6.792710e-01,-1.887903e-01,-7.495767e-01,-4.685006e-01,3.256170e-02,-4.637896e-01,-1.600414e+00,-7.937329e-01,1.660591e-01,3.714844e-01,1.970318e-01,-2.548845e-01,1.307470e-02,-8.637066e-01,-3.571135e-01,-9.223058e-02,-1.665516e-02,-7.210932e-03,9.229947e-01,-1.888482e-02,8.512792e-01,4.228645e-01,6.163047e-01,-2.457118e-01,9.557788e-01,-2.888701e-01,-1.126871e+00,-2.395459e-01,-4.472560e-02,-1.095588e+00,
-2.494256e-01,-3.318043e-01,-5.111065e-01,-1.072501e-01,-8.815874e-01,-1.172267e-01,2.816892e-02,-4.562964e-02,5.267634e-03,-5.744217e-01,4.012207e-03,-1.325096e+00,-3.798807e-01,5.031181e-02,1.310513e+00,-3.933496e-01,-1.452622e-01,-2.560286e-02,-1.381008e-02,-9.200015e-02,1.586396e+00,2.922470e-01,-1.048313e-01,-2.520937e-02,1.578020e-02,2.610211e-01,-8.296281e-01,8.091240e-01,-2.407022e-03,1.183943e-01,2.775587e-01,-4.484947e-01,-3.338560e-02,1.724600e-01,7.721319e-01,1.808483e+00,8.325731e-03,-2.086801e-02,7.542677e-01,1.092456e-02,1.309748e+00,-2.086470e-01,7.086834e-01,-8.814385e-02,-3.682506e-02,2.466706e-01,5.099216e-01,-6.499854e-01,-5.247280e-02,2.630187e-01,
4.261912e-01,3.563975e-01,2.125149e-01,7.357625e-01,2.596022e-01,-7.854243e-01,-2.368069e-03,1.890401e-01,3.166198e-02,3.387088e-02,3.491332e-03,-1.885735e-03,5.447820e-01,1.896083e-01,5.702417e-01,-1.923816e-01,3.036129e-01,-1.569985e-02,-4.165094e-02,3.847008e-01,-1.313955e-01,-6.284470e-03,9.480726e-02,-4.762782e-01,-8.800790e-05,-2.384233e-01,4.316049e-01,1.090958e+00,-2.946576e-01,-2.809098e-01,-5.043702e-01,2.156313e-01,1.481200e-03,2.676155e-01,8.034244e-01,-7.941775e-01,3.478784e-02,5.985178e-03,7.617437e-01,3.538928e-02,5.074677e-01,3.793171e-03,1.895225e-01,8.372617e-01,-1.302338e-01,-5.763143e-03,2.210797e-02,-5.179607e-01,3.350960e-02,-4.150705e-01,
-3.522858e-01,-3.598651e+00,1.570131e+00,1.057911e+00,6.292101e+00,-3.529050e+00,-1.134197e-02,1.256417e+00,-5.530093e-03,-1.145355e+00,1.483053e-02,-3.359516e-01,-2.702296e-01,1.540247e-01,-5.022298e+00,5.957750e-01,-1.255598e+00,-3.154397e-02,-4.232879e-03,2.542645e-01,4.914515e-01,-8.034396e-01,-5.023289e-01,1.356340e-01,2.928820e-02,-1.609072e-03,4.518000e-01,1.336955e-01,1.381720e+00,-5.598668e-01,-5.971953e-01,2.526876e-01,-4.087460e-02,-1.680688e-01,-7.267105e+00,-3.175240e-01,3.103603e-02,2.357588e-02,-3.415578e-01,-4.245741e-02,-3.311813e-01,-7.059341e-01,1.273829e+00,-7.740172e-01,2.448314e-02,-6.543891e-02,6.318584e-01,-4.571454e-01,2.579240e-02,1.010223e-01,
-7.478908e-01,3.549336e-01,5.934085e-01,3.532855e-01,-1.204111e+00,1.785135e-01,-7.445677e-03,6.739025e-01,-1.493003e-03,3.749058e-01,1.076008e-02,-5.726270e-03,-2.907898e-02,2.628762e-01,-4.101020e-01,8.451449e-01,-2.575981e-01,6.577116e-03,-2.110220e-01,1.524787e+00,-1.183195e-01,2.027261e-01,-2.573982e-01,-3.382037e-01,2.662370e-02,-7.481701e-01,1.698039e+00,-4.982038e-01,1.645321e+00,-3.618851e-01,-2.711885e-01,-3.403568e-01,-1.624820e-02,-3.299724e-01,-8.394948e-01,1.382807e-01,-4.916571e-03,4.740046e-03,-3.238451e-01,4.285911e-02,3.356083e-02,7.309972e-02,6.427146e-01,5.495839e-01,-1.141583e-01,-3.873023e-01,6.321107e-01,1.847918e-01,-4.242290e-02,3.299287e-02,
-4.288028e-01,-1.796494e+00,4.044890e-01,-7.070192e-01,4.409914e+00,-1.512300e-01,3.784544e-02,2.630820e-01,3.393035e-02,-7.768176e-03,2.747534e-02,-9.841840e-01,2.843335e+00,8.771995e-02,-3.785609e+00,-6.956350e-02,-1.120763e+00,-7.779966e-03,-1.811544e+00,-5.393186e-03,1.097060e+00,6.847932e-01,-2.769116e+00,-3.535597e-01,-2.565410e-02,-4.236327e-01,2.628497e-01,-1.950769e-01,-1.121167e-01,-1.616751e+00,-9.197922e-01,2.911803e-01,2.076180e-02,-7.926649e-01,2.994805e-01,3.018026e-01,2.380961e-02,2.184777e-02,2.600645e+00,3.345683e-02,2.043161e-02,-1.583184e-01,-7.130482e-03,-4.048340e-01,-1.635347e-01,-1.546796e+00,2.582975e-01,-3.096454e-01,-1.611130e-02,-4.871089e-01,
-4.915074e-01,-1.151021e-01,1.835161e-01,1.840218e-01,-2.367560e-01,5.202985e-01,8.367538e-03,-6.292275e-01,-9.341192e-03,3.982804e-01,5.838543e-03,1.653971e-01,-2.448131e-01,4.062091e-01,-9.215134e-01,2.820307e-01,-8.437075e-02,-2.670610e-03,2.818623e-01,-3.420596e-01,-1.252163e-01,1.520116e-03,-5.364907e-03,-1.011115e-02,-3.223330e-02,-1.878473e-01,-3.204570e+00,4.706586e-01,2.859755e-01,7.174756e-02,2.536876e-01,-2.954042e-01,4.027510e-02,4.404368e-01,-1.734657e-01,-1.503499e-01,-4.080281e-03,4.771699e-03,1.953016e-01,-2.043687e-02,-4.106593e-01,-5.937649e-01,-4.059714e-01,1.043768e-02,3.913803e-03,-3.668483e-01,5.405562e-01,3.007954e-01,-4.313140e-02,8.024351e-03,
-5.053074e-03,-2.721044e-01,4.566604e-01,-1.391651e-01,-6.804591e-02,-2.939839e-01,2.380336e-02,1.782429e-01,5.457086e-03,-2.840176e-03,3.182262e-02,-7.190488e-02,2.827684e-02,1.545808e-02,-6.435713e-01,6.960804e-01,-1.792591e+00,3.474928e-03,-1.164206e+00,1.518662e-01,-3.305055e-01,-2.429674e-01,-1.173466e-02,-2.919709e-01,-1.326380e-02,3.027321e-01,3.414297e-01,-1.325472e-01,-4.006086e-01,3.684202e-01,4.611450e-01,5.088139e-01,2.084130e-02,-1.322717e-01,-1.511901e-01,-9.477791e-01,-1.490913e-02,1.477310e-02,4.759060e-01,-1.312748e-02,9.893458e-01,-7.847152e-01,3.765914e-02,9.455664e-02,3.110375e-01,-4.857970e-01,-2.395888e-01,-6.238779e-01,-1.058080e-02,-9.535298e-02,
-3.038027e-02,-1.673940e-02,2.288540e-03,-6.822126e-03,-3.845617e-03,-1.316510e-02,7.611594e-04,5.224140e-02,-4.845235e-03,-4.515477e-03,-3.744171e-03,5.059970e-03,-2.912730e-03,-7.835657e-03,-9.109375e-03,5.337380e-02,-1.286939e-02,-8.692971e-03,-2.379377e-02,-8.660077e-03,-4.763270e-03,-7.085637e-03,3.556072e-03,-3.064451e-02,3.344580e-02,1.913403e-04,-3.305710e-02,-2.072583e-02,1.946740e-03,-8.797093e-02,-6.757071e-03,-4.481973e-03,-4.620970e-02,-5.065479e-03,-5.487093e-03,-8.492471e-03,-1.659854e-02,-8.365848e-03,1.299259e-02,1.382143e-02,-1.359801e-02,2.701462e-03,-8.310780e-03,1.742550e-02,-1.643537e-02,1.223018e-02,9.137109e-04,-7.895467e-03,-4.856130e-02,-3.533243e-02,
-1.327124e+00,-7.324646e-02,-1.244338e+00,-3.513622e-01,-7.626702e-01,-5.297963e-01,1.334135e-02,7.952666e-01,-4.710341e-03,1.802158e-01,-2.204193e-02,-9.677458e-02,2.345040e-01,1.312688e-01,9.836645e-02,1.239809e-01,-8.334796e-01,4.651862e-03,-1.645793e+00,-1.197991e-01,2.566136e-01,8.306724e-01,7.329253e-03,-1.361586e-01,-3.940650e-02,4.058367e-01,-1.261807e+00,3.242384e-01,4.775867e-01,-6.165190e-01,-7.466394e-01,-4.721937e-01,1.988800e-02,-1.177202e-02,-1.911943e-01,-4.698083e-03,-4.673799e-03,9.774627e-03,3.901033e-02,-1.558508e-02,-1.206301e-01,-2.632581e+00,-9.201609e-01,6.781805e-02,9.436088e-01,-5.524858e-03,-9.471911e-02,1.317402e-03,1.140490e-02,4.108300e-01,
-4.858675e-01,-7.034822e-03,-1.375109e+00,-2.913363e-01,-7.463874e-01,3.248627e-01,-3.563487e-02,1.333470e-01,1.626133e-03,2.711488e-01,1.133572e-03,-1.356704e+00,-8.816923e-01,-2.701657e-01,5.090917e-03,3.528710e-01,-2.306053e+00,-4.110665e-03,-2.056988e+00,8.576471e-01,1.259966e+00,-2.556773e-01,2.200951e-01,3.448951e-01,-1.742320e-02,6.134161e-02,7.389896e-01,4.719134e-01,-5.183156e-01,1.666269e-02,1.427630e-01,7.007474e-02,1.793740e-03,4.416795e-01,-3.165353e-01,8.629825e-01,5.346863e-03,2.915166e-02,1.141290e-01,3.011845e-02,-3.526900e-01,-7.441518e-01,-6.084245e-03,-1.047516e+00,3.406594e-01,-5.904188e-01,8.538138e-01,-1.582933e+00,5.709830e-03,5.172861e-01,
-4.560970e-01,1.673703e-01,7.225639e-01,8.733996e-02,-2.410017e+00,-2.517352e-01,-1.388119e-02,3.325950e-01,-9.265238e-03,-1.298546e+00,1.107152e-02,-1.030729e+00,1.616143e-01,2.254165e-02,3.131322e-01,-6.788092e-01,6.780376e-01,2.126368e-02,3.039372e-02,-8.078199e-03,4.425060e-01,-3.613721e-02,3.196209e-01,8.024544e-02,-4.629560e-03,1.142707e-01,-3.877287e+00,2.159999e-01,8.690530e-01,3.587046e-01,1.103568e-01,-8.313295e-01,-7.747780e-03,6.931674e-02,1.031711e+00,-8.174535e-03,-3.966732e-02,1.527167e-03,5.419587e-01,4.041569e-02,1.403590e+00,-5.997973e-01,6.286526e-01,-9.750142e-03,4.410422e-02,-3.807370e-01,-1.459026e+00,-9.689483e-02,-2.161850e-02,-7.771143e-02,
1.011594e+00,
-4.094370e-02,
5.878224e-01,
-1.256896e+00,
-4.918063e-01,
-1.325970e+00,
-1.629110e+00,
-4.258651e-01,
1.055120e+00,
2.743002e-01,
-8.983597e-01,
-2.004141e+00,
9.672458e-02,
-3.863401e-02,
7.894372e-02,
-1.126429e+00,
-1.133958e+00,
-2.002310e+00,
-6.471871e-01,
-7.962419e-01,
-3.787295e-01,
-1.007475e+00,
-2.173337e+00,
3.341977e-01,
-5.338879e-02,
-1.583720e+00,
-3.229766e-01,
-1.185276e+00,
1.201281e+00,
-1.561913e-01,
1.093982e+00,
-1.475384e-01,
-1.964522e+00,
8.843261e-01,
-9.833050e-01,
2.644319e-01,
6.796044e-01,
-1.323211e+00,
-9.430982e-01,
5.487626e-01,
-1.185945e+00,
-4.309252e-01,
-5.543188e-01,
4.273891e-01,
-1.074591e+00,
4.419124e-01,
-4.761076e-02,
8.069264e-01,
1.064839e+00,
-4.181290e-01,
-2.084167e-01,-6.201105e-03,5.620280e-01,3.257599e-01,1.350259e+00,-9.404449e-03,-3.590639e-01,-5.073261e-01,1.211661e+00,-3.961108e-02,1.919336e+00,-1.461695e+00,4.065018e-01,-8.832855e-03,5.248942e-01,-3.341241e-01,-2.088541e-01,-2.099220e+00,-4.164535e-01,1.518285e+00,2.488712e+00,3.709919e-01,-2.204237e-01,-2.808724e+00,-4.889008e-02,3.104697e-01,9.086486e-01,-5.524945e-02,1.021414e+00,-7.485048e-01,1.106730e+00,-9.760246e-01,-6.315335e-01,8.904828e-01,-8.394224e-01,-4.228943e-01,6.818824e-02,2.017062e-01,8.786697e-01,1.924325e-01,-5.556832e-01,1.034771e+00,2.204556e+00,9.165975e-01,-2.992085e-03,6.497481e-01,3.561249e-03,4.770136e-01,8.819665e-01,-1.471361e+00,
-1.782293e+00,-2.461103e-03,-3.219919e-01,5.344014e-01,-2.131073e+00,-3.123146e+00,1.239416e+00,2.986371e-01,-1.971494e+00,5.143376e-02,-9.665949e-01,2.324626e+00,-6.559800e-02,-4.441445e-03,-1.633239e+00,1.935914e-01,3.056329e-01,2.543923e+00,8.649387e-01,-6.731067e-01,1.903008e-01,-1.925407e-01,-8.136058e-01,4.921507e-01,3.197362e-03,-2.804362e+00,1.582692e-01,-2.651679e+00,-2.080544e+00,-6.189955e-01,-1.994166e+00,-1.913966e+00,-6.219990e-03,-1.025208e+00,5.240561e-01,8.038396e-01,-3.237418e+00,2.857941e-01,-9.247025e-01,-1.194820e+00,-1.175946e+00,-2.364993e+00,-1.147409e+00,1.553473e-01,-3.380644e-01,-1.319588e+00,-5.748702e-03,-1.054358e+00,-7.348949e-01,3.572819e+00,
3.614421e-01,-6.709556e-03,4.241574e-01,1.249195e+00,3.114681e-01,-1.250942e+00,-1.366290e+00,1.313988e-01,2.665056e-01,3.495584e-01,1.226399e+00,-4.745223e-01,6.663713e-01,-4.963843e-03,-7.865710e-02,-1.167429e+00,-2.696600e+00,-6.552176e-01,-3.350276e-02,4.009908e-01,-5.897775e-03,3.637826e-01,-1.763978e+00,1.866595e-01,-2.210426e-02,-8.324236e-01,2.165754e-01,1.767918e+00,4.133031e-01,1.221054e-01,1.626973e-01,-6.187248e-01,-7.586360e-03,-8.961720e-01,-9.317050e-03,-3.361114e-01,-1.774113e-01,8.063118e-01,3.905163e-01,3.751550e-01,-5.648783e-01,3.960102e-01,4.292648e-01,-2.116488e-01,-2.781785e+00,-3.319138e-02,-8.425966e-03,1.674338e-01,-5.416398e-01,-2.659593e-01,
4.302474e-01,4.887928e-03,1.173891e-01,-4.476316e-01,7.886060e-02,6.741464e-02,6.968540e-01,-1.298515e-01,-1.962588e-01,5.626032e-01,6.978261e-01,5.112656e-01,3.248660e-02,-6.384977e-03,-9.379227e-02,-4.361932e-01,-9.423035e-01,3.372024e-01,-1.660085e-01,1.143729e-01,-7.269676e-02,4.866835e-01,-1.837786e-02,-5.942966e-01,3.167439e-02,-7.024255e-02,-2.190678e+00,-4.377777e-03,-2.224131e-02,-8.751085e-01,-2.159723e-01,-7.629040e-02,1.294003e-01,-3.318014e-01,5.958177e-01,1.201216e-01,2.509855e-01,-1.173257e-01,3.154953e-02,-4.454272e-03,6.992441e-01,-5.785475e-02,9.441562e-01,1.419176e-02,5.398571e-01,-8.902934e-01,-1.066571e-03,-2.216924e-01,7.879730e-02,-1.067010e+00,
-1.617914e+00,-1.896562e-02,-4.060617e-01,3.025137e-01,-1.995501e-01,1.424184e+00,7.327081e-01,-1.978165e-02,1.437205e+00,-1.363007e+00,-2.112347e-01,-1.094545e-02,-2.252453e-01,6.533660e-03,-1.706858e-01,-4.480355e-01,9.839825e-01,1.941603e-03,4.926361e-01,2.112733e-01,-1.098610e-01,2.715600e-01,1.321304e-01,-2.125671e-01,-2.732146e-02,1.025499e+00,-6.653753e-03,-1.968262e-01,-2.487363e-01,1.265908e-01,-2.131694e-01,8.764893e-03,1.840603e-01,-1.188369e+00,3.488841e-01,1.505700e-01,9.238288e-03,-3.241058e-01,6.607649e-02,-9.352633e-02,2.956563e-01,-1.504813e+00,-7.355567e-01,-2.910729e-01,-2.836298e-01,-1.420493e-02,7.144190e-04,-6.258386e-01,-3.980953e-01,-3.596041e-02,
4.687974e-04,-1.546790e-03,-1.542182e-01,3.862037e-01,-5.376378e-01,2.749495e+00,9.939909e-01,7.091234e-01,4.925022e-01,-2.986031e-03,-4.055092e-01,6.310030e-01,-1.024127e+00,1.329961e-02,-3.513348e-01,-5.098365e-03,-2.115230e-01,5.362495e-01,-8.945602e-01,-6.206736e-01,6.551649e-01,2.067912e+00,2.479834e-01,6.693322e-01,-8.613965e-04,9.455422e-01,-1.845572e-01,-1.218467e+00,-1.682055e-01,1.588696e-01,-7.753835e-01,-2.005383e+00,3.901812e-02,-1.631362e+00,-1.018241e+00,5.939537e-01,-5.277790e-01,-8.869153e-02,-9.120225e-01,3.231652e-02,-7.824765e-03,-3.144545e+00,3.142258e-01,-1.023764e+00,-2.733789e+00,-9.222631e-01,-1.189146e-02,-8.269967e-01,-8.568179e-02,4.244723e-01,
1.112515e+00,1.616056e-02,-6.852617e-01,1.344571e+00,3.997933e-01,1.064126e-01,-1.190911e+00,2.081862e-01,3.083608e-01,3.139451e-01,6.793384e-01,-2.276029e-01,1.230640e-01,-2.608802e-02,1.509918e-02,1.073908e+00,3.206432e-01,-4.740716e-01,-1.264065e+00,2.443741e-01,3.967853e-01,-1.592567e+00,5.516935e-01,6.596340e-01,-7.582210e-03,4.220661e+00,1.738446e+00,-6.240293e-01,-1.036454e+00,-1.077175e+00,-8.024743e-01,2.665222e-02,-1.291202e-01,9.163122e-01,-2.359092e+00,3.581084e-01,-1.199924e-01,1.223633e-02,1.443211e-01,-4.506863e-01,-7.267112e-01,5.424948e-01,-5.702212e-01,2.604186e-02,-7.600126e+00,-6.591141e-01,-4.360848e-03,-9.775348e-01,1.359823e-01,-7.511705e-01,
6.998942e-01,-6.785284e-03,-2.276292e-01,6.017045e-01,-1.554182e+00,-8.835050e-03,-1.841488e+00,3.693880e-01,6.754912e-01,1.443198e-01,-1.852398e+00,-8.508286e-02,-4.552234e-01,-1.114517e-02,4.097430e-03,2.760870e+00,6.242121e-01,1.063069e-01,5.426720e-01,-3.011729e-01,-4.631520e-01,-6.201681e-01,5.980435e-01,1.207623e+00,-1.904538e-02,-5.399948e-01,2.440984e+00,5.791777e-01,-8.310862e-03,6.508265e-01,1.528289e-01,2.142435e-01,-1.291740e-01,-9.388882e-02,9.127315e-02,1.569480e-01,9.325827e-01,-2.976923e-01,-3.216076e-01,3.560199e-01,6.800182e-01,-3.107284e-01,1.028362e+00,1.285742e+00,4.907477e-01,-4.600906e-01,6.622684e-04,3.030792e-01,3.328331e-01,-5.978069e-01,
6.528485e-01,-2.793554e-03,-5.886154e-01,5.445597e-01,3.136694e-01,1.144035e+00,3.488945e-01,-1.588395e-01,1.758770e-02,8.174922e-02,-9.225942e-01,1.952761e-01,-2.978947e-01,-8.697230e-03,8.812181e-02,1.282074e+00,1.862925e-02,3.629162e-02,-6.042352e-01,-5.421849e-03,-5.912898e-03,-2.983222e-01,-8.872656e-03,-2.835060e-01,4.971604e-03,5.202658e-01,8.553906e-02,-1.361701e+00,-9.239410e-03,1.835937e-01,-8.510477e-02,-1.091046e-01,3.731991e-01,-5.265389e-01,-5.709146e-02,-8.574862e-02,-6.110164e-03,-2.373689e-01,-5.978654e-01,-4.098733e-03,-1.294307e-01,-9.813116e-02,-1.565312e+00,-1.714270e-01,-2.096813e-01,-1.952637e-01,-4.971924e-03,5.425939e-02,-3.155837e-01,-8.865185e-03,
8.577772e-01,2.385681e-02,-5.795642e-01,-2.135957e+00,7.757484e-01,1.143654e+00,-1.086982e+00,-4.018402e-01,-8.514187e-02,9.616544e-01,-4.607627e-01,-6.681191e-01,3.442245e-01,-6.893820e-03,-6.473163e-01,4.137720e-01,-1.332439e+00,-8.979641e-01,1.873341e-01,-1.036134e+00,-8.033882e-03,8.064568e-01,-4.975661e-01,-1.386815e+00,-6.508216e-03,1.141224e+00,-1.195079e+00,-9.740295e-02,-1.658408e-01,-9.389775e-03,-4.305312e-01,6.705204e-03,6.834065e-01,-1.860022e+00,-6.919470e-02,-2.311237e-01,4.207492e-01,-6.349503e-01,-3.324327e-01,-5.971851e+00,4.183718e-01,9.952845e-03,7.608276e-01,-6.496992e-01,-1.662355e+00,-2.516505e-01,-6.494228e-03,-9.586784e-01,-9.140950e-01,-5.686806e+00,
-1.232456e-02,1.872275e-02,-5.321000e-03,-1.930399e-02,-1.087247e-02,-3.204073e-02,-8.280120e-03,-2.741566e-02,1.513984e-03,-8.927391e-03,-8.510501e-03,-3.643134e-02,-2.878739e-02,7.147651e-03,-4.624911e-03,-6.727572e-03,-1.332488e-03,-1.473184e-03,-4.741772e-03,-3.070885e-03,-1.667028e-02,-3.826030e-02,-4.513136e-03,-8.303807e-03,-7.671800e-03,-3.350551e-03,-6.572313e-03,-4.872417e-03,-8.239129e-03,-9.005644e-04,-7.362425e-03,9.471405e-03,-2.275693e-03,-2.712572e-02,-4.783271e-03,-3.669634e-02,-6.105580e-03,-1.102289e-02,-1.859963e-02,-4.942700e-03,-9.287431e-03,-3.614795e-03,-8.923871e-03,-6.948651e-03,6.616042e-03,-6.620434e-03,-8.215564e-03,-1.910788e-02,-8.621813e-03,-8.395430e-03,
-4.801856e-01,2.787363e-02,-2.854691e-01,4.165026e-02,1.379213e-01,-3.302750e-01,-3.853150e-01,-1.959440e-02,-1.850977e-01,5.706710e-02,4.658495e-02,-1.131970e-02,1.864808e-01,-7.069791e-03,5.762827e-03,-2.366883e-01,-7.548954e-03,-3.970638e-02,-3.753692e-03,-1.761045e-01,8.953046e-01,8.673282e-02,-5.389997e-03,-4.099288e-01,-5.343688e-03,6.959180e-02,-3.013127e-01,-1.149676e+00,-1.281029e-01,4.429164e-01,1.053449e-02,-5.793133e-02,1.044189e-02,3.003524e-01,-7.585654e-02,2.439530e-02,-4.029531e-02,2.995252e-02,4.129387e-02,3.884599e-02,-6.310433e-03,7.970398e-02,4.892225e-01,-8.751007e-03,-7.787799e-01,-2.396702e-02,-1.945632e-02,-3.045002e-01,-2.380705e-01,-2.327721e-02,
7.814456e-01,-6.778324e-03,-4.596148e-02,9.430103e-01,2.496313e-01,-9.689488e-01,8.546842e-01,-6.562997e-01,-2.231521e-01,1.300425e-01,-3.227366e-01,-8.804681e-03,-1.523075e+00,6.728972e-03,4.858029e-01,-1.004455e+00,-9.291810e-03,-5.110244e-01,-5.000682e-01,-3.268845e-02,-4.042149e-01,-5.558414e-01,2.166912e-01,-1.129186e+00,6.039540e-03,-4.903710e-03,1.206281e+00,7.899874e-01,1.038047e-01,-1.410496e+00,-3.735282e-02,1.772649e+00,4.162271e-02,1.356779e+00,-2.555128e-01,-7.010469e-01,4.072870e-01,7.015543e-01,2.957199e-01,-9.571726e-01,-4.558900e-01,8.296994e-01,2.778447e+00,-2.376467e+00,1.045913e-01,5.291237e-01,-7.786477e-03,2.271616e-02,5.848894e-01,1.050493e+00,
1.115415e+00,1.667269e-03,-1.668029e-01,8.331932e-02,1.378443e-01,4.594580e-01,2.737408e-01,-2.973610e-01,4.176196e-01,8.207337e-01,9.830592e-01,-4.095889e-04,6.144572e-01,-2.475967e-03,-8.305015e-02,-1.604697e+00,1.174761e+00,-1.765845e-02,-4.914415e-01,4.177091e-02,-5.842506e-01,2.655163e-01,-3.845135e-01,7.557173e-01,-2.117321e-02,1.150234e+00,1.962349e-01,2.545107e-01,-2.656033e-01,-4.586809e-01,-2.988863e-01,-3.227048e-01,3.689928e-01,-8.151834e-01,1.803007e-01,-1.899536e-01,-2.194362e-01,5.233786e-02,-2.929505e-01,-6.801572e-01,4.224281e-01,1.425220e-01,1.652069e+00,-8.110278e-01,3.876544e-01,-8.316809e-02,-2.127906e-02,-1.004283e-02,1.615975e-01,-1.397341e-01,
-3.079244e-01,-2.660149e-04,2.469673e-01,-6.668521e-01,-1.590160e-01,-1.903818e-01,2.450159e-01,-1.527648e-01,4.574554e-01,8.667950e-03,7.738785e-02,-1.940255e-01,-3.698311e-02,-1.141619e-02,1.614426e-01,-5.823664e-02,4.730111e-01,-3.909668e-01,1.257878e-01,2.992833e-01,-1.448510e-01,-2.366921e-01,3.788812e-01,-2.068965e-01,-1.345466e-02,-7.090613e-01,-2.669484e-01,4.681882e-01,3.293583e-01,-1.193053e-01,2.487875e-01,-3.226471e-01,-1.893171e-01,7.495895e-03,-2.268418e-01,-8.458876e-03,2.186224e-01,-1.108925e-03,2.810703e-01,1.399747e-01,-3.493694e-01,1.517285e-01,1.499479e-01,2.741932e-01,-2.074476e-01,1.242311e-01,-8.577161e-03,4.373613e-01,1.300834e-01,-3.615775e-01,
5.409797e-01,-1.579769e-02,2.399444e-01,4.137911e-01,2.277632e-01,-9.778516e-02,7.210947e-01,-4.211342e-01,7.222337e-01,2.093413e+00,6.722903e-01,2.708173e-01,-3.213661e-01,-5.097981e-03,-6.091676e-01,1.134526e+00,-8.215780e-01,3.039991e-01,4.154489e-01,-3.067385e-01,6.613558e-01,-1.027848e+00,7.430506e-01,3.245432e-01,5.938551e-03,-2.684801e-01,1.746656e+00,-3.271124e+00,-2.134874e-01,2.572120e+00,1.832500e-01,-9.145721e-02,3.334893e-01,8.385429e-01,1.145226e+00,-6.363230e-01,-4.770682e-01,2.792807e-01,2.489503e-01,-6.655267e-01,3.280208e-01,6.924513e-01,-1.037470e-01,2.149984e-01,1.060295e+00,-3.288852e-01,1.877301e-02,-5.612504e-01,5.477736e-01,-1.308225e+00,
3.039753e-01,-7.175613e-03,1.110348e-01,6.233764e-01,-7.485178e-01,6.395066e-01,-1.261714e+00,-1.017138e-01,6.642046e-02,9.415298e-01,-3.554091e-01,1.148023e-02,9.665140e-02,-4.851415e-03,1.860622e-01,-4.659182e-01,-2.307942e-01,-4.528382e-03,-4.442535e-02,9.615933e-02,6.980282e-01,-1.145263e+00,-1.760329e-01,-1.667207e+00,2.154037e-02,-7.447331e-01,-5.937321e-01,-1.349012e+00,1.822684e-01,-5.034573e-01,9.254850e-02,1.681878e-01,-7.162569e-01,1.033051e+00,7.599774e-04,-3.079752e-03,6.624671e-01,-4.425252e-01,7.106623e-01,3.456858e-01,-4.722036e-01,1.692773e-01,1.035398e+00,-2.451009e-01,5.718812e-01,-2.136197e-01,-4.990467e-03,2.439680e-01,-1.610751e-01,1.344801e-01,
-7.093171e-01,-4.955713e-03,1.721125e-01,-1.172222e-01,-8.553778e-01,7.920832e-01,4.353551e-01,-3.902805e-01,-2.593737e-01,1.352672e+00,-7.520146e-01,-3.857619e-02,2.306412e-01,-4.447582e-03,1.316900e-01,-1.160010e-03,-3.717012e-01,3.258559e-01,1.965486e-01,5.017726e-01,4.995343e-02,4.594540e-01,5.175225e-01,-1.305334e+00,-2.445195e-04,-7.356819e-01,2.134155e+00,3.759697e-01,1.547023e-01,-8.792790e-01,6.648172e-02,-5.622199e-01,-3.822646e-03,1.381028e+00,1.211655e-01,-1.434188e-01,-2.036593e-03,3.285094e-01,1.815801e-01,-1.680743e-01,4.966991e-01,1.294234e-01,-6.181395e-02,1.625812e+00,9.459949e-01,-7.614802e-02,3.508951e-03,-1.058803e-01,-1.494607e-01,2.932813e-01,
-7.751106e-01,-2.674464e-02,-9.224978e-03,2.035072e+00,-2.086734e+00,2.086397e+00,-1.559378e+00,1.050512e+00,1.643777e+00,5.407557e-01,1.003237e+00,-3.994288e-01,2.478023e-01,1.537917e-02,-1.213599e-01,-1.724245e+00,2.336401e-01,4.886356e-03,-1.640778e+00,-8.134821e-03,-6.939320e-01,1.985626e+00,4.362934e-01,1.843289e+00,2.133276e-02,1.737350e+00,5.691510e-01,4.851471e-01,5.036445e-01,-3.463269e-01,5.279004e-02,9.509965e-01,4.943760e-02,6.274328e-01,7.034476e-01,-7.615881e-01,1.424787e-01,1.076218e+00,7.568142e-01,2.736200e-01,-5.309471e-02,-1.828361e+00,1.864505e+00,-6.191654e+00,-3.203008e-01,1.056858e+00,-6.456243e-03,-1.119153e+00,-3.940036e-01,-1.139412e+00,
-3.046827e-01,-7.115216e-03,-6.410130e-01,6.247023e-01,1.349370e-02,6.405281e-01,-2.402871e-01,4.445297e-01,2.572264e-02,-3.755946e-01,-6.550419e-03,-3.011924e-01,6.806051e-01,1.760880e-02,-1.065479e-01,-8.656846e-01,6.375888e-01,-7.071377e-02,2.232077e-01,-4.787457e-01,-2.058019e+00,4.104120e-01,5.792663e-02,5.700899e-01,-9.271401e-04,8.490878e-01,-1.315095e+00,5.786133e-01,-1.248185e-01,6.751301e-01,-3.357636e-01,5.922798e-01,1.081249e-01,-9.124751e-02,1.181545e+00,-4.878643e-01,1.424464e-01,5.806297e-02,-4.964342e-03,-1.712080e-01,7.114848e-01,-2.851388e+00,-1.157122e-01,-1.123034e+00,4.818835e-01,2.713007e-01,-3.349560e-02,-1.066722e-02,-1.280037e-01,5.902718e-01,
4.169743e-01,3.699116e-03,-1.725459e-01,1.678050e-02,5.948901e-01,-3.489244e-01,7.382246e-01,-4.548375e-02,1.402305e-01,-5.463863e-01,-2.274083e-01,5.047388e-04,1.424816e+00,-6.515628e-03,4.064812e-02,4.442224e-01,-5.715229e-01,-3.422414e-01,-3.256856e-01,2.865014e-01,-2.626661e-01,-2.962261e-01,-7.258261e-01,1.036382e-03,-7.971746e-03,6.334700e-02,-6.593972e-01,-9.399574e-01,-1.409487e-01,3.649935e-01,1.413201e-01,1.402230e-01,5.241033e-02,-4.405636e-01,-5.791000e-03,-1.095214e-03,6.429014e-02,1.903207e-01,2.882419e-02,-1.605991e-01,2.807201e-01,-2.819859e-01,-1.226266e-02,8.850116e-02,-7.843772e-04,-1.384847e-01,4.304963e-03,5.265013e-01,-5.576249e-03,2.621042e-01,
-6.811491e-01,-2.960951e-03,-3.560653e-03,-1.771698e-01,-1.106666e+00,1.657006e+00,-1.239603e+00,4.827761e-01,-6.796447e-01,-4.867680e-02,-1.664284e-01,7.245706e-01,2.373203e-02,-5.245187e-03,-2.564557e-01,1.896125e+00,1.022613e-02,8.069994e-01,1.778146e-01,-7.413682e-01,-2.240296e+00,1.540912e+00,-4.890985e-01,2.083816e+00,-2.450461e-03,-1.432051e+00,9.910738e-01,-3.118249e-01,-5.651609e-01,2.116002e-01,-5.778585e-01,4.344698e-01,3.854472e-01,-7.937380e-01,6.807948e-02,2.366622e-01,1.922027e-01,4.428090e-03,-4.062060e-01,-9.938547e-02,8.379750e-01,-1.494856e-01,-1.929539e+00,1.654526e+00,1.118574e-01,-1.734331e-01,-1.010559e-03,-3.323295e-01,-2.566002e-01,7.274064e-01,
1.310221e-01,1.153305e-02,5.799516e-02,-2.114597e-01,2.661214e-01,-6.851882e-01,1.288677e-01,2.454601e-01,7.537366e-01,6.721408e-01,-4.121433e-01,-7.755059e-01,-4.301235e-01,1.592682e-02,8.334876e-04,2.081333e-01,1.041992e+00,-9.921990e-01,-2.121714e-01,-1.026295e-02,1.885623e-02,1.241028e-01,1.793881e-02,-3.861948e-01,-2.155224e-02,2.513860e-01,-1.098634e+00,4.297864e-01,1.659039e-01,-2.177304e+00,8.618084e-02,-1.933513e+00,-7.390413e-03,2.613396e-01,2.300970e-01,-2.562649e-01,3.211278e-02,-2.312527e-01,-2.090344e-02,-6.724791e-01,4.999903e-03,1.918735e-01,2.657919e-01,2.531498e-01,-2.989263e+00,1.436461e-01,3.315962e-02,-7.884543e-03,-5.636857e-01,7.022099e-02,
-9.685411e-04,-4.243926e-03,-4.854357e-01,1.099203e+00,2.041637e-01,3.844601e-01,1.405441e+00,1.999430e-02,3.933084e-01,3.141355e-01,-6.282751e-01,3.319092e-01,-2.639955e-01,2.242911e-02,-1.520121e-01,6.048145e-01,1.319737e-01,-1.801944e-01,3.808733e-01,-2.034204e-01,1.205184e+00,1.555919e+00,3.194423e-01,-3.215211e-01,-6.978767e-03,-1.124553e-01,-2.163865e-04,8.241611e-01,7.206902e-01,-8.751506e-03,-1.198358e-01,9.692328e-02,4.340719e-03,-1.501675e-01,9.572277e-01,-6.372155e-02,-2.199067e-01,-1.647591e-01,1.786442e-01,-1.997591e-01,7.965376e-01,1.509809e-01,-2.232893e-01,-2.105772e-01,-4.704003e-01,3.358420e-01,-6.165171e-03,3.037867e-02,-4.465913e-01,4.259161e-02,
-9.484667e-01,-1.270491e-02,-1.182749e-01,6.625286e-02,-3.974170e-01,-1.184738e+00,2.860216e-01,-8.162238e-02,-3.067875e-01,-6.924575e-01,1.428907e-01,-5.908132e-01,-1.307799e-02,2.532179e-02,2.060294e-02,-6.786094e-01,-4.172047e-01,2.013411e-01,-2.012340e-01,-4.886469e-01,-7.916340e-01,1.723283e-01,-1.066664e-01,-2.237646e-01,-6.897412e-03,2.803348e-01,-7.677637e-01,1.040030e+00,-5.002654e-02,-3.262800e-01,-7.133402e-01,7.450507e-01,2.135556e-01,2.667868e-01,-1.467513e+00,-1.837454e-01,3.116019e-01,5.115769e-02,2.816291e-01,1.256737e-01,4.177430e-02,-9.740172e-02,4.023964e-03,-1.133998e+00,-3.737171e-03,2.248172e-02,-4.700327e-03,-5.436566e-01,-1.332354e-01,-1.779699e-01,
2.053257e-01,-4.179403e-04,8.429521e-01,-2.430803e-01,-6.954446e-01,-3.018737e-01,-1.310971e+00,5.614889e-02,1.920711e-01,7.745348e-02,-1.428031e+00,-8.903289e-01,3.872137e-02,1.203690e-02,2.060635e-02,-2.034696e+00,1.367016e-01,-1.130433e-01,-1.824251e-02,3.692545e-01,-2.211935e+00,-1.129652e+00,1.282814e-02,5.924709e-01,-6.996626e-03,-5.196548e-01,-1.352078e-01,-6.533459e-03,2.130325e-01,-5.480549e-01,2.730716e-01,-2.077493e-01,1.260538e-01,-1.834576e-01,5.790603e-01,-7.409346e-01,1.176462e-01,1.355158e-01,9.273226e-01,1.872056e-01,-5.165314e-03,-4.116811e-01,-3.198950e-01,5.534042e-01,-1.053348e+00,8.515869e-01,-4.771720e-03,-4.142351e-02,3.090494e-01,-8.396988e-01,
7.093094e-01,-5.033972e-03,-3.971269e-01,-7.274874e-01,-2.120422e+00,5.489056e-01,1.533720e+00,1.652330e+00,-5.365836e-02,8.273987e-01,-1.578001e-01,-1.734842e+00,-3.678042e-03,8.219070e-04,-7.491607e-03,1.238165e+00,-5.329102e-01,-2.752259e-01,-5.402623e-03,4.832807e-01,3.434446e-01,1.322671e+00,-8.195680e-01,1.004553e+00,-5.685105e-03,-3.852121e-01,-8.819615e-01,1.003935e+00,3.314043e-01,-1.163101e+00,2.477681e-01,-1.482051e+00,-3.955463e-01,-2.776481e+00,5.114318e-01,5.834385e-02,-8.987535e-03,7.528855e-01,-1.818944e-01,6.346038e-01,-8.021910e-01,-7.227508e-01,-6.884892e-02,-6.140769e-02,-4.546772e-01,-5.713289e-01,-2.607811e-02,-4.219722e-01,-2.397375e-01,-4.161640e-02,
1.370554e+00,4.531677e-03,3.463132e-01,-3.567984e-01,-5.460104e-01,6.471769e-03,4.641788e-02,2.622124e-01,-1.037652e-03,1.065624e-01,-9.023787e-03,-2.464033e-01,-2.137482e-01,-8.421629e-03,9.879557e-03,-7.868881e-01,1.540887e-02,-1.689507e-01,2.923738e-01,1.477204e-01,-4.973475e-02,-3.482974e-02,4.855196e-01,-2.075401e-01,-3.780185e-03,-8.756421e-01,-3.451366e-02,-6.328378e-01,2.208806e-01,-5.820813e-01,-1.545451e-01,-6.884880e-03,-1.000123e-01,-5.323516e-01,8.077353e-02,-1.268424e-02,7.478854e-02,-1.872023e-01,-3.633973e-02,4.499737e-01,-2.124797e-01,8.629368e-02,-1.220015e-01,-3.473790e-01,-4.390096e-01,7.095097e-01,3.139541e-03,-3.560158e-01,-6.127349e-02,-6.740201e-01,
5.027245e-02,-1.657038e-02,5.339073e-02,-6.736182e-03,3.349818e-01,4.980268e-01,7.992726e-04,-4.902463e-01,-5.357838e-01,-1.055253e+00,-2.717399e-01,1.165974e-01,-3.698772e-01,-5.691406e-03,-1.905195e-01,-1.710441e-01,6.190325e-01,-4.330608e-01,2.591799e-01,-5.628741e-02,1.896798e-01,7.066321e-02,-5.729331e-01,4.515499e-01,-6.720674e-03,-2.628698e-01,-1.422751e+00,5.208303e-01,-3.529176e-02,1.206363e-01,9.803670e-02,1.614418e-01,6.694161e-02,3.453049e-02,6.160900e-02,4.411912e-02,-3.232393e-01,4.270323e-02,2.858409e-01,-8.292415e-01,-1.155979e-01,-5.870686e-01,-5.857727e-03,-1.788342e-01,-2.308380e+00,-3.487293e-03,-6.307436e-03,9.555768e-02,2.465245e-01,-3.439469e-01,
1.706041e+00,-7.309525e-03,-1.487265e-01,4.990094e-01,1.101745e+00,3.979718e+00,-5.971363e-01,6.349046e-01,-9.090905e-02,1.628292e+00,4.738403e-01,-4.119853e-01,-9.280758e-01,-4.883924e-03,1.460925e-02,-1.013444e+00,-2.665027e-01,3.880310e-01,-8.932019e-01,1.193234e+00,-3.747495e+00,-4.817690e-03,6.362076e-01,3.085157e+00,-7.041833e-03,-4.568433e-01,-8.350216e-01,-1.261687e-01,1.359279e-01,-2.667248e-01,-1.578016e-01,3.304127e-01,4.488451e-01,-1.510040e+00,-4.401099e-01,2.960240e-01,-1.044709e+00,-9.671142e-02,-5.485858e-01,2.728015e-01,-1.278193e-01,-5.740771e-01,-2.656915e-01,3.254439e-01,-5.710518e-01,-7.247221e-01,-1.015100e-02,-1.801189e-01,3.700428e-01,2.279939e-01,
1.111410e+00,1.076799e-02,-7.468985e-01,4.473062e-01,-1.647561e-01,-8.207099e-02,2.342505e-01,-7.756491e-01,-4.713802e-03,-2.309746e+00,2.450742e-01,4.981547e-01,-9.414319e-02,-4.819062e-03,-6.138830e-02,-9.606671e-02,6.655145e-01,-1.495263e-01,3.280405e-01,-2.767724e-01,2.494463e-01,4.760210e-01,5.752371e-01,-1.332296e+00,1.592905e-02,1.037578e+00,-6.834479e-03,8.861625e-01,-2.826274e-02,-3.333088e-01,-6.116809e-02,-4.079945e-01,-5.928393e-02,-4.030908e-02,-3.052223e-01,7.112554e-02,6.622011e-01,5.592124e-02,-8.301430e-01,9.343687e-02,2.027253e-01,-9.759090e-01,3.268056e-01,1.023779e+00,-4.074097e-01,2.772220e-01,-7.281664e-03,-4.647515e-03,4.911340e-01,3.104386e-01,
-7.196084e-03,-1.204558e-02,-5.384849e-03,-5.356263e-03,-1.056854e-02,-5.262522e-03,-6.483001e-03,-3.295492e-02,-4.752669e-03,-4.957605e-03,1.031897e-02,4.023209e-03,-4.123733e-02,-5.245398e-03,-6.302732e-03,-1.015694e-02,-5.102246e-03,-1.143074e-02,-8.152699e-03,-6.366793e-03,-7.634392e-03,-6.691046e-03,-6.372758e-03,-1.857302e-03,1.322609e-02,-6.502891e-03,-1.284004e-04,-6.993905e-03,-5.298097e-03,-6.195151e-03,-2.660120e-02,1.254982e-02,1.582960e-03,-1.127753e-02,4.527685e-03,-6.221747e-02,-8.496328e-03,-3.779459e-03,-4.771804e-03,-7.629419e-03,-8.766184e-03,-7.272817e-03,-1.386872e-02,-4.803068e-03,-8.214991e-03,-5.588896e-03,-4.281163e-03,-7.963942e-04,-1.952445e-02,-7.572766e-03,
1.434248e+00,-1.334346e-02,1.077194e+00,6.431745e-02,7.427230e-02,-9.995234e-01,-6.193977e-01,2.668611e-01,3.895342e-01,9.312215e-01,1.638691e-01,2.059899e-01,-3.335195e-01,-8.422974e-03,8.316763e-02,-4.255821e-01,-8.571072e-01,2.953390e-01,-1.080394e-02,3.780792e-01,6.701759e-01,4.712478e-01,8.253659e-02,-5.314528e-01,-3.680010e-03,-5.061999e-03,1.050355e+00,2.487351e-01,9.445095e-02,-4.471806e-01,2.294058e-01,6.215661e-01,3.484766e-02,4.310427e-01,1.108579e+00,-7.363903e-02,7.993000e-04,-5.044926e-01,7.873040e-02,3.012409e-01,1.555137e-01,4.670492e-01,-4.194343e-01,1.131971e+00,-2.702757e-01,-1.036389e-02,-4.501499e-03,-4.213249e-02,4.775099e-02,-1.826825e-02,
5.037751e-01,-6.671712e-03,1.214247e-01,4.315384e-01,-1.109959e+00,-1.812056e+00,-2.847814e+00,-4.890931e-01,-1.751393e-01,1.666344e-01,6.351592e-02,-4.073135e+00,-1.085134e+00,-1.495839e-02,3.241755e-01,-1.541556e+00,-1.546492e+00,-1.627352e+00,-1.428332e+00,1.302293e+00,-4.479687e-01,-1.679993e+00,2.029727e+00,-1.067577e+00,4.386258e-03,9.598001e-01,-6.551349e+00,-1.850332e+00,-1.152941e-01,-2.601778e+00,1.444406e+00,8.587980e-01,-5.875337e-01,-1.001588e+00,-2.690623e-01,-7.159265e-01,-1.200555e-01,1.460846e+00,-3.899540e-01,-7.112442e-02,-9.389405e-01,3.040779e-01,-3.850401e+00,-1.308540e+00,-2.894515e+00,9.287717e-01,-1.972244e-02,-1.593882e-01,6.962072e-01,-3.529827e+00,
1.246423e+00,2.436359e-02,1.388224e-01,5.391594e-01,-8.995955e-02,1.866343e-01,-1.154380e+00,-2.785336e-01,5.714037e-01,2.280123e+00,7.565475e-02,7.484452e-01,1.220404e-01,-6.815383e-03,-2.860028e+00,-1.178185e-01,-3.531887e-01,-7.330385e-03,-3.193941e-03,5.327668e-01,-1.880739e-01,-6.718779e-03,-4.057539e-01,-3.666702e-01,-6.672753e-03,2.054049e-01,4.288054e-01,1.245955e+00,-1.722792e-01,9.880573e-01,-3.388469e-01,-8.968496e-01,1.236608e-01,-4.968538e-01,4.940333e-02,-7.280394e-02,9.652587e-02,-3.485890e-01,-4.057406e-01,-1.632665e+00,1.124420e+00,5.405356e-01,7.948887e-02,4.240609e-02,-2.349033e+00,1.210096e-01,2.849552e-02,-2.295624e+00,-5.466338e-01,-5.876725e-02,
8.646296e-02,-5.459665e-03,-7.284822e-02,5.288447e-02,-1.862065e-01,-2.861691e-01,-1.342827e-01,-4.183271e-01,6.867718e-02,-7.612756e-03,1.011947e-01,-9.769807e-03,-2.723977e-01,-4.865290e-03,-8.268614e-03,-6.955651e-03,7.338734e-02,-5.765969e-02,-1.238202e-01,7.338438e-02,-2.057295e-01,-7.316740e-03,-1.394491e-02,-1.528772e-01,1.580341e-02,-1.292177e-01,-6.302014e-01,-3.753230e-01,2.592469e-01,3.447599e-02,-7.622047e-02,-2.342528e-02,-2.248276e-03,-2.071189e-01,-3.349324e-03,3.340126e-02,1.733418e-01,-2.281754e-02,1.017688e-01,4.777145e-02,2.468338e-02,-1.465188e-01,-7.010541e-02,-9.352014e-02,3.383857e-02,2.700196e-02,4.119999e-02,3.834181e-02,-8.620527e-02,-8.172627e-03,
7.713521e-02,2.341805e-02,-8.906640e-02,4.066259e-01,-8.650254e-02,-2.078721e-01,-4.131729e-01,-1.011269e-02,8.238902e-03,3.241075e-02,2.015745e-01,1.374376e-02,-8.966401e-01,9.119249e-04,7.868110e-02,-8.623333e-03,-2.385702e-01,-4.051923e-03,2.471707e-01,3.067970e-01,-9.129063e-01,1.361824e-01,5.763825e-01,3.363073e-02,-5.036658e-03,-1.606017e-02,-8.348133e-01,-6.453568e-02,1.284957e-02,-3.422587e-01,1.719932e-01,4.143304e-01,-2.797448e-01,1.254944e+00,6.939944e-01,-3.495352e-02,1.059667e-01,1.274661e-01,2.333743e-01,-9.580323e-03,-2.130131e-01,3.462014e-01,3.220476e-01,5.745046e-01,-2.275547e-01,7.633858e-02,-6.452949e-03,-3.220226e-01,1.973422e-01,5.961164e-01,
-1.305659e-02,-3.848982e-04,-2.027707e-02,6.273421e-03,-1.646676e-02,-7.115110e-03,-1.056314e-02,-7.997852e-03,-8.600891e-03,3.467505e-04,-6.850376e-03,-4.826836e-03,-3.922600e-02,-5.484959e-03,6.632620e-03,-7.366555e-03,-7.657916e-03,-1.949756e-02,-6.437491e-03,-3.730984e-04,-5.271041e-03,-6.884306e-03,7.617981e-03,-8.650151e-03,-4.607018e-03,-5.178018e-03,1.713567e-03,-1.985970e-02,-8.813281e-03,1.395196e-02,-4.066206e-03,-7.029747e-03,-6.570317e-03,-6.724482e-03,-8.269278e-03,-7.817802e-03,-3.811729e-03,-5.667737e-02,-1.843435e-02,-6.874257e-03,-1.322668e-02,5.188071e-03,-5.100118e-03,-6.197733e-03,-7.079490e-04,-2.116201e-02,-5.621748e-03,-1.811522e-02,-4.927824e-03,-8.649791e-03,
