// The contents of this file are licensed under the Creative Commons
// Attribution 4.0 International License: https://creativecommons.org/licenses/by/4.0/
// Neural Network File Format by Kyle Julian, Stanford 2016 (generated on 04/02/2022 21:44:10)
7,5,5,50,
5,50,50,50,50,50,50,5,
0,
0,0,0,0,0,
0,0,0,0,0,
19791.091,0.0,0.0,650.0,600.0,7.5188840201005975,
60261.0,6.28318530718,6.28318530718,1100.0,1200.0,373.94992,
-5.309777e-02,-7.067716e-01,5.330063e-01,-3.479448e-01,3.211291e-01,
1.498300e-02,-5.867730e-04,-3.104310e-03,1.221290e-02,6.689960e-04,
-1.087352e+00,-1.012763e-02,1.326494e-02,-1.209296e-01,4.402639e-02,
-1.651759e+00,-1.185213e-01,3.295916e-02,-3.801333e-03,-1.168559e-01,
-1.339455e-01,1.143276e+00,6.510581e-01,-6.753768e-01,1.634531e-01,
-1.631407e-02,1.586407e-02,-1.148075e-01,-4.516577e-01,-1.638005e+00,
1.278320e-01,1.074426e-01,-6.469624e-02,-8.464836e-01,-1.358524e+00,
-1.073800e-01,9.973750e-04,2.281200e-03,-3.292680e-02,-1.457610e-02,
-2.298646e-01,2.651826e-02,-8.854400e-02,7.919178e-02,3.793911e-01,
-5.284809e-02,3.149559e-06,1.233212e+00,-6.640952e-02,6.167468e-02,
6.142242e-02,1.664415e+00,-5.745440e-01,-1.188925e-01,7.669497e-02,
8.020272e-02,3.582352e-02,-1.939898e-01,-9.372372e-01,6.016018e-01,
-1.685411e-01,2.305435e-01,-3.178000e-01,-1.504882e+00,1.155436e+00,
-1.249386e-01,-8.462306e-01,-2.144840e-01,-2.686255e-01,1.131586e-01,
2.013259e-02,-6.632172e-02,-4.392850e-03,-9.418973e-01,-1.787016e+00,
-3.239470e-02,-8.533338e-01,9.643607e-05,-4.122274e-01,7.283837e-02,
-8.893887e-01,8.371197e-03,7.406422e-02,-9.195774e-01,-4.231094e-01,
7.779938e-02,-1.193705e-01,3.793586e-02,-1.590745e+00,-4.766660e-01,
-9.702407e-02,-1.341614e-01,6.243892e-01,-3.843233e-01,4.999700e-01,
7.170490e-03,-1.091550e-04,-1.840480e-04,4.377530e-03,-5.996030e-03,
-1.088703e-01,-7.721476e-02,-1.079846e+00,3.376096e-02,4.520078e-02,
-6.847806e-01,-4.982668e-01,-2.284873e-02,4.086356e-02,-9.937915e-02,
-5.877227e-02,4.210267e-02,-5.509764e-01,-3.610357e-01,3.298639e-01,
-1.780901e-01,5.019879e-01,-8.604242e-01,1.583489e-01,-4.151467e-01,
-3.463422e-01,5.022402e-02,-8.691574e-03,-2.383458e-01,-1.648740e-01,
-8.646698e-02,3.132629e-02,-1.631031e-01,-5.744321e-01,-5.791896e-01,
-4.939067e-02,-1.124149e-01,4.952643e-02,-1.137770e+00,-1.361440e+00,
-3.811650e-01,1.127614e-03,1.849418e-01,-7.742538e-01,-1.107629e-01,
-3.360214e-01,1.168852e-02,5.653945e-01,1.133357e-01,-1.447538e-02,
2.289292e-02,2.151495e-01,-2.829737e-02,-1.782773e+00,-9.408136e-01,
-6.263897e-01,-4.289308e-01,4.617024e-01,-1.225460e-02,-1.186473e-01,
-5.542121e-02,2.743414e-05,2.066894e+00,-4.012042e-02,3.695884e-02,
-1.577618e+00,-7.172941e-02,5.582621e-04,-1.465916e-01,3.510224e-02,
-8.496885e-02,2.528372e-02,-3.718903e-02,1.081120e-01,-8.059946e-01,
-3.247743e-02,-8.334859e-01,-7.327418e-04,1.583529e-01,-1.308307e-01,
-2.055153e+00,-1.835513e-02,3.401894e-02,2.543632e-02,2.924312e-02,
-5.132492e-02,-4.292238e-05,8.559254e-01,-5.482374e-01,3.213863e-01,
-5.457159e-01,-1.073145e-01,4.654028e-01,-2.800587e-01,5.011915e-01,
-4.120257e-01,1.819341e-02,-5.703597e-02,1.832509e-01,5.430423e-02,
-2.213972e-01,-6.444733e-01,-1.072613e+00,-6.603663e-03,2.210054e-01,
9.938788e-02,-2.437862e+00,2.173634e-01,-1.148490e-01,-1.097918e-01,
-1.300257e+00,1.534707e-01,-1.145016e-01,4.772612e-02,-1.079209e-01,
9.991956e-02,-4.197545e-01,3.075314e-01,-1.878735e+00,1.213023e+00,
3.403102e-01,-1.102768e-01,-1.151908e-01,-9.874927e-01,-1.266464e+00,
-1.219126e+00,-1.088752e-01,8.295383e-02,3.595366e-02,-5.711011e-02,
1.451970e+00,-1.424850e-02,-8.420500e-03,-2.096778e-02,-1.264604e-01,
3.061984e-01,2.022159e+00,-1.977111e-03,-1.087546e-01,2.238711e-01,
-4.390920e-01,3.202434e-02,1.254944e-01,-1.286043e+00,-4.935250e-02,
-1.364305e-01,-6.729027e-02,1.451866e+00,2.241922e-01,-9.012912e-01,
-2.346016e-02,-1.151197e-05,-8.368110e-01,-6.535940e-01,3.770803e-01,
6.924772e-02,
-2.381810e-02,
-1.035733e-01,
-3.418314e-01,
-4.726128e-01,
-7.517676e-01,
-5.162147e-01,
-6.099740e-02,
4.086765e-02,
6.721392e-02,
4.290069e-01,
1.380970e-01,
-2.319425e-01,
-3.172291e-01,
-5.557495e-01,
2.718467e-01,
-6.907668e-01,
-3.446402e-01,
2.579914e-01,
-1.135310e-02,
-7.717192e-02,
-9.620963e-03,
1.472003e-01,
1.066024e-01,
-1.845764e-02,
3.961209e-01,
-2.254847e-01,
3.462968e-02,
-8.650101e-02,
-4.616487e-01,
-1.222059e-01,
-1.377302e-02,
-3.382857e-01,
1.625835e-01,
1.259004e-01,
-4.358541e-01,
4.895148e-02,
-1.684941e-01,
-3.511573e-03,
-2.532192e-01,
2.847964e-02,
-2.694393e-01,
-2.189468e-01,
-5.621656e-01,
-1.857099e-01,
6.400985e-01,
1.896075e-01,
-5.540152e-01,
-6.601202e-01,
5.978109e-02,
-2.855991e-01,1.450220e-02,2.101296e-02,-1.499045e-01,-1.146624e-01,-3.781629e+00,8.550019e-01,1.154750e-01,-5.125574e-01,1.861536e-01,1.181650e-01,-1.143181e-01,2.390149e-01,7.171503e-01,-3.059598e-01,-6.246106e-03,-1.298383e-01,8.823506e-04,7.457824e-01,1.243350e-02,-2.420521e+00,8.860406e-02,1.260628e+00,-1.220930e+00,4.630758e-01,1.149218e+00,3.949877e-01,-7.197084e-01,4.290941e-01,1.221784e-01,-4.726878e-01,-5.369351e-01,3.901716e-01,-5.741668e-01,-1.035896e+00,3.214085e-01,5.025622e-01,-7.923840e-01,-6.205917e-01,-3.623686e-03,-2.753275e-01,-4.508120e-01,-1.123808e-01,1.202950e-01,-3.039983e-01,-6.752352e-02,-5.599263e-01,1.943501e-01,-6.054140e-01,-9.149829e-04,
4.389435e-01,2.214390e-02,-1.370387e-01,1.312072e-02,4.547985e-01,-1.954107e+00,2.766019e-01,-5.721880e-02,-3.334801e-01,2.707646e-01,-8.169562e-01,1.605573e-01,-5.874712e-01,4.413004e-01,7.423701e-01,3.218767e-01,2.885891e-01,9.735076e-01,3.691817e-01,-6.738260e-04,-2.813973e+00,1.079906e-01,-1.039486e+00,8.011662e-01,-2.715164e-01,-5.694214e-01,2.550425e-01,-6.344778e-03,7.468712e-02,-1.217224e+00,-1.500966e-01,4.703088e-01,2.109250e-01,5.257425e-01,2.156084e-01,-3.899574e-01,2.484664e-01,1.612096e-01,3.585266e-01,-3.306670e-01,9.815744e-01,5.837097e-01,6.154210e-01,-1.264424e-01,-2.023671e-01,3.026874e-02,-4.814166e-01,1.263772e-01,-5.636745e-01,-1.183786e+00,
2.931121e-01,2.113620e-02,-7.677758e-02,2.030460e+00,-1.523763e-01,9.695773e-01,-1.404082e-02,1.291280e-01,2.120165e-01,7.489685e-02,2.305070e-01,-6.602230e-02,-9.740578e-02,8.947561e-01,-4.549854e-01,-2.944400e-01,1.994800e-01,2.196113e-02,2.966032e-02,-3.454440e-02,1.633439e-01,-4.047056e-02,-6.921515e-02,-5.095884e-01,4.075018e-02,7.405934e-01,2.805657e-01,-8.029444e-02,1.780265e-01,-1.589547e-01,1.685714e-01,-3.384513e-01,5.371947e-01,2.401315e-01,-5.148537e-01,1.510889e+00,-5.903951e-02,5.400699e-01,2.183551e-01,6.913497e-01,-6.452208e-01,1.333027e+00,1.135354e-01,-5.096232e-01,6.858307e-01,-4.004292e+00,1.202162e-01,-2.412243e-01,2.779829e-01,1.033432e-01,
9.567447e-06,-4.345060e-02,-5.623043e-02,6.679128e-01,-1.410631e-02,-3.101790e-02,-1.581264e-02,1.706520e-02,-5.774507e-01,-6.896126e-03,-1.841223e-01,-4.641929e+00,2.305860e-02,-2.362170e+00,-4.458003e-02,1.876971e-01,-3.339100e-02,-1.830640e-02,5.411915e-02,-4.671000e-03,7.917398e-02,6.047050e-01,-1.023826e+00,4.918727e-03,3.667378e-01,1.680258e+00,-7.233675e+00,5.709953e-01,-5.770726e-01,3.291480e-02,-2.764552e-01,-3.763653e-01,-4.563805e-01,5.326458e-01,-5.497102e-01,3.103198e-01,9.400868e-01,1.308038e-01,-1.648811e-01,-2.068534e-02,5.528146e-05,1.992245e-01,-4.812010e-02,-2.301470e-02,5.116779e-01,-1.666559e-01,9.334848e-02,-1.383570e-02,5.081304e-01,7.450087e-01,
-5.824956e-01,-5.067990e-02,2.272613e-01,-6.037688e-01,5.712826e-02,-3.280463e-01,3.914911e-02,2.355320e-01,4.619519e-02,7.235351e-04,1.300837e-01,3.585235e-01,3.594522e-01,1.280404e-01,1.922163e-01,-4.719349e-01,-7.602481e-01,1.755326e-01,-1.587780e-01,3.179420e-02,2.575723e-01,-1.680268e-01,-8.440828e-02,-2.911248e-01,3.854586e-01,8.359227e-02,2.008923e-01,3.216387e-01,-1.505115e-01,3.582176e-01,1.541879e-01,5.408190e-02,1.039165e+00,-2.333962e-02,-4.008589e-01,1.713641e+00,-4.010674e-01,1.325791e-01,1.881372e-01,2.014143e-01,3.783993e-01,6.195202e-01,-2.218953e-01,1.008368e+00,-2.472156e-01,-2.048879e+00,1.515931e-01,5.459284e-02,2.334318e-01,1.213899e-02,
-2.950212e-01,1.590340e-02,2.093006e-01,-8.553534e-01,-5.240699e-01,-1.051834e+00,-4.766226e-01,1.637580e-01,6.558455e-01,8.184472e-04,3.342833e-01,-3.109704e-01,4.188754e-02,6.770728e-01,2.324276e-01,-5.579612e-02,-4.930107e-01,3.514308e-01,-2.436337e-01,4.184070e-02,1.560201e-02,7.926994e-01,-2.723761e-01,-3.878359e-01,-5.383050e-01,-3.703169e-01,4.285288e-02,3.216678e-01,-9.018610e-02,-3.329752e-02,2.077225e-01,9.775549e-02,-1.437843e-01,2.479105e-01,-3.611305e-01,2.127451e+00,3.607948e-01,-2.630179e-03,8.420005e-02,2.310905e-02,-5.030977e-01,9.552161e-01,1.444449e-01,1.439828e-01,7.812843e-01,-9.505900e-01,-6.934186e-01,4.100791e-02,-2.358292e-01,3.188524e-01,
-2.118811e-02,2.076080e-02,4.390100e-02,5.135790e-03,-4.194039e-02,1.840250e-02,-1.210100e-02,-3.501460e-02,-4.825960e-02,-3.953965e-03,2.577585e-03,-4.844730e-02,-4.459620e-03,1.449015e-02,1.349230e-02,-4.208007e-03,-2.138540e-02,-4.938460e-02,-2.591006e-02,4.158840e-02,-4.142943e-03,1.207150e-02,-2.830094e-02,-1.981349e-03,9.749790e-03,-4.867617e-02,-6.260355e-03,-7.261730e-03,-1.259204e-03,-4.679830e-03,-3.726256e-02,4.559359e-03,-2.487100e-02,-3.426748e-02,-1.081588e-02,7.709700e-03,-9.921354e-03,2.796990e-02,-4.476730e-02,-3.592781e-02,5.926995e-03,-7.206240e-03,-8.000970e-03,4.952860e-02,-1.063810e-02,-1.057809e-02,-3.839162e-02,1.917870e-03,1.711310e-03,9.807603e-03,
-4.993714e-03,2.855630e-02,2.727900e-02,-2.347850e-02,-5.237829e-03,1.499920e-02,2.300190e-02,6.511490e-04,2.446400e-02,-1.581650e-02,1.685023e-02,-5.118070e-02,-2.126580e-02,5.089422e-03,-1.925860e-02,-1.624865e-02,3.394510e-02,-3.456740e-02,-1.593697e-02,5.428970e-03,-1.942344e-02,3.160770e-02,-3.894715e-03,-2.529060e-02,-3.022110e-02,-9.759707e-03,3.391356e-03,-1.339360e-02,1.167616e-03,-4.892810e-03,-3.239355e-02,-3.412597e-02,-3.887620e-02,-2.869513e-02,1.167182e-02,-1.972280e-02,8.980950e-03,3.273930e-02,1.500990e-02,2.435475e-02,2.383618e-03,-3.831040e-02,3.713400e-02,3.670760e-02,-2.082840e-02,-2.801092e-02,-3.170482e-02,8.675580e-03,2.077581e-02,-6.559636e-03,
9.171627e-03,-3.636220e-02,-2.736080e-02,3.877100e-02,-4.238781e-03,-4.736650e-02,-2.987580e-02,3.164450e-02,-1.962570e-02,-1.928000e-02,1.263608e-02,7.911060e-03,-4.793520e-02,9.249692e-04,2.816150e-02,-4.694700e-02,-2.515080e-02,3.151230e-02,-2.546647e-02,-4.688370e-02,-3.133534e-02,2.626820e-02,-1.748514e-02,-3.483523e-02,-5.568440e-02,1.453357e-02,-1.669828e-02,-3.843520e-02,-1.930506e-02,4.130270e-03,-5.696939e-03,-1.377802e-02,1.494010e-03,2.201245e-02,-7.967014e-03,-4.659270e-02,-2.562107e-02,1.556820e-02,1.317730e-02,-1.073336e-02,1.016241e-02,-5.235340e-02,-4.134600e-04,-3.542150e-02,-4.517660e-02,-7.305454e-02,-4.952317e-02,3.857020e-02,3.792890e-02,-3.067380e-03,
-8.368945e-01,-6.655820e-03,-4.363165e-01,7.760032e-01,-1.279532e-01,1.771797e+00,5.503960e-01,-5.646620e-02,-2.794241e-01,9.721365e-02,8.618012e-02,-3.416407e-01,-5.830126e-01,-2.215097e+00,-1.085954e-01,-5.757636e-01,-1.050969e-02,-1.299579e-01,1.075778e+00,-3.748100e-02,5.611504e-01,5.952288e-01,-3.984351e-01,-7.173172e-01,-4.852657e-01,1.052419e-01,9.041890e-03,-4.730341e-01,5.284047e-01,1.065725e-02,1.201360e-01,-9.548252e-01,-1.166725e-01,7.950993e-01,-9.332757e-01,-8.258098e-01,-2.985142e-01,-1.251401e+00,2.325314e-01,4.774334e-01,1.568142e+00,5.771468e-01,-2.178264e+00,5.167205e-01,8.983440e-01,-3.146002e-01,3.981012e-01,7.266293e-02,1.587867e-01,-2.941936e-02,
-6.851920e-01,-2.045480e-02,-7.113574e-01,-4.489457e-01,8.644005e-01,6.627616e-01,-8.022746e-01,8.362710e-02,8.622363e-01,-1.032845e+00,-1.138115e+00,8.347017e-01,-3.979628e-02,4.133832e-01,-3.178139e-02,4.416251e-01,-4.320028e-01,9.850329e-02,-3.498469e-01,-3.529080e-02,8.063141e-02,2.042566e-01,-1.130184e-02,3.685496e-02,2.850407e-01,1.343914e-01,3.257346e-01,7.139055e-01,-9.086992e-01,-3.036987e-01,-1.657017e-02,-6.051021e-01,-1.452810e-01,-7.985609e-01,-7.805981e-03,-5.782576e-01,-4.214742e-01,-2.982186e-01,3.030320e-02,-6.833836e-03,-1.027681e+00,2.029798e-01,5.643063e-01,7.556578e-01,1.630925e-01,7.076297e-01,-8.755748e-01,-4.372890e-02,2.037301e+00,-1.193343e-01,
-6.555344e-03,3.957150e-02,-3.159840e-02,-4.433260e-02,5.711673e-03,-1.485600e-02,2.162910e-02,5.094470e-02,9.750100e-03,-3.369433e-02,-3.850178e-02,1.230630e-02,-4.984290e-02,2.108069e-02,2.191650e-03,-3.825186e-02,1.685680e-02,-1.690490e-02,9.870553e-03,3.410450e-02,-4.894539e-03,-5.449980e-02,-6.107798e-03,-4.090715e-03,-4.703120e-02,-3.437062e-02,-4.248313e-02,-1.351780e-02,-4.248556e-02,-2.481400e-02,-4.863335e-03,-7.208634e-03,2.914020e-02,-4.993765e-02,1.856261e-02,1.734060e-02,-2.333279e-03,-2.503270e-02,4.438910e-03,-1.900122e-02,-9.044058e-03,2.656400e-02,3.535630e-02,3.426270e-02,-1.672170e-02,-1.970465e-03,-2.572196e-02,-3.351770e-02,2.421029e-02,-7.313840e-04,
-4.244799e-01,1.570280e-02,-1.118468e-01,-1.030640e+00,-5.371457e-01,-3.411199e-01,9.022511e-01,1.576980e-01,-4.969567e-01,3.759331e-01,-4.686693e-01,-3.111251e-01,-1.763351e+00,-1.183549e-01,1.290798e+00,-8.023087e-01,2.157875e-01,-7.215589e-01,2.996081e-01,4.425360e-03,-1.814019e+00,-2.801313e-02,-1.435925e-01,-3.652831e-03,4.490713e-01,6.290896e-01,7.224953e-02,-6.020527e-01,3.229504e-01,9.422573e-01,3.500900e-01,-1.357477e+00,-3.656439e-02,3.675818e-01,-2.094031e-01,1.372194e+00,-9.046273e-01,-1.203338e-01,-1.504885e-01,1.028047e-01,-8.833434e-02,8.138884e-02,-1.597969e+00,-5.237667e-01,-2.168102e-01,6.632287e-02,-3.656231e-01,-1.663410e+00,3.977408e-01,-9.319090e-01,
-4.678660e-01,-3.347670e-02,-3.444319e-01,-7.234088e-02,-5.968467e-02,2.551115e+00,6.655867e-01,2.758680e-01,-8.535615e-01,-1.804911e-01,2.122745e-02,1.017220e+00,3.425885e-01,3.267308e-01,-4.022699e-02,-2.306191e-01,1.867092e+00,6.951926e-01,-1.910605e-01,6.055480e-03,6.318936e-01,-1.552686e-01,-1.307393e-01,-1.130238e-02,-7.741086e-02,-3.687329e-03,-3.195803e-01,-6.722005e-02,-6.063520e-01,2.198970e-03,4.162403e-01,5.392163e-02,2.458126e-01,2.115429e-01,4.190882e-01,4.032240e-01,7.920527e-01,5.787676e-01,6.021706e-01,8.508390e-01,5.669718e-03,2.758863e-01,-9.681693e-01,7.514516e-01,-2.479501e-01,-2.637707e-01,1.628351e-01,8.381302e-01,3.822256e-02,6.394658e-01,
5.103872e-01,-7.380010e-03,-4.802465e-02,1.944360e+00,-3.912480e-01,9.610617e-01,9.047326e-01,1.904040e-01,-2.767268e-01,1.410635e-01,-1.331019e-01,-1.795115e-02,-9.262910e-01,-8.283069e-01,-1.345202e-01,-6.611408e-02,1.204987e+00,-1.536110e-02,2.988106e-01,5.861270e-03,-1.210129e-01,1.896408e-01,2.451083e-01,-8.122559e-02,5.194445e-01,-1.042050e-01,8.125245e-02,2.461980e-01,3.943135e-01,-1.330673e-01,-4.320110e-01,8.120361e-02,7.528052e-01,5.857048e-03,1.920342e-01,1.962219e+00,-3.317362e-01,2.515517e-01,-3.556876e-01,-1.683141e-01,1.951174e-01,1.267898e+00,4.438800e-01,-5.073062e-01,3.530130e-01,-1.720337e+00,5.972332e-02,-4.577119e-01,-4.125784e-02,-8.417134e-01,
8.113188e-02,8.672990e-03,5.552352e-01,-3.644938e-01,-2.265396e-01,-2.767320e+00,1.715794e-01,7.530510e-02,5.570933e-01,-3.445489e-05,3.389237e-01,3.715271e-02,-3.864042e-01,4.019093e-01,-3.345939e-01,1.728969e-01,2.474261e+00,-4.391856e-01,-7.517936e-03,-3.706920e-02,-2.041417e+00,-9.403145e-02,-8.448201e-01,-1.282575e-01,4.841048e-01,-3.805539e-01,6.459316e-02,1.849663e-01,6.701176e-01,4.049911e-01,-2.453313e-01,-1.202466e+00,2.597724e-01,-8.618115e-03,2.690632e-01,7.290590e-01,-6.277872e-02,-2.375977e-01,4.654284e-01,3.684580e-01,3.515694e-02,-9.543443e-02,-1.083193e-01,4.528744e-01,-3.827736e-01,-1.865545e-01,1.220678e-03,-1.137508e+00,8.825610e-02,-2.589298e-01,
-5.764853e-01,1.703790e-02,8.514306e-01,8.793268e-01,4.364621e-01,4.161206e-01,-5.747442e-01,1.396450e-01,3.219674e-01,-1.277780e+00,1.010253e+00,1.818721e-01,1.873558e-01,1.595351e-01,2.274277e-01,-1.040353e+00,1.035077e-02,-6.895381e-01,-8.221136e-01,-2.410070e-02,1.603590e-02,-1.564873e-01,8.042159e-01,6.648605e-01,6.960148e-01,2.298553e-01,-7.252149e-01,-2.983035e-01,-6.562041e-01,1.315173e+00,2.637475e+00,-1.058660e-01,9.287136e-01,-7.186465e-01,6.873496e-04,1.196877e+00,-8.407161e-01,-6.005768e-01,1.974918e-03,-2.857729e-01,-4.476136e-01,1.060210e+00,9.358577e-02,-6.928744e-01,1.679023e-01,-7.349094e-01,-7.471204e-03,-1.951685e-01,5.102635e-01,3.437990e-01,
-5.613646e-02,-2.263840e-02,8.787313e-01,-2.984008e-01,-1.940928e-01,-5.859103e-01,-7.705726e-01,1.730780e-01,9.219676e-01,2.313661e-01,-1.784922e-01,-9.554900e-01,-4.433430e-01,1.342249e-01,2.356261e+00,7.895003e-02,4.031536e-01,1.679880e+00,2.232507e-01,3.752020e-02,-7.682697e-06,2.458018e-01,-5.982392e-01,1.408327e-01,-1.892257e-01,-1.313156e-01,-8.191208e-03,1.720747e-01,1.078024e+00,-2.031007e+00,5.355767e-02,-1.016193e+00,2.188805e+00,1.553519e+00,-7.075528e-01,1.001907e-01,-1.826022e-01,1.265586e-01,-7.126579e-01,2.362403e-01,5.574590e-04,-2.191215e-02,-6.188759e-01,1.080644e+00,-5.433556e-01,-2.557332e-01,-7.799514e-02,-3.644189e-01,5.980041e-01,-3.253696e-01,
6.017294e-01,-1.830650e-02,-7.561706e-02,9.414181e-01,1.138753e-01,1.787056e+00,3.319057e-01,1.375170e-01,-1.821945e+00,-1.872156e-01,-2.232868e-03,-4.688224e-02,-3.228973e-02,-2.225920e+00,5.628521e-01,2.285581e-01,2.550407e-01,4.285860e-01,5.638191e-01,2.745070e-03,7.331771e-03,-7.410818e-02,7.454113e-02,4.144147e-01,-1.551233e-01,-1.258101e-01,6.241227e-02,-3.189694e-01,2.616332e-01,5.387238e-01,-1.618224e-01,3.330181e-01,5.162311e-01,-4.653675e-01,5.382214e-01,6.782497e-01,-2.078661e-01,-1.280601e+00,8.891164e-02,-8.615690e-02,-4.256495e-01,7.935884e-01,2.961932e-01,9.215909e-01,1.761370e-01,-1.549570e+00,4.107123e-01,3.315782e-01,-5.329181e-01,4.112784e-01,
-1.774795e-01,-2.913040e-02,-2.419928e-01,3.631716e-01,5.193420e-02,9.002749e-01,-1.931807e-02,1.161150e-01,4.713984e-01,7.082553e-02,-2.278800e-01,1.468501e-02,4.709906e-01,1.215876e+00,-2.570052e-01,-3.221800e-01,-6.740357e-01,2.221410e-01,-1.638694e-01,-1.759100e-02,1.447636e-02,-2.282486e-01,-1.331448e-01,-6.847121e-01,5.608698e-01,-2.201775e-01,3.141594e-01,5.796769e-01,3.386445e-01,3.816948e-01,-5.582596e-01,-2.564370e-02,6.242769e-02,-4.747726e-01,2.173083e-01,-6.158478e-01,-2.342879e-01,-1.726097e-01,-2.473820e-01,-4.247325e-01,-1.029721e+00,6.092337e-01,2.331001e-01,-3.197829e-01,-1.243582e-01,9.781889e-02,-3.973019e-01,6.372570e-01,-2.106791e-01,-6.010265e-02,
-2.441392e-01,-1.592570e-02,6.795691e-01,2.109462e+00,1.789430e-01,2.918571e-01,9.023126e-02,2.005630e-01,-1.618500e-01,-4.953621e-03,-5.043573e-02,5.112940e-02,9.444901e-02,6.130869e-02,1.827940e-02,-1.392774e-01,1.083739e+00,3.760321e-02,-4.378741e-02,-3.146180e-02,5.322924e-02,2.154426e-01,3.149663e-01,5.407233e-01,5.766779e-01,1.568085e-01,8.894050e-02,2.169127e-01,-5.464800e-02,1.148979e-01,1.274180e-01,1.978424e-03,1.525099e+00,2.606988e-01,-6.012923e-03,2.290436e+00,1.073874e-01,-4.238889e-02,6.947047e-02,2.821655e-01,1.102699e-01,1.408978e+00,6.795385e-02,-5.261912e-01,5.581421e-01,-5.548009e+00,-6.033061e-02,-1.285293e-01,-1.369878e-02,1.212453e-01,
-1.179569e-01,-1.305080e-02,1.893659e-01,3.325950e-01,3.317871e-01,2.108392e+00,9.449939e-02,1.829990e-01,4.243274e-02,-5.223839e-03,-3.997850e-01,-6.639668e-01,8.267149e-01,6.789352e-01,-4.619386e-01,5.399088e-01,-1.617382e+00,-5.125719e-02,1.452131e-01,2.920440e-02,-2.497410e-01,1.965531e-01,1.266450e-01,-4.597777e-01,5.311181e-01,6.697536e-02,-2.718662e-02,-9.062245e-01,3.902936e-01,2.347836e-01,-2.433169e-02,-7.214574e-01,7.801616e-01,9.527796e-01,-1.957490e-01,7.308321e-01,6.196637e-01,3.246533e-01,-7.868197e-01,2.226721e-01,-1.046692e+00,3.441175e-01,-4.294699e-01,6.569561e-01,2.158357e-01,4.393708e-02,-1.634321e-01,-9.818806e-02,-3.896926e-03,-2.810093e-02,
-4.599145e-02,-2.923390e-02,-7.115648e-01,6.031880e-01,3.458104e-01,3.012665e+00,-1.571788e+00,1.769080e-01,2.445425e-01,3.536759e-02,-1.452481e-01,-9.254411e-01,-3.380306e-01,-1.265057e+00,-2.902255e+00,6.932186e-01,2.143544e+00,-3.444609e-01,7.583519e-02,1.487170e-02,6.601894e-02,-1.229174e+00,1.047340e-01,-2.124962e-02,-7.203415e-03,1.050664e-01,1.826317e+00,-1.027591e+00,1.320637e-01,7.822378e-01,1.675701e-01,-6.055730e-01,-7.060543e-01,2.217391e-01,3.140704e-01,1.235909e-01,-1.131348e+00,-3.870273e+00,3.779291e-02,-5.571508e-02,-9.052251e-03,2.622002e-01,-3.598866e-01,-4.148803e-01,6.325765e-01,-7.408212e-01,2.541434e-01,7.398036e-01,-1.617294e-01,-1.823227e-01,
-6.717351e-01,4.329280e-02,1.301474e-01,-3.545191e-01,3.370922e-01,-3.732889e-01,-1.499599e-01,2.391200e-02,-2.564516e-02,-7.336193e-03,3.539962e-01,-7.576624e-01,3.088093e-01,-2.351290e+00,-1.059075e-01,9.650366e-02,-5.553278e-01,4.834866e-01,3.356375e-01,3.664690e-04,-1.276144e-02,-4.244820e-01,-5.400234e-01,-5.673020e-01,1.415393e-01,4.365212e-02,3.886003e-01,-2.029576e-01,3.693699e-01,-5.996276e-01,6.703385e-01,-4.872325e-01,1.327871e-01,-6.034053e-02,6.579507e-06,6.830174e-02,1.196123e+00,-3.982808e-01,-1.859160e-01,-7.638470e-01,-5.377193e-01,2.187103e-01,-5.277829e-01,1.076605e+00,-1.708574e-01,1.499297e-01,2.829987e-01,2.055620e-01,-1.416425e-01,1.126808e+00,
-2.678790e-01,-1.449210e-02,-8.807863e-02,-8.318861e-01,-1.231970e-01,-1.856599e+00,1.200184e+00,1.116580e-01,-6.620038e-01,7.015920e-02,2.840873e-01,-1.224907e-01,3.798340e-01,-1.628062e+00,-7.403657e-01,1.678350e-01,7.121269e-01,-4.341973e-01,-2.285622e-01,5.097390e-03,-6.341747e-03,9.382102e-01,-5.580556e-02,2.686801e-01,-4.674312e-02,-5.826828e-01,2.138993e-01,1.196832e+00,7.185082e-01,3.248968e-01,-1.075282e+00,-1.598424e+00,7.848464e-01,-5.625374e-01,5.578052e-01,1.501106e+00,2.884204e-01,5.189288e-02,1.957210e-01,-5.428085e-01,-1.328897e-01,-1.959782e-01,-1.117755e+00,5.225036e-01,3.934115e-01,-3.278497e-01,-2.299681e-01,-1.744634e+00,-5.479368e-01,-6.638119e-01,
-4.917198e-01,4.018480e-02,3.328698e-01,2.491925e-01,-9.270621e-02,-5.848805e-01,-5.279546e-01,2.732840e-03,1.609207e+00,-1.405672e-01,1.329162e-02,3.456504e-01,-3.236561e-01,2.325254e+00,6.487035e-01,-1.178073e+00,5.940918e-01,-1.239147e-02,-1.381594e+00,-1.068350e-02,2.991609e-01,5.347542e-01,8.151984e-03,1.304555e-01,-1.277900e-01,6.185703e-01,1.207488e-01,4.442376e-01,-4.086977e-01,1.683532e-02,3.227144e-01,-4.784139e-04,-2.644678e-01,-8.782584e-03,-4.915391e-01,-8.907042e-01,5.748776e-01,6.669839e-01,1.957716e-01,-5.228771e-03,-3.916319e-01,-2.549273e-01,3.317380e-02,2.080523e-01,-9.801095e-02,6.505277e-01,1.385617e-01,-2.073875e+00,5.287613e-01,2.331594e-01,
-2.563604e-03,5.561710e-02,3.335260e-01,7.009119e-01,4.481400e-01,-3.798706e+00,-7.138833e-01,2.291120e-01,7.904521e-02,-1.612939e+00,-1.362736e-01,3.458868e-01,3.765790e-01,-4.533313e-01,4.862188e-01,9.850039e-02,1.391764e+00,2.970069e-01,-4.913413e-01,3.601650e-02,1.990036e-01,-4.909882e-01,1.690376e-02,-2.801456e-01,5.272105e-01,-1.932181e-01,3.465423e-02,5.542091e-01,-2.085312e-01,-1.779945e-02,-3.657593e-01,-1.847570e+00,9.644968e-03,-4.816678e-02,-7.724530e-02,-7.317473e-01,-8.574308e-01,4.743045e-01,2.493239e-01,-1.105166e-01,2.858449e-02,2.109168e-01,-4.581277e-02,6.568546e-01,-4.393574e-01,-1.169702e-01,-3.815236e-01,-6.010534e-01,4.314302e+00,-1.590591e-01,
1.396440e-02,2.298240e-02,-8.498330e-05,3.406630e-02,-7.331720e-03,3.860750e-02,-5.418880e-02,-3.595490e-02,-4.132400e-03,-1.317560e-02,-4.401310e-02,3.193500e-02,-2.814500e-02,8.734720e-03,5.848920e-03,-3.809280e-02,-8.628380e-03,-1.013580e-02,4.782880e-03,4.214010e-04,-3.054500e-02,-3.276780e-02,6.135480e-04,-3.771690e-03,-3.971960e-02,-2.345860e-03,-3.303330e-02,-3.249340e-02,1.746160e-02,-1.377240e-03,1.941250e-02,2.100550e-02,2.757270e-02,1.494760e-03,-2.215900e-02,-1.646210e-02,2.870990e-02,-3.837680e-02,-3.429590e-02,-3.369310e-02,-6.178810e-03,-3.270300e-02,-4.675790e-02,4.071840e-02,-2.007510e-02,-3.207660e-02,4.793880e-03,2.068770e-03,3.472420e-03,4.240840e-02,
1.344201e-01,3.866790e-02,8.567538e-02,3.306672e-01,-3.743126e-01,-9.733934e-01,3.445003e-01,-2.398160e-02,2.458907e-01,5.999072e-01,4.707667e-02,-5.203490e-01,2.696317e+00,7.547702e-01,-3.750302e-02,5.741100e-02,-5.626941e+00,1.407151e+00,5.744392e-01,-4.733700e-02,-8.003220e-03,-3.463807e-01,7.642096e-01,-3.091537e-01,7.265659e-01,-4.958079e-01,2.954569e-01,-8.283622e-01,-9.791584e-02,-7.591035e-01,-4.415695e-01,-7.653097e-01,6.785399e-01,9.297286e-01,-3.204766e-04,-8.046360e-02,-8.951388e-03,2.319015e-01,-1.126833e-01,7.554547e-02,-2.364304e-01,-1.664206e-01,-2.705245e+00,-1.239612e-01,-5.347934e-01,-9.186818e-02,1.047156e-02,-1.861546e-01,-1.135152e+00,-1.424347e-01,
2.962812e-01,3.167350e-02,3.536375e-01,9.709226e-01,3.748937e-01,-2.553964e-01,8.010834e-01,2.487210e-01,-2.159263e-01,2.303242e-01,-1.158280e+00,-1.630191e-04,-7.425057e-01,1.303901e+00,7.668698e-01,8.879786e-01,1.530052e-01,7.284207e-01,3.939401e-01,-2.901060e-02,-2.603477e+00,1.719520e-01,-5.656801e-01,6.043498e-01,7.343820e-01,-4.051593e-01,3.902167e-01,-2.904280e-01,3.485061e-01,-1.482786e+00,3.522271e-01,4.881411e-01,4.226650e-01,-2.375205e-02,1.298358e-01,3.276870e-01,2.127410e-01,1.304792e-01,2.335815e-02,-1.452279e-01,1.689707e-01,8.085315e-01,7.942915e-01,-2.462854e-01,7.232905e-01,-2.193827e-01,-7.272834e-01,4.748751e-03,-3.878093e-01,-8.696660e-01,
-2.296808e-01,3.343270e-02,-1.836996e-01,-4.219539e-01,1.078073e-01,2.701316e-02,3.767577e-01,2.116090e-01,5.217652e-01,2.859393e-02,-1.153524e+00,-1.491846e-01,-1.781043e+00,-1.302605e+00,1.468273e-01,2.118957e-01,1.675565e+00,-4.355927e-01,8.673839e-02,-2.287500e-02,-7.802205e-01,7.526667e-01,1.038359e+00,1.384077e-02,-3.820207e-01,-3.817226e-01,-1.250574e-01,1.162394e-01,-2.604192e-01,4.131051e-01,-8.679205e-02,-3.018183e-01,-2.376991e-01,5.271519e-01,-1.810404e-03,-6.839851e-02,5.052315e-01,-2.200302e-01,-7.849222e-01,-1.409097e+00,-1.422422e-01,4.386467e-01,1.450873e+00,8.744667e-01,4.463494e-01,5.943153e-02,-1.305285e-01,-1.650123e+00,-3.464077e-01,2.537220e-02,
-4.203240e-03,-1.188680e-02,-6.293700e-02,-3.219670e-02,-2.074598e-02,-5.432890e-02,-3.725170e-02,3.607750e-02,-5.530170e-03,-2.895772e-02,1.385527e-02,-1.990930e-02,2.022500e-02,2.733312e-03,-6.510250e-03,-7.769938e-03,1.091190e-02,-4.043330e-02,3.038327e-03,1.520980e-02,4.232252e-03,-2.738990e-02,-8.952863e-03,-6.387528e-03,-4.678340e-02,1.400127e-02,-7.806829e-03,-5.596960e-03,-6.267210e-03,-3.344910e-02,-2.697646e-02,6.120305e-03,2.002850e-02,-7.180966e-03,-1.802799e-02,-4.206220e-02,9.274592e-03,2.592420e-02,1.397400e-02,-2.490805e-02,-4.658949e-03,-1.463650e-02,9.903080e-03,3.363700e-02,-3.037150e-02,-4.100848e-02,-4.035187e-02,3.194790e-02,2.574928e-02,-2.217086e-02,
-8.915531e-01,7.685920e-03,-3.008637e-01,2.848047e-01,7.918016e-03,-1.635427e+00,-5.760514e-02,1.823710e-01,-1.482353e-02,-1.183667e+00,7.008844e-01,2.419585e-01,3.903300e-01,-9.720800e-01,-3.859836e-01,-8.033833e-01,4.785403e-01,-6.257341e-01,-1.658223e+00,2.721020e-02,6.647162e-01,2.045342e-03,5.942925e-01,6.801385e-01,3.048953e-01,-2.599516e-01,-8.856288e-01,-7.321824e-02,-2.439512e-01,1.514172e+00,2.138488e+00,-5.639427e-01,3.927739e-03,-8.211896e-01,-3.650086e-01,-3.432626e-01,-1.071694e+00,-4.151695e-01,3.024376e-01,-6.718169e-01,-8.159382e-01,3.505554e-01,2.160987e-01,-7.196730e-01,2.071613e-01,1.074693e-02,3.687299e-01,4.085787e-02,1.964391e+00,8.475041e-01,
1.766538e-04,-2.437110e-02,2.456409e-01,1.558744e-01,1.445721e-01,-2.448218e+00,3.622940e-03,2.559580e-01,2.178083e-01,-5.802662e-01,1.724673e-01,2.564047e-01,8.230472e-01,8.290860e-01,-7.672575e-01,4.383564e-01,2.439617e+00,-2.339524e-02,-1.484757e-01,1.295540e-02,-2.682762e-01,-1.216033e-01,9.529167e-02,4.172837e-01,-2.178252e-01,-2.777880e-01,-1.713260e-01,1.147849e+00,-1.685681e+00,1.547005e-01,-1.138689e+00,-1.745474e+00,8.823023e-01,-6.407343e-01,6.633247e-01,6.549617e-01,1.215296e-01,-4.017665e-01,6.114511e-01,-5.572999e-01,6.432035e-01,-1.034619e-02,-6.538426e-01,-9.942613e-01,6.476281e-01,-1.476293e+00,4.206268e-02,9.136218e-03,-1.697290e+00,-1.022267e-01,
8.786684e-01,2.420270e-02,4.168893e-01,1.860425e+00,-1.159406e+00,-2.739718e+00,1.048890e+00,2.891990e-03,-1.915561e+00,-6.789249e-03,7.800566e-01,-3.353943e-01,-1.793270e+00,-1.713036e-03,6.971477e-01,-7.382677e-01,-3.318587e+00,1.575365e+00,-1.034405e+00,9.202070e-03,-2.515596e+00,-9.082018e-01,-3.218628e-03,1.014417e+00,-1.809728e+00,5.050068e-01,-9.700866e-01,8.724815e-02,-6.170491e-01,-7.646478e-02,1.686128e+00,5.646018e-01,-3.097415e-01,-7.877202e-01,-4.036637e-01,1.286753e-01,-8.287983e-01,1.349095e+00,-7.640589e-01,-1.758056e-06,-1.654703e+00,-1.225491e+00,7.175440e-01,-1.533743e+00,-3.763417e-01,-6.973264e-02,5.076434e-01,-2.636625e+00,2.531867e-02,-4.385443e-01,
-5.014013e-01,5.935270e-02,-3.865577e-01,1.304340e+00,6.044410e-02,3.083455e+00,4.659789e-01,1.856900e-01,1.135261e+00,-4.841258e-01,3.067355e-01,-7.827119e-01,-4.091696e+00,-1.420795e-01,-2.651526e-02,-3.891695e-04,-1.030013e+00,-4.556644e-01,6.828226e-02,-3.647970e-02,-7.427559e-01,8.104566e-01,2.913590e-01,6.751192e-01,5.069152e-01,2.194267e-02,5.313305e-01,2.884743e-01,-3.918281e-01,4.436470e-01,6.872931e-03,1.393459e-01,1.760452e-01,4.178269e-01,-8.331843e-02,-1.262266e+00,-1.095723e+00,-4.913855e-01,5.215115e-02,-1.807268e-01,-5.877436e-01,-1.065608e-01,2.597043e+00,5.217915e-02,1.501265e-01,2.782249e-01,-7.906317e-01,2.301946e-02,1.538465e+00,-9.703831e-02,
-4.148084e-02,2.886270e-02,3.358590e-03,-5.232630e-02,-3.634200e-02,7.477750e-03,4.137160e-02,3.615960e-02,1.734170e-02,3.787629e-03,-2.911424e-02,7.203520e-03,2.342120e-02,-3.871570e-03,7.155590e-03,-4.595570e-03,-4.373500e-02,3.174270e-02,-6.811508e-03,-1.734240e-02,-2.278625e-03,-3.724020e-02,-4.446705e-03,5.157799e-03,-5.130600e-02,2.203676e-03,6.396919e-03,-1.786350e-02,-3.646639e-03,-1.358070e-02,-6.940293e-03,-8.509793e-03,-1.801580e-02,1.837955e-02,-3.641310e-02,-3.118840e-02,-6.465020e-03,-5.367890e-02,-3.077140e-02,-5.217790e-03,1.526660e-02,-2.856960e-02,2.512110e-02,-2.694650e-02,1.952700e-02,-4.965974e-02,-2.115386e-03,-3.431390e-02,-7.889722e-03,-2.183987e-02,
1.974983e-01,5.244270e-02,6.723897e-01,2.118602e+00,1.537303e-01,-2.256004e-01,1.456222e-01,1.852370e-01,1.822308e-01,-5.796352e-02,1.216721e-01,-1.014238e-01,-1.089499e-01,-2.415033e-01,-3.072632e-03,3.411029e-01,-1.866942e-01,-1.632587e-01,-8.357249e-02,3.444700e-03,-1.700814e-01,2.325911e-01,3.647510e-02,4.789684e-02,5.311643e-01,6.809883e-02,-1.388835e-01,-2.648508e-01,1.109238e-01,2.306079e-01,7.525623e-02,-6.733732e-02,1.423460e+00,2.476870e-01,-7.741380e-02,2.454243e+00,-1.632949e-01,1.423048e-01,-5.394775e-02,-1.925210e-01,-7.347193e-02,1.440576e+00,-4.316599e-02,5.615804e-01,6.588969e-01,-3.287724e+00,1.795654e-01,-3.217830e-02,9.292407e-02,8.764656e-02,
6.780034e-01,3.855490e-03,-1.668208e-01,1.803351e-01,3.102169e-01,3.793218e+00,2.523693e-01,2.407180e-01,-9.373117e-01,2.169312e-02,-3.547580e-01,1.789648e-01,4.251685e-01,4.685256e-01,4.701596e-01,-1.630589e-01,-8.812658e-02,-6.685661e-01,6.645838e-04,-4.525850e-02,7.437011e-01,1.004618e+00,4.733071e-01,6.741309e-01,4.037780e-01,2.494041e-01,-4.096792e-01,1.177121e+00,-4.781503e-01,5.803146e-01,3.428800e-01,4.811345e-01,-1.140818e-01,3.964218e-01,-5.641460e-02,7.969511e-01,9.862772e-02,6.584061e-01,1.376205e-01,2.116848e-01,-2.092879e-01,6.694110e-01,-6.111196e-01,3.745208e-01,4.714393e-01,4.619085e-01,-1.170681e+00,-3.723989e-01,-4.575856e-01,-2.495055e-01,
4.014803e-01,-2.932120e-02,-2.899558e-01,-3.584372e-02,5.367892e-01,4.589136e+00,1.877716e+00,2.549690e-01,1.177256e+00,2.197877e-01,1.838313e-01,-2.107510e-01,6.250552e-01,-1.234192e+00,-3.580554e+00,7.696756e-01,-1.511959e+00,-1.972468e+00,8.716628e-02,1.994570e-03,2.756098e-01,3.964552e-01,-2.629237e-01,7.559629e-02,-1.368354e+00,-3.432232e-01,9.401280e-01,-1.104604e+00,-1.286116e-02,1.976067e+00,-1.139770e+00,2.437383e-01,-4.762039e-01,8.298670e-01,-3.779709e-01,6.795819e-03,-1.815814e-03,3.704084e-01,2.703417e-01,1.163651e+00,4.724858e-02,5.036694e-01,-1.018755e+00,-5.954743e+00,5.811687e-01,-1.212714e+00,8.400885e-02,-4.918745e+00,-1.539533e-02,-2.995206e-01,
-3.436696e-03,-4.263750e-02,-1.953520e-02,-2.890330e-04,9.895022e-03,-4.569240e-02,-2.466100e-03,4.317610e-02,-1.887920e-02,-7.218401e-03,-1.094572e-02,-1.665250e-02,-7.252790e-04,-8.011594e-03,-2.789230e-02,-2.985578e-02,-1.691320e-02,-5.200870e-02,-3.011102e-02,4.208800e-02,-4.278309e-03,-1.418790e-02,1.510487e-03,-4.985907e-03,-6.755310e-03,-3.807086e-02,-1.911213e-02,-1.583840e-02,-6.157210e-03,-4.236800e-02,-6.545101e-03,1.866433e-02,1.451770e-02,3.572907e-03,7.648073e-04,-2.830710e-03,-6.322678e-03,-4.098170e-02,-3.161580e-03,1.365431e-02,-2.867323e-02,-6.582570e-03,-2.415770e-02,5.365220e-03,-2.241780e-02,-1.426295e-02,-1.108460e-02,4.960720e-03,-1.255381e-02,-2.299350e-04,
-6.591421e-04,-2.483860e-02,6.096666e-01,1.026354e+00,2.150092e-01,3.190100e-01,-1.417282e-02,1.738880e-01,-1.041934e+00,-1.046835e-01,-6.193473e-01,2.377655e-01,2.966961e-01,3.676054e-01,8.371256e-02,1.662532e-01,3.394086e+00,1.939943e-02,-2.489583e-01,4.499750e-03,-3.285268e-02,5.975081e-01,6.626993e-02,-1.585883e-02,2.378054e-03,1.744071e-01,1.806698e-01,4.022932e-01,-6.218431e-02,2.418104e-01,-4.885438e-03,-2.117792e-01,8.771275e-01,-5.016946e-01,4.929290e-02,1.601366e+00,-1.756650e-01,4.888615e-02,7.604858e-02,-3.748101e-01,-7.510357e-01,2.716908e-01,-1.553203e-01,-1.255489e+00,8.493592e-01,-3.942843e-01,-1.612181e-01,4.532628e-01,-6.527003e-03,5.888044e-02,
-5.995408e-01,-2.862670e-02,-5.905479e-01,1.779963e-01,-1.245426e-01,1.251366e+00,1.706263e+00,2.648580e-01,-2.753076e-01,6.314964e-01,4.434021e-01,-6.635716e-02,-1.076508e-01,-3.411772e-02,3.434632e-01,-3.930861e-01,1.483586e-01,-1.183970e+00,6.274651e-01,-3.699540e-02,-6.421118e-01,-1.860464e+00,-1.363852e+00,4.551734e-01,9.361466e-01,-9.475505e-02,2.491201e-01,1.003106e-01,5.648831e-01,3.140341e-01,-3.240840e-01,-1.137890e-04,-2.901755e-01,8.374200e-01,-2.080025e+00,7.085452e-01,-1.314020e+00,1.896165e-01,-9.550902e-01,4.715945e-01,-1.882261e+00,-2.743271e-02,-1.097537e-01,1.666467e-01,4.570786e-01,-1.472491e-03,8.316361e-01,-4.069451e+00,4.479587e-01,-6.934155e-01,
1.415652e-01,-1.032790e-02,2.410653e-02,-3.778344e-02,-1.879804e-01,3.292528e+00,-1.050574e+00,1.705630e-01,-5.700943e-01,1.436013e-06,5.497099e-01,-4.317449e-01,2.956999e-01,2.083995e+00,1.440828e-01,1.795421e-03,2.478414e-01,-8.502300e-02,1.269853e-01,-3.027460e-02,-2.022505e-01,-7.981468e-02,-1.158214e-02,4.408082e-01,-1.683043e-01,8.022168e-01,-4.295580e-01,-1.796460e-01,7.687000e-01,3.392072e-01,-1.607785e+00,-1.132369e+00,1.350202e-01,5.853994e-01,3.493316e-01,-1.104180e-01,5.242402e-02,1.175830e+00,-1.856006e-01,8.614127e-04,-1.134570e+00,-1.236088e-01,-5.300531e-01,5.668555e-01,1.271857e-01,-8.120920e-02,-6.684587e-01,-1.181655e+00,1.334117e+00,-1.855381e-01,
6.750123e-01,-1.228050e-03,4.566134e-01,1.134339e-01,4.907119e-02,-1.318712e+00,-1.338457e+00,1.894690e-01,7.048780e-01,-2.336708e-03,-9.023743e-01,-2.572787e-01,-1.813095e+00,6.345038e-01,7.087818e-01,1.043363e-02,2.844555e-01,6.216542e-01,6.064521e-01,6.421290e-03,-5.068088e-01,3.529797e-01,-2.966892e-01,1.870289e-01,4.633939e-01,-5.548165e-01,2.822180e-01,3.846359e-01,-1.130932e+00,-5.871248e-01,7.912249e-01,-1.167576e+00,-1.194864e+00,-1.189237e-01,-3.564622e-02,-3.329052e-01,3.070194e-01,-1.029730e+00,-8.879429e-01,-9.705656e-01,2.847367e-01,1.995254e+00,7.603570e-01,2.328029e+00,1.121742e+00,3.481522e-01,-5.700144e-01,-6.214392e-01,1.944014e-01,-3.200266e-01,
6.154622e-01,-3.792790e-02,1.001764e-02,-1.668612e-01,-9.734859e-02,1.310870e+00,-1.652768e+00,3.059290e-01,-1.196611e-01,-7.633269e-03,-4.744579e-02,-1.635755e+00,-1.474233e+00,-1.914916e-01,-1.039873e+00,3.164904e-01,-2.366920e+00,1.232862e+00,1.469550e-01,-5.366430e-03,2.753060e-01,-1.000546e-01,-1.953942e-03,-1.047885e-02,2.309669e-02,-1.229789e+00,2.095713e+00,-3.438074e-02,-1.119236e-01,-1.104789e+00,-1.443996e-01,-6.492022e-01,1.595608e-01,1.314115e+00,-6.283762e-01,-8.700247e-03,3.483933e-01,1.571486e-01,6.648871e-02,1.275514e-01,-2.160384e-03,-2.779916e-02,1.648403e+00,1.680145e+00,-2.304861e-01,-4.574493e-02,8.278716e-02,-1.582004e-01,8.602703e-02,2.810390e-02,
-8.308801e-02,-6.441200e-03,3.977769e-01,-2.783375e-01,1.226140e-01,3.174755e-01,7.140378e-01,1.382520e-01,-5.872529e-01,1.062360e-01,-1.340438e-01,6.339651e-01,-1.604878e-01,-1.387838e-01,-2.779316e-01,-2.512976e-01,4.973098e-01,-5.320309e-01,-8.329334e-01,-2.202660e-02,6.618317e-01,1.088161e-01,-4.538025e-01,4.081067e-01,5.507073e-01,5.033907e-01,1.273517e-01,-4.824213e-01,5.958517e-01,2.275330e-01,3.088623e-01,2.725780e-01,9.455303e-01,-1.412615e+00,3.385282e-01,2.419734e+00,1.422443e-01,2.418609e-01,-4.953252e-01,-4.566865e-01,2.757009e-02,8.767833e-02,4.785697e-01,-1.978811e+00,1.150267e-01,-5.390249e-01,1.552604e-01,5.682876e-01,-1.333377e-01,1.410695e-01,
-5.463098e-01,-2.372610e-02,3.228098e-01,7.775977e-01,4.919543e-01,-2.982873e-01,3.513560e-01,1.978110e-01,2.691786e-01,-7.029698e-01,-6.394966e-03,5.541826e-01,-6.656416e-01,-5.931827e-01,7.681655e-01,6.581640e-01,3.173660e+00,-9.735721e-02,-1.240452e+00,1.499250e-02,-8.657830e-02,5.914654e-01,6.301704e-01,2.614904e-02,6.165308e-01,1.531828e+00,-7.180031e-01,-9.739280e-02,-8.972291e-01,3.049244e-01,3.531545e-01,5.574744e-01,2.564028e-01,-9.769018e-01,-9.113454e-01,-2.263333e-02,6.413492e-01,8.905960e-01,-4.647568e-01,-4.347741e-01,-7.277234e-03,3.902137e-02,-6.028070e-01,8.367545e-01,4.825548e-02,-2.874510e-01,4.635389e-02,7.792478e-01,6.069710e-01,5.210441e-01,
-3.406899e-01,-7.371970e-03,6.739919e-02,1.646587e-01,-1.894407e-01,-2.025762e-02,-1.559063e+00,9.580970e-03,-2.196629e-01,-3.617147e-01,-2.884985e-01,-1.494605e+00,-2.472156e-01,-6.128128e-01,1.263934e+00,5.808595e-01,-1.087701e-01,-4.236164e-01,-5.736571e-01,-7.073780e-03,5.073948e-01,1.845868e-01,3.439606e-01,-1.544347e-01,-2.839582e-02,3.499899e-01,-3.806638e-01,-4.743589e-01,-7.586867e-01,3.723488e-01,-3.249990e-01,1.479304e-01,4.145581e-01,6.764448e-01,5.802782e-01,2.379742e-01,2.482756e-01,3.328140e-01,-1.540700e+00,-3.154785e-02,5.538110e-01,-4.800251e-01,-1.912913e-01,9.431655e-01,-2.295752e-01,3.280892e-01,-1.186024e+00,2.528783e-01,5.247529e-01,7.445889e-01,
-1.059092e+00,-3.438050e-02,3.086704e-01,-2.350169e-01,-3.902117e-01,-5.927955e-02,-1.169653e+00,1.945510e-01,2.217729e-01,-8.248075e-01,1.759074e-01,-2.204744e-01,-1.980923e-01,-6.521522e-01,-6.132122e-01,4.832805e-01,2.230649e+00,-1.025811e+00,2.449168e-01,3.957800e-02,-3.301798e-01,-4.375081e-01,-1.584335e-01,-6.177273e-02,-4.665156e-01,-1.178086e-01,3.372666e-01,4.855450e-01,3.020121e-01,3.476875e-01,-2.688029e-02,-2.990885e+00,-1.898693e-02,-5.947188e-02,-1.039422e+00,6.654771e-01,-6.685696e-01,-7.262449e-01,-5.526756e-01,1.649652e-01,4.765173e-01,-4.993176e-02,-9.675387e-01,2.676066e-01,1.064893e-01,-7.491014e-02,-8.905564e-03,-7.535705e-01,2.761430e+00,2.439143e-02,
3.590105e-01,
-1.335706e+00,
-4.357608e-01,
-7.357011e-01,
-1.850881e-02,
9.003603e-01,
-9.436399e-03,
-2.632318e-02,
-2.877528e-02,
-2.532243e-01,
1.264812e+00,
-4.000106e-02,
1.056552e+00,
-1.014916e+00,
-1.657933e-01,
2.074113e-01,
-2.624721e-01,
-7.576135e-01,
-7.535378e-01,
1.183928e+00,
-5.258696e-01,
1.274074e+00,
-7.037450e-02,
-3.581461e-01,
2.663415e-01,
-1.332948e-01,
1.088427e+00,
-1.064330e-02,
-5.931633e-01,
8.241788e-02,
1.106590e-01,
-4.004927e-02,
-1.031866e+00,
-3.525022e-01,
-4.604232e-01,
-2.122819e-01,
-2.642457e-02,
-2.368661e-01,
-9.653711e-01,
-4.104554e-02,
-3.354738e-02,
1.164015e+00,
9.807142e-02,
-4.845813e-01,
-7.781402e-01,
3.665218e-01,
5.761877e-01,
-3.328008e-02,
1.381591e-01,
5.014574e-01,
5.286195e-01,1.886435e-01,-1.794309e+00,1.177933e+00,3.363165e-01,2.722051e-01,-1.260258e-02,-9.917406e-03,3.121710e-02,-1.441694e+00,-2.688055e-01,-1.336566e-02,-1.110492e-01,1.661674e-01,3.356499e-01,7.012251e-02,-5.809132e-01,-5.811287e-04,2.061920e-01,4.818186e-01,3.908431e-01,7.531247e-01,7.317053e-01,-2.587187e-01,-1.829118e+00,1.286595e+00,-8.486578e-01,-1.566010e-02,-4.328472e-01,-4.395505e-02,-1.730667e+00,2.392027e-02,-6.283762e-03,-1.645281e+00,1.083085e-01,3.004269e-01,-5.069324e-03,-6.159575e-02,-2.640246e-01,3.410468e-03,-3.931789e-03,-8.316646e-01,1.067673e+00,8.111527e-01,1.439558e+00,-9.905463e-03,6.850716e-02,5.274069e-01,-5.993751e-01,-1.375507e+00,
-3.623553e-01,1.049082e+00,-2.292409e-01,7.039908e-01,1.959772e-01,-6.006743e-02,-1.092594e-02,1.258015e-02,3.772441e-02,-6.326791e-03,-3.830671e-01,-3.087172e-03,7.895135e-01,4.445949e-01,1.564424e-01,-2.296915e-03,6.270632e-01,-7.224917e-01,-7.598230e-03,-5.104638e-01,4.321990e-02,-4.953961e-01,6.869277e-01,-1.951970e-01,5.452000e-02,6.202090e-02,-4.675402e-02,-8.772660e-03,1.215901e+00,8.485462e-01,1.085285e+00,3.887195e-03,1.314595e+00,4.496788e-02,1.446233e-01,5.460609e-03,-2.981499e-02,1.039412e-02,-5.145560e-03,-4.628795e-01,-1.369832e-03,-6.904107e-01,-1.150015e-03,1.010005e+00,-2.036754e-03,7.143861e-01,-1.234704e-01,1.574448e-01,1.306149e-02,5.990276e-01,
5.102407e-01,6.151384e-01,2.215856e-02,-1.246465e+00,5.745416e-01,-8.194002e-01,-2.406918e-02,-3.425971e-03,-2.474342e-03,-1.015257e+00,-1.491710e+00,2.995158e-02,-1.602249e+00,-5.465139e-01,-2.631444e-01,1.049038e+00,-8.867014e-03,6.227757e-01,1.272262e+00,1.425961e-01,7.778546e-01,-6.881064e-01,1.495879e+00,4.375655e-01,1.394585e+00,2.585754e-01,-4.432345e+00,3.670840e-03,1.110773e+00,1.740936e-01,1.848226e+00,8.834219e-03,-4.800859e-01,7.849486e-01,1.301815e+00,1.446370e+00,-1.503438e-02,-7.448561e-02,-6.740724e-01,2.844928e-01,4.382095e-03,-2.099698e-01,5.069416e-01,3.144543e-01,7.317045e-01,-1.313001e-02,2.064931e-01,6.775618e-02,-4.114362e-01,-6.420041e-01,
1.876357e-01,-1.534550e-01,1.100979e+00,-6.517541e-01,1.588815e-01,-1.120181e-01,1.204264e-02,4.660532e-03,3.176045e-03,-1.827304e-01,-3.905340e-01,-5.542783e-03,1.350388e-01,1.092553e+00,3.106359e-01,2.530309e-01,3.848141e-01,-1.044957e+00,1.069805e-01,-2.712585e-03,-3.733115e-02,5.498576e-01,-2.537212e-02,2.727691e-01,2.110741e-01,2.157538e-01,7.182496e-02,1.191530e-02,-8.709214e-01,1.980655e-01,4.433903e-03,9.153846e-03,-7.020996e-01,-3.717185e-01,-4.906230e-01,-2.051634e-01,1.590777e-02,6.844898e-03,-3.214260e-01,-4.103768e-01,1.877997e-02,1.071033e-01,-1.886291e-01,-1.166648e+00,-6.046703e-01,-4.999512e-01,-5.276994e-01,1.282213e-02,-4.151328e-03,-9.371023e-01,
9.517610e-01,1.884316e-01,8.683856e-01,-6.601191e-03,1.392053e-02,-3.813701e-01,-2.676928e-02,-2.642580e-02,-3.462298e-04,2.802402e-01,-3.382666e-01,-2.511663e-03,-8.147343e-01,-1.447223e+00,-4.146530e-01,6.493351e-01,-1.527211e-01,2.584668e-01,-3.703458e-01,1.571162e-02,9.437919e-02,7.071024e-03,2.238983e-02,-4.225200e-03,-1.399536e-02,-4.552155e-01,-7.850666e-03,7.444510e-04,-7.673306e-01,-1.858143e-01,1.206561e+00,2.777774e-02,-1.205374e-01,-2.658617e-01,2.000769e-01,1.132511e-01,4.814994e-03,-4.248591e-02,2.609374e-01,-1.307418e-01,5.281919e-03,2.735128e-01,-4.632205e-02,-9.721690e-01,-7.070006e-02,-3.282198e-02,1.105660e+00,5.114669e-02,-5.541350e-01,1.974932e-01,
-4.332324e-04,-3.266775e-01,-5.102060e-02,-9.382582e-02,1.468991e-01,7.409818e-01,-4.235447e-02,-2.871592e-02,-2.991128e-03,8.102762e-02,1.273179e-01,-2.190266e-02,1.609926e-01,7.937460e-02,-4.841393e-01,5.640195e-02,-6.934338e-01,2.754360e-01,7.999139e-01,1.053261e-01,2.265451e-01,6.340691e-02,2.229214e-01,-8.041857e-03,-1.784629e-02,-2.447322e-01,-8.797665e-01,-1.934870e-02,-8.088666e-01,7.326841e-01,-4.201754e-01,3.886785e-02,8.100011e-01,7.262303e-01,7.249993e-01,5.295520e-01,8.643182e-03,-1.957387e-01,-2.287383e-01,-1.126117e-01,4.811632e-03,-2.275048e-01,-2.326501e-01,9.245994e-01,-2.500149e-03,7.666118e-03,1.382303e-01,-1.272407e-03,3.410428e-03,-4.678813e-01,
2.826827e-01,-2.303505e-01,-1.632312e+00,1.082111e+00,8.373337e-01,3.927131e-02,-3.233436e-02,1.030303e-02,3.060620e-02,4.892180e-01,2.603713e-01,9.305590e-03,-7.863343e-01,3.205918e-01,-2.491152e-01,4.647283e-01,-5.550134e-02,8.279919e-01,4.955404e-01,-7.182593e-03,1.476146e-01,-1.267375e-01,-1.054140e-02,-4.908186e-02,-2.724932e-01,3.615190e-01,2.908148e-01,-3.203680e-02,3.741354e-01,2.717778e-01,5.031663e-01,-4.147642e-03,-6.690208e-03,5.242886e-01,2.436185e-01,-9.962075e-02,-1.897641e-02,-5.070198e-01,-7.659441e-01,-9.415113e-03,-3.256863e-03,-2.921683e-01,-8.267464e-02,-7.252309e-03,-5.821691e-03,-7.241034e-03,4.336430e-02,-6.875879e-03,8.862150e-02,2.144023e-01,
4.059466e-01,-6.577286e-01,3.074370e-02,-1.282291e+00,1.814735e-01,-4.676020e-02,2.274859e-02,1.086385e-02,1.358131e-02,1.812962e+00,9.466712e-01,-1.024147e-02,-8.485748e-01,-4.729854e-01,-3.274710e-01,-7.669462e-02,-1.092128e+00,9.329408e-01,3.770174e-01,1.501282e-01,2.028353e-01,6.844575e-01,-8.261482e-01,3.682123e-01,-4.568813e-02,5.268805e-02,6.825863e-01,-4.358350e-02,-1.345631e+00,-7.460405e-01,-8.949772e-03,-2.174128e-03,-1.919516e+00,3.435888e-01,1.849652e-01,-2.135463e-01,-1.986597e-02,4.246693e-02,3.383530e-01,2.484485e-01,-1.277033e-05,7.724798e-01,-1.617748e-01,-1.667567e+00,-2.342662e-01,-8.022721e-01,2.712080e-01,-1.620638e-01,5.039533e-01,-7.283420e-01,
2.852910e-02,3.063628e-01,-7.830756e-01,8.333492e-01,2.354991e-01,-5.843090e-01,1.975175e-03,1.734659e-02,1.963939e-02,3.628210e-01,-3.903243e-01,-7.145153e-03,1.221423e-03,-2.402091e-01,-6.275956e-01,2.803203e-01,6.107302e-02,2.656246e-01,4.687846e-01,-2.053634e-01,2.706480e-01,-1.488800e-01,-6.119655e-01,-2.997203e-01,4.814242e-01,-3.077511e-03,8.027333e-01,-2.788680e-03,-2.571197e+00,3.523090e-01,-8.846644e-01,-6.114568e-03,1.180859e-02,-3.046565e-01,4.236974e-03,-5.875251e-02,3.526354e-02,3.071091e-01,-2.734725e-01,-5.744225e-01,-1.587806e-02,2.505826e-01,2.416318e-01,-2.848852e-01,-5.850170e-03,4.978547e-01,-7.854911e-01,2.014307e-01,2.383138e-01,-5.833401e-01,
2.767703e-01,-3.075759e-04,-6.916222e-01,3.987841e-01,7.937101e-01,-1.162672e-01,1.343178e-02,2.543046e-04,-2.407439e-03,-3.222278e-01,-8.331273e-03,-2.020075e-02,2.494387e-01,8.017350e-02,9.608878e-02,1.162037e+00,-2.371154e-01,-3.352643e-01,2.807899e-01,-2.407319e-01,-7.699101e-01,4.310178e-02,-1.431824e-01,1.558846e-03,-1.389039e+00,-3.073235e-01,7.760190e-01,-1.361430e-02,5.301997e-01,-1.939843e-01,8.704863e-01,-5.643470e-03,1.570334e-01,-2.380366e-01,2.741717e-06,9.243078e-01,-2.264755e-02,-2.955669e-01,6.375113e-01,-6.242958e-01,2.181434e-03,4.005516e-01,-1.747618e-02,1.192483e-01,1.425375e-01,1.740402e-02,-9.878117e-01,2.021897e-01,-1.085361e-03,-9.220482e-02,
-1.467203e-02,1.523790e-01,-4.755189e-01,4.596889e-01,-1.735755e-01,-5.839028e-03,-3.635642e-02,1.018598e-02,2.814383e-02,3.226149e-01,-4.523265e-01,-3.001835e-02,-1.491938e-01,-4.611219e-01,-4.972320e-02,8.854662e-02,3.807090e-01,4.994019e-02,5.732504e-01,-3.019147e-02,-8.093557e-01,-2.161262e-01,7.153454e-01,-9.213057e-03,3.231514e-01,1.077034e-01,-5.896146e-01,2.834120e-02,7.698078e-01,3.666537e-01,-2.540644e+00,-6.105022e-03,2.223570e-01,-3.625115e-02,7.479529e-02,-1.669650e-01,5.551519e-03,-4.977367e-01,-3.422168e-02,-1.606331e-01,-7.989625e-03,-1.812922e-01,1.806265e-01,1.679911e-01,-4.990638e-01,4.860809e-02,-2.109418e-01,5.954590e-02,-6.141981e-01,-9.078480e-02,
1.182505e-01,1.120052e+00,-1.384469e+00,2.804742e-01,5.738736e-01,1.142240e+00,-5.825057e-03,1.721446e-03,2.770936e-02,3.970012e-01,-7.367744e-02,-5.458584e-03,1.116716e-01,7.658266e-02,-4.572754e-01,-3.298112e-01,3.695512e-01,3.731133e-01,6.562506e-01,-3.854171e-01,3.901929e-01,-6.792269e-02,8.119164e-02,6.975584e-02,1.471017e-01,6.061674e-01,1.509919e-01,-1.399310e-02,-8.675950e-03,-7.481808e-01,8.343310e-01,5.402116e-03,-2.152762e-01,-5.904507e-02,6.540181e-02,1.396700e-01,2.709565e-02,-4.555433e-01,4.754457e-01,2.415998e-01,-6.623029e-03,4.901178e-02,-3.643185e-01,-1.428219e-03,8.050910e-01,-4.067739e-03,1.271318e-01,-2.214279e-03,3.194592e-02,2.110648e-01,
-4.623440e-01,5.888600e-01,-1.268754e+00,2.941352e+00,4.171881e-01,-3.583452e-01,4.072871e-02,-3.156599e-02,-8.399577e-03,1.682608e-01,-4.119619e-01,-5.828868e-03,5.518180e-01,1.448115e+00,1.207719e+00,-1.012278e+00,-1.883246e-02,-5.846731e-01,-2.047932e+00,4.583484e-01,-9.294086e-01,-6.525795e-01,8.907387e-01,-4.521400e-01,1.739009e+00,2.690386e-01,4.388620e-01,1.807570e-02,2.000773e+00,2.696290e-01,8.726415e-01,3.358660e-02,-1.159332e+00,-7.049988e-01,-2.344907e+00,-3.772139e-02,3.681766e-02,-9.505831e-02,5.187770e-01,3.790009e-01,-6.945499e-03,-2.634490e-01,-5.691597e-01,1.795909e-01,8.678441e-02,-1.742932e-04,-7.146257e-01,3.227922e-01,-1.268513e+00,1.029681e+00,
-1.547843e-01,-1.530468e-01,4.997071e-01,-1.056568e+00,3.525918e-01,-5.067414e-02,1.026479e-02,-5.131832e-03,-6.821434e-03,-2.788460e-01,-6.120518e-01,1.668138e-02,-2.723025e-01,-8.666309e-01,-2.031797e-01,-6.631440e-03,3.023662e-02,-1.995773e+00,2.021311e-01,4.766070e-01,-1.521579e-01,2.970668e-02,-1.249090e+00,-4.879464e-01,4.940777e-02,2.560917e-01,-1.819165e+00,-1.701920e-02,-4.918852e-01,2.151464e-01,8.366452e-01,2.579735e-02,-2.567454e-01,-8.871748e-01,4.334028e-01,-4.992622e-01,-1.806984e-02,6.353232e-01,1.292857e-01,-2.961719e-03,1.829813e-02,-4.601004e-02,1.554912e-01,-8.276297e-01,-3.813436e-01,7.713591e-02,-4.629217e-02,2.672642e-01,-5.382395e-03,-8.643025e-01,
-3.006431e-01,-3.839963e-01,1.182412e-01,-5.336931e-01,-6.546592e-02,3.147567e-01,-3.716348e-03,-7.398024e-03,-1.355749e-02,-4.252382e-01,1.803653e-02,-9.592332e-03,8.448437e-02,-2.020956e-01,-1.191261e-02,-3.084671e-01,1.068502e+00,-2.351857e-01,1.267231e+00,-2.132610e-01,-2.082979e-01,2.483950e-01,-7.323532e-03,-1.131503e-01,-2.685634e-01,6.173061e-01,5.417005e-02,5.206010e-02,4.534729e-01,7.016476e-01,9.502812e-01,-2.466559e-02,-9.940194e-01,-2.205201e-01,5.304396e-01,-7.833051e-02,-1.520727e-02,-2.448829e-01,2.462162e-01,-1.153844e-01,-7.915872e-03,4.209850e-01,-1.704778e-01,6.985141e-02,1.240040e-01,-2.485065e-03,-7.733390e-02,-3.254073e-02,4.767099e-01,1.026454e-02,
2.226408e-04,-3.803044e-03,-5.176305e-01,1.789255e-01,7.048027e-01,6.306612e-03,1.158199e-03,3.898752e-03,3.064076e-02,-6.095592e-01,-3.888203e-01,1.564624e-02,1.696846e-02,4.081422e-02,4.606526e-01,1.785806e-01,6.248391e-01,-4.737000e-01,-8.663680e-02,-1.226530e-01,-6.403414e-01,1.987589e-01,3.547395e-02,-6.379914e-02,5.484603e-01,-5.227864e-01,1.995176e-01,-3.494200e-02,-2.179402e-01,1.716168e-01,-4.882559e-01,-7.565418e-03,-5.806829e-01,-9.122437e-01,-5.775745e-03,-1.170847e-04,3.967248e-03,5.881028e-01,2.346998e-01,-2.412131e-01,1.043308e-02,5.497178e-01,-6.739921e-03,-2.410509e-03,-2.677875e-01,-1.341358e-01,-7.893656e-01,3.069161e-01,-9.588741e-03,-4.271843e-01,
-1.973975e-01,-1.940104e+00,-3.057556e+00,9.939089e-01,1.003161e+00,-5.209573e-01,2.432714e-02,-7.827550e-03,-2.616591e-03,-9.835576e-01,-1.979700e+00,-2.103238e-02,-5.234389e-03,-8.498788e-01,-1.435836e-01,4.242286e-01,-3.227359e-01,-1.170615e+00,1.884928e+00,9.311955e-02,-3.582833e-01,9.195648e-01,-5.343411e-01,-5.571014e-01,4.803897e-01,8.264458e-01,-1.714228e+00,1.347060e-02,7.343976e-01,-6.230834e-01,1.587596e+00,-2.372181e-03,-1.790250e+00,-2.585252e+00,1.589160e+00,1.609006e+00,-8.773481e-03,1.084526e-01,7.169406e-01,-3.415090e-01,2.153183e-02,-6.063619e-01,-3.625999e-03,-3.906399e-03,1.179834e+00,1.096573e+00,2.517466e-01,3.917320e-01,-8.460672e-01,-7.420146e-01,
-5.924083e-02,4.415220e-01,1.169835e+00,1.061850e+00,-1.338364e+00,2.980277e-01,2.143228e-03,3.395458e-02,2.452383e-02,-5.973479e-01,-2.878744e-01,-2.236968e-02,7.788797e-03,3.790043e-01,6.118446e-01,1.489029e-01,7.546251e-01,-2.599730e-01,5.191710e-01,5.914820e-01,-6.149569e-01,5.656028e-03,-3.627121e-01,1.634932e-01,-2.213536e-01,2.756811e-01,2.625444e-01,-1.190060e-02,1.447307e-02,8.383220e-02,1.636227e-01,1.689374e-02,-5.674100e-01,4.808140e-01,9.018991e-02,1.780261e-01,-6.920891e-03,-1.804021e-01,4.898180e-01,-3.822584e-01,-4.937032e-03,1.230748e-01,3.889024e-02,-4.005996e-03,2.054980e-01,-1.312563e-01,1.156037e-01,-4.023237e-01,-5.746971e-03,5.870205e-01,
-5.200501e-03,-9.491639e-03,1.701710e-02,-9.326470e-03,-3.750070e-02,-6.294892e-03,1.647641e-02,-4.031849e-02,1.804058e-02,-2.608159e-03,-6.274623e-03,-5.440430e-02,-9.252777e-03,-3.808552e-02,-4.628790e-02,-1.044597e-02,-8.550826e-03,-8.343421e-03,1.129460e-02,-7.333683e-03,-1.120900e-02,-1.011894e-02,-7.682141e-03,-9.295188e-03,-6.772564e-03,-1.039759e-02,-1.255477e-03,-4.672140e-02,-6.302371e-03,-6.700917e-03,-6.831553e-03,3.319032e-03,-3.134644e-03,-4.870690e-02,-8.352096e-03,-3.801183e-03,9.379654e-03,3.942490e-02,7.033702e-03,9.498342e-03,-5.207964e-03,-1.011638e-02,-9.572257e-03,9.421701e-03,-4.747984e-03,-6.023339e-03,-5.401270e-02,4.295554e-03,-5.868579e-03,-6.924557e-03,
2.396025e-01,-1.749279e-01,1.194369e+00,4.615283e-01,7.382080e-01,-5.612996e-01,-9.171335e-03,2.825300e-02,4.305315e-03,-1.622760e-01,-2.739104e-01,-6.521275e-03,1.195381e-01,7.388391e-01,-2.441310e-02,1.136374e+00,-2.935959e-01,2.478980e-01,1.008959e+00,-1.392720e-01,1.364515e+00,-1.231764e-01,-3.487609e-01,-6.272049e-02,-7.518569e-03,1.495263e+00,2.926894e-01,-1.261870e-02,-1.492671e-01,-6.892890e-02,8.390970e-01,2.952096e-02,-7.571490e-02,-1.789365e-02,6.730574e-01,3.576341e-01,-3.369693e-02,1.618278e-01,3.426915e-01,-5.134861e-01,2.466266e-02,9.467409e-01,2.080816e-01,1.959555e-01,8.667085e-01,1.881185e-01,-3.269808e-01,6.497373e-02,-5.617337e-02,7.943890e-02,
-4.437588e-01,1.077297e+00,-3.858875e+00,1.274909e+00,-1.061192e+00,-1.144476e-01,-4.224185e-02,-2.054765e-02,-6.703021e-03,3.961741e-01,-4.165617e-01,-3.804093e-02,1.141000e+00,7.842648e-01,-2.592583e-01,9.803475e-02,-7.694479e-03,5.850745e-01,-9.599521e-02,2.534018e-01,5.943809e-01,-4.422648e-01,2.391973e-02,-4.107722e-01,1.479865e-01,4.772308e-01,-6.646332e-01,-3.739130e-02,-5.989946e-01,8.899635e-01,4.863010e-01,3.496931e-02,3.707995e-01,-6.654851e-01,-5.886579e-04,-6.706176e-03,1.572933e-02,9.952969e-02,9.847105e-01,-3.567247e-01,1.244866e-02,-4.110866e-01,-2.732593e-01,1.132431e+00,5.586361e-02,4.014693e-01,2.565555e-01,-8.733854e-02,7.269120e-01,-1.023179e+00,
-2.308391e-01,-2.514632e-03,-1.984210e+00,-1.154007e+00,2.655490e-01,-8.777138e-01,2.692759e-02,-4.018180e-02,-2.338422e-02,1.651524e-02,9.660312e-02,4.537587e-02,3.063492e-01,-3.875612e-01,-4.704645e-02,4.592181e-01,-1.759372e-02,-1.796445e+00,6.557669e-02,2.149515e-01,-2.934891e+00,5.660378e-01,-3.696666e-01,2.967804e-01,8.800538e-01,-8.668622e-03,-6.698546e-01,2.749470e-02,-3.196673e-01,-1.441221e-02,-4.928983e-01,1.469242e-02,1.210499e-02,6.026563e-01,7.141498e-02,-3.886926e-01,2.304821e-02,-9.778391e-01,8.825362e-01,-7.584541e-01,3.190056e-03,-6.096176e-01,1.282614e-01,-2.665196e-03,3.139095e-01,3.028290e-02,-1.181220e+00,2.759593e-01,1.849940e-01,-1.889725e-01,
-7.133291e-01,1.621478e+00,1.145963e+00,-2.724778e-01,1.614631e-01,1.081295e-01,4.172853e-02,-2.787918e-02,8.039479e-03,-2.883684e-01,-7.831407e-03,-2.622775e-02,4.321524e-01,3.467501e-01,1.022802e-01,3.151350e-01,-1.757789e-03,-8.031611e-01,-1.054064e+00,-7.284806e-01,-2.563888e-01,-3.174205e-01,-1.828513e-01,-5.249974e-01,4.873456e-01,-8.249859e-01,-3.676091e-01,1.308940e-02,-2.085985e+00,5.341454e-01,5.497725e-01,-2.347893e-02,4.187595e-01,-3.177860e-01,-7.534721e-01,-4.069459e-01,1.000179e-02,-1.999227e-02,-1.348194e-02,-8.246767e-01,9.133277e-03,-2.238732e-01,7.135117e-01,6.924503e-01,-3.748766e-01,7.159047e-01,-6.127924e-02,5.606104e-03,1.655553e-01,-7.266553e-01,
1.831069e-01,-3.868288e-01,-5.111557e-02,-1.613572e-01,4.672178e-01,7.958971e-02,1.249919e-02,-9.308703e-03,1.578033e-02,-2.305685e-01,-6.541440e-03,-4.477304e-03,-5.213954e-01,-8.871914e-02,-1.212675e-01,8.952802e-01,-7.035857e-02,2.031514e-01,4.184428e-01,1.332733e-01,1.882281e-01,-1.074851e+00,-7.265346e-02,-2.972056e-01,3.487310e-01,3.727697e-01,-3.695400e-03,3.863710e-03,-9.661580e+00,1.057256e-01,3.106942e-01,-1.587217e-02,-4.323245e-03,-3.366584e-01,-5.305075e-02,3.898872e-01,-7.232862e-03,1.305629e-01,-1.196805e-01,-3.467650e-01,-4.909214e-03,2.584305e-01,-6.638334e-03,7.377823e-01,-3.881864e-03,2.964844e-02,-1.461594e-01,-6.568644e-01,-1.954696e-03,1.736954e-01,
-1.848958e-02,-7.993428e-03,9.314681e-02,1.062658e+00,5.056866e-01,1.330191e+00,3.303815e-02,-9.395299e-03,6.344735e-03,-5.465317e-01,-1.980142e-01,8.779124e-04,1.183401e-01,-2.887093e-01,3.058867e-01,-8.240156e-01,4.951536e-02,1.366302e+00,1.138495e-01,-7.602407e-01,2.014778e+00,-4.383022e-01,5.440061e-03,-3.023942e-01,-1.304262e-02,-9.349443e-01,-4.564621e-01,1.409070e-02,2.422330e-01,1.850760e-01,7.327882e-02,2.247878e-02,-5.351855e-03,8.361587e-01,-2.860640e-01,-4.455680e-03,3.194277e-02,3.548977e-01,1.533496e-01,-9.077819e-03,1.673433e-02,-4.123452e-01,-6.147439e-02,3.503938e-01,-2.970990e-01,3.051256e-02,5.774593e-01,1.030102e-01,-8.058356e-02,-4.691980e-02,
2.125644e-01,4.099150e-01,1.361850e+00,8.799927e-01,1.055849e-02,-2.170878e-01,1.346740e-03,2.198762e-03,-1.522047e-02,-1.599858e+00,3.689836e-01,-3.528446e-03,-4.817773e-01,7.402819e-01,-6.703348e-01,3.415938e-01,-4.632302e-02,4.191759e-01,-7.081927e-02,-3.849538e-01,-4.805918e-01,1.653451e-01,-1.219452e+00,-3.287448e-01,-6.932134e-01,-6.988070e-01,-4.554645e-01,1.306500e-02,8.331981e-01,5.896018e-01,2.517574e-01,7.442509e-03,5.415374e-02,1.282043e-02,-2.496088e+00,-8.279920e-01,-1.881360e-02,-1.142323e-01,-1.086402e-01,-2.988496e-01,1.521181e-02,-1.441796e-01,-6.677518e-04,4.806592e-01,-1.536178e-01,9.541792e-02,-4.461451e-01,3.043930e-01,4.886973e-02,-1.224699e-01,
3.248380e-01,-4.049652e+00,5.812254e-01,-1.633052e+00,1.458002e-01,-1.325056e-01,3.864878e-02,-7.195538e-03,-3.734616e-02,6.342599e-01,-1.260963e-02,-2.748202e-03,2.758998e-01,-1.722758e-01,-5.528741e-01,-7.882501e-03,1.112308e-01,1.036925e+00,-5.915039e-01,1.192748e+00,-5.854018e-02,-2.966212e-01,-1.241544e+00,4.412598e-04,-4.544313e-01,7.838197e-01,9.939975e-01,-3.633780e-02,3.294740e-01,8.621267e-03,2.078714e-02,-1.012073e-03,-1.623207e-03,-2.112653e-01,-2.454014e-03,-6.338495e-01,-2.850946e-02,5.310705e-02,1.465660e+00,-1.431978e-01,1.036982e-02,-2.554692e-01,1.526575e-01,3.017424e-01,1.212820e-01,7.364054e-02,6.121317e-01,5.508104e-03,5.490785e-02,1.617482e-01,
-5.885662e-01,1.179722e-01,-6.458130e-01,-4.593434e-01,2.322977e-01,6.539985e-02,2.645986e-02,-3.783200e-03,1.891291e-03,-3.536603e-01,-1.455790e-01,-7.854323e-03,7.854352e-01,6.095403e-01,4.518243e-01,-7.698233e-01,-3.735638e-03,8.816246e-02,2.814577e-01,-9.342203e-03,1.599911e+00,-4.151005e-01,2.575141e-01,5.778283e-02,-5.371454e-01,-3.164642e-01,-5.716438e-01,4.280840e-02,2.377224e-01,2.120112e-01,-7.954885e-03,1.668495e-02,4.818018e-01,5.205410e-01,-2.054781e-01,1.268923e-01,2.739719e-02,5.502179e-01,-5.635346e-03,4.212461e-01,-3.096341e-02,-3.704727e-01,3.247395e-02,4.467848e-01,-2.145722e-01,2.652298e-01,1.571310e-01,3.561355e-01,-7.325066e-03,4.292854e-01,
-1.096824e-01,9.228069e-01,2.981500e-01,7.373667e-01,1.928788e-02,5.248703e-01,-6.209143e-03,-3.149467e-02,1.608638e-03,-8.018405e-02,-5.256836e-01,-6.147509e-03,1.859907e-02,-8.643296e-03,-1.361561e-01,3.175033e-01,-9.103001e-01,-9.894513e-01,2.944368e-01,-1.151632e-01,7.951923e-01,1.343816e-01,-6.851472e-01,-1.350562e-01,-6.700968e-01,-2.448603e-01,-5.439325e-02,-1.171520e-02,-2.505705e+00,4.555584e-01,8.007684e-02,-3.653088e-03,1.374136e+00,-1.231145e-01,5.900768e-02,1.148089e+00,-5.213029e-03,1.478535e-01,-2.615782e-03,-2.399760e-01,6.243021e-03,3.736083e-01,5.976403e-03,5.664618e-01,-1.301236e-01,4.129314e-02,-8.756039e-02,-1.506525e-04,-4.574268e-01,4.648536e-01,
-8.979850e-03,2.344560e-01,2.297392e-01,1.242655e+00,-4.337365e-01,-4.356903e-01,2.629426e-02,-2.895554e-02,1.966073e-02,-1.409102e-02,-2.160167e-03,3.176051e-03,1.587161e-01,4.485577e-01,4.363216e-01,1.563864e-02,-3.081502e-03,-4.002969e-01,5.606246e-02,2.470772e-02,8.612358e-01,-1.611308e-01,1.105202e-01,-5.251307e-01,-7.741378e-02,9.125594e-02,-1.347806e-02,-2.333270e-02,4.744752e-01,1.913693e-01,1.102032e+00,-1.087458e-02,7.314262e-01,-3.131179e-02,-5.580851e-03,7.291218e-02,3.123648e-03,9.294266e-01,2.165002e-01,-6.652631e-01,-2.384113e-03,-1.436621e-01,2.188683e-01,2.947872e-01,-6.479965e-01,3.768328e-01,1.952267e-01,-4.654835e-03,-7.268030e-03,4.902098e-01,
1.682767e-01,7.706171e-02,-1.456966e-01,7.074978e-01,6.733624e-01,-4.310106e-02,2.487877e-02,7.366452e-04,-2.939356e-02,-1.523552e-01,-7.471063e-03,-1.589532e-02,-1.407930e-02,-5.320111e-01,6.412950e-02,1.362707e-01,8.814179e-02,-4.915011e-03,-2.446084e-01,-5.026121e-03,5.214718e-02,3.496327e-01,-1.421448e-01,-5.211895e-01,-5.167256e-02,2.343530e-01,1.665631e-01,3.834690e-02,1.788917e+00,2.058688e-01,3.106914e-01,5.915621e-03,-7.766978e-03,1.015939e-01,1.940986e-01,-4.151113e-01,1.825006e-02,-1.006251e-01,-2.332656e-01,-4.628571e-01,-4.872980e-03,-2.844652e-01,-5.132368e-02,3.039264e-01,-3.377795e-03,9.424096e-01,-8.581215e-02,5.030002e-01,7.299738e-03,-5.526268e-01,
-5.947374e-01,-5.544538e-01,1.504017e+00,1.079039e+00,5.948981e-01,-3.870505e-01,2.707568e-02,2.107405e-02,1.032188e-02,1.159976e+00,1.274955e-01,6.023328e-03,-2.548082e-01,1.916078e-01,-1.121663e-01,-9.504029e-03,7.898524e-01,1.331836e-02,-7.475833e-03,1.718785e-01,-3.556524e-01,2.479405e-01,3.471773e-03,-4.507492e-02,3.882909e-01,-1.753081e-01,6.135072e-02,1.905910e-02,3.882594e-01,6.847079e-01,9.862377e-02,-4.673814e-04,-1.277998e-02,9.118037e-02,-8.167511e-01,-2.890402e-01,1.110392e-02,-5.187091e-01,-7.013956e-03,-1.678763e-02,-1.704588e-02,2.485106e-02,-4.255163e-03,-1.147073e-01,-6.967976e-01,4.154888e-01,1.004737e-01,2.288162e-02,-3.140525e-03,-1.697103e-01,
-1.211670e-02,8.565257e-01,8.446533e-01,-1.889296e-01,5.211338e-02,2.514071e-01,1.454627e-03,2.883363e-02,1.948765e-02,3.848944e-01,-8.713520e-01,2.832291e-02,-7.108455e-03,2.510367e-01,4.850754e-01,1.369248e-02,-4.219944e-03,4.577611e-02,-5.128912e-01,3.619810e-01,6.324410e-02,-3.939778e-01,6.182593e-01,-2.577157e-01,3.741174e-01,-6.572470e-03,-5.519487e-01,2.969070e-02,-1.333452e+00,-2.748610e-02,-4.573132e-03,4.875667e-04,2.823589e-01,1.768170e-01,8.350386e-02,-5.290553e-03,-6.412204e-03,7.633985e-01,-3.885217e-01,1.282096e-01,1.778939e-02,-3.152474e-01,3.605593e-01,-1.112744e-03,5.762703e-01,2.898104e-01,2.182029e-01,3.203913e-01,3.100664e-01,-7.036292e-03,
-6.928095e-01,-5.615852e-01,1.536201e+00,-6.297813e-02,4.501697e-01,1.915939e-01,-3.864260e-03,-8.594846e-03,5.286736e-04,-1.271292e-02,-1.344445e-01,1.731079e-02,1.931969e-01,6.094325e-01,-2.300752e-01,-7.290928e-02,1.884286e-01,-2.083487e+00,1.358127e+00,7.274243e-01,-3.302938e-01,-1.516441e-01,5.394548e-01,-6.437500e-01,5.412578e-01,1.292625e+00,-1.077560e-01,2.032480e-02,4.564035e-01,4.307714e-01,2.984863e-01,-7.396282e-03,-4.565920e-01,3.732795e-01,3.444482e-01,-1.032270e-01,-7.457470e-03,2.132948e-01,-9.901018e-03,1.052737e-01,-1.594423e-02,-1.507443e-02,-6.223808e-03,-2.893966e-01,-7.819475e-03,9.714692e-02,-7.403409e-01,-4.224221e-01,-4.782824e-03,2.662027e-01,
-7.307026e-02,-1.798612e+00,5.319641e-01,7.853954e-01,1.245758e-02,-7.702075e-03,1.457740e-02,2.679079e-03,-2.029618e-02,7.273740e-01,5.972145e-01,1.550242e-02,-4.409680e-01,-2.238801e-01,-9.425546e-01,-1.562090e+00,-7.667911e-03,1.791899e+00,2.314206e-01,-4.982398e-01,4.641472e-01,-5.039276e-03,1.540692e+00,-4.873132e-01,-1.579236e-01,-2.691078e-01,-7.408234e-01,2.473680e-02,-5.778905e-02,-2.545910e-01,-8.934473e-01,3.409438e-02,3.303638e-01,-1.696243e-01,2.073374e-02,1.106364e-03,-6.704934e-03,-2.778248e-02,-2.061687e-01,2.146286e-01,-6.590376e-03,-1.170145e-03,-5.528266e-01,2.026467e-02,-2.029605e+00,2.769276e-01,7.429219e-02,2.306146e-01,-1.663492e-03,-2.455001e-01,
-2.588000e-01,3.303115e-01,-3.645878e-01,1.050341e-02,7.108481e-01,6.458474e-01,6.997173e-04,5.471143e-03,2.639295e-02,6.088917e-01,-2.005398e-01,-4.368693e-03,3.592151e-02,-1.995445e-01,1.185943e+00,6.711037e-01,-2.656537e-01,-9.629057e-01,3.889204e-01,-1.528586e-01,-1.789690e+00,5.009977e-01,1.124296e-01,-1.745182e-03,-1.428491e-01,5.598599e-02,-1.878690e-01,4.070780e-02,-6.378557e-03,-2.261758e-01,-2.016454e-01,5.189660e-03,1.853782e-01,-7.145948e-01,-1.093448e-02,2.960392e-02,-1.873855e-02,1.151120e-02,-2.742088e-01,4.627485e-01,-2.357608e-02,3.957860e-01,2.386318e-01,-1.116440e-01,-2.544957e-01,1.978510e-03,6.606010e-01,-2.432152e-01,1.343954e-02,8.258409e-02,
-7.843840e-01,-6.172572e-03,2.604778e-04,-8.626117e-01,-1.645847e+00,2.721968e-01,-1.902540e-02,3.813878e-03,-1.167746e-02,5.539544e-01,2.195409e-01,-4.131877e-03,2.352564e-01,-8.945162e-01,-1.605172e-01,1.499162e+00,-2.827016e-01,-1.279175e+00,-1.067678e+01,-9.262950e-01,-4.065750e-01,1.067931e-01,-4.808146e-01,-1.487098e+00,1.118816e-01,-4.068060e-03,-7.516017e-01,-1.514920e-02,4.197663e+00,7.818358e-02,-6.929603e-01,-7.586900e-03,-1.535084e+00,-2.870286e-01,5.206119e-01,-5.952948e-01,-3.740796e-03,1.139693e-01,-5.825389e-01,-1.337589e+00,-1.917433e-02,4.799713e-02,-1.452479e-01,-9.768619e-01,-1.159951e+00,1.231091e+00,-2.832567e-01,1.051510e+00,7.856087e-01,-2.181330e-01,
2.308893e-02,5.134776e-01,2.619707e-02,2.248762e-01,-2.250028e-01,2.093487e-02,-4.383864e-03,7.003353e-03,-6.645090e-03,-9.156323e-01,-2.667218e-01,1.902730e-02,2.459745e-01,-2.597451e-01,5.669611e-01,6.135356e-02,-2.672076e-01,6.986881e-02,2.069360e-02,1.588806e-02,-5.909825e-02,2.176229e-01,1.717238e-01,-3.834694e-01,5.636648e-01,-4.850540e-03,-5.492851e-01,3.960400e-02,-5.758715e-01,1.423417e-01,1.063235e+00,-2.029766e-02,3.817208e-01,1.644892e-01,1.367621e-01,2.320210e-01,3.633264e-02,-1.285216e-01,1.260259e-01,-5.400380e-02,-6.966813e-03,3.221758e-03,-3.809737e-02,-1.920873e-01,-5.578279e-01,1.271286e-01,-1.953113e-02,8.868247e-02,-2.797197e-01,-7.439513e-01,
4.371128e-01,-8.781286e-03,1.299802e+00,-2.150091e-03,4.358435e-01,-6.133339e-02,4.945268e-03,6.818948e-03,-2.299870e-02,6.675334e-02,2.402402e-01,1.968104e-02,-2.055473e-02,6.124659e-01,2.869582e-01,1.575311e-01,7.459072e-03,7.119785e-01,6.563959e-01,7.504571e-03,3.959229e+00,2.516124e-01,-3.168315e-01,-1.344447e-01,-4.540562e-02,1.778279e-01,-8.485273e-03,1.653010e-02,-3.325771e+00,-4.995862e-03,3.032461e-01,-2.446486e-02,-1.071371e-02,7.555811e-02,-1.849201e+00,-1.156655e-02,1.331860e-02,1.221726e+00,8.113407e-02,-1.499657e-01,7.400513e-03,-4.167299e-02,-7.156230e-03,-8.809244e-03,1.414421e-01,-1.404366e-01,-3.685707e-01,1.298650e-01,-2.898034e-02,3.034362e-01,
3.378280e-01,2.818627e-01,-1.650821e-01,-7.274361e-03,4.276928e-01,7.240373e-01,-1.855381e-04,7.927469e-04,2.748655e-02,1.021019e-01,1.992136e-01,3.200555e-02,1.253928e-01,8.324404e-01,8.048979e-01,-4.595284e-01,-6.525360e-03,8.404139e-01,9.531805e-01,2.043815e-01,-2.463337e+00,-8.870797e-03,7.825841e-01,3.922022e-01,2.285566e-01,2.105668e-01,1.077073e-01,1.433610e-02,1.292543e+00,-1.229592e-02,2.470471e-01,-3.522593e-02,2.258282e-01,1.103848e-01,-2.982236e-01,-9.332637e-03,1.528386e-02,6.758443e-02,7.098854e-01,-6.522927e-01,-2.103580e-02,-1.458357e-02,-8.670179e-03,-7.426843e-03,-4.809570e-03,-1.052108e-02,-2.014272e-01,-7.643219e-04,-2.060040e-02,-3.055502e-03,
-6.286868e-01,4.083580e-01,7.395668e-01,6.745497e-01,1.491945e-01,7.069768e-01,2.908344e-02,-6.430484e-03,3.030435e-02,6.674054e-02,-1.178492e+00,9.310010e-03,6.979440e-01,1.798622e-01,-6.724492e-01,-5.709144e-01,-2.929522e-02,5.276942e-01,-7.393633e-01,-2.180790e-01,-7.684770e-01,1.798231e-01,1.101980e+00,-1.254595e+00,-2.392382e-01,3.751101e-01,-1.764413e-01,2.106360e-02,2.503259e-02,1.851647e-01,-1.951262e-01,-3.075775e-02,1.865766e-01,5.767773e-01,-2.081328e-01,2.721283e-01,2.213212e-02,-3.150228e-01,-7.900370e-03,-2.304482e-01,-1.060845e-03,3.681391e-01,2.855817e-01,3.907234e-01,3.275986e-01,7.841131e-02,-2.898604e-01,2.753577e-01,-1.047961e+00,-2.318354e-01,
1.301934e+00,-1.758250e-01,-2.471895e+00,-8.704285e-01,-7.330698e-01,-2.724121e-01,1.191772e-02,3.117085e-02,-1.889376e-03,1.452298e+00,4.103935e-01,4.102162e-02,-1.313624e+00,-1.117106e+00,-6.359710e-01,3.353722e-01,-9.829795e-01,1.912564e+00,2.020756e-01,1.099958e+00,4.952872e-01,1.257451e+00,-1.829018e+00,6.249065e-01,-2.271509e-01,-8.978002e-02,-6.300101e-01,-3.592850e-02,-2.688258e+00,-8.178285e-01,-6.047265e-01,2.801393e-02,-2.568453e+00,3.442359e-02,-5.232327e-02,-1.106098e-01,-2.343013e-02,6.547794e-01,3.651180e-01,4.084480e-01,-2.084560e-03,5.607696e-01,5.893838e-01,-2.004854e+00,-2.846847e-01,-1.004447e+00,-3.980598e-01,-1.636053e-01,1.518793e-01,-1.441675e+00,
2.578344e-01,5.165824e-01,1.316650e-01,1.071408e+00,-8.426553e-02,3.307154e-01,1.241079e-02,-5.405825e-04,-1.720477e-02,3.851615e-01,-3.026240e-01,5.125846e-02,-5.827757e-03,-1.194727e+00,-3.383836e-01,1.679740e+00,-7.533024e-02,-4.596805e+00,-1.468669e-01,-7.209587e-01,5.370400e-01,5.022497e-01,-1.100369e+00,-3.217660e-01,2.170017e+00,-2.928020e-01,-1.580745e+00,4.336550e-02,-9.551206e-02,-4.842690e-01,-9.625470e-01,3.649259e-02,-5.898538e-01,-2.463183e+00,-1.607963e-01,-2.246403e+00,8.056193e-03,4.883299e-01,1.068248e+00,-1.909947e-01,-7.215162e-03,4.848424e-01,5.582637e-02,-6.623422e-01,9.150466e-01,-4.697492e-01,-5.787652e-01,3.753246e-01,-2.507433e-01,-1.487503e+00,
-3.983140e-01,1.968617e+00,6.875374e-02,7.486580e-01,-2.680210e-01,3.181135e-01,-2.381291e-02,-2.962361e-02,-1.994677e-02,1.839848e-01,-7.752582e-01,2.272675e-02,4.906336e-01,3.963679e-02,1.756573e-01,-8.608015e-03,6.986663e-01,-2.931847e-02,-4.607882e-01,-4.575492e-01,-3.901036e-02,-1.901790e-01,1.360170e-01,-7.584236e-01,-1.128100e-01,-1.103457e+00,-3.027389e-01,1.368460e-03,-1.356485e+00,4.943056e-01,1.062311e+00,-9.935837e-03,-2.211107e+00,2.860503e-01,2.849423e-01,1.845765e-01,1.206735e-02,9.509496e-03,3.249343e-02,-9.433368e-01,-5.154709e-03,-8.165052e-01,5.709981e-01,7.939505e-02,-8.082522e-01,9.541491e-01,6.491320e-03,5.620606e-01,3.866159e-02,-8.307342e-01,
-5.864071e-01,-8.734217e-02,-4.067223e-01,1.454944e+00,-3.596367e-01,-1.346434e-01,2.800031e-02,-7.156061e-03,3.249240e-02,-1.184883e+00,-4.712057e-01,-6.425289e-03,9.766067e-01,-1.092558e+00,-9.138561e-01,-5.038629e-01,-4.227904e-02,1.356765e-01,-5.109869e+00,1.274497e+00,2.274641e-01,-8.007661e-01,-4.953506e+00,-1.269140e+00,-9.260855e-01,-1.265540e+00,-1.402975e-02,4.236770e-02,-1.503219e+00,-1.896112e-01,-4.733705e-01,2.414166e-02,-1.392517e+00,1.259718e-01,5.426002e-01,1.486239e-01,1.325687e-02,5.453528e-01,1.223090e-01,-2.492265e-01,-1.322585e-02,1.234430e-01,3.043474e-01,2.469807e-01,1.253918e+00,-3.001027e+00,6.212965e-01,5.246742e-03,1.783871e-01,-9.483075e-01,
-6.287330e-01,-7.187801e-02,-2.322575e-01,-2.871025e+00,1.913999e-01,-4.636078e-01,2.486193e-02,-7.447445e-03,-1.791159e-02,-4.051328e-01,1.828012e-01,-8.333449e-03,2.077979e-01,-1.577429e-01,-2.027473e-01,1.327375e+00,-1.606303e-01,-1.706121e+00,-9.931263e-02,-3.927431e-01,-1.704586e-02,7.106914e-01,4.666079e-01,6.495573e-01,1.387275e+00,-6.807606e-01,-1.792752e+00,-4.510230e-02,3.109794e-01,4.879129e-01,-8.306134e-02,7.538066e-03,-1.223027e-01,3.522961e-01,-6.276998e-03,-1.980747e-01,-1.300271e-03,2.492900e-01,-5.593420e-01,1.514263e-01,-2.593640e-02,-3.193647e-02,-2.641836e-01,1.814154e-01,-1.660236e-01,-6.878535e-01,-3.928446e-01,2.453321e-01,-2.752839e-01,2.714503e-02,
1.780995e-01,-1.498128e-03,1.513332e-01,2.943972e-02,-3.142687e-02,-4.622208e-01,-3.607018e-02,6.524974e-03,6.337313e-03,-5.259714e-01,-1.215402e-01,3.352528e-02,-3.810162e-02,5.687477e-02,-3.934852e-01,2.781043e-01,3.838417e-01,1.057242e+00,-1.024846e-01,-4.856098e-01,-2.119918e-01,9.337505e-01,1.258836e-01,-9.826923e-02,2.045401e-01,-7.867295e-03,3.665295e-01,3.654000e-02,-5.603910e-01,3.183037e-02,-2.002352e-01,-2.793730e-03,-3.303268e-01,-3.262466e-01,-7.371142e-04,3.753821e-01,-2.557853e-02,-1.281477e-01,6.024157e-02,-4.660418e-01,1.903582e-02,-3.161008e-03,-2.914066e-01,-4.430662e-01,-1.374016e-01,-3.969985e-01,4.386734e-01,-3.134123e-01,1.511322e-04,-1.436486e-01,
-2.533441e-01,-1.086350e+00,-1.066853e+00,4.497062e-01,-9.224816e-02,-5.440916e-01,-2.420909e-02,-4.237466e-03,-3.305454e-02,5.279342e-02,-1.347853e-02,-2.158750e-02,-3.425983e-01,2.204082e-01,1.069807e+00,1.261219e-02,1.440075e-01,1.346421e+00,2.890200e-01,-4.729364e-01,-2.814628e+00,2.022272e-01,-1.673309e-01,3.097498e-01,2.295339e-01,3.970446e-01,-7.030222e-02,-1.072610e-02,8.581873e-02,3.480970e-03,-4.832475e-01,-1.171497e-02,6.523278e-01,5.263641e-01,2.420230e-01,2.939864e-01,-3.096383e-03,-4.435692e-01,2.843458e-01,-1.016592e-01,-2.275874e-03,1.949090e-01,-3.758466e-03,1.324981e-01,-1.791057e+00,2.392571e-01,-5.627377e-02,-6.672102e-03,-1.757326e-02,1.956352e-01,
-6.223738e-02,-1.940344e-02,4.422793e-01,4.051707e-02,3.206597e-01,6.836632e-01,-1.156173e-03,3.674619e-02,2.332904e-02,-2.018848e-03,-6.019239e-02,2.105805e-02,2.816355e-02,-6.776319e-02,5.448647e-01,5.989860e-02,-7.604191e-03,1.184245e-01,6.859555e-02,-7.287576e-02,2.584707e+00,1.872245e-02,-8.867661e-03,-7.165612e-03,2.257978e-01,6.942007e-02,7.288981e-03,4.703750e-02,-2.202564e-01,9.187703e-03,-1.259558e-01,-4.588067e-03,-2.732415e-01,-4.623117e-02,-9.114177e-03,6.415849e-03,3.464235e-02,1.379816e+00,3.391560e-02,2.306462e-01,-6.625992e-03,3.349867e-01,-1.749400e-01,-8.040506e-03,-8.139268e-03,-7.304010e-02,3.630648e-01,-8.806789e-02,-1.771287e-01,2.185762e-02,
-2.958114e-03,-2.344143e-01,8.885641e-01,5.836455e-01,-2.325045e-01,-4.161131e-02,-4.775640e-03,-3.087301e-02,-3.242286e-02,-5.335491e-01,-3.701481e-01,1.045199e-02,9.729266e-02,6.507406e-03,-2.252050e-01,-2.815449e-01,2.010388e-01,4.781243e-01,-1.777338e-01,-1.740588e-01,6.144787e-01,-6.079273e-01,-4.141610e-01,2.690746e-02,-4.449728e-01,-4.501934e-01,-2.422344e-01,-1.850930e-02,4.947735e-01,1.782989e-01,5.631413e-01,-1.337698e-02,1.776107e-01,1.827098e-01,-2.566177e-01,-5.577731e-05,4.813726e-02,-2.856617e-01,3.131824e-02,1.853396e-02,-6.333933e-03,8.855410e-01,6.720835e-02,-5.006858e-03,3.424106e-01,1.531145e-01,1.980624e-01,-3.592519e-02,-1.460189e-03,3.937913e-01,
6.789016e-01,
-9.131351e-01,
-1.210927e+00,
-5.835128e-01,
-2.115695e-01,
-8.948633e-01,
-8.055402e-01,
1.368689e+00,
2.141780e-01,
-3.743995e-01,
-5.459840e-01,
-8.137957e-01,
-4.505262e-01,
-2.152293e-01,
-1.086698e+00,
-2.352002e-01,
5.524824e-01,
-7.094102e-01,
-4.345033e-02,
5.451182e-01,
-1.379656e+00,
5.714589e-01,
-9.602510e-01,
-6.623129e-02,
-4.193958e-01,
-2.126384e-01,
-9.085341e-01,
-1.112216e+00,
-9.831422e-01,
-1.672010e+00,
-1.197419e+00,
-9.659752e-01,
-1.118777e+00,
-5.617746e-01,
-4.444985e-01,
-7.580306e-01,
-7.318417e-01,
2.867180e-01,
-1.452010e+00,
-2.240980e+00,
2.258713e-01,
1.388542e+00,
5.693046e-02,
-7.869021e-01,
1.085009e+00,
-8.222190e-01,
-2.845705e-01,
-1.040310e+00,
-1.276564e+00,
-2.410267e-01,
-2.012876e-01,7.576530e-02,3.684917e-01,4.299945e-01,-2.441682e+00,-3.986582e-01,-4.440826e-01,-1.261025e-01,5.340414e-01,1.959558e-01,1.756655e+00,2.026067e-01,-1.400590e-02,-8.520928e-03,1.983191e-01,-1.457601e-02,3.563925e-02,-2.678487e-01,7.766148e-03,1.569833e-01,1.190448e+00,4.215798e-01,-8.202020e-03,-2.248028e+00,-2.185740e+00,7.944344e-01,-1.702679e+00,-1.408237e+00,2.504370e-01,-9.596426e-03,-1.264570e+00,-4.372897e-03,-1.808897e+00,-5.982379e-02,1.143793e+00,-8.023170e-01,-3.488134e-01,4.250454e-01,-1.190774e+00,-4.246104e-01,8.244448e-02,1.470489e-01,-1.077933e-02,7.178373e-03,1.278303e-01,-1.169810e-03,8.384272e-04,-9.621726e-01,-9.265719e-02,-7.706774e-01,
-9.296084e-02,-3.023548e-01,5.145262e-01,1.645449e-01,3.048034e+00,6.570036e-01,2.192827e+00,2.745200e-01,1.015455e+00,9.259117e-02,-8.712421e-03,9.905152e-03,-6.343722e-01,-1.643167e+00,-5.201868e-02,2.929999e-02,-6.929904e-03,1.080543e-01,-1.065149e-03,-1.398837e+00,2.765823e-02,1.154555e+00,-1.284707e-02,1.969536e+00,6.061019e-01,-6.130357e-01,2.976445e-01,-3.312775e-01,2.003726e-01,6.760519e-01,1.053082e+00,-5.275983e-01,-4.674216e-01,-1.573397e-01,9.775546e-01,1.397463e-01,2.697716e-01,-1.079035e-02,2.172409e+00,1.452514e+00,1.070467e+00,-2.965235e-01,4.322365e-01,4.371768e-01,-4.569108e-01,-1.295246e+00,5.891798e-01,1.745654e+00,1.345614e-01,-3.425524e-01,
-5.014656e-01,-8.996939e-01,1.732311e-01,-5.081153e-02,-3.380473e-02,8.833634e-01,2.464369e-01,-4.633921e-01,5.507535e-01,2.987962e-01,4.028692e-02,3.970908e-02,5.564531e-01,1.742226e-01,-6.751237e-02,8.910221e-01,1.355158e-01,-1.215304e-03,-7.864737e-03,2.675707e-01,2.516189e-01,-6.327692e-01,-2.515576e-01,-1.057873e+00,-4.515772e-01,-8.527753e-03,1.422127e+00,-2.563625e-01,-4.749808e-02,1.893966e-01,1.173969e-01,3.666850e-02,4.285063e-01,3.427020e-01,5.114729e-01,-2.130833e-01,2.345543e-01,-5.689397e-02,4.419823e-01,3.583341e-01,-3.506165e-01,1.371393e-01,-8.199398e-03,-5.391221e-01,-4.916902e-03,1.983415e-01,-8.842637e-02,-5.919325e-01,2.721212e-01,6.734540e-02,
1.270053e-01,1.274173e-01,1.666806e-01,-2.340342e-02,8.773902e-01,2.678360e-01,5.277266e-01,2.239765e-01,-3.836552e-01,-5.439412e-01,-4.738061e-01,1.768687e-01,-4.013660e-01,-3.315069e-03,6.070392e-03,5.593966e-01,-2.466419e-03,3.787514e-01,-8.821934e-03,-1.311860e-02,-3.755923e-01,-3.947588e-01,1.881399e-01,-2.749972e-01,-2.137642e-01,-2.053727e-01,1.818357e+00,-8.686592e-01,-1.973722e-02,-3.826946e-01,-2.509789e-01,5.324451e-02,-8.966227e-01,-7.032865e-03,1.192907e-01,2.688104e-01,1.211323e-01,4.622698e-01,-2.886900e-01,5.940881e-01,2.253062e-01,1.283087e-03,-1.916079e-02,4.432428e-02,1.602447e-01,-5.759867e-03,-2.644706e-01,-5.208838e-01,-7.045316e-01,3.082159e-01,
-4.202468e-02,9.118612e-02,2.022073e-01,-6.499764e-01,1.097601e-01,3.691683e-01,6.603762e-01,3.884485e-01,5.254190e-01,6.340236e-01,9.526643e-02,3.031276e-02,-1.098558e-01,-3.719678e-01,-5.681797e-01,-3.597781e-02,3.567633e-01,-9.368456e-03,-5.380723e-03,-1.122010e-01,5.098648e-02,5.779170e-01,-1.298490e-03,1.088973e-01,-8.171821e-01,-9.501610e-04,-2.636072e-02,-6.027620e-01,-1.095114e-02,1.129166e+00,2.716072e-01,-6.072476e-03,7.103818e-01,8.402740e-01,-3.324782e-04,-8.752780e-01,2.022323e-01,-1.481347e-02,-6.388187e-01,3.557238e-01,4.225425e-02,-3.465991e-03,3.552201e-01,-1.029563e-02,-1.119603e-02,-8.190284e-01,-4.979369e-01,6.723709e-01,-3.075562e+00,-1.014323e+00,
-5.053004e-02,-4.058962e-01,3.481021e-01,-6.676478e-02,-3.341460e-03,3.602652e-01,-2.910586e-01,-2.289828e-01,-2.417424e-01,8.816312e-02,-3.445210e-01,2.566272e-01,-3.619117e-01,1.582363e-01,3.244567e-02,2.125148e-01,-6.250691e-02,2.861105e-01,-7.120281e-03,-1.581022e-01,-7.449047e-02,-7.107580e-03,-2.931202e-02,1.014545e-01,-5.508121e-01,8.237493e-02,4.697949e-01,-7.164745e-01,1.580714e-01,8.216527e-01,1.945114e-01,1.299666e-01,-3.590376e-01,-8.110314e-02,2.463474e-01,-1.217783e-01,1.188604e-01,1.858125e-01,1.011923e+00,4.290404e-01,8.035129e-02,-4.690833e-03,-1.173729e-01,-1.820118e-01,-2.651169e-02,-1.485350e-03,9.895842e-02,-5.267417e-01,1.265068e+00,-5.705927e-03,
7.763706e-01,8.565545e-01,2.221462e-01,7.764527e-01,2.952489e-01,-2.066584e+00,3.455127e-01,8.931183e-01,-1.175833e-01,5.596575e-01,-6.922153e-01,-2.807503e-01,-7.203355e+00,-4.521097e-01,-1.606630e+00,-1.606442e+00,9.784991e-01,-1.453117e+00,7.250143e-03,-1.403165e-01,-2.494394e+00,2.054600e-01,-3.336853e+00,-2.155568e+00,-2.723068e-01,-7.062589e-01,-2.688887e-01,4.514332e+00,-2.044818e+00,1.186083e+00,-5.722165e-01,6.412162e-02,-3.248301e-01,-1.222886e+00,-1.656835e+00,-1.107454e+00,-1.825903e+00,1.302567e-01,-4.151953e+00,-2.140170e+00,1.714955e-01,5.425882e-01,9.523654e-01,-1.061235e+00,9.353323e-01,-5.195654e-01,-1.273878e+00,-1.292872e+00,1.444193e+00,5.113519e-01,
-8.094184e-03,-1.035748e+00,-9.266463e-02,-9.429152e-01,-6.288700e-01,-3.980111e+00,-8.601552e-01,-8.189040e-01,3.412665e-01,6.300774e-02,1.645502e-01,-8.465719e-01,-1.607481e+00,9.119554e-01,-6.296560e-01,7.857500e-01,-3.939631e-01,5.318505e-01,-9.855902e-04,3.837526e-01,-5.636822e+00,1.625468e+00,-3.592332e+00,-5.717142e+00,3.015082e-01,-4.967528e+00,7.861732e-01,5.333017e+00,-1.746626e+00,9.113010e-02,1.955483e+00,-8.786151e-01,1.747592e+00,-4.858008e-01,1.152604e+00,3.933338e-01,-6.637359e-01,-6.213802e-01,-2.864633e+00,3.214533e+00,1.905134e-02,2.474174e-01,3.621367e-01,9.773508e-02,-6.166061e-01,2.375203e-01,-7.745534e-01,-3.291676e+00,-1.227017e+00,-8.944370e-01,
2.943941e-01,-6.804215e-03,-3.033485e-01,-9.706715e-02,-3.931131e-01,-9.039595e-01,6.037381e-02,1.958650e-01,-5.159574e-01,-7.795228e-01,2.773648e-01,1.045200e-02,1.472854e-01,-8.147281e-01,-1.519980e-01,6.691240e-01,-7.287521e-02,2.254433e-01,-7.839713e-03,6.147730e-01,-3.670452e-01,1.783559e-01,1.293447e-01,1.598730e+00,-2.122882e-01,-5.999001e-01,-1.642231e-01,3.455015e-01,6.737942e-02,-8.694391e-01,4.398215e-01,3.470165e-01,-5.016663e-01,-2.835960e-05,2.035943e-01,-3.346249e-01,-5.693063e-01,1.298313e+00,-5.725601e-01,4.519491e-01,1.449285e-02,-2.692451e-01,1.088447e-01,-2.533108e-02,3.088215e-02,1.254245e-01,-2.532580e-01,-9.514049e-03,1.156067e-02,2.320947e-01,
-3.884915e-01,-1.535684e-01,1.834013e-02,-1.944272e-01,-5.715201e-01,2.516398e-01,-4.475328e-01,6.951032e-01,3.246149e-01,1.341827e-01,1.358672e+00,-7.535222e-03,8.053393e-02,-2.784004e-01,-1.833075e-01,3.335073e-01,-1.748124e-01,2.293748e-02,-8.527023e-03,-2.037636e-01,7.191723e-01,1.852752e-02,-1.352824e+00,-3.272735e-01,-1.256005e-01,4.003472e-01,4.704106e-01,-4.652567e-01,-2.303062e-01,4.090909e-01,7.341231e-01,-4.161858e-01,-1.583142e-02,5.496560e-01,-9.838641e-03,-1.029554e-01,4.876952e-01,-5.273013e-05,-5.394214e-01,-9.931037e-02,-5.129271e-01,-6.238254e-01,-2.069500e-01,-6.532718e-03,-8.388900e-01,1.896309e-01,4.723381e-01,3.498493e-01,-1.968676e-01,1.461741e-01,
1.938359e-02,1.219069e+00,1.082279e-01,-4.077216e+00,-1.114808e-02,-1.194137e-03,-9.026359e-03,-1.439998e-01,-2.456788e-01,-1.495248e-04,-1.710825e-01,-9.175956e-01,-8.162044e-01,-3.600347e-01,-1.702758e-02,-3.630782e-01,2.590958e-01,-1.386676e-02,1.926100e-02,1.724392e-01,7.124542e-03,-4.070876e-03,1.271347e+00,-3.291542e+00,-6.816701e-01,-5.356894e-03,3.073278e-03,1.719597e-01,-6.051608e-01,-5.526764e-01,-1.177841e+00,-2.015733e-01,-1.337333e+00,-1.072528e+00,-2.324141e-01,3.426694e-01,-4.522611e-01,-4.005663e-03,7.267125e-02,-1.396939e+00,-1.500349e-02,1.210903e-01,3.125440e-01,2.202425e-01,8.024877e-01,-1.642463e+00,-2.416239e-02,1.191817e+00,3.713326e-02,4.410895e-01,
2.029926e-02,1.902718e-03,3.767176e-01,2.667905e-01,2.066045e-01,-1.202045e+00,-9.574975e-03,6.845525e-02,-2.983921e-03,1.674780e-01,-6.203313e-03,1.373430e-02,5.263854e-01,1.426582e-01,9.976011e-02,1.739326e-02,-1.474870e-01,5.562890e-02,-8.709669e-03,5.726204e-02,-1.542504e-03,4.160435e-02,-2.931206e-04,3.917354e-01,6.270620e-03,4.320455e-01,2.697734e-01,6.131905e-01,2.101661e-02,-2.603890e-02,3.847162e-01,-6.554680e-03,6.716909e-02,4.205029e-02,-3.007449e-01,7.010894e-04,2.334691e-01,1.724841e-04,4.176521e-01,-1.235629e+00,1.834353e-02,1.412401e-01,-3.492858e-01,-1.356725e-01,3.034136e-01,2.915265e-03,-1.793186e-01,6.069176e-03,2.271141e-01,5.553859e-02,
-2.296052e-01,-6.516091e-01,-3.976185e-01,3.504898e-01,-8.515170e-01,-5.921988e-01,-9.064186e-01,6.228332e-02,-3.990204e-01,-3.933364e-01,1.226300e+00,-2.820594e-01,4.252062e-01,-1.849746e+00,3.009953e-01,-1.033524e-01,-1.597218e-01,-2.262249e-01,5.041843e-03,1.261340e+00,1.422374e-03,-1.280999e+00,1.779857e-02,-2.386408e-01,-9.027204e-03,-1.285060e+00,-1.583026e+00,5.214497e-01,-1.441762e-02,5.439885e-01,3.490508e-01,-1.415292e-01,1.556075e-01,-3.932091e-01,-6.759745e-01,1.690456e+00,4.450681e-02,-6.014552e-01,-1.718653e+00,7.429066e-01,-3.601919e-01,-3.408335e-03,5.372150e-01,4.842102e-02,1.188315e-01,3.134817e-01,-4.273561e-01,-1.611882e-02,-1.421356e+00,-3.308776e-01,
6.212892e-02,-1.025152e+00,3.215861e-01,-2.575119e-01,-4.844227e-01,-3.353091e-01,2.675646e-02,-3.891350e-01,2.707855e-01,3.583780e-02,7.027847e-01,-8.535999e-03,9.269913e-02,-1.452902e+00,2.181690e-01,-8.279460e-01,-7.991216e-03,-1.671724e-01,-3.648302e-03,2.702561e-01,1.027815e-03,1.981494e-01,-1.076032e+00,-5.676398e-01,-2.767383e+00,5.259572e-01,1.392078e-01,8.929964e-01,-2.034633e-01,-5.065108e+00,3.814477e-01,-4.721800e-01,-1.756006e+00,8.648009e-03,-3.352778e-01,-4.636824e-02,-2.079407e-01,9.376930e-01,-1.206213e+00,4.726038e-01,-5.934729e-01,-1.917952e-01,3.701699e-01,-2.032062e-01,-6.727586e-01,3.496974e-01,-3.568769e-01,2.709662e-01,-4.967575e-01,-1.363241e-02,
-4.596354e-01,-1.809871e+00,-2.649239e-01,-8.443618e-01,-7.478564e-01,8.235899e-02,-4.716522e-01,6.501164e-02,1.827393e-01,6.011025e-01,1.737528e+00,-3.823794e-01,5.337383e-02,5.282313e-02,4.078336e-01,-1.589207e-01,-3.882213e-01,-2.902491e-01,1.324949e-02,3.539702e-03,8.071171e-01,1.478073e-01,-3.457111e-04,-3.585767e-01,3.468363e-01,-6.827841e-01,2.898457e-01,2.629505e-01,-4.065910e-01,5.629761e-01,1.070593e+00,2.983014e-01,2.114068e-01,2.072115e-01,-9.957538e-03,-1.756536e-01,8.011799e-02,2.021661e-01,1.810979e-01,-4.811127e-01,-3.268620e-01,-4.684075e-01,-2.604149e-01,3.013341e-01,-3.578905e-01,7.138534e-01,2.648843e-01,-1.010970e-01,-5.528023e-02,-9.532397e-01,
2.022227e-01,-3.876476e+00,-7.234918e-01,4.564785e-01,2.490427e-01,4.815913e-01,5.810750e-01,1.017076e-01,-2.347725e-01,7.141846e-01,1.967794e+00,-1.793447e-01,1.102862e+00,6.899492e-01,1.746370e-01,-6.896372e-01,2.678793e-01,4.268577e-02,2.210411e-02,-4.058280e-01,-1.323320e+00,2.963611e-01,2.140081e+00,5.542828e-01,1.975844e-01,4.323411e-01,8.039368e-01,-1.046755e+00,-9.048851e-01,-2.794608e+00,1.078929e+00,-7.065762e-01,-8.781794e-01,4.464823e-01,-2.913693e-01,4.703617e-01,-1.278216e+00,-9.208423e-01,-3.481380e+00,5.705900e-01,-3.075252e-01,-1.994915e-01,2.274767e-01,-9.929879e-01,5.404801e-01,-5.489495e-01,4.843734e-01,-5.552793e-01,1.965804e-01,-4.837504e-01,
9.790955e-01,9.795464e-02,-2.011747e+00,-1.062454e+00,1.121758e-01,7.168605e-02,-9.188963e-01,-1.124286e+00,2.123074e+00,-7.171652e-01,-2.186691e-01,-6.392616e-01,-9.767914e-01,-6.543515e-03,-1.056370e-01,-2.814090e-01,5.415134e-01,2.162185e-01,-7.545619e-03,6.407751e-02,-1.052439e+00,-8.066645e-02,6.710152e-01,-8.810792e-01,-4.593064e-01,-1.785726e+00,-2.765243e+00,-3.678188e-01,-7.815214e-01,7.168058e-01,-1.241618e+00,3.879221e-01,1.175687e+00,9.656981e-01,-5.188257e-01,6.224717e-01,9.211069e-01,-4.612661e-01,1.000569e+00,5.263962e-01,-1.755146e-01,-3.089809e-01,-1.118671e+00,-9.989576e-01,1.881995e-01,-1.556893e+00,2.140509e-01,-7.078690e-03,-9.458927e-01,-3.575860e-01,
-2.529461e-01,-7.178893e-01,4.908125e-01,-1.631164e-03,-6.378522e-01,2.431494e-01,-6.842220e-03,-3.148916e-01,-2.771308e-01,8.887263e-02,-6.440658e-03,1.695597e-01,-2.392550e-01,-9.803301e-02,8.441669e-02,5.749522e-01,-1.614522e-01,1.018557e-01,-5.522653e-03,-1.131717e-01,-7.291113e-03,-2.230724e-01,-5.351797e-01,2.964144e-01,-4.583468e-01,2.557003e-01,-5.141529e-01,2.314655e-01,2.068078e-01,3.159105e-01,6.713229e-01,-8.882887e-04,8.078175e-02,-4.305789e-02,2.342565e-02,4.254979e-01,-3.274258e-01,4.030630e-01,9.557965e-02,1.400993e+00,1.057747e-02,-4.571818e-02,4.063648e-02,-6.549916e-02,-1.485065e-01,1.191598e-01,-5.590980e-04,-9.243053e-02,-1.089460e+00,3.585867e-01,
-1.440458e-03,-2.891440e-01,-1.236454e-01,8.785140e-01,-8.785260e-01,5.177050e-01,1.040193e+00,-1.627442e+00,-8.562221e-03,-2.452469e-01,-1.061324e+00,-6.836831e-03,-2.117170e+00,-4.231117e-01,-2.801081e-01,-8.837873e-02,7.093993e-01,4.317407e-02,3.433135e-03,2.808072e-01,-5.915697e-01,-2.955215e-03,1.648192e+00,2.920700e-01,-9.615783e-01,5.420409e-01,3.633353e-01,1.064845e-01,3.380170e-01,1.223651e+00,-7.959077e-01,-1.677896e-03,-3.120157e-02,-1.852008e-01,3.659842e-01,3.765762e-01,-1.489402e+00,-1.267749e-01,2.192306e-02,7.162881e-01,3.910770e-01,3.185216e-01,8.796302e-01,-1.998896e-01,-7.076234e-02,-2.308331e-01,-4.612730e-01,8.584467e-01,4.726126e-03,3.696063e-01,
-3.302580e-02,-2.796867e+00,-3.361520e-02,2.282634e-01,5.765128e-01,-5.300243e-01,4.573736e-01,-1.462095e+00,3.857257e-01,9.911758e-01,1.518546e+00,3.915381e-01,-1.681674e+00,6.790107e-01,-1.340549e+00,1.304984e-01,-1.084028e+00,2.660402e-01,-8.214441e-03,-3.424108e-01,1.026371e+00,6.738874e-02,2.775372e-01,-9.904436e-01,1.194756e-01,1.953462e+00,7.675885e-01,-4.780209e+00,3.501619e-01,-2.974555e-01,8.198319e-01,9.439406e-01,6.725468e-01,1.634539e-03,7.025239e-01,3.581487e-01,2.215376e+00,5.976834e-01,4.169548e-01,-3.290501e+00,-3.721523e-01,-1.962311e-01,-7.690375e-01,-2.172278e+00,1.246671e-01,8.080375e-01,-1.997353e+00,1.915811e+00,1.674326e-01,2.707548e-01,
1.015228e-01,4.805085e-02,-5.317820e-01,-3.812465e-03,1.464809e-01,1.293280e-01,2.360466e-02,-9.570539e-03,1.302342e-02,2.572176e-01,5.200746e-02,1.829544e-01,1.914312e-01,-5.638286e-01,-9.417255e-02,-6.511164e-03,6.613972e-02,-9.799930e-02,2.693631e-04,3.118909e-01,-9.246058e-02,5.895007e-01,-1.738206e-01,-1.531027e-01,4.101367e-01,-4.052921e-01,-1.234126e+00,-3.228024e-01,-2.927468e-02,-4.570028e-01,7.712333e-01,-1.838833e-03,2.861775e-01,-6.668496e-03,1.918753e-02,-1.996763e-01,-4.496642e-01,-5.379442e-02,-6.160743e-01,6.497929e-02,-8.391415e-03,1.434922e-01,-3.077146e-01,2.872274e-01,2.177673e-02,2.758523e-01,2.999290e-01,9.493408e-02,-5.724725e-01,1.538445e-01,
-3.299481e-01,7.313117e-01,1.080577e-01,1.936540e-01,-3.303445e+00,-1.646135e-01,-6.483322e-01,2.124838e-01,1.517735e-01,8.132594e-01,-1.030130e+00,-1.409220e-01,1.575769e-01,4.272774e-01,-5.677979e-01,-2.677161e-01,9.224464e-01,-6.689503e-01,1.891991e-02,-6.608045e-01,-5.166931e-04,-1.124276e+00,-6.135595e-03,-7.527989e-01,7.472702e-01,4.941924e-01,1.941261e-01,1.449113e+00,-9.103987e-02,1.768188e-01,-2.322428e+00,-1.067087e-01,1.085043e+00,3.102233e-01,-3.729286e-01,-4.034787e-01,-1.099513e+00,-1.625176e-01,2.364392e+00,1.745767e+00,-5.738688e-01,-4.939751e-01,2.724669e-01,-5.850508e-03,1.091168e+00,-1.585147e-01,-5.535198e-01,6.809234e-02,9.874969e-01,-2.374250e-01,
-3.556530e-01,-1.059724e+00,-4.570285e-01,-5.336253e-03,5.404179e-02,5.996668e-01,1.216636e+00,-6.344602e-01,2.459556e-01,-1.752125e-01,1.381693e+00,-1.506313e-01,-2.335009e-01,-1.355935e-03,-2.073060e-01,5.762427e-01,-5.403496e-02,-5.440527e-03,-1.047713e-02,-3.163891e-01,-5.120602e-03,-3.723662e-01,-9.045071e-01,6.175359e-01,3.824098e-05,6.285891e-01,-8.570900e-02,1.444433e+00,5.745864e-02,2.819578e-01,-2.015275e-01,-4.563527e-01,5.279977e-01,2.424847e-01,3.960929e-01,1.096178e-01,-1.759512e-01,1.502145e-01,2.432490e-01,9.501950e-01,-5.523294e-01,-2.484813e-01,-9.573357e-02,-3.213089e-01,3.623804e-03,-5.583832e-01,1.535974e-01,-4.335780e-01,-5.574876e-02,1.723862e-01,
-1.148960e-01,3.790430e-01,6.653804e-01,-4.500047e-03,-5.079388e+00,-4.190266e-01,-1.487642e+00,2.024748e-02,8.047377e-01,-2.331835e-01,1.716689e+00,-5.760522e-01,4.132074e-01,1.507048e+00,-1.178172e+00,-4.912430e-01,-7.786042e-02,-1.575685e-01,-2.449157e-02,5.990399e-02,1.329445e-02,-1.591722e+00,3.811100e-02,-1.835492e+00,-2.522264e-01,-9.147090e-05,-1.634341e+00,1.253185e+00,-3.491738e-01,3.582689e-01,-2.397608e+00,4.561158e-01,6.079152e-01,7.149071e-01,-2.643120e-01,-8.993556e-01,-2.216140e+00,-4.535159e-01,9.655814e-01,-3.938278e-01,-3.644492e-01,4.013083e-01,-3.565837e-01,4.632400e-01,-2.070701e+00,-2.992374e-02,9.508659e-01,-6.070873e-01,-7.202656e-01,-5.619091e-03,
-6.140223e-01,-5.067085e+00,1.024726e+00,8.729215e-01,2.859888e-01,-5.286646e-01,-5.269457e-01,-6.162884e-01,-1.629806e+00,7.256037e-02,6.188553e-01,-1.585036e-01,-8.964660e-01,1.287778e+00,-8.802749e-01,7.280247e-01,-6.001298e-01,5.401471e-02,-1.311749e-03,4.375267e-02,3.798556e-01,3.170272e-01,-9.244806e+00,3.844168e+00,3.367642e-01,9.644131e-02,1.511994e+00,2.057125e+00,-4.553784e-01,-1.235402e+00,2.672646e+00,-1.085881e+00,2.145365e-01,2.988563e-01,-6.930346e-01,-7.671366e-01,3.228030e-04,1.076118e-01,-2.034890e-01,1.957706e+00,5.751590e-01,8.264844e-01,-3.826454e-01,-9.092119e-01,4.514344e-01,6.844952e-01,-4.536661e-01,-1.413637e+00,-6.256785e-01,2.433388e-01,
-3.368800e-01,-7.251837e-01,9.993238e-01,5.420395e-01,-3.565147e-01,-1.119535e-01,-1.543065e+00,-2.338935e-01,-3.406543e-01,-4.596325e-03,-7.228201e-03,1.378744e-01,-2.104038e-01,5.017702e-01,1.760437e-01,-3.714448e-01,-7.096285e-03,-2.377850e-01,9.978035e-04,-3.950849e-03,1.476490e-01,2.550313e-01,-6.287478e-01,7.668388e-02,-3.917783e-01,-9.002862e-03,4.221857e-01,8.403327e-01,4.993408e-01,-7.564681e-03,1.504077e-01,-2.488677e-02,-1.135833e-02,-2.951508e-01,-8.881759e-03,8.574780e-02,-2.111050e-01,3.695152e-01,3.999050e-02,-1.036081e-04,1.728172e-01,-7.421908e-03,1.400326e-01,-5.524125e-03,8.513951e-03,3.988958e-01,-8.300204e-04,2.286981e-01,7.142311e-01,5.681717e-01,
4.206832e-03,-6.180594e-01,-4.894684e-01,8.586437e-02,2.176396e-01,-2.511761e-01,-5.903190e-01,-4.695889e-01,3.547160e-01,-2.798427e-03,2.549623e-01,2.077375e-01,-4.650723e-01,3.297610e-01,1.907353e-01,9.413858e-01,1.748493e-01,-5.136331e-01,1.232168e-02,4.113583e-01,-2.279185e-01,-6.613642e-01,1.237572e+00,-1.268542e+00,-3.910894e-01,-3.736168e-01,-3.334550e-01,-3.220268e-01,1.995132e-01,4.194479e-01,-8.377506e-01,5.639792e-02,-5.926155e-01,-2.609387e-02,2.597930e-01,7.912938e-03,-7.542173e-01,2.142678e-01,1.543774e+00,2.025357e+00,5.563466e-02,1.514571e-01,1.308424e-01,-3.434087e-01,2.583188e-02,-2.895866e-01,-3.181403e-01,6.418447e-01,4.595928e-01,4.578325e-01,
-6.725971e-01,-1.255241e+00,-3.643632e-01,-4.412240e-01,-6.891739e-01,-1.688079e+00,6.190908e-01,3.667314e-01,-2.959983e-01,1.842437e-01,1.494113e-01,-9.870591e-01,-1.842720e+00,7.350482e-01,-2.107916e-01,8.259445e-02,-2.565707e-01,-9.441290e-03,1.540043e-02,2.093086e-01,-6.719636e-01,1.105759e-01,-7.472339e-01,-6.811672e-01,1.080831e-01,1.234390e+00,9.244964e-01,-2.628686e+00,-3.122604e-01,4.069137e+00,-8.001975e-01,-1.745556e-01,1.585688e-01,-4.745136e-01,-1.285632e-02,1.205605e-02,9.080345e-01,-2.939787e+00,1.211775e-01,-1.497289e+00,-1.603873e+00,6.857990e-03,-6.891559e-01,-2.224999e-01,-3.056642e-01,1.014975e+00,-7.320705e-01,-2.140897e-01,2.362912e-01,9.374180e-02,
-1.146600e-01,-9.589435e-03,-7.298642e-02,-1.464385e-01,-2.606373e-01,-1.698550e+00,7.293931e-01,-1.672647e-01,-3.471374e-03,-2.376632e-01,-5.655599e-01,-1.933438e-03,-9.086800e-03,-2.300933e+00,-4.114819e-01,1.505435e-02,1.307424e-01,-1.079980e-01,-9.652386e-03,2.100664e-01,8.068685e-02,7.646964e-03,1.148315e-01,4.578607e-01,-8.704719e-01,-4.532129e-02,-5.376799e-01,-1.280276e-01,6.046695e-01,3.922800e-01,5.709204e-01,5.570616e-03,-7.925097e-01,3.583847e-01,2.363924e-01,-2.687909e-01,5.209238e-01,-6.552809e-01,2.198130e-01,-7.838579e-01,-4.249157e-02,-1.080418e-02,-2.152857e-01,-2.976871e-01,-4.260000e-01,1.132460e+00,2.235923e-01,-6.177770e-01,4.614704e-01,-2.849040e-02,
-4.285727e-01,-9.505079e-01,2.489671e-01,1.967932e-01,-2.966398e-01,-1.237411e+00,-2.190377e-01,-9.357040e-01,6.149926e-01,4.956356e-01,2.378832e-01,2.951845e-01,1.203086e+00,1.123903e-01,5.633548e-02,-8.576253e-01,4.493544e-01,-1.399916e+00,-2.870074e-03,2.246999e-01,1.306853e+00,-1.044666e+00,-2.923899e+00,1.681171e+00,9.623239e-01,-1.818703e+00,5.773076e-01,4.379750e-01,-1.049862e+00,-3.850884e+00,2.998776e-01,-9.169886e-01,-5.723906e-01,-2.616411e-01,-4.791395e-01,6.060249e-01,-9.273248e-01,-1.102334e+00,-3.831676e+00,8.350005e-01,-5.989474e-01,8.236627e-01,1.247824e-01,5.360753e-01,4.338408e-01,-1.728025e+00,-1.281970e-01,1.277830e+00,-5.754676e-01,-1.975817e-01,
-3.294711e-02,-7.453890e-01,-2.930701e-01,4.251394e-01,-6.428061e-01,2.035335e-01,-2.817641e-01,-3.929433e-01,-2.220055e-01,-5.044953e-01,-8.281684e-03,-8.058799e-02,-5.906180e-01,7.199761e-01,-2.606706e-01,2.696470e-02,2.421123e-02,-3.725027e-01,1.191872e-02,1.099788e-01,2.784220e-01,-2.845232e-01,6.372739e-02,-9.952853e-01,-3.674397e-01,3.792481e-01,4.192492e-01,-2.441735e-01,2.134369e-01,-7.792556e-03,-6.218230e-01,-4.829804e-02,-4.787532e-01,-1.083786e-01,7.261076e-02,1.335946e-01,-7.123990e-03,-2.581963e-01,1.698520e-01,2.168944e-01,1.970614e-03,-7.428013e-02,6.048924e-02,4.453365e-01,-6.926402e-02,-4.613876e-01,-1.257873e-01,3.639720e-01,-1.611669e-01,-7.414772e-03,
-1.529381e-01,-4.575326e-03,-4.851254e+00,-1.053053e-01,5.357436e-02,-5.168189e-03,-1.875256e+00,8.710486e-01,-1.564783e+00,7.996619e-01,-2.417993e+00,-1.960435e-02,-2.321669e+00,9.244291e-01,-9.237320e-01,-2.205969e+00,2.213061e-02,-1.872808e+00,-7.315984e-03,-8.275089e-03,-1.799737e+00,-9.254067e-03,-6.585885e+00,-7.846732e-01,2.565731e-01,2.146517e+00,-1.031354e-02,-1.433650e+00,-6.485180e-01,-5.378526e+00,2.287932e+00,-4.727172e-01,7.640919e-01,1.123779e+00,-5.128796e-02,-4.510531e-01,-3.484124e+00,-1.715558e+00,-9.601274e-03,-2.532207e+00,3.926282e-01,-2.636498e-01,1.547046e-01,2.934709e-01,8.589341e-01,7.907394e-01,1.728727e-01,-1.940203e+00,8.437312e-01,-1.072633e+00,
-4.871046e-01,-4.482380e-01,-4.090865e-01,6.109957e-01,-4.206426e-01,-2.334152e-02,4.220321e-02,4.002694e-01,6.086975e-02,-1.525895e-01,1.433757e+00,-5.056196e-01,3.229030e-02,4.293502e-01,-7.988340e-03,1.036517e-01,-1.379972e-01,-2.531129e-01,-8.523233e-03,1.286403e-01,1.036912e+00,-5.826145e-01,-7.553173e-01,-1.188727e+00,-2.654840e-02,8.623447e-01,3.923385e-01,1.223358e+00,7.508586e-02,4.461036e-01,-5.248334e-03,1.457882e-01,2.039221e-01,3.586204e-01,6.199749e-01,2.137340e-01,3.033992e-01,-2.306194e-01,2.530401e-01,4.473893e-01,-1.740055e-01,-6.638948e-01,-1.918547e-01,-1.394730e-01,-6.748795e-01,-1.644256e-01,-3.450855e-04,-5.719485e-01,-5.723000e-02,-4.786780e-02,
-1.966691e-01,7.521263e-02,6.133776e-01,-9.712995e-01,-1.377596e+00,-9.236590e-04,-8.526453e-03,-1.042858e+00,4.171256e-02,3.663043e-01,2.106645e-01,-2.456844e-01,-4.382052e-02,1.455176e+00,1.059307e-01,-5.930229e-01,-2.904204e-02,6.531635e-01,-7.928009e-03,6.379291e-01,-2.263211e-01,1.318010e-01,1.669985e-01,-1.549983e+00,-1.140679e-01,1.354154e+00,1.726791e+00,3.551940e-01,6.855563e-01,-1.803511e-01,-4.927090e-01,5.114961e-01,4.540467e-01,-1.476144e+00,7.811324e-02,-3.606078e-01,9.828916e-01,-2.749813e-01,5.013105e-01,7.866266e-02,4.513379e-01,-3.742325e-01,1.078004e-02,-1.071240e+00,-6.151485e-03,4.596408e-01,-1.260211e+00,-4.530568e-01,-8.257251e-01,-1.381370e+00,
2.922062e-03,1.683848e+00,8.955719e-02,-4.432589e-01,-2.508473e-01,7.048077e-01,-1.744462e+00,-9.332641e-01,-5.039380e-02,-3.604796e-01,-4.626580e-01,1.614120e-01,-2.290137e-01,-2.458882e-01,1.571328e-01,7.931987e-02,-4.383673e-01,8.152806e-02,-8.966933e-03,9.001721e-01,2.517922e-01,-8.161411e-01,1.189970e+00,1.406948e-01,-9.978134e-01,-7.524302e-03,-1.355742e+00,-6.552284e-01,-9.881819e-01,1.064314e-01,-3.383112e+00,1.851915e-01,1.667259e-01,-1.060035e+00,5.473574e-01,-7.328603e-01,-7.449104e-01,1.365149e-02,-8.826161e-01,-9.500431e-02,4.661966e-01,2.097130e-01,6.591030e-01,1.533756e-01,-1.483430e-01,-2.440308e-01,1.569428e-01,3.261961e-01,-3.592964e-01,-2.695701e-01,
4.200344e-01,-5.778425e-01,-1.216904e-01,9.644741e-01,-9.390275e-01,-3.926730e-01,1.044406e+00,-5.192713e-01,-3.381580e-01,-1.322640e-01,-1.012363e-02,6.623962e-01,7.703767e-01,7.685618e-01,-2.289426e-01,-1.385242e+00,1.239602e-01,-2.407613e-01,-8.721191e-03,3.319139e-01,-9.482328e-01,9.919836e-02,-2.240045e-02,-8.000202e-01,-2.179132e+00,7.641218e-01,1.749002e+00,-3.629154e-01,-4.641764e-01,3.785132e+00,-2.229430e+00,-8.911178e-02,-3.406871e+00,-1.076248e-01,-1.783965e-01,-9.102076e-02,1.005518e+00,-1.330828e-01,-6.824303e-03,-1.199970e+00,-9.085540e-02,-2.573533e-01,3.636076e-01,1.468859e+00,1.107690e+00,4.401975e-01,2.233000e-01,1.323902e+00,7.320585e-02,-3.587165e-01,
-3.521045e-01,-3.246310e+00,-4.635530e-01,4.327669e-01,-6.793465e-02,2.017662e-01,-5.975133e-01,-1.216097e+00,-3.765949e-01,1.038465e-01,1.297946e+00,-1.632187e-01,-2.128294e-01,8.341466e-01,-1.665934e-01,2.001430e-02,-6.698247e-02,2.183705e-01,-2.870523e-02,6.899103e-02,4.915330e-01,-3.930004e-01,-1.972324e+00,1.045285e+00,2.512273e-02,1.060791e+00,1.321609e-01,-3.241289e+00,-8.347154e-02,2.690987e-01,3.617392e-01,-1.209351e-01,1.102287e-01,-2.467650e-02,2.387628e-01,-1.327895e-01,5.986710e-01,6.086096e-01,3.578824e-01,-2.497438e-01,-1.461960e-01,-4.826978e-01,1.554058e-01,-7.022666e-01,1.573871e-02,-1.380477e-01,-4.625048e-04,5.924467e-02,-2.420742e-01,1.224137e-01,
-5.806347e-01,2.577502e-01,-6.513523e-01,8.557755e-01,-8.595301e-01,5.615794e-01,5.900951e-03,-8.974100e-04,5.730470e-01,-2.572751e-01,4.234810e-01,5.204419e-01,-1.857429e-01,1.608205e+00,-7.311769e-01,-5.323365e-02,2.099259e-01,2.210378e-01,-8.542896e-03,1.900641e-01,-8.236454e-02,-4.468828e-03,-2.007285e+00,-5.256720e-01,-1.348757e-01,5.645674e-01,8.700038e-02,3.354606e-03,5.260153e-02,-8.618897e-01,-8.514441e-03,-2.863767e-01,-7.562676e-02,-2.244447e-01,4.181290e-02,5.929931e-02,6.312932e-01,-8.846922e-01,1.546750e-01,-2.405913e+00,-6.127371e-01,-5.948446e-01,-9.572952e-03,-6.626888e-02,-1.995680e-01,-5.461856e-02,7.315254e-02,-7.229753e-03,-4.053641e-01,-3.044653e-01,
